FANN_FLO_2.1
num_layers=3
learning_rate=0.700000
connection_rate=1.000000
network_type=0
learning_momentum=0.000000
training_algorithm=2
train_error_function=1
train_stop_function=0
cascade_output_change_fraction=0.010000
quickprop_decay=-0.000100
quickprop_mu=1.750000
rprop_increase_factor=1.200000
rprop_decrease_factor=0.500000
rprop_delta_min=0.000000
rprop_delta_max=50.000000
rprop_delta_zero=0.100000
cascade_output_stagnation_epochs=12
cascade_candidate_change_fraction=0.010000
cascade_candidate_stagnation_epochs=12
cascade_max_out_epochs=150
cascade_max_cand_epochs=150
cascade_num_candidate_groups=2
bit_fail_limit=3.49999999999999977796e-01
cascade_candidate_limit=1.00000000000000000000e+03
cascade_weight_multiplier=4.00000000000000022204e-01
cascade_activation_functions_count=10
cascade_activation_functions=3 5 7 8 10 11 14 15 16 17 
cascade_activation_steepnesses_count=4
cascade_activation_steepnesses=2.50000000000000000000e-01 5.00000000000000000000e-01 7.50000000000000000000e-01 1.00000000000000000000e+00 
layer_sizes=9 4 2 
scale_included=0
neurons (num_inputs, activation_function, activation_steepness)=(0, 0, 0.00000000000000000000e+00) (0, 0, 0.00000000000000000000e+00) (0, 0, 0.00000000000000000000e+00) (0, 0, 0.00000000000000000000e+00) (0, 0, 0.00000000000000000000e+00) (0, 0, 0.00000000000000000000e+00) (0, 0, 0.00000000000000000000e+00) (0, 0, 0.00000000000000000000e+00) (0, 0, 0.00000000000000000000e+00) (9, 6, 5.00000000000000000000e-01) (9, 6, 5.00000000000000000000e-01) (9, 6, 5.00000000000000000000e-01) (0, 6, 0.00000000000000000000e+00) (4, 0, 5.00000000000000000000e-01) (0, 0, 0.00000000000000000000e+00) 
connections (connected_to_neuron, weight)=(0, -1.50000000000000000000e+03) (1, 2.06000863247091592356e+00) (2, 2.46990772174123407456e-01) (3, -6.01216374274633658104e+00) (4, -3.03360627344684996576e-01) (5, 5.74715341537452406584e-01) (6, 1.62623780559216712938e+00) (7, 1.02576657869480183938e-01) (8, 6.62904425668679664341e+00) (0, -1.50000000000000000000e+03) (1, 2.78593505256396756220e-01) (2, 4.96797290633672672389e-01) (3, -1.86367576421673952769e-01) (4, 2.85236326126829631278e+00) (5, -2.36888079664325373885e-01) (6, 3.78229811002694427113e-01) (7, -6.22606908071659193027e-01) (8, -1.35043782067125506252e+00) (0, 1.50000000000000000000e+03) (1, 1.77326647289434702337e+00) (2, 1.14017147689917619502e+00) (3, -1.55440263600624977158e+01) (4, -9.49174698502265101752e-01) (5, 1.74776698283107623233e+00) (6, 3.91812451158182506461e+00) (7, 2.07924162034433956947e+00) (8, 9.28059870298240063846e+00) (9, 2.71007186905547148292e-01) (10, 1.20014328502998507409e-01) (11, -5.18298818036726727243e-01) (12, 2.09091085382910293333e+01) 
