FANN_FLO_2.1
num_layers=3
learning_rate=0.700000
connection_rate=1.000000
network_type=0
learning_momentum=0.000000
training_algorithm=2
train_error_function=1
train_stop_function=0
cascade_output_change_fraction=0.010000
quickprop_decay=-0.000100
quickprop_mu=1.750000
rprop_increase_factor=1.200000
rprop_decrease_factor=0.500000
rprop_delta_min=0.000000
rprop_delta_max=50.000000
rprop_delta_zero=0.100000
cascade_output_stagnation_epochs=12
cascade_candidate_change_fraction=0.010000
cascade_candidate_stagnation_epochs=12
cascade_max_out_epochs=150
cascade_max_cand_epochs=150
cascade_num_candidate_groups=2
bit_fail_limit=3.49999999999999980000e-001
cascade_candidate_limit=1.00000000000000000000e+003
cascade_weight_multiplier=4.00000000000000020000e-001
cascade_activation_functions_count=10
cascade_activation_functions=3 5 7 8 10 11 14 15 16 17 
cascade_activation_steepnesses_count=4
cascade_activation_steepnesses=2.50000000000000000000e-001 5.00000000000000000000e-001 7.50000000000000000000e-001 1.00000000000000000000e+000 
layer_sizes=9 41 6 
scale_included=0
neurons (num_inputs, activation_function, activation_steepness)=(0, 0, 0.00000000000000000000e+000) (0, 0, 0.00000000000000000000e+000) (0, 0, 0.00000000000000000000e+000) (0, 0, 0.00000000000000000000e+000) (0, 0, 0.00000000000000000000e+000) (0, 0, 0.00000000000000000000e+000) (0, 0, 0.00000000000000000000e+000) (0, 0, 0.00000000000000000000e+000) (0, 0, 0.00000000000000000000e+000) (9, 6, 5.00000000000000000000e-001) (9, 6, 5.00000000000000000000e-001) (9, 6, 5.00000000000000000000e-001) (9, 6, 5.00000000000000000000e-001) (9, 6, 5.00000000000000000000e-001) (9, 6, 5.00000000000000000000e-001) (9, 6, 5.00000000000000000000e-001) (9, 6, 5.00000000000000000000e-001) (9, 6, 5.00000000000000000000e-001) (9, 6, 5.00000000000000000000e-001) (9, 6, 5.00000000000000000000e-001) (9, 6, 5.00000000000000000000e-001) (9, 6, 5.00000000000000000000e-001) (9, 6, 5.00000000000000000000e-001) (9, 6, 5.00000000000000000000e-001) (9, 6, 5.00000000000000000000e-001) (9, 6, 5.00000000000000000000e-001) (9, 6, 5.00000000000000000000e-001) (9, 6, 5.00000000000000000000e-001) (9, 6, 5.00000000000000000000e-001) (9, 6, 5.00000000000000000000e-001) (9, 6, 5.00000000000000000000e-001) (9, 6, 5.00000000000000000000e-001) (9, 6, 5.00000000000000000000e-001) (9, 6, 5.00000000000000000000e-001) (9, 6, 5.00000000000000000000e-001) (9, 6, 5.00000000000000000000e-001) (9, 6, 5.00000000000000000000e-001) (9, 6, 5.00000000000000000000e-001) (9, 6, 5.00000000000000000000e-001) (9, 6, 5.00000000000000000000e-001) (9, 6, 5.00000000000000000000e-001) (9, 6, 5.00000000000000000000e-001) (9, 6, 5.00000000000000000000e-001) (9, 6, 5.00000000000000000000e-001) (9, 6, 5.00000000000000000000e-001) (9, 6, 5.00000000000000000000e-001) (9, 6, 5.00000000000000000000e-001) (9, 6, 5.00000000000000000000e-001) (9, 6, 5.00000000000000000000e-001) (0, 6, 0.00000000000000000000e+000) (41, 6, 5.00000000000000000000e-001) (41, 6, 5.00000000000000000000e-001) (41, 6, 5.00000000000000000000e-001) (41, 6, 5.00000000000000000000e-001) (41, 6, 5.00000000000000000000e-001) (0, 6, 0.00000000000000000000e+000) 
connections (connected_to_neuron, weight)=(0, 2.26536416126958850000e-001) (1, 4.29611073276940370000e-001) (2, 2.59911809034434500000e-001) (3, -2.67734431628438460000e-001) (4, 2.05298360854953730000e-001) (5, -2.80455446912636350000e-001) (6, 1.74216339111142090000e-001) (7, -2.41552390296657270000e-002) (8, 2.74258392038713880000e-001) (0, 7.75780613133194440000e-002) (1, -1.00656373890432690000e-001) (2, 2.24776005690250660000e-001) (3, 1.24723184087570240000e-001) (4, 5.04366592163754010000e-001) (5, -8.47640546367898480000e-002) (6, 3.86869847952315050000e-001) (7, 9.60612685156004510000e-001) (8, 3.56043831017605950000e-001) (0, 8.10096019256412500000e-001) (1, 1.32509643612011540000e+001) (2, 2.83334823056256500000e+000) (3, -6.24577108751462690000e+001) (4, -5.21331790424683120000e+000) (5, 2.86587801346906730000e+001) (6, 3.25274551882844700000e+001) (7, 1.68371975023467080000e+001) (8, 8.66240820524550650000e-001) (0, 7.77521542949311390000e-002) (1, 3.57305845126401230000e-001) (2, 8.30233618882801060000e-002) (3, 1.55793359804245080000e-001) (4, 4.30186564807688020000e-001) (5, 7.62059422559064890000e-002) (6, 5.44914025458304470000e-001) (7, 4.23517077737290860000e-001) (8, 2.99581517576356820000e-001) (0, -1.99910839510528270000e-001) (1, 6.05238126926399560000e-001) (2, 1.43640687782573620000e+000) (3, 2.70483292912681920000e-001) (4, 2.74196749501097010000e-002) (5, 5.25780383074205060000e-002) (6, 1.87223307962147090000e-001) (7, -1.99747497232521960000e+000) (8, -1.78953936503787710000e-002) (0, 9.24830764244669030000e-002) (1, 4.24475804768467300000e-001) (2, 7.55145261489650330000e-002) (3, 4.33616561543028860000e-001) (4, 3.82521652142190580000e-001) (5, 4.25993389386214780000e-001) (6, 5.69671675935162550000e-001) (7, 6.27010884205366100000e-001) (8, 3.72453591872419220000e-001) (0, 1.03358130528136040000e+001) (1, -1.15391256972793600000e+001) (2, 2.51321885841899120000e+000) (3, -9.23916421556946870000e+000) (4, 9.19967923859667640000e+000) (5, -1.03928322001543980000e+001) (6, 3.63480020520012200000e-002) (7, 5.30078240591909910000e+000) (8, 4.26231728471744730000e-001) (0, -4.04027189012131360000e-001) (1, -1.01773207793060010000e+000) (2, 1.56120915584811790000e+001) (3, 1.27090792155510640000e+001) (4, -6.64279760633000470000e+000) (5, -4.55576019963963840000e+000) (6, -1.58299977489410410000e+001) (7, 1.76379734825584330000e+001) (8, 4.18345001057102480000e-001) (0, 6.16867995643003320000e-001) (1, -1.45124298410745710000e+001) (2, -3.42401944887876560000e-001) (3, 9.64037211569142550000e+000) (4, 2.70273874445653920000e+001) (5, -1.82301692951835430000e+001) (6, 2.02767097244623360000e+001) (7, -1.13760808948370220000e+001) (8, 5.60479280723884870000e-001) (0, 4.18022250151021010000e-001) (1, 4.20258775314869380000e-001) (2, 1.24046462470665290000e+000) (3, -3.39260285531476090000e+000) (4, 1.21860122876527900000e+000) (5, -5.02503515573026640000e-001) (6, 9.07524800397919500000e-001) (7, -5.62077919722973540000e+000) (8, -1.71073550276220810000e-001) (0, -1.17609220810697930000e+000) (1, 7.34267685036334660000e-001) (2, -3.35555369295809590000e-001) (3, 2.29567103285598860000e+000) (4, -5.65374093994651170000e+000) (5, -3.34633150723228210000e+000) (6, 2.81872211844775580000e+000) (7, 9.93997900468307160000e-001) (8, 3.55333877126719900000e-002) (0, 2.29609791962519430000e-001) (1, 4.61027268047880450000e-002) (2, 6.02273933941596500000e-003) (3, -2.60317340805329310000e-001) (4, -3.19458868037597710000e-001) (5, -3.32755356593725850000e-001) (6, 1.20662957191565620000e-002) (7, 5.03092341886644870000e-001) (8, -1.13057857287543250000e-001) (0, 4.66579132913393480000e+001) (1, 2.95108700473711780000e+001) (2, -1.55404255799800520000e+002) (3, 1.32735093713631610000e+002) (4, 1.59184550834424470000e+002) (5, -3.38297239437509290000e+002) (6, 7.56488330310389900000e+001) (7, 1.07226033334115170000e+002) (8, 2.54711161054916340000e+000) (0, 1.96097530880983860000e-001) (1, 7.06921661094630840000e-001) (2, 1.64031197310614980000e+001) (3, 4.42664998635091610000e+001) (4, -1.91995497660021090000e+000) (5, -4.08092842350499940000e+001) (6, 2.26324406879107220000e+000) (7, -4.80594858324046800000e-001) (8, 7.66358410017233260000e-001) (0, -4.14556023247512690000e-002) (1, 2.86026444396171420000e-001) (2, 2.02950476032132090000e-001) (3, 7.54495636085916970000e-001) (4, 5.51862219524286710000e-001) (5, 7.70036538088621490000e-001) (6, 5.62334975052432130000e-001) (7, 4.80054426189851280000e-001) (8, 2.92182378304300330000e-001) (0, -5.18747236683120140000e-002) (1, -8.70062839703337640000e-001) (2, 4.43952051363067700000e-001) (3, 1.21066994000306210000e-001) (4, 5.22452959532522240000e-001) (5, -1.59416473881247600000e+000) (6, -1.09511886447117580000e+000) (7, -7.05023104151171910000e-003) (8, 8.88204222724702650000e-002) (0, -7.84312997770249760000e-001) (1, 4.49642391564378570000e+000) (2, -1.77654940695992770000e+000) (3, -4.80874645806461700000e+001) (4, 2.02350027042793950000e+001) (5, 1.25824967185917740000e+001) (6, 3.87630529500184980000e+001) (7, -7.25277191762914520000e+000) (8, 3.88033813071035400000e-001) (0, -6.31173937706806300000e-001) (1, -1.46369895876003120000e-002) (2, -3.84112211255235040000e-001) (3, -2.09303127041773950000e-001) (4, -1.97085425959049680000e-001) (5, 1.48656500649539420000e-001) (6, 2.52588184447020800000e-001) (7, -5.81092961298579900000e-001) (8, 6.14174275125332140000e-002) (0, 2.03282240358157970000e-002) (1, 5.14801232898294270000e-001) (2, 7.14384115537807090000e-002) (3, 1.98970071742576640000e-001) (4, 4.00859334299368930000e-001) (5, -5.89035421676983080000e-003) (6, 5.33448247913874130000e-001) (7, 1.29960232016437170000e-001) (8, 3.53925737618782380000e-001) (0, 1.33187358035431050000e-001) (1, -1.45909848958438590000e+000) (2, -9.56350899387112640000e+000) (3, 2.72181820817743250000e+000) (4, 3.75840237138239970000e+000) (5, -1.03184305654296860000e+000) (6, 1.20819021951765960000e-001) (7, 7.53093501884794580000e+000) (8, 7.80739036572072750000e-002) (0, -4.53015261416711290000e+000) (1, 1.51724240070597770000e+000) (2, 1.18533161226263120000e+000) (3, -1.44257045046391720000e+000) (4, -1.09732462879441980000e+000) (5, -1.76044029363162370000e+000) (6, -4.92577380708128040000e+000) (7, -7.35448314130634080000e-002) (8, -1.81732939349739030000e-001) (0, 2.53246922665056350000e+000) (1, 5.93549453389847240000e+000) (2, -1.13145986887715500000e+001) (3, 1.33638135384267060000e+001) (4, -9.95666059335631460000e+000) (5, -2.14520512892742810000e+000) (6, 2.95396066875852050000e+000) (7, 6.97398403970352470000e+000) (8, 2.41134552731909590000e-001) (0, 4.11029297787902650000e-002) (1, -1.12980738108247450000e-001) (2, 3.49159127953525990000e-001) (3, 2.68250748298097860000e-001) (4, 4.68804726159659460000e-001) (5, 1.96282809746764850000e-001) (6, 5.60512928814979940000e-001) (7, 6.42805944403385010000e-001) (8, 3.00458207560658500000e-001) (0, 7.58759894923191070000e+000) (1, -2.82187149096100360000e+001) (2, 2.15062082323292030000e-002) (3, 1.74874039994585110000e+001) (4, 1.83527997473909180000e+001) (5, -2.02146609492366700000e+001) (6, 2.37558634491952470000e+000) (7, 3.77083867924086820000e+001) (8, 6.61335741124226880000e-001) (0, 1.21961247401103310000e-001) (1, 2.19876723487029660000e-001) (2, 2.10128935601540670000e-001) (3, 1.31708492397964010000e-001) (4, 4.63809201349905610000e-001) (5, 4.23897809889821130000e-002) (6, 4.13906943449139640000e-001) (7, 4.29590448445026970000e-001) (8, 3.19084459383617620000e-001) (0, 5.22990382165249080000e-002) (1, 5.81838915450027970000e-001) (2, -4.55187563908963570000e-002) (3, 6.32107641559051300000e-001) (4, 5.51705442298502270000e-001) (5, 4.06100184861491520000e-001) (6, 6.96614657955790470000e-001) (7, 4.51525125591335060000e-001) (8, 3.41050227039749960000e-001) (0, 4.13743798529878360000e-002) (1, 2.14753502277913010000e-001) (2, 6.03151993906852690000e-002) (3, 3.36241160084150500000e-001) (4, 5.54440945739548500000e-001) (5, 1.52556568266278250000e-001) (6, 4.80527975331776490000e-001) (7, 7.99778232904099220000e-001) (8, 3.72570845267819970000e-001) (0, -1.10683787464707640000e+000) (1, 4.06701928105375200000e+000) (2, -1.13991363418838470000e+000) (3, 1.73330614480898350000e+000) (4, -3.97663009782704260000e+000) (5, -4.84581373371707540000e-001) (6, 1.09005667772982610000e+001) (7, -2.58139339352437200000e+000) (8, -1.21999870763477820000e-001) (0, -3.52734141981479340000e-001) (1, 1.34427705132789840000e-001) (2, 6.60333684661840170000e-002) (3, -8.38840117266562990000e-002) (4, -2.15150116885767430000e-001) (5, -1.38464448283388500000e-001) (6, 3.68996389281602110000e-001) (7, -9.84064993326533020000e-002) (8, -8.53460207492491430000e-002) (0, 2.50648848169736300000e-002) (1, 1.44705936800525490000e-001) (2, 2.50863542101498300000e-001) (3, 5.15904632162276000000e-001) (4, 5.26127797520546390000e-001) (5, 3.71303253231089760000e-001) (6, 6.01513409430148860000e-001) (7, 2.50350498396248620000e-001) (8, 2.99558282417487500000e-001) (0, 2.82197317066347970000e-002) (1, -6.45275222524482000000e-001) (2, 5.34824887531112460000e-001) (3, 1.25085086500592760000e+000) (4, 3.31151158468791510000e-001) (5, -2.47995876926565940000e-001) (6, -5.53432932092433050000e-001) (7, 1.73950904691243860000e+000) (8, 3.00146091191629270000e-002) (0, 8.88471548007779420000e-002) (1, 5.77019062482383550000e-001) (2, -1.73428689953657800000e-002) (3, 4.23796933873336890000e-001) (4, 4.10483754629306360000e-001) (5, 2.54915445578054290000e-001) (6, 5.63231670945365190000e-001) (7, 3.06340378130518400000e-001) (8, 3.19220033729039340000e-001) (0, -5.04358117522192280000e-001) (1, 3.93869942877049080000e+000) (2, 2.03901987744610390000e+000) (3, 7.64877721053363270000e-001) (4, -7.93189689502629850000e+000) (5, -4.24651569582630390000e-001) (6, 5.75265153727689960000e+000) (7, 1.90385224288792500000e+000) (8, -1.93766432306487710000e-001) (0, 9.89411296726296910000e-002) (1, 6.30974432002322170000e-001) (2, -2.49366563281636230000e-002) (3, 8.79579408461727330000e-001) (4, 4.42422002543566730000e-001) (5, 6.15964289749765470000e-001) (6, 6.26120999857064380000e-001) (7, 5.38483074428749210000e-001) (8, 3.13772963456938840000e-001) (0, 2.39848053619779120000e+001) (1, 1.50874244928344940000e+001) (2, 6.40508148874533050000e+000) (3, -2.27362957262720990000e-001) (4, -5.39003779587995310000e+001) (5, 2.80746193979349140000e+001) (6, 1.81013899496460610000e+000) (7, 9.65325874632794510000e-001) (8, 2.71256074305496140000e+000) (0, -2.45550834115069440000e+000) (1, -2.92462296672855530000e+000) (2, -7.46584386235999430000e-001) (3, -4.53971803329986390000e+000) (4, -2.36429239360622970000e+000) (5, 1.04092790412626110000e+001) (6, 1.86057488143972760000e+000) (7, 1.83652102888475430000e+001) (8, 5.97834636329191080000e-002) (0, -3.98855116541535700000e-002) (1, -1.60789615669720830000e-002) (2, 6.90221121995022610000e-001) (3, 2.60906068649096180000e+000) (4, 9.70822333143616540000e-001) (5, 5.90996605742243370000e+000) (6, 1.43621086604514800000e+000) (7, 3.89029097473688970000e-001) (8, 3.05825729486721990000e-001) (0, 1.74673711324776050000e-001) (1, 6.53686064272495320000e-001) (2, 4.15193747869366870000e-002) (3, 4.59371507654138640000e-001) (4, 3.83810423477709830000e-001) (5, 3.71474864097625530000e-001) (6, 4.72667824864105970000e-001) (7, 3.05932542315044350000e-001) (8, 2.97200821979320300000e-001) (0, -2.17356153280774370000e-001) (1, -9.68880708594388460000e-001) (2, 6.07199643094719300000e-001) (3, -2.28238012864953490000e+000) (4, 2.64798962021618320000e+000) (5, 1.97430895681457660000e+000) (6, 8.31558727447272990000e-002) (7, -1.96536542836676940000e+000) (8, -8.68564439083038130000e-002) (0, 5.00929069951603690000e-001) (1, -1.05215573098768590000e+000) (2, 4.57687452551596490000e-001) (3, 8.97612483264310370000e-002) (4, -7.79437196122799160000e-002) (5, 7.85289648584252650000e-001) (6, -2.18019404481882780000e-001) (7, -6.44165063040473610000e-001) (8, -3.09108326386135850000e-002) (9, 7.06325869065323190000e-002) (10, 1.64846046431010310000e-001) (11, 5.65443219799931170000e-001) (12, 2.16271894710749860000e-002) (13, 1.26488418422241320000e+000) (14, 4.26425901841063910000e-002) (15, 1.24767703975895180000e-001) (16, 1.21704845054699470000e+000) (17, 8.96673576535644170000e-001) (18, 1.86185398670104000000e+000) (19, -9.32733327626342870000e-001) (20, -7.75477199048871930000e+000) (21, -2.93706459586359040000e-002) (22, -7.81218322688095210000e-001) (23, 1.29257131475212420000e-001) (24, 5.14908003995841130000e+000) (25, -4.60097291939312980000e-001) (26, 1.75484034948008900000e+000) (27, 6.73587544587838510000e-002) (28, 2.78189940706975620000e+000) (29, 6.87391146221495220000e-001) (30, 4.40593901796043130000e-001) (31, 8.01490651738082090000e-002) (32, -1.30812357078033680000e-001) (33, 5.11937995751597100000e-002) (34, 1.54863348170892030000e-001) (35, 1.18689502499820990000e-001) (36, -6.20982367133485980000e-001) (37, 1.00325794725250380000e+000) (38, 1.10590288657394410000e-001) (39, 5.49383573423510740000e-001) (40, 9.53811953899963250000e-003) (41, 4.57493517922005740000e+000) (42, 5.66242849514971970000e-002) (43, -5.69575857666251090000e-002) (44, -1.32148537138765000000e+000) (45, 2.92275381670363930000e-001) (46, 3.29482796321622080000e-002) (47, 3.78146589909892230000e+000) (48, 1.87589424512712170000e+000) (49, 1.55190566825853920000e-001) (9, 3.19508815957646910000e-001) (10, 4.86892449696384790000e-001) (11, -8.56687034971049590000e-001) (12, 3.74505208683801440000e-001) (13, 5.13335253267249820000e-001) (14, 5.24810824325167120000e-001) (15, 2.51586320583044170000e-002) (16, -5.98005247081564880000e-001) (17, -6.55722543469674620000e-001) (18, 6.56243153096791040000e-001) (19, 1.51691260449225540000e+000) (20, 1.21835858158428860000e+001) (21, -9.15352919835405070000e-003) (22, 2.59236370876883890000e-001) (23, 7.23555657484161620000e-001) (24, -9.61919076389700420000e-001) (25, 8.23226568923968840000e-001) (26, 1.15884337855687810000e+000) (27, 4.34928803745669890000e-001) (28, -9.96279592940954920000e-001) (29, 7.01546627278064270000e-001) (30, 3.85826427988816890000e-001) (31, 4.65461302197372750000e-001) (32, 9.31617896309248070000e-002) (33, 3.13669655474583640000e-001) (34, 6.71470829613384780000e-001) (35, 4.89789252648679450000e-001) (36, -1.28519154171253640000e+000) (37, 9.09173029010794000000e-001) (38, 6.51960859789545880000e-001) (39, -1.19920870765755220000e+000) (40, 5.68397614304004150000e-001) (41, -1.44970155995607610000e+000) (42, 7.56777318186336310000e-001) (43, 1.45173029395911950000e-001) (44, 8.64605246035240690000e-001) (45, 8.38110489765609200000e-001) (46, 6.38372221967685500000e-001) (47, -7.45640564619445610000e-001) (48, 5.04696408527848580000e-001) (49, 4.15483597277060080000e-001) (9, 2.59199393655604680000e-001) (10, 2.96725954537994880000e-001) (11, -2.60096918810330150000e-001) (12, 4.12410539757197490000e-001) (13, 1.32975836820073990000e+000) (14, 3.39858808911235600000e-001) (15, 6.88434994045707850000e-001) (16, -2.00966318607583410000e+000) (17, -2.02583036712348200000e-001) (18, -5.03476767738869850000e-001) (19, -1.42843631936887780000e+000) (20, 6.70835904388918270000e-001) (21, -2.24712271896175680000e-001) (22, 6.27234249147374020000e-001) (23, 3.92769141759613640000e-001) (24, -9.68765770898893510000e-002) (25, 1.70513354970524240000e-002) (26, 6.35251654662091440000e-001) (27, 3.40895599557417490000e-001) (28, -2.23874923113331950000e+000) (29, 1.40268511385489750000e+000) (30, 4.89007417392423590000e-001) (31, 3.87065823103413700000e-001) (32, 1.25216630303381090000e-002) (33, 3.23879640136457980000e-001) (34, 3.87887112665660780000e-001) (35, 3.62794356926879720000e-001) (36, -1.47782420579433280000e-001) (37, 1.09902864465475500000e+000) (38, 2.97191223213740140000e-001) (39, 9.01803872534630790000e-001) (40, 3.38556675410242760000e-001) (41, -2.31291300700498770000e+000) (42, 3.20197680460194150000e-001) (43, 2.82270279683882670000e-002) (44, 1.38416371820652120000e+000) (45, 2.08939088744360960000e-001) (46, 3.41352274700274020000e-001) (47, -7.61858851218383220000e+000) (48, -2.30419557579619250000e+000) (49, 2.27905029302956920000e-001) (9, 7.04493375384798730000e-001) (10, 5.15041084682725030000e-001) (11, 5.58641054213830370000e-001) (12, 5.64237455345865670000e-001) (13, 1.40803495273829030000e+000) (14, 2.74035106463079160000e-001) (15, 5.83090880717406220000e-001) (16, 1.23719682233282960000e+000) (17, 9.07802961736957630000e-001) (18, 9.76604189051367830000e+000) (19, -7.88027288817173990000e-001) (20, -5.52162553960701440000e+000) (21, 1.02887079024297390000e-001) (22, -1.01767730158736570000e+000) (23, 2.18726860799827420000e-001) (24, 1.31406599714373610000e+000) (25, -1.20499076497232100000e+000) (26, -1.79790892894098330000e-001) (27, 5.33073924913836430000e-001) (28, 1.00841055732681490000e+000) (29, 1.91737921431889300000e+000) (30, 1.26786475123890160000e+000) (31, 4.95367313541544560000e-001) (32, -2.37046465992853780000e-002) (33, 6.58994540597024000000e-001) (34, 2.96725090686701440000e-001) (35, 4.36024946328832820000e-001) (36, 1.27773968640557740000e+000) (37, 8.12224666600929850000e-001) (38, 4.61996793721660410000e-001) (39, 1.02328416682027100000e+000) (40, 4.77596936267187910000e-001) (41, 2.71616639924463220000e-001) (42, 2.71201406895252020000e-001) (43, -3.58319618501042660000e-001) (44, 1.29438314436370020000e+000) (45, 4.17357823259226210000e-001) (46, 4.37508586199130800000e-001) (47, -1.53625388268951490000e+000) (48, 1.41783825043590110000e+000) (49, 5.56741484290022350000e-001) (9, 4.51994669434531700000e-001) (10, 4.41708816653307300000e-001) (11, -3.34837680818358190000e-001) (12, 5.15416679934395550000e-001) (13, 1.00326316209752010000e+000) (14, 6.53868048214872540000e-001) (15, 1.30385859399518030000e+000) (16, -5.35586806285819450000e-001) (17, 1.34319111986322760000e+000) (18, 6.09815484478627880000e-001) (19, 2.77345401153860750000e+000) (20, -2.82578787717417250000e+000) (21, -2.47261842301205810000e-002) (22, 2.11176271186717000000e-001) (23, 6.95696499889642330000e-001) (24, -7.40127577597706930000e+000) (25, 1.37541921411155370000e-001) (26, 1.61110306221411360000e+000) (27, 4.69462641391725780000e-001) (28, -1.57813906754735280000e+000) (29, 5.64313111356573580000e-001) (30, 1.58752484454622710000e+000) (31, 4.46172520098454540000e-001) (32, -1.18884459895616000000e+000) (33, 4.77884705896837570000e-001) (34, 5.97295702243314850000e-001) (35, 4.43219104431395010000e-001) (36, -5.73557165008662650000e+000) (37, 1.04330387340794010000e+000) (38, 4.47536478003151990000e-001) (39, -3.28283077234965640000e+000) (40, 5.04667652565999440000e-001) (41, 1.05225491666064500000e+000) (42, 6.73452264680994280000e-001) (43, -1.00608409848495190000e+000) (44, 1.55290584638318150000e+000) (45, 8.39193420820465000000e-001) (46, 5.66881129806967140000e-001) (47, -1.68122650250794140000e+000) (48, -3.43155576774606800000e+000) (49, 4.58572343076633860000e-001) 
