FANN_FLO_2.1
num_layers=3
learning_rate=0.700000
connection_rate=1.000000
network_type=0
learning_momentum=0.000000
training_algorithm=2
train_error_function=1
train_stop_function=0
cascade_output_change_fraction=0.010000
quickprop_decay=-0.000100
quickprop_mu=1.750000
rprop_increase_factor=1.200000
rprop_decrease_factor=0.500000
rprop_delta_min=0.000000
rprop_delta_max=50.000000
rprop_delta_zero=0.100000
cascade_output_stagnation_epochs=12
cascade_candidate_change_fraction=0.010000
cascade_candidate_stagnation_epochs=12
cascade_max_out_epochs=150
cascade_max_cand_epochs=150
cascade_num_candidate_groups=2
bit_fail_limit=3.49999999999999980000e-001
cascade_candidate_limit=1.00000000000000000000e+003
cascade_weight_multiplier=4.00000000000000020000e-001
cascade_activation_functions_count=10
cascade_activation_functions=3 5 7 8 10 11 14 15 16 17 
cascade_activation_steepnesses_count=4
cascade_activation_steepnesses=2.50000000000000000000e-001 5.00000000000000000000e-001 7.50000000000000000000e-001 1.00000000000000000000e+000 
layer_sizes=9 4 6 
scale_included=0
neurons (num_inputs, activation_function, activation_steepness)=(0, 0, 0.00000000000000000000e+000) (0, 0, 0.00000000000000000000e+000) (0, 0, 0.00000000000000000000e+000) (0, 0, 0.00000000000000000000e+000) (0, 0, 0.00000000000000000000e+000) (0, 0, 0.00000000000000000000e+000) (0, 0, 0.00000000000000000000e+000) (0, 0, 0.00000000000000000000e+000) (0, 0, 0.00000000000000000000e+000) (9, 6, 5.00000000000000000000e-001) (9, 6, 5.00000000000000000000e-001) (9, 6, 5.00000000000000000000e-001) (0, 6, 0.00000000000000000000e+000) (4, 6, 5.00000000000000000000e-001) (4, 6, 5.00000000000000000000e-001) (4, 6, 5.00000000000000000000e-001) (4, 6, 5.00000000000000000000e-001) (4, 6, 5.00000000000000000000e-001) (0, 6, 0.00000000000000000000e+000) 
connections (connected_to_neuron, weight)=(0, -7.18603697766757810000e-001) (1, 1.95358584840358910000e+000) (2, -1.05873324735204990000e+000) (3, -5.69511557926084990000e-001) (4, -1.80119995660876600000e+000) (5, 3.79380059767536880000e+000) (6, -2.81779542888457430000e+000) (7, 1.71876623751603550000e+000) (8, 9.55148687599530530000e-001) (0, -6.11263280204385690000e-001) (1, 8.75108964772846170000e-001) (2, -3.15795977012196860000e-001) (3, 1.17959757746875970000e+000) (4, -1.59463777411258920000e+000) (5, 4.81931135993194540000e-001) (6, 4.02345412017394210000e-001) (7, 5.73089481634187380000e-001) (8, 2.26804505363962630000e-001) (0, 7.94501201711437230000e+000) (1, -1.49152833574450890000e+001) (2, 2.70546258602514380000e+000) (3, -4.93731038405746330000e+000) (4, 2.57709019720132590000e+001) (5, -2.32232516056832200000e+001) (6, -2.07337675991236110000e+000) (7, -2.80763124136455880000e-001) (8, -3.08693123904390910000e-001) (9, -8.18171749627970240000e-001) (10, 8.77790157036264400000e-001) (11, -7.40805812394092210000e-002) (12, 8.25420477323413840000e-001) (9, 9.41263136114807050000e-001) (10, -2.28119848569460700000e+000) (11, -2.32114457524550950000e-001) (12, 6.38512897980977100000e-001) (9, 3.02094377106536800000e-001) (10, 1.42483394063100750000e+000) (11, 3.23351087263050730000e-002) (12, 7.14625521863261340000e-001) (9, -2.99120138747704490000e-001) (10, -1.67992590016069610000e+000) (11, -1.05063932599181690000e-001) (12, 1.31079449913128230000e+000) (9, 1.15230072281910180000e+000) (10, 1.76932772876217310000e+000) (11, 4.39528623454272400000e-001) (12, 4.54267234441547600000e-001) 
