FANN_FLO_2.1
num_layers=3
learning_rate=0.700000
connection_rate=1.000000
network_type=0
learning_momentum=0.000000
training_algorithm=2
train_error_function=1
train_stop_function=0
cascade_output_change_fraction=0.010000
quickprop_decay=-0.000100
quickprop_mu=1.750000
rprop_increase_factor=1.200000
rprop_decrease_factor=0.500000
rprop_delta_min=0.000000
rprop_delta_max=50.000000
rprop_delta_zero=0.100000
cascade_output_stagnation_epochs=12
cascade_candidate_change_fraction=0.010000
cascade_candidate_stagnation_epochs=12
cascade_max_out_epochs=150
cascade_max_cand_epochs=150
cascade_num_candidate_groups=2
bit_fail_limit=3.49999999999999980000e-001
cascade_candidate_limit=1.00000000000000000000e+003
cascade_weight_multiplier=4.00000000000000020000e-001
cascade_activation_functions_count=10
cascade_activation_functions=3 5 7 8 10 11 14 15 16 17 
cascade_activation_steepnesses_count=4
cascade_activation_steepnesses=2.50000000000000000000e-001 5.00000000000000000000e-001 7.50000000000000000000e-001 1.00000000000000000000e+000 
layer_sizes=9 4 6 
scale_included=0
neurons (num_inputs, activation_function, activation_steepness)=(0, 0, 0.00000000000000000000e+000) (0, 0, 0.00000000000000000000e+000) (0, 0, 0.00000000000000000000e+000) (0, 0, 0.00000000000000000000e+000) (0, 0, 0.00000000000000000000e+000) (0, 0, 0.00000000000000000000e+000) (0, 0, 0.00000000000000000000e+000) (0, 0, 0.00000000000000000000e+000) (0, 0, 0.00000000000000000000e+000) (9, 6, 5.00000000000000000000e-001) (9, 6, 5.00000000000000000000e-001) (9, 6, 5.00000000000000000000e-001) (0, 6, 0.00000000000000000000e+000) (4, 6, 5.00000000000000000000e-001) (4, 6, 5.00000000000000000000e-001) (4, 6, 5.00000000000000000000e-001) (4, 6, 5.00000000000000000000e-001) (4, 6, 5.00000000000000000000e-001) (0, 6, 0.00000000000000000000e+000) 
connections (connected_to_neuron, weight)=(0, -2.15594774916311850000e+000) (1, 8.68297789344623360000e+000) (2, 6.92278778086963250000e+000) (3, 1.26180442186912160000e+001) (4, -1.22811542756772150000e+001) (5, -2.34079096623621050000e+001) (6, 3.74560463975831300000e+001) (7, -8.82409095176392630000e+000) (8, -8.16096632275178370000e-002) (0, -1.79277934133073380000e+000) (1, 5.95294223317551910000e+000) (2, 3.57147893415217820000e+000) (3, 7.64020401103307110000e+000) (4, -7.88982364927799650000e+000) (5, -1.17824942011865130000e+001) (6, 2.01139476804683180000e+001) (7, -5.06386591920155380000e+000) (8, 3.33272094075504180000e-001) (0, 1.50000000000000000000e+003) (1, 1.50000000000000000000e+003) (2, 1.10081372459031430000e+002) (3, 1.33200057627362100000e+002) (4, 9.10314737415542080000e+001) (5, -4.09751974991698030000e+002) (6, -2.13942333748668600000e+002) (7, -3.76630693606906220000e+002) (8, 5.28007865703130990000e+000) (9, -3.60284387029393080000e-001) (10, 6.73603642134510410000e-001) (11, -1.99086076777759110000e-001) (12, 6.51189166974145640000e-001) (9, -7.14972517213032340000e-001) (10, 9.37699365969600350000e-001) (11, 3.81177547251647170000e-002) (12, 6.49231739500963250000e-001) (9, -1.25470472695928330000e+000) (10, 2.02561249597540270000e+000) (11, 4.31112643891579110000e-002) (12, 6.11122830831638320000e-001) (9, 3.17447362456207530000e-001) (10, -6.13141929602765150000e-001) (11, 1.31954654816974630000e-001) (12, 1.00648200700802600000e+000) (9, -2.64073713189387080000e-002) (10, -1.05006646340034370000e-001) (11, 5.56624360463229900000e-002) (12, 1.04492950750676310000e+000) 
