FANN_FLO_2.1
num_layers=3
learning_rate=0.700000
connection_rate=1.000000
network_type=0
learning_momentum=0.000000
training_algorithm=2
train_error_function=1
train_stop_function=0
cascade_output_change_fraction=0.010000
quickprop_decay=-0.000100
quickprop_mu=1.750000
rprop_increase_factor=1.200000
rprop_decrease_factor=0.500000
rprop_delta_min=0.000000
rprop_delta_max=50.000000
rprop_delta_zero=0.100000
cascade_output_stagnation_epochs=12
cascade_candidate_change_fraction=0.010000
cascade_candidate_stagnation_epochs=12
cascade_max_out_epochs=150
cascade_max_cand_epochs=150
cascade_num_candidate_groups=2
bit_fail_limit=3.49999999999999980000e-001
cascade_candidate_limit=1.00000000000000000000e+003
cascade_weight_multiplier=4.00000000000000020000e-001
cascade_activation_functions_count=10
cascade_activation_functions=3 5 7 8 10 11 14 15 16 17 
cascade_activation_steepnesses_count=4
cascade_activation_steepnesses=2.50000000000000000000e-001 5.00000000000000000000e-001 7.50000000000000000000e-001 1.00000000000000000000e+000 
layer_sizes=9 21 6 
scale_included=0
neurons (num_inputs, activation_function, activation_steepness)=(0, 0, 0.00000000000000000000e+000) (0, 0, 0.00000000000000000000e+000) (0, 0, 0.00000000000000000000e+000) (0, 0, 0.00000000000000000000e+000) (0, 0, 0.00000000000000000000e+000) (0, 0, 0.00000000000000000000e+000) (0, 0, 0.00000000000000000000e+000) (0, 0, 0.00000000000000000000e+000) (0, 0, 0.00000000000000000000e+000) (9, 6, 5.00000000000000000000e-001) (9, 6, 5.00000000000000000000e-001) (9, 6, 5.00000000000000000000e-001) (9, 6, 5.00000000000000000000e-001) (9, 6, 5.00000000000000000000e-001) (9, 6, 5.00000000000000000000e-001) (9, 6, 5.00000000000000000000e-001) (9, 6, 5.00000000000000000000e-001) (9, 6, 5.00000000000000000000e-001) (9, 6, 5.00000000000000000000e-001) (9, 6, 5.00000000000000000000e-001) (9, 6, 5.00000000000000000000e-001) (9, 6, 5.00000000000000000000e-001) (9, 6, 5.00000000000000000000e-001) (9, 6, 5.00000000000000000000e-001) (9, 6, 5.00000000000000000000e-001) (9, 6, 5.00000000000000000000e-001) (9, 6, 5.00000000000000000000e-001) (9, 6, 5.00000000000000000000e-001) (9, 6, 5.00000000000000000000e-001) (0, 6, 0.00000000000000000000e+000) (21, 6, 5.00000000000000000000e-001) (21, 6, 5.00000000000000000000e-001) (21, 6, 5.00000000000000000000e-001) (21, 6, 5.00000000000000000000e-001) (21, 6, 5.00000000000000000000e-001) (0, 6, 0.00000000000000000000e+000) 
connections (connected_to_neuron, weight)=(0, 6.40113432385939540000e-001) (1, 1.30550265817571030000e+000) (2, -1.29225596308842540000e+000) (3, 1.77298738233101630000e-002) (4, -2.12586116492359830000e+000) (5, 4.46097763186306780000e-001) (6, -7.48103487218680140000e-001) (7, 4.19733501023635030000e+000) (8, 5.50469200224405490000e-001) (0, 4.58970665956567010000e+000) (1, -7.48589257939584840000e+000) (2, 8.79408050043893400000e+000) (3, 3.11137499806834830000e+001) (4, -5.20748132143012370000e+001) (5, -7.07801773657184440000e+000) (6, -1.91471747262219050000e+001) (7, 6.58333671934252750000e+001) (8, -5.22080121379777880000e-001) (0, -2.12364862283213360000e+000) (1, -2.08601086759084660000e+000) (2, 8.37480364845213640000e+000) (3, 1.36661552413535450000e+001) (4, -1.36260513851752540000e+001) (5, -2.91667224091109710000e+001) (6, 1.05967192166655020000e+001) (7, -1.31308196692909590000e+001) (8, -1.24354573249985460000e-001) (0, -4.01683840096024710000e+000) (1, -2.09820111262483030000e+000) (2, 5.57566457916367760000e+000) (3, -8.10997208041890970000e+000) (4, -1.68038202761952960000e+001) (5, 1.48635743035115230000e+001) (6, -2.93858819752890320000e+000) (7, 2.20631863412430460000e-001) (8, 1.05499873266295210000e-002) (0, -4.46496538314956130000e+000) (1, -1.25114227932961310000e+001) (2, 8.29079197388281490000e+000) (3, 8.36541233777683970000e-001) (4, -1.44491071306700800000e+000) (5, 1.76450194699685990000e+000) (6, 9.22991780927017840000e+000) (7, -9.70694004451861050000e+000) (8, 9.94145280876133960000e-001) (0, 1.82105871742524020000e+000) (1, 1.90660853807145470000e+001) (2, -2.52392366872864440000e+000) (3, -5.31723806695194270000e+001) (4, -1.02250575362559300000e+001) (5, 3.66963965371383910000e+001) (6, 2.50009001118520900000e+001) (7, -1.60384576564175950000e+001) (8, 9.88791358552233430000e-001) (0, 2.16322068762237940000e+000) (1, -1.11748435008104440000e-001) (2, 9.76269432005255180000e-001) (3, 1.79498593005301910000e+000) (4, -8.06283576691087940000e+000) (5, 3.03976762672687860000e-001) (6, -2.58678062469903710000e-001) (7, 2.66880292847478540000e+000) (8, -1.36912758763712780000e-001) (0, 5.16986642626846660000e+000) (1, -1.02940682660072780000e+001) (2, 1.97525777685482360000e+000) (3, 5.44189285112604540000e+001) (4, 1.55071109744464960000e+001) (5, -3.79000151813504050000e+001) (6, 6.52751908934282030000e-001) (7, 6.95432503202560110000e-001) (8, -2.87194627884313100000e-001) (0, 1.20982497643419550000e+000) (1, 5.31301960646405110000e+000) (2, 4.39763100282059140000e+000) (3, -3.11312851931431660000e-001) (4, -1.25776427211199100000e+000) (5, -6.31863941695303580000e+000) (6, 1.50843037267686220000e+001) (7, -1.74971939215962640000e+001) (8, 4.51951439120661870000e-002) (0, 3.00439160022177680000e+000) (1, -2.60617394987232950000e+001) (2, 1.46687921421845240000e+000) (3, 6.94809971015732510000e+001) (4, 3.90025618999862760000e+001) (5, -3.55356632559166240000e+001) (6, 3.45307560678887810000e+001) (7, -4.62064128304668170000e+001) (8, 7.10078883156140210000e-001) (0, 8.64606407831852940000e-001) (1, 3.72849149997000980000e+000) (2, 1.71505469808422850000e+000) (3, 1.08704255968922730000e+001) (4, -2.56178672494763270000e+000) (5, -2.21665583211662340000e+000) (6, -9.17966466727359180000e+000) (7, 1.25185829284222820000e+001) (8, 9.50058632418587650000e-002) (0, -1.48460304067802280000e-001) (1, -4.67008172434029810000e-001) (2, 7.35019294303178030000e-001) (3, -4.25834597276390170000e+000) (4, 1.31859211831250840000e+000) (5, 2.00470015066949750000e+000) (6, -3.20323958421462020000e+000) (7, 1.95917631618995310000e+000) (8, -5.00680313292167640000e-002) (0, -1.06739148511337640000e-001) (1, -4.03410636224907470000e+000) (2, 1.98619819779836140000e+000) (3, 6.00572166886208180000e-001) (4, 1.52457979343128150000e+000) (5, -4.77524049551837230000e+000) (6, -1.08034818030538070000e+000) (7, 1.87908828743391900000e+000) (8, 8.49306172895081810000e-002) (0, -3.79182284293693870000e+000) (1, 5.89665108498851430000e+000) (2, 9.63017354327049090000e+000) (3, -1.06690198825529680000e+001) (4, -3.95489846424092950000e+001) (5, -1.51077715789085800000e+000) (6, 1.09085833203998400000e+001) (7, 2.67147240564557720000e+000) (8, 5.22884246435160290000e-001) (0, 4.30114796380126900000e-001) (1, 9.74749280939088190000e-001) (2, 1.83267068473926930000e+000) (3, -2.54694809753135100000e+000) (4, 2.54432944398180540000e+000) (5, 3.17033469661177070000e-001) (6, 2.65566242764152170000e+000) (7, -6.73896443964767580000e+000) (8, -7.22350039344093200000e-002) (0, 1.75500891054508320000e+000) (1, -1.19713269684247120000e+001) (2, -1.27804680853945010000e+000) (3, 7.26908738432815940000e+000) (4, 2.52361051526927400000e+001) (5, 1.60543832575747690000e+000) (6, -1.05588836051096050000e+001) (7, -4.04898786237709720000e+000) (8, 4.66627574647520420000e-001) (0, -1.13871403985937180000e+000) (1, -1.35204186235967770000e+001) (2, 5.58805870930597770000e+000) (3, -1.66852639834647440000e+000) (4, -2.93207797808463730000e+000) (5, 9.45355532542511060000e+000) (6, -2.13918855199071430000e+000) (7, -5.58141271482864960000e-001) (8, -1.56695084282720550000e-002) (0, -1.14129004438434460000e+000) (1, 1.79627493050035780000e+000) (2, -4.03856312793209680000e+000) (3, 4.13369715526156960000e+000) (4, 4.40501945245109110000e+000) (5, 1.10029680063636550000e+001) (6, -1.56381239657655160000e-001) (7, 6.52355023745702130000e+000) (8, 4.63091796479254520000e-001) (0, -2.25465442602922650000e+000) (1, 1.44391302868999150000e+000) (2, -1.71239152306316590000e+000) (3, 1.20915031559398160000e+000) (4, 2.26093600498612140000e+000) (5, -1.35017120266982890000e+000) (6, 4.10827238369088390000e+000) (7, -2.76406821390142990000e+000) (8, 1.55181710683652390000e-001) (0, -5.68625213882341330000e-001) (1, 1.95862038307017230000e-001) (2, 8.35003233823095940000e-001) (3, -1.55965989121470790000e+000) (4, 1.07231198370018270000e+000) (5, 5.77484631044843380000e-002) (6, -2.94815806690393160000e+000) (7, 2.63623710183464380000e+000) (8, -1.87023248775083940000e-001) (9, 1.07858675999068750000e+000) (10, 1.50676309353668990000e-001) (11, 9.70564707049082490000e-001) (12, 6.41378133561469110000e-001) (13, -1.90641248618661670000e+000) (14, 4.63553332462513070000e-001) (15, 1.40183624062171930000e+000) (16, -5.72983262605147540000e-001) (17, -3.72653749528560340000e-001) (18, 2.69341706439608200000e-001) (19, 1.07675619631374800000e+000) (20, -4.14145284879934130000e-001) (21, 3.87052757932081140000e+000) (22, -8.95169870499241130000e-001) (23, 3.30926885601232800000e+000) (24, -1.83881321680667230000e-001) (25, 1.61646012259774020000e+000) (26, 4.21983792018057520000e-001) (27, 4.63843600280984260000e+000) (28, -1.14427040240060920000e+000) (29, 6.36266586525953140000e-001) (9, 1.29504809654649520000e+000) (10, -1.76856704219245570000e-001) (11, -1.40241993137531630000e-001) (12, 5.83288352416863830000e-001) (13, 1.15288632258473410000e+000) (14, -4.19891493021508800000e-001) (15, -1.25910453180215360000e+000) (16, 2.90377881536685370000e-001) (17, -1.24797939700723350000e-001) (18, -2.73018484591592110000e-001) (19, -7.12766317411187900000e-001) (20, 1.29779746903310360000e+000) (21, -8.76627280911930540000e-001) (22, -1.32570104086893790000e-001) (23, -4.21651936070473190000e-001) (24, -4.81917016043785450000e-001) (25, -1.36006380122258520000e+000) (26, 4.88713155689708910000e-001) (27, -3.15474092997529310000e+000) (28, -1.61409231354281930000e+000) (29, 4.01859657375188810000e-001) (9, 1.29565948554759470000e+000) (10, -3.57549073953467020000e-001) (11, -9.65684844073453900000e-001) (12, 3.53282465343968180000e-001) (13, -5.03209241461717860000e-001) (14, -5.10409015264889580000e-001) (15, 3.50362514563117730000e+000) (16, 5.21388655890846710000e-001) (17, 8.24465895080354280000e-001) (18, -3.23881143229172940000e-001) (19, -2.00590321852378620000e+000) (20, -4.27121448717786030000e+000) (21, -7.99919719005537040000e-001) (22, 1.47271610731183730000e+000) (23, 1.79097171475117580000e-002) (24, 1.94247284483320960000e+000) (25, -8.28217017506763380000e-002) (26, 4.81131383375927650000e-001) (27, 1.90425773032157890000e+000) (28, 8.49548507711376640000e+000) (29, 1.11080308635171380000e+000) (9, 7.98333254886425150000e-001) (10, 6.47792192110785760000e-001) (11, 3.81207308308413650000e-001) (12, -1.55341212967624930000e+000) (13, 1.27933167149837400000e+000) (14, -3.28341308142701740000e-001) (15, 4.98365211728780100000e+000) (16, -9.77552764926414190000e-001) (17, -3.08432071679521160000e+000) (18, 5.85427374983487180000e-001) (19, -1.17497428700592210000e+000) (20, 6.61490598618416220000e-002) (21, -1.95711942408367270000e+000) (22, 6.29422887483989220000e-001) (23, 8.15586356186594940000e+000) (24, 1.34699351335614900000e+000) (25, -2.11999912726337850000e+000) (26, 3.92194860972255920000e-001) (27, 3.14699318262308210000e+000) (28, 4.93462662872606650000e+000) (29, 6.93245846674590550000e-001) (9, 9.69839342156228800000e-001) (10, -8.13849468030961250000e-001) (11, -1.46902300589092450000e-001) (12, -2.69439899030487420000e+000) (13, -1.23873274021782120000e+000) (14, -6.75608295514983470000e-001) (15, 9.91388744653886710000e+000) (16, -5.55650822688521280000e-001) (17, -1.82932583078887310000e+000) (18, 5.44263401515164950000e-001) (19, 1.29535814622526280000e+000) (20, 7.76773863859583620000e+000) (21, 1.42925644192093440000e+000) (22, 2.04912612044062350000e+000) (23, 5.56626125803107640000e+000) (24, 1.38438607234752030000e+000) (25, 1.56220635099426050000e+000) (26, 1.08438220161124990000e+000) (27, 1.00548356445717570000e+001) (28, 1.23301337536322660000e+000) (29, 5.34350020852782830000e-001) 
