FANN_FLO_2.1
num_layers=3
learning_rate=0.700000
connection_rate=1.000000
network_type=0
learning_momentum=0.000000
training_algorithm=2
train_error_function=1
train_stop_function=0
cascade_output_change_fraction=0.010000
quickprop_decay=-0.000100
quickprop_mu=1.750000
rprop_increase_factor=1.200000
rprop_decrease_factor=0.500000
rprop_delta_min=0.000000
rprop_delta_max=50.000000
rprop_delta_zero=0.100000
cascade_output_stagnation_epochs=12
cascade_candidate_change_fraction=0.010000
cascade_candidate_stagnation_epochs=12
cascade_max_out_epochs=150
cascade_max_cand_epochs=150
cascade_num_candidate_groups=2
bit_fail_limit=3.49999999999999980000e-001
cascade_candidate_limit=1.00000000000000000000e+003
cascade_weight_multiplier=4.00000000000000020000e-001
cascade_activation_functions_count=10
cascade_activation_functions=3 5 7 8 10 11 14 15 16 17 
cascade_activation_steepnesses_count=4
cascade_activation_steepnesses=2.50000000000000000000e-001 5.00000000000000000000e-001 7.50000000000000000000e-001 1.00000000000000000000e+000 
layer_sizes=9 21 6 
scale_included=0
neurons (num_inputs, activation_function, activation_steepness)=(0, 0, 0.00000000000000000000e+000) (0, 0, 0.00000000000000000000e+000) (0, 0, 0.00000000000000000000e+000) (0, 0, 0.00000000000000000000e+000) (0, 0, 0.00000000000000000000e+000) (0, 0, 0.00000000000000000000e+000) (0, 0, 0.00000000000000000000e+000) (0, 0, 0.00000000000000000000e+000) (0, 0, 0.00000000000000000000e+000) (9, 6, 5.00000000000000000000e-001) (9, 6, 5.00000000000000000000e-001) (9, 6, 5.00000000000000000000e-001) (9, 6, 5.00000000000000000000e-001) (9, 6, 5.00000000000000000000e-001) (9, 6, 5.00000000000000000000e-001) (9, 6, 5.00000000000000000000e-001) (9, 6, 5.00000000000000000000e-001) (9, 6, 5.00000000000000000000e-001) (9, 6, 5.00000000000000000000e-001) (9, 6, 5.00000000000000000000e-001) (9, 6, 5.00000000000000000000e-001) (9, 6, 5.00000000000000000000e-001) (9, 6, 5.00000000000000000000e-001) (9, 6, 5.00000000000000000000e-001) (9, 6, 5.00000000000000000000e-001) (9, 6, 5.00000000000000000000e-001) (9, 6, 5.00000000000000000000e-001) (9, 6, 5.00000000000000000000e-001) (9, 6, 5.00000000000000000000e-001) (0, 6, 0.00000000000000000000e+000) (21, 6, 5.00000000000000000000e-001) (21, 6, 5.00000000000000000000e-001) (21, 6, 5.00000000000000000000e-001) (21, 6, 5.00000000000000000000e-001) (21, 6, 5.00000000000000000000e-001) (0, 6, 0.00000000000000000000e+000) 
connections (connected_to_neuron, weight)=(0, -1.99331328737720750000e+000) (1, -3.65651675128346820000e+000) (2, 7.08085136568469940000e+000) (3, -2.36669045686798970000e+001) (4, 1.59731749748649960000e+001) (5, 2.92737013394046780000e+001) (6, 5.69166560655996980000e+000) (7, 5.82948578341431030000e+000) (8, 2.36323032424051990000e+000) (0, 4.29985669156523810000e-001) (1, -8.98320793143898230000e-001) (2, -1.49262195561418340000e-001) (3, 5.49554429229276220000e-001) (4, 3.57563083243587610000e+000) (5, 8.28540153766318840000e-001) (6, -4.47240971431229820000e-001) (7, -1.75317929760606690000e+000) (8, -1.34525125519102400000e-002) (0, -1.23033696198807530000e+000) (1, 2.30191885889624360000e+000) (2, -6.00515068563753700000e-001) (3, 2.15350325591734390000e+000) (4, -1.64824079873509400000e+000) (5, -2.60750194558643720000e+000) (6, 2.59873340028129270000e+000) (7, 7.31488506410776120000e-001) (8, 1.78560304390940370000e-002) (0, -9.26427839695564080000e-001) (1, -1.28917027414893260000e+000) (2, -5.03360517100636120000e-001) (3, 8.49914043834017920000e-001) (4, -1.65250199822105090000e+000) (5, -1.08710396866103550000e+000) (6, 2.45743300465621760000e+000) (7, 6.45589443030600130000e+000) (8, 1.48319609074715840000e-001) (0, 2.33162467865077160000e-001) (1, -2.51995476412636820000e+000) (2, -2.21742956659362080000e-001) (3, -2.11272483615504530000e+001) (4, -8.44065413637183240000e-001) (5, 1.43510268555431500000e+001) (6, 6.10745836747139780000e+001) (7, 6.16396572260827780000e-001) (8, -4.01453967605599690000e-002) (0, 1.44799111856155330000e+001) (1, 3.70616019675966650000e+001) (2, -2.44109106215093950000e+001) (3, 1.07499858265517340000e+001) (4, 1.41523987285400420000e+001) (5, 4.73087781712604920000e+001) (6, -2.76233487489677960000e+001) (7, -5.86273969256464600000e+000) (8, 1.09023161525995800000e+000) (0, 1.11599353280068540000e+000) (1, 3.16229982362878800000e-001) (2, 4.90396018783970430000e-001) (3, -7.99649865004352090000e-002) (4, -4.32492954879572460000e-001) (5, -2.52887505876831800000e+000) (6, 2.64292602582686830000e-001) (7, -1.45935396131367190000e+000) (8, 2.74290842131620300000e-001) (0, -2.85176435761961540000e+000) (1, -3.27486271254632830000e+000) (2, 1.58106981397794470000e+000) (3, -2.15457519063534660000e+001) (4, -1.12989983301668230000e+001) (5, 3.85649937903787150000e-001) (6, 7.49993122886000520000e+001) (7, 1.48649015077303730000e+001) (8, 9.74689605463645030000e-002) (0, 1.24225186438378330000e+001) (1, 1.00342398130123250000e+001) (2, -8.22420687205728030000e+000) (3, -4.84045947950902990000e+000) (4, 9.88830326635657950000e-001) (5, 2.96209876810067780000e+001) (6, -3.81687869296704680000e+001) (7, -1.93553257602988000000e+001) (8, 1.06231574199254150000e+000) (0, -1.15231678324694010000e+001) (1, 1.52218653060272530000e+001) (2, -5.91789420787448340000e+000) (3, 4.50039913191994860000e+000) (4, -2.60846451331496980000e+000) (5, 5.85399266420707050000e-001) (6, 2.00080166577554190000e+001) (7, 2.82531533889315200000e+000) (8, -3.57262038253905790000e-001) (0, 5.32389864003809070000e+002) (1, 9.44303275032531100000e+001) (2, -1.36978423632172820000e+001) (3, -7.30775565569134070000e+001) (4, -1.44081740241196120000e+001) (5, -8.34507944084733420000e+001) (6, -2.65009832528643160000e+001) (7, -1.77243643540271240000e+001) (8, 3.22524101890407660000e+000) (0, 1.75785104631067800000e+000) (1, -1.25684676449600090000e+001) (2, 3.86495936451973110000e+000) (3, 1.12139340383275650000e+001) (4, -2.51756292606912830000e+000) (5, 7.60625130772025490000e+000) (6, -3.48265626030296270000e+000) (7, 1.77190391726331850000e+001) (8, 4.26326352903753260000e-001) (0, 2.35505072771353460000e-001) (1, -4.62709182218625960000e+000) (2, 1.73307954177957810000e+000) (3, -8.07970802176382110000e+000) (4, 3.20111133503142800000e+000) (5, 6.41050903227899750000e+000) (6, 1.96928949699588180000e+000) (7, -5.52694426545020660000e-001) (8, -1.33479822148673570000e-001) (0, 1.01704406613418780000e-002) (1, 1.35317394766221890000e+000) (2, 2.93002110853573600000e-002) (3, -5.57586750820948750000e+000) (4, -1.72398448758886240000e+000) (5, 3.11549248269818910000e+000) (6, -5.76422412280611860000e-001) (7, 5.52770307377639210000e-001) (8, -7.19337721008732160000e-003) (0, -7.09906403456738280000e-001) (1, 1.84546340544083210000e+000) (2, -3.16013852734866480000e-001) (3, 1.57471791502674830000e+000) (4, 1.76649883316956120000e+000) (5, -1.84420766190367340000e+000) (6, -1.70844683913533000000e+000) (7, -3.02174916851684210000e+000) (8, 7.25895755580954480000e-002) (0, 4.97408202998030370000e+000) (1, -9.63754825818830870000e+000) (2, -2.99303183088926010000e-001) (3, 3.72883944481999620000e+000) (4, 7.57977469662221100000e+000) (5, 1.19941633967983280000e+001) (6, 3.99006210624578330000e+000) (7, 1.16618908935994520000e+001) (8, 5.03333494435284860000e-001) (0, 1.85988795179424620000e+000) (1, 2.15903275043536240000e+001) (2, 1.19399666134561460000e+001) (3, -6.53736049791789360000e+001) (4, -3.05039722049657270000e+001) (5, 3.36433198738103340000e+001) (6, 5.50857961397421510000e+001) (7, 8.96788921972842350000e+000) (8, 7.38525849990669610000e-001) (0, 8.00494654300129940000e+000) (1, 1.51146902957575110000e+000) (2, -5.69138950511057380000e+000) (3, -1.67513752150102490000e+001) (4, -6.89574988791707620000e+000) (5, 6.04493264279654530000e+001) (6, -2.05670835607589910000e+001) (7, -2.04853812902973940000e+001) (8, 6.83284750973860850000e-002) (0, 2.77210954714486620000e+000) (1, 1.19911202258259310000e+001) (2, -1.70972571800023230000e+001) (3, 1.82361950296245720000e+001) (4, -1.70431384180129230000e+001) (5, 1.65104749142279770000e+001) (6, -2.52705101892062270000e+001) (7, 9.38457568511393170000e+000) (8, 6.05709605900293990000e-001) (0, 7.81097458051281990000e+000) (1, -2.01489200644362330000e+001) (2, 5.58291734858743460000e+000) (3, 2.46246202893519380000e+001) (4, -1.00648882085439710000e+001) (5, -7.31606282713285520000e+000) (6, -1.19591113348573260000e+001) (7, 3.07488337418687760000e+001) (8, 4.18043573813648980000e-001) (9, -2.93190620457707830000e-001) (10, -3.53111884920814050000e+000) (11, 4.41360828998945550000e+000) (12, -9.16191703896946040000e-001) (13, 2.85317720184090910000e-001) (14, -6.24045966948599600000e-001) (15, 2.51011684272031220000e+000) (16, -6.24457854879595040000e-001) (17, 1.22752248465103090000e+000) (18, 1.82228901355027590000e-001) (19, -4.12178263896707090000e-001) (20, 3.07136586758059160000e-001) (21, 4.74032125197644040000e+000) (22, -4.89293547033686680000e+000) (23, 1.02799807831359960000e+000) (24, 1.10983658018943790000e+000) (25, 6.04299996261404520000e-001) (26, -1.00345478987776590000e+000) (27, 6.87948038418123800000e-001) (28, -3.78525939530725220000e-001) (29, 3.14873467500296930000e-001) (9, 3.06309324680194950000e-001) (10, 4.81833863716185640000e+000) (11, -2.86856172738681750000e-001) (12, 1.26210660766158280000e+000) (13, 1.50162482130670030000e-002) (14, 5.68060300209928590000e-001) (15, 2.49641113167544840000e-001) (16, 2.23190958538793980000e-001) (17, -1.00658756748889290000e+000) (18, -4.49838165014143750000e-001) (19, 1.30171343866620800000e-001) (20, 9.92784034743368070000e-001) (21, -2.72414108604071400000e+000) (22, 5.39210367649386770000e+000) (23, -2.63899993757950650000e-001) (24, -1.56427526510265770000e+000) (25, -4.71560939828537750000e-001) (26, 6.49792628416963390000e-001) (27, -2.46581161683030380000e-001) (28, -2.61872250529496360000e-001) (29, 8.17494126982415750000e-001) (9, 1.32275520229245450000e+000) (10, -1.59448109037279960000e-001) (11, 1.53908002141902880000e+000) (12, -2.99285523098076710000e-001) (13, -4.18711862426710430000e-001) (14, -2.01790428603416780000e-001) (15, 5.86563094588110840000e-001) (16, 2.68409770638548650000e-001) (17, -5.11536161744801430000e-001) (18, -4.58230999723249270000e-001) (19, 4.87843853972339610000e-002) (20, 1.55197347007320660000e-001) (21, -9.26135850073952160000e-001) (22, -7.38166965402668570000e-001) (23, -1.29421895971608400000e+000) (24, -1.25991623152709980000e-001) (25, -1.89016208671278440000e-001) (26, 4.95005320501442030000e-001) (27, 1.41074596064859980000e-001) (28, -4.71632041506296340000e-001) (29, 2.10654700420337760000e-001) (9, 2.30501462048514680000e-001) (10, 4.11498389890184680000e+000) (11, 1.64318003883233770000e+000) (12, -4.49145235258387210000e+000) (13, -2.62327642697852510000e+000) (14, 6.99005148042042950000e-001) (15, -1.14124331811979230000e+000) (16, 1.98410183938549630000e+000) (17, -1.56380803080162330000e+000) (18, -9.77162858050335200000e-001) (19, 1.56485692584918510000e-001) (20, 9.41699567668614180000e-001) (21, -1.87551255920711530000e-001) (22, 2.26418882634502780000e+000) (23, -1.38444234623672920000e+000) (24, 7.56360886270784460000e-001) (25, -3.24523962537991150000e-002) (26, 1.01797845204254310000e-001) (27, 6.76311333094435470000e-001) (28, -9.63996573190084920000e-001) (29, 8.95866747515640440000e-001) (9, 9.54180501364110480000e-001) (10, -1.16675259229548910000e+000) (11, 1.07497150217220260000e+000) (12, -1.85365694625370160000e+000) (13, 4.88401066642195350000e-001) (14, 1.00071127411055980000e-001) (15, -2.64717167259499230000e+000) (16, -2.71330225101738930000e-001) (17, -2.45303066297937050000e-001) (18, -1.31239409455887520000e+000) (19, -2.97057941788028100000e-002) (20, 5.98131445311502200000e-001) (21, -1.44457788255461490000e+000) (22, 5.87365180256438360000e-001) (23, -3.85675210372069220000e+000) (24, 3.25904928390106930000e-001) (25, -4.02389059223401120000e-001) (26, -6.27786883985227860000e-001) (27, 3.61665687374361280000e-001) (28, -1.35258915849209900000e+000) (29, 8.47921625692725000000e-001) 
