FANN_FLO_2.1
num_layers=3
learning_rate=0.700000
connection_rate=1.000000
network_type=0
learning_momentum=0.000000
training_algorithm=2
train_error_function=1
train_stop_function=0
cascade_output_change_fraction=0.010000
quickprop_decay=-0.000100
quickprop_mu=1.750000
rprop_increase_factor=1.200000
rprop_decrease_factor=0.500000
rprop_delta_min=0.000000
rprop_delta_max=50.000000
rprop_delta_zero=0.100000
cascade_output_stagnation_epochs=12
cascade_candidate_change_fraction=0.010000
cascade_candidate_stagnation_epochs=12
cascade_max_out_epochs=150
cascade_max_cand_epochs=150
cascade_num_candidate_groups=2
bit_fail_limit=3.49999999999999980000e-001
cascade_candidate_limit=1.00000000000000000000e+003
cascade_weight_multiplier=4.00000000000000020000e-001
cascade_activation_functions_count=10
cascade_activation_functions=3 5 7 8 10 11 14 15 16 17 
cascade_activation_steepnesses_count=4
cascade_activation_steepnesses=2.50000000000000000000e-001 5.00000000000000000000e-001 7.50000000000000000000e-001 1.00000000000000000000e+000 
layer_sizes=9 21 6 
scale_included=0
neurons (num_inputs, activation_function, activation_steepness)=(0, 0, 0.00000000000000000000e+000) (0, 0, 0.00000000000000000000e+000) (0, 0, 0.00000000000000000000e+000) (0, 0, 0.00000000000000000000e+000) (0, 0, 0.00000000000000000000e+000) (0, 0, 0.00000000000000000000e+000) (0, 0, 0.00000000000000000000e+000) (0, 0, 0.00000000000000000000e+000) (0, 0, 0.00000000000000000000e+000) (9, 6, 5.00000000000000000000e-001) (9, 6, 5.00000000000000000000e-001) (9, 6, 5.00000000000000000000e-001) (9, 6, 5.00000000000000000000e-001) (9, 6, 5.00000000000000000000e-001) (9, 6, 5.00000000000000000000e-001) (9, 6, 5.00000000000000000000e-001) (9, 6, 5.00000000000000000000e-001) (9, 6, 5.00000000000000000000e-001) (9, 6, 5.00000000000000000000e-001) (9, 6, 5.00000000000000000000e-001) (9, 6, 5.00000000000000000000e-001) (9, 6, 5.00000000000000000000e-001) (9, 6, 5.00000000000000000000e-001) (9, 6, 5.00000000000000000000e-001) (9, 6, 5.00000000000000000000e-001) (9, 6, 5.00000000000000000000e-001) (9, 6, 5.00000000000000000000e-001) (9, 6, 5.00000000000000000000e-001) (9, 6, 5.00000000000000000000e-001) (0, 6, 0.00000000000000000000e+000) (21, 6, 5.00000000000000000000e-001) (21, 6, 5.00000000000000000000e-001) (21, 6, 5.00000000000000000000e-001) (21, 6, 5.00000000000000000000e-001) (21, 6, 5.00000000000000000000e-001) (0, 6, 0.00000000000000000000e+000) 
connections (connected_to_neuron, weight)=(0, -3.13806112967045750000e+000) (1, -2.00268783983270460000e+000) (2, 4.71023392621704320000e+000) (3, 8.70312954300973020000e+000) (4, 3.51117359315592110000e+000) (5, -1.85046873787523330000e+001) (6, -2.61172159314324400000e+000) (7, 3.26073535766497140000e+000) (8, 4.82883845561954630000e-001) (0, 3.75533373750023800000e+000) (1, 4.36593501058056430000e+000) (2, -1.55368447180353450000e+000) (3, 4.98229533773712600000e+000) (4, -1.64355642667645620000e+001) (5, -5.01251620977735700000e+000) (6, 1.39470430247491930000e+000) (7, -4.46345458126780150000e+000) (8, 2.89857565897316190000e-002) (0, -7.00598068996197480000e+000) (1, 4.47776426277354390000e+000) (2, -2.01793268264585000000e+001) (3, -1.86469790969526520000e+001) (4, 2.57448239951320450000e+001) (5, 1.38922382074192520000e+001) (6, 9.93355353903104010000e+000) (7, 1.98777172617203140000e+001) (8, 1.69588785252357120000e+000) (0, 3.59134271400817380000e-001) (1, -1.65531969257537520000e-001) (2, -6.97376753032206850000e+000) (3, 5.69451776347580710000e-001) (4, 4.10272171034006980000e-001) (5, 7.23368205797345290000e-001) (6, -5.49296362226340480000e-001) (7, 5.53769894888599980000e+000) (8, 6.94721529299926620000e-002) (0, 4.58403781517555180000e-001) (1, 7.46128292569818720000e-001) (2, 5.98815986795443120000e-001) (3, -3.74514310019318940000e+000) (4, 1.03699442661387460000e+000) (5, 4.31842618108288710000e-002) (6, 1.79938384816613950000e-001) (7, -3.29965217208898260000e+000) (8, -1.18132351599591350000e-001) (0, -2.41092950195273790000e+000) (1, -4.89818886067200410000e+000) (2, -8.05265364085223470000e+000) (3, -3.33596741256590720000e-001) (4, 3.64740220255142310000e-002) (5, 1.16064285967181180000e+001) (6, -1.49991737384005610000e+001) (7, 1.51324431324716110000e+001) (8, 2.72355538096267610000e-001) (0, -1.27918661263896750000e-001) (1, 7.64451917010369100000e+000) (2, 1.61380484635002940000e+000) (3, 7.77268254898288010000e+000) (4, -1.84262447228702580000e+001) (5, -3.69514447267747850000e+000) (6, 5.13712473535457370000e+000) (7, 3.46965496020308000000e+001) (8, -3.86378464641175700000e-001) (0, 2.16326773053869380000e-001) (1, -2.21772745885385710000e+000) (2, -7.36687495339241940000e-001) (3, -1.13702653136793440000e+000) (4, 5.25239292583876340000e+000) (5, 5.99293580357590990000e+000) (6, 4.67797727790020620000e+000) (7, -1.41898082404873230000e-001) (8, -3.33667717389479090000e-001) (0, 3.41600516010002830000e+001) (1, 2.29739856062002660000e+001) (2, 1.95447276341249190000e+002) (3, -8.56767301144658970000e+001) (4, -1.39183473317621630000e+002) (5, 1.14971010159824190000e+002) (6, 5.56617173140842850000e+001) (7, -2.61911895320647470000e+001) (8, 1.70346287779207220000e+000) (0, 1.72957556085580790000e+000) (1, -4.85566634127692300000e-001) (2, 2.63401284223902280000e+000) (3, -1.39943706212701160000e+000) (4, 4.96267194504705160000e+000) (5, -5.63542114261369690000e+000) (6, 4.79510918249447740000e+000) (7, -8.37065190222984510000e+000) (8, -5.62194292510436660000e-002) (0, -1.74972823871583590000e+000) (1, 1.25097084436103540000e+001) (2, -4.27727155754502860000e+000) (3, 2.31376357541553990000e+000) (4, -2.50954587639788080000e+001) (5, 6.59447987941840450000e-001) (6, 7.28291034818268470000e+000) (7, 1.61841361748253860000e-001) (8, 1.27633412836022760000e+000) (0, 4.86859103609471690000e+000) (1, 3.90821115889356550000e+000) (2, -1.80230435886061380000e+000) (3, 4.58596954305525720000e+000) (4, 2.99719323413052160000e+001) (5, -5.41249610739408880000e+001) (6, 3.85017668812451750000e+001) (7, -8.96575724608708140000e+000) (8, 2.08880519918626220000e-001) (0, -5.01819226172555250000e-001) (1, 1.13054661810372980000e+001) (2, -1.41596742361692770000e+001) (3, 1.15326536046188060000e+001) (4, -3.86923483771782490000e+000) (5, -6.61615329931459060000e+000) (6, 5.38691632446536860000e+000) (7, 3.92601719375050780000e+001) (8, -4.58793481245515110000e-001) (0, 5.57357473319463190000e+000) (1, 1.01803587604330730000e+001) (2, -1.13242613765970450000e+001) (3, -7.74049070173747580000e-001) (4, 3.24034492113082920000e+001) (5, -3.21189691890205110000e+001) (6, 3.69821559340621350000e+001) (7, -5.74585534681101850000e-001) (8, -2.69306587896340100000e-001) (0, 1.76801013424146400000e+000) (1, 1.09486801506516200000e+001) (2, 3.08146854687110580000e+000) (3, -3.49360893967403420000e+000) (4, -2.10357638033094470000e+001) (5, 2.07470966870542250000e+000) (6, 9.41611456558616130000e+000) (7, 6.11031572054684280000e-001) (8, 1.23242658709853000000e+000) (0, 1.89725002100970010000e+000) (1, 4.63095763386385520000e+000) (2, 2.76625561582724440000e+001) (3, -6.03497937227976070000e+000) (4, -3.28635525214781850000e+000) (5, -2.56691097274085140000e+000) (6, -7.78817180726209380000e+000) (7, -3.41980128662510950000e+000) (8, 1.76178865566129880000e-001) (0, 1.50000000000000000000e+003) (1, 1.00011934284693080000e+002) (2, 4.32417694653828050000e+002) (3, -2.69330914846814550000e+002) (4, 1.35661473451650350000e+001) (5, -2.45363523544914470000e+002) (6, 1.47298918240207200000e+002) (7, -8.23406219308771200000e+001) (8, 7.00118646772737120000e+000) (0, 1.01266081736013260000e+000) (1, -1.14049741927702590000e-001) (2, 2.58514888945333200000e-001) (3, -1.65292028482502040000e+000) (4, -4.68038240352263770000e-001) (5, -3.11733350908556580000e-001) (6, -1.44160360064627110000e+000) (7, 9.79914521884896690000e-001) (8, 4.12005770930816280000e-002) (0, 4.80870964640314820000e+000) (1, 1.16657410166753060000e+000) (2, 4.55222078652143050000e+001) (3, -2.98044156124779460000e+001) (4, 7.25289437317208390000e+000) (5, 1.64505479551827210000e+001) (6, 3.46384111752983340000e+000) (7, 6.58592099105050990000e+000) (8, 2.62152290766273940000e-001) (0, -4.57723342105993950000e+000) (1, 7.88978660832596470000e+000) (2, -5.66623410368548890000e+000) (3, -1.97754745418135650000e-001) (4, 6.06106211739347310000e-001) (5, 8.00506935293613250000e+000) (6, -7.73241877529051980000e+000) (7, 1.97219810038118770000e+001) (8, 8.86770984661430450000e-001) (9, 3.31942616248944780000e-001) (10, -1.66027393201399340000e-001) (11, 1.87202386479921070000e-001) (12, 2.60169703780567430000e+000) (13, -2.97683319921795110000e+000) (14, 3.15865561149559550000e-001) (15, 1.00648085775746640000e+000) (16, -1.30572868697761100000e+000) (17, 9.36039195710872550000e-002) (18, 4.67918113463983860000e+000) (19, -2.92981903257070190000e-001) (20, -7.85041364320657410000e-001) (21, -1.28538387478327090000e+000) (22, 6.06684609626681250000e-001) (23, 7.74739675541722070000e-001) (24, -7.69738297188284210000e-002) (25, -8.70904047224609460000e-001) (26, -1.80293711537114090000e+000) (27, 4.43905016694304750000e-002) (28, 9.72003938807245000000e-001) (29, 2.41981927184801440000e-001) (9, 8.90658025908621420000e-001) (10, 1.53034149599059590000e-001) (11, -2.05236325348219420000e-001) (12, -1.44691603646936450000e+000) (13, 2.10322388243897910000e+000) (14, -1.03335461424512330000e-001) (15, -1.27222294670920570000e+000) (16, 2.65052610750304090000e+000) (17, -4.19228936901951050000e-002) (18, -2.23260083190721480000e+000) (19, 6.92596133134376730000e-001) (20, 1.11101204369136870000e-001) (21, 1.14372095259417580000e+000) (22, -3.17792040221716530000e-001) (23, 6.50063514202212260000e-003) (24, 3.74716969234099170000e-002) (25, 3.36518949956924830000e-001) (26, 3.73233841812021440000e+000) (27, 8.44834364616637720000e-002) (28, -2.33857427975182940000e-001) (29, 5.93872601605190060000e-001) (9, -1.43196196005246550000e-002) (10, 1.33036481115922540000e+000) (11, 4.71188632846297810000e-001) (12, -3.82958227404206000000e+000) (13, -3.85031964656367090000e+000) (14, -1.29522903054628320000e+000) (15, -1.81933193237607260000e+000) (16, 1.45142124182388870000e-002) (17, -2.23493399119972490000e-001) (18, -2.22971706722309640000e+000) (19, -6.59359973754782060000e-001) (20, 7.18475798890692130000e-001) (21, 1.19603080056501470000e+000) (22, -1.28493512121876030000e+000) (23, 7.42006196761127450000e-001) (24, -1.65592519890210150000e+000) (25, -2.01763946980558910000e-002) (26, 4.45089910145801150000e+000) (27, 1.21671777458021690000e+000) (28, 5.37777691006789520000e-001) (29, 1.90690033594365400000e-001) (9, 2.39979222997408530000e+000) (10, 1.89657486188519650000e+000) (11, -1.44951329736303960000e+000) (12, -6.39521843505085200000e-002) (13, 8.61161463451890260000e+000) (14, 3.72934884358211030000e+000) (15, -6.04961628616606180000e-001) (16, 7.20930759542299260000e+000) (17, 4.12794423088219950000e-002) (18, 1.81541069283443490000e+000) (19, 9.28345551134666990000e-001) (20, 6.42244587395640170000e-001) (21, 5.79055706435836700000e-001) (22, -1.51889456470123280000e-001) (23, 8.98006058640976380000e-001) (24, 5.26276257656718590000e-001) (25, 7.85041395770233880000e-002) (26, -2.35297031797928510000e+000) (27, 5.86374553576523990000e-002) (28, 1.18106438674564140000e+000) (29, 8.63465872371237730000e-001) (9, 1.68019585328013090000e+000) (10, 3.62125331410218540000e+000) (11, 3.36797711356948910000e-001) (12, -2.43553620415350470000e+000) (13, 3.07398203219354920000e+000) (14, 1.54778583824338380000e+000) (15, -7.16915490517280870000e-001) (16, 4.73109295250911810000e+000) (17, -5.21895836193776220000e-001) (18, -1.52482090749054410000e+000) (19, -7.83217045889669780000e-001) (20, 7.17305406537236620000e-001) (21, 9.05121203508361120000e-002) (22, -3.81839364374801430000e-001) (23, 7.95785447009549780000e-001) (24, -2.27220517433503830000e-001) (25, 3.45964481627154490000e-001) (26, 1.11227121272456290000e+000) (27, 5.45881443258372070000e-001) (28, 1.09803928570267820000e+000) (29, 4.96873596482373780000e-001) 
