FANN_FLO_2.1
num_layers=3
learning_rate=0.700000
connection_rate=1.000000
network_type=0
learning_momentum=0.000000
training_algorithm=2
train_error_function=1
train_stop_function=0
cascade_output_change_fraction=0.010000
quickprop_decay=-0.000100
quickprop_mu=1.750000
rprop_increase_factor=1.200000
rprop_decrease_factor=0.500000
rprop_delta_min=0.000000
rprop_delta_max=50.000000
rprop_delta_zero=0.100000
cascade_output_stagnation_epochs=12
cascade_candidate_change_fraction=0.010000
cascade_candidate_stagnation_epochs=12
cascade_max_out_epochs=150
cascade_max_cand_epochs=150
cascade_num_candidate_groups=2
bit_fail_limit=3.49999999999999980000e-001
cascade_candidate_limit=1.00000000000000000000e+003
cascade_weight_multiplier=4.00000000000000020000e-001
cascade_activation_functions_count=10
cascade_activation_functions=3 5 7 8 10 11 14 15 16 17 
cascade_activation_steepnesses_count=4
cascade_activation_steepnesses=2.50000000000000000000e-001 5.00000000000000000000e-001 7.50000000000000000000e-001 1.00000000000000000000e+000 
layer_sizes=9 4 6 
scale_included=0
neurons (num_inputs, activation_function, activation_steepness)=(0, 0, 0.00000000000000000000e+000) (0, 0, 0.00000000000000000000e+000) (0, 0, 0.00000000000000000000e+000) (0, 0, 0.00000000000000000000e+000) (0, 0, 0.00000000000000000000e+000) (0, 0, 0.00000000000000000000e+000) (0, 0, 0.00000000000000000000e+000) (0, 0, 0.00000000000000000000e+000) (0, 0, 0.00000000000000000000e+000) (9, 6, 5.00000000000000000000e-001) (9, 6, 5.00000000000000000000e-001) (9, 6, 5.00000000000000000000e-001) (0, 6, 0.00000000000000000000e+000) (4, 6, 5.00000000000000000000e-001) (4, 6, 5.00000000000000000000e-001) (4, 6, 5.00000000000000000000e-001) (4, 6, 5.00000000000000000000e-001) (4, 6, 5.00000000000000000000e-001) (0, 6, 0.00000000000000000000e+000) 
connections (connected_to_neuron, weight)=(0, -9.24499272721622490000e+000) (1, 1.16639180375024340000e+000) (2, -7.31975790143867490000e+000) (3, 1.59199226745071820000e+001) (4, -4.73927231550780380000e+001) (5, 5.50529310827524370000e+001) (6, 1.04991379786081090000e+001) (7, -1.35914064329366970000e+001) (8, 4.39458694832491230000e+000) (0, 5.72732632265216870000e+000) (1, 1.13575993081396210000e+000) (2, 2.57699022508853840000e+000) (3, -1.25911932917397000000e+001) (4, 1.90425061501073430000e+001) (5, -8.59966184784408230000e+000) (6, -2.09894766161669150000e+001) (7, 1.36326557358006200000e+001) (8, -3.08727493077250560000e+000) (0, -1.07349751716078670000e+002) (1, 3.78668225597922760000e+001) (2, -8.81632467226751120000e+001) (3, 1.16843265507198100000e+002) (4, -7.27648121102125290000e+002) (5, 1.12529512719948710000e+003) (6, -3.59363400503854790000e+002) (7, 6.31711567579095570000e+002) (8, 5.12532326091250850000e+001) (9, -8.26005072527393750000e-001) (10, -8.89801660905812470000e-001) (11, 2.28592367748021470000e-001) (12, 3.43967065815146800000e-001) (9, 9.09687418881183870000e-001) (10, 7.00751404711683070000e-001) (11, -3.24357573430335440000e-001) (12, 9.11896671077912950000e-001) (9, 1.67168559855278810000e-001) (10, -8.79695987800464960000e-002) (11, -8.48696188126600300000e-002) (12, 8.33666548782761360000e-001) (9, 1.01185533295702100000e+000) (10, 9.70743155791250150000e-001) (11, -4.96017749426441780000e-001) (12, 1.42141629058870200000e+000) (9, -4.42725637363441950000e-001) (10, -1.81996305911872940000e-001) (11, 3.11713097963146280000e-001) (12, 1.02024960590874710000e+000) 
