FANN_FLO_2.1
num_layers=3
learning_rate=0.700000
connection_rate=1.000000
network_type=0
learning_momentum=0.000000
training_algorithm=2
train_error_function=1
train_stop_function=0
cascade_output_change_fraction=0.010000
quickprop_decay=-0.000100
quickprop_mu=1.750000
rprop_increase_factor=1.200000
rprop_decrease_factor=0.500000
rprop_delta_min=0.000000
rprop_delta_max=50.000000
rprop_delta_zero=0.100000
cascade_output_stagnation_epochs=12
cascade_candidate_change_fraction=0.010000
cascade_candidate_stagnation_epochs=12
cascade_max_out_epochs=150
cascade_max_cand_epochs=150
cascade_num_candidate_groups=2
bit_fail_limit=3.49999999999999980000e-001
cascade_candidate_limit=1.00000000000000000000e+003
cascade_weight_multiplier=4.00000000000000020000e-001
cascade_activation_functions_count=10
cascade_activation_functions=3 5 7 8 10 11 14 15 16 17 
cascade_activation_steepnesses_count=4
cascade_activation_steepnesses=2.50000000000000000000e-001 5.00000000000000000000e-001 7.50000000000000000000e-001 1.00000000000000000000e+000 
layer_sizes=9 21 6 
scale_included=0
neurons (num_inputs, activation_function, activation_steepness)=(0, 0, 0.00000000000000000000e+000) (0, 0, 0.00000000000000000000e+000) (0, 0, 0.00000000000000000000e+000) (0, 0, 0.00000000000000000000e+000) (0, 0, 0.00000000000000000000e+000) (0, 0, 0.00000000000000000000e+000) (0, 0, 0.00000000000000000000e+000) (0, 0, 0.00000000000000000000e+000) (0, 0, 0.00000000000000000000e+000) (9, 6, 5.00000000000000000000e-001) (9, 6, 5.00000000000000000000e-001) (9, 6, 5.00000000000000000000e-001) (9, 6, 5.00000000000000000000e-001) (9, 6, 5.00000000000000000000e-001) (9, 6, 5.00000000000000000000e-001) (9, 6, 5.00000000000000000000e-001) (9, 6, 5.00000000000000000000e-001) (9, 6, 5.00000000000000000000e-001) (9, 6, 5.00000000000000000000e-001) (9, 6, 5.00000000000000000000e-001) (9, 6, 5.00000000000000000000e-001) (9, 6, 5.00000000000000000000e-001) (9, 6, 5.00000000000000000000e-001) (9, 6, 5.00000000000000000000e-001) (9, 6, 5.00000000000000000000e-001) (9, 6, 5.00000000000000000000e-001) (9, 6, 5.00000000000000000000e-001) (9, 6, 5.00000000000000000000e-001) (9, 6, 5.00000000000000000000e-001) (0, 6, 0.00000000000000000000e+000) (21, 6, 5.00000000000000000000e-001) (21, 6, 5.00000000000000000000e-001) (21, 6, 5.00000000000000000000e-001) (21, 6, 5.00000000000000000000e-001) (21, 6, 5.00000000000000000000e-001) (0, 6, 0.00000000000000000000e+000) 
connections (connected_to_neuron, weight)=(0, 2.87837282047245720000e+000) (1, -6.93478883215942330000e+000) (2, 8.94057878603272730000e+000) (3, 1.10075443298202790000e+001) (4, -6.68719361424895100000e+000) (5, -1.45235516101350510000e+001) (6, 6.84003963432943160000e+000) (7, -3.69180736192207610000e+000) (8, 1.22431947923539510000e+000) (0, 1.22874334572980540000e+000) (1, 1.89622635318364150000e-001) (2, 2.07031021472434280000e+000) (3, -1.39172062685943240000e+000) (4, -2.08425021657434460000e+000) (5, -1.03750303281018350000e+000) (6, 3.26026506924780080000e+000) (7, -5.39700421825006060000e+000) (8, 9.01393505808228080000e-001) (0, -6.53666766359202620000e-001) (1, -5.92626458253193090000e-002) (2, 1.18605873219903240000e+000) (3, -5.09674316141027540000e-001) (4, 5.85461509536366330000e-001) (5, -6.42735577144383010000e-001) (6, -1.20619353009992310000e+000) (7, -2.73481687242894860000e+000) (8, -7.75837105689279740000e-002) (0, -1.89699824385028440000e+000) (1, -3.91100971108552640000e+000) (2, 3.58068369368556330000e+000) (3, 6.56275644870491950000e-001) (4, 2.46977733118105930000e+001) (5, 1.60119997409468500000e+000) (6, 2.67643094642479480000e+000) (7, -1.01061350857173230000e+001) (8, 3.77716092840255370000e-001) (0, 3.81511613672965270000e+000) (1, -3.85939981541866870000e-001) (2, 3.63952125457584910000e+000) (3, 6.86708202148982850000e+000) (4, -1.65861774472961270000e+001) (5, -7.01620746967739350000e+000) (6, -1.43654868019283110000e+000) (7, 4.25482768753751280000e+000) (8, -1.38286545157307540000e-001) (0, 2.04287623803555140000e-001) (1, -1.10351447694048570000e+000) (2, -1.21642234149766510000e+000) (3, -7.38466906930890500000e+000) (4, -8.52750924657758480000e-001) (5, -3.78208018930866640000e-001) (6, 3.11948856641984180000e-001) (7, -3.24106701861885680000e+000) (8, 5.64057234224498170000e-004) (0, 7.55677924027925220000e-001) (1, -6.81803320597331730000e+000) (2, 3.69172145003045790000e-001) (3, 1.44944189699269900000e+001) (4, 4.02806599547789900000e+000) (5, -7.58258629714863910000e+000) (6, -2.81442574869332730000e+000) (7, 7.39762895602703030000e-001) (8, 6.88844793673454750000e-001) (0, -9.35091152188084140000e-001) (1, 4.87123750696304820000e+000) (2, 1.78230407389246320000e+001) (3, 1.57922209259974490000e+000) (4, -3.32719607542253750000e+001) (5, 7.51987692628619970000e+000) (6, -2.63331480410063850000e+001) (7, 4.05611237145597630000e+001) (8, 1.35653366702427140000e+000) (0, -7.08160666853907550000e-001) (1, 1.20872482637362140000e+001) (2, -1.99570346603838900000e+000) (3, -1.08682956778948790000e+000) (4, 5.89426542844093680000e-001) (5, -2.30906436680239400000e+000) (6, 1.60918462737638630000e+000) (7, -7.84981531883255100000e+000) (8, 3.88727947993757150000e-001) (0, 9.73478550133638710000e-001) (1, -3.31170932362560900000e+000) (2, 9.34548351186596960000e-001) (3, -1.60817555618670330000e+000) (4, 9.66595980240774820000e+000) (5, -6.03298663495315020000e-001) (6, 6.05492950811201960000e+000) (7, -1.23400683281976400000e+001) (8, 2.73714009674893010000e-001) (0, 1.07939712161905830000e-001) (1, 2.17422019976172280000e+000) (2, -2.29764061804565720000e+000) (3, 6.14048871791740720000e-001) (4, -5.87904491956300300000e+000) (5, -3.44713989931982430000e-001) (6, 1.29868593031029110000e+000) (7, 3.77017452134621370000e+000) (8, -6.78038637822986350000e-002) (0, 1.39163908888512290000e-001) (1, 1.40724116300460910000e+001) (2, 2.02334378121311430000e+000) (3, 5.22316673552715400000e+001) (4, 1.57251830771997110000e+000) (5, -3.27466440295179590000e+001) (6, -3.86090189068026460000e+001) (7, 4.14176007364149330000e+001) (8, 2.93091750542307680000e-001) (0, -2.62981367084222930000e+000) (1, 3.95616390274621920000e+000) (2, 7.38226345407176240000e+000) (3, -1.50473721215455590000e+000) (4, -2.23719345120179320000e+000) (5, 1.57975536680587920000e+000) (6, 2.58208086845906860000e+000) (7, -1.23101910519662510000e+001) (8, 4.31121147180616840000e-001) (0, 1.82948409006933690000e+001) (1, -1.86105007695805450000e+000) (2, -1.83868410590344920000e+001) (3, 1.32071256804782550000e+001) (4, 8.80701454258386890000e+001) (5, -6.36778941070783090000e+001) (6, 2.35576619513730950000e+001) (7, 5.73669954016692070000e+000) (8, -7.72635255875734010000e-001) (0, -1.98362811245175120000e+000) (1, 4.38380449063710650000e+000) (2, 3.99752661076657570000e+000) (3, -9.86031660343575390000e+000) (4, -2.32335971885934490000e+000) (5, 2.41788069514297630000e+001) (6, -3.64647049072053800000e+001) (7, 4.78072383480963050000e+001) (8, 9.32256732841453380000e-001) (0, -5.91096520730614030000e+000) (1, -9.05754853082859970000e-001) (2, 2.02397690492415140000e+000) (3, -2.95065166815287050000e+000) (4, 9.15172777590770180000e+000) (5, -3.94378723711967580000e+000) (6, -5.33819798981653780000e-002) (7, 6.24397170981279800000e+000) (8, -3.65638937815670200000e-001) (0, 2.48594171033755700000e-001) (1, -4.97682499115293540000e+000) (2, 1.17862679846176090000e+001) (3, 3.70560743107233080000e+000) (4, 2.56497997044969890000e+000) (5, 1.01920934706026840000e+001) (6, -4.96642832151280530000e+000) (7, -1.03754272840274310000e+001) (8, 2.51047455120872230000e-001) (0, 2.68109405713879620000e+000) (1, 5.38956891291367320000e+000) (2, 3.59052566331904680000e+000) (3, -4.75519235742199790000e+000) (4, 6.95937579212047840000e+001) (5, 1.66492836805151700000e+000) (6, 3.28500496385908530000e+001) (7, -6.09512646078733480000e+001) (8, -1.74292691532545740000e+000) (0, -2.03274860719817460000e+000) (1, 6.98746232862236030000e+000) (2, -1.61529563773572600000e+001) (3, 2.93880658837476150000e+001) (4, -1.11395509534454660000e+001) (5, 7.29580577544886650000e+000) (6, 6.42810744721321380000e+000) (7, -1.00333403102259000000e+000) (8, 1.66416864020783840000e-002) (0, -4.11568924524499390000e-001) (1, 9.44655587261488530000e+000) (2, -2.17994320078238560000e+000) (3, -2.04723991052909240000e+000) (4, -9.13732088825483050000e+000) (5, 6.75420117938914190000e+000) (6, 1.49720023380609870000e+001) (7, -1.67928922902998710000e+001) (8, 3.50384384779113320000e-001) (9, -1.16891673215638110000e+000) (10, 1.11353934540515340000e+000) (11, 6.65836042488839030000e+000) (12, 2.00779062095414850000e-001) (13, -5.41618415199416890000e-001) (14, -3.51850925140412540000e+000) (15, 1.05602177467209610000e+000) (16, 7.91153956380237220000e-001) (17, -2.23404417602991680000e-001) (18, 1.80491604321724370000e+000) (19, 3.95486976017423240000e+000) (20, -2.04521967531921060000e-001) (21, -1.16000379089730690000e+000) (22, -1.82115253668822750000e-001) (23, -3.04979327441660560000e-001) (24, -3.07736169637854160000e-001) (25, -8.98719827340389690000e-001) (26, 8.09266206570335160000e-002) (27, -6.75689707736743190000e-001) (28, 2.20988155414225650000e-001) (29, 5.09921301344118060000e-001) (9, 7.65441346390608900000e-001) (10, 1.25386210006858480000e+000) (11, -4.01477258774560130000e+000) (12, 3.52902827581208110000e-001) (13, 2.33159778279661420000e-001) (14, 2.44007180880288740000e+000) (15, -1.40423062610009120000e+000) (16, -4.07480936461318170000e-001) (17, 6.04912837906881550000e-001) (18, -1.78026717505773460000e+000) (19, -2.67712228675274400000e+000) (20, 2.96296500479587450000e-002) (21, 1.21901687281221230000e-002) (22, 5.46447338228389780000e-002) (23, 6.38787654771636180000e-002) (24, 5.59644853063271720000e-001) (25, 9.66889424289097850000e-001) (26, -1.10113276702985720000e-001) (27, 8.21586319892459890000e-001) (28, -7.74487637120567120000e-001) (29, 4.27778810644394660000e-001) (9, 3.99879301689894330000e-001) (10, 5.61070452955237390000e-001) (11, -4.85881937269030130000e+000) (12, 9.20752119561097150000e-001) (13, 1.44254348055487140000e+000) (14, 2.38876229540482530000e+000) (15, 6.80656120089035870000e-001) (16, -9.12600008291425400000e-001) (17, 7.73963066387979630000e-001) (18, -1.44498323351105220000e+000) (19, -1.18045283832119340000e+000) (20, -3.09309356452509900000e-001) (21, 1.60216634849098320000e+000) (22, -1.39607836561834560000e-001) (23, 8.22103763068322890000e-001) (24, 2.53787495418221650000e-001) (25, -2.32582988105451720000e-001) (26, 5.20330352933779520000e-002) (27, 5.78958188713488920000e-001) (28, -7.32869016884511340000e-001) (29, 2.01645117427891150000e-001) (9, -1.05578937406433270000e+000) (10, 6.60567457911585220000e-001) (11, -2.72891486505350000000e+000) (12, 1.92156927267574430000e+000) (13, 3.86350112661467420000e+000) (14, 2.28446633407697290000e+000) (15, -1.14408333829108000000e+000) (16, -2.24002983436345920000e-001) (17, 1.90695129151772470000e+000) (18, 2.81996668973313190000e+000) (19, -3.07146364775570060000e-001) (20, -4.67508124719826220000e-001) (21, -4.61342143610112050000e-001) (22, 5.18841364476335550000e-001) (23, 7.12596485440232240000e-001) (24, 2.64577153557184670000e+000) (25, 1.46281059692892070000e+000) (26, -9.56430728472027260000e-001) (27, 1.26714090223946420000e+000) (28, -6.57986654997880120000e-001) (29, 5.60396166773236340000e-001) (9, -4.44056425886851570000e-001) (10, 3.44229462039057580000e-001) (11, -3.77800339678167330000e+000) (12, 6.67760798632066720000e-001) (13, 2.11243771018650730000e+000) (14, 2.02729550422468960000e+000) (15, -9.51362357033315510000e-001) (16, -9.14129505487492500000e-001) (17, 9.01168263423018030000e-001) (18, 1.28372557273001320000e+000) (19, 2.34548144432771450000e+000) (20, -2.72646436688743170000e-001) (21, 2.07510155122867700000e+000) (22, 2.00036200119405230000e-001) (23, 6.30976620243318350000e-001) (24, 7.05908052359229270000e-001) (25, 7.07387098272612590000e-001) (26, -1.52270204932951990000e-001) (27, 1.02310385793497600000e+000) (28, -2.71545752668514240000e+000) (29, 1.36687481537144520000e+000) 
