FANN_FLO_2.1
num_layers=3
learning_rate=0.700000
connection_rate=1.000000
network_type=0
learning_momentum=0.000000
training_algorithm=2
train_error_function=1
train_stop_function=0
cascade_output_change_fraction=0.010000
quickprop_decay=-0.000100
quickprop_mu=1.750000
rprop_increase_factor=1.200000
rprop_decrease_factor=0.500000
rprop_delta_min=0.000000
rprop_delta_max=50.000000
rprop_delta_zero=0.100000
cascade_output_stagnation_epochs=12
cascade_candidate_change_fraction=0.010000
cascade_candidate_stagnation_epochs=12
cascade_max_out_epochs=150
cascade_max_cand_epochs=150
cascade_num_candidate_groups=2
bit_fail_limit=3.49999999999999980000e-001
cascade_candidate_limit=1.00000000000000000000e+003
cascade_weight_multiplier=4.00000000000000020000e-001
cascade_activation_functions_count=10
cascade_activation_functions=3 5 7 8 10 11 14 15 16 17 
cascade_activation_steepnesses_count=4
cascade_activation_steepnesses=2.50000000000000000000e-001 5.00000000000000000000e-001 7.50000000000000000000e-001 1.00000000000000000000e+000 
layer_sizes=9 4 6 
scale_included=0
neurons (num_inputs, activation_function, activation_steepness)=(0, 0, 0.00000000000000000000e+000) (0, 0, 0.00000000000000000000e+000) (0, 0, 0.00000000000000000000e+000) (0, 0, 0.00000000000000000000e+000) (0, 0, 0.00000000000000000000e+000) (0, 0, 0.00000000000000000000e+000) (0, 0, 0.00000000000000000000e+000) (0, 0, 0.00000000000000000000e+000) (0, 0, 0.00000000000000000000e+000) (9, 6, 5.00000000000000000000e-001) (9, 6, 5.00000000000000000000e-001) (9, 6, 5.00000000000000000000e-001) (0, 6, 0.00000000000000000000e+000) (4, 6, 5.00000000000000000000e-001) (4, 6, 5.00000000000000000000e-001) (4, 6, 5.00000000000000000000e-001) (4, 6, 5.00000000000000000000e-001) (4, 6, 5.00000000000000000000e-001) (0, 6, 0.00000000000000000000e+000) 
connections (connected_to_neuron, weight)=(0, -6.03928492803099370000e+000) (1, 1.07688084162072430000e+001) (2, -5.07955588594011330000e+000) (3, -2.88798386630682690000e+000) (4, -3.09132012082108860000e+001) (5, 3.70733052098902220000e+001) (6, -1.63344510172622850000e+001) (7, 1.54469463635458040000e+001) (8, 8.83564874164405210000e-001) (0, 7.86332671204140880000e+000) (1, -2.92818664416636220000e+000) (2, -1.74668523798771320000e-001) (3, -1.37454837071393780000e+001) (4, 2.10847986167623240000e-001) (5, 4.27849951478130920000e+000) (6, -3.68666976358622880000e+001) (7, 1.65017333078139180000e+001) (8, 2.81442041217194340000e+000) (0, -5.59659761518591650000e-001) (1, 5.71826851362261410000e-001) (2, -3.28915189913338620000e-001) (3, 6.91673595515971520000e-001) (4, -1.19439796749099700000e+000) (5, 9.67377951600609020000e-001) (6, 6.76066601364092020000e-001) (7, 5.73026413968317110000e-001) (8, -1.59562903782642480000e-001) (9, -1.85335587433779340000e-002) (10, -1.35179482142207820000e-001) (11, 4.15099748593298350000e-001) (12, 7.14744186449628890000e-001) (9, 2.80579236127894150000e-001) (10, -1.03285191220274550000e-001) (11, -1.89862116438056770000e+000) (12, 6.99698074419667910000e-001) (9, 4.32165128690442830000e-003) (10, 1.32194622381296170000e-001) (11, 1.85561080881540770000e+000) (12, 1.00968075634713130000e+000) (9, 1.52268545933370410000e-001) (10, -2.00529617412283560000e-001) (11, -3.12588688216552060000e+000) (12, 9.18899898827347020000e-001) (9, -3.96829711936386780000e-001) (10, 5.92462878186864160000e-001) (11, 4.41764610787630740000e+000) (12, 1.03622838933413620000e+000) 
