FANN_FLO_2.1
num_layers=3
learning_rate=0.700000
connection_rate=1.000000
network_type=0
learning_momentum=0.000000
training_algorithm=2
train_error_function=1
train_stop_function=0
cascade_output_change_fraction=0.010000
quickprop_decay=-0.000100
quickprop_mu=1.750000
rprop_increase_factor=1.200000
rprop_decrease_factor=0.500000
rprop_delta_min=0.000000
rprop_delta_max=50.000000
rprop_delta_zero=0.100000
cascade_output_stagnation_epochs=12
cascade_candidate_change_fraction=0.010000
cascade_candidate_stagnation_epochs=12
cascade_max_out_epochs=150
cascade_max_cand_epochs=150
cascade_num_candidate_groups=2
bit_fail_limit=3.49999999999999980000e-001
cascade_candidate_limit=1.00000000000000000000e+003
cascade_weight_multiplier=4.00000000000000020000e-001
cascade_activation_functions_count=10
cascade_activation_functions=3 5 7 8 10 11 14 15 16 17 
cascade_activation_steepnesses_count=4
cascade_activation_steepnesses=2.50000000000000000000e-001 5.00000000000000000000e-001 7.50000000000000000000e-001 1.00000000000000000000e+000 
layer_sizes=9 4 6 
scale_included=0
neurons (num_inputs, activation_function, activation_steepness)=(0, 0, 0.00000000000000000000e+000) (0, 0, 0.00000000000000000000e+000) (0, 0, 0.00000000000000000000e+000) (0, 0, 0.00000000000000000000e+000) (0, 0, 0.00000000000000000000e+000) (0, 0, 0.00000000000000000000e+000) (0, 0, 0.00000000000000000000e+000) (0, 0, 0.00000000000000000000e+000) (0, 0, 0.00000000000000000000e+000) (9, 6, 5.00000000000000000000e-001) (9, 6, 5.00000000000000000000e-001) (9, 6, 5.00000000000000000000e-001) (0, 6, 0.00000000000000000000e+000) (4, 6, 5.00000000000000000000e-001) (4, 6, 5.00000000000000000000e-001) (4, 6, 5.00000000000000000000e-001) (4, 6, 5.00000000000000000000e-001) (4, 6, 5.00000000000000000000e-001) (0, 6, 0.00000000000000000000e+000) 
connections (connected_to_neuron, weight)=(0, -7.08480455812009690000e+000) (1, 8.37773641607271100000e+000) (2, -2.58143796642295390000e+000) (3, 5.18456105466585180000e+000) (4, -1.99773509060218470000e+001) (5, 1.92432023342440920000e+001) (6, 1.31404028998742990000e+000) (7, 1.83270342121728790000e+000) (8, 2.66688621686551160000e-002) (0, 4.35560425744429320000e-001) (1, -1.13661684807352410000e+000) (2, 6.89593721529191070000e-001) (3, 6.13182018462911980000e-001) (4, 1.14652312768120760000e+000) (5, -2.80355340825528950000e+000) (6, 2.44286687130259410000e+000) (7, -1.49269421029568910000e+000) (8, -3.42013092525049910000e-001) (0, -6.30438158446839370000e-001) (1, -7.08253220645208790000e-001) (2, 3.76321787633778660000e-001) (3, 3.74745253159383470000e+000) (4, -1.48068388314828740000e+000) (5, -3.46398792055913060000e+000) (6, 4.91966156735057150000e+000) (7, -7.94712387657788950000e-001) (8, -4.82681428355374420000e-001) (9, 9.34490028498779630000e-002) (10, 5.95471944624852530000e-001) (11, 3.19580545317491250000e-001) (12, 7.33118262207920530000e-001) (9, 3.01860287142213250000e-001) (10, 5.84921027547658620000e-001) (11, -9.97004897508072090000e-001) (12, 7.16501572473914440000e-001) (9, 7.34578765306328950000e-003) (10, -1.20339731719016970000e+000) (11, 5.33626891661404310000e-001) (12, 9.19644767557297180000e-001) (9, 1.57800635562365150000e-001) (10, 1.93219534149152030000e+000) (11, -8.65090213905205020000e-001) (12, 1.13126422294404570000e+000) (9, -4.75619132062427120000e-001) (10, -2.79011274316968060000e+000) (11, 9.57355677255156800000e-001) (12, 8.52242758039039480000e-001) 
