FANN_FLO_2.1
num_layers=3
learning_rate=0.700000
connection_rate=1.000000
network_type=0
learning_momentum=0.000000
training_algorithm=2
train_error_function=1
train_stop_function=0
cascade_output_change_fraction=0.010000
quickprop_decay=-0.000100
quickprop_mu=1.750000
rprop_increase_factor=1.200000
rprop_decrease_factor=0.500000
rprop_delta_min=0.000000
rprop_delta_max=50.000000
rprop_delta_zero=0.100000
cascade_output_stagnation_epochs=12
cascade_candidate_change_fraction=0.010000
cascade_candidate_stagnation_epochs=12
cascade_max_out_epochs=150
cascade_max_cand_epochs=150
cascade_num_candidate_groups=2
bit_fail_limit=3.49999999999999980000e-001
cascade_candidate_limit=1.00000000000000000000e+003
cascade_weight_multiplier=4.00000000000000020000e-001
cascade_activation_functions_count=10
cascade_activation_functions=3 5 7 8 10 11 14 15 16 17 
cascade_activation_steepnesses_count=4
cascade_activation_steepnesses=2.50000000000000000000e-001 5.00000000000000000000e-001 7.50000000000000000000e-001 1.00000000000000000000e+000 
layer_sizes=9 101 6 
scale_included=0
neurons (num_inputs, activation_function, activation_steepness)=(0, 0, 0.00000000000000000000e+000) (0, 0, 0.00000000000000000000e+000) (0, 0, 0.00000000000000000000e+000) (0, 0, 0.00000000000000000000e+000) (0, 0, 0.00000000000000000000e+000) (0, 0, 0.00000000000000000000e+000) (0, 0, 0.00000000000000000000e+000) (0, 0, 0.00000000000000000000e+000) (0, 0, 0.00000000000000000000e+000) (9, 6, 5.00000000000000000000e-001) (9, 6, 5.00000000000000000000e-001) (9, 6, 5.00000000000000000000e-001) (9, 6, 5.00000000000000000000e-001) (9, 6, 5.00000000000000000000e-001) (9, 6, 5.00000000000000000000e-001) (9, 6, 5.00000000000000000000e-001) (9, 6, 5.00000000000000000000e-001) (9, 6, 5.00000000000000000000e-001) (9, 6, 5.00000000000000000000e-001) (9, 6, 5.00000000000000000000e-001) (9, 6, 5.00000000000000000000e-001) (9, 6, 5.00000000000000000000e-001) (9, 6, 5.00000000000000000000e-001) (9, 6, 5.00000000000000000000e-001) (9, 6, 5.00000000000000000000e-001) (9, 6, 5.00000000000000000000e-001) (9, 6, 5.00000000000000000000e-001) (9, 6, 5.00000000000000000000e-001) (9, 6, 5.00000000000000000000e-001) (9, 6, 5.00000000000000000000e-001) (9, 6, 5.00000000000000000000e-001) (9, 6, 5.00000000000000000000e-001) (9, 6, 5.00000000000000000000e-001) (9, 6, 5.00000000000000000000e-001) (9, 6, 5.00000000000000000000e-001) (9, 6, 5.00000000000000000000e-001) (9, 6, 5.00000000000000000000e-001) (9, 6, 5.00000000000000000000e-001) (9, 6, 5.00000000000000000000e-001) (9, 6, 5.00000000000000000000e-001) (9, 6, 5.00000000000000000000e-001) (9, 6, 5.00000000000000000000e-001) (9, 6, 5.00000000000000000000e-001) (9, 6, 5.00000000000000000000e-001) (9, 6, 5.00000000000000000000e-001) (9, 6, 5.00000000000000000000e-001) (9, 6, 5.00000000000000000000e-001) (9, 6, 5.00000000000000000000e-001) (9, 6, 5.00000000000000000000e-001) (9, 6, 5.00000000000000000000e-001) (9, 6, 5.00000000000000000000e-001) (9, 6, 5.00000000000000000000e-001) (9, 6, 5.00000000000000000000e-001) (9, 6, 5.00000000000000000000e-001) (9, 6, 5.00000000000000000000e-001) (9, 6, 5.00000000000000000000e-001) (9, 6, 5.00000000000000000000e-001) (9, 6, 5.00000000000000000000e-001) (9, 6, 5.00000000000000000000e-001) (9, 6, 5.00000000000000000000e-001) (9, 6, 5.00000000000000000000e-001) (9, 6, 5.00000000000000000000e-001) (9, 6, 5.00000000000000000000e-001) (9, 6, 5.00000000000000000000e-001) (9, 6, 5.00000000000000000000e-001) (9, 6, 5.00000000000000000000e-001) (9, 6, 5.00000000000000000000e-001) (9, 6, 5.00000000000000000000e-001) (9, 6, 5.00000000000000000000e-001) (9, 6, 5.00000000000000000000e-001) (9, 6, 5.00000000000000000000e-001) (9, 6, 5.00000000000000000000e-001) (9, 6, 5.00000000000000000000e-001) (9, 6, 5.00000000000000000000e-001) (9, 6, 5.00000000000000000000e-001) (9, 6, 5.00000000000000000000e-001) (9, 6, 5.00000000000000000000e-001) (9, 6, 5.00000000000000000000e-001) (9, 6, 5.00000000000000000000e-001) (9, 6, 5.00000000000000000000e-001) (9, 6, 5.00000000000000000000e-001) (9, 6, 5.00000000000000000000e-001) (9, 6, 5.00000000000000000000e-001) (9, 6, 5.00000000000000000000e-001) (9, 6, 5.00000000000000000000e-001) (9, 6, 5.00000000000000000000e-001) (9, 6, 5.00000000000000000000e-001) (9, 6, 5.00000000000000000000e-001) (9, 6, 5.00000000000000000000e-001) (9, 6, 5.00000000000000000000e-001) (9, 6, 5.00000000000000000000e-001) (9, 6, 5.00000000000000000000e-001) (9, 6, 5.00000000000000000000e-001) (9, 6, 5.00000000000000000000e-001) (9, 6, 5.00000000000000000000e-001) (9, 6, 5.00000000000000000000e-001) (9, 6, 5.00000000000000000000e-001) (9, 6, 5.00000000000000000000e-001) (9, 6, 5.00000000000000000000e-001) (9, 6, 5.00000000000000000000e-001) (9, 6, 5.00000000000000000000e-001) (9, 6, 5.00000000000000000000e-001) (9, 6, 5.00000000000000000000e-001) (9, 6, 5.00000000000000000000e-001) (9, 6, 5.00000000000000000000e-001) (9, 6, 5.00000000000000000000e-001) (9, 6, 5.00000000000000000000e-001) (9, 6, 5.00000000000000000000e-001) (9, 6, 5.00000000000000000000e-001) (0, 6, 0.00000000000000000000e+000) (101, 6, 5.00000000000000000000e-001) (101, 6, 5.00000000000000000000e-001) (101, 6, 5.00000000000000000000e-001) (101, 6, 5.00000000000000000000e-001) (101, 6, 5.00000000000000000000e-001) (0, 6, 0.00000000000000000000e+000) 
connections (connected_to_neuron, weight)=(0, 2.59030559696548920000e-001) (1, 3.68387063779625490000e-001) (2, 9.79602462678235590000e-001) (3, 3.85841894914520030000e-001) (4, 6.67123945096811280000e-001) (5, 1.06571039373505250000e+000) (6, 1.38969720056095310000e+000) (7, 1.99514001209901700000e+000) (8, 5.61483014726771760000e-001) (0, 1.19478978874646980000e+000) (1, 6.64702358976591360000e-001) (2, 1.02874533714669570000e+000) (3, 1.30118400892835990000e+000) (4, 9.04349709288509220000e-001) (5, 7.02762968307120710000e-001) (6, 1.29970732298826300000e-001) (7, 2.01113394667594400000e-001) (8, 7.43956186431618650000e-001) (0, 1.12581130348909750000e+000) (1, 2.93012528576540030000e-001) (2, 5.35987934839177500000e-001) (3, 1.12276419723569630000e+000) (4, 5.86719776942369210000e-001) (5, 5.40887358245363270000e-001) (6, 2.83362646551526060000e-003) (7, 2.37455516495161500000e-001) (8, 5.01856058441902060000e-001) (0, -4.42554448515673660000e-001) (1, -4.80524664829428790000e-001) (2, -1.49905176992935510000e+000) (3, -6.44061463350641070000e-001) (4, 8.26315377409227000000e-001) (5, 2.50093085490910860000e-001) (6, 1.40280381074340850000e-001) (7, -5.91371918756846360000e-001) (8, 2.08073502593288860000e-001) (0, 4.34999377110220240000e-001) (1, 5.19207682561714120000e-001) (2, 5.66072323237945650000e-001) (3, 5.45201854265984780000e-001) (4, 5.63156465529992990000e-001) (5, 6.77556120987646170000e-001) (6, 7.06476058685718280000e-001) (7, 7.99735012620793160000e-001) (8, 4.97431069669853510000e-001) (0, -5.46636088286798990000e-001) (1, 1.19066234100528180000e+001) (2, 1.23998207086745080000e-001) (3, -1.71808149327003060000e-001) (4, 4.86814402170254790000e-001) (5, 1.42663521159851780000e+001) (6, -3.11079885409396790000e+000) (7, -7.96161959939002100000e+000) (8, 3.98845299227665870000e-001) (0, -1.20091746244785580000e-002) (1, 8.60440103667499680000e-001) (2, 3.03260036893494510000e-001) (3, 5.93332266460605990000e-001) (4, 7.97531131332766760000e-001) (5, 5.79512120542560520000e-001) (6, 1.22218988509652870000e+000) (7, 5.84933056654748820000e-001) (8, 5.26687660859055050000e-001) (0, 3.81151907411094390000e-001) (1, 7.39069843964183850000e-001) (2, -8.40986492086114420000e-001) (3, 4.21366566912268430000e-001) (4, 1.30347705327607530000e+000) (5, 6.01406943071164870000e-002) (6, 1.87949867858235060000e+000) (7, 8.50129521125969620000e-001) (8, 4.67525555606152670000e-001) (0, 1.03554925693230640000e+000) (1, 6.76430997976640970000e-001) (2, 9.99668193192620680000e-001) (3, 9.11998929540449590000e-001) (4, 4.83607416956649990000e-001) (5, 7.70953991888682520000e-001) (6, -9.30552096112384350000e-002) (7, -8.19366611091245640000e-002) (8, 6.28834824843044870000e-001) (0, 1.88079258452765020000e-001) (1, 5.44187056053863970000e-001) (2, 4.61003058494260210000e-001) (3, 8.24745212751234690000e-001) (4, 1.88404948055018890000e-001) (5, 7.05051494588290750000e-001) (6, 3.00125961248192800000e-001) (7, 6.82015002124970350000e-001) (8, 4.83430178278647320000e-001) (0, 7.05139745957305890000e-001) (1, 3.63131877049325590000e-001) (2, 4.28724503905222210000e-001) (3, 1.06002435255240160000e+000) (4, 5.75019012367222530000e-001) (5, 4.59523444825026940000e-001) (6, 4.76618905951895210000e-002) (7, 2.49584192115377660000e-001) (8, 4.19627402010646080000e-001) (0, -6.96625922203272100000e-002) (1, 5.94535144088016330000e-001) (2, 7.91341726312822740000e-001) (3, 6.35393603958921420000e-001) (4, 4.32750164215733420000e-001) (5, 7.36624788882452860000e-001) (6, 6.30363287722610850000e-001) (7, 9.42009387240457020000e-001) (8, 5.62255602420099980000e-001) (0, 3.44375187135337320000e-001) (1, 6.04020421480579660000e-001) (2, 4.12395842501490360000e-001) (3, 4.09373319578313190000e-001) (4, 1.45423803049342350000e-001) (5, 2.75363609362653970000e-001) (6, 2.74562813405193450000e-001) (7, 4.95572719624978450000e-001) (8, 4.66468177839987400000e-001) (0, 6.71130101329295400000e-001) (1, -1.65738502637612560000e+000) (2, -2.91998344466865810000e+000) (3, 4.50509341773129710000e+000) (4, 1.89375928448573800000e+000) (5, -5.88822445650135680000e+000) (6, -6.53796928253863820000e+000) (7, 4.75923891821175000000e-001) (8, 4.53430927530050990000e-001) (0, 5.63765739264321280000e-001) (1, 5.03081909295958310000e-001) (2, 8.37308096845991830000e-001) (3, 1.06065320620159250000e+000) (4, 8.17034016561576150000e-001) (5, 1.26243782728284600000e-001) (6, 9.68906888248256550000e-002) (7, -1.41781724447383530000e+000) (8, 4.17682334073381730000e-001) (0, 6.70840323563080760000e-001) (1, 2.25411369085156910000e-001) (2, 7.00607727369220060000e-001) (3, 4.49144255461378260000e-001) (4, 3.25878804720195150000e-001) (5, 5.39467430227975610000e-001) (6, 1.59644445607791260000e-002) (7, 2.96998132627815270000e-001) (8, 2.84317187223959880000e-001) (0, -1.05234914186251740000e-001) (1, 4.68256397398378040000e-001) (2, 8.24373023792837500000e-001) (3, 6.26103632459748320000e-001) (4, 4.51551433224770750000e-002) (5, 1.93427678819398290000e+000) (6, 8.76709348605339890000e-001) (7, 7.79792147611334090000e-001) (8, 2.37143006938564470000e-001) (0, 7.70811655967936100000e-001) (1, -2.51195586682283260000e+000) (2, 1.58513293901747150000e+000) (3, 4.06702380006397760000e+000) (4, -3.40243317983420600000e+000) (5, -2.95060234757756280000e-001) (6, 3.60659933841839390000e+000) (7, 3.22693806275776480000e+000) (8, 9.50790522372364640000e-002) (0, 3.18027096931142780000e-001) (1, 4.78788481140509200000e-001) (2, 4.40431806294969700000e-001) (3, 4.62475911362058070000e-001) (4, 2.09720300444291320000e-001) (5, 5.35786262942113180000e-001) (6, 4.63415685139065610000e-001) (7, 7.17076189132382580000e-001) (8, 5.07043871615685980000e-001) (0, -1.53210801888188650000e+000) (1, -5.65225289185328660000e-001) (2, 1.56621046317045070000e-001) (3, 2.48459035628323830000e+000) (4, 1.17995746519645310000e+000) (5, 2.60003289471770980000e+000) (6, 2.98877216477056300000e+000) (7, 4.80532403137495740000e+000) (8, 9.36361924630744970000e-001) (0, 2.89657779882739160000e-001) (1, 3.80397290123802410000e-001) (2, 6.81450229552936220000e-001) (3, 4.61085202094124790000e-001) (4, 5.50879732392696720000e-001) (5, 4.90206511159149040000e-001) (6, 4.34989552301276510000e-001) (7, 9.88094768130829530000e-001) (8, 5.38167408194309300000e-001) (0, 1.25596798200366070000e+000) (1, 6.90805756369095360000e-001) (2, 1.25900780193126630000e+000) (3, 1.13705292423314860000e+000) (4, 1.95129253177262240000e-001) (5, 1.02458068946208880000e+000) (6, -8.69974042702751640000e-002) (7, 1.07366150181825850000e-001) (8, 5.85890906973697500000e-001) (0, 8.10427714362454750000e-001) (1, 2.83577349141261040000e-001) (2, 7.06114196151584880000e-001) (3, 3.54850034130539730000e-001) (4, 1.83363121105280720000e-001) (5, 6.48636301598322970000e-001) (6, 1.55998688658767980000e-001) (7, 6.30985832828314110000e-002) (8, 2.51341681675535170000e-001) (0, 3.77883079810055700000e-001) (1, 2.21439512079026320000e-001) (2, 1.00445345678848110000e+000) (3, 2.77436885635067080000e-001) (4, 7.54467260760285470000e-001) (5, 1.02752931220292760000e+000) (6, 1.41118578663943730000e+000) (7, 2.67155012921030940000e+000) (8, 5.82361380819107160000e-001) (0, 7.98426586317731560000e-001) (1, 4.62282151937395750000e-001) (2, 9.59862981763004440000e-001) (3, 6.85555149666600800000e-001) (4, 3.71233258517726540000e-001) (5, 5.17520335765506270000e-001) (6, -1.02075049520935660000e-001) (7, 1.37382421100789770000e-001) (8, 3.75901183799846440000e-001) (0, 3.28357942223647450000e-001) (1, 3.13373486143021130000e-001) (2, 7.53349987696304120000e-001) (3, 6.64830336238900530000e-001) (4, 4.30345620750389960000e-001) (5, 1.35118721684535180000e+000) (6, 9.39549556223695290000e-001) (7, 1.19776824235029670000e+000) (8, 4.56785002384713920000e-001) (0, 2.90979863285044170000e+000) (1, -2.59321531593442280000e+001) (2, -1.74178392362780630000e+001) (3, 4.90243430801507780000e+000) (4, 4.49229427050911100000e+001) (5, 1.56494528941532040000e+000) (6, -1.13242200397270610000e+001) (7, 1.58250212565119370000e-001) (8, 9.49300748858882270000e-001) (0, 5.23998763883109950000e-001) (1, 1.42072918756525720000e-001) (2, 4.34981319702482550000e-001) (3, 5.13176692957156180000e-001) (4, 5.60417224427265050000e-001) (5, 8.66409973104285410000e-002) (6, -2.09284613197971910000e-002) (7, 1.37594203495302940000e-001) (8, 4.08774835414107860000e-001) (0, 5.36646807834520350000e-001) (1, 4.62437521860324500000e-001) (2, 8.11912730239826570000e-001) (3, 4.49768909564462420000e-001) (4, 1.15114482980654170000e-001) (5, 1.10757895087743230000e+000) (6, 5.47890252045242780000e-001) (7, 1.32566466815471930000e+000) (8, 5.56812215992651850000e-001) (0, 5.93102850049061490000e-001) (1, 1.68588855749062510000e+000) (2, 6.56725852383125420000e-001) (3, 4.97507231106616490000e-001) (4, 1.09155068330069640000e+001) (5, -4.23586574133666540000e-002) (6, 1.22394946572705110000e+000) (7, 1.96919845297792630000e+000) (8, 7.86197001033647620000e-002) (0, 2.17746707605058850000e-001) (1, 1.25143086397647600000e-001) (2, 1.13525478739164940000e+000) (3, 3.37231132306822390000e-001) (4, 7.32454645957069330000e-001) (5, 2.70886094620226280000e-001) (6, 3.74658147630284160000e-001) (7, 1.18063151428963690000e+000) (8, 4.56145763084453200000e-001) (0, 6.71804207789118310000e-001) (1, 1.21932463012426220000e-001) (2, 7.49087337537834630000e-001) (3, 3.64858435803055160000e-001) (4, 2.48424311852607800000e-001) (5, 4.85481553787102560000e-001) (6, 7.63709234038825600000e-002) (7, 2.79804591528564520000e-001) (8, 2.88463472416740640000e-001) (0, 7.41998403929586050000e-001) (1, 4.25875000379911550000e-001) (2, 5.15662523409464500000e-001) (3, 1.11704014639993910000e+000) (4, 5.37525480997226410000e-001) (5, 4.98709490907763620000e-001) (6, 1.43057659432215320000e-001) (7, 2.11568106780491230000e-001) (8, 5.35079649797729930000e-001) (0, 7.35022763649060830000e-002) (1, 3.72563470326349730000e-001) (2, 6.19676834158202960000e-001) (3, 5.45079590780708330000e-001) (4, 1.00374536447382510000e-001) (5, 1.05261879005089190000e+000) (6, 7.47385185672200360000e-001) (7, 9.31067610332913520000e-001) (8, 2.01763704620438740000e-001) (0, 5.76147958532404820000e-002) (1, 7.29882489915759770000e-001) (2, 4.03913674400623370000e-001) (3, 2.86375219521444730000e-001) (4, -2.67020465750641460000e-002) (5, 3.41479893899940930000e-001) (6, 8.11536335509643880000e-001) (7, 1.35079505528839830000e+000) (8, 1.80868058811135350000e-001) (0, 4.50510058699706780000e-001) (1, 8.92241504468742510000e-001) (2, 5.03934753343221800000e-001) (3, 5.94096062858739840000e-001) (4, 5.10657528005765580000e-001) (5, 7.93517512220090150000e-001) (6, 6.23968631456703450000e-001) (7, 8.95781540783298520000e-001) (8, 6.48361722718335030000e-001) (0, 2.45840590452832550000e+000) (1, -1.12616356180658020000e+000) (2, -3.45801172075733080000e-001) (3, 1.18747910248613400000e+000) (4, -3.23302531186111250000e+000) (5, -5.17932101048511840000e-001) (6, 4.36601045903411130000e+000) (7, -7.92325039308321100000e-001) (8, 2.81192484181030210000e-001) (0, 3.52766474508690120000e+000) (1, 7.12144741844158790000e+000) (2, -4.98869731121503790000e+000) (3, 9.32433248093140770000e-001) (4, 4.61734254810805740000e+000) (5, -1.18048090621007800000e+001) (6, -5.87978329702502920000e+000) (7, -1.06307133666954440000e+001) (8, 2.19916542603707990000e-001) (0, 4.55158633120155640000e-001) (1, 4.55299620264440990000e-001) (2, 5.41598559267706390000e-001) (3, 5.26179580843927800000e-001) (4, 4.75524577441202300000e-001) (5, 6.34648835286471980000e-001) (6, 5.21627073870859490000e-001) (7, 1.02640792283266880000e+000) (8, 5.96310089883928090000e-001) (0, 6.70033102960998270000e-001) (1, 3.08422173160040890000e-001) (2, 4.77078400372321850000e-001) (3, 3.46761934278241760000e-001) (4, 4.15931289651800260000e-001) (5, 6.26704515933553470000e-001) (6, -2.91342376655294240000e-002) (7, 8.81064485278322120000e-002) (8, 2.88691989732071050000e-001) (0, 8.72702354320121110000e-001) (1, 1.98880223258186000000e-001) (2, 4.94986644670412310000e-001) (3, 3.00268516638307500000e-001) (4, 5.03007882456557700000e-001) (5, 2.79017943071877270000e-001) (6, 3.36082193489633250000e-002) (7, 1.97799291616602770000e-002) (8, 3.22082305671607780000e-001) (0, 9.42491861830602410000e-001) (1, 3.24818077503040200000e-001) (2, 8.52351008060500790000e-001) (3, 4.65784893434957660000e-001) (4, 6.60928204428922750000e-001) (5, 1.39634688933260080000e+000) (6, 1.10800173446009230000e+000) (7, 1.31055997065197170000e+000) (8, 5.37461366636623920000e-001) (0, 1.23978846647466080000e+000) (1, 8.99922415827159040000e-001) (2, 1.19909308704113360000e+000) (3, 1.13010106814588070000e+000) (4, 1.66444086509542700000e-001) (5, 1.02173584347095490000e+000) (6, 1.80598130251446030000e-001) (7, 1.57093008982124140000e-001) (8, 6.50926606093440000000e-001) (0, 5.01047917871306870000e-001) (1, 7.53235035530850330000e-003) (2, -4.39347541667436280000e-001) (3, -8.02803377037847630000e+000) (4, 3.32899679658113270000e+000) (5, 4.13223768176623710000e-001) (6, 4.55956152224771130000e+000) (7, -9.89413424942377870000e+000) (8, -3.14196768360867000000e-002) (0, 1.06256823351852180000e+000) (1, 8.09470368189686320000e-001) (2, 9.91450702294535020000e-001) (3, 8.61618138945611120000e-001) (4, 3.96691897507524150000e-001) (5, 1.01800331964537880000e+000) (6, 1.50497872887489450000e-001) (7, 5.24515966097751500000e-002) (8, 5.97059706834579540000e-001) (0, -2.08812405054573270000e-001) (1, 1.29282652675154040000e+000) (2, 8.43930906458192020000e-001) (3, -4.19944475424134020000e+000) (4, -1.99196014589116710000e+000) (5, 3.62185210289912130000e+000) (6, 8.14940497856083020000e-001) (7, 3.73790238356670520000e-001) (8, 4.35710775614011820000e-002) (0, -2.43256153285369950000e-002) (1, 7.70657510538735440000e-001) (2, 2.94561253456395010000e+000) (3, -3.89522796210580840000e-001) (4, -1.93425339151170820000e+000) (5, 5.99119170783948200000e-002) (6, 1.44467442794119780000e+000) (7, -6.65436867092456020000e+000) (8, 5.46114502097179220000e-002) (0, 1.65119334333927420000e-001) (1, 3.22725818280117260000e-001) (2, 7.40131237164650460000e-001) (3, 5.22199460982878170000e-001) (4, -1.51274282664364660000e-001) (5, 5.34680509045869280000e-001) (6, 1.39709950777791400000e+000) (7, 1.54094241175292020000e+000) (8, 1.25547709735919060000e-001) (0, 1.21690445555475040000e+000) (1, 8.45785949416974160000e-001) (2, 1.11418381658679850000e+000) (3, 1.18070438855257190000e+000) (4, 5.91367923314032980000e-001) (5, 9.49782334799425530000e-001) (6, 4.75501387392076110000e-003) (7, 1.99682201871152290000e-001) (8, 7.24790611605840240000e-001) (0, 7.85461662460221980000e-001) (1, 3.33315014609845250000e-001) (2, 7.92893626263602600000e-001) (3, 4.51672436439052190000e-001) (4, 2.41078578984383590000e-001) (5, 6.50861615290918240000e-001) (6, 3.50832010394196840000e-002) (7, 3.25766140624074300000e-002) (8, 3.29847398961831740000e-001) (0, 9.87839518220503530000e-001) (1, 8.56396950220966960000e-001) (2, 9.32267934101671300000e-001) (3, 9.66435978942083880000e-001) (4, 5.60036604192764690000e-001) (5, 9.88882304516044200000e-001) (6, 4.06593407011813230000e-002) (7, 2.27214099478018180000e-001) (8, 7.41634615782349020000e-001) (0, 1.16937143899471900000e-002) (1, 2.96365129379141830000e-001) (2, 6.07182034089023600000e-001) (3, 2.77568890178542920000e-001) (4, -1.39477727726809320000e-002) (5, 3.68598613748820190000e-001) (6, 6.78994212507492150000e-001) (7, 1.15149990268468420000e+000) (8, 2.45774785779075940000e-001) (0, 3.31699790373784660000e-001) (1, 3.21304189118543030000e-001) (2, 6.37322620214423760000e-001) (3, 5.12536240613609470000e-001) (4, 2.88527082229902420000e-001) (5, 8.52695924642809190000e-001) (6, 7.61526341536581610000e-001) (7, 1.11549246437705050000e+000) (8, 3.38517177005469850000e-001) (0, 1.53170705557161720000e-001) (1, 4.62201168612083990000e-001) (2, 4.50304923148919730000e-001) (3, 1.31076670596886280000e+000) (4, 2.24899764429125900000e-001) (5, 1.08332359410150980000e+000) (6, 4.58381347706946660000e-001) (7, 4.54735135709497470000e-001) (8, 4.13653349548578690000e-001) (0, -4.66059765341841000000e-002) (1, 1.80439072230145660000e-001) (2, 3.81506654232175170000e-001) (3, 3.37486458067317030000e-001) (4, 5.85002670352759090000e-002) (5, 1.42843724098411530000e-001) (6, 6.51396367225400950000e-001) (7, 9.92848298796244920000e-001) (8, 2.13583450772456080000e-001) (0, -1.21140051336499170000e-001) (1, 1.00034745753809840000e+000) (2, -1.23168305606367310000e-001) (3, 1.22540555413828760000e+000) (4, -1.05916002897692050000e+000) (5, 4.06184527448089750000e-001) (6, -4.23019728544010190000e-003) (7, 1.88474515873855220000e+000) (8, 3.45629139778904640000e-001) (0, 4.95859981326438660000e-001) (1, 6.16502218461355220000e-001) (2, 7.09920623262796260000e-001) (3, 8.02769199448227000000e-001) (4, 6.01742894026871420000e-001) (5, 1.49354055545025850000e+000) (6, 6.01315203350145770000e-001) (7, 1.34111723134200740000e+000) (8, 6.63990758686147100000e-001) (0, 6.05692381063375820000e-002) (1, 2.14208787500540090000e-001) (2, 5.30933906538940240000e-001) (3, 2.97271998078700920000e-001) (4, -7.01479770284664930000e-002) (5, 3.34940447131381660000e-001) (6, 4.84252686895384250000e-001) (7, 1.43719078155435140000e+000) (8, 1.51487122533831920000e-001) (0, 5.82187796438444870000e-001) (1, 3.20148011585187080000e-001) (2, 6.51162063971733150000e-001) (3, 5.33877717059295540000e-001) (4, 3.92459810080245720000e-001) (5, 3.90819039728112440000e-001) (6, -1.43557484663124300000e-003) (7, 1.60318593973448780000e-001) (8, 4.16336589152426880000e-001) (0, 8.97533533757442270000e-001) (1, -7.92200743878655000000e+000) (2, 7.74306280240485870000e-001) (3, -1.09369849692969300000e+000) (4, 7.92632247857826130000e+000) (5, 6.63602722268675000000e-001) (6, -2.05570937589148210000e+001) (7, 1.48597698662699730000e+001) (8, 8.77408476098276770000e-001) (0, 3.75503454482884970000e-001) (1, 6.17154403327842440000e-001) (2, 5.52698561702798300000e-001) (3, 6.52562847714804110000e-001) (4, 6.31764366692019190000e-001) (5, 6.78017080891774700000e-001) (6, 5.31731110923640670000e-001) (7, 8.30801431055901870000e-001) (8, 6.00523681543860380000e-001) (0, 1.37713529725890570000e+000) (1, 8.39281182961268300000e-001) (2, 5.71684692133950900000e+000) (3, 1.42726863191847200000e+000) (4, 4.59940158268638770000e-001) (5, 8.19052021158021560000e-001) (6, -1.05350245439287190000e+000) (7, 3.90166521282705740000e-001) (8, 9.35149006335895370000e-001) (0, 4.42423383198335800000e-001) (1, 2.96546034143766240000e-001) (2, 7.45259921887922230000e-001) (3, 5.42136315702584580000e-001) (4, 9.32138219309009640000e-001) (5, 1.30627796449380700000e+000) (6, 9.00815017208677290000e-001) (7, 1.46749969890478790000e+000) (8, 4.66576240491765710000e-001) (0, 1.88765807652632570000e-001) (1, 6.27023347529578450000e-001) (2, 5.22978876330013940000e-001) (3, 5.70418394155612240000e-001) (4, -3.45480292746641120000e-002) (5, 8.15715342815179320000e-001) (6, 3.72529258560351240000e-001) (7, 7.90260931736300850000e-001) (8, 4.54653382658125050000e-001) (0, -3.01991588278693570000e-002) (1, 1.91434547052567460000e-001) (2, 6.63365467466947130000e-001) (3, 1.75233998315373420000e-001) (4, 2.41503960653024460000e-001) (5, 3.56138806412354850000e-001) (6, 6.49145536060276360000e-001) (7, 1.43328262261613100000e+000) (8, 4.17037172730623680000e-001) (0, 6.36048481696914750000e-001) (1, 2.88471822850878970000e-001) (2, -2.29224472462171090000e-001) (3, 6.20447494121207590000e-001) (4, 5.76528147214987130000e-001) (5, 2.90663808007669610000e-001) (6, -3.90018095033908550000e-001) (7, -3.96271826786627290000e+000) (8, 4.92549546982149370000e-001) (0, 3.83418065409969140000e-001) (1, 5.21443249863992820000e-001) (2, 6.71528137108819640000e-001) (3, 4.56550154323566830000e-001) (4, 3.78342872867376560000e-001) (5, 1.29490676928942230000e+000) (6, 4.63542199782618850000e-001) (7, 1.27874384467038450000e+000) (8, 4.41481802136210130000e-001) (0, 1.24760004005833670000e+000) (1, 9.85158896391242660000e-001) (2, 1.31959667345473950000e+000) (3, 1.27961014278150030000e+000) (4, 5.38246933691420630000e-001) (5, 8.54224276411143730000e-001) (6, -2.07585671911280330000e-001) (7, 2.35516934723099040000e-001) (8, 7.45179556712959880000e-001) (0, -3.78962227722836110000e-001) (1, -1.37924365433098670000e+000) (2, 2.96608223901611010000e-001) (3, 6.59950165095110290000e-001) (4, -4.62207277001671900000e+000) (5, -2.22046580348545630000e+000) (6, 2.94518248000848800000e+000) (7, -3.12352131410165600000e-001) (8, 4.32681113063607960000e-002) (0, 4.01819624385351180000e-001) (1, 3.70588771866125430000e-001) (2, 7.05161479415940540000e-001) (3, 8.50031695180564480000e-002) (4, 4.19999279663021590000e-001) (5, 6.41724093464803750000e-001) (6, 6.34388731623666050000e-001) (7, 9.56237950304498870000e-001) (8, 6.10467705829153660000e-001) (0, 1.14040796908037680000e+000) (1, 5.09864804958100160000e-001) (2, 7.55608854545119280000e-001) (3, 5.00065134435284770000e-001) (4, 4.37807177140824400000e-001) (5, 9.84319429830009080000e-001) (6, 7.20124652498006500000e-002) (7, 1.54096814570983560000e-001) (8, 2.89524714117561980000e-001) (0, -3.24962738117659320000e+000) (1, 1.43012188254426730000e+001) (2, -1.13789753956031650000e+001) (3, 1.22015443817537520000e+001) (4, -4.64401493778481540000e+000) (5, -5.61803901996957670000e+000) (6, 6.03957760756885080000e+000) (7, 2.35899769380764720000e+001) (8, 5.50283253416345210000e-001) (0, -2.34562261463900080000e-001) (1, -2.15278546163378440000e+001) (2, -7.78878952946132050000e+000) (3, 3.72856853182281970000e+001) (4, 2.02568520054331990000e+001) (5, -1.57954102018955900000e+001) (6, 8.44529902078885010000e+000) (7, -4.01560927296216830000e+001) (8, -2.88690535127638650000e-001) (0, -3.97283016460178440000e-002) (1, 4.07197268987042730000e-001) (2, 6.36898761242749690000e-001) (3, 2.97576697723079260000e-001) (4, -1.75156115136131110000e-001) (5, 6.88007250750658490000e-002) (6, 3.35597227209596890000e-001) (7, 1.27725867512248060000e+000) (8, 2.48616501794319880000e-001) (0, 3.41245638310793300000e-001) (1, 3.90386032485238010000e-001) (2, 7.81741609408598380000e-001) (3, 3.75939389528951890000e-001) (4, 4.01341488977182910000e-001) (5, 9.64585855833384740000e-001) (6, 7.23925897697625830000e-001) (7, 1.30883756132968480000e+000) (8, 4.30830485688164680000e-001) (0, 9.80493216609717110000e-001) (1, 6.55991639249929760000e-001) (2, 8.76650744548470700000e-001) (3, 7.96609347936948380000e-001) (4, 4.96718572896736380000e-001) (5, 3.02975233183987610000e-001) (6, -1.29170760003791210000e-001) (7, -8.96344889709418110000e-002) (8, 5.44301426921769860000e-001) (0, 5.55187203315861240000e-001) (1, 2.61386689148726650000e-001) (2, 4.74566439144345930000e-001) (3, 5.69814158236948250000e-001) (4, 6.33250435190485850000e-001) (5, 1.20981862502071730000e-001) (6, 9.99711770469740300000e-002) (7, 9.14438168988497000000e-002) (8, 4.78700424775217900000e-001) (0, 9.16347456000658770000e+000) (1, 7.28293905552872540000e-001) (2, -5.36529974282362330000e+001) (3, 2.24359626929479670000e+001) (4, 6.24131400965129760000e+001) (5, -1.11024580630398240000e+001) (6, 8.89677164953192090000e+001) (7, 2.87810984922636380000e+001) (8, -8.66933267539523380000e-001) (0, 1.50000000000000000000e+003) (1, 6.46084583697386530000e+000) (2, -1.62536404467668800000e+001) (3, 3.55197081535219610000e+001) (4, -8.24641287040822140000e+001) (5, -2.01895932509908700000e+002) (6, -2.50528921528510840000e+002) (7, -4.22283374146863150000e+001) (8, 3.07737799775899030000e+000) (0, 2.16918534261705980000e+000) (1, 8.25551027958056350000e-001) (2, -1.97978114206500830000e-001) (3, -9.73869245646396390000e+000) (4, -1.09306378409171100000e+000) (5, -7.43695420194292290000e+000) (6, -4.69116334397838130000e+000) (7, -8.88320448955296270000e+000) (8, 1.38418475933820820000e+000) (0, 5.95291728529890100000e-001) (1, 5.64385320864422720000e-001) (2, 5.86929325697950090000e-001) (3, 3.83185257465414430000e-001) (4, 7.31669389865212350000e-001) (5, 3.86784627684795380000e-001) (6, 5.41064407339442280000e-001) (7, 1.70339121027787280000e+000) (8, 4.07122216592823380000e-001) (0, 4.32873329045812380000e-001) (1, 1.81506578042119840000e-001) (2, 4.84635456256655860000e-002) (3, -1.22236756075836490000e-001) (4, 5.43841427969759090000e-001) (5, 1.62295045386121580000e-001) (6, 1.43610227530772380000e-001) (7, -2.98376837909076210000e-001) (8, -1.03073690091714480000e-001) (0, -6.06242127771585370000e-001) (1, -2.10963764141235060000e+000) (2, 1.47473907950271000000e+000) (3, 2.83723914960476550000e-001) (4, 2.51721234632093570000e+000) (5, 1.19024912281964030000e+000) (6, 6.88358969086357960000e-001) (7, 8.44863808539024140000e+000) (8, 4.57681196630426890000e-001) (0, 3.95084613269849780000e-001) (1, 1.44197316898092650000e-001) (2, -7.21727335799318580000e+000) (3, -1.10191929252725790000e+001) (4, 1.08003735686071810000e+001) (5, 1.26938773404464610000e+001) (6, -4.03558903325010120000e+000) (7, 1.99622150633969360000e+001) (8, 3.34582063638278530000e-001) (0, -6.13109464942051540000e-002) (1, 1.49392218674227890000e-001) (2, 4.37884447126944410000e-001) (3, 2.17460997136285720000e-001) (4, -2.62922790838178930000e-001) (5, 8.34500070196093620000e-002) (6, 1.43001821222712100000e-001) (7, 9.39797980383719760000e-001) (8, 2.24859919942149660000e-001) (0, 1.07599325057906650000e-001) (1, 3.54953901469161340000e-001) (2, 2.78944792648923630000e-001) (3, 1.95008437288597990000e-001) (4, -2.34582664604394110000e-001) (5, 1.32497434355053070000e-001) (6, 7.38661925196514750000e-001) (7, 1.28013081205585920000e+000) (8, 2.11877479432464210000e-001) (0, 2.20167339433409960000e-001) (1, 1.52178311936290190000e-001) (2, 8.85760134812176640000e-001) (3, 6.43177939977015560000e-001) (4, 9.45507404277552980000e-001) (5, 1.70129562227073610000e+000) (6, 1.05622715076758330000e+000) (7, 1.81657838495854530000e+000) (8, 5.44148297747813590000e-001) (0, 1.21445324049166700000e+000) (1, 9.06927550805663120000e-001) (2, 9.68750407509405660000e-001) (3, 9.69336380547644480000e-001) (4, 2.93583375921949050000e-001) (5, 1.02101903608328650000e+000) (6, 1.74329459577066690000e-001) (7, 1.17590427262147720000e-001) (8, 5.87285846136502920000e-001) (0, 1.08889713177687810000e+000) (1, 8.20038627157375850000e-001) (2, 6.48331077465245100000e-001) (3, 1.09944277546776890000e+000) (4, 3.43473373016696560000e-001) (5, 1.00240666577038230000e+000) (6, -8.86919319384903980000e-002) (7, 2.83184939476695600000e-001) (8, 4.24901474423055590000e-001) (0, 5.01936184925724000000e-001) (1, 3.35326988356174690000e-001) (2, 8.48270949171194720000e-001) (3, 3.88174208401248780000e-001) (4, 7.84756556698446460000e-001) (5, 1.43942225384088360000e+000) (6, 9.28312748294912390000e-001) (7, 1.35146095012694900000e+000) (8, 5.44827815355185760000e-001) (0, 1.32802100921442470000e+000) (1, 9.11679341657970040000e-001) (2, 1.24907766571452310000e+000) (3, 1.31343353814038720000e+000) (4, 2.67504857674531860000e-001) (5, 1.14506028197859730000e+000) (6, 2.55546215844475040000e-002) (7, 2.89405849242941990000e-001) (8, 3.95181290823423510000e-001) (0, 4.17765383291236750000e-001) (1, 3.22490342008790900000e-001) (2, 7.57868426947559400000e-001) (3, 4.87649061187438230000e-001) (4, 5.98484913609260260000e-001) (5, 6.37328221281184380000e-001) (6, 5.99804205826505730000e-001) (7, 1.00326968906320980000e+000) (8, 5.04508062852691670000e-001) (0, 1.27356064364818410000e+000) (1, 1.10382060310752730000e+000) (2, -1.46437130686762410000e+000) (3, -2.01035203866944540000e-001) (4, 5.56488623935091580000e-001) (5, -3.12565185604963200000e+000) (6, 1.93154948726183400000e+000) (7, 1.66743772958109140000e+000) (8, 5.42782099413721800000e-001) (0, 1.10527620899786670000e+000) (1, 3.07632888396713830000e+000) (2, -2.04581615773619600000e+000) (3, 3.76651983501287290000e-002) (4, -1.31343546064019920000e+000) (5, 4.75955707636252280000e-001) (6, 4.52075810397805620000e+000) (7, -7.25460791313597040000e+000) (8, -3.65879839314658780000e-001) (0, 6.84879518412860320000e-001) (1, 2.81855910925789880000e-001) (2, 5.98371941802073200000e-001) (3, 4.16881620310037950000e-001) (4, 3.42602498447663490000e-001) (5, 4.13183639721091840000e-001) (6, 3.55555439591110910000e-002) (7, 5.01852386738347620000e-003) (8, 2.74060184027001550000e-001) (0, 6.56856299673062580000e-001) (1, 1.35902899910986030000e-001) (2, 5.29215873258525820000e-001) (3, 3.76210357943359110000e-001) (4, 3.21037140023099910000e-001) (5, 4.75498793008858110000e-001) (6, 1.56139517439826680000e-001) (7, 8.85277823986289070000e-002) (8, 2.67418051616125530000e-001) (0, 3.28063458998415400000e+000) (1, -1.11485663094468300000e+000) (2, 1.57240873765457280000e+000) (3, 7.24338599153776300000e+000) (4, -1.47964271623735810000e+001) (5, -6.81366501954609390000e+000) (6, -2.50582334501927850000e-001) (7, 7.94291006511193330000e-001) (8, 3.91488003531821270000e-002) (0, 1.73511097983495290000e+000) (1, 9.82783433700240750000e+000) (2, 3.88136155590986800000e+000) (3, -1.87281126538325320000e+001) (4, 7.68440814411901570000e+000) (5, 1.82095610319983900000e+001) (6, 1.76795555158206030000e+001) (7, -1.58968084783903640000e+001) (8, 3.18717162100534750000e-001) (0, 3.04933487881574980000e-001) (1, 2.35253936762294140000e-001) (2, 8.98861742639500030000e-001) (3, 5.83139310662535990000e-001) (4, 9.70013516695064190000e-001) (5, 1.55826961869779580000e+000) (6, 9.04764876013634980000e-001) (7, 1.08631983993130830000e+000) (8, 5.55640023702175690000e-001) (0, 1.16752788261392350000e+000) (1, 1.42582827450887650000e+001) (2, -5.16135858737562980000e+000) (3, 1.50397183887392050000e+000) (4, 2.99682789106361150000e+000) (5, -1.59572587410177960000e+001) (6, 2.27801033148053330000e+000) (7, -2.16602895301570750000e+000) (8, 7.59175848497837590000e-001) (9, 2.56658353841747120000e-001) (10, -2.47020391779532580000e-002) (11, -5.20783131023659150000e-002) (12, 2.32718872985280310000e+000) (13, 1.84012031415959370000e-001) (14, 7.22524646415110410000e-002) (15, -6.68805953213016110000e-002) (16, -1.52164965643937940000e-001) (17, 7.56472147545462080000e-002) (18, 1.91736014280984270000e-001) (19, -6.15738890057422740000e-002) (20, 9.14561864468322050000e-002) (21, 1.23369535724484110000e-001) (22, 4.43254330260237420000e-001) (23, -8.89692718793324010000e-002) (24, 7.20751023411204530000e-002) (25, 4.98461334433093690000e-002) (26, -1.28690655077366740000e+000) (27, 1.72202947215721660000e-001) (28, 3.23166124111978040000e-001) (29, 2.00819388935546960000e-001) (30, 4.34946764502697900000e-003) (31, 1.05587776971426500000e-001) (32, 2.47927744108310450000e-001) (33, -1.09723760588040400000e-001) (34, 3.23424992702419420000e-001) (35, 5.22777292455878780000e-001) (36, -4.32318566504730770000e-002) (37, 1.83873543967424170000e-001) (38, 1.07922318098825270000e-001) (39, 4.18070040393250740000e-001) (40, 7.18730761031594580000e-003) (41, -1.11133474066981580000e-001) (42, 5.21263601091400270000e-002) (43, -4.50002756866681660000e-002) (44, 2.50714299698613250000e-001) (45, -4.16761006266910320000e-001) (46, 1.49701440209773760000e+000) (47, 2.15744456598414820000e-001) (48, -5.70151838614115640000e-002) (49, -2.62597392502331650000e-002) (50, 3.13882766981161850000e-001) (51, -4.86087600540936120000e-002) (52, -2.38393129756588930000e+000) (53, 3.82688959105184770000e-002) (54, 6.87244410395885460000e-001) (55, -7.68802732379872070000e-001) (56, 4.54047067171825360000e-001) (57, 2.49166522955174620000e-002) (58, -4.84836902122176210000e-002) (59, 2.56497080360670550000e-004) (60, 9.21483724611692480000e-002) (61, 3.62833930031406960000e-001) (62, 2.15567677438565470000e-001) (63, 5.35603424874208850000e-002) (64, -5.06579479451938570000e+000) (65, 2.98494085989848280000e-001) (66, 3.18162684406209370000e-001) (67, -5.32861934507062870000e-002) (68, -5.77753235714447140000e-001) (69, 1.40576553458153590000e-001) (70, -7.86419390118588550000e-002) (71, 3.46457126940493580000e-001) (72, 1.63995620868732370000e-001) (73, 3.41150301810877910000e-001) (74, -1.01824467008857220000e-001) (75, 2.21758775875649490000e-001) (76, -3.33140970649660330000e-002) (77, 4.31291113884649670000e+000) (78, 1.46431148772382590000e-001) (79, 7.43704883950077780000e-003) (80, -4.66646888663754920000e-001) (81, -7.06319317937227130000e-001) (82, -6.49592942417292900000e-002) (83, 2.34012854646613280000e-001) (84, -6.05652006352247470000e-003) (85, 1.26424917913346460000e-002) (86, 3.56860987236327300000e-002) (87, -1.50449338751137220000e-001) (88, -6.30386909535421090000e-001) (89, 6.94584434122849370000e-002) (90, 2.05744689413653870000e+000) (91, 6.77434793521282000000e-001) (92, -1.11752918896623800000e+000) (93, 3.56328139780900800000e-002) (94, 2.81485199326774250000e-002) (95, 3.21081025898129310000e-001) (96, -1.07043787744164670000e-002) (97, -1.36619839119698860000e-002) (98, 3.24868396360182610000e-001) (99, -6.74584170360773550000e-004) (100, 1.99741117413944010000e-001) (101, -1.81110138088156650000e-001) (102, 8.82773143862112470000e-001) (103, -5.84877426398949490000e-004) (104, 8.50342089911261530000e-003) (105, -9.20563795637659890000e-001) (106, -1.07312780919029650000e-001) (107, 3.49213194501918290000e-001) (108, -4.57820064791395920000e-001) (109, 3.15746879876882210000e-001) (9, 8.13736004087207000000e-002) (10, -3.11886388137679490000e-001) (11, -3.98706951506547780000e-001) (12, -4.09224213554073480000e+000) (13, 2.84319100934832710000e-002) (14, 5.03103021749992550000e-001) (15, 1.65762787540469120000e-002) (16, 5.80054781781887200000e-002) (17, -2.84030225168191040000e-001) (18, 1.37710947235782950000e-001) (19, -4.02720662981877530000e-001) (20, 2.31722630326620910000e-001) (21, 1.01597351820005790000e-001) (22, 3.93168777703866730000e+000) (23, -4.08642778705114730000e-001) (24, -3.31406238134362710000e-001) (25, 1.97698830423701570000e-001) (26, 1.31668257278738240000e-001) (27, 1.50304922878301410000e-001) (28, 1.15893414204714070000e-001) (29, 8.06668979580561770000e-002) (30, -2.41670961793329280000e-001) (31, -2.33306566318705140000e-001) (32, 4.54515109869741350000e-002) (33, -3.20935770575538900000e-001) (34, 1.91144047598712370000e-001) (35, -1.89029537048078510000e-001) (36, -4.49289330085926200000e-001) (37, 1.31350448062511280000e-001) (38, 5.54207528642632970000e-002) (39, 1.83585962265406050000e-001) (40, -2.77931741722370120000e-001) (41, -3.95433887865798580000e-001) (42, 1.54321810210210330000e-001) (43, 5.50219499047445160000e-001) (44, 1.91679172213132220000e-001) (45, 8.82674497170258480000e-001) (46, -1.32979818970039880000e+000) (47, 1.23413320203817100000e-001) (48, -2.91385941888561210000e-001) (49, -2.67268342581094330000e-001) (50, 1.35254383675405290000e-001) (51, -1.89795930507888010000e-001) (52, 2.66440153418409630000e+000) (53, -1.95445441235365530000e-001) (54, 4.27312774099437840000e+000) (55, 2.69363253365695050000e-001) (56, 3.94429966072857570000e-001) (57, -2.40335103735784460000e-001) (58, -2.57359366111616190000e-001) (59, -3.13452206847022800000e-001) (60, 4.93088956427672530000e-001) (61, 2.44599142003904230000e-001) (62, 1.83596181263591530000e-001) (63, 3.61869144313825940000e-001) (64, 2.16526593238433750000e+000) (65, 1.78488446207291210000e-001) (66, 4.13514555220869880000e-001) (67, -4.25861913865106360000e-001) (68, 9.36737077371894600000e-001) (69, 5.69046979643292520000e-002) (70, -2.86451383589895030000e-001) (71, 2.94906549793740370000e-001) (72, 2.17566154889789560000e-001) (73, 3.16391294603361350000e-001) (74, -3.43154406469988400000e-001) (75, 1.67254826361290960000e-001) (76, -2.18982092707074470000e-001) (77, -1.74350640927606260000e+000) (78, 1.15929350652118830000e-001) (79, -2.82398040834721140000e-001) (80, 3.82468025536662650000e-001) (81, 5.37163314505244020000e-001) (82, 4.39246992943133910000e-001) (83, 1.23354973505616510000e-001) (84, -2.70358026733888530000e-001) (85, -4.52515554958108910000e-001) (86, -1.21634288860227830000e-001) (87, 4.40325781905478230000e-002) (88, -3.27700411906518500000e-001) (89, 2.30786272884049190000e-002) (90, -2.65654492040677040000e-001) (91, 2.04055198989164410000e-001) (92, 8.20374692696963780000e-002) (93, 3.73003189024095790000e-001) (94, 4.74792715623360510000e-001) (95, 1.63840252341069470000e-001) (96, -2.29668351815108420000e-001) (97, -2.88061926333785360000e-001) (98, 1.54662384036173660000e-001) (99, -1.06171081888191260000e-001) (100, 5.23526916243145440000e-002) (101, 1.69167155132068760000e-001) (102, 6.42994704227773940000e-001) (103, -3.22817301002879250000e-001) (104, -3.42998623624154120000e-001) (105, 6.36682614708073860000e-001) (106, 4.71059702195537110000e-001) (107, 2.03747504761597390000e-001) (108, 5.40783177620897340000e-001) (109, 1.40173841214770640000e-001) (9, 1.84488283518655370000e-001) (10, -4.11880387013212720000e-001) (11, -4.41487235664329240000e-001) (12, -2.29294435672453330000e+000) (13, 9.32219849246256200000e-002) (14, 4.12350769411350460000e-001) (15, 8.94325458621906270000e-002) (16, 1.08407284719551080000e-002) (17, -3.41916814561596500000e-001) (18, 4.43779678280793110000e-002) (19, -4.51689839468531750000e-001) (20, 1.41969670313360330000e-001) (21, -2.96743933135868200000e-002) (22, 6.63317512217029170000e-001) (23, -4.39845718158145220000e-001) (24, -3.54546143112652370000e-001) (25, 1.91832656854960260000e-001) (26, -5.13821145211073250000e-001) (27, 6.46284078141881880000e-002) (28, -3.24340258231478050000e-002) (29, 7.99671800778711810000e-002) (30, -3.27655305910938720000e-001) (31, -2.98908290357177750000e-001) (32, 1.02209379937752350000e-001) (33, -3.56113331822613900000e-001) (34, 6.51645897573335100000e-002) (35, 2.50103886377333720000e-001) (36, -3.47548366010520860000e-001) (37, 1.97338383216538630000e-001) (38, 2.06053950966696630000e-001) (39, 5.57087282241908400000e-001) (40, -3.18672235845983200000e-001) (41, -3.56108837875842020000e-001) (42, 1.68083389263309490000e-001) (43, 6.50404155909846790000e-001) (44, 1.13349325229046920000e-001) (45, 7.64804301572439280000e-001) (46, -5.48084109987646630000e-002) (47, 1.28601299683732960000e-001) (48, -3.88276815867086230000e-001) (49, -3.13279859976995260000e-001) (50, 1.37330671432070010000e-001) (51, -3.15904131026580490000e-001) (52, 3.05594938107738610000e+000) (53, -4.55876405544892170000e-001) (54, -1.33216745600740080000e+000) (55, 3.18557369329800450000e+000) (56, 5.98870403663355640000e-001) (57, -4.24696752706594180000e-001) (58, -3.63737015066241560000e-001) (59, -4.78415634228402220000e-001) (60, 5.08211992337689540000e-001) (61, 1.88576679412281570000e-001) (62, -1.38897485164347880000e-002) (63, 5.86952169494240120000e-001) (64, 7.42467050945877370000e+000) (65, 6.14199149493186090000e-002) (66, 5.44365323529917840000e-001) (67, -3.46753589678805480000e-001) (68, 3.30409880055580200000e-001) (69, 2.17303015544508290000e-001) (70, -5.34347718862392300000e-001) (71, -4.47545151467327320000e-002) (72, 8.98624112455182620000e-002) (73, 3.83414955445681160000e-001) (74, -3.71952761946972410000e-001) (75, 8.56386086646482300000e-002) (76, -3.60236425684404000000e-001) (77, -2.77766300713419100000e+000) (78, 1.95100098681986550000e-001) (79, -4.08870457844676180000e-001) (80, 6.78112397921467160000e-001) (81, 6.48285817207724600000e-001) (82, 5.94664624205651470000e-001) (83, 1.01412554819891990000e-001) (84, -3.33760904397380320000e-001) (85, -3.67430642073850950000e-001) (86, -3.70058772763589340000e-001) (87, 2.12852059216926720000e-002) (88, -3.50792013827793510000e-001) (89, -1.92693630406026890000e-002) (90, -3.76223234662027610000e+000) (91, 9.35371409427112820000e-004) (92, 1.34614452108317040000e+000) (93, 6.87315683888432230000e-001) (94, 5.28548763624750340000e-001) (95, -1.60657049259009220000e-002) (96, -4.09927105464626800000e-001) (97, -4.11536737001322760000e-001) (98, 1.45675553471417000000e-001) (99, -3.51220967933338960000e-001) (100, 4.48742704101375910000e-002) (101, 9.96862302455421980000e-002) (102, -1.73560977900211920000e+000) (103, -3.81811830898671050000e-001) (104, -3.04501767795493430000e-001) (105, 2.60036132748207160000e+000) (106, 1.05801137388963170000e+000) (107, 1.02391766561368590000e-002) (108, -8.99273009428000760000e-002) (109, 1.53881208893752010000e-001) (9, 3.02390716456344240000e-001) (10, -2.25224314238476640000e-001) (11, -2.07237936955712440000e-001) (12, 6.56675477513388730000e+000) (13, 2.71366706592913730000e-001) (14, 2.34200295659389880000e-001) (15, 1.39820218042689900000e-001) (16, 1.77929837657423370000e-001) (17, -2.48115619979963510000e-001) (18, 2.43411542092345720000e-001) (19, -1.65494741419589840000e-001) (20, 2.59157184993309530000e-001) (21, 2.58911044668992290000e-001) (22, 8.02722758556808410000e-001) (23, 1.52963902126919470000e-002) (24, -1.10655313993047400000e-001) (25, 6.49675115843717230000e-002) (26, 2.90941763298734330000e-002) (27, 2.68897220355581280000e-001) (28, 2.23464392986471780000e-001) (29, 3.08813078900712360000e-001) (30, -2.37310772144672800000e-001) (31, -2.54465105794384370000e-002) (32, 3.15810270208663370000e-001) (33, 2.47108477062515960000e-002) (34, 2.87108723904133170000e-001) (35, 7.56620632029867620000e-001) (36, -1.47155163447830140000e-001) (37, 2.21476877299550620000e-001) (38, 4.22108515890147580000e-001) (39, 4.51635308442265020000e-001) (40, -1.68126786490417010000e-001) (41, -1.83423623117897980000e-001) (42, 1.90050881443560640000e-001) (43, 8.27349637265789580000e-001) (44, 1.42337785563546180000e-001) (45, -3.62553958207750960000e+000) (46, -1.55892813003207480000e+000) (47, 1.51885319653287220000e-001) (48, -1.56699502168757440000e-001) (49, -1.92905288446593190000e-001) (50, 2.36810992859481100000e-001) (51, -2.04874780944016840000e-001) (52, 2.94880684544732660000e+000) (53, -1.84311107440257550000e-001) (54, 1.23568395709946420000e+000) (55, 8.54233582717940250000e-001) (56, 3.54593772084615230000e-001) (57, -1.96287826188086790000e-001) (58, 7.67560838304581160000e-003) (59, -1.78650518198436690000e-001) (60, 5.95979871686250990000e-001) (61, 2.97193505843723230000e-001) (62, 2.79178791985238540000e-001) (63, 5.48212362315411590000e-001) (64, -4.01410764079626770000e+000) (65, 1.14869153342975680000e-001) (66, 6.20109755888554440000e-001) (67, -1.45278329074859740000e-001) (68, -4.91326149893255290000e-002) (69, 1.40341773266171060000e-001) (70, -1.84059267624833320000e-001) (71, 2.83874053096350220000e-001) (72, 2.35501008055809370000e-001) (73, 4.54433145113142870000e-001) (74, -1.24610909148865080000e-001) (75, 2.06158921963956490000e-001) (76, -1.57230751323050310000e-001) (77, -6.03706325840247350000e+000) (78, 2.87499493035956230000e-001) (79, 5.19680952616821190000e-002) (80, 1.26901281279736710000e-001) (81, -5.35445668537088300000e-001) (82, 6.62726987468502230000e-001) (83, 2.46114890625257020000e-001) (84, -1.77843022618095120000e-001) (85, -1.44468314735275270000e-001) (86, 1.19314240352139900000e-001) (87, 7.81444243325067620000e-002) (88, -9.61296012208407440000e-001) (89, 2.29206820782743240000e-001) (90, -3.32073763378353370000e-001) (91, 5.72649748775716060000e-001) (92, -1.08395944486312090000e+000) (93, 5.94780550206554070000e-001) (94, 6.58463748153898740000e-001) (95, 2.14005388349064070000e-001) (96, -1.53623183564798230000e-001) (97, -2.02531751158575220000e-001) (98, 2.37340119047579150000e-001) (99, -1.48584904568583140000e-001) (100, 2.38073277007421510000e-001) (101, 2.42743060063620810000e-001) (102, 8.67040858194168100000e-001) (103, -1.88069779554368320000e-001) (104, -2.08791369659901970000e-001) (105, 4.08130275781367220000e+000) (106, -5.01514250750335950000e-001) (107, 2.33788709486536600000e-001) (108, 7.31995870798542110000e-001) (109, 2.91823636845671530000e-001) (9, -5.99499787604829310000e-003) (10, 8.21363962125072900000e-002) (11, -3.63540395479855010000e-001) (12, 5.91629423962786870000e-003) (13, 1.04900949843729660000e-001) (14, -5.09716743188364130000e-001) (15, 8.66620762468704730000e-002) (16, 4.86460331290859420000e-001) (17, -3.56749808789914800000e-001) (18, 1.17330813696971080000e-001) (19, 1.28490329563848620000e-002) (20, 7.80308068780521670000e-002) (21, 1.12857008582795790000e-001) (22, -4.03611215057597850000e+000) (23, 1.43748563312446730000e-001) (24, -5.00581148871973690000e-001) (25, -8.38351137916763110000e-002) (26, 8.27267006742997000000e-002) (27, 5.88370225379382040000e-002) (28, 1.21162153702270690000e-001) (29, 8.88394684503980850000e-002) (30, -4.27922400964978690000e-001) (31, -4.84230462811594100000e-001) (32, -1.11715257911921260000e-002) (33, -1.15945043496265220000e-001) (34, 6.71742141474896550000e-002) (35, -5.29255266602326360000e-001) (36, -3.86444052315661420000e-001) (37, -1.22585687859560430000e-002) (38, 6.89732944842740390000e-001) (39, 3.11550535314021270000e-001) (40, -5.24736800917096290000e-001) (41, -3.19508572678765530000e-001) (42, -2.52786715801154550000e-002) (43, 4.38177029715347060000e-001) (44, 9.81834027564137960000e-002) (45, 6.56022398225220680000e-001) (46, 1.46848768431199230000e+000) (47, 1.17201120517873310000e-001) (48, -4.56667372929328740000e-001) (49, -3.72572105693141140000e-001) (50, 2.86084781198843070000e-002) (51, 1.80307328014418230000e-002) (52, 3.39333051723004340000e+000) (53, -4.44124382077288490000e-001) (54, -2.32211831392992970000e+000) (55, 3.08136943779610870000e+000) (56, 1.61389867063207350000e-001) (57, -1.06769769582194770000e-002) (58, -5.18217225920264650000e-001) (59, -3.89299896144807420000e-002) (60, 3.77109191819838980000e-001) (61, 1.26499082391686420000e-001) (62, 9.17755487298293070000e-002) (63, 4.52714655098844950000e-001) (64, 9.36437089651455420000e+000) (65, 6.66203033099167510000e-002) (66, 4.47934334237734600000e-001) (67, -4.21424685289697840000e-001) (68, 3.60157362110651440000e+000) (69, 1.12098303114296850000e-001) (70, -3.81077901226599290000e-001) (71, 8.93745180224687770000e-002) (72, 2.18414341563290160000e-002) (73, 1.79333811052748040000e-001) (74, 4.98941384493034740000e-002) (75, 2.91237085554320280000e-002) (76, 5.22537236302704840000e-002) (77, -6.24193764986262990000e-002) (78, 3.00254784806977990000e-002) (79, -4.16213744312386450000e-001) (80, 3.61339497954564880000e-001) (81, 7.46870985208782030000e-001) (82, 4.17033326788979640000e-001) (83, 5.87339488222557230000e-002) (84, -4.07053097529565030000e-001) (85, -3.29076512746291180000e-001) (86, -5.20434547906483760000e-002) (87, -8.59183284428196620000e-003) (88, -9.09699328841923280000e-001) (89, 6.40766785857209770000e-003) (90, -9.05190396963162950000e+000) (91, 2.92439239056342390000e-001) (92, 1.06404550402294910000e+000) (93, 3.91076731517390750000e-001) (94, 4.56174853640700590000e-001) (95, 8.69478993412281240000e-002) (96, -4.22735063322820740000e-001) (97, -1.34265164177720190000e-001) (98, 3.61058571016927770000e-002) (99, -4.10127618228994070000e-001) (100, 1.00289130681476500000e-001) (101, 1.63101452048311390000e-001) (102, 2.19146952875617320000e+000) (103, -4.58258373725620230000e-001) (104, -5.00139549151828680000e-001) (105, 1.32749027030280710000e+000) (106, 7.14989843912782610000e-002) (107, 7.86351659959056700000e-002) (108, -4.18892209420222290000e-002) (109, 3.31322070122006190000e-002) 
