FANN_FLO_2.1
num_layers=3
learning_rate=0.700000
connection_rate=1.000000
network_type=0
learning_momentum=0.000000
training_algorithm=2
train_error_function=1
train_stop_function=0
cascade_output_change_fraction=0.010000
quickprop_decay=-0.000100
quickprop_mu=1.750000
rprop_increase_factor=1.200000
rprop_decrease_factor=0.500000
rprop_delta_min=0.000000
rprop_delta_max=50.000000
rprop_delta_zero=0.100000
cascade_output_stagnation_epochs=12
cascade_candidate_change_fraction=0.010000
cascade_candidate_stagnation_epochs=12
cascade_max_out_epochs=150
cascade_max_cand_epochs=150
cascade_num_candidate_groups=2
bit_fail_limit=3.49999999999999980000e-001
cascade_candidate_limit=1.00000000000000000000e+003
cascade_weight_multiplier=4.00000000000000020000e-001
cascade_activation_functions_count=10
cascade_activation_functions=3 5 7 8 10 11 14 15 16 17 
cascade_activation_steepnesses_count=4
cascade_activation_steepnesses=2.50000000000000000000e-001 5.00000000000000000000e-001 7.50000000000000000000e-001 1.00000000000000000000e+000 
layer_sizes=9 21 6 
scale_included=0
neurons (num_inputs, activation_function, activation_steepness)=(0, 0, 0.00000000000000000000e+000) (0, 0, 0.00000000000000000000e+000) (0, 0, 0.00000000000000000000e+000) (0, 0, 0.00000000000000000000e+000) (0, 0, 0.00000000000000000000e+000) (0, 0, 0.00000000000000000000e+000) (0, 0, 0.00000000000000000000e+000) (0, 0, 0.00000000000000000000e+000) (0, 0, 0.00000000000000000000e+000) (9, 6, 5.00000000000000000000e-001) (9, 6, 5.00000000000000000000e-001) (9, 6, 5.00000000000000000000e-001) (9, 6, 5.00000000000000000000e-001) (9, 6, 5.00000000000000000000e-001) (9, 6, 5.00000000000000000000e-001) (9, 6, 5.00000000000000000000e-001) (9, 6, 5.00000000000000000000e-001) (9, 6, 5.00000000000000000000e-001) (9, 6, 5.00000000000000000000e-001) (9, 6, 5.00000000000000000000e-001) (9, 6, 5.00000000000000000000e-001) (9, 6, 5.00000000000000000000e-001) (9, 6, 5.00000000000000000000e-001) (9, 6, 5.00000000000000000000e-001) (9, 6, 5.00000000000000000000e-001) (9, 6, 5.00000000000000000000e-001) (9, 6, 5.00000000000000000000e-001) (9, 6, 5.00000000000000000000e-001) (9, 6, 5.00000000000000000000e-001) (0, 6, 0.00000000000000000000e+000) (21, 6, 5.00000000000000000000e-001) (21, 6, 5.00000000000000000000e-001) (21, 6, 5.00000000000000000000e-001) (21, 6, 5.00000000000000000000e-001) (21, 6, 5.00000000000000000000e-001) (0, 6, 0.00000000000000000000e+000) 
connections (connected_to_neuron, weight)=(0, -3.45576801537740020000e+000) (1, -6.18198116105599290000e+000) (2, -3.47373311641972340000e+000) (3, -7.07205206954815700000e-001) (4, -1.82109807386319810000e+000) (5, 4.65399074912763220000e+000) (6, 2.00409549403556130000e+000) (7, 1.37200847181812070000e+000) (8, -2.89641107237542870000e-002) (0, 5.77114764326329900000e-002) (1, -4.74313456769802470000e-001) (2, 3.53077947064855510000e-001) (3, 1.97463551300980260000e+000) (4, 4.28903210797641490000e-002) (5, 1.59320504146142160000e+000) (6, -5.27397682757327860000e+000) (7, 1.69699201798066660000e+000) (8, 1.34724966331864400000e-001) (0, 3.78032580042303710000e+000) (1, 1.49889634403538480000e+001) (2, -4.48042545764512830000e+000) (3, -8.57060869223407450000e+000) (4, 4.26331874288447480000e+000) (5, -9.12757372563620170000e+000) (6, -8.26499319093471740000e+000) (7, -1.74025254081949970000e+001) (8, -1.39150965279017910000e-001) (0, 5.85601327224613000000e-001) (1, -1.01038517552184030000e+000) (2, 2.36401169958982170000e+000) (3, -3.19529050018261400000e+000) (4, 5.58105472554294390000e+000) (5, -9.37067570353496690000e-002) (6, 3.17876624037277140000e+000) (7, -1.30947645430935570000e+001) (8, 2.65237249589075850000e-001) (0, 5.43722493542809330000e-001) (1, 1.14167145565189260000e+001) (2, -6.91988561279797660000e+000) (3, -3.88946751954947300000e+000) (4, 2.52187103441729250000e+000) (5, 2.25071276898794080000e-001) (6, 2.53426977755278120000e-001) (7, -1.35993997906434710000e-001) (8, 4.39966442595256140000e-001) (0, -5.23371532508836500000e-001) (1, -3.66770291067340360000e+000) (2, -2.24194003072308550000e+000) (3, -5.80977615606002120000e+000) (4, -1.44323634283000130000e-001) (5, 1.52415104791091040000e+001) (6, 1.30254357763886280000e+001) (7, 1.35220681598702200000e+000) (8, 1.14213289698961760000e-001) (0, -5.55283676479180870000e-001) (1, 1.68242708370610680000e+000) (2, -4.34701089690269720000e-001) (3, -1.67841092188089400000e-001) (4, -2.06032764660822210000e-001) (5, 7.47196331722611680000e-001) (6, -7.41149143828421450000e-001) (7, 9.42148914759826210000e-001) (8, -3.93253703763155670000e-002) (0, 1.49286342475251340000e+000) (1, -5.47390027188171310000e-001) (2, -1.46237949710960110000e+001) (3, 7.01529739787857040000e+000) (4, -6.48984676459024020000e-001) (5, 9.23591642343483570000e-001) (6, -8.07063967029397130000e+000) (7, 2.33466417015946030000e+001) (8, 5.35504483917029970000e-002) (0, -6.71842034238583800000e+000) (1, -1.25949755759162890000e+001) (2, 3.21374724784797440000e+001) (3, 5.43631816478616600000e+000) (4, -6.57624335128521940000e+000) (5, 2.54261094748708240000e+001) (6, -1.81817486368398630000e+001) (7, 1.04672168820677720000e+001) (8, 1.49469031849411000000e+000) (0, -2.79375298490084890000e+000) (1, -3.51032833158813510000e+000) (2, 1.66987298164517960000e+000) (3, 6.61599951689002100000e+000) (4, 4.69196118842949540000e-001) (5, 3.53813455668207710000e-001) (6, 9.02325484916325850000e+000) (7, 1.73090027614232830000e+001) (8, 1.40970091869004390000e-001) (0, 9.99970407682735640000e+000) (1, 7.34944052457300230000e+000) (2, -2.68155315027538370000e-001) (3, -1.07284689029489590000e+001) (4, -4.83851887771262050000e+000) (5, 3.66553494120005570000e+000) (6, 4.38685041586166240000e+001) (7, -4.30481240691997020000e+001) (8, 2.90031127266999760000e-001) (0, 1.01173906547612320000e+001) (1, -1.63096106269133760000e+000) (2, 1.20217964733756360000e+001) (3, -1.22150412875021740000e+001) (4, 5.35031220549622160000e+000) (5, -1.91340273111940310000e+000) (6, 1.77375868227457180000e+002) (7, -7.57386858558262900000e+001) (8, -1.89857957361400540000e+000) (0, 1.17149221690603310000e+000) (1, -7.64441414488266790000e+000) (2, -9.39280435387119920000e-001) (3, 8.45154519388021440000e+000) (4, 1.69655348542504780000e+001) (5, -1.05603806857904510000e+001) (6, 1.13112045794812560000e+001) (7, -9.09970504134881790000e+000) (8, 6.07383829564939300000e-001) (0, 6.88804425670733170000e+000) (1, -1.66330742225122170000e+001) (2, -2.84311182873724140000e+000) (3, 2.36972246410268460000e+001) (4, 8.89835379137305260000e+000) (5, -5.27240968350227990000e+001) (6, 8.35553193154438110000e+001) (7, 3.10972783687882100000e+001) (8, -2.66981619693356150000e-001) (0, 2.61994111916410200000e+000) (1, 3.26732918002432400000e+000) (2, -6.65210986369489250000e-002) (3, 2.33775969311538030000e+000) (4, -1.26592443210156310000e+001) (5, -7.46909576553073880000e-001) (6, -1.02820488960572920000e+000) (7, 1.48482358994335000000e+000) (8, -5.57615457489607710000e-002) (0, 2.67221333577943240000e+000) (1, 1.01092063212413450000e+001) (2, -6.90383155371062250000e+000) (3, -1.82983372498327520000e+001) (4, -8.89536134320989900000e+000) (5, 2.36159258373462000000e+001) (6, 3.48700050638375810000e+001) (7, -3.66438431306519450000e+001) (8, 1.17882052018355420000e-001) (0, -2.04058215588041330000e-001) (1, 1.50414716467659200000e+000) (2, -2.34371156911726220000e+001) (3, 2.19721540464380210000e+001) (4, 6.00494238138357520000e+000) (5, -2.29276531735263660000e+001) (6, 2.43268199589634440000e+001) (7, 3.63013537658349110000e+001) (8, -4.37875174752034860000e-001) (0, 2.06348437952737210000e+000) (1, 7.59527131897366200000e+000) (2, -2.40163042960316760000e+000) (3, -1.24924119493219270000e+000) (4, -3.50956745345541950000e+000) (5, 1.92094584991543640000e+000) (6, 9.49162444542292820000e-001) (7, -6.52936111618628430000e+000) (8, 4.13655720707614030000e-001) (0, 2.32936834716575130000e+001) (1, 1.03757333437962190000e+002) (2, -2.99253799425960270000e+002) (3, 1.83544799379664540000e+002) (4, -2.06779701971211100000e+002) (5, -5.74347451122338500000e+002) (6, -5.48915226441885580000e+002) (7, 5.10088265961590590000e+002) (8, 1.45082672959130520000e+001) (0, 1.25644340007796420000e-001) (1, -1.58190363113065540000e+000) (2, 2.98395182360745000000e+000) (3, -5.83627577915999840000e+000) (4, 5.40517577456942090000e+000) (5, -8.73484066648263280000e-001) (6, 1.21234800541380380000e+000) (7, 1.85231501008361810000e+000) (8, 2.94414143585402910000e-001) (9, 1.04838248626431120000e-001) (10, -2.87910924542966210000e+000) (11, 1.75662403449857370000e+000) (12, 1.15996426747763180000e+000) (13, -1.81198313197922370000e+000) (14, -1.54605268629199450000e+000) (15, 6.73288524285233110000e-001) (16, 2.02524467685994700000e+000) (17, 2.24090612030715420000e-001) (18, 3.46080542888452050000e+000) (19, -5.41222816438240000000e-001) (20, 2.50103654833508160000e-001) (21, 6.08284874239238050000e-001) (22, -2.88528978757070450000e-001) (23, 4.18988785018469370000e-001) (24, 1.05251948152697010000e+000) (25, -8.48919437064251100000e-001) (26, -5.20995894298903810000e-001) (27, 5.59100052705080940000e-002) (28, 1.05488388967553230000e-001) (29, 6.36467184372767950000e-001) (9, 5.69509437258334920000e-001) (10, 1.38524878365530250000e+000) (11, -1.80609686419794710000e+000) (12, -6.15569056470415820000e-001) (13, 9.20693298225522370000e-001) (14, 7.51923397808916370000e-001) (15, 2.19371364329352390000e-001) (16, -1.39070465333001560000e+000) (17, -6.23691134370233100000e-002) (18, -2.96522604034457920000e+000) (19, 2.44949392092181250000e-001) (20, 1.07198402418941550000e-001) (21, -4.18533237508321890000e-001) (22, -3.80085160900265560000e-001) (23, -1.36382052260467510000e-001) (24, -1.04561118789110100000e+000) (25, 1.08739523991308480000e+000) (26, 2.09597949043029930000e+000) (27, -2.99189334028408390000e-002) (28, 1.51080735786457420000e+000) (29, 6.29778741096381660000e-001) (9, 1.89766492440273350000e+000) (10, 4.77296394665909050000e+000) (11, -6.63458312851385230000e-001) (12, -6.55432777866730150000e-001) (13, 2.54879748346495920000e+000) (14, 8.74179683313948690000e-001) (15, -3.08603417460933280000e-001) (16, -1.59720958231570730000e+000) (17, -1.29994063040914520000e+000) (18, 4.12297054770025540000e-001) (19, 1.51530326879669340000e+000) (20, -6.12358537820407830000e-001) (21, 1.34535020859121330000e-001) (22, 2.50461818417100410000e-001) (23, 1.19448708862806360000e+000) (24, -1.23522417802479830000e+000) (25, -2.89779187099220570000e-001) (26, -6.72442932230531530000e-001) (27, -2.05986345857255530000e-001) (28, -5.99633291668669400000e-002) (29, 7.69780601305586450000e-001) (9, 6.45207155045588570000e-001) (10, -7.75737606145315060000e-001) (11, -4.28171080323081880000e-001) (12, 4.22188561752370890000e+000) (13, 1.09583875014277000000e+000) (14, 7.16303383690748200000e-001) (15, 6.37872905467645260000e+000) (16, 7.11963836153944100000e-001) (17, 4.32329276210003170000e-001) (18, -1.74813729148088680000e-001) (19, 3.48516405794842800000e-003) (20, 2.26477978561941180000e-001) (21, 6.32554505513129420000e-001) (22, -2.62039279005936820000e-001) (23, 3.19377429898950640000e+000) (24, -7.89840577593436290000e-001) (25, 1.37171618250789500000e-001) (26, -1.23796802726643750000e+000) (27, 1.29268100706550400000e-001) (28, 1.13340929893489610000e+000) (29, 1.98879220933741800000e-001) (9, 1.69778014487679110000e+000) (10, -9.79237964963762360000e-001) (11, 1.99008230400479150000e+000) (12, 3.01379222971226920000e+000) (13, -5.37595279759782050000e-001) (14, 3.21790735939077030000e+000) (15, 9.82892982291917150000e+000) (16, 1.34226963665358750000e-001) (17, 5.41300455817715580000e-001) (18, -1.68622908551066930000e-001) (19, 3.66024893327235650000e-001) (20, 3.54981668862977110000e-001) (21, 1.57502079672381720000e+000) (22, -6.28799374494980910000e-001) (23, 3.89149587285122280000e+000) (24, -2.05594958291374440000e+000) (25, 4.90281415689838740000e-001) (26, -1.14438936389411230000e+000) (27, 6.31855586616615340000e-002) (28, 7.47954841868019860000e-001) (29, 8.02271485585932860000e-001) 
