FANN_FLO_2.1
num_layers=3
learning_rate=0.700000
connection_rate=1.000000
network_type=0
learning_momentum=0.000000
training_algorithm=2
train_error_function=1
train_stop_function=0
cascade_output_change_fraction=0.010000
quickprop_decay=-0.000100
quickprop_mu=1.750000
rprop_increase_factor=1.200000
rprop_decrease_factor=0.500000
rprop_delta_min=0.000000
rprop_delta_max=50.000000
rprop_delta_zero=0.100000
cascade_output_stagnation_epochs=12
cascade_candidate_change_fraction=0.010000
cascade_candidate_stagnation_epochs=12
cascade_max_out_epochs=150
cascade_max_cand_epochs=150
cascade_num_candidate_groups=2
bit_fail_limit=3.49999999999999980000e-001
cascade_candidate_limit=1.00000000000000000000e+003
cascade_weight_multiplier=4.00000000000000020000e-001
cascade_activation_functions_count=10
cascade_activation_functions=3 5 7 8 10 11 14 15 16 17 
cascade_activation_steepnesses_count=4
cascade_activation_steepnesses=2.50000000000000000000e-001 5.00000000000000000000e-001 7.50000000000000000000e-001 1.00000000000000000000e+000 
layer_sizes=9 21 6 
scale_included=0
neurons (num_inputs, activation_function, activation_steepness)=(0, 0, 0.00000000000000000000e+000) (0, 0, 0.00000000000000000000e+000) (0, 0, 0.00000000000000000000e+000) (0, 0, 0.00000000000000000000e+000) (0, 0, 0.00000000000000000000e+000) (0, 0, 0.00000000000000000000e+000) (0, 0, 0.00000000000000000000e+000) (0, 0, 0.00000000000000000000e+000) (0, 0, 0.00000000000000000000e+000) (9, 6, 5.00000000000000000000e-001) (9, 6, 5.00000000000000000000e-001) (9, 6, 5.00000000000000000000e-001) (9, 6, 5.00000000000000000000e-001) (9, 6, 5.00000000000000000000e-001) (9, 6, 5.00000000000000000000e-001) (9, 6, 5.00000000000000000000e-001) (9, 6, 5.00000000000000000000e-001) (9, 6, 5.00000000000000000000e-001) (9, 6, 5.00000000000000000000e-001) (9, 6, 5.00000000000000000000e-001) (9, 6, 5.00000000000000000000e-001) (9, 6, 5.00000000000000000000e-001) (9, 6, 5.00000000000000000000e-001) (9, 6, 5.00000000000000000000e-001) (9, 6, 5.00000000000000000000e-001) (9, 6, 5.00000000000000000000e-001) (9, 6, 5.00000000000000000000e-001) (9, 6, 5.00000000000000000000e-001) (9, 6, 5.00000000000000000000e-001) (0, 6, 0.00000000000000000000e+000) (21, 6, 5.00000000000000000000e-001) (21, 6, 5.00000000000000000000e-001) (21, 6, 5.00000000000000000000e-001) (21, 6, 5.00000000000000000000e-001) (21, 6, 5.00000000000000000000e-001) (0, 6, 0.00000000000000000000e+000) 
connections (connected_to_neuron, weight)=(0, -7.39403845038011150000e-001) (1, -2.06246160143686290000e+000) (2, 1.06478482340126010000e+001) (3, 3.11724529973217510000e+000) (4, -4.01641242874638050000e+000) (5, 1.13513458190221800000e+001) (6, 4.37660631708448880000e-001) (7, 1.73229856742937510000e+001) (8, 3.77479568719913050000e-002) (0, -4.26218081947213390000e-001) (1, -2.83650693414565640000e+000) (2, 7.44115814305421840000e-001) (3, 1.22308863965393790000e+001) (4, -1.00462364787965960000e+001) (5, -1.45187395542227730000e+001) (6, -8.97610665846180770000e-001) (7, -1.26009806631876730000e+000) (8, -3.92311425515489560000e-002) (0, 1.91279291888579950000e+000) (1, -3.65599209596948340000e+000) (2, 4.02052068748803390000e+000) (3, -5.68103688182773770000e+000) (4, 8.65170574366702640000e+000) (5, -6.89976391190805560000e-001) (6, 5.83287292560630390000e-001) (7, -1.39799377722103570000e+001) (8, 4.86381365650064570000e-001) (0, -1.21369758310871800000e+000) (1, 2.82711679849313030000e-002) (2, 5.54585303564179100000e+000) (3, -7.14294261715199320000e+000) (4, -2.29715878883421350000e+000) (5, 1.79814916309365070000e+001) (6, 1.27860856450107500000e+000) (7, 9.54961657411559270000e+000) (8, 1.31114650700578590000e-001) (0, 1.32655915737012700000e+000) (1, -2.42322221522236130000e+000) (2, -1.10331443484315630000e+000) (3, 1.22444771345706640000e+000) (4, 1.25524668577523570000e+001) (5, 2.17097642062439040000e+000) (6, 2.28820694654425780000e+000) (7, -4.47626204106693490000e+000) (8, 4.31365447150326990000e-002) (0, -2.90925074866547670000e-001) (1, -2.13177985777495180000e+000) (2, -2.16717231279990010000e+000) (3, -4.10527298989115240000e+000) (4, 5.22625281507700290000e+000) (5, 7.06539534980733030000e+000) (6, 1.59129889083606610000e+000) (7, 1.01550157058693990000e+001) (8, 2.65374684953930300000e-001) (0, -1.56330211384529870000e+000) (1, 1.33108006443843920000e+001) (2, -1.56499946971020310000e+001) (3, -1.12877993124898190000e+001) (4, 1.23407113518363310000e+001) (5, -1.86587359329262550000e+001) (6, -3.17748309199433000000e+000) (7, -1.00215225580467850000e+001) (8, 8.00153973008141840000e-001) (0, -6.77115706386554050000e-001) (1, -4.16227808883508470000e-001) (2, 8.26516332825880970000e+000) (3, 4.25899746075269370000e+000) (4, 3.10946405008609790000e+000) (5, 1.30045444882445210000e+001) (6, -4.39293991085476510000e+000) (7, 4.38675424153561590000e-001) (8, 2.71713551781766650000e-001) (0, 2.26369837074380160000e+000) (1, 1.11077298200160230000e+000) (2, -1.04106313184407000000e+000) (3, 2.37214973783149600000e-001) (4, -9.04508718282275840000e+000) (5, 6.27431865361501720000e-002) (6, 1.77478569650488600000e+000) (7, 4.58708893549159670000e+000) (8, 7.80494316463624100000e-002) (0, -1.49649836299538590000e+000) (1, 1.86392813578670350000e+000) (2, 1.51371732176620630000e+000) (3, 7.90569544806112410000e-001) (4, -3.33473822886451780000e-001) (5, -1.82223584726868390000e+000) (6, -1.53415782092496120000e-001) (7, 2.67902434793909350000e-001) (8, -1.57594568109926090000e-001) (0, 2.68832709845508640000e+000) (1, -4.81168720336106140000e+000) (2, 3.02832639021849960000e+000) (3, 5.46531393754415710000e+000) (4, 2.31744549408270610000e+000) (5, -6.03981970895192790000e+000) (6, -2.46561217574148060000e+000) (7, 2.25008120057740780000e+000) (8, 2.17964040532514390000e-001) (0, -1.73199878357528980000e-001) (1, -2.17271032306655560000e+001) (2, -6.16520395701568800000e+000) (3, 3.67094665404792690000e+001) (4, 3.07882145119647320000e+001) (5, -1.43551647095034680000e+001) (6, 1.65010811376703610000e+001) (7, -3.31935991977650960000e+001) (8, -1.06783450392777350000e+000) (0, 1.58308629741348220000e+001) (1, -3.50413153958897230000e+000) (2, -6.39084320543046260000e+001) (3, 1.03149287864638490000e+001) (4, 6.07830232820344490000e+001) (5, -1.57591435838855150000e+002) (6, 7.46022005429343270000e+001) (7, 4.62469133290959750000e+001) (8, 1.53454857544818870000e+000) (0, 2.84905823159472770000e-001) (1, 3.55820513936281500000e-001) (2, -9.18068895696761200000e-001) (3, 4.23279288111330140000e-001) (4, -8.13326768154501000000e-001) (5, 3.74763546478345310000e-003) (6, -6.82459477472622370000e-001) (7, 3.75999726990324360000e+000) (8, -8.09319371026808730000e-002) (0, 1.22755742577872410000e+000) (1, 1.86681807719743900000e+000) (2, 2.26757683548444300000e+000) (3, -2.65757588441796110000e+000) (4, -8.83479694330068450000e-001) (5, -1.97573171582214520000e-001) (6, 2.34611522246447500000e-002) (7, -6.64170734001407800000e-001) (8, 8.91692294535436220000e-002) (0, 4.13538172683947770000e-001) (1, 1.28864923082822130000e+001) (2, -5.63555684131231160000e+000) (3, 7.57509376666135380000e+000) (4, 1.25249718540419420000e+000) (5, -6.14258764993863430000e+000) (6, -1.34244507871389060000e+000) (7, -1.77249810107958340000e-001) (8, 3.96994374783551870000e-001) (0, -1.08951606471651790000e+000) (1, 5.75635447935055300000e+000) (2, 4.41940587106363390000e+000) (3, 3.67447392300032650000e-001) (4, 8.10412215566077700000e-002) (5, -2.72421620826748520000e+000) (6, 3.40470764208545610000e-001) (7, -4.67426811502864490000e+000) (8, 3.03778964939330430000e-001) (0, -2.28830265770287420000e+000) (1, -3.44269055473944350000e+000) (2, -5.39878351535882040000e+000) (3, -1.81891923676304790000e+001) (4, -1.39413036879308880000e+000) (5, 1.23205602678478650000e+001) (6, 9.52443513610034210000e+000) (7, -3.44098720740785200000e+000) (8, 5.11111001079045600000e-002) (0, 6.14791878211094280000e-002) (1, 2.37121441949072500000e+000) (2, 4.41771514745222580000e-001) (3, 5.67905603309814610000e-002) (4, 2.07835871329361810000e+000) (5, -1.31963990399442400000e+000) (6, -4.94767457311703350000e-001) (7, -9.26075804172401650000e-001) (8, -9.50761080976898900000e-002) (0, 4.41830079919947050000e+000) (1, 1.24296686918475000000e+001) (2, -3.36678808850191040000e+000) (3, -3.76410467778745140000e+001) (4, -1.06708868620108120000e+001) (5, 2.27879452063771240000e+001) (6, 3.56544287721263520000e+001) (7, -2.73524069826655380000e+001) (8, 2.91453575966402700000e-001) (9, 1.46366293597837100000e+000) (10, 2.59932392282888620000e+000) (11, -8.19708100557246080000e-001) (12, -1.46332451404348090000e-001) (13, 3.70007354357299520000e+000) (14, 1.69484862482663980000e-001) (15, 1.16791419751053960000e+000) (16, 4.25566354920346000000e-001) (17, 9.43355647853234780000e-001) (18, 3.52669790516197330000e+000) (19, 1.67535811092241640000e-001) (20, -4.95057855452922300000e-001) (21, -1.89237450071826350000e-001) (22, -5.34994793865916310000e+000) (23, 7.90991686884494950000e-001) (24, -3.46117678210326570000e-001) (25, -3.14541382697845820000e+000) (26, 1.35757633058298190000e-001) (27, 2.26676648660428360000e+000) (28, 3.83045350967823380000e-001) (29, 5.69368411452645160000e-001) (9, -1.02508944466409880000e+000) (10, -1.45482644458527190000e+000) (11, 3.16254377189554740000e-001) (12, -1.45048767068120600000e+000) (13, -2.86754004257451540000e+000) (14, 1.58131369845739060000e+000) (15, -7.19656285918384710000e-001) (16, 8.55399615271718040000e-001) (17, -5.47787990196908380000e-001) (18, -2.41205112535389430000e-001) (19, 7.12519584279831200000e-001) (20, 3.36823229327425420000e-001) (21, -3.63387476779927430000e-002) (22, 2.34272934284356890000e+000) (23, 1.80202793048220270000e+000) (24, 1.03993292577840850000e+000) (25, 1.43092892074886180000e+000) (26, 1.09047206701861740000e+000) (27, -2.13743913298550760000e+000) (28, -2.94797950470184640000e-001) (29, 5.53549319090156590000e-001) (9, -4.69528657073787380000e-001) (10, -1.79291063569962920000e+000) (11, 1.03782085239681110000e+000) (12, 7.19840833896082940000e-002) (13, -3.39714503911261230000e+000) (14, 8.07645804333477210000e-001) (15, 3.51949229746011950000e-001) (16, 1.04190488686051160000e-001) (17, 2.45434239423438120000e+000) (18, 8.51274434565692410000e-001) (19, 2.79303145848251420000e+000) (20, 8.93298141980496730000e-001) (21, -2.32166461610118220000e-001) (22, 2.78727126774331820000e+000) (23, -2.35747666785390340000e+000) (24, 6.37876437668842390000e-001) (25, 2.11425264036971110000e+000) (26, 1.49496647688114260000e+000) (27, 9.00016025301651590000e-001) (28, -2.86586756696728280000e-001) (29, 6.78854688129946090000e-001) (9, -1.18123179994453320000e+000) (10, 1.63289375314771150000e+000) (11, 2.39704736637745390000e+000) (12, 8.78471454839419570000e-001) (13, 4.34434036133164340000e-001) (14, 6.95477760199300850000e-001) (15, -1.11135003673461140000e+000) (16, 1.11355274609600400000e+000) (17, 1.70747491041304000000e+000) (18, 1.28203950672705020000e+000) (19, -1.51139615096630900000e+000) (20, -4.86951385387236810000e-001) (21, 2.60596115107130430000e-001) (22, -1.36137435960909080000e+000) (23, -9.08721952900003880000e-002) (24, 1.47662836965884380000e+000) (25, -1.52525246301930120000e+000) (26, 1.44357750488534700000e+000) (27, 4.87564374530711580000e+000) (28, -8.12975701367262380000e-001) (29, 6.76524101706640900000e-001) (9, -1.38542175582649980000e+000) (10, 1.17584133307240200000e+000) (11, 3.89958472210522980000e+000) (12, 1.88474807513692260000e+000) (13, -1.92449763786811180000e-002) (14, 9.13521744275467840000e-001) (15, -7.76182850697197530000e-002) (16, 1.14121262800978140000e+000) (17, 3.36899615561665830000e+000) (18, 2.39021265364570250000e+000) (19, -2.04131445445065300000e+000) (20, -1.90193303190290580000e-002) (21, 1.98898515279817200000e-001) (22, 5.13560843621051700000e+000) (23, -3.33627034867042750000e+000) (24, 1.80211658781494940000e-003) (25, -3.61029168085972020000e-001) (26, -1.68612041529424490000e-001) (27, 3.48941685248101360000e+000) (28, -6.20374866581492990000e-001) (29, 6.88099182215150540000e-001) 
