FANN_FLO_2.1
num_layers=3
learning_rate=0.700000
connection_rate=1.000000
network_type=0
learning_momentum=0.000000
training_algorithm=2
train_error_function=1
train_stop_function=0
cascade_output_change_fraction=0.010000
quickprop_decay=-0.000100
quickprop_mu=1.750000
rprop_increase_factor=1.200000
rprop_decrease_factor=0.500000
rprop_delta_min=0.000000
rprop_delta_max=50.000000
rprop_delta_zero=0.100000
cascade_output_stagnation_epochs=12
cascade_candidate_change_fraction=0.010000
cascade_candidate_stagnation_epochs=12
cascade_max_out_epochs=150
cascade_max_cand_epochs=150
cascade_num_candidate_groups=2
bit_fail_limit=3.49999999999999980000e-001
cascade_candidate_limit=1.00000000000000000000e+003
cascade_weight_multiplier=4.00000000000000020000e-001
cascade_activation_functions_count=10
cascade_activation_functions=3 5 7 8 10 11 14 15 16 17 
cascade_activation_steepnesses_count=4
cascade_activation_steepnesses=2.50000000000000000000e-001 5.00000000000000000000e-001 7.50000000000000000000e-001 1.00000000000000000000e+000 
layer_sizes=9 4 6 
scale_included=0
neurons (num_inputs, activation_function, activation_steepness)=(0, 0, 0.00000000000000000000e+000) (0, 0, 0.00000000000000000000e+000) (0, 0, 0.00000000000000000000e+000) (0, 0, 0.00000000000000000000e+000) (0, 0, 0.00000000000000000000e+000) (0, 0, 0.00000000000000000000e+000) (0, 0, 0.00000000000000000000e+000) (0, 0, 0.00000000000000000000e+000) (0, 0, 0.00000000000000000000e+000) (9, 6, 5.00000000000000000000e-001) (9, 6, 5.00000000000000000000e-001) (9, 6, 5.00000000000000000000e-001) (0, 6, 0.00000000000000000000e+000) (4, 6, 5.00000000000000000000e-001) (4, 6, 5.00000000000000000000e-001) (4, 6, 5.00000000000000000000e-001) (4, 6, 5.00000000000000000000e-001) (4, 6, 5.00000000000000000000e-001) (0, 6, 0.00000000000000000000e+000) 
connections (connected_to_neuron, weight)=(0, 5.06034903429341740000e+000) (1, -6.66132839400049190000e-001) (2, 3.21680056132222660000e+000) (3, -2.20269006617953430000e+000) (4, 1.52090176447603640000e+001) (5, -2.87737061666187480000e+001) (6, 4.83727996729849700000e+000) (7, -2.72479531149428000000e+000) (8, -1.29281413220764210000e+000) (0, -2.06803508033254600000e+000) (1, -1.57017448197749340000e+000) (2, -1.65582664877517960000e+000) (3, 7.72631775813520250000e+000) (4, -2.18946489664844450000e+000) (5, 2.73587661937821160000e+000) (6, -3.44282622214822750000e+000) (7, 4.89113181887628020000e+000) (8, 4.21144241080870010000e-001) (0, 1.92740118660587130000e+000) (1, 1.39483755889163260000e+001) (2, 6.83904370293719130000e+000) (3, -3.91426548861318510000e+001) (4, -1.58506330800851140000e+001) (5, 2.49546261944327630000e+001) (6, 2.64020351865505950000e+001) (7, -2.87678055878655810000e+001) (8, 1.07956009708757120000e+000) (9, 6.41935438178595890000e-001) (10, 1.71551678729291220000e+000) (11, 4.09826614591994650000e-001) (12, 3.94830384042237190000e-001) (9, -8.86396989531961550000e-001) (10, -1.81753107537058640000e+000) (11, -4.20372147418051960000e-001) (12, 9.12738451425616600000e-001) (9, -1.76183106008769910000e-001) (10, 2.26106707813908440000e-002) (11, -1.34436230784128340000e-002) (12, 8.96433758205401830000e-001) (9, -7.69571804364179270000e-001) (10, -2.21669755136422350000e+000) (11, -5.89301942691488940000e-001) (12, 1.31590926816764480000e+000) (9, -6.15063863996349270000e-001) (10, -1.69858297409306250000e+000) (11, -6.08145250211823310000e-001) (12, 1.35803612579742580000e+000) 
