FANN_FLO_2.1
num_layers=3
learning_rate=0.700000
connection_rate=1.000000
network_type=0
learning_momentum=0.000000
training_algorithm=2
train_error_function=1
train_stop_function=0
cascade_output_change_fraction=0.010000
quickprop_decay=-0.000100
quickprop_mu=1.750000
rprop_increase_factor=1.200000
rprop_decrease_factor=0.500000
rprop_delta_min=0.000000
rprop_delta_max=50.000000
rprop_delta_zero=0.100000
cascade_output_stagnation_epochs=12
cascade_candidate_change_fraction=0.010000
cascade_candidate_stagnation_epochs=12
cascade_max_out_epochs=150
cascade_max_cand_epochs=150
cascade_num_candidate_groups=2
bit_fail_limit=3.49999999999999980000e-001
cascade_candidate_limit=1.00000000000000000000e+003
cascade_weight_multiplier=4.00000000000000020000e-001
cascade_activation_functions_count=10
cascade_activation_functions=3 5 7 8 10 11 14 15 16 17 
cascade_activation_steepnesses_count=4
cascade_activation_steepnesses=2.50000000000000000000e-001 5.00000000000000000000e-001 7.50000000000000000000e-001 1.00000000000000000000e+000 
layer_sizes=9 4 6 
scale_included=0
neurons (num_inputs, activation_function, activation_steepness)=(0, 0, 0.00000000000000000000e+000) (0, 0, 0.00000000000000000000e+000) (0, 0, 0.00000000000000000000e+000) (0, 0, 0.00000000000000000000e+000) (0, 0, 0.00000000000000000000e+000) (0, 0, 0.00000000000000000000e+000) (0, 0, 0.00000000000000000000e+000) (0, 0, 0.00000000000000000000e+000) (0, 0, 0.00000000000000000000e+000) (9, 6, 5.00000000000000000000e-001) (9, 6, 5.00000000000000000000e-001) (9, 6, 5.00000000000000000000e-001) (0, 6, 0.00000000000000000000e+000) (4, 6, 5.00000000000000000000e-001) (4, 6, 5.00000000000000000000e-001) (4, 6, 5.00000000000000000000e-001) (4, 6, 5.00000000000000000000e-001) (4, 6, 5.00000000000000000000e-001) (0, 6, 0.00000000000000000000e+000) 
connections (connected_to_neuron, weight)=(0, -1.34145526895249460000e+000) (1, 6.72056222511207110000e-001) (2, -4.33130185936471010000e-001) (3, 2.13149685061534780000e+000) (4, -3.68387014930045180000e+000) (5, 1.28513030451257370000e+000) (6, 2.21493658421081290000e+000) (7, 7.07867271434394870000e-001) (8, 5.45083985289725130000e-001) (0, 8.43066237225015840000e-001) (1, -6.46738077760558920000e-001) (2, 5.21118274882206080000e-001) (3, -9.76947194579065310000e-001) (4, 2.25939287885002130000e+000) (5, -1.43034723646537580000e+000) (6, -1.36109711515416980000e-001) (7, -1.12007052627675470000e+000) (8, -1.49360767373097970000e-001) (0, -5.29760272274130810000e+000) (1, 5.52280720438518100000e+000) (2, -3.91298898089200350000e+000) (3, 3.32452785398123840000e+000) (4, -1.82326676092425930000e+001) (5, 1.96925635992652740000e+001) (6, -3.18315239877584230000e+000) (7, 6.02608380566609810000e+000) (8, 9.01856326062164480000e-001) (9, 1.70177596318268630000e+000) (10, 1.64553723495394880000e+000) (11, -1.13182738081007480000e-001) (12, 3.02871355563925190000e-001) (9, -5.66591407753108790000e-001) (10, 1.95821632433818960000e+000) (11, 6.48254860581972010000e-001) (12, 8.59602372996666200000e-001) (9, -2.34339913586308370000e-001) (10, -1.41656450459874780000e+000) (11, -6.70315831413289060000e-003) (12, 9.59401435833853510000e-001) (9, 6.19228217737220140000e-001) (10, 3.90963545821952740000e+000) (11, 4.17154538311252150000e-001) (12, 9.63044760992750710000e-001) (9, -2.29245750171256630000e+000) (10, -5.63632072206536970000e+000) (11, -4.58658767094923870000e-001) (12, 1.44971029372588300000e+000) 
