FANN_FLO_2.1
num_layers=3
learning_rate=0.700000
connection_rate=1.000000
network_type=0
learning_momentum=0.000000
training_algorithm=2
train_error_function=1
train_stop_function=0
cascade_output_change_fraction=0.010000
quickprop_decay=-0.000100
quickprop_mu=1.750000
rprop_increase_factor=1.200000
rprop_decrease_factor=0.500000
rprop_delta_min=0.000000
rprop_delta_max=50.000000
rprop_delta_zero=0.100000
cascade_output_stagnation_epochs=12
cascade_candidate_change_fraction=0.010000
cascade_candidate_stagnation_epochs=12
cascade_max_out_epochs=150
cascade_max_cand_epochs=150
cascade_num_candidate_groups=2
bit_fail_limit=3.49999999999999980000e-001
cascade_candidate_limit=1.00000000000000000000e+003
cascade_weight_multiplier=4.00000000000000020000e-001
cascade_activation_functions_count=10
cascade_activation_functions=3 5 7 8 10 11 14 15 16 17 
cascade_activation_steepnesses_count=4
cascade_activation_steepnesses=2.50000000000000000000e-001 5.00000000000000000000e-001 7.50000000000000000000e-001 1.00000000000000000000e+000 
layer_sizes=9 21 6 
scale_included=0
neurons (num_inputs, activation_function, activation_steepness)=(0, 0, 0.00000000000000000000e+000) (0, 0, 0.00000000000000000000e+000) (0, 0, 0.00000000000000000000e+000) (0, 0, 0.00000000000000000000e+000) (0, 0, 0.00000000000000000000e+000) (0, 0, 0.00000000000000000000e+000) (0, 0, 0.00000000000000000000e+000) (0, 0, 0.00000000000000000000e+000) (0, 0, 0.00000000000000000000e+000) (9, 6, 5.00000000000000000000e-001) (9, 6, 5.00000000000000000000e-001) (9, 6, 5.00000000000000000000e-001) (9, 6, 5.00000000000000000000e-001) (9, 6, 5.00000000000000000000e-001) (9, 6, 5.00000000000000000000e-001) (9, 6, 5.00000000000000000000e-001) (9, 6, 5.00000000000000000000e-001) (9, 6, 5.00000000000000000000e-001) (9, 6, 5.00000000000000000000e-001) (9, 6, 5.00000000000000000000e-001) (9, 6, 5.00000000000000000000e-001) (9, 6, 5.00000000000000000000e-001) (9, 6, 5.00000000000000000000e-001) (9, 6, 5.00000000000000000000e-001) (9, 6, 5.00000000000000000000e-001) (9, 6, 5.00000000000000000000e-001) (9, 6, 5.00000000000000000000e-001) (9, 6, 5.00000000000000000000e-001) (9, 6, 5.00000000000000000000e-001) (0, 6, 0.00000000000000000000e+000) (21, 6, 5.00000000000000000000e-001) (21, 6, 5.00000000000000000000e-001) (21, 6, 5.00000000000000000000e-001) (21, 6, 5.00000000000000000000e-001) (21, 6, 5.00000000000000000000e-001) (0, 6, 0.00000000000000000000e+000) 
connections (connected_to_neuron, weight)=(0, 6.30813283579285140000e+000) (1, -4.36093492462261380000e+001) (2, 5.85247677109820150000e+000) (3, -1.06245986630986330000e+001) (4, 4.22757248754920170000e+001) (5, -1.61428426095623290000e+001) (6, -9.09823924118164130000e+000) (7, 1.60374506488756800000e+001) (8, 7.34000332997729710000e-001) (0, -9.95447229470427850000e-001) (1, -4.73080136508751710000e+000) (2, 1.40009122379092230000e+001) (3, -6.52420758552724940000e+000) (4, 1.51372134023541760000e+001) (5, 7.34654502654888120000e+000) (6, 2.74785714733633530000e+000) (7, -7.71610704090454470000e+000) (8, 7.37275286727603900000e-001) (0, 1.17471141970870940000e+000) (1, 2.67739426154017360000e+000) (2, -9.50941627083160880000e-001) (3, 8.77189474919351950000e-001) (4, 6.14997227398669550000e+000) (5, -2.63385973619460770000e+000) (6, 2.00234423184554800000e+000) (7, 8.72272414098442810000e-001) (8, 6.31534425650899790000e-002) (0, 6.28173673338040530000e-001) (1, 5.05362838360524780000e+000) (2, -8.51115202054294070000e+000) (3, 2.87270360737842220000e+000) (4, 2.68958931779257160000e+000) (5, 2.59756911727570120000e+000) (6, -5.43485049296983560000e+000) (7, 2.94888562139627690000e+001) (8, -5.04744191466072520000e-001) (0, 3.29032230627119530000e+000) (1, 1.32210298894539980000e+001) (2, 1.74938497145784980000e+000) (3, 3.34920302907588760000e+000) (4, -1.84994883063892640000e+001) (5, -1.31276770725492380000e+001) (6, -3.78110824496717180000e-001) (7, 5.34316486040428270000e+001) (8, -8.05259569086994810000e-001) (0, -2.50468535878878520000e+000) (1, 3.93890548014494520000e+000) (2, 4.27555828364580660000e+000) (3, -1.44402497691302200000e+000) (4, -3.15628828606601520000e-001) (5, -1.44987077714141570000e-001) (6, -9.44742048549470190000e-001) (7, 3.39061427855185780000e+000) (8, 1.55509466119613390000e-001) (0, 4.19230365545621430000e-001) (1, 1.18733970573610060000e+000) (2, 1.31244946610799560000e+001) (3, -3.88177899784536070000e+000) (4, -4.84246968120448210000e-001) (5, 1.31141894738250840000e+000) (6, -2.96906182818512130000e+000) (7, 1.19120662205545850000e+000) (8, -1.71252692487382650000e-002) (0, 4.22963080816252040000e-002) (1, 1.10125146979797520000e+000) (2, 3.41645907617431850000e+000) (3, -1.22055542850739850000e+000) (4, 7.92324463111237340000e+000) (5, -4.56386633574179790000e+000) (6, -9.35574080671124970000e+000) (7, 7.98452095036610960000e-001) (8, -4.85089312074594160000e-001) (0, 7.14413186475427950000e-001) (1, -2.45186366648332090000e+000) (2, 2.08986342637362550000e+000) (3, -6.76408032109555090000e+000) (4, 1.95035074679588560000e+000) (5, -4.69880947885186200000e+000) (6, 5.77032982239213510000e+000) (7, -1.68165891013055320000e+001) (8, 3.25888211451642820000e-001) (0, 6.93782920092422370000e+000) (1, -5.09131280142762050000e+000) (2, -7.39431653558357830000e+000) (3, 1.30617836631358700000e-001) (4, -9.70833006023562460000e+000) (5, 1.24436680549436290000e+001) (6, -5.93165771950177150000e+000) (7, 1.15691734614219540000e+001) (8, -2.27815227454607560000e-001) (0, 8.84378266641246190000e-001) (1, 1.10054687264094010000e-001) (2, 1.06191503701905240000e+000) (3, 6.95651919978849900000e-001) (4, -2.98178362284738310000e+000) (5, -1.24026234578884380000e+000) (6, 7.60506233873714520000e-001) (7, 9.62596922015576230000e-001) (8, 2.35027444210487910000e-001) (0, 5.19451309971107670000e-001) (1, -1.94808536776147510000e+000) (2, 1.48727087961702710000e+000) (3, -6.27617838347986630000e+000) (4, 3.34576485705700090000e+000) (5, 1.62188335406042660000e-001) (6, -7.30683901238870080000e+000) (7, 1.94304240005453240000e-001) (8, 1.46200771753260960000e-001) (0, 6.47620534584779770000e+000) (1, -6.11688717675989140000e+000) (2, 7.92370204700657070000e+000) (3, -8.18542308536183150000e+000) (4, -4.35722576092739010000e+000) (5, -2.19262803890129420000e-001) (6, -3.08910508803621870000e+000) (7, 1.52082788470954830000e+001) (8, -2.45073884611338480000e-002) (0, 8.77782515573952590000e-001) (1, -4.78447367745660050000e-001) (2, -3.25155567461092140000e-001) (3, 7.46487987309393140000e-001) (4, -2.41924823703400090000e+000) (5, 1.69985924257730430000e-001) (6, 7.41877983410914820000e-001) (7, 1.34228133632023930000e+000) (8, 1.86166619356458870000e-001) (0, 7.95999163886358470000e+000) (1, -1.77885548904128840000e+000) (2, 2.75751506019885670000e+000) (3, 8.86979619476272600000e+000) (4, -2.47887168551811920000e+001) (5, -8.85308089984152070000e+000) (6, 1.08641588664755570000e+000) (7, -7.42684111804581600000e-001) (8, -7.67651670520794530000e-001) (0, 6.55933779429359380000e+000) (1, -1.85700149620382330000e+001) (2, 8.03956036153504350000e+000) (3, -3.60245264386469800000e+001) (4, 7.16309126402065480000e+000) (5, -1.31988531776943050000e+000) (6, 4.01857420032732500000e-001) (7, 1.34106549016316290000e+001) (8, -4.26747157421290770000e-001) (0, 2.52625624097755170000e+000) (1, 5.44377385064425120000e-001) (2, 3.02756384737859110000e+000) (3, -1.03865830990100470000e+000) (4, 7.15121463491126000000e+000) (5, -1.74673813347758080000e+001) (6, 1.10764497231419520000e+000) (7, -8.47891337065899720000e+000) (8, 1.20075910739292970000e-001) (0, -2.29151008634753590000e+000) (1, -1.91590288564118840000e+000) (2, -4.62694193660496910000e+000) (3, -1.00567915858893640000e+000) (4, -9.13745208255168960000e+000) (5, 5.61135233183224450000e+000) (6, -9.42854048770702670000e+000) (7, 6.09119443619815910000e+000) (8, 5.59071112266883220000e-001) (0, -1.22658378693742920000e+000) (1, -7.90976482585099120000e-001) (2, -1.94617780577857430000e+001) (3, 2.69574349169294440000e+001) (4, 6.12740299334373620000e+000) (5, -1.90059732584763560000e+001) (6, 4.43049225554299310000e+000) (7, -3.87760189568292830000e+001) (8, -1.89128960885155710000e-001) (0, -1.21757552656979410000e+000) (1, -1.76414202484541010000e+000) (2, -2.85737889922584020000e+000) (3, -3.58015799646446880000e+001) (4, 7.10988784569721850000e+000) (5, 2.83499880306313270000e+001) (6, 1.01581227166003370000e+001) (7, -1.58357276793961720000e+001) (8, -1.52678474666663890000e+000) (9, 1.38715211433258300000e-001) (10, -3.04540359668526440000e-001) (11, 3.14439065167749610000e-001) (12, -2.66478535630793580000e+000) (13, 4.56620112168540930000e-001) (14, -5.92974675936907110000e-001) (15, -2.04439458178836580000e-001) (16, -1.83590165791317570000e+000) (17, -4.74810002986646750000e+000) (18, 8.56564846217806710000e-001) (19, 6.67617208119360650000e-001) (20, 2.98202732857102970000e-001) (21, -9.80076066402963190000e-001) (22, -1.96043238745892020000e+000) (23, -8.05735182351178030000e-001) (24, 2.55041638413105940000e-002) (25, 3.08007486391341610000e+000) (26, 2.92750971053811980000e-001) (27, -5.25888429406588200000e-001) (28, 9.18563842638340570000e-001) (29, 6.44772093597288040000e-001) (9, -3.55203452814986050000e-001) (10, 9.83616268023038590000e-001) (11, 8.84491523793053290000e-001) (12, 1.65193778520630040000e+000) (13, -3.48880583419083730000e-001) (14, -8.76645319843419650000e-001) (15, -1.87537184647757540000e-001) (16, 9.69556631524422510000e-001) (17, 1.99132273050029700000e+000) (18, -1.42065490276583060000e+000) (19, 2.37639855575354990000e+000) (20, 2.36804136603592920000e-001) (21, 1.48664752391504810000e+000) (22, -2.30628739952836750000e-001) (23, 3.82013861971015390000e-001) (24, 2.19705988125595620000e-002) (25, -1.92394942678579420000e+000) (26, 9.79973813379140690000e-001) (27, 6.32902299073569980000e-001) (28, -1.12870399015876090000e-001) (29, 4.40673179248871230000e-001) (9, -5.21059572927165430000e-001) (10, 1.52267241104363360000e+000) (11, -2.51655799357310220000e+000) (12, 2.35060472154150800000e+000) (13, -1.33975317820070480000e+000) (14, 7.68706892724493000000e-001) (15, -3.27273892935404520000e+000) (16, 4.79217498412335720000e+000) (17, 2.63040104040770690000e+000) (18, -1.32134874205177420000e+000) (19, 3.25962435446278450000e+000) (20, -3.68251517997522180000e+000) (21, 1.41429605262763030000e+000) (22, 4.45893804146285520000e+000) (23, 9.56860248872068000000e-001) (24, 1.70549720166850970000e-001) (25, -1.40045515505099980000e+000) (26, 3.20047817614289510000e-002) (27, -6.04068554513138570000e-001) (28, -3.11013510689664870000e-001) (29, 9.34493742166339740000e-001) (9, 6.09765860287687760000e-001) (10, 1.09376211211315640000e+000) (11, 6.41117969153079590000e+000) (12, -3.28065808579121810000e-002) (13, 8.47463415995146850000e-001) (14, -2.20703465998058860000e+000) (15, 1.16539407056220970000e+000) (16, 4.24647206522579760000e-001) (17, 1.43523838718955310000e+000) (18, -1.34795591553050610000e+000) (19, 4.03101933414361730000e+000) (20, -1.12084586118198090000e+000) (21, 2.97070968774812590000e-001) (22, -6.61184717395562860000e+000) (23, 1.30817786053519990000e+000) (24, -5.08110417527093520000e-001) (25, -1.66561743297156410000e+000) (26, 4.25866511992890830000e+000) (27, 5.47033707973967550000e-001) (28, 1.24297785328015740000e+000) (29, 8.42634732776891720000e-001) (9, 3.76909433837776920000e-001) (10, 9.35313187689937210000e-001) (11, 1.13788532725867690000e+000) (12, 7.76724825343965810000e-001) (13, -2.57861766984155140000e-001) (14, 2.67835705283426240000e+000) (15, -1.38598735424165990000e+000) (16, -3.92559110742376200000e-001) (17, 2.35945661945555110000e-001) (18, -7.80583673261553310000e-001) (19, -1.95635625217477530000e+000) (20, 2.60880690714933030000e+000) (21, 1.82885569663367830000e-001) (22, 5.25556588015532090000e+000) (23, 1.38157485336195410000e+000) (24, -6.59162741272801060000e-001) (25, -1.38550856898856990000e-001) (26, -3.83002742925961650000e-002) (27, 1.17026185768955100000e-001) (28, 5.31667005033459760000e-001) (29, 5.61177020555864600000e-001) 
