FANN_FLO_2.1
num_layers=3
learning_rate=0.700000
connection_rate=1.000000
network_type=0
learning_momentum=0.000000
training_algorithm=2
train_error_function=1
train_stop_function=0
cascade_output_change_fraction=0.010000
quickprop_decay=-0.000100
quickprop_mu=1.750000
rprop_increase_factor=1.200000
rprop_decrease_factor=0.500000
rprop_delta_min=0.000000
rprop_delta_max=50.000000
rprop_delta_zero=0.100000
cascade_output_stagnation_epochs=12
cascade_candidate_change_fraction=0.010000
cascade_candidate_stagnation_epochs=12
cascade_max_out_epochs=150
cascade_max_cand_epochs=150
cascade_num_candidate_groups=2
bit_fail_limit=3.49999999999999980000e-001
cascade_candidate_limit=1.00000000000000000000e+003
cascade_weight_multiplier=4.00000000000000020000e-001
cascade_activation_functions_count=10
cascade_activation_functions=3 5 7 8 10 11 14 15 16 17 
cascade_activation_steepnesses_count=4
cascade_activation_steepnesses=2.50000000000000000000e-001 5.00000000000000000000e-001 7.50000000000000000000e-001 1.00000000000000000000e+000 
layer_sizes=9 21 6 
scale_included=0
neurons (num_inputs, activation_function, activation_steepness)=(0, 0, 0.00000000000000000000e+000) (0, 0, 0.00000000000000000000e+000) (0, 0, 0.00000000000000000000e+000) (0, 0, 0.00000000000000000000e+000) (0, 0, 0.00000000000000000000e+000) (0, 0, 0.00000000000000000000e+000) (0, 0, 0.00000000000000000000e+000) (0, 0, 0.00000000000000000000e+000) (0, 0, 0.00000000000000000000e+000) (9, 6, 5.00000000000000000000e-001) (9, 6, 5.00000000000000000000e-001) (9, 6, 5.00000000000000000000e-001) (9, 6, 5.00000000000000000000e-001) (9, 6, 5.00000000000000000000e-001) (9, 6, 5.00000000000000000000e-001) (9, 6, 5.00000000000000000000e-001) (9, 6, 5.00000000000000000000e-001) (9, 6, 5.00000000000000000000e-001) (9, 6, 5.00000000000000000000e-001) (9, 6, 5.00000000000000000000e-001) (9, 6, 5.00000000000000000000e-001) (9, 6, 5.00000000000000000000e-001) (9, 6, 5.00000000000000000000e-001) (9, 6, 5.00000000000000000000e-001) (9, 6, 5.00000000000000000000e-001) (9, 6, 5.00000000000000000000e-001) (9, 6, 5.00000000000000000000e-001) (9, 6, 5.00000000000000000000e-001) (9, 6, 5.00000000000000000000e-001) (0, 6, 0.00000000000000000000e+000) (21, 6, 5.00000000000000000000e-001) (21, 6, 5.00000000000000000000e-001) (21, 6, 5.00000000000000000000e-001) (21, 6, 5.00000000000000000000e-001) (21, 6, 5.00000000000000000000e-001) (0, 6, 0.00000000000000000000e+000) 
connections (connected_to_neuron, weight)=(0, -1.59498963263760810000e+000) (1, 1.10454721152132290000e+001) (2, -1.83346400579969140000e+000) (3, 4.37137078321663540000e-002) (4, 3.80114596334094970000e+000) (5, -6.99504357932906200000e+000) (6, 3.15475097419385400000e+000) (7, 2.38400083459033720000e+000) (8, 4.81061464329505740000e-002) (0, 5.34031893678790400000e+000) (1, -1.11032358088951250000e+001) (2, -7.28042105539798450000e+000) (3, -1.61116633753524570000e+001) (4, -1.35252709034721620000e+000) (5, 6.63972177121212860000e+000) (6, 1.76308193056986120000e+001) (7, -8.27057269815691320000e+000) (8, -3.11825044609952360000e-001) (0, 6.22242805536791680000e-001) (1, -1.86404355879276930000e-002) (2, 8.75853241012513810000e+000) (3, -1.61952989374247950000e+001) (4, 9.81763725947313230000e+000) (5, 1.47670140693832670000e+001) (6, 1.23100314971216140000e+000) (7, 1.26992811043918210000e+001) (8, 5.34587426165424980000e-001) (0, 2.51137726457945480000e+000) (1, 1.00499570137627040000e+001) (2, -5.17538862270285000000e+000) (3, -3.73290303109888840000e+001) (4, -2.96392420224554340000e+000) (5, 1.53502229578003070000e+001) (6, 4.00331319441208890000e+001) (7, -4.83317745197857640000e+000) (8, 5.00877724838226460000e-001) (0, 5.92601177518290530000e+000) (1, 1.51187416528785940000e+001) (2, -6.01087548480908220000e+000) (3, 6.08863438771526240000e+000) (4, 4.34731313265548100000e+000) (5, -7.29764780405517930000e+000) (6, -2.20908811203285570000e+001) (7, -1.58279774492287990000e+001) (8, -1.02284519184414860000e-001) (0, 4.58898877844927710000e+000) (1, -6.11053669461149780000e+000) (2, 1.40694749141812010000e+000) (3, 9.11038565578363490000e-001) (4, -1.17984461019047600000e+001) (5, 3.55593736232373560000e+000) (6, -4.27714012856798310000e+000) (7, -7.05691374213176110000e+000) (8, -1.31556184909190130000e-001) (0, 7.96234040471556550000e-001) (1, 1.59671829162884490000e+000) (2, -1.12489911226928200000e+000) (3, -1.25454083500035820000e+001) (4, 1.58786753388440620000e-002) (5, 5.55587635843992180000e+000) (6, -1.94551416402247160000e-001) (7, -2.00232949826324670000e+000) (8, -6.12304966120760870000e-002) (0, 2.66118913317229880000e+000) (1, 2.77665788021106860000e+000) (2, -1.57531264482129980000e-001) (3, -3.65795373535033220000e+000) (4, 3.89138142865542270000e+000) (5, 1.26888882656644440000e+000) (6, -3.61180393142814050000e+000) (7, -4.38053755879810440000e-001) (8, 4.49699036457461340000e-001) (0, 1.60818074535799800000e+001) (1, 2.21277025086142200000e+001) (2, -7.14972072138446460000e+001) (3, 8.26074760367573190000e+000) (4, 6.37582255605071070000e+001) (5, -2.23408943419258830000e+002) (6, 1.14995141340824090000e+002) (7, 1.10315233189158480000e+001) (8, 2.60571614661503140000e+000) (0, 1.48514547815414290000e-001) (1, -3.19658012788656690000e-001) (2, -7.28348560191965140000e-001) (3, -2.92727428748319200000e-001) (4, -3.05588534488794690000e-002) (5, -3.48209531152645520000e-001) (6, 1.09396272345176440000e+000) (7, 2.47508881881550350000e-001) (8, 2.65022195925286250000e-001) (0, 3.91475280537768370000e+000) (1, -3.54278172600719900000e+001) (2, 9.68091827156760230000e+000) (3, -2.94689575456041860000e+000) (4, 1.98846885219197490000e+001) (5, 6.73100829704760000000e+000) (6, -1.95233333725186000000e+001) (7, 4.89961360769936500000e+000) (8, 5.66299342026762580000e-001) (0, -1.37410136885653650000e-001) (1, 3.05526498357534480000e-001) (2, 1.46153599081253110000e-001) (3, -5.72359633146870220000e-001) (4, -1.73793319345898240000e-002) (5, 4.03448740857623110000e-001) (6, 1.74123665042602350000e-001) (7, -2.36071742036808280000e-001) (8, -1.93183132436488990000e-001) (0, 2.86450996637444000000e+000) (1, -2.68113068183932630000e+000) (2, -1.63538450944725690000e-001) (3, -9.93423985076741900000e-001) (4, -2.36465866137017500000e+000) (5, -3.84300891909897470000e-001) (6, 3.16176594332918560000e-001) (7, 6.16683021720244270000e+000) (8, -3.64364719652229180000e-003) (0, 6.63622178291104920000e-001) (1, 4.17053658677153740000e+000) (2, 7.03449541666120040000e+000) (3, 1.90755600821451600000e+000) (4, -1.89150518908647250000e+000) (5, -7.05559904327356050000e-001) (6, -7.44503572361990070000e+000) (7, 1.92154497381136270000e+001) (8, -1.02331948294099040000e-001) (0, -4.20316444470385690000e-001) (1, -4.36487028254517740000e-002) (2, -1.16352390416104790000e+000) (3, 6.07648589624452030000e+000) (4, 1.16919035848212680000e+000) (5, 1.34812614400416700000e+000) (6, 3.29448949518840940000e+000) (7, -1.71843302206936840000e+000) (8, -1.16163469726167090000e-001) (0, 1.05548789864887520000e+000) (1, 1.23526300819986710000e+001) (2, -7.23715329196567050000e+000) (3, -5.49176497693344980000e-001) (4, 9.24306152432224250000e-001) (5, -3.01845438157537370000e+000) (6, -2.15862258394852680000e-001) (7, 6.15442540412432850000e+000) (8, 6.62404169089830800000e-001) (0, 7.48038931498725470000e-001) (1, -2.56522975928678500000e+000) (2, -2.67260281458873210000e-001) (3, -1.15903764384282780000e+000) (4, -3.22857473611637800000e-001) (5, 2.75491807332993670000e-001) (6, -4.98071967790627080000e-002) (7, 3.77913471882293130000e-001) (8, 1.58799302602918360000e-001) (0, -6.93711864503645610000e+000) (1, 8.35565256555305250000e+000) (2, -2.12668786487487880000e-001) (3, -1.57313047805148210000e+000) (4, 3.96218041582167670000e+000) (5, 5.74345585670612910000e+000) (6, 2.16108916470437150000e+000) (7, 1.51429879877075670000e+001) (8, 5.89211344084158760000e-001) (0, 1.13755731124036790000e+000) (1, -2.93509260748812560000e-001) (2, -1.38193742194009710000e+000) (3, -8.48753587678666040000e+000) (4, 1.91577991574256210000e+000) (5, 6.45742364318511530000e+000) (6, 1.76722519087888090000e+001) (7, -9.91991281209370410000e-001) (8, 4.87469403754340450000e-001) (0, -6.18935069372132380000e-002) (1, 2.57990972849211080000e-001) (2, 1.73553532370589970000e+000) (3, -2.24510772407488670000e+000) (4, 3.99616021532009260000e-001) (5, -6.66116807102976160000e+000) (6, -1.98988007453078830000e+000) (7, 1.80293981035036350000e+000) (8, 3.36106913376520210000e-001) (9, -1.37776132773906390000e+000) (10, 8.58367557412982540000e-001) (11, -2.58809451981166090000e-002) (12, 7.90445279231078880000e-001) (13, 1.15162524918672070000e+000) (14, 3.82735410271182410000e-003) (15, 1.87200310206588960000e+000) (16, -2.03646334231461390000e+000) (17, -8.40124311796046770000e-002) (18, 1.81721889040061190000e+000) (19, 1.11450677734599170000e-001) (20, -1.26990857793193210000e+000) (21, 4.70511265924195120000e-001) (22, 1.07239857166079760000e+000) (23, 7.81977095791838120000e+000) (24, -6.14608382495414500000e-001) (25, -1.17998456442891640000e+000) (26, 1.10998396419554870000e+000) (27, -1.30848552698758860000e+000) (28, 5.90494408280136170000e+000) (29, 5.96792723195530340000e-001) (9, -5.47621738097651360000e-001) (10, -7.94799912026165290000e-001) (11, 8.07511669117981080000e-002) (12, -5.33973110132759830000e-001) (13, -9.49257985694639260000e-001) (14, -1.28325388219684120000e-001) (15, 1.54835265043493630000e+000) (16, 1.04643705288702820000e+000) (17, -3.80602911512561150000e-002) (18, -2.78827066002055620000e+000) (19, -1.41787281699172650000e-001) (20, 8.68614996670210180000e+000) (21, 5.31768622952272450000e-001) (22, -8.37817493286948770000e-001) (23, 1.65333251643247900000e+000) (24, 1.62948240433179410000e+000) (25, 1.40404140843322730000e+000) (26, -6.54462194806981090000e-001) (27, 8.69949580737329060000e-002) (28, 9.24775046112479180000e-001) (29, 1.25706732882840420000e+000) (9, 1.17518390884580030000e+000) (10, 6.70591313422997270000e-001) (11, 1.66613203030965720000e+000) (12, -6.73724455343543860000e-001) (13, -2.26958078117379390000e-001) (14, 1.15647589047926580000e+000) (15, -9.59501062171930990000e-001) (16, 1.44274285177054070000e-001) (17, -9.41726191119622300000e-002) (18, -7.25583663417117200000e+000) (19, -2.74526926084863790000e-001) (20, -9.49459092995217980000e+000) (21, 2.64492772168948600000e+000) (22, -2.66384898238314220000e+000) (23, -1.19618829939376140000e+000) (24, 2.29585112496219410000e-001) (25, -4.00719551224026920000e+000) (26, 1.11408465320389970000e+000) (27, -4.64713724360737820000e-001) (28, 6.81040438339521880000e-001) (29, 6.90490159859263760000e-001) (9, 7.05823931845936060000e-001) (10, -1.01703240575861820000e-001) (11, 3.49223446642147490000e-001) (12, -7.87325493145626720000e-001) (13, -1.55931336831073630000e+000) (14, 3.04051471188586970000e+000) (15, 4.01242154554002540000e+000) (16, 1.73349915181675170000e+000) (17, 2.02863371343539540000e-001) (18, -4.08060074861314880000e+000) (19, 3.08044783333451870000e-001) (20, 6.83872413272255920000e+000) (21, -2.78194676805565470000e+000) (22, 6.52594543868047610000e-001) (23, 8.56816664287219080000e+000) (24, 2.30213090879908220000e+000) (25, 3.73309511101250500000e+000) (26, 4.01554314914691010000e-001) (27, -6.20204944291437350000e-001) (28, 4.41099293822344580000e+000) (29, 6.86410724538360380000e-001) (9, 8.85281057516723150000e-001) (10, -8.00201399872836120000e-001) (11, 8.60413849666874180000e-001) (12, -1.06991949235180140000e+000) (13, 1.03034839009433490000e+000) (14, 3.31274785081749190000e+000) (15, 8.58923440769126520000e-001) (16, -2.38730828806657950000e+000) (17, 2.65688596728522690000e-001) (18, 2.52825840515512510000e+000) (19, 1.04471704624592720000e+000) (20, 2.12541414210179020000e+001) (21, 1.29434113937728210000e+000) (22, -1.00240867379970890000e+000) (23, 2.08080037941805300000e+000) (24, 8.59953663090810010000e-001) (25, -1.58946280556948480000e+000) (26, 2.17832147118964990000e+000) (27, 3.27736247052403500000e+000) (28, 2.31288620764595130000e+000) (29, 1.01031906166006060000e+000) 
