FANN_FLO_2.1
num_layers=3
learning_rate=0.700000
connection_rate=1.000000
network_type=0
learning_momentum=0.000000
training_algorithm=2
train_error_function=1
train_stop_function=0
cascade_output_change_fraction=0.010000
quickprop_decay=-0.000100
quickprop_mu=1.750000
rprop_increase_factor=1.200000
rprop_decrease_factor=0.500000
rprop_delta_min=0.000000
rprop_delta_max=50.000000
rprop_delta_zero=0.100000
cascade_output_stagnation_epochs=12
cascade_candidate_change_fraction=0.010000
cascade_candidate_stagnation_epochs=12
cascade_max_out_epochs=150
cascade_max_cand_epochs=150
cascade_num_candidate_groups=2
bit_fail_limit=3.49999999999999980000e-001
cascade_candidate_limit=1.00000000000000000000e+003
cascade_weight_multiplier=4.00000000000000020000e-001
cascade_activation_functions_count=10
cascade_activation_functions=3 5 7 8 10 11 14 15 16 17 
cascade_activation_steepnesses_count=4
cascade_activation_steepnesses=2.50000000000000000000e-001 5.00000000000000000000e-001 7.50000000000000000000e-001 1.00000000000000000000e+000 
layer_sizes=9 4 6 
scale_included=0
neurons (num_inputs, activation_function, activation_steepness)=(0, 0, 0.00000000000000000000e+000) (0, 0, 0.00000000000000000000e+000) (0, 0, 0.00000000000000000000e+000) (0, 0, 0.00000000000000000000e+000) (0, 0, 0.00000000000000000000e+000) (0, 0, 0.00000000000000000000e+000) (0, 0, 0.00000000000000000000e+000) (0, 0, 0.00000000000000000000e+000) (0, 0, 0.00000000000000000000e+000) (9, 6, 5.00000000000000000000e-001) (9, 6, 5.00000000000000000000e-001) (9, 6, 5.00000000000000000000e-001) (0, 6, 0.00000000000000000000e+000) (4, 6, 5.00000000000000000000e-001) (4, 6, 5.00000000000000000000e-001) (4, 6, 5.00000000000000000000e-001) (4, 6, 5.00000000000000000000e-001) (4, 6, 5.00000000000000000000e-001) (0, 6, 0.00000000000000000000e+000) 
connections (connected_to_neuron, weight)=(0, -5.09939818555199430000e-001) (1, 2.02726658537639360000e+000) (2, -1.00265854232737280000e+000) (3, -1.35569593815512900000e+000) (4, -1.52342963454270540000e+000) (5, 4.59111814741940450000e+000) (6, -3.76725504246232920000e+000) (7, 1.60469668898458280000e+000) (8, 1.05812529714814160000e+000) (0, 1.26597453216565550000e+001) (1, -2.40780522819174610000e+001) (2, 1.92699705442473680000e+000) (3, -8.38318269252639860000e+000) (4, 3.54402435016892380000e+001) (5, -2.69502505492898120000e+001) (6, -7.13863489197369730000e+000) (7, 2.29499119966861340000e-001) (8, 5.71364948292569630000e-003) (0, 3.70316665086492800000e-001) (1, -3.84003192962863560000e-001) (2, 6.82241479839710700000e-002) (3, -1.41714936320606390000e+000) (4, 9.67541705433441870000e-001) (5, 7.36485264283207930000e-001) (6, -9.41925930966713070000e-001) (7, -3.34410664616674350000e-001) (8, 2.91647410488121590000e-001) (9, -5.78607719594391390000e-001) (10, -7.17031396736717980000e-002) (11, -4.81412568855361990000e-001) (12, 9.10915234373247060000e-001) (9, 5.51875955790295580000e-001) (10, -1.42088753399234300000e-001) (11, 1.76917264693424700000e+000) (12, 3.42561685239309410000e-001) (9, 7.12376605361842550000e-001) (10, 2.27507773126569700000e-002) (11, -1.84600870459602030000e+000) (12, 8.90221654338351880000e-001) (9, -3.23940081957715950000e-001) (10, -5.67692093481859690000e-003) (11, 1.39873418955739730000e+000) (12, 9.93507500920499780000e-001) (9, 1.09671752954460230000e+000) (10, 2.93071075462240480000e-001) (11, -2.16114265132202550000e+000) (12, 8.39079222944502430000e-001) 
