FANN_FLO_2.1
num_layers=3
learning_rate=0.700000
connection_rate=1.000000
network_type=0
learning_momentum=0.000000
training_algorithm=2
train_error_function=1
train_stop_function=0
cascade_output_change_fraction=0.010000
quickprop_decay=-0.000100
quickprop_mu=1.750000
rprop_increase_factor=1.200000
rprop_decrease_factor=0.500000
rprop_delta_min=0.000000
rprop_delta_max=50.000000
rprop_delta_zero=0.100000
cascade_output_stagnation_epochs=12
cascade_candidate_change_fraction=0.010000
cascade_candidate_stagnation_epochs=12
cascade_max_out_epochs=150
cascade_max_cand_epochs=150
cascade_num_candidate_groups=2
bit_fail_limit=3.49999999999999980000e-001
cascade_candidate_limit=1.00000000000000000000e+003
cascade_weight_multiplier=4.00000000000000020000e-001
cascade_activation_functions_count=10
cascade_activation_functions=3 5 7 8 10 11 14 15 16 17 
cascade_activation_steepnesses_count=4
cascade_activation_steepnesses=2.50000000000000000000e-001 5.00000000000000000000e-001 7.50000000000000000000e-001 1.00000000000000000000e+000 
layer_sizes=9 4 6 
scale_included=0
neurons (num_inputs, activation_function, activation_steepness)=(0, 0, 0.00000000000000000000e+000) (0, 0, 0.00000000000000000000e+000) (0, 0, 0.00000000000000000000e+000) (0, 0, 0.00000000000000000000e+000) (0, 0, 0.00000000000000000000e+000) (0, 0, 0.00000000000000000000e+000) (0, 0, 0.00000000000000000000e+000) (0, 0, 0.00000000000000000000e+000) (0, 0, 0.00000000000000000000e+000) (9, 6, 5.00000000000000000000e-001) (9, 6, 5.00000000000000000000e-001) (9, 6, 5.00000000000000000000e-001) (0, 6, 0.00000000000000000000e+000) (4, 6, 5.00000000000000000000e-001) (4, 6, 5.00000000000000000000e-001) (4, 6, 5.00000000000000000000e-001) (4, 6, 5.00000000000000000000e-001) (4, 6, 5.00000000000000000000e-001) (0, 6, 0.00000000000000000000e+000) 
connections (connected_to_neuron, weight)=(0, -3.73982407525144780000e-001) (1, 6.24799216613464160000e-001) (2, -7.39087554906705970000e-001) (3, 6.72184603160586700000e-001) (4, -7.24625146726706860000e-001) (5, -3.18930811928872400000e-001) (6, -8.94345180092581130000e-001) (7, 1.93865498610933670000e+000) (8, 5.19220786038251320000e-002) (0, -2.09303647242906350000e+002) (1, -5.69145357993385300000e+000) (2, 5.66308640647454920000e+002) (3, -2.56258962575227260000e+002) (4, -5.72408434085736080000e+002) (5, 1.15834314480693710000e+003) (6, 3.13189934721534540000e+002) (7, -1.50000000000000000000e+003) (8, -1.12712773687215860000e+001) (0, -5.74063629827954620000e+000) (1, 6.68971120448989340000e+000) (2, -1.13245941069161330000e+000) (3, -6.46194724589315770000e+000) (4, -1.30301363479361230000e+001) (5, 1.71975289265946640000e+001) (6, -1.62267643752471000000e+001) (7, 1.64137929475856270000e+001) (8, -3.22694205923694630000e-001) (9, 9.68500614013668050000e-001) (10, 4.25073629212642040000e-002) (11, -6.48375213029746410000e-002) (12, 5.70556939567339880000e-001) (9, -1.98677540589198020000e+000) (10, -4.52368328415228980000e-002) (11, 4.41223518104116310000e-001) (12, 9.47851949629025080000e-001) (9, 2.38380747424774240000e+000) (10, 1.01980765932848700000e-001) (11, -8.25549299617878010000e-002) (12, 9.94597180212836160000e-001) (9, -3.21414928008478200000e+000) (10, -9.66889007756260720000e-002) (11, 2.46279783545269000000e-001) (12, 1.07491501094315130000e+000) (9, 1.26688599295245470000e+000) (10, -3.73324478435856160000e-002) (11, -1.71093639774986620000e-001) (12, 9.88214578761337670000e-001) 
