FANN_FLO_2.1
num_layers=3
learning_rate=0.700000
connection_rate=1.000000
network_type=0
learning_momentum=0.000000
training_algorithm=2
train_error_function=1
train_stop_function=0
cascade_output_change_fraction=0.010000
quickprop_decay=-0.000100
quickprop_mu=1.750000
rprop_increase_factor=1.200000
rprop_decrease_factor=0.500000
rprop_delta_min=0.000000
rprop_delta_max=50.000000
rprop_delta_zero=0.100000
cascade_output_stagnation_epochs=12
cascade_candidate_change_fraction=0.010000
cascade_candidate_stagnation_epochs=12
cascade_max_out_epochs=150
cascade_max_cand_epochs=150
cascade_num_candidate_groups=2
bit_fail_limit=3.49999999999999980000e-001
cascade_candidate_limit=1.00000000000000000000e+003
cascade_weight_multiplier=4.00000000000000020000e-001
cascade_activation_functions_count=10
cascade_activation_functions=3 5 7 8 10 11 14 15 16 17 
cascade_activation_steepnesses_count=4
cascade_activation_steepnesses=2.50000000000000000000e-001 5.00000000000000000000e-001 7.50000000000000000000e-001 1.00000000000000000000e+000 
layer_sizes=9 4 6 
scale_included=0
neurons (num_inputs, activation_function, activation_steepness)=(0, 0, 0.00000000000000000000e+000) (0, 0, 0.00000000000000000000e+000) (0, 0, 0.00000000000000000000e+000) (0, 0, 0.00000000000000000000e+000) (0, 0, 0.00000000000000000000e+000) (0, 0, 0.00000000000000000000e+000) (0, 0, 0.00000000000000000000e+000) (0, 0, 0.00000000000000000000e+000) (0, 0, 0.00000000000000000000e+000) (9, 6, 5.00000000000000000000e-001) (9, 6, 5.00000000000000000000e-001) (9, 6, 5.00000000000000000000e-001) (0, 6, 0.00000000000000000000e+000) (4, 6, 5.00000000000000000000e-001) (4, 6, 5.00000000000000000000e-001) (4, 6, 5.00000000000000000000e-001) (4, 6, 5.00000000000000000000e-001) (4, 6, 5.00000000000000000000e-001) (0, 6, 0.00000000000000000000e+000) 
connections (connected_to_neuron, weight)=(0, 9.56532691581512330000e-001) (1, 5.39775844335723680000e-001) (2, 1.22567249672251650000e+000) (3, -2.12828120953388390000e+000) (4, 1.04218542302875770000e+000) (5, -1.15355355423943170000e+000) (6, 2.40724181403476270000e+000) (7, -4.38085337801410010000e+000) (8, -2.05432960341287270000e-001) (0, -1.16654192013776520000e+001) (1, -5.02487330217113470000e+000) (2, -5.37532754053140400000e+000) (3, 6.14714369743218380000e+000) (4, -4.04813640205397650000e+001) (5, 1.10807287608915250000e+002) (6, -3.90723904325250760000e+001) (7, 7.40954152798667390000e+000) (8, 1.41576268709091320000e+000) (0, -1.09464375679254750000e+001) (1, -6.14268616310393090000e-001) (2, 2.44848496970872320000e+000) (3, -1.81013404357867790000e+000) (4, -4.44553875599910740000e+001) (5, 1.07768465983179030000e+002) (6, -2.15069150783765440000e+001) (7, -1.83078533562257920000e+001) (8, 8.50639795221177160000e-001) (9, -1.23424173077443180000e+000) (10, -5.75926124011985840000e-001) (11, 4.78883272509042670000e-001) (12, 6.02670838750211660000e-001) (9, 7.47423453236684690000e-001) (10, 2.83993964578426130000e-001) (11, -1.02164978012705270000e-001) (12, 7.83610262093326290000e-001) (9, -2.93707389047348940000e-001) (10, 3.03163349013952540000e-002) (11, 3.18568270624813990000e-002) (12, 9.32384472831706560000e-001) (9, 2.07026902226088790000e+000) (10, 8.49021706652825170000e-001) (11, -6.94784445306615210000e-001) (12, 1.00362585674946360000e+000) (9, 1.81307963095436260000e-001) (10, 5.43143269675498640000e-001) (11, -5.81603567390771900000e-001) (12, 1.01969865497493690000e+000) 
