FANN_FLO_2.1
num_layers=3
learning_rate=0.700000
connection_rate=1.000000
network_type=0
learning_momentum=0.000000
training_algorithm=2
train_error_function=1
train_stop_function=0
cascade_output_change_fraction=0.010000
quickprop_decay=-0.000100
quickprop_mu=1.750000
rprop_increase_factor=1.200000
rprop_decrease_factor=0.500000
rprop_delta_min=0.000000
rprop_delta_max=50.000000
rprop_delta_zero=0.100000
cascade_output_stagnation_epochs=12
cascade_candidate_change_fraction=0.010000
cascade_candidate_stagnation_epochs=12
cascade_max_out_epochs=150
cascade_max_cand_epochs=150
cascade_num_candidate_groups=2
bit_fail_limit=3.49999999999999980000e-001
cascade_candidate_limit=1.00000000000000000000e+003
cascade_weight_multiplier=4.00000000000000020000e-001
cascade_activation_functions_count=10
cascade_activation_functions=3 5 7 8 10 11 14 15 16 17 
cascade_activation_steepnesses_count=4
cascade_activation_steepnesses=2.50000000000000000000e-001 5.00000000000000000000e-001 7.50000000000000000000e-001 1.00000000000000000000e+000 
layer_sizes=9 21 6 
scale_included=0
neurons (num_inputs, activation_function, activation_steepness)=(0, 0, 0.00000000000000000000e+000) (0, 0, 0.00000000000000000000e+000) (0, 0, 0.00000000000000000000e+000) (0, 0, 0.00000000000000000000e+000) (0, 0, 0.00000000000000000000e+000) (0, 0, 0.00000000000000000000e+000) (0, 0, 0.00000000000000000000e+000) (0, 0, 0.00000000000000000000e+000) (0, 0, 0.00000000000000000000e+000) (9, 6, 5.00000000000000000000e-001) (9, 6, 5.00000000000000000000e-001) (9, 6, 5.00000000000000000000e-001) (9, 6, 5.00000000000000000000e-001) (9, 6, 5.00000000000000000000e-001) (9, 6, 5.00000000000000000000e-001) (9, 6, 5.00000000000000000000e-001) (9, 6, 5.00000000000000000000e-001) (9, 6, 5.00000000000000000000e-001) (9, 6, 5.00000000000000000000e-001) (9, 6, 5.00000000000000000000e-001) (9, 6, 5.00000000000000000000e-001) (9, 6, 5.00000000000000000000e-001) (9, 6, 5.00000000000000000000e-001) (9, 6, 5.00000000000000000000e-001) (9, 6, 5.00000000000000000000e-001) (9, 6, 5.00000000000000000000e-001) (9, 6, 5.00000000000000000000e-001) (9, 6, 5.00000000000000000000e-001) (9, 6, 5.00000000000000000000e-001) (0, 6, 0.00000000000000000000e+000) (21, 6, 5.00000000000000000000e-001) (21, 6, 5.00000000000000000000e-001) (21, 6, 5.00000000000000000000e-001) (21, 6, 5.00000000000000000000e-001) (21, 6, 5.00000000000000000000e-001) (0, 6, 0.00000000000000000000e+000) 
connections (connected_to_neuron, weight)=(0, -1.64397706009472040000e-001) (1, 1.11224695426061610000e+001) (2, 6.96280371334108810000e-001) (3, -1.67991375359198080000e+001) (4, 2.81266361340138360000e+001) (5, 1.72167429894787740000e+001) (6, -5.55823351780610710000e-001) (7, 9.94240883775684910000e+000) (8, 6.79830849459282240000e-002) (0, 3.52370808570042550000e-001) (1, -5.38914848630270260000e+000) (2, 2.70681308015206270000e+000) (3, -1.44629873302924650000e-001) (4, 1.45105750189363670000e+000) (5, 1.18725106291921320000e+000) (6, 1.67799972121214290000e+000) (7, 5.32137068111618210000e-001) (8, 6.33472037427602610000e-001) (0, 2.89111995225394880000e+000) (1, 1.69833252924187260000e+001) (2, -1.35361980576215900000e+001) (3, -8.16609138061292580000e+000) (4, 2.98873121349049060000e+001) (5, 2.21334988404748350000e-003) (6, 2.57121608219917090000e+001) (7, -1.71578229621061600000e+001) (8, -3.80042433727308890000e-001) (0, -3.84757622255453790000e-001) (1, -3.19539610917243830000e+000) (2, 7.14663304297556670000e+000) (3, 9.64223870889125050000e+000) (4, 2.04941218609268430000e+001) (5, -2.69599278110591060000e+000) (6, -6.11333221084987070000e+000) (7, 5.97752166557879770000e+000) (8, -2.44186088887881100000e-001) (0, 5.31100094420343120000e-002) (1, 4.77276270726906390000e+000) (2, 4.74752920071504820000e+000) (3, 6.10615601089907930000e+000) (4, 9.06180420477384100000e+000) (5, -2.27652972488049740000e+000) (6, -8.60769523559457460000e+000) (7, 1.43973785249136930000e+001) (8, -1.63985574037511290000e-001) (0, 8.62616655558112200000e+000) (1, 2.36079569674602220000e+001) (2, -1.45892299279213360000e+001) (3, 3.23595225668049340000e+001) (4, 4.61189893114177420000e+001) (5, -7.30823147736680450000e+001) (6, 3.43875058634837880000e+001) (7, 4.07467810355502810000e+000) (8, -2.48586067773557800000e-001) (0, 4.05449055462378730000e+000) (1, 5.32547269495822210000e+000) (2, 4.64623901363490970000e+000) (3, -4.63811187489528650000e-001) (4, 4.54719118414605370000e+000) (5, -7.44935093275728550000e+000) (6, 9.71400104237253710000e+000) (7, -7.53436452385776260000e+000) (8, 4.45381897591425600000e-001) (0, -3.48574286457964980000e+000) (1, -2.77400334570107400000e+000) (2, 1.81821126427621710000e+001) (3, 1.32079054093361330000e+001) (4, 3.49920022716945740000e+001) (5, 6.15398240195285680000e+000) (6, 4.73121685926534500000e+000) (7, -7.32282621165921910000e+001) (8, 3.48272258064327270000e-001) (0, 1.62812891749062600000e-001) (1, 1.04295269063414590000e-001) (2, -2.95742182724258840000e-001) (3, 7.65365716498197070000e-001) (4, -2.31434869959610270000e+000) (5, 4.73875028071830910000e-001) (6, -1.16881683057199970000e+000) (7, 1.51541618392250040000e+000) (8, -2.27197786082075690000e-001) (0, 1.91279288732426720000e-001) (1, -5.77330112653290420000e+000) (2, 6.21118533318393420000e+000) (3, 1.03878006163442000000e-002) (4, 1.03094995656044810000e+000) (5, 8.52666152713509650000e-001) (6, 7.26754273622154280000e-001) (7, 2.45873526990177500000e+000) (8, 1.31192908957708720000e+000) (0, 9.39606816664784070000e-001) (1, 7.69273151804501510000e+000) (2, 4.28703867891941750000e+000) (3, 4.15422176415266440000e+000) (4, -1.70480781806034860000e+001) (5, 2.68798800793423440000e+000) (6, -5.74588502786064880000e-001) (7, 3.14682173576968010000e+001) (8, -7.50426540058185650000e-001) (0, 1.22981403208403620000e+001) (1, 4.01268953100456330000e+001) (2, -3.24438303699698450000e+001) (3, 2.21188659871322280000e+001) (4, 9.17486133978547680000e+001) (5, -8.88202434637150870000e+001) (6, 4.96843758647646470000e+001) (7, -1.32580447956632420000e+000) (8, -7.75964442655706850000e-001) (0, 1.13813583420848330000e+000) (1, -1.66381024550874700000e+001) (2, 3.42687388579545080000e+000) (3, 3.04956709872170470000e+000) (4, 9.64981505044725020000e+000) (5, -1.20036177162257460000e+001) (6, -1.15960802714783280000e+001) (7, 2.25932179631218450000e+001) (8, 1.52378938159465320000e-001) (0, 1.31532382177069400000e+000) (1, -1.21568045069946220000e+001) (2, 8.97965215183916140000e+000) (3, 4.18671187543899580000e+000) (4, -6.61684873501748600000e+000) (5, 6.24714290562278450000e-001) (6, 5.77307996021594670000e-002) (7, 2.25819497090704890000e+001) (8, -3.76191961850164120000e-001) (0, 8.98435541829573190000e-001) (1, 1.34620166203293850000e+000) (2, 2.49450658736229560000e+000) (3, 9.10997484640407640000e-001) (4, 5.57621783875522970000e-001) (5, -5.68312143898299650000e+000) (6, -2.94989520207604450000e+000) (7, 1.79302273583128760000e+000) (8, -2.89384178844379780000e-001) (0, 1.15159389533590590000e+000) (1, -7.21290080896236030000e-001) (2, 6.40544297876544990000e+000) (3, 1.78355655023130530000e+000) (4, -1.34046135305067930000e+000) (5, -1.49443644222977670000e+000) (6, -3.30441357483656310000e+000) (7, 2.64400647556771990000e+000) (8, -1.32282490440162490000e-001) (0, -1.09553469256730480000e-001) (1, -7.22942345832553900000e-001) (2, 2.26340015181442480000e-001) (3, 3.53138914758102550000e+000) (4, -5.94620005837328880000e-001) (5, 7.42359999216911980000e-001) (6, 2.79596827958005530000e+000) (7, -2.40203720152209770000e+000) (8, -1.47797253532113070000e-001) (0, -7.61645492468335240000e-003) (1, 1.10761992829603850000e+001) (2, -1.31403034370645780000e+001) (3, 1.08357978191995590000e+001) (4, 6.74198749113062210000e-001) (5, 4.72821749803632340000e-001) (6, 4.01007751129251490000e+000) (7, 1.85669367466249400000e+001) (8, -6.28860378775409460000e-001) (0, 7.79313219203189860000e-001) (1, 6.26566899979407840000e+000) (2, 4.97482133782348010000e-001) (3, 6.51021639212740590000e-001) (4, -5.37213075878721580000e-001) (5, -1.73723776257434030000e+000) (6, 7.21304402114008810000e-001) (7, -7.42574093454850990000e+000) (8, -1.96416326341114060000e-001) (0, -7.57063897655530390000e-001) (1, -7.02213371252121020000e-001) (2, 5.01681248089548590000e+000) (3, -4.27656239287148350000e-001) (4, -1.45520238406132020000e+000) (5, 3.23009683787651230000e+000) (6, 1.29250805497335630000e+000) (7, 4.69495549700005470000e+000) (8, -1.51562393045150820000e-001) (9, -7.98075123962640240000e-001) (10, 4.15629841663838100000e-001) (11, 6.84722723976960100000e-001) (12, 1.68865099197021020000e+000) (13, -3.55959202550858940000e-001) (14, -6.63338293906969520000e-001) (15, 9.98213788876777810000e-002) (16, -4.22231281417980390000e-001) (17, -6.35284591668595080000e-001) (18, 9.15214526866815700000e-001) (19, 1.62699781521208650000e+000) (20, 2.23486156282067800000e-001) (21, 7.31453242015024650000e-002) (22, -1.44261938308096330000e+000) (23, 2.02410045845508750000e+000) (24, -2.42245005953357890000e+000) (25, 3.05180781085541590000e+000) (26, -1.35988320075034960000e+000) (27, -8.10093618897384850000e-001) (28, -5.67012730348595560000e-001) (29, 4.36618759705217190000e-001) (9, 3.98724795469818090000e-001) (10, 2.24690801639778140000e-001) (11, -7.91886377855851250000e-001) (12, -1.81702237779193210000e+000) (13, 1.00941763677408810000e+000) (14, -4.52212164111605420000e-001) (15, 3.48593637695446100000e-001) (16, 6.62386410633155400000e-001) (17, 1.78001408100887360000e+000) (18, 2.81328432799030190000e-001) (19, -1.90451561933760600000e+000) (20, 4.02262267173976120000e-001) (21, -3.61089963571429810000e-001) (22, 2.29093224782747120000e+000) (23, 1.16332144633414680000e+000) (24, -1.36340791788461810000e+000) (25, -4.40294410321868130000e+000) (26, 1.83799518898175160000e+000) (27, 1.59863965936595110000e+000) (28, 1.55190681210059610000e+000) (29, 7.19665938132508680000e-001) (9, 1.15482028296462100000e+000) (10, 4.95234666269797230000e-001) (11, -9.48237682748606980000e-001) (12, 2.66099672533097580000e-001) (13, -1.70549022227747880000e+000) (14, 2.07506847644413990000e-001) (15, 1.18041295304461060000e+000) (16, 7.87490667880780120000e-002) (17, 7.36059955460110690000e+000) (18, 1.21394035079836750000e+000) (19, -1.10230180060211480000e+000) (20, -2.60808881143560990000e-001) (21, 2.59733897162028720000e-001) (22, -2.55404405091707860000e-001) (23, 2.98846493484934640000e+000) (24, -2.34511952957497580000e+000) (25, 5.85359754728028920000e-001) (26, 1.26552430862412320000e+000) (27, 1.04027502126375480000e+000) (28, 2.51606384871781200000e+000) (29, 8.05307187610593170000e-001) (9, 2.94589436465626460000e-001) (10, 2.07568899332547610000e+000) (11, -1.32744384407082980000e+000) (12, 1.96711599925630420000e-001) (13, -1.14404967725346810000e+000) (14, -8.24272912754197010000e-001) (15, -1.70988982694179360000e-001) (16, 1.33018377338964100000e-001) (17, -3.10606273847798240000e+000) (18, 2.43614156454433070000e-001) (19, -4.74932411898343560000e-001) (20, 8.99292185132854690000e-001) (21, -1.36644810306897240000e-001) (22, 9.25372671265003550000e-001) (23, 2.56726334521399470000e-002) (24, 7.92472011994569260000e-002) (25, -2.99307727048464620000e+000) (26, 1.55906116194014380000e+000) (27, 3.01510603852931340000e+000) (28, -1.11125711834387990000e-002) (29, 3.74532184979379460000e-001) (9, 1.81407036056306590000e-001) (10, 1.34150219892446290000e+000) (11, -6.51274448820855920000e-002) (12, -3.08867061803403120000e-001) (13, -2.21858166321844320000e+000) (14, 1.59624617856874010000e-001) (15, 7.93994738234034440000e-001) (16, 7.70482901507495650000e-001) (17, 1.09478981985537600000e+001) (18, 1.43470821267789070000e+000) (19, 7.18853004528016590000e-001) (20, -8.12818451626661220000e-002) (21, 4.33303060417707720000e+000) (22, -2.16493713525225880000e+000) (23, -5.20799281995973300000e+000) (24, -1.46466580885693780000e+000) (25, -3.72556678631972280000e+000) (26, 1.23602067091871400000e+000) (27, 7.47886529122507770000e+000) (28, 5.67708471952625350000e+000) (29, 4.42847284345751210000e-001) 
