FANN_FLO_2.1
num_layers=3
learning_rate=0.700000
connection_rate=1.000000
network_type=0
learning_momentum=0.000000
training_algorithm=2
train_error_function=1
train_stop_function=0
cascade_output_change_fraction=0.010000
quickprop_decay=-0.000100
quickprop_mu=1.750000
rprop_increase_factor=1.200000
rprop_decrease_factor=0.500000
rprop_delta_min=0.000000
rprop_delta_max=50.000000
rprop_delta_zero=0.100000
cascade_output_stagnation_epochs=12
cascade_candidate_change_fraction=0.010000
cascade_candidate_stagnation_epochs=12
cascade_max_out_epochs=150
cascade_max_cand_epochs=150
cascade_num_candidate_groups=2
bit_fail_limit=3.49999999999999980000e-001
cascade_candidate_limit=1.00000000000000000000e+003
cascade_weight_multiplier=4.00000000000000020000e-001
cascade_activation_functions_count=10
cascade_activation_functions=3 5 7 8 10 11 14 15 16 17 
cascade_activation_steepnesses_count=4
cascade_activation_steepnesses=2.50000000000000000000e-001 5.00000000000000000000e-001 7.50000000000000000000e-001 1.00000000000000000000e+000 
layer_sizes=9 11 6 
scale_included=0
neurons (num_inputs, activation_function, activation_steepness)=(0, 0, 0.00000000000000000000e+000) (0, 0, 0.00000000000000000000e+000) (0, 0, 0.00000000000000000000e+000) (0, 0, 0.00000000000000000000e+000) (0, 0, 0.00000000000000000000e+000) (0, 0, 0.00000000000000000000e+000) (0, 0, 0.00000000000000000000e+000) (0, 0, 0.00000000000000000000e+000) (0, 0, 0.00000000000000000000e+000) (9, 6, 5.00000000000000000000e-001) (9, 6, 5.00000000000000000000e-001) (9, 6, 5.00000000000000000000e-001) (9, 6, 5.00000000000000000000e-001) (9, 6, 5.00000000000000000000e-001) (9, 6, 5.00000000000000000000e-001) (9, 6, 5.00000000000000000000e-001) (9, 6, 5.00000000000000000000e-001) (9, 6, 5.00000000000000000000e-001) (9, 6, 5.00000000000000000000e-001) (0, 6, 0.00000000000000000000e+000) (11, 6, 5.00000000000000000000e-001) (11, 6, 5.00000000000000000000e-001) (11, 6, 5.00000000000000000000e-001) (11, 6, 5.00000000000000000000e-001) (11, 6, 5.00000000000000000000e-001) (0, 6, 0.00000000000000000000e+000) 
connections (connected_to_neuron, weight)=(0, -1.07423458541308660000e+000) (1, -2.88953776440000420000e-001) (2, 1.21838667537249350000e+000) (3, -8.04781069602754680000e+000) (4, 1.05312690556018410000e+001) (5, 1.10797194811876910000e+001) (6, 3.95158459765398010000e+000) (7, -9.80507643593556910000e-001) (8, 8.16287641103846770000e-001) (0, 6.80037331026270040000e+000) (1, -2.18745116641807760000e+001) (2, 6.86431246354900540000e+000) (3, 2.18409322700302970000e+001) (4, -6.12360291975988690000e+000) (5, -2.11171379217210490000e+001) (6, -7.95424970602959910000e+000) (7, 4.79644493641562590000e+001) (8, 2.59452180152597690000e-001) (0, -2.95083385533336080000e+000) (1, -1.09556332843396850000e+001) (2, 1.22999117979963280000e+000) (3, 4.39819504800200620000e+000) (4, -2.06620505836051920000e+000) (5, -2.16588214645740250000e+000) (6, -9.24271553696423530000e+000) (7, 4.06039228483321060000e+000) (8, 2.79456314025115560000e-001) (0, 2.74193515127888390000e+000) (1, 8.30448193858044800000e+000) (2, -4.50714927303692910000e+000) (3, 2.08493245090115130000e+000) (4, 7.81534289257353800000e+000) (5, -1.17009714367407710000e+001) (6, 7.94809369791193450000e+000) (7, 4.59348910119867070000e+000) (8, 1.87511464362174170000e-001) (0, 4.81458360550721500000e-001) (1, 1.59327605768444230000e+001) (2, -6.63375778628563490000e+000) (3, 2.70531632998793370000e+000) (4, 1.66041377085151720000e+000) (5, -1.06988147615937680000e+001) (6, 1.20865564216793210000e+001) (7, -1.01451409211914320000e+001) (8, -3.15116547938834590000e-001) (0, 1.14261834607356900000e+001) (1, -1.49493779999673460000e+000) (2, 1.64549176964108700000e+001) (3, 7.91800825163288110000e+000) (4, -4.93911733729607650000e+001) (5, 7.27793301010801570000e+000) (6, -8.58087706295906650000e+000) (7, -2.50376056597787590000e+001) (8, -6.90541262262727160000e-001) (0, 6.16748466567446570000e+000) (1, -4.13239257560531570000e+000) (2, 7.43554954253958300000e+000) (3, -4.58258446691195150000e+000) (4, 8.24013262655020280000e-001) (5, -2.81523840525769750000e+000) (6, -1.66004137563189150000e+001) (7, 4.28845793138207210000e+000) (8, -4.86773114847938450000e-001) (0, 2.29084780395603760000e+000) (1, -7.50624658476182920000e+000) (2, 5.88314446746358240000e-001) (3, 6.52153660581099180000e+000) (4, 3.48615700958870090000e+000) (5, -5.53257516950161500000e+000) (6, 1.23905759684774170000e+000) (7, 2.56337591218545990000e+001) (8, 1.45669478809073190000e-001) (0, -5.37151890511828810000e-002) (1, 1.59772419554421610000e+000) (2, 4.84722887838686500000e-001) (3, -3.86952244840210380000e+000) (4, 3.76224308072856980000e+000) (5, 1.70064078035720150000e+000) (6, 6.94929351448851040000e-001) (7, -4.05867817743134210000e+000) (8, 1.16699218839547630000e-001) (0, 7.00081316579129260000e+000) (1, 2.09159044259460460000e+000) (2, 4.81683416608915320000e+000) (3, -4.03771648259396350000e+000) (4, 1.04385167719878250000e+001) (5, -1.80194622787431950000e+001) (6, -1.01929783105465450000e+001) (7, -2.89383064720252660000e+000) (8, -7.14035834507416150000e-001) (9, -6.94958088671369990000e-001) (10, 1.21927219960605030000e-001) (11, -1.68836095838955250000e+000) (12, -2.18403249049727230000e+000) (13, -3.91695736322630720000e-001) (14, -2.72942716438798140000e-001) (15, -1.55459552541265070000e+000) (16, 2.17788557523388490000e-001) (17, -1.01773767907636930000e+000) (18, 1.50088850892566780000e+000) (19, 1.28349324746227820000e+000) (9, 4.05901528501778020000e-001) (10, -2.35304494699702520000e-001) (11, 1.04892069121457210000e+000) (12, 7.54949800597595980000e-001) (13, 7.77093123618670780000e-001) (14, -1.62152821922828950000e-002) (15, 1.67742926352038070000e+000) (16, 2.06937561055113990000e-001) (17, 7.11776151520770450000e-001) (18, -1.36979385508508300000e+000) (19, 4.96094166723944960000e-001) (9, 1.88607066733663100000e+000) (10, -4.40504552996185070000e-001) (11, 6.56312574614605570000e-001) (12, -1.40351983845959840000e+000) (13, 1.34191220918588620000e+000) (14, 1.12463075729339390000e-001) (15, 3.12164724826871240000e-001) (16, 7.92430756340199770000e-001) (17, -3.09861315318339430000e+000) (18, 3.95977971224786900000e-001) (19, 9.14924237669310410000e-001) (9, -7.90574360420352450000e-002) (10, -7.45242258279958490000e-001) (11, 2.35662343678248390000e+000) (12, 1.51910698061612480000e+000) (13, 6.53969830610518940000e-001) (14, 5.02248057623018270000e-001) (15, 1.06353155983492060000e+000) (16, 1.70493920179245100000e+000) (17, 2.69715727452911480000e+000) (18, -1.09966306027388130000e+000) (19, 5.99595172508458950000e-001) (9, 2.44566650195171680000e+000) (10, -1.24324699190409270000e+000) (11, 3.04330742827451450000e+000) (12, 2.51734438948713990000e+000) (13, 1.47404539765916110000e-001) (14, 6.10512743354796770000e-001) (15, 4.21317799977242280000e-001) (16, 1.06584767629151810000e+000) (17, -2.90354716664400230000e+000) (18, 1.74213650668458840000e-001) (19, 1.55318561921794720000e-001) 
