FANN_FLO_2.1
num_layers=3
learning_rate=0.700000
connection_rate=1.000000
network_type=0
learning_momentum=0.000000
training_algorithm=2
train_error_function=1
train_stop_function=0
cascade_output_change_fraction=0.010000
quickprop_decay=-0.000100
quickprop_mu=1.750000
rprop_increase_factor=1.200000
rprop_decrease_factor=0.500000
rprop_delta_min=0.000000
rprop_delta_max=50.000000
rprop_delta_zero=0.100000
cascade_output_stagnation_epochs=12
cascade_candidate_change_fraction=0.010000
cascade_candidate_stagnation_epochs=12
cascade_max_out_epochs=150
cascade_max_cand_epochs=150
cascade_num_candidate_groups=2
bit_fail_limit=3.49999999999999980000e-001
cascade_candidate_limit=1.00000000000000000000e+003
cascade_weight_multiplier=4.00000000000000020000e-001
cascade_activation_functions_count=10
cascade_activation_functions=3 5 7 8 10 11 14 15 16 17 
cascade_activation_steepnesses_count=4
cascade_activation_steepnesses=2.50000000000000000000e-001 5.00000000000000000000e-001 7.50000000000000000000e-001 1.00000000000000000000e+000 
layer_sizes=9 4 6 
scale_included=0
neurons (num_inputs, activation_function, activation_steepness)=(0, 0, 0.00000000000000000000e+000) (0, 0, 0.00000000000000000000e+000) (0, 0, 0.00000000000000000000e+000) (0, 0, 0.00000000000000000000e+000) (0, 0, 0.00000000000000000000e+000) (0, 0, 0.00000000000000000000e+000) (0, 0, 0.00000000000000000000e+000) (0, 0, 0.00000000000000000000e+000) (0, 0, 0.00000000000000000000e+000) (9, 6, 5.00000000000000000000e-001) (9, 6, 5.00000000000000000000e-001) (9, 6, 5.00000000000000000000e-001) (0, 6, 0.00000000000000000000e+000) (4, 6, 5.00000000000000000000e-001) (4, 6, 5.00000000000000000000e-001) (4, 6, 5.00000000000000000000e-001) (4, 6, 5.00000000000000000000e-001) (4, 6, 5.00000000000000000000e-001) (0, 6, 0.00000000000000000000e+000) 
connections (connected_to_neuron, weight)=(0, 1.32298664854875050000e+000) (1, -4.10323421339202470000e-001) (2, 1.97396751657138100000e+000) (3, -1.59824237075199240000e+000) (4, 2.05494861690380450000e+000) (5, -4.47588991186498840000e+000) (6, 4.18306889885653720000e+000) (7, -6.44161219268464350000e+000) (8, -7.00932034067576980000e-001) (0, -6.87455822191223830000e+000) (1, 3.40536005457487740000e+000) (2, -4.74671817578740730000e+000) (3, -4.14044862087693700000e-001) (4, -2.51101172694749120000e+001) (5, 5.81294716568039720000e+001) (6, -1.78124771280182980000e+001) (7, 9.32989710791298780000e+000) (8, 4.45154217231036710000e-001) (0, -1.07785217034615640000e+001) (1, 9.01409282955946270000e+000) (2, 1.06328769280443730000e+001) (3, -1.26314201373806410000e+001) (4, -6.52875217746201030000e+001) (5, 1.13273273888595280000e+002) (6, 3.20848904187908480000e+000) (7, -5.27660136769514740000e+001) (8, -2.34366258672451200000e-001) (9, -1.29578069252882580000e+000) (10, -5.27067122324136550000e-001) (11, 2.52505918412143370000e-001) (12, 3.05097711219923460000e-001) (9, 9.90969481685040070000e-001) (10, 5.16358978931863110000e-001) (11, -1.48096294891933100000e-001) (12, 1.01943711456472300000e+000) (9, -7.10621071479375250000e-001) (10, -1.83945390072498910000e-001) (11, 1.46920222405295590000e-001) (12, 8.14269337968286270000e-001) (9, 2.54016597132671280000e+000) (10, 9.50803585984883570000e-001) (11, -4.49647480893372250000e-001) (12, 1.57690159389487490000e+000) (9, -5.85143560601858240000e-001) (10, -1.21979539495492690000e-001) (11, -5.35881237797572530000e-002) (12, 9.13215878050125720000e-001) 
