FANN_FLO_2.1
num_layers=3
learning_rate=0.700000
connection_rate=1.000000
network_type=0
learning_momentum=0.000000
training_algorithm=2
train_error_function=1
train_stop_function=0
cascade_output_change_fraction=0.010000
quickprop_decay=-0.000100
quickprop_mu=1.750000
rprop_increase_factor=1.200000
rprop_decrease_factor=0.500000
rprop_delta_min=0.000000
rprop_delta_max=50.000000
rprop_delta_zero=0.100000
cascade_output_stagnation_epochs=12
cascade_candidate_change_fraction=0.010000
cascade_candidate_stagnation_epochs=12
cascade_max_out_epochs=150
cascade_max_cand_epochs=150
cascade_num_candidate_groups=2
bit_fail_limit=3.49999999999999980000e-001
cascade_candidate_limit=1.00000000000000000000e+003
cascade_weight_multiplier=4.00000000000000020000e-001
cascade_activation_functions_count=10
cascade_activation_functions=3 5 7 8 10 11 14 15 16 17 
cascade_activation_steepnesses_count=4
cascade_activation_steepnesses=2.50000000000000000000e-001 5.00000000000000000000e-001 7.50000000000000000000e-001 1.00000000000000000000e+000 
layer_sizes=9 21 6 
scale_included=0
neurons (num_inputs, activation_function, activation_steepness)=(0, 0, 0.00000000000000000000e+000) (0, 0, 0.00000000000000000000e+000) (0, 0, 0.00000000000000000000e+000) (0, 0, 0.00000000000000000000e+000) (0, 0, 0.00000000000000000000e+000) (0, 0, 0.00000000000000000000e+000) (0, 0, 0.00000000000000000000e+000) (0, 0, 0.00000000000000000000e+000) (0, 0, 0.00000000000000000000e+000) (9, 6, 5.00000000000000000000e-001) (9, 6, 5.00000000000000000000e-001) (9, 6, 5.00000000000000000000e-001) (9, 6, 5.00000000000000000000e-001) (9, 6, 5.00000000000000000000e-001) (9, 6, 5.00000000000000000000e-001) (9, 6, 5.00000000000000000000e-001) (9, 6, 5.00000000000000000000e-001) (9, 6, 5.00000000000000000000e-001) (9, 6, 5.00000000000000000000e-001) (9, 6, 5.00000000000000000000e-001) (9, 6, 5.00000000000000000000e-001) (9, 6, 5.00000000000000000000e-001) (9, 6, 5.00000000000000000000e-001) (9, 6, 5.00000000000000000000e-001) (9, 6, 5.00000000000000000000e-001) (9, 6, 5.00000000000000000000e-001) (9, 6, 5.00000000000000000000e-001) (9, 6, 5.00000000000000000000e-001) (9, 6, 5.00000000000000000000e-001) (0, 6, 0.00000000000000000000e+000) (21, 6, 5.00000000000000000000e-001) (21, 6, 5.00000000000000000000e-001) (21, 6, 5.00000000000000000000e-001) (21, 6, 5.00000000000000000000e-001) (21, 6, 5.00000000000000000000e-001) (0, 6, 0.00000000000000000000e+000) 
connections (connected_to_neuron, weight)=(0, 1.91471294639473140000e+000) (1, 5.30664361056858610000e+000) (2, -3.40016197725077300000e+000) (3, 1.45211489951432940000e+000) (4, -9.07195463052187280000e+000) (5, -6.43415200858109880000e-001) (6, 1.04615996324597570000e+000) (7, -3.35216972158725610000e+000) (8, 3.00192620359652330000e-001) (0, 3.55667280700997560000e+000) (1, 1.04894006927928340000e+001) (2, -8.33219566503996530000e-001) (3, -7.06258698069966680000e+000) (4, 7.47814191851532240000e+000) (5, -3.26813334303000320000e+000) (6, 1.30956319784382310000e+001) (7, -1.32867721407370890000e+001) (8, -1.18973263221957320000e-001) (0, 3.63814454520959780000e-001) (1, 8.29049412258614840000e-001) (2, -3.89713695111330080000e-001) (3, 1.68588443397709730000e+000) (4, -1.11942076004722040000e+000) (5, -1.47311280318442250000e+000) (6, -3.40814304117064860000e+000) (7, 9.86359019057298060000e-001) (8, 1.43378008997937510000e-001) (0, 1.10112422714181740000e-001) (1, 1.98274146813488760000e-001) (2, 2.04754589729334160000e-001) (3, -4.01208348105525530000e-001) (4, -4.88166542602169180000e-001) (5, 1.00927382454491530000e+000) (6, -7.21888768516539130000e-002) (7, 6.60186732852432230000e-001) (8, 5.00017787421480620000e-002) (0, 1.16998844295360870000e+000) (1, -8.43086143537452040000e-001) (2, 1.99245132720204210000e+000) (3, -2.41710817422258510000e+000) (4, 5.08559654330184510000e+000) (5, -1.61758686936025220000e+000) (6, -2.53847139792368670000e-001) (7, -5.99100041258173380000e+000) (8, 2.30492593569920970000e-001) (0, -2.22149089382397520000e-001) (1, -2.34600710653491570000e+000) (2, -7.28393165684554090000e-002) (3, 4.85667703828720650000e-001) (4, -5.76374802285492430000e-001) (5, -2.48912419713942020000e+000) (6, -2.64127813132820940000e-002) (7, 3.48157946525223920000e-001) (8, 1.00809243693407670000e-001) (0, 5.48250630459320990000e-001) (1, 7.85356723974833910000e-001) (2, 5.22402197575164040000e-001) (3, -3.81077796586452360000e-001) (4, -2.94082577352416890000e-001) (5, -6.97305698525509830000e-001) (6, -1.63909930978062950000e-001) (7, 4.06248528564639510000e-002) (8, -3.20104247017604790000e-002) (0, 5.94129222106789200000e-001) (1, -1.00966426957671640000e+000) (2, -2.39217018674435920000e+000) (3, -3.49924262944855570000e+000) (4, -6.27678469788511050000e-001) (5, 2.58773957264761380000e+000) (6, -5.61697600252021620000e+000) (7, -1.92545743330932440000e+000) (8, 2.89322125787826290000e-001) (0, 8.63554807357193140000e-001) (1, -1.15264203489343680000e+000) (2, 1.05000644434796740000e+001) (3, 1.81914814371644220000e-001) (4, -3.14424117597058220000e+000) (5, -6.23346076474661800000e+000) (6, 3.87925560955442390000e+000) (7, -1.80118912378894840000e+000) (8, 1.06642411332625380000e-001) (0, 9.53975116268949460000e+000) (1, 5.71261923005311890000e+000) (2, -6.70155327471186530000e+000) (3, -5.04584304504038080000e+000) (4, 2.68653183377457760000e+001) (5, -2.94245841745361360000e+001) (6, 1.72620280065683080000e+001) (7, -9.33059551999876470000e+000) (8, 6.83518597110000850000e-001) (0, 1.07577329261258780000e+000) (1, -3.45529525084841320000e+000) (2, 8.93824608194212010000e+000) (3, -8.21759063715897040000e+000) (4, -4.39136166714698820000e+000) (5, 7.37072567439996900000e+000) (6, 6.38932368026974510000e-001) (7, 3.63464404530215160000e+000) (8, 5.84553893012191410000e-001) (0, -5.33697763202725770000e-001) (1, 7.25402740746828420000e-001) (2, -1.76236643582201590000e-002) (3, 1.28853032996152920000e-001) (4, 2.61937057076651270000e+000) (5, 4.16660812195744070000e+000) (6, 5.82484528750424340000e-001) (7, 5.77448945422214810000e-001) (8, -1.37251645506537230000e-001) (0, 9.11619827327090210000e-002) (1, 1.24321493105638710000e-001) (2, 1.94061037455562050000e+001) (3, -3.02638325999734280000e+000) (4, -1.16870890497139880000e+001) (5, 9.67534718468022190000e-001) (6, -1.12571969223441610000e+001) (7, 2.16947092288855570000e+001) (8, 5.27066312198340100000e-001) (0, 3.13943596860318470000e-001) (1, 7.04636694447886570000e-001) (2, 3.44786881939457500000e-001) (3, -1.57611942413435610000e+000) (4, 6.74436260917472770000e-001) (5, 1.16909018089848790000e+000) (6, 3.70616344684828240000e-001) (7, -1.22323748837442810000e+000) (8, 5.48261218433158390000e-002) (0, 4.65460840490140300000e-002) (1, 2.49624655720045880000e-001) (2, 1.03001392052288330000e+000) (3, -1.14912310553770480000e-001) (4, -2.42819689491189280000e+000) (5, 6.44777687348862760000e-001) (6, 1.51669533597463140000e+000) (7, -9.91291566986120310000e-001) (8, 2.24478355068659040000e-001) (0, -5.72309451684189780000e-002) (1, 7.81906471081773470000e-001) (2, 2.79429801523534140000e-001) (3, 2.60385369295520090000e-002) (4, -3.48372532743881860000e-001) (5, 3.35617428031233230000e-001) (6, 3.95706039721765430000e-001) (7, 1.33049764388079190000e-001) (8, -1.88748305390454530000e-001) (0, 3.61859447871028530000e-001) (1, 1.23942017710628360000e+001) (2, -4.67539572294395360000e+000) (3, 6.60006363209512390000e-002) (4, 1.25368232389145360000e+000) (5, -5.81899427762447100000e+000) (6, 3.80556576511783720000e+000) (7, -4.02306584836837280000e+000) (8, 3.60815901066247780000e-001) (0, -6.41811516615814080000e+000) (1, 8.91273474926856580000e+000) (2, -2.08787385722763620000e+001) (3, -1.31245499305206170000e+001) (4, 2.35230680504594820000e+001) (5, 1.22598131203136500000e+001) (6, 2.99420133598473190000e+000) (7, 2.56506574896377020000e+001) (8, 1.45284513832706930000e+000) (0, 5.48711066643168980000e+001) (1, -2.52905074206910240000e+000) (2, 2.98150259284047540000e+002) (3, 7.95853873947780510000e+000) (4, -2.52336455533887260000e+002) (5, 1.31663923311881060000e+002) (6, 1.42359156210871650000e+002) (7, -6.74887696369699060000e+001) (8, 5.39377957593936320000e+000) (0, -2.30160161935940620000e+000) (1, 8.18864231731193650000e+000) (2, -1.51922689232889890000e+001) (3, 9.57372578092070370000e+000) (4, -2.90055818998923390000e+000) (5, -1.23492490456492000000e+001) (6, 1.94171797915779150000e+001) (7, 3.21102503835976520000e+001) (8, -8.06471910989638440000e-002) (9, 1.10464665156201210000e+000) (10, 9.26275439063717450000e-001) (11, -1.57984445417333520000e+000) (12, -3.21889166821794430000e+000) (13, 1.97824948201055610000e+000) (14, 4.20115486623169950000e+000) (15, 3.53366850511744040000e+000) (16, -6.26198602235906510000e+000) (17, -4.41978368469536950000e+000) (18, -4.57884314016816290000e-001) (19, -5.64497236309290380000e-001) (20, -3.31778033272515670000e+000) (21, 1.42716436724591240000e+000) (22, 1.70986781576115530000e+000) (23, 1.91357595788441710000e+000) (24, -2.25736877658253570000e+000) (25, -8.10041422924718040000e-001) (26, 4.05435089506336050000e-001) (27, -1.79848620874714440000e-002) (28, -7.51973205381536110000e-001) (29, 5.39390748339325880000e-001) (9, -1.62738285215671820000e-001) (10, -8.69866616510240220000e-001) (11, 1.42468642030289480000e+000) (12, 1.30640975481061350000e+000) (13, -1.44678199540761150000e+000) (14, 6.24099096283663360000e+000) (15, 3.82808132300691420000e+000) (16, 3.62934817673628980000e+000) (17, 2.16142194443489680000e+000) (18, 1.09067136284881060000e-001) (19, 3.95181116355847130000e-001) (20, 7.28552901166879340000e+000) (21, -7.76199059532168830000e-001) (22, 3.44333674370110470000e+000) (23, -7.83635382716951880000e-001) (24, 3.44763970181389420000e+000) (25, 1.27564616661366690000e+000) (26, -1.67107426844749220000e-001) (27, 1.75001633278696250000e-001) (28, 2.80095212207171540000e-001) (29, 5.63104308135214840000e-001) (9, 1.12267138646387710000e+000) (10, -4.67975116763837180000e-001) (11, 5.35936776017397150000e+000) (12, 3.73822800042678920000e+000) (13, 1.34427847982520370000e+000) (14, 2.37953416207151670000e+000) (15, -3.46657860355841850000e+000) (16, -3.78466361812276820000e+000) (17, -4.87748301002425170000e-001) (18, -2.25493432201483960000e-001) (19, 3.01565803141225120000e+000) (20, -9.83902955857973270000e-001) (21, -1.29409081484311210000e+000) (22, -3.21539731383138030000e+000) (23, -2.11400768101544400000e+000) (24, 5.61180131098806890000e+000) (25, 8.55849793779147940000e-001) (26, 6.42884942322351720000e-001) (27, -2.98390128153547930000e-001) (28, -5.96520996712137100000e-001) (29, 6.94145902577473330000e-001) (9, 7.88499386385744570000e-001) (10, -2.66649861422554980000e+000) (11, -2.13256057221503690000e+000) (12, -5.99111669761373020000e+000) (13, 3.29498852781992780000e+000) (14, 4.78785359870845810000e+000) (15, 2.58284894638478150000e+000) (16, 1.32939698312006650000e+000) (17, -1.58069291666268600000e+000) (18, 8.53186574329419130000e-001) (19, 1.56683429503268790000e+000) (20, 6.42960831180242210000e+000) (21, 2.42026324781391800000e-001) (22, -3.70365163302919910000e-001) (23, 2.21526599554511570000e+000) (24, 7.07905837102138150000e+000) (25, 2.15992226298539560000e+000) (26, -9.78999834556606660000e-001) (27, 1.69848832991252910000e-003) (28, 5.68361854787676760000e-001) (29, 6.85588887349167560000e-001) (9, 2.05716882807027980000e+000) (10, -1.59256269325944850000e+000) (11, 5.94178519054273880000e-001) (12, 1.12895318015366430000e+001) (13, 3.60851223109836150000e+000) (14, 2.41074418069765530000e+000) (15, -1.80451397200560030000e+000) (16, -1.67624024857423490000e+000) (17, -1.27986990500497030000e-001) (18, 7.86139754656347110000e-001) (19, 6.73236081948564990000e-001) (20, 1.41957316601374940000e+000) (21, -1.50277758773930960000e-001) (22, -5.56733261759762680000e+000) (23, 7.33804338842207970000e-001) (24, 3.69376244289371460000e+000) (25, 3.12756552882108350000e-001) (26, 7.43125789227934040000e-001) (27, -1.15733469299340300000e+000) (28, -4.54332877703641780000e-001) (29, 8.71443617053356710000e-001) 
