FANN_FLO_2.1
num_layers=3
learning_rate=0.700000
connection_rate=1.000000
network_type=0
learning_momentum=0.000000
training_algorithm=2
train_error_function=1
train_stop_function=0
cascade_output_change_fraction=0.010000
quickprop_decay=-0.000100
quickprop_mu=1.750000
rprop_increase_factor=1.200000
rprop_decrease_factor=0.500000
rprop_delta_min=0.000000
rprop_delta_max=50.000000
rprop_delta_zero=0.100000
cascade_output_stagnation_epochs=12
cascade_candidate_change_fraction=0.010000
cascade_candidate_stagnation_epochs=12
cascade_max_out_epochs=150
cascade_max_cand_epochs=150
cascade_num_candidate_groups=2
bit_fail_limit=3.49999999999999980000e-001
cascade_candidate_limit=1.00000000000000000000e+003
cascade_weight_multiplier=4.00000000000000020000e-001
cascade_activation_functions_count=10
cascade_activation_functions=3 5 7 8 10 11 14 15 16 17 
cascade_activation_steepnesses_count=4
cascade_activation_steepnesses=2.50000000000000000000e-001 5.00000000000000000000e-001 7.50000000000000000000e-001 1.00000000000000000000e+000 
layer_sizes=9 21 6 
scale_included=0
neurons (num_inputs, activation_function, activation_steepness)=(0, 0, 0.00000000000000000000e+000) (0, 0, 0.00000000000000000000e+000) (0, 0, 0.00000000000000000000e+000) (0, 0, 0.00000000000000000000e+000) (0, 0, 0.00000000000000000000e+000) (0, 0, 0.00000000000000000000e+000) (0, 0, 0.00000000000000000000e+000) (0, 0, 0.00000000000000000000e+000) (0, 0, 0.00000000000000000000e+000) (9, 6, 5.00000000000000000000e-001) (9, 6, 5.00000000000000000000e-001) (9, 6, 5.00000000000000000000e-001) (9, 6, 5.00000000000000000000e-001) (9, 6, 5.00000000000000000000e-001) (9, 6, 5.00000000000000000000e-001) (9, 6, 5.00000000000000000000e-001) (9, 6, 5.00000000000000000000e-001) (9, 6, 5.00000000000000000000e-001) (9, 6, 5.00000000000000000000e-001) (9, 6, 5.00000000000000000000e-001) (9, 6, 5.00000000000000000000e-001) (9, 6, 5.00000000000000000000e-001) (9, 6, 5.00000000000000000000e-001) (9, 6, 5.00000000000000000000e-001) (9, 6, 5.00000000000000000000e-001) (9, 6, 5.00000000000000000000e-001) (9, 6, 5.00000000000000000000e-001) (9, 6, 5.00000000000000000000e-001) (9, 6, 5.00000000000000000000e-001) (0, 6, 0.00000000000000000000e+000) (21, 6, 5.00000000000000000000e-001) (21, 6, 5.00000000000000000000e-001) (21, 6, 5.00000000000000000000e-001) (21, 6, 5.00000000000000000000e-001) (21, 6, 5.00000000000000000000e-001) (0, 6, 0.00000000000000000000e+000) 
connections (connected_to_neuron, weight)=(0, 1.03770044882983700000e+001) (1, 5.84256363235235060000e+001) (2, -3.59369166256859810000e+001) (3, -1.08282718506882660000e+001) (4, 2.74953384099692230000e+000) (5, -4.75946700072675600000e+001) (6, 1.44949658183018870000e+001) (7, 4.12320501475601870000e+001) (8, 1.15476287536934170000e+000) (0, 2.71980425683224390000e-001) (1, 6.84929957767992010000e+000) (2, -3.37509585443059250000e+000) (3, 2.22412785042159690000e+000) (4, 3.23552491844650540000e+000) (5, -2.09482618661698310000e+000) (6, 8.50568223508002540000e-001) (7, -2.98251970057951290000e-001) (8, -8.85751325435184120000e-002) (0, -4.00172195142777020000e-001) (1, 7.65887549755364660000e-001) (2, 2.13055077739817020000e+000) (3, -5.20693043605242160000e-001) (4, -7.30313776069602220000e+000) (5, 1.87032375824905810000e-001) (6, -5.79151785981045820000e+000) (7, -2.44601872000012310000e+000) (8, -3.20254304535422880000e-002) (0, -3.48606642232725770000e+000) (1, -1.59827566288421410000e+001) (2, -4.47430547443835010000e+000) (3, -1.80079536500823670000e+000) (4, 1.45118255770167540000e+001) (5, 1.29194831602638780000e+001) (6, 3.34402989012512420000e-001) (7, 1.93171931172168530000e+001) (8, 8.86710209330037190000e-001) (0, 1.06407658874589940000e+000) (1, -1.27366806687641470000e+000) (2, 3.01655592413640420000e+000) (3, 1.58990281192010130000e+000) (4, -7.08281170995385350000e+000) (5, -1.38857906045343920000e+000) (6, -2.68766463092920070000e+000) (7, -3.66121685459803500000e+000) (8, 2.62384030899927010000e-001) (0, 1.00353116691184300000e+000) (1, -2.08524681787454150000e-001) (2, 6.67888600839882440000e-001) (3, -1.14237336592422990000e-001) (4, -8.88887529401446550000e-001) (5, -2.30874785155973840000e-001) (6, -9.35616478399006970000e-001) (7, 6.31181034943867210000e-002) (8, -3.08460449419677640000e-002) (0, 3.33126681016375370000e+000) (1, 3.35080973420646090000e+000) (2, 2.35621595547387570000e+000) (3, -2.11636747848860950000e+000) (4, 6.50865654968440580000e+000) (5, -1.91080093102277040000e+001) (6, 1.91947452611112230000e+000) (7, -6.63485481892517370000e+000) (8, -4.33962201656335700000e-001) (0, 3.09873366091361470000e+000) (1, 1.50002258776749700000e+001) (2, -1.20269255487971470000e+000) (3, 8.53721033923359050000e+000) (4, 2.20037989518859380000e+000) (5, -2.64261132236663880000e+000) (6, -1.94713292388148320000e+001) (7, -1.31821907177148640000e+001) (8, -1.95780618730346500000e-001) (0, 1.14025529016841600000e+000) (1, 1.41800794170349960000e-001) (2, 9.17829358047835720000e-001) (3, -6.00916782093785340000e+000) (4, 3.66370379611364780000e+000) (5, 1.40246461331114420000e+000) (6, -4.41014599477858320000e-001) (7, -4.83506506343503160000e+000) (8, 2.71806302093355840000e-002) (0, 3.99551090927843900000e+001) (1, 2.09965498302027150000e+000) (2, 1.48620233931513580000e+002) (3, -9.58164572592795310000e-001) (4, -1.62518081790151570000e+002) (5, 7.53707160057645640000e+001) (6, 7.82030494288121080000e+001) (7, -2.38152721527638750000e+001) (8, 4.75986324388972190000e+000) (0, 8.05013592748060880000e+000) (1, 1.06460170740077680000e+000) (2, -7.09488699947751660000e+000) (3, -3.31956281010975780000e+000) (4, -2.48336525944770870000e+001) (5, -1.15978114500897270000e+001) (6, 2.98268885347390090000e+001) (7, -3.92408260210868810000e+000) (8, 1.01108950902927510000e+000) (0, -1.31160806047048320000e+000) (1, 1.38277559942623980000e+001) (2, 1.32966410063639890000e+001) (3, -1.33815082795092090000e+001) (4, -2.24014478636284800000e+001) (5, 2.55083556657179040000e+001) (6, -8.47653765583879170000e+000) (7, 1.73206745550597960000e+001) (8, 9.40237582297813510000e-001) (0, 3.48753558552932620000e+000) (1, 9.71482727355824770000e+000) (2, -3.69519108256698780000e+000) (3, -3.01447210435259800000e+001) (4, -5.46813983729090580000e+000) (5, 1.39142005835655490000e+001) (6, 2.94602595796414520000e+001) (7, -1.14189602529202910000e+001) (8, 3.97553255118702430000e-001) (0, -1.84166753313040550000e+000) (1, 5.38445202266742530000e-001) (2, -1.25131533001368540000e+000) (3, 1.19885584475442750000e+000) (4, 1.39841853259304540000e+000) (5, 6.26491415568161700000e+000) (6, -1.73001210179458150000e+000) (7, 3.08817478298895280000e+000) (8, 6.43013636453979690000e-001) (0, -9.62338650172643640000e+000) (1, 6.71050299989623870000e+000) (2, -2.00416284145950740000e+001) (3, -1.94974393177785040000e+001) (4, 3.24291653546304130000e+001) (5, 1.82230742775444450000e+001) (6, 8.85590524594589290000e+000) (7, 2.12709572142422660000e+001) (8, 1.63356607697480110000e+000) (0, 5.24787574356321680000e+000) (1, 4.33890198288118680000e+001) (2, -2.72935465508945260000e+001) (3, -2.56427400327508900000e+001) (4, 3.36308819168544120000e+000) (5, 8.17078132579095560000e-001) (6, -5.48161504810678050000e+000) (7, 2.47020098287875700000e+001) (8, 9.82280935638595420000e-001) (0, 1.02458808344400110000e+000) (1, 6.85178530912517790000e-001) (2, 9.76454484644249020000e+000) (3, -8.48561233652921310000e+000) (4, 2.54972321678174960000e+000) (5, -5.79091388501107080000e-001) (6, 8.69488074078592100000e+000) (7, -2.72362665976064730000e+001) (8, 4.15253981304908590000e-001) (0, 2.12902363442120280000e+000) (1, -3.32170820694779490000e-001) (2, 2.46530468343579120000e+000) (3, -5.34392595333330700000e+000) (4, -2.72011418678851950000e+000) (5, -2.17215249847930190000e+000) (6, -6.20070649451792380000e+000) (7, -2.37816879623449440000e-001) (8, 4.39959101745515560000e-001) (0, 2.49565595954638390000e+000) (1, 2.48386236282622760000e+001) (2, -1.29543802929657990000e+000) (3, -2.14101918922236830000e+001) (4, -1.53193308275378070000e+000) (5, 2.53497216855108930000e+001) (6, 5.77180781889001930000e-002) (7, -1.14082567694603970000e+001) (8, 2.43943391477593220000e-001) (0, -1.77410136727208070000e-001) (1, 5.63599365279685240000e-001) (2, -1.73143788605674980000e-001) (3, -6.50558638894024010000e+000) (4, 5.26077397733224370000e-001) (5, -3.45522276828304500000e-001) (6, 6.46533084932701670000e-001) (7, 2.76550802549119850000e-001) (8, 1.76052516582584640000e-001) (9, -4.90957130974405300000e-001) (10, -3.88493971547683840000e+000) (11, -7.61910968569599610000e-001) (12, -4.47607593931188150000e-001) (13, 1.67158078495054200000e+000) (14, -1.20796240508053730000e+000) (15, 1.96983088698532690000e+000) (16, 9.51949212210269400000e-001) (17, 1.74119276765805390000e+000) (18, -3.96386114339215630000e-002) (19, 9.62034441112595420000e-002) (20, 6.43540522228369880000e-001) (21, 5.76997868298262720000e-001) (22, 1.05144551975224140000e+000) (23, 3.45061265340077470000e-001) (24, 6.77832469133830660000e-001) (25, -9.16408866772358780000e-001) (26, -3.78559229018810050000e+000) (27, -7.55800681428324570000e-001) (28, -6.29402220857842140000e-001) (29, 9.37238469836664590000e-001) (9, 3.38518927737579970000e-001) (10, 2.90191276749145780000e+000) (11, 1.60566109737479330000e+000) (12, 9.16153758535866590000e-002) (13, -1.39978812068439180000e+000) (14, 7.88592580876398050000e+000) (15, -1.40684361391585780000e+000) (16, -1.02574562788537600000e+000) (17, -1.34772056264331170000e+000) (18, 2.43430718847232520000e-001) (19, -9.26741909866779930000e-002) (20, -8.32081628990930080000e-001) (21, -8.87535620200421760000e-001) (22, 6.76656143856946610000e-001) (23, -2.08967691274593780000e-001) (24, -4.09640001600894200000e-001) (25, 7.86444036677787730000e-001) (26, 7.94713843109446820000e-001) (27, 8.39424840236817400000e-001) (28, 3.20760535829162090000e+000) (29, 4.74901068176316720000e-001) (9, -7.07160292193848460000e-001) (10, 4.11207791962088720000e+000) (11, 2.42914546920898780000e+000) (12, 1.71745773620314960000e+000) (13, 6.05784323016942630000e-001) (14, 5.71054231346120390000e+000) (15, 6.31009711536645760000e-001) (16, -9.31102986469070860000e-001) (17, -3.23090230200474740000e+000) (18, -3.17077221826083390000e-001) (19, 5.30762164432087460000e-001) (20, -2.23934788084223820000e-001) (21, -8.27034946593997900000e-001) (22, 5.25388038116282320000e-001) (23, -7.51806308000781270000e-002) (24, 8.15445672270271760000e-001) (25, 1.50844648518156330000e+000) (26, 1.22834444135565280000e-001) (27, 5.86977576203888910000e-001) (28, 1.07411498535499690000e+000) (29, 3.40173662328073780000e-001) (9, 3.53922570189099880000e-002) (10, 3.69939770668851820000e+000) (11, -3.50618836619902910000e-002) (12, 3.14984772735010350000e-001) (13, 3.89362899032567530000e+000) (14, -6.50940230083147230000e+000) (15, 5.97382160947989850000e-002) (16, -1.65446003178484590000e+000) (17, 6.80397833675198440000e+000) (18, 1.60852980989208890000e-001) (19, 2.64129231576790800000e-001) (20, 4.80642697839532840000e-001) (21, -1.27953296101723720000e+000) (22, 8.79164961788925670000e-001) (23, -8.85828520199512300000e-001) (24, 4.02466082532006110000e-001) (25, -7.07623339625640060000e-001) (26, -1.29921199406788630000e+000) (27, 1.27234034951557360000e-001) (28, -3.69447888779125270000e-001) (29, 5.41492793344232280000e-001) (9, -4.58526395162205670000e-001) (10, -1.50310985630505530000e+000) (11, -4.40838070645505460000e+000) (12, -6.23350207574827950000e-001) (13, -1.08990039824832640000e+000) (14, -2.06247896661678400000e+000) (15, -1.05172671141232630000e+000) (16, 8.23124976896493110000e-001) (17, -2.33703570739356530000e+000) (18, -1.47663072464843310000e+000) (19, 7.42755971110349860000e-001) (20, 6.18284638628296750000e-001) (21, -5.64857442199142020000e-001) (22, 9.63046401500804340000e-001) (23, 4.74627056451978390000e-001) (24, 1.08734675682769160000e+000) (25, 1.81392192301101730000e+000) (26, 3.76259861396175840000e+000) (27, -1.39897039279502920000e+000) (28, -7.02997335876443420000e-001) (29, 5.06778993180793220000e-001) 
