FANN_FLO_2.1
num_layers=3
learning_rate=0.700000
connection_rate=1.000000
network_type=0
learning_momentum=0.000000
training_algorithm=2
train_error_function=1
train_stop_function=0
cascade_output_change_fraction=0.010000
quickprop_decay=-0.000100
quickprop_mu=1.750000
rprop_increase_factor=1.200000
rprop_decrease_factor=0.500000
rprop_delta_min=0.000000
rprop_delta_max=50.000000
rprop_delta_zero=0.100000
cascade_output_stagnation_epochs=12
cascade_candidate_change_fraction=0.010000
cascade_candidate_stagnation_epochs=12
cascade_max_out_epochs=150
cascade_max_cand_epochs=150
cascade_num_candidate_groups=2
bit_fail_limit=3.49999999999999980000e-001
cascade_candidate_limit=1.00000000000000000000e+003
cascade_weight_multiplier=4.00000000000000020000e-001
cascade_activation_functions_count=10
cascade_activation_functions=3 5 7 8 10 11 14 15 16 17 
cascade_activation_steepnesses_count=4
cascade_activation_steepnesses=2.50000000000000000000e-001 5.00000000000000000000e-001 7.50000000000000000000e-001 1.00000000000000000000e+000 
layer_sizes=9 101 6 
scale_included=0
neurons (num_inputs, activation_function, activation_steepness)=(0, 0, 0.00000000000000000000e+000) (0, 0, 0.00000000000000000000e+000) (0, 0, 0.00000000000000000000e+000) (0, 0, 0.00000000000000000000e+000) (0, 0, 0.00000000000000000000e+000) (0, 0, 0.00000000000000000000e+000) (0, 0, 0.00000000000000000000e+000) (0, 0, 0.00000000000000000000e+000) (0, 0, 0.00000000000000000000e+000) (9, 6, 5.00000000000000000000e-001) (9, 6, 5.00000000000000000000e-001) (9, 6, 5.00000000000000000000e-001) (9, 6, 5.00000000000000000000e-001) (9, 6, 5.00000000000000000000e-001) (9, 6, 5.00000000000000000000e-001) (9, 6, 5.00000000000000000000e-001) (9, 6, 5.00000000000000000000e-001) (9, 6, 5.00000000000000000000e-001) (9, 6, 5.00000000000000000000e-001) (9, 6, 5.00000000000000000000e-001) (9, 6, 5.00000000000000000000e-001) (9, 6, 5.00000000000000000000e-001) (9, 6, 5.00000000000000000000e-001) (9, 6, 5.00000000000000000000e-001) (9, 6, 5.00000000000000000000e-001) (9, 6, 5.00000000000000000000e-001) (9, 6, 5.00000000000000000000e-001) (9, 6, 5.00000000000000000000e-001) (9, 6, 5.00000000000000000000e-001) (9, 6, 5.00000000000000000000e-001) (9, 6, 5.00000000000000000000e-001) (9, 6, 5.00000000000000000000e-001) (9, 6, 5.00000000000000000000e-001) (9, 6, 5.00000000000000000000e-001) (9, 6, 5.00000000000000000000e-001) (9, 6, 5.00000000000000000000e-001) (9, 6, 5.00000000000000000000e-001) (9, 6, 5.00000000000000000000e-001) (9, 6, 5.00000000000000000000e-001) (9, 6, 5.00000000000000000000e-001) (9, 6, 5.00000000000000000000e-001) (9, 6, 5.00000000000000000000e-001) (9, 6, 5.00000000000000000000e-001) (9, 6, 5.00000000000000000000e-001) (9, 6, 5.00000000000000000000e-001) (9, 6, 5.00000000000000000000e-001) (9, 6, 5.00000000000000000000e-001) (9, 6, 5.00000000000000000000e-001) (9, 6, 5.00000000000000000000e-001) (9, 6, 5.00000000000000000000e-001) (9, 6, 5.00000000000000000000e-001) (9, 6, 5.00000000000000000000e-001) (9, 6, 5.00000000000000000000e-001) (9, 6, 5.00000000000000000000e-001) (9, 6, 5.00000000000000000000e-001) (9, 6, 5.00000000000000000000e-001) (9, 6, 5.00000000000000000000e-001) (9, 6, 5.00000000000000000000e-001) (9, 6, 5.00000000000000000000e-001) (9, 6, 5.00000000000000000000e-001) (9, 6, 5.00000000000000000000e-001) (9, 6, 5.00000000000000000000e-001) (9, 6, 5.00000000000000000000e-001) (9, 6, 5.00000000000000000000e-001) (9, 6, 5.00000000000000000000e-001) (9, 6, 5.00000000000000000000e-001) (9, 6, 5.00000000000000000000e-001) (9, 6, 5.00000000000000000000e-001) (9, 6, 5.00000000000000000000e-001) (9, 6, 5.00000000000000000000e-001) (9, 6, 5.00000000000000000000e-001) (9, 6, 5.00000000000000000000e-001) (9, 6, 5.00000000000000000000e-001) (9, 6, 5.00000000000000000000e-001) (9, 6, 5.00000000000000000000e-001) (9, 6, 5.00000000000000000000e-001) (9, 6, 5.00000000000000000000e-001) (9, 6, 5.00000000000000000000e-001) (9, 6, 5.00000000000000000000e-001) (9, 6, 5.00000000000000000000e-001) (9, 6, 5.00000000000000000000e-001) (9, 6, 5.00000000000000000000e-001) (9, 6, 5.00000000000000000000e-001) (9, 6, 5.00000000000000000000e-001) (9, 6, 5.00000000000000000000e-001) (9, 6, 5.00000000000000000000e-001) (9, 6, 5.00000000000000000000e-001) (9, 6, 5.00000000000000000000e-001) (9, 6, 5.00000000000000000000e-001) (9, 6, 5.00000000000000000000e-001) (9, 6, 5.00000000000000000000e-001) (9, 6, 5.00000000000000000000e-001) (9, 6, 5.00000000000000000000e-001) (9, 6, 5.00000000000000000000e-001) (9, 6, 5.00000000000000000000e-001) (9, 6, 5.00000000000000000000e-001) (9, 6, 5.00000000000000000000e-001) (9, 6, 5.00000000000000000000e-001) (9, 6, 5.00000000000000000000e-001) (9, 6, 5.00000000000000000000e-001) (9, 6, 5.00000000000000000000e-001) (9, 6, 5.00000000000000000000e-001) (9, 6, 5.00000000000000000000e-001) (9, 6, 5.00000000000000000000e-001) (9, 6, 5.00000000000000000000e-001) (9, 6, 5.00000000000000000000e-001) (9, 6, 5.00000000000000000000e-001) (9, 6, 5.00000000000000000000e-001) (9, 6, 5.00000000000000000000e-001) (0, 6, 0.00000000000000000000e+000) (101, 6, 5.00000000000000000000e-001) (101, 6, 5.00000000000000000000e-001) (101, 6, 5.00000000000000000000e-001) (101, 6, 5.00000000000000000000e-001) (101, 6, 5.00000000000000000000e-001) (0, 6, 0.00000000000000000000e+000) 
connections (connected_to_neuron, weight)=(0, 3.50204043548810020000e-001) (1, 2.70208762187066240000e-001) (2, 5.63506623073247060000e-001) (3, 5.38482285564443440000e-001) (4, 1.12719595368622280000e+000) (5, 5.80772325320648040000e-001) (6, 1.80680016314170910000e-001) (7, 6.81117881824818470000e-001) (8, 5.73521998177788930000e-001) (0, 1.29719540681563190000e+000) (1, 1.44915606834295630000e+000) (2, 1.86603775299990390000e+000) (3, 9.57222467786044920000e-001) (4, 1.10688271277701980000e+000) (5, -9.68199205412825560000e-001) (6, 3.99294655963065410000e+000) (7, 7.22144384856744040000e-001) (8, 1.17232715605783810000e+000) (0, 2.92744907711407490000e-001) (1, 5.47832931786618400000e-001) (2, 5.28726230379805710000e-001) (3, 2.38964299067252640000e-001) (4, 9.17210825023734410000e-001) (5, 2.22923940715305720000e-001) (6, 2.55825645492764100000e-001) (7, 3.91605809390544620000e-001) (8, 5.78951230034462250000e-001) (0, 8.94070475571611120000e-002) (1, 5.62916691647012630000e-001) (2, 4.66820223898857300000e-001) (3, 1.85666195989972220000e-001) (4, 4.69777962619398190000e-001) (5, 2.34693294940251320000e-001) (6, 1.45669283288943960000e-001) (7, 4.31518550212593000000e-001) (8, 2.60562650805407750000e-001) (0, 3.11467867215193480000e-001) (1, 3.22656967883993560000e-001) (2, 4.74755196893665410000e-001) (3, 4.34622677333101890000e-001) (4, 9.73926185376719820000e-001) (5, 1.60164378549495420000e-001) (6, 4.45217991914442390000e-001) (7, 7.68932385710097480000e-001) (8, 5.74858689304516450000e-001) (0, 1.31308760237476400000e+000) (1, 1.43452401642100050000e+000) (2, 8.58619982581095510000e-001) (3, 8.36463869290433040000e-002) (4, -1.00381007891375050000e+000) (5, -1.17933766713889890000e+000) (6, 1.35885682045118220000e+000) (7, -1.38164589469410680000e-001) (8, -1.50190382831150990000e-001) (0, 1.14802272928773920000e+000) (1, 9.98387184054274850000e-001) (2, 1.33924326148765370000e+000) (3, 1.07040436363247800000e+000) (4, 8.30531157501486210000e-001) (5, 6.04925330411308690000e-001) (6, 1.29343938633055470000e+000) (7, 6.72597128780431430000e-001) (8, 9.23090687881172770000e-001) (0, 4.72182846814378780000e-001) (1, 5.11666288734947680000e-001) (2, 4.05344322834926220000e-001) (3, 1.74338593350245370000e-001) (4, 7.09902831755467420000e-001) (5, 1.33898862126916260000e-001) (6, 2.27744451213652140000e-001) (7, 3.13747248511831060000e-001) (8, 2.75737111863246340000e-001) (0, -6.16440672446277760000e-001) (1, 7.75489515832043170000e-001) (2, 4.46228097805201520000e+000) (3, 1.95240416225262360000e-001) (4, -8.91392582876351040000e-001) (5, 1.09521064846300530000e+000) (6, -5.88379739885252270000e-001) (7, -1.70507730469966420000e-001) (8, 5.86159899422649010000e-001) (0, 4.10666817506475660000e-001) (1, -1.55340721126043020000e+000) (2, -1.15873103290014430000e+000) (3, 1.79632794246554870000e+000) (4, -8.92067953632604160000e-001) (5, 3.34420257465318780000e-001) (6, -2.09845157772052900000e+000) (7, 8.80267418584605820000e+000) (8, 8.17794658136248300000e-001) (0, -2.75864492566562310000e-001) (1, 2.44626530017301060000e-001) (2, 5.92790371913540560000e-001) (3, 3.74601515246147520000e-002) (4, 4.68148544490057610000e-001) (5, -3.75029140316218980000e-002) (6, 9.10814038481333880000e-002) (7, 2.14780068766487730000e-001) (8, 7.61860947788852990000e-002) (0, 8.98689704004117520000e-001) (1, 8.71654342965193730000e-001) (2, 1.11767783832492600000e+000) (3, 9.53128454407250580000e-001) (4, 1.17502183211512560000e+000) (5, 3.41896415415570860000e-001) (6, 1.66947403251511920000e+000) (7, -1.37039938015251940000e+000) (8, 8.96270309876716630000e-001) (0, 9.53646322691640710000e-002) (1, -1.26819452981439050000e-002) (2, 2.76095847754397330000e-001) (3, 2.52215384376014930000e-001) (4, 6.85975572538523590000e-001) (5, 1.99381262544924360000e-001) (6, 3.99274002704865630000e-001) (7, 2.32120432459255620000e-001) (8, 2.77472903834863890000e-001) (0, 1.66527424824570140000e-001) (1, 2.55394005087355380000e-001) (2, 4.75902163096034720000e-001) (3, 4.58093520303612500000e-001) (4, 1.01405970036665030000e+000) (5, 2.40893371646662860000e-001) (6, 2.84621178735578180000e-001) (7, 3.32925800126670560000e-001) (8, 5.81856353788788640000e-001) (0, 1.01539874802936140000e-001) (1, 8.70124172670648650000e-002) (2, 1.64837005020787550000e-001) (3, 3.04917179625784740000e-001) (4, 5.68019372044953120000e-001) (5, 1.53488171057148570000e-001) (6, 3.58438967707135850000e-001) (7, 3.27505849878213740000e-001) (8, 4.77646201310414190000e-001) (0, 7.27692624102092230000e-001) (1, 1.21828372864178540000e+000) (2, 1.58104067911120750000e+000) (3, 1.08772056991826370000e+000) (4, 9.94184102894522300000e-001) (5, 8.22390969202109630000e-001) (6, 8.80757274757964950000e-001) (7, 1.40858044309532570000e+000) (8, 8.40939535060121200000e-001) (0, -6.41332609932128040000e-001) (1, -3.98497071128080530000e-001) (2, -1.22804397648282530000e+000) (3, 2.37892732498812680000e-001) (4, -3.90376129625871760000e-001) (5, -1.04864613126995240000e+000) (6, 8.24264965364522980000e-001) (7, 2.53090509162009310000e-001) (8, -8.98518381059521810000e-002) (0, 6.00181823918395810000e-001) (1, 3.29408211287855300000e-001) (2, 6.15334473769356240000e-001) (3, 6.46709783483660710000e-001) (4, 1.56965376938891790000e+000) (5, 7.79789534870300560000e-001) (6, 7.05867562227213470000e-001) (7, 1.14288063249469700000e+000) (8, 8.62080832960961160000e-001) (0, -7.30707777222598530000e-002) (1, -4.64716238754973860000e-001) (2, 1.85988713571624750000e-001) (3, 3.48104810754552440000e-002) (4, -1.00776629804295890000e-001) (5, 1.76204847095818990000e-002) (6, 1.30029380645857890000e-001) (7, -5.47642494146671430000e-001) (8, 3.30130897857208010000e-001) (0, 2.09587666473829310000e-001) (1, 3.16140605986773400000e-001) (2, 5.01379474225473690000e-001) (3, 2.94635922149884990000e-001) (4, 4.73049422509849770000e-001) (5, 1.14243163053944050000e-001) (6, 2.92769517637504080000e-001) (7, 3.46029178163983380000e-001) (8, 5.74709911323350250000e-001) (0, 3.77756318461739680000e-001) (1, 1.00173575668192720000e-001) (2, 2.64388906034916940000e-001) (3, 2.68850411671139430000e-001) (4, 6.80014724738702720000e-001) (5, 1.11513705820314390000e-001) (6, 2.90337175144532940000e-001) (7, 1.79882837058955830000e-001) (8, 5.10644686200769970000e-001) (0, 1.90984658783743320000e-001) (1, 5.64810679859975020000e-001) (2, 2.77360307425972900000e-001) (3, 2.09381771604315290000e-001) (4, 3.64415047893857760000e-001) (5, 1.72221965259517190000e-001) (6, 2.61096522949985700000e-001) (7, 3.79195291823283150000e-001) (8, 3.07776021968604370000e-001) (0, 7.60066467363281180000e+000) (1, -1.27565739204362800000e+001) (2, -3.98431660679044010000e-001) (3, 2.33649463499648500000e+001) (4, 5.95703168122492690000e+000) (5, -2.36011822982589050000e+001) (6, 1.57200287738798510000e+000) (7, 3.09835209452830360000e+001) (8, 3.79711195721252560000e-001) (0, -3.03762911063322830000e-004) (1, -4.39813327572061760000e-001) (2, 3.69910615246309190000e-001) (3, -9.98342893141125450000e-003) (4, -1.27309871545849020000e-001) (5, 1.01665663950380750000e-001) (6, 2.94415380500589520000e-001) (7, -5.64829076548553190000e-001) (8, 1.23794896724837250000e-001) (0, 8.28529968181490870000e+000) (1, -4.86741812134109960000e+000) (2, -2.84178091910336490000e+000) (3, 4.19276819995333570000e+000) (4, 1.62431418810937240000e+001) (5, -3.12360691294073900000e+001) (6, 2.92278709435232500000e+001) (7, -1.52668336384574310000e+001) (8, 4.76844476943651900000e-001) (0, 9.34391892345100340000e-001) (1, 1.29670854474845520000e+000) (2, 4.50057401323367130000e-001) (3, 9.68263462044489650000e-001) (4, 9.62183369869536230000e-001) (5, 1.00950314076401070000e+000) (6, -1.19666629567093240000e+000) (7, 7.10861466497051950000e-001) (8, 1.17115838686042960000e+000) (0, 1.63912385102417040000e-001) (1, 5.00963870970605680000e-001) (2, 2.01823753213625580000e-001) (3, 1.27859361167235620000e-001) (4, 3.26445254863915400000e-001) (5, 6.27340049313247080000e-003) (6, 2.90873281019153550000e-001) (7, 3.51478426879822110000e-001) (8, 5.96391161803877970000e-001) (0, 3.06950420988374110000e-001) (1, 6.57542996972711240000e-001) (2, -2.00003248100458250000e-002) (3, 1.77147907276539710000e+000) (4, -2.89182277921985430000e+000) (5, -9.29102266220288910000e-001) (6, -2.09368703790626970000e-001) (7, 3.56563186141272970000e-001) (8, -3.23842683690739390000e-002) (0, 7.18843304219890790000e-002) (1, 4.92372601903290070000e-001) (2, 1.95588025012643330000e-001) (3, 3.53127527675415500000e-001) (4, 5.39843748345276930000e-001) (5, 1.86555048037576330000e-001) (6, 3.20533517104613360000e-001) (7, 4.41884697516072730000e-001) (8, 5.84616443844483080000e-001) (0, 7.14518320439707750000e-001) (1, 1.41147574544389800000e+000) (2, 1.07838734813949930000e+001) (3, 7.72909786080398180000e-001) (4, 1.02134355464530110000e+000) (5, -2.19302651242058480000e+000) (6, 3.23123469667070080000e+000) (7, -6.48802596571188510000e+000) (8, 7.68600371848525140000e-001) (0, 3.67992797882708830000e-003) (1, -4.42355523170767380000e+000) (2, 3.69668145379671030000e+001) (3, -2.40861098236266390000e+001) (4, 3.80445503223790670000e+001) (5, 2.79977146593251260000e+001) (6, 1.23698832396770640000e+001) (7, 3.02206068045873310000e+000) (8, 4.94093103287174430000e-001) (0, 7.81721936583967710000e-001) (1, 9.60614633440445290000e-001) (2, 9.56297995672279360000e-001) (3, 6.91938902992096590000e-001) (4, 2.73237654981098530000e-001) (5, 1.31249774933434840000e+000) (6, 9.53577092469219620000e-001) (7, -7.00545348947521300000e-001) (8, 7.21297093783531680000e-001) (0, 6.95912920583525390000e-001) (1, 8.72134068775312190000e-001) (2, 8.55949016509246370000e-001) (3, 8.33703521873001450000e-001) (4, 2.32372863890263400000e-001) (5, 1.03861191199637460000e+000) (6, 8.43659399523895130000e-001) (7, 6.05838663028084530000e-001) (8, 1.07598342898869360000e+000) (0, -4.53336061512409790000e-001) (1, -4.84776999551760900000e-001) (2, -2.64351517452640680000e-001) (3, -2.84771315457929890000e-001) (4, 8.45792698147104500000e-002) (5, -1.60990075624158540000e-001) (6, 2.97262482655107460000e-001) (7, -2.01242849320884710000e-001) (8, 1.39040179168541810000e-001) (0, -6.17130882633550470000e+000) (1, -2.42735053177811300000e+001) (2, 2.83924517685977400000e+000) (3, -5.58273645389315230000e-001) (4, 6.57266528757900570000e+000) (5, 6.24548140311958290000e+000) (6, 1.17637344384612650000e+001) (7, 7.61647595053714350000e+000) (8, 1.05332785262192160000e+000) (0, -9.44535764264587520000e-001) (1, -1.73634239209177440000e+000) (2, -6.43726633411589090000e-001) (3, -5.56450688849790320000e-001) (4, -2.56744728093366740000e-001) (5, -5.44977200048568640000e-002) (6, -7.77892188553186540000e-001) (7, -3.48618290448656940000e-001) (8, -3.07931821714492020000e-001) (0, 1.57472238446492020000e-001) (1, 7.14226851436039060000e-002) (2, 1.52736468194928860000e-001) (3, 1.60931929304353160000e-001) (4, 4.06997939881888260000e-001) (5, 1.20800199504296100000e-001) (6, 3.66223759951192500000e-001) (7, 2.35718905064649320000e-001) (8, 4.74789783492999990000e-001) (0, -7.12789917746268490000e-002) (1, 2.30224549298020880000e+000) (2, 8.43316006704670860000e+000) (3, 1.47429423095314680000e-001) (4, 1.05115816846299890000e+000) (5, 4.41879093534218950000e-001) (6, 5.41307829448036410000e+000) (7, -1.37691428112028550000e+000) (8, 7.81801862976787440000e-001) (0, -1.89394745707048810000e-001) (1, -2.81521718765077480000e-001) (2, 2.11666734476265300000e-001) (3, -1.32328189792232570000e-001) (4, 4.20724688294199100000e-002) (5, 2.34570672539466760000e-001) (6, 2.41551164739447460000e-001) (7, -1.46571547955038770000e-001) (8, 1.11053511830434530000e-001) (0, -2.40648941582124050000e-001) (1, -3.47829677056385730000e-001) (2, 7.64930176810171700000e-002) (3, -2.43539909758986260000e-001) (4, 1.15861506100047780000e-001) (5, 3.28760225215339150000e-001) (6, 2.20083673896609680000e-001) (7, -6.31303873343257440000e-002) (8, 7.51412219522215320000e-002) (0, 3.52936668590909940000e-001) (1, 3.55328989149051660000e-002) (2, 3.98543116360198620000e-001) (3, 2.24611625291380710000e-001) (4, 5.09046492324864210000e-001) (5, 3.10361115474031560000e-001) (6, 2.23165943229521190000e-001) (7, 1.95700647305011020000e-001) (8, 5.49086817067010790000e-001) (0, -2.55413306679521280000e-001) (1, -3.99046267755764850000e-001) (2, 1.55596844659898150000e-001) (3, -2.64391351450503410000e-001) (4, 1.48257355314534850000e-002) (5, -3.01179654175659510000e-001) (6, 3.13794323967423850000e-001) (7, -2.92318694312716730000e-001) (8, 1.06779563128131970000e-001) (0, -6.47016877695548580000e-002) (1, -3.69124688785637530000e-001) (2, 9.82424333289175220000e-002) (3, -2.68591468057395140000e-001) (4, -1.75337444666134990000e-001) (5, 8.92329749316966710000e-002) (6, 3.37677079503754700000e-001) (7, -5.19098133467135290000e-001) (8, 1.20544273649786140000e-001) (0, 9.26868269705434650000e-002) (1, 5.48023937042643960000e-001) (2, 1.92536129846834600000e-001) (3, 2.02603706746771920000e-001) (4, 7.41481566189724050000e-001) (5, 2.37860675002728870000e-001) (6, 8.38219586724164160000e-002) (7, 3.63018787317363590000e-001) (8, 2.93818443532955000000e-001) (0, 2.10849549570462810000e-001) (1, 4.20809789385596490000e-001) (2, 5.77603816717144670000e-001) (3, 4.95610315726088160000e-001) (4, 1.01520017470310250000e+000) (5, 1.50463485523071700000e-001) (6, 2.53830901648425810000e-001) (7, 3.48498577719892340000e-001) (8, 5.72846304292565110000e-001) (0, 1.11670645756043560000e-001) (1, 4.66135567757138440000e-001) (2, -2.94408872426345270000e-003) (3, 2.22614824902150980000e-001) (4, 4.97005463634680900000e-001) (5, 1.25047192729104140000e-001) (6, 3.46677281836028810000e-001) (7, 4.48416002964918010000e-001) (8, 2.82111548743592230000e-001) (0, 9.34364841700637380000e-001) (1, 7.26153211589490420000e-001) (2, 9.96706166986402690000e-001) (3, 1.15173155230152700000e+000) (4, 1.04315799815931950000e+000) (5, 1.09917659144110020000e+000) (6, 1.07749113576895320000e+000) (7, 4.30354203668694090000e-001) (8, 9.81627945233760180000e-001) (0, -1.71740851717834260000e-001) (1, 6.93948157860304440000e+000) (2, 3.19716869197522020000e+001) (3, -1.53120142708426470000e+000) (4, -1.34674607914419190000e+001) (5, 3.14389644808683390000e+001) (6, -1.76980570383936850000e+001) (7, -2.54430294099949780000e+001) (8, 1.03166773676131030000e+000) (0, 8.13150423084347930000e-001) (1, 8.12475481233999930000e-001) (2, 5.31357842404910240000e-001) (3, 6.89088017228182250000e-001) (4, 2.20373003083938810000e-001) (5, 1.02803877138144920000e+000) (6, 7.77219824245343080000e-001) (7, -1.08558624506649280000e-001) (8, 7.89402049224121270000e-001) (0, 8.45930181432919430000e-001) (1, 1.39306988313835170000e+000) (2, 1.43305936920693510000e+000) (3, 8.56120128589505260000e-001) (4, 8.75859408085177150000e-001) (5, 4.46634034758892980000e-002) (6, 1.22865376697099160000e+000) (7, 8.92078449744738600000e-001) (8, 8.52929490212807730000e-001) (0, -4.32085384875897320000e-001) (1, 6.55052876908312490000e-002) (2, -1.13905686501323640000e+000) (3, -2.82754264712328120000e-001) (4, -2.42585107666132810000e-001) (5, -8.68687179475956420000e-001) (6, -1.99251072712994890000e-001) (7, 4.90020043566435780000e-002) (8, -4.95578865938237560000e-002) (0, 4.53687708035537600000e-001) (1, 1.04954543191359730000e+000) (2, 3.17470100702789360000e-001) (3, -1.90941064604641690000e+000) (4, -3.78370775368907160000e-002) (5, 3.09224310482663520000e-001) (6, -1.10330751131083620000e+000) (7, -1.34662447898632880000e-002) (8, 2.76685368644922770000e-001) (0, -5.83379911860112840000e-001) (1, 1.12766109481652400000e+000) (2, -1.97740142277129600000e-001) (3, -1.06783595038184170000e-001) (4, -1.43972761215672240000e+000) (5, -2.23476684690636330000e+000) (6, -1.68502585021266270000e+000) (7, -1.96962550904629570000e+000) (8, 6.79217021141722420000e-002) (0, 9.17475039053674110000e-001) (1, 1.48886175696471330000e+000) (2, 1.34620105355540340000e+000) (3, 8.24249708090378670000e-001) (4, 5.30240044076310530000e-001) (5, 9.92759494140042720000e-001) (6, 1.35297298214467720000e+000) (7, 6.02957361026272840000e-001) (8, 1.11609786211636570000e+000) (0, -2.73855670653092020000e-001) (1, -4.16454558397298220000e-001) (2, -3.43865333643064920000e-002) (3, -2.32410968567836810000e-002) (4, 9.22031241293381900000e-002) (5, 1.51951856801880780000e-001) (6, 3.71239491125327610000e-001) (7, -3.09091681410527900000e-001) (8, 5.20552731482999410000e-002) (0, 6.93800204814941870000e-001) (1, 9.14778640292111200000e-001) (2, 6.85065210462007860000e-001) (3, 1.40572012997015380000e+000) (4, -2.99389107899208410000e+000) (5, 3.90975582594865090000e+000) (6, 8.92578003821532070000e-001) (7, -2.51763301052574380000e-001) (8, 7.41388994808935830000e-001) (0, -2.95036027763792010000e-001) (1, 1.42966862060936950000e-001) (2, 4.08282445774540980000e-001) (3, -3.02338810151814190000e-001) (4, 4.81040767850003490000e-001) (5, -1.64444152314212920000e-001) (6, 1.41195515970948680000e-001) (7, 4.23498889737378090000e-001) (8, 9.26955520240020510000e-002) (0, -1.52451955815110950000e-001) (1, -3.31329977570385680000e-001) (2, 1.06794927085571790000e+000) (3, 4.88052699567813250000e+000) (4, -9.28080513387455560000e-001) (5, 3.15956657103342750000e-001) (6, -1.61187213043069240000e+000) (7, 6.28546770709171020000e+000) (8, -8.99376593574672740000e-003) (0, 1.37637511522517880000e-001) (1, 9.59816756116001900000e-002) (2, 3.31080324281109730000e-001) (3, 1.69593070532921580000e-001) (4, 4.63388341424609330000e-001) (5, 1.54076743144206390000e-001) (6, 2.52783228159315090000e-001) (7, 2.36523894408246420000e-001) (8, 2.23293432710339630000e-001) (0, 1.19372425753635880000e-001) (1, 5.28051233976568060000e-001) (2, 4.80479193087734180000e-001) (3, 3.15199548000192010000e-001) (4, 7.71426448974310900000e-001) (5, 3.00724010033474260000e-001) (6, 2.79926449843669100000e-001) (7, 3.64704809044417160000e-001) (8, 2.61202809557323450000e-001) (0, 4.86558894859369930000e-001) (1, 6.25756328349241110000e-001) (2, 6.70787580753151040000e-001) (3, 2.70531066581958800000e-001) (4, 1.12883711565873940000e-001) (5, 3.62674625437157560000e-001) (6, 6.99180841194625540000e-001) (7, 6.61329191351709530000e-001) (8, 6.39778407460511290000e-001) (0, 3.22063647552612580000e-001) (1, 1.51108322835861790000e-001) (2, 1.29144879900647160000e-001) (3, 2.06855804261574180000e-001) (4, 4.40097711933183370000e-001) (5, 6.78985059034672990000e-002) (6, 1.99349176551946310000e-001) (7, 4.26893030131864190000e-001) (8, 3.01547971411458060000e-001) (0, 4.31896453150338420000e-001) (1, 1.07983880382355870000e+000) (2, 8.65132322830891250000e-001) (3, 1.23096387248219070000e-001) (4, 2.69827558783642010000e-001) (5, 1.41923767236468600000e-001) (6, 9.00781045367683110000e-001) (7, 1.11886624700750500000e+000) (8, 8.51642074685746150000e-001) (0, 2.48720014209804830000e-001) (1, 4.84533667272968930000e-001) (2, 3.03899919813896360000e-001) (3, 2.59618276696506940000e-001) (4, 6.33085322794797010000e-001) (5, 2.41913212124398230000e-001) (6, 3.60561305439605460000e-001) (7, 7.14590442480856130000e-001) (8, 5.69892778999811830000e-001) (0, 1.05344484369674010000e+000) (1, -4.64366551934711100000e-001) (2, -2.61676501837843970000e-001) (3, 5.03368269512020470000e+000) (4, 1.60394412603086020000e+000) (5, -2.30970201738614780000e+000) (6, 2.85245747777689740000e+000) (7, 7.22292630913215720000e-001) (8, -3.74541204997338490000e-003) (0, 2.41730423162647260000e-001) (1, 6.45452799277259070000e-001) (2, 2.10453160610847980000e-001) (3, 2.51282731143512290000e-001) (4, 3.82899996126956020000e-001) (5, 4.60597258509627680000e-002) (6, 1.59801221785706740000e-001) (7, 4.05025033851803720000e-001) (8, 2.18349930300509200000e-001) (0, -1.28696996871929480000e+000) (1, 4.10873031447591850000e-001) (2, 2.24773991037399060000e+001) (3, 8.71312912808311960000e+000) (4, -1.40492936279737690000e+001) (5, 1.23414259096875930000e+000) (6, -1.83330498043275190000e+001) (7, 2.76289306845144690000e+001) (8, 2.81299345714249530000e-001) (0, 2.15116742684584690000e-001) (1, 5.31386867139867490000e-001) (2, 5.40757762603156670000e-001) (3, 2.79982586732158590000e-001) (4, 3.82407081040414380000e-001) (5, 1.72792868414476890000e-001) (6, 1.71497312545105250000e-001) (7, 3.74457173268515910000e-001) (8, 1.74384824207095140000e-001) (0, 4.58688782049350260000e-001) (1, 1.14811963585340250000e+000) (2, 3.75004313064912610000e-001) (3, 3.20121600972498810000e-001) (4, 1.81516865651174530000e-001) (5, 5.78301532745582160000e-001) (6, 6.75538576593347710000e-001) (7, 1.70560949066231000000e+000) (8, 6.82155616660484190000e-001) (0, 7.14667122182668150000e-001) (1, 1.31794750244627410000e+000) (2, 7.19939697951481050000e-001) (3, 7.20826767952422950000e-001) (4, -3.83471286600281620000e-001) (5, 1.68556179683415160000e+000) (6, 8.22837863651023960000e-001) (7, 1.40602917421960160000e-001) (8, 7.82275857110879440000e-001) (0, -3.49865656799935090000e-001) (1, 1.27323792203877990000e+001) (2, -6.22404910134762000000e+000) (3, 2.92527842466304170000e+000) (4, 2.11946366086905820000e+000) (5, -6.85061549557493430000e+000) (6, 1.81357554126121200000e+000) (7, 1.34569715625641710000e+000) (8, 8.47424313531029090000e-001) (0, -3.87364291895585800000e-001) (1, -1.25760363522740060000e-001) (2, -8.17443039423581230000e-003) (3, -1.13502279932670290000e-001) (4, 2.19272480231276270000e-001) (5, -3.97691636935812170000e-001) (6, -1.49757501627919840000e-001) (7, 2.36620759681672260000e-001) (8, 7.72515487319316300000e-002) (0, -2.98420363270860520000e-001) (1, -4.36159935093794690000e-001) (2, 1.53729548739903590000e-002) (3, -1.42032596034752180000e-001) (4, -1.19936760391369900000e-001) (5, 3.26686674966161660000e-001) (6, 5.98462621776988170000e-001) (7, -1.24275445436262610000e+000) (8, 6.61050296207916640000e-002) (0, 7.36348021027232850000e-001) (1, 1.10083946635661170000e+000) (2, 9.75729089954017190000e-001) (3, 7.54039399920845450000e-001) (4, -5.79260669996517150000e-001) (5, 1.33663234816627850000e+000) (6, 1.07870646637098420000e+000) (7, 7.09392059762012360000e-001) (8, 6.55340342740784010000e-001) (0, 4.99902802032091480000e+000) (1, 1.88054731681347890000e+001) (2, 9.04799009928029110000e+000) (3, 9.31853165968336140000e-002) (4, -1.20449088833743100000e+001) (5, 3.35929815383849780000e+000) (6, 1.02307811451323370000e+001) (7, -3.92068583214282710000e+001) (8, 5.13009689455680150000e-001) (0, -7.29085177792973480000e+000) (1, -8.81193460950339610000e+001) (2, -6.25344270238980090000e-001) (3, 7.53020214634461520000e+001) (4, 1.50684397741703400000e+001) (5, -3.78441108611986790000e+001) (6, -5.34816510536885730000e+001) (7, 3.92446470045890410000e+001) (8, -2.98890301114462960000e-001) (0, 3.08313460130685110000e-001) (1, 1.16718610630714860000e-001) (2, 2.98462350428143340000e-001) (3, 3.12787019768662740000e-001) (4, 7.02831161028160680000e-001) (5, 3.03335814101504510000e-001) (6, 2.85724386483857120000e-001) (7, 3.49618939891616240000e-001) (8, 5.52357165081905350000e-001) (0, -3.96288723683757200000e+000) (1, 3.04087179090198090000e+000) (2, 3.96377646813529430000e+000) (3, 3.88682842261763590000e+000) (4, -5.02260330920373030000e+000) (5, -8.07525729971641400000e+000) (6, 4.81517448545172490000e+000) (7, -2.28322893303220770000e+001) (8, -5.40059348564031040000e-001) (0, -2.62667527340768980000e-001) (1, -1.05759847722673560000e+001) (2, 7.24262508771087180000e+000) (3, 9.87109927229159820000e+000) (4, -9.75239298188179400000e+000) (5, 6.87981019974861940000e-001) (6, 5.44340270837350460000e+000) (7, 2.33836603925231970000e+001) (8, 1.13935100097890250000e-003) (0, 8.19913093896461720000e-001) (1, 8.27249401778090590000e-001) (2, 8.85232337832965730000e-001) (3, 1.21249341859821700000e+000) (4, -4.32068287831724800000e-001) (5, 1.25379198323519160000e+000) (6, 1.28343078480876360000e+000) (7, 8.34688303275355930000e-001) (8, 7.91662250017085680000e-001) (0, 8.29507134312452820000e-001) (1, 6.41429699253411980000e-001) (2, 1.46911633551240240000e+000) (3, 8.35280106831115310000e-001) (4, 9.89968468664218280000e-001) (5, 5.48647068543588250000e-001) (6, 1.85236736275289630000e+000) (7, 4.48466425792261540000e-001) (8, 5.52917346428043470000e-001) (0, 9.97987736968973690000e-001) (1, -4.79608323950482970000e-001) (2, 1.00711423054971870000e+000) (3, -4.05624948011403920000e-001) (4, 5.21622502361192100000e+000) (5, -3.26899868118422400000e+000) (6, 1.32498659700451360000e+001) (7, -7.52585900617557170000e+000) (8, 3.00010729341103730000e-001) (0, -1.98515950512869720000e-001) (1, -4.80721582097627940000e-001) (2, 7.03816866122378010000e-002) (3, -7.63863643008130390000e-002) (4, -4.87321864084731340000e-002) (5, 5.10885265411598760000e-002) (6, 4.76950100280716050000e-001) (7, -6.31881347113517180000e-001) (8, 5.07134238806986190000e-002) (0, 1.01188788522958540000e+000) (1, 1.04037979471196440000e+000) (2, 7.36890376347524300000e-001) (3, 8.97135192509299630000e-001) (4, -8.95787012443500790000e-002) (5, 1.05596346678970950000e+000) (6, 1.01628869704654630000e+000) (7, 1.68595483532020360000e-001) (8, 4.57286136116223650000e-001) (0, 1.15248381472261110000e+001) (1, 1.07243185344838780000e+002) (2, -1.81127069672228340000e+001) (3, -5.62661145889619330000e+001) (4, 8.92863055747754510000e+000) (5, 1.31713477329761070000e+001) (6, 8.36241125554684000000e+001) (7, -3.60184087351245670000e+001) (8, -9.85056183016788380000e-002) (0, 4.98702079332717040000e-001) (1, 1.30203464513993090000e+000) (2, 2.23831991107047920000e-002) (3, 6.97022781473987110000e-001) (4, -2.77886551927549910000e-001) (5, 1.28057438790907410000e+000) (6, 1.28552731808747620000e+000) (7, 1.05657475138480070000e+000) (8, 1.04159133010267910000e+000) (0, 1.23427904795387580000e-001) (1, 1.68732021836512040000e-001) (2, 3.09808189846618180000e-001) (3, 1.40693205142324610000e-001) (4, 4.35010443984773400000e-001) (5, 1.32017100921957480000e-001) (6, 2.54386414214184060000e-001) (7, 1.92718274044213660000e-001) (8, 2.79476789802900750000e-001) (0, 1.27471597885058370000e+000) (1, 4.15959631724542240000e+000) (2, 1.27620770237193670000e+001) (3, -3.79287549385541700000e+000) (4, 2.58572573913177540000e+000) (5, 1.89718789153680040000e-001) (6, -7.85665773359019770000e+000) (7, -6.67677617234711080000e-001) (8, 8.36919364750708050000e-001) (0, 1.25100449546982550000e-001) (1, 4.27902561053691680000e-001) (2, 3.28379369744618680000e-001) (3, 5.09009641031216820000e-001) (4, 1.03900321150459280000e+000) (5, 2.11696598005465860000e-001) (6, 2.82773582522678040000e-001) (7, 3.56976878726683380000e-001) (8, 6.29979967616828620000e-001) (0, -3.63829492491649920000e-001) (1, -5.19824465240803390000e-001) (2, 6.50940785839830560000e-002) (3, -2.35509411740077720000e-001) (4, 5.55600861918988940000e-002) (5, 7.53809640835836630000e-002) (6, 3.35976713555984960000e-001) (7, -2.24662931037197310000e-001) (8, 7.26254382708684390000e-002) (0, 8.16067645638315800000e-001) (1, 7.84735677663608190000e-001) (2, 8.64997885317849820000e-001) (3, 8.42435136064370700000e-001) (4, -3.15673814831775200000e-001) (5, 1.20496765805691640000e+000) (6, 1.43126630653858820000e+000) (7, 4.89410601062740310000e-001) (8, 1.10257109857029830000e+000) (0, 1.22478635398716330000e+000) (1, 7.68869495273114990000e-001) (2, 1.92720864519023640000e+000) (3, 1.11689185229170080000e+000) (4, 1.00453230927373080000e+000) (5, 1.43814589704550500000e+000) (6, 3.41878232414963730000e-001) (7, 7.57646673787776730000e-001) (8, 6.32117643145948090000e-001) (0, 9.08144819002619210000e+000) (1, 1.58787963724372240000e+001) (2, -4.87158582188318410000e+001) (3, -3.04295921165960560000e+000) (4, 5.79378999244696330000e+001) (5, -2.26389383055775010000e+001) (6, 9.47792981220552950000e+001) (7, 1.12994407210398910000e+000) (8, 2.60352016391173080000e-004) (0, 1.91811393355358750000e+000) (1, 3.66583109149995870000e-001) (2, 1.12178940919540990000e+001) (3, 3.95972959807110390000e+001) (4, -1.04455364202521710000e+001) (5, -3.49075736658881650000e+001) (6, -3.60937114564732030000e+000) (7, 1.23269534052105280000e+001) (8, 1.49154755378808930000e+000) (0, 8.06772484347185850000e-001) (1, 1.03771777672209200000e+000) (2, 1.22861148520313310000e+000) (3, 9.37273301640541350000e-001) (4, 8.45400900649322160000e-001) (5, 4.93129524210710600000e-001) (6, 9.53050000818435830000e-001) (7, 7.57892825167328370000e-001) (8, 9.43553035874237330000e-001) (0, 1.51042527071873850000e-001) (1, 1.60952629985635030000e-001) (2, 2.40147873128567920000e-001) (3, 4.03975584270601210000e-001) (4, 3.88150286974591470000e-001) (5, 9.53762724619516560000e-002) (6, 2.94460577820828740000e-001) (7, 3.09753174792135650000e-001) (8, 5.22477340661952840000e-001) (0, -2.60286294134813300000e-002) (1, -7.08449881051911870000e-001) (2, -4.78188352129412520000e-001) (3, 1.07630439708102100000e-001) (4, -2.97415359894614590000e-001) (5, 2.91998867886623380000e-002) (6, -6.46804909322871300000e-002) (7, -1.38151998268464270000e+000) (8, 3.72638462582331910000e-001) (0, -2.33389965292365930000e+000) (1, -1.76440767513768650000e+001) (2, 2.07095302736071880000e+000) (3, -6.62674575797193200000e+001) (4, -1.76761740370925400000e+001) (5, -1.68717846676669940000e+001) (6, 5.02649040689810820000e+002) (7, -1.86069298559896620000e+001) (8, 3.43504638178070020000e+000) (0, 9.99869084170669550000e-001) (1, -3.08733123773895220000e-002) (2, 4.31808108131390260000e-001) (3, 4.95663558891856200000e-001) (4, 8.19955980877866360000e-001) (5, 9.76324583900220620000e-002) (6, 3.13299481309834040000e-001) (7, 5.03004054570518220000e-001) (8, 5.26830262582306920000e-001) (0, 5.03001097768712850000e+000) (1, 3.01473723898442360000e+001) (2, -6.13068247425993020000e+000) (3, -6.09651145951033600000e+000) (4, 1.70294299060028890000e+001) (5, -8.71471112321040660000e+000) (6, -1.09510763266334640000e+001) (7, -4.90505869732994530000e+000) (8, 1.12330191054839660000e+000) (9, 3.56974996097395750000e-001) (10, -3.91164760266158800000e-003) (11, 2.35716151939215250000e-001) (12, 2.80148327505002510000e-001) (13, 2.97666620347970870000e-001) (14, 1.06953545537563020000e+000) (15, 5.30211155312584960000e-002) (16, 1.83065755177728830000e-001) (17, -1.50768481836628570000e+000) (18, -3.68007680331399190000e-001) (19, 3.09908110122596950000e-001) (20, 2.97702199021933830000e-002) (21, 3.01528231148122830000e-001) (22, 3.40590515265704050000e-001) (23, 3.29536383408501330000e-001) (24, -5.93460184876690790000e-002) (25, 9.14499671518908870000e-001) (26, 4.51708770855920150000e-001) (27, 7.81184219148622460000e-001) (28, 2.88402329800921230000e-001) (29, 3.75844485674111330000e-001) (30, 2.20018085728272810000e-001) (31, 8.78501009788956590000e-002) (32, 1.03749175696307480000e+000) (33, -4.47380841724925820000e-001) (34, -4.83225808214927460000e-002) (35, 2.30432424128939940000e-001) (36, -6.57722048233183410000e-003) (37, 2.74778700074374880000e-001) (38, 8.23482490239424440000e-002) (39, 7.05962210619445890000e-002) (40, -1.74317262364148800000e-001) (41, -9.47167701228829590000e-002) (42, 1.29660249882866310000e+000) (43, -4.20666004358871910000e-001) (44, 5.94554215804368620000e-001) (45, 3.44377841160951600000e-001) (46, -1.07818965919390660000e-001) (47, 9.53491013818854040000e-001) (48, 1.05315787852830130000e+000) (49, 3.70003550212854530000e-001) (50, 1.14855505580172370000e+000) (51, 1.07237119832396610000e+000) (52, 1.89157215564534520000e-001) (53, 2.90400193119240650000e-001) (54, 2.09805455941647320000e-001) (55, 1.80681575563432760000e-001) (56, -5.93134505926668500000e-001) (57, -1.46439575162639640000e-001) (58, -8.17790005906152690000e-002) (59, 1.52728391782861370000e+000) (60, -6.83751285776288300000e-001) (61, 3.30593935523580120000e+000) (62, -1.12708530131487850000e-001) (63, 8.92152649753867770000e-001) (64, -3.44219262536250460000e-001) (65, 2.57414067023043150000e-001) (66, 1.13317457729406510000e+000) (67, 2.88918313214049430000e-001) (68, 1.93305099900524410000e-001) (69, -1.86357057017629140000e-001) (70, 2.66475570775850710000e-001) (71, -1.93791956888651280000e-001) (72, 2.21206108129011480000e-001) (73, 2.65371028075063360000e+000) (74, 2.64410367060542880000e-001) (75, 7.82002269582107500000e-001) (76, 2.28748437191931110000e-001) (77, -2.33575743377887780000e-001) (78, -2.66489144384031100000e-001) (79, -1.19991584051251120000e+000) (80, 9.43120531364282530000e-001) (81, 6.36826176303590730000e-001) (82, -2.37274259532706510000e-001) (83, 1.64877401559768630000e-001) (84, -3.66770260617286070000e-001) (85, 3.05647881062484470000e-001) (86, 3.64615134124334050000e-001) (87, -4.02876056370188030000e-001) (88, -1.30836545300732740000e-001) (89, 3.27893564083961530000e-001) (90, 4.63555816831026920000e-001) (91, 9.96195114199678990000e-001) (92, -1.38036019929662660000e-001) (93, -3.67132900761718890000e-001) (94, -1.37160224419050870000e-001) (95, 2.58950725577499820000e-001) (96, 2.37123606435482220000e-001) (97, 2.65019489380672660000e-001) (98, 1.05426372779953730000e+000) (99, -9.18467281336690920000e-002) (100, 1.74732121488086560000e-001) (101, 2.91170060319373650000e-001) (102, -6.84711588132130950000e-001) (103, -9.31153363795009240000e-002) (104, 3.09173535423819870000e-001) (105, 9.74496238242282040000e-001) (106, 3.86081655190208100000e-001) (107, 4.15674910100699010000e-001) (108, -1.14544565226418230000e-001) (109, 2.98086156599556450000e-001) (9, 1.64532251803893940000e-001) (10, -2.34510368332189690000e-001) (11, 1.72886622069286120000e-001) (12, 2.17341287582015570000e-001) (13, 2.30251358378863620000e-001) (14, 8.28959470839382150000e-001) (15, 5.32704326879425150000e-002) (16, 1.00110378811055710000e-001) (17, 5.79487288040104850000e-001) (18, 3.50317562530872710000e-001) (19, 4.52865815037646450000e-001) (20, -2.50965051424806350000e-001) (21, 8.80285156133588790000e-002) (22, 1.90453942913992950000e-001) (23, 2.28677862991393920000e-001) (24, -2.50727895676464810000e-001) (25, 8.84811308385347330000e-002) (26, 5.75600086086523240000e-001) (27, 1.67224858887544850000e-001) (28, 1.84448950346556260000e-001) (29, 4.46713121238257180000e-002) (30, 2.11624838678767140000e-001) (31, -7.98493474625372870000e-002) (32, 5.03770034492360690000e-001) (33, 8.99259447292633660000e-002) (34, -2.92888731448090470000e-001) (35, 2.32703983313890280000e-001) (36, 2.51927677184083620000e+000) (37, 2.25775097209591050000e-001) (38, -2.98960708345408940000e-001) (39, 1.78730801874515950000e-001) (40, -3.95269188749461320000e-001) (41, -3.23325076517002260000e-001) (42, 1.02708175123594670000e+000) (43, 4.16522254721778170000e-001) (44, 1.02157555656118280000e+000) (45, 2.31562510003483820000e-001) (46, -2.78438367636133780000e-001) (47, 6.95218604448889720000e-001) (48, 6.57949525458623060000e-001) (49, 1.13261806965250730000e-001) (50, 7.97319726350883440000e-001) (51, 4.93852191496492070000e-001) (52, 1.89262163544547140000e-001) (53, 2.06749303351933620000e-001) (54, 1.51988063997101070000e-001) (55, -4.96692853907856820000e-002) (56, 7.77325063794892630000e-001) (57, -3.95370495830454140000e-001) (58, -1.88002127361221700000e-002) (59, 4.78593247249775530000e-001) (60, 6.90681055951515880000e+000) (61, -4.68524666857415010000e+000) (62, -2.49965012035784890000e-001) (63, 2.13096689180660160000e-001) (64, -2.83527864752822100000e-001) (65, 7.45022646779816560000e-001) (66, -1.60851514573227490000e-001) (67, 6.05072726300671100000e-002) (68, 1.11041837030595410000e-001) (69, -3.19036260061306480000e-001) (70, 1.45376994853266940000e-001) (71, -2.34887923039366200000e-001) (72, 1.95262586027606570000e-001) (73, -5.50708761574300710000e-001) (74, 1.36288145483585530000e-001) (75, -6.43394329748416480000e-001) (76, 1.29699433430617880000e-001) (77, -2.68596096407366650000e-001) (78, -3.18495076711500350000e-001) (79, 1.51510542410230700000e+000) (80, 1.27398992375979890000e+000) (81, 2.97645036969269580000e-001) (82, -3.93689164849634840000e-001) (83, 7.15513090680539590000e-002) (84, 5.32726253100007100000e-001) (85, 1.37911315465298030000e-001) (86, -6.03968766750392630000e-002) (87, 4.37031086847663950000e-001) (88, -2.54800292112786430000e-001) (89, 1.18751420674338680000e-001) (90, -6.16571910565279600000e-001) (91, 1.35455261598607850000e-001) (92, -2.87115909757348960000e-001) (93, 6.28127934614620800000e-001) (94, 9.40014882229819880000e-002) (95, 3.66024391442333200000e-002) (96, -3.48625388952696510000e-001) (97, 1.68574813603974080000e-001) (98, 5.44585475004112360000e-001) (99, -4.00838277485341010000e-001) (100, -2.99417384278336470000e-001) (101, -3.18154992770113330000e-001) (102, 2.65969403949660450000e-001) (103, -1.91185455913828430000e-001) (104, 2.30180109616815930000e-001) (105, 2.62042282966823580000e-001) (106, -5.78027842857277370000e-001) (107, 1.52408349478045910000e-001) (108, 6.49406576433686630000e-002) (109, 2.36122118224075810000e-001) (9, 2.62144286621994790000e-001) (10, -3.85242794846459180000e-001) (11, 2.29374410481017090000e-001) (12, 6.18868644074850430000e-001) (13, 9.37508340026414890000e-002) (14, -1.53006529669125200000e+000) (15, -4.22176984986520340000e-001) (16, 6.28858650090896140000e-001) (17, 1.88643620363168930000e+000) (18, -2.27402817986952920000e-001) (19, 5.63365948048692440000e-001) (20, -4.68225377931544120000e-001) (21, 1.52270587258912930000e-001) (22, 2.12863817968995090000e-001) (23, 1.49094868269095180000e-001) (24, -4.27006327623686340000e-001) (25, -4.67544109614867590000e-001) (26, 1.32061736614683100000e-001) (27, 7.57094893046483140000e-001) (28, 2.48293775625006960000e-001) (29, 2.32487571501243220000e-001) (30, 6.17331079281574160000e-001) (31, -5.17052172086900570000e-001) (32, 7.21632989666501020000e-001) (33, 5.19737616724982310000e-001) (34, 1.73717912255231600000e-002) (35, 1.54213118392631770000e-001) (36, 4.30668993607451520000e+000) (37, 2.52050781083174800000e-001) (38, -3.78328585157240220000e-001) (39, 7.53412915143526710000e-001) (40, -2.79016242396445680000e-001) (41, -2.80153342370091150000e-001) (42, 3.14041271337976270000e-001) (43, 4.68754402867583630000e-001) (44, 9.71664893700042050000e-001) (45, 1.87998677442576480000e-001) (46, -2.01393638418408540000e-001) (47, 7.15683632031507090000e-001) (48, 7.56715663792622120000e-001) (49, 1.76131824950803980000e-001) (50, 6.71336802183694510000e-001) (51, 8.25750710673929580000e-001) (52, 6.11058751002074070000e-001) (53, 1.80080961197122690000e-001) (54, 1.21189510051250730000e-001) (55, -1.92368771057410180000e-001) (56, -4.56758322206855920000e-001) (57, -1.90715468510603730000e-001) (58, -3.71535105254648560000e-001) (59, -1.16739125381259720000e+000) (60, 3.51875184788473530000e+000) (61, -1.16555871081849790000e+000) (62, -1.11124531588884020000e-002) (63, 5.97616841364211340000e-001) (64, -2.70981504611340240000e-001) (65, 5.71564202342409340000e-001) (66, 8.02263155377645370000e-001) (67, 6.05742633645211190000e-001) (68, 2.35745008629070830000e-001) (69, -4.71821287782820450000e-001) (70, 6.41290028870905030000e-001) (71, -4.47982916697220790000e-001) (72, 6.98910939655675720000e-002) (73, 1.75442978385946540000e+000) (74, 5.88981087269610290000e-001) (75, -4.09814036467944070000e-001) (76, 6.34378094744834640000e-001) (77, -3.03243998497395970000e-001) (78, -1.66737838790464940000e-001) (79, 7.79044852214100690000e-001) (80, 7.68547064571781900000e-001) (81, -3.10500358921784290000e-001) (82, -1.86515684914089650000e-001) (83, 9.55574494558729780000e-001) (84, -1.49755316205162300000e-001) (85, 1.86288159466647620000e-001) (86, -1.17697970114213830000e+000) (87, -2.25621129695642490000e-001) (88, -3.46710595794146480000e-001) (89, -4.82443951574553110000e-001) (90, -1.91699880285755020000e+000) (91, 6.64292657491546530000e-001) (92, 7.66682551826730620000e-002) (93, -2.19670840079965820000e-001) (94, -2.52079814438769700000e-001) (95, 5.96465880656218080000e-001) (96, -3.82981346823971500000e-001) (97, 1.18509584083022550000e-001) (98, 6.33170908059189960000e-001) (99, -1.95731945771951350000e-001) (100, 6.41806078234472830000e-002) (101, -1.47723523265210820000e-001) (102, 3.45412134544051230000e-001) (103, -4.99896110672071900000e-001) (104, 2.13935184079358580000e-001) (105, 5.62612083033702360000e-001) (106, 9.50140302766362830000e-002) (107, 8.40215917465126220000e-002) (108, -3.86727356012760760000e-001) (109, 1.71947208075104520000e-001) (9, 1.12125568238310170000e-001) (10, -1.93389272806539110000e-001) (11, 1.72944067405142260000e-001) (12, 6.84855014843130720000e-001) (13, 2.31615518450329930000e-001) (14, -8.81648640145065060000e-003) (15, -2.37239073202626990000e-001) (16, 6.55706670111802950000e-001) (17, 3.48847936957211450000e-001) (18, -1.17600241168099360000e-001) (19, 6.60195099419449320000e-001) (20, -1.36019526365864310000e-001) (21, 3.15341910539978010000e-001) (22, 2.12107326400338800000e-001) (23, 3.49322050116450010000e-001) (24, -3.00698775630144020000e-001) (25, -1.36181579738632120000e+000) (26, 1.07080226919902640000e-001) (27, 1.39317439190904080000e-002) (28, 2.56795814450190510000e-001) (29, 3.13801726128605850000e-001) (30, 2.32869880268403720000e-001) (31, 4.81419906909067660000e-001) (32, 9.41820593534735570000e-001) (33, 1.99051561402995460000e-001) (34, 1.82048253113701240000e-001) (35, 6.17201004385991790000e-001) (36, 2.19813204347651900000e+000) (37, 1.66293834250105970000e-001) (38, 9.37269345640274200000e-002) (39, 3.01790708537735610000e-002) (40, -2.00993317365152110000e-001) (41, -1.60868673673367160000e-001) (42, -1.54406537947064960000e-001) (43, 5.29191978329328000000e-002) (44, 7.85350828041910810000e-001) (45, 6.71964404209050570000e-001) (46, -3.92275327399125070000e-001) (47, 1.05662631101552300000e+000) (48, 9.62611849345883400000e-001) (49, 2.29993623527365190000e-001) (50, 1.00175655003871960000e+000) (51, 6.11804333338479280000e-001) (52, 6.79186907412660520000e-001) (53, 1.36463227973128260000e-001) (54, 6.96320722986879640000e-001) (55, -3.41516112490084570000e-001) (56, 5.03594823300395960000e-001) (57, 1.87214833958013220000e-001) (58, -1.92671559740984380000e-001) (59, -1.30972943528292630000e+000) (60, 3.21316302912952920000e+000) (61, 1.36006066237559610000e-002) (62, 1.59564920637628250000e-001) (63, 6.13955107824201370000e-001) (64, -2.21996083108614960000e-001) (65, 7.89114261247599420000e-001) (66, -3.20577881618696380000e+000) (67, 6.66419897089077560000e-001) (68, 2.54287415519253320000e-001) (69, -1.13181060086237410000e-001) (70, 5.72267402248734740000e-001) (71, -2.08322517747176110000e-001) (72, 2.42267644032210490000e-001) (73, 1.82973734091422320000e+000) (74, 3.25766062029320790000e-001) (75, -3.55114831280977210000e-001) (76, 2.80567586159699620000e-001) (77, -3.07890196437624660000e-001) (78, -2.16972625333622330000e-001) (79, 1.33448745997090090000e+000) (80, -1.16755154275247380000e-001) (81, 1.51205295949399290000e+000) (82, -3.10835913455169310000e-001) (83, -4.37084005800300660000e-001) (84, 1.33366422483562650000e-001) (85, 2.34865213385821700000e-001) (86, 8.43103094349980760000e-001) (87, 1.35479369316614330000e+000) (88, -2.06906522609542730000e-001) (89, -2.37458128218573620000e-001) (90, -1.64695849882909710000e+000) (91, 8.57988265871799880000e-001) (92, -2.41374391582545230000e-001) (93, 1.81052027567983470000e-001) (94, -3.03914383259798300000e-001) (95, 7.13236272729262040000e-001) (96, 1.67845413064958400000e-001) (97, 2.50909490212357590000e-001) (98, 6.09693760592177950000e-001) (99, -1.88083719275500850000e-001) (100, 5.60268243363981140000e-002) (101, -2.01841171158908190000e-002) (102, -7.94240376399072520000e-001) (103, -2.10183872035049400000e-001) (104, 2.57688637291632550000e-001) (105, -5.31429249953209500000e-001) (106, -7.91992081482200350000e-001) (107, 2.84152949896447350000e-001) (108, 2.38808368060710510000e-001) (109, 6.88163651946271830000e-001) (9, 5.11223705549189830000e-001) (10, -1.97805939618305450000e-001) (11, 1.52273202413527850000e-001) (12, 1.66026216782707460000e-001) (13, 1.26698539484388330000e-001) (14, -3.85267663701589710000e+000) (15, -2.14722036388017600000e-001) (16, 1.65023314656149810000e-001) (17, 1.61041802855230240000e+000) (18, -4.24620786229259530000e-001) (19, 4.63186304942920900000e-001) (20, 1.29035975843819870000e-001) (21, 7.52011350354324650000e-002) (22, 1.66543273399341140000e-001) (23, 7.04061233725297720000e-002) (24, 2.13590615032050680000e-001) (25, 1.01031040277211840000e+000) (26, 5.80405888788910970000e-001) (27, 4.46134562451695800000e-001) (28, 1.30491522464569850000e-001) (29, 1.45747258289313310000e-001) (30, 2.47705675236501510000e-002) (31, -5.77564720867531860000e-001) (32, 9.83113889663654180000e-002) (33, 1.10542164402928700000e+000) (34, -1.43160322408614480000e-001) (35, 1.57956809189457620000e-001) (36, 7.52139151049445780000e+000) (37, 6.72829063643597680000e-002) (38, -1.87114541920101050000e-001) (39, 2.36070493740563460000e-001) (40, -2.59907599364185780000e-001) (41, -1.55634314723046670000e-001) (42, 1.96332324504029910000e+000) (43, -8.11731396123725690000e-001) (44, 7.10481635446951200000e-001) (45, 1.21739898559565760000e-002) (46, -1.66628910412758260000e-001) (47, 5.14413809755958180000e-001) (48, 9.30898343933463270000e-001) (49, 5.67951003134829770000e-002) (50, 6.60050685077651630000e-001) (51, 7.12305566502826390000e-001) (52, 6.57598388760652080000e-002) (53, 1.90369123312242540000e-001) (54, 1.82840525936454330000e-001) (55, -2.17436924717174350000e-001) (56, 3.42878371606876560000e-001) (57, -2.76337944566923680000e-001) (58, 2.66410652242918040000e-001) (59, 4.19100329467036900000e-001) (60, 5.63088164492143230000e+000) (61, -8.62999307284201400000e+000) (62, -1.67239756496586090000e-001) (63, 8.56102249570458770000e-001) (64, -5.16491541259409990000e-001) (65, 8.17894643692332890000e-001) (66, -6.09379774435525160000e-001) (67, 1.00867109103953810000e-001) (68, 1.42285466133651310000e-001) (69, -2.60531457622170340000e-001) (70, 1.40703402929362930000e-001) (71, -1.74808818538205040000e-001) (72, 1.54574622502645340000e-001) (73, 1.54998898705427050000e-001) (74, 1.90657468974417710000e-001) (75, -1.66157484799689980000e-001) (76, 1.48407149289959430000e-001) (77, -2.70215360679862520000e-001) (78, 3.65022874174529970000e-002) (79, 1.90790662660593770000e-001) (80, 2.19329696555565290000e+000) (81, 2.91227631815500760000e-001) (82, 1.87650766150076500000e-001) (83, -6.92070865979485860000e-001) (84, 9.19126723661893190000e-001) (85, 7.99811108614897210000e-002) (86, 1.32434432836143280000e-001) (87, -4.58601402675473670000e-001) (88, 5.36534776202012220000e-002) (89, -2.61010565155133710000e-001) (90, -7.85037518250250140000e-001) (91, 7.65859273540668960000e-001) (92, -4.58476468431509800000e-001) (93, 8.92276042855828070000e-001) (94, -3.46354430316597880000e-002) (95, 1.03128882094518800000e-001) (96, -1.95889363415580860000e-001) (97, 2.15337592327960960000e-001) (98, 8.53364646313005460000e-001) (99, -2.76566762188940270000e-001) (100, -2.32926477748086030000e-001) (101, -4.41955610691482310000e-001) (102, 9.04486745766126810000e-002) (103, 1.21487272467256670000e-001) (104, 1.55685530271119040000e-002) (105, 5.80361214063187970000e-001) (106, 3.19634515414184080000e-001) (107, 4.99859368659048180000e-001) (108, -3.68255250208892440000e-001) (109, 1.88244283769135490000e-001) 
