FANN_FLO_2.1
num_layers=3
learning_rate=0.700000
connection_rate=1.000000
network_type=0
learning_momentum=0.000000
training_algorithm=2
train_error_function=1
train_stop_function=0
cascade_output_change_fraction=0.010000
quickprop_decay=-0.000100
quickprop_mu=1.750000
rprop_increase_factor=1.200000
rprop_decrease_factor=0.500000
rprop_delta_min=0.000000
rprop_delta_max=50.000000
rprop_delta_zero=0.100000
cascade_output_stagnation_epochs=12
cascade_candidate_change_fraction=0.010000
cascade_candidate_stagnation_epochs=12
cascade_max_out_epochs=150
cascade_max_cand_epochs=150
cascade_num_candidate_groups=2
bit_fail_limit=3.49999999999999980000e-001
cascade_candidate_limit=1.00000000000000000000e+003
cascade_weight_multiplier=4.00000000000000020000e-001
cascade_activation_functions_count=10
cascade_activation_functions=3 5 7 8 10 11 14 15 16 17 
cascade_activation_steepnesses_count=4
cascade_activation_steepnesses=2.50000000000000000000e-001 5.00000000000000000000e-001 7.50000000000000000000e-001 1.00000000000000000000e+000 
layer_sizes=9 4 6 
scale_included=0
neurons (num_inputs, activation_function, activation_steepness)=(0, 0, 0.00000000000000000000e+000) (0, 0, 0.00000000000000000000e+000) (0, 0, 0.00000000000000000000e+000) (0, 0, 0.00000000000000000000e+000) (0, 0, 0.00000000000000000000e+000) (0, 0, 0.00000000000000000000e+000) (0, 0, 0.00000000000000000000e+000) (0, 0, 0.00000000000000000000e+000) (0, 0, 0.00000000000000000000e+000) (9, 6, 5.00000000000000000000e-001) (9, 6, 5.00000000000000000000e-001) (9, 6, 5.00000000000000000000e-001) (0, 6, 0.00000000000000000000e+000) (4, 6, 5.00000000000000000000e-001) (4, 6, 5.00000000000000000000e-001) (4, 6, 5.00000000000000000000e-001) (4, 6, 5.00000000000000000000e-001) (4, 6, 5.00000000000000000000e-001) (0, 6, 0.00000000000000000000e+000) 
connections (connected_to_neuron, weight)=(0, 5.77135016803417140000e+000) (1, -8.35577475048262920000e+000) (2, -2.21574523952696230000e+000) (3, -1.80684533941017220000e+000) (4, 1.23289475509458270000e+001) (5, -1.00898320779002650000e+001) (6, -1.82724887753191500000e+001) (7, 1.32811248471243730000e+001) (8, -2.69666214936200080000e-001) (0, 7.17768319295364860000e+000) (1, -2.56948245833095170000e+000) (2, 2.32167186742357410000e+000) (3, -2.84480927862348000000e+000) (4, 1.78578084943060060000e+001) (5, -2.68334447340167690000e+001) (6, -3.04197781662357650000e+000) (7, 3.89249098209256200000e-002) (8, -1.17869026978553880000e+000) (0, -6.95808844809886360000e-001) (1, -9.29002218926043730000e-001) (2, -7.22344077051800480000e-001) (3, 4.95883572320690250000e-001) (4, -1.41099743414405990000e+000) (5, 2.28557005561565240000e+000) (6, -2.19026115055090910000e+000) (7, 2.97227306032607790000e+000) (8, 5.43425959037086680000e-001) (9, -4.61889171327591270000e-001) (10, 4.87101126522564430000e-001) (11, 1.49179768615832710000e+000) (12, 3.88020587867370760000e-001) (9, 6.31251117857786980000e-001) (10, -9.27211013366067040000e-001) (11, -2.42284021007687800000e+000) (12, 1.05581389862145070000e+000) (9, -6.27723242929537770000e-002) (10, -6.70162618965842450000e-002) (11, 2.51061860499053380000e-001) (12, 8.85857932760286350000e-001) (9, 9.61768680979931730000e-001) (10, -1.20378220128682420000e+000) (11, -4.27482817377975000000e+000) (12, 1.59635654949350500000e+000) (9, 2.73412473091178330000e-001) (10, -1.31251324913583930000e-001) (11, 1.32377412706483140000e-002) (12, 1.05157550776995930000e+000) 
