FANN_FLO_2.1
num_layers=3
learning_rate=0.700000
connection_rate=1.000000
network_type=0
learning_momentum=0.000000
training_algorithm=2
train_error_function=1
train_stop_function=0
cascade_output_change_fraction=0.010000
quickprop_decay=-0.000100
quickprop_mu=1.750000
rprop_increase_factor=1.200000
rprop_decrease_factor=0.500000
rprop_delta_min=0.000000
rprop_delta_max=50.000000
rprop_delta_zero=0.100000
cascade_output_stagnation_epochs=12
cascade_candidate_change_fraction=0.010000
cascade_candidate_stagnation_epochs=12
cascade_max_out_epochs=150
cascade_max_cand_epochs=150
cascade_num_candidate_groups=2
bit_fail_limit=3.49999999999999980000e-001
cascade_candidate_limit=1.00000000000000000000e+003
cascade_weight_multiplier=4.00000000000000020000e-001
cascade_activation_functions_count=10
cascade_activation_functions=3 5 7 8 10 11 14 15 16 17 
cascade_activation_steepnesses_count=4
cascade_activation_steepnesses=2.50000000000000000000e-001 5.00000000000000000000e-001 7.50000000000000000000e-001 1.00000000000000000000e+000 
layer_sizes=9 4 6 
scale_included=0
neurons (num_inputs, activation_function, activation_steepness)=(0, 0, 0.00000000000000000000e+000) (0, 0, 0.00000000000000000000e+000) (0, 0, 0.00000000000000000000e+000) (0, 0, 0.00000000000000000000e+000) (0, 0, 0.00000000000000000000e+000) (0, 0, 0.00000000000000000000e+000) (0, 0, 0.00000000000000000000e+000) (0, 0, 0.00000000000000000000e+000) (0, 0, 0.00000000000000000000e+000) (9, 6, 5.00000000000000000000e-001) (9, 6, 5.00000000000000000000e-001) (9, 6, 5.00000000000000000000e-001) (0, 6, 0.00000000000000000000e+000) (4, 6, 5.00000000000000000000e-001) (4, 6, 5.00000000000000000000e-001) (4, 6, 5.00000000000000000000e-001) (4, 6, 5.00000000000000000000e-001) (4, 6, 5.00000000000000000000e-001) (0, 6, 0.00000000000000000000e+000) 
connections (connected_to_neuron, weight)=(0, -5.51019098333904630000e+000) (1, 1.87764196136084460000e+000) (2, -3.15051614638292680000e+000) (3, 1.85577508627757130000e+000) (4, -1.47303447171101030000e+001) (5, 2.50858550268509400000e+001) (6, -6.28664430459334240000e+000) (7, 4.54258230494031330000e+000) (8, 1.40384109603986770000e+000) (0, 3.39300257592214780000e+000) (1, -1.46472290122893910000e+000) (2, 1.03753004055447470000e+000) (3, -1.29272326332348970000e+000) (4, 7.96270960676070510000e+000) (5, -1.04800482206589670000e+001) (6, 1.04477223719689130000e+000) (7, -1.14259443115513060000e+000) (8, -4.86889958919649260000e-001) (0, -2.56121230955022970000e+000) (1, 6.57977210799447270000e-001) (2, -1.45352158905516910000e+000) (3, 1.23400829545316880000e+000) (4, -5.83586149355895940000e+000) (5, 9.09247862663014320000e+000) (6, -2.79063746182674870000e+000) (7, 3.60427925662752240000e+000) (8, 1.15616328347054800000e+000) (9, -1.11931417266877680000e+000) (10, -1.20179769805772980000e+000) (11, 6.71176866143383790000e-001) (12, 6.10598053672288030000e-001) (9, 1.09481423451601720000e+000) (10, 1.92443875146835170000e-001) (11, -1.53767313629064420000e+000) (12, 1.04455134152350440000e+000) (9, 1.04069408334951640000e-001) (10, -1.97888359202110200000e-001) (11, -1.05849748258531580000e-001) (12, 9.45389108100054610000e-001) (9, 1.71161544717480330000e+000) (10, 8.60252518121240480000e-001) (11, -2.37348573406566830000e+000) (12, 1.44510826897847290000e+000) (9, 2.87167626004323050000e-001) (10, 1.85318128406188070000e+000) (11, 1.74102095929790800000e+000) (12, 4.24397941535960780000e-001) 
