FANN_FLO_2.1
num_layers=3
learning_rate=0.700000
connection_rate=1.000000
network_type=0
learning_momentum=0.000000
training_algorithm=2
train_error_function=1
train_stop_function=0
cascade_output_change_fraction=0.010000
quickprop_decay=-0.000100
quickprop_mu=1.750000
rprop_increase_factor=1.200000
rprop_decrease_factor=0.500000
rprop_delta_min=0.000000
rprop_delta_max=50.000000
rprop_delta_zero=0.100000
cascade_output_stagnation_epochs=12
cascade_candidate_change_fraction=0.010000
cascade_candidate_stagnation_epochs=12
cascade_max_out_epochs=150
cascade_max_cand_epochs=150
cascade_num_candidate_groups=2
bit_fail_limit=3.49999999999999980000e-001
cascade_candidate_limit=1.00000000000000000000e+003
cascade_weight_multiplier=4.00000000000000020000e-001
cascade_activation_functions_count=10
cascade_activation_functions=3 5 7 8 10 11 14 15 16 17 
cascade_activation_steepnesses_count=4
cascade_activation_steepnesses=2.50000000000000000000e-001 5.00000000000000000000e-001 7.50000000000000000000e-001 1.00000000000000000000e+000 
layer_sizes=9 21 6 
scale_included=0
neurons (num_inputs, activation_function, activation_steepness)=(0, 0, 0.00000000000000000000e+000) (0, 0, 0.00000000000000000000e+000) (0, 0, 0.00000000000000000000e+000) (0, 0, 0.00000000000000000000e+000) (0, 0, 0.00000000000000000000e+000) (0, 0, 0.00000000000000000000e+000) (0, 0, 0.00000000000000000000e+000) (0, 0, 0.00000000000000000000e+000) (0, 0, 0.00000000000000000000e+000) (9, 6, 5.00000000000000000000e-001) (9, 6, 5.00000000000000000000e-001) (9, 6, 5.00000000000000000000e-001) (9, 6, 5.00000000000000000000e-001) (9, 6, 5.00000000000000000000e-001) (9, 6, 5.00000000000000000000e-001) (9, 6, 5.00000000000000000000e-001) (9, 6, 5.00000000000000000000e-001) (9, 6, 5.00000000000000000000e-001) (9, 6, 5.00000000000000000000e-001) (9, 6, 5.00000000000000000000e-001) (9, 6, 5.00000000000000000000e-001) (9, 6, 5.00000000000000000000e-001) (9, 6, 5.00000000000000000000e-001) (9, 6, 5.00000000000000000000e-001) (9, 6, 5.00000000000000000000e-001) (9, 6, 5.00000000000000000000e-001) (9, 6, 5.00000000000000000000e-001) (9, 6, 5.00000000000000000000e-001) (9, 6, 5.00000000000000000000e-001) (0, 6, 0.00000000000000000000e+000) (21, 6, 5.00000000000000000000e-001) (21, 6, 5.00000000000000000000e-001) (21, 6, 5.00000000000000000000e-001) (21, 6, 5.00000000000000000000e-001) (21, 6, 5.00000000000000000000e-001) (0, 6, 0.00000000000000000000e+000) 
connections (connected_to_neuron, weight)=(0, 1.69376814186885840000e+000) (1, -2.93612930032306090000e+000) (2, 8.80977161497874840000e+000) (3, -1.08799480175141920000e+001) (4, 1.24350657679845270000e+001) (5, 2.34305405137055580000e+000) (6, 5.34134531239593980000e-001) (7, -2.14067647605226700000e+001) (8, 1.59773457058475570000e-001) (0, -2.62752257274508460000e-001) (1, -6.66100137537363080000e-001) (2, 3.52514964706572230000e-001) (3, -2.19628728771887720000e-001) (4, 8.34313087869781760000e-001) (5, -1.08978158614373280000e+000) (6, 6.45093061749506760000e-001) (7, -1.90709331514796590000e+000) (8, 1.09102961882340270000e-001) (0, -8.49335295262272540000e+000) (1, 1.69183449534227810000e+000) (2, -3.09170844068692550000e-001) (3, -1.68911729581569080000e+001) (4, 2.75574274152990740000e+000) (5, 1.48657626975178890000e+001) (6, 2.21360329037569840000e+001) (7, 1.64026788459918080000e+001) (8, 6.96830301093414150000e-001) (0, 5.27419147648973910000e-001) (1, 1.85117150255747240000e+000) (2, 3.26736842951502200000e+000) (3, -7.53836398050186500000e+000) (4, -1.05389301290330570000e+001) (5, -1.80251727372526460000e+000) (6, -3.86358409921646300000e+000) (7, 7.39455791289066510000e+000) (8, 1.58434139510238400000e-002) (0, -2.71004424406188700000e+000) (1, 5.33204183852406200000e+000) (2, -2.80211244031475240000e+000) (3, -9.38238459702159840000e+000) (4, 1.52087791870498120000e+001) (5, 1.27103563715612520000e+001) (6, -1.12891850817070010000e+000) (7, 7.13793982136203110000e+000) (8, 4.22546383172542010000e-001) (0, -2.92742435776690290000e-001) (1, 9.27665309780698280000e-001) (2, 1.85131546509579460000e+000) (3, 1.04890251991485290000e+000) (4, 2.47670751476567430000e+000) (5, 1.39827273495558520000e+000) (6, 6.96481536328531940000e-001) (7, 1.52901241666955290000e+000) (8, 1.45220272931927160000e-001) (0, -6.39181243017519000000e-001) (1, -1.13812350774009840000e+001) (2, -4.68614293801661570000e+000) (3, 1.65703202333934210000e+001) (4, 1.49642827516793010000e+001) (5, -4.94935977127154980000e-002) (6, 3.49037240987985390000e+000) (7, -9.44295152742996180000e+000) (8, -3.20774124093221810000e-001) (0, 9.28592600613488270000e+000) (1, 1.70604809179101050000e+001) (2, -5.90451753270789490000e+000) (3, 1.21173335110771530000e+001) (4, 4.52781232414184840000e+000) (5, -1.66046342893622880000e+001) (6, -2.72490394353124930000e+001) (7, -1.51582483562274570000e+001) (8, -8.15224419243189890000e-001) (0, 8.92748520229673480000e+000) (1, -5.92379254615876700000e-001) (2, 9.41223358314779550000e+000) (3, 1.76082127861520870000e+001) (4, -3.20605245615144770000e+001) (5, -1.52347050397049680000e+001) (6, -1.99170024338429240000e+001) (7, -6.72482805841919440000e+000) (8, -6.20209713428325650000e-001) (0, 1.41007053787012880000e+000) (1, 1.42871343929410210000e+000) (2, 5.84001827076991290000e+000) (3, -1.68286130843835920000e+000) (4, -8.55923158378424100000e+000) (5, 2.18600189064050540000e+000) (6, 1.86635964643565440000e+000) (7, 3.06162092015125790000e+000) (8, -2.34214588299846980000e-001) (0, 1.35074413057462930000e+000) (1, 1.28912155233009800000e+001) (2, -1.20994194231580980000e+000) (3, 3.23019083648721760000e+000) (4, -1.40517830232416530000e+000) (5, -6.09913262284233860000e+000) (6, 4.88853462317427390000e+000) (7, -1.02538800879897250000e+001) (8, 7.49532319603742610000e-002) (0, 1.38681883310350410000e+000) (1, -9.32256790785096890000e+000) (2, -1.56179307549384940000e+000) (3, 1.68706834850358260000e+001) (4, -8.21300421425258520000e+000) (5, -1.39179261056487480000e+001) (6, -1.38696734464279240000e+000) (7, 8.60868292333526950000e+000) (8, -2.88307690198051410000e-001) (0, -1.59305958403801550000e-001) (1, 1.19092790525589740000e+000) (2, -4.75420955078642740000e-001) (3, -3.21290687544949010000e+000) (4, 2.20640711310545830000e-001) (5, 1.68959668799500240000e+000) (6, -2.37512856265735590000e-001) (7, -9.09604772669398290000e-002) (8, -6.08489565394743500000e-002) (0, 2.69614497879850610000e+000) (1, -3.68375968992427930000e+000) (2, 3.61048838173567120000e+000) (3, 1.06329265572979640000e+001) (4, 1.76281871448754370000e+001) (5, -6.95548018558708140000e+000) (6, -7.75286944041483570000e+000) (7, -9.02187893329253620000e-002) (8, -3.97269346127711450000e-002) (0, 1.29000325921194460000e+001) (1, 4.26329906511416730000e+000) (2, -1.40845559359615820000e+001) (3, -1.03010447664289260000e+000) (4, 3.75006545764083870000e+001) (5, -4.39997484860837890000e+001) (6, 3.32945967229221830000e+000) (7, 3.62609634313014690000e+001) (8, -4.26319809915139400000e-001) (0, -1.59910902667185570000e+000) (1, 3.62091107606597840000e+000) (2, -6.77594985349236010000e+000) (3, -1.24583107070876880000e+000) (4, 4.32380408948839090000e+000) (5, 2.54227501829444260000e-001) (6, 2.35644288706582130000e-001) (7, -1.06640692389318480000e+000) (8, 1.06355364678115430000e-001) (0, 2.41751471591032670000e+000) (1, 4.00985096000414920000e+000) (2, 4.59936990396511900000e+000) (3, -2.49248663831476500000e+000) (4, -4.75867740190306690000e+000) (5, -5.49591351884779390000e+000) (6, -5.19009080370638420000e-001) (7, -4.44911185860407570000e-001) (8, 4.18368717014961810000e-001) (0, 1.83314110461954800000e+000) (1, 1.53033640775602130000e+001) (2, 9.49712025312093470000e+000) (3, 2.36592181519771290000e+001) (4, 1.71007074691587160000e+000) (5, -2.47425849506471420000e+001) (6, 6.09676393750208770000e+000) (7, -2.71146884990257430000e+001) (8, 3.77924554829681620000e-001) (0, 1.19662682855328080000e+000) (1, -7.85681464205303650000e+000) (2, 5.62327807745952500000e+000) (3, 7.71757441611290140000e+000) (4, 1.86750738805395640000e+001) (5, -3.90977487977830010000e+000) (6, 4.18889636680637080000e+000) (7, -1.00214399170050790000e+001) (8, 4.12324500943673120000e-001) (0, -6.17991525306547280000e+000) (1, -9.77169263836673350000e+000) (2, -6.01984393096959460000e+000) (3, 2.39953342872966950000e+000) (4, 7.42562423259742040000e+000) (5, 1.50740110550760860000e+001) (6, -2.07636115875733970000e+001) (7, 1.38472438357295250000e+001) (8, 5.94412491471686070000e-001) (9, -2.40762819645643970000e-001) (10, 7.23307476278675930000e+000) (11, 5.56175005604759300000e-001) (12, -1.80842434056863680000e-001) (13, -9.39859831290776330000e-001) (14, 1.16677415855340330000e+000) (15, -4.89840683644658270000e-001) (16, 1.06435307524448100000e+000) (17, -4.94182645166547470000e-001) (18, 2.20637723075565440000e+000) (19, -6.20415262689902550000e-001) (20, 2.27253000150870470000e-001) (21, -2.91001760775307970000e+000) (22, 6.99365666964037900000e-001) (23, -4.00471986275733770000e-001) (24, 2.63055202774524230000e+000) (25, -4.69573925750216980000e-002) (26, -8.28347441047024510000e-001) (27, 6.31062675053150830000e-001) (28, -4.00864736864951440000e-001) (29, 5.20562080718782520000e-001) (9, -3.09584839633432130000e-002) (10, -4.69620075641931400000e+000) (11, -5.75593756212469660000e-001) (12, 5.35957148444463960000e-001) (13, 7.64210492926832960000e-001) (14, 6.52272103059080680000e-001) (15, 5.70610762310035270000e-001) (16, -6.82280993022987840000e-001) (17, 1.42809806077905750000e-001) (18, -2.16541847418313300000e+000) (19, 1.04229759698986380000e+000) (20, 3.10624896593095280000e-001) (21, 4.47961393096319420000e+000) (22, -1.02109237756342840000e+000) (23, 9.37425666546232440000e-002) (24, -1.97811116872734160000e+000) (25, 1.22585130718129150000e+000) (26, 1.90436984418339640000e-001) (27, 2.78809693172200390000e-001) (28, 5.11559864735224410000e-001) (29, 4.82728201821403190000e-001) (9, 8.20835403195227190000e-001) (10, -7.31335238389877680000e+000) (11, 7.93809576555459530000e-002) (12, 6.80636384392485460000e+000) (13, 1.51203704166256500000e+000) (14, 8.42539529323293570000e-001) (15, 4.78251596341597910000e+000) (16, -2.55926550404596050000e-001) (17, 3.51097039670810800000e-001) (18, 9.35765363500085660000e-001) (19, 8.42778090059694620000e-001) (20, -2.25741516361855270000e-001) (21, -4.31872853319475420000e+000) (22, -1.02840111841493580000e+000) (23, -2.25433313113804020000e-001) (24, 4.09747279342016140000e+000) (25, 2.98907216773909520000e+000) (26, 5.98719521964234060000e-003) (27, 5.04053483025658000000e-001) (28, 7.99933688307172440000e-003) (29, 5.70032721863648510000e-001) (9, 7.86590896502321610000e-001) (10, -1.69949562401391030000e+000) (11, 7.72719962922731930000e-001) (12, -3.27372264352224150000e+000) (13, 5.77773864409525160000e-001) (14, 8.02205673955375560000e-001) (15, -1.62110644304247180000e+000) (16, -6.40908249232316150000e-001) (17, 1.68168284098776670000e+000) (18, -2.17302666769117400000e+000) (19, 2.16714965696658400000e+000) (20, 1.68833271914676500000e+000) (21, 5.71235309053300620000e+000) (22, -1.22845663617839800000e+000) (23, 4.54939157626543580000e-001) (24, -1.91503078028477860000e+000) (25, 7.09834210215572030000e-001) (26, -4.62161341671156470000e-001) (27, 1.14321567371910530000e+000) (28, 1.34558092144545350000e+000) (29, 2.83623806277656710000e-001) (9, 3.12965164789093200000e+000) (10, -4.15399005311687120000e+000) (11, 8.76790104173555070000e-001) (12, -1.55378770096409900000e+000) (13, 2.23804179810015170000e+000) (14, 1.18013509725629360000e+000) (15, -4.37671952181628020000e-001) (16, 8.74886261172520330000e-001) (17, 6.53456834490744880000e-001) (18, 4.58747751794469490000e+000) (19, -1.25166171727115950000e+000) (20, 4.34623403903602770000e+000) (21, 5.74938869092557090000e-001) (22, -2.70818083633885510000e+000) (23, 3.39191166406571600000e-001) (24, 5.62853507185982330000e+000) (25, 1.22506981189997990000e+000) (26, 6.05515259532913070000e-001) (27, 1.36486608188371220000e+000) (28, 1.18235867201380020000e+000) (29, 6.29686404016735700000e-001) 
