FANN_FLO_2.1
num_layers=3
learning_rate=0.700000
connection_rate=1.000000
network_type=0
learning_momentum=0.000000
training_algorithm=2
train_error_function=1
train_stop_function=0
cascade_output_change_fraction=0.010000
quickprop_decay=-0.000100
quickprop_mu=1.750000
rprop_increase_factor=1.200000
rprop_decrease_factor=0.500000
rprop_delta_min=0.000000
rprop_delta_max=50.000000
rprop_delta_zero=0.100000
cascade_output_stagnation_epochs=12
cascade_candidate_change_fraction=0.010000
cascade_candidate_stagnation_epochs=12
cascade_max_out_epochs=150
cascade_max_cand_epochs=150
cascade_num_candidate_groups=2
bit_fail_limit=3.49999999999999980000e-001
cascade_candidate_limit=1.00000000000000000000e+003
cascade_weight_multiplier=4.00000000000000020000e-001
cascade_activation_functions_count=10
cascade_activation_functions=3 5 7 8 10 11 14 15 16 17 
cascade_activation_steepnesses_count=4
cascade_activation_steepnesses=2.50000000000000000000e-001 5.00000000000000000000e-001 7.50000000000000000000e-001 1.00000000000000000000e+000 
layer_sizes=9 4 6 
scale_included=0
neurons (num_inputs, activation_function, activation_steepness)=(0, 0, 0.00000000000000000000e+000) (0, 0, 0.00000000000000000000e+000) (0, 0, 0.00000000000000000000e+000) (0, 0, 0.00000000000000000000e+000) (0, 0, 0.00000000000000000000e+000) (0, 0, 0.00000000000000000000e+000) (0, 0, 0.00000000000000000000e+000) (0, 0, 0.00000000000000000000e+000) (0, 0, 0.00000000000000000000e+000) (9, 6, 5.00000000000000000000e-001) (9, 6, 5.00000000000000000000e-001) (9, 6, 5.00000000000000000000e-001) (0, 6, 0.00000000000000000000e+000) (4, 6, 5.00000000000000000000e-001) (4, 6, 5.00000000000000000000e-001) (4, 6, 5.00000000000000000000e-001) (4, 6, 5.00000000000000000000e-001) (4, 6, 5.00000000000000000000e-001) (0, 6, 0.00000000000000000000e+000) 
connections (connected_to_neuron, weight)=(0, 2.55301144597639370000e+000) (1, -5.30096687936286950000e+000) (2, -1.51267460905051740000e+000) (3, 2.59408771073994520000e-001) (4, 9.62632010622051840000e+000) (5, -9.23526835671885670000e+000) (6, -1.19218886775104010000e+001) (7, 8.77589027500380500000e+000) (8, -1.92954182621194010000e-001) (0, 4.95227416657930950000e+000) (1, -2.09455303595182360000e+000) (2, 2.69127840950310260000e+000) (3, -2.77548235920321360000e+000) (4, 1.49735535176174160000e+001) (5, -2.30768972637363950000e+001) (6, -2.16197917124414070000e+000) (7, 8.13398369452606910000e-001) (8, -1.13280206942870460000e+000) (0, 5.73891153733098180000e-001) (1, 1.06865633443490650000e+000) (2, 9.20278286550475830000e-001) (3, -9.24435469110234780000e-001) (4, 5.53297477214204080000e-001) (5, -1.29134924859343300000e+000) (6, 2.58777684154054380000e+000) (7, -2.80543431348853560000e+000) (8, -3.46901958120521600000e-001) (9, -8.53800788044830510000e-001) (10, 7.02280064908817450000e-001) (11, -2.25577734835942630000e+000) (12, 4.86078156711197030000e-001) (9, 1.27259738540382390000e+000) (10, -1.31450207526516970000e+000) (11, 3.48443380398011060000e+000) (12, 8.56211396092925740000e-001) (9, -3.34200472962497900000e-002) (10, -1.59106615005629530000e-001) (11, -1.02667998708075500000e-001) (12, 8.90598910302580430000e-001) (9, 1.66656849326138380000e+000) (10, -1.45534178949170800000e+000) (11, 4.98951971193969610000e+000) (12, 1.24088932191594030000e+000) (9, 8.40766191272909190000e-001) (10, -5.57104590249143380000e-001) (11, 1.40897841209590060000e+000) (12, 1.11334956970566920000e+000) 
