FANN_FLO_2.1
num_layers=3
learning_rate=0.700000
connection_rate=1.000000
network_type=0
learning_momentum=0.000000
training_algorithm=2
train_error_function=1
train_stop_function=0
cascade_output_change_fraction=0.010000
quickprop_decay=-0.000100
quickprop_mu=1.750000
rprop_increase_factor=1.200000
rprop_decrease_factor=0.500000
rprop_delta_min=0.000000
rprop_delta_max=50.000000
rprop_delta_zero=0.100000
cascade_output_stagnation_epochs=12
cascade_candidate_change_fraction=0.010000
cascade_candidate_stagnation_epochs=12
cascade_max_out_epochs=150
cascade_max_cand_epochs=150
cascade_num_candidate_groups=2
bit_fail_limit=3.49999999999999980000e-001
cascade_candidate_limit=1.00000000000000000000e+003
cascade_weight_multiplier=4.00000000000000020000e-001
cascade_activation_functions_count=10
cascade_activation_functions=3 5 7 8 10 11 14 15 16 17 
cascade_activation_steepnesses_count=4
cascade_activation_steepnesses=2.50000000000000000000e-001 5.00000000000000000000e-001 7.50000000000000000000e-001 1.00000000000000000000e+000 
layer_sizes=9 21 6 
scale_included=0
neurons (num_inputs, activation_function, activation_steepness)=(0, 0, 0.00000000000000000000e+000) (0, 0, 0.00000000000000000000e+000) (0, 0, 0.00000000000000000000e+000) (0, 0, 0.00000000000000000000e+000) (0, 0, 0.00000000000000000000e+000) (0, 0, 0.00000000000000000000e+000) (0, 0, 0.00000000000000000000e+000) (0, 0, 0.00000000000000000000e+000) (0, 0, 0.00000000000000000000e+000) (9, 6, 5.00000000000000000000e-001) (9, 6, 5.00000000000000000000e-001) (9, 6, 5.00000000000000000000e-001) (9, 6, 5.00000000000000000000e-001) (9, 6, 5.00000000000000000000e-001) (9, 6, 5.00000000000000000000e-001) (9, 6, 5.00000000000000000000e-001) (9, 6, 5.00000000000000000000e-001) (9, 6, 5.00000000000000000000e-001) (9, 6, 5.00000000000000000000e-001) (9, 6, 5.00000000000000000000e-001) (9, 6, 5.00000000000000000000e-001) (9, 6, 5.00000000000000000000e-001) (9, 6, 5.00000000000000000000e-001) (9, 6, 5.00000000000000000000e-001) (9, 6, 5.00000000000000000000e-001) (9, 6, 5.00000000000000000000e-001) (9, 6, 5.00000000000000000000e-001) (9, 6, 5.00000000000000000000e-001) (9, 6, 5.00000000000000000000e-001) (0, 6, 0.00000000000000000000e+000) (21, 6, 5.00000000000000000000e-001) (21, 6, 5.00000000000000000000e-001) (21, 6, 5.00000000000000000000e-001) (21, 6, 5.00000000000000000000e-001) (21, 6, 5.00000000000000000000e-001) (0, 6, 0.00000000000000000000e+000) 
connections (connected_to_neuron, weight)=(0, -2.69045577532493250000e-001) (1, 5.77917655973037280000e+000) (2, -1.35343984740602670000e+000) (3, 1.36159370537597080000e+000) (4, -3.97982676636115510000e+000) (5, -7.56730412426942220000e-002) (6, 6.73386515236498530000e+000) (7, -2.67869882133185790000e+000) (8, 2.63718844125807040000e-002) (0, 2.21703977008553680000e-001) (1, 1.19072774041402310000e+000) (2, -5.60964797422484060000e-001) (3, -2.89018205755600890000e-001) (4, -3.63685110342417860000e+000) (5, -5.47680821142194960000e-001) (6, 2.57557958231202110000e+000) (7, 4.83129048819581130000e-001) (8, 1.42868295725528250000e-002) (0, 4.91451885617440740000e-001) (1, -3.35818713079352570000e-001) (2, 7.26023953140701010000e-001) (3, 4.60778027537884330000e-001) (4, -6.05688680497725950000e-001) (5, -3.15119651481353680000e-001) (6, -5.12519268494826650000e-001) (7, 1.85579827799485520000e+000) (8, 1.59765216036121120000e-002) (0, 3.70932717234823410000e-001) (1, -7.08045219146718810000e-001) (2, 6.77578842260053050000e-001) (3, 1.04221498220127320000e+000) (4, -1.66140874704450850000e+000) (5, -6.03970973605609980000e+000) (6, -1.40483350248610920000e+000) (7, -2.47854448423935340000e+000) (8, 9.56895166390671350000e-002) (0, 1.47086028752466530000e+001) (1, -9.36933502713729100000e+000) (2, -5.75513259094591870000e+001) (3, 1.03871811142769080000e+001) (4, 5.71709547298433310000e+001) (5, -1.37420674348009700000e+002) (6, 8.72261841706759920000e+001) (7, 3.04496498330677450000e+001) (8, 1.03157255260505210000e+000) (0, 2.76256852542972100000e+000) (1, 1.12813680653938510000e+001) (2, -7.27393652485888880000e+000) (3, -3.64203449196901450000e+001) (4, -1.33621229512043200000e+000) (5, 1.53627849685399780000e+001) (6, 3.39836598943707460000e+001) (7, -6.02394089650101530000e+000) (8, 4.24963315115200300000e-001) (0, -3.40148632484813970000e+000) (1, 8.27008230184238260000e+000) (2, 6.62233514493252160000e+000) (3, -4.30887126313298170000e-001) (4, 1.46170474793297120000e+000) (5, -3.79628863587363300000e+000) (6, -1.02028090380844640000e+000) (7, -1.67308299233097220000e+000) (8, 5.33837655856469130000e-002) (0, -6.53692783389653310000e-002) (1, -8.55398147384032530000e-001) (2, 1.80982061865592620000e-001) (3, 2.15927637327012120000e+000) (4, 5.69599096855795790000e-001) (5, -1.81976053694210880000e-001) (6, 3.86474133764082070000e-001) (7, 1.70383867922756150000e+000) (8, 1.72652123628799950000e-001) (0, -2.04785777523569190000e+001) (1, -5.19221822715684520000e+001) (2, 1.12937934733662410000e+001) (3, -1.52294695346328930000e+001) (4, -6.22917889544240120000e+000) (5, 9.94723463919436490000e+000) (6, 4.23006643252234230000e+000) (7, 1.92080212066677270000e+001) (8, -8.09645177434272560000e-001) (0, 1.30078698263620770000e+000) (1, 1.23527038816655570000e+001) (2, -6.56757444140330640000e+000) (3, 1.28857411191679860000e+000) (4, -2.44322097310371420000e+000) (5, -7.21740616075037170000e+000) (6, 1.42649270277851370000e+000) (7, 5.65706864520852610000e-001) (8, 6.04813501593741480000e-001) (0, 1.03703558737963220000e+001) (1, -3.43321184926505120000e+000) (2, 1.94028859476286470000e+001) (3, 5.06009485665030430000e+001) (4, -2.90775106894001990000e+001) (5, -4.29416660432717730000e+001) (6, 2.25872489780121630000e+001) (7, -1.70569266356598030000e+001) (8, -5.82433152359174480000e-001) (0, 4.98288860077434940000e+000) (1, -9.46684962724374480000e+000) (2, 2.38056857414601910000e+001) (3, 3.13118296799442500000e+001) (4, -3.11211330112622520000e+001) (5, -1.02928142903152630000e+001) (6, -2.15773085141606310000e+001) (7, 4.05151660479309610000e+001) (8, -7.33468690982255980000e-001) (0, 2.56346520729481930000e-003) (1, -4.06134913410140630000e+000) (2, 5.51531820890130040000e+000) (3, 7.88997245510295460000e+000) (4, -7.17155241815200120000e+000) (5, -1.13939697362673260000e+001) (6, 2.61914104753476010000e+000) (7, -1.30466383214402540000e+001) (8, 1.63033654993824880000e-001) (0, -2.83020206628272620000e-003) (1, -3.74308252914726670000e+000) (2, -2.19535041183468890000e+000) (3, -3.30691023999750880000e+000) (4, 1.13245225905932600000e+000) (5, -9.39035924481505410000e-001) (6, 2.91842642949534040000e+000) (7, -8.43725493916184810000e+000) (8, 2.97486125007809350000e-001) (0, 5.97288063600405380000e+000) (1, 1.95187266006408590000e+000) (2, 2.32349028843986040000e+001) (3, 5.31766116964766620000e+001) (4, -3.45476685917782050000e+001) (5, -2.58087648522976170000e+001) (6, 5.18706808190854130000e+000) (7, -1.78410852943558030000e+001) (8, -4.40043195004917620000e-001) (0, 8.26081514433867350000e+000) (1, 2.14690422776310610000e+001) (2, -9.48995797979662290000e+000) (3, 6.10168959954754970000e+000) (4, 1.72215786655608660000e+000) (5, -7.80148676669203930000e+000) (6, -2.76693385586968890000e+001) (7, -1.59492924885061860000e+001) (8, 4.32614490317611460000e-001) (0, -3.29697112358635690000e-001) (1, -2.21838221775285120000e-001) (2, 6.07722734826053210000e-001) (3, -6.70273976570525540000e-002) (4, 1.24757210944021210000e+000) (5, -7.47185034940985650000e-001) (6, 8.04462283387124110000e-001) (7, -5.38078557250705410000e-001) (8, 1.90455617093781060000e-001) (0, -7.25489892904128020000e+000) (1, 4.98404207236682950000e+000) (2, -2.46422006492308170000e+000) (3, -8.55456755717614210000e+000) (4, 9.36020176777829070000e+000) (5, 1.36375558062308450000e+001) (6, -3.67173774462513310000e-001) (7, 2.03037312723942560000e+001) (8, 2.05056647338055040000e-001) (0, 2.36069751340910190000e+000) (1, -4.63956880637501090000e+000) (2, 3.30192094268857040000e-001) (3, 5.69168174771045980000e+000) (4, 1.43002282463015500000e+001) (5, -4.53069242904454670000e+000) (6, 4.50259373883482630000e+000) (7, -7.70398576836569850000e+000) (8, 4.68638887054961650000e-001) (0, 8.84496662625686980000e+000) (1, -1.46336760338420000000e+000) (2, 4.79985179893357830000e+000) (3, 7.07005684057612530000e+000) (4, -2.28343288589482290000e+001) (5, -1.19164968533831990000e+001) (6, 4.91271521230660150000e-001) (7, -6.72956872268066420000e+000) (8, -1.81523230667311630000e-001) (9, -8.46553402110155950000e-001) (10, 3.15107676713321980000e+000) (11, -6.30765667602077860000e+000) (12, 1.87825668205881070000e+000) (13, -2.17575155282029890000e-001) (14, 6.35510646172725790000e-001) (15, -2.27184911457257590000e+000) (16, -3.76408165295855520000e-001) (17, 6.99997346595548690000e-001) (18, -4.17139239421774170000e-001) (19, 9.84753140035221190000e-001) (20, -1.30226480456722970000e-001) (21, 2.39587312140705280000e+000) (22, -4.85748059797460560000e+000) (23, -9.01050500009364710000e-001) (24, 1.01370007014605030000e+000) (25, 6.01106730731046300000e+000) (26, 1.25672365227162230000e+000) (27, 6.52492680475228240000e-001) (28, -3.80631926209697490000e-001) (29, 5.25795129022916920000e-001) (9, -3.22518903255812890000e-001) (10, -1.10014623372456400000e+000) (11, 3.57724723151713380000e+000) (12, -2.03299139718600230000e+000) (13, -1.97346566537707840000e-002) (14, -6.74748445564364310000e-001) (15, 3.50121957215284330000e-001) (16, -3.89900142200889600000e+000) (17, -4.53503809218632480000e-001) (18, 1.20993731244627760000e+000) (19, -4.88706599503107850000e-001) (20, -1.58407053904407290000e-001) (21, -8.67864532624775140000e-001) (22, 1.29754815565738850000e+000) (23, 3.86582834461479950000e-001) (24, -8.63235218156975570000e-001) (25, 1.34248335409515420000e+000) (26, -6.10776806469067730000e-001) (27, -4.78002420416685280000e-001) (28, 2.76084567806743670000e-001) (29, 8.50636854055893620000e-001) (9, 2.40448879797220580000e+000) (10, -2.87088425338875770000e+000) (11, 8.79428586097746920000e+000) (12, 1.83105795039252390000e+000) (13, -2.07408983523791580000e-001) (14, -7.33101140924309220000e-001) (15, 1.35930999220327850000e+000) (16, 4.79594665525070770000e+000) (17, 1.81624926183929710000e-002) (18, 3.93950718064338180000e-001) (19, 3.93621209033729190000e-002) (20, -3.77215943123322350000e-001) (21, -1.93794664055929000000e+000) (22, 5.12587939847150050000e+000) (23, -7.42402757744769770000e-002) (24, -3.24797566746415020000e-001) (25, -3.74139797388481110000e+000) (26, 1.11162330781070670000e+000) (27, 3.08598556217958510000e-001) (28, 1.57267799870550640000e+000) (29, 2.59090232197320910000e-001) (9, 1.51720607122240380000e+000) (10, -4.34084538059327140000e+000) (11, 4.58000669694364860000e+000) (12, -5.33758053897242220000e+000) (13, 2.64277098352362850000e-001) (14, -9.10523812655199660000e-001) (15, 3.58084332345228910000e-001) (16, -7.99060517418777480000e+000) (17, -4.04629602863455620000e-001) (18, 2.02914861573961550000e+000) (19, -1.60198702981578280000e+000) (20, 7.45214665368861160000e-001) (21, 3.78460629751915020000e-001) (22, 3.36228349597528810000e+000) (23, 6.95985594346118510000e-001) (24, -9.77455133325537020000e-001) (25, 4.63073996901858200000e+000) (26, 1.71477195817489550000e-001) (27, 7.88183471356176060000e-001) (28, 1.41317642011186310000e+000) (29, 4.07867326080009810000e-001) (9, -6.26501501889431630000e+000) (10, 7.51353111277448970000e+000) (11, -4.47697776649557700000e+000) (12, -3.96662277336558990000e+000) (13, 1.72819868833232890000e-001) (14, -5.45657631145219370000e-001) (15, 5.55795443370445620000e-001) (16, -2.00536389153416560000e+000) (17, 3.29102894867645880000e-001) (18, 1.07193967854381200000e+000) (19, -9.80813399126917450000e-001) (20, -1.01504265523207640000e+000) (21, 4.67624795796204360000e-001) (22, -1.86296901419189690000e+000) (23, 1.28486588733426130000e+000) (24, -1.47271216340298550000e-001) (25, 1.99406976607042070000e+000) (26, 1.65618606755516720000e+000) (27, 1.92092128716660900000e+000) (28, 2.24808592521215990000e+000) (29, 7.24299944102381300000e-001) 
