FANN_FLO_2.1
num_layers=3
learning_rate=0.700000
connection_rate=1.000000
network_type=0
learning_momentum=0.000000
training_algorithm=2
train_error_function=1
train_stop_function=0
cascade_output_change_fraction=0.010000
quickprop_decay=-0.000100
quickprop_mu=1.750000
rprop_increase_factor=1.200000
rprop_decrease_factor=0.500000
rprop_delta_min=0.000000
rprop_delta_max=50.000000
rprop_delta_zero=0.100000
cascade_output_stagnation_epochs=12
cascade_candidate_change_fraction=0.010000
cascade_candidate_stagnation_epochs=12
cascade_max_out_epochs=150
cascade_max_cand_epochs=150
cascade_num_candidate_groups=2
bit_fail_limit=3.49999999999999980000e-001
cascade_candidate_limit=1.00000000000000000000e+003
cascade_weight_multiplier=4.00000000000000020000e-001
cascade_activation_functions_count=10
cascade_activation_functions=3 5 7 8 10 11 14 15 16 17 
cascade_activation_steepnesses_count=4
cascade_activation_steepnesses=2.50000000000000000000e-001 5.00000000000000000000e-001 7.50000000000000000000e-001 1.00000000000000000000e+000 
layer_sizes=9 4 6 
scale_included=0
neurons (num_inputs, activation_function, activation_steepness)=(0, 0, 0.00000000000000000000e+000) (0, 0, 0.00000000000000000000e+000) (0, 0, 0.00000000000000000000e+000) (0, 0, 0.00000000000000000000e+000) (0, 0, 0.00000000000000000000e+000) (0, 0, 0.00000000000000000000e+000) (0, 0, 0.00000000000000000000e+000) (0, 0, 0.00000000000000000000e+000) (0, 0, 0.00000000000000000000e+000) (9, 6, 5.00000000000000000000e-001) (9, 6, 5.00000000000000000000e-001) (9, 6, 5.00000000000000000000e-001) (0, 6, 0.00000000000000000000e+000) (4, 6, 5.00000000000000000000e-001) (4, 6, 5.00000000000000000000e-001) (4, 6, 5.00000000000000000000e-001) (4, 6, 5.00000000000000000000e-001) (4, 6, 5.00000000000000000000e-001) (0, 6, 0.00000000000000000000e+000) 
connections (connected_to_neuron, weight)=(0, -1.39042191721890410000e+000) (1, -9.62076072622198960000e-001) (2, -3.12618370767695590000e+000) (3, 4.01797527026533710000e+000) (4, -2.06102432722494460000e-001) (5, 2.84946941675738370000e+000) (6, -6.13296850525522160000e+000) (7, 9.33259158762063200000e+000) (8, 6.93745276526431030000e-001) (0, -6.78702271082965410000e+000) (1, -6.31646920225669730000e+000) (2, -1.09571242391325860000e+001) (3, 1.35407780114273670000e+001) (4, -7.85658821698426650000e+000) (5, 4.39223682137768140000e+001) (6, -4.19969569601257720000e+001) (7, 3.08104538044693750000e+001) (8, 4.48734868151079600000e-001) (0, 1.20366065815929240000e+001) (1, 2.26786480255519200000e+000) (2, 3.24726506363729950000e-002) (3, -4.74819871859660660000e+000) (4, 2.92315266875211360000e+001) (5, -8.34196417772118080000e+001) (6, 4.77972922678189960000e+001) (7, 8.04261215511782870000e-001) (8, 1.76598298876091270000e-001) (9, 8.18713083695706500000e-001) (10, -3.68493258039807590000e-001) (11, -2.01482450879590190000e-001) (12, 4.16566026078835420000e-001) (9, -5.99593873626790510000e-001) (10, 2.53450417399169130000e-001) (11, -1.43388219993488000000e-002) (12, 9.75706491861368260000e-001) (9, 6.72898508425746830000e-001) (10, -2.94264755636792160000e-001) (11, -2.25919427875316490000e-001) (12, 8.59543442891037460000e-001) (9, -2.38204412875508710000e+000) (10, 1.03773039103642020000e+000) (11, 5.06603556315125550000e-001) (12, 1.50818358515102900000e+000) (9, -8.06418998447226420000e-001) (10, 6.17550170931163820000e-001) (11, 4.16689080064388210000e-001) (12, 1.16099731366167360000e+000) 
