FANN_FLO_2.1
num_layers=3
learning_rate=0.700000
connection_rate=1.000000
network_type=0
learning_momentum=0.000000
training_algorithm=2
train_error_function=1
train_stop_function=0
cascade_output_change_fraction=0.010000
quickprop_decay=-0.000100
quickprop_mu=1.750000
rprop_increase_factor=1.200000
rprop_decrease_factor=0.500000
rprop_delta_min=0.000000
rprop_delta_max=50.000000
rprop_delta_zero=0.100000
cascade_output_stagnation_epochs=12
cascade_candidate_change_fraction=0.010000
cascade_candidate_stagnation_epochs=12
cascade_max_out_epochs=150
cascade_max_cand_epochs=150
cascade_num_candidate_groups=2
bit_fail_limit=3.49999999999999980000e-001
cascade_candidate_limit=1.00000000000000000000e+003
cascade_weight_multiplier=4.00000000000000020000e-001
cascade_activation_functions_count=10
cascade_activation_functions=3 5 7 8 10 11 14 15 16 17 
cascade_activation_steepnesses_count=4
cascade_activation_steepnesses=2.50000000000000000000e-001 5.00000000000000000000e-001 7.50000000000000000000e-001 1.00000000000000000000e+000 
layer_sizes=9 4 6 
scale_included=0
neurons (num_inputs, activation_function, activation_steepness)=(0, 0, 0.00000000000000000000e+000) (0, 0, 0.00000000000000000000e+000) (0, 0, 0.00000000000000000000e+000) (0, 0, 0.00000000000000000000e+000) (0, 0, 0.00000000000000000000e+000) (0, 0, 0.00000000000000000000e+000) (0, 0, 0.00000000000000000000e+000) (0, 0, 0.00000000000000000000e+000) (0, 0, 0.00000000000000000000e+000) (9, 6, 5.00000000000000000000e-001) (9, 6, 5.00000000000000000000e-001) (9, 6, 5.00000000000000000000e-001) (0, 6, 0.00000000000000000000e+000) (4, 6, 5.00000000000000000000e-001) (4, 6, 5.00000000000000000000e-001) (4, 6, 5.00000000000000000000e-001) (4, 6, 5.00000000000000000000e-001) (4, 6, 5.00000000000000000000e-001) (0, 6, 0.00000000000000000000e+000) 
connections (connected_to_neuron, weight)=(0, 1.30279448570715360000e+000) (1, -4.40198424575251820000e-001) (2, 4.79681815832657180000e-001) (3, -1.12871013617311160000e+000) (4, 2.96110397205338450000e+000) (5, -3.00883694725376040000e+000) (6, 6.56762710230695770000e-001) (7, -1.41353283927747510000e+000) (8, 2.17054332891791880000e-001) (0, -9.43735208647895970000e+000) (1, 3.76480491189377810000e+000) (2, -7.24897677904420500000e+000) (3, 3.46518315816913790000e+000) (4, -3.13319505368956790000e+001) (5, 6.27788186241412940000e+001) (6, -2.23886167521104550000e+001) (7, 1.10821958174923940000e+001) (8, 2.35833060622502930000e+000) (0, 2.99995622429294960000e+000) (1, -1.30871058582959150000e+000) (2, 7.52172586205445800000e-001) (3, -2.06870930386172700000e+000) (4, 7.34587881188015590000e+000) (5, -7.70983908777195650000e+000) (6, 8.14453764532175330000e-001) (7, -1.93879876670099670000e+000) (8, 3.10181448270012600000e-002) (9, -2.51394889707171170000e-001) (10, -3.28266574984487030000e-001) (11, -7.59602443526474660000e-001) (12, 8.73917226654026940000e-001) (9, 2.64361553274487940000e+000) (10, 3.28507000983003060000e-001) (11, -7.69227655798173760000e-001) (12, 3.33626224016823240000e-001) (9, -1.00317721477326120000e+000) (10, 4.69147938147721420000e-002) (11, 2.74037222590729880000e-001) (12, 1.05220811975961960000e+000) (9, 2.86888350713856970000e+000) (10, 2.30145200109850210000e-001) (11, -6.45483882509491850000e-001) (12, 5.64689518253405190000e-001) (9, -4.89911519685356820000e+000) (10, 1.79311405488010390000e-001) (11, 2.96067387383403920000e+000) (12, 1.36631881462924820000e+000) 
