FANN_FLO_2.1
num_layers=3
learning_rate=0.700000
connection_rate=1.000000
network_type=0
learning_momentum=0.000000
training_algorithm=2
train_error_function=1
train_stop_function=0
cascade_output_change_fraction=0.010000
quickprop_decay=-0.000100
quickprop_mu=1.750000
rprop_increase_factor=1.200000
rprop_decrease_factor=0.500000
rprop_delta_min=0.000000
rprop_delta_max=50.000000
rprop_delta_zero=0.100000
cascade_output_stagnation_epochs=12
cascade_candidate_change_fraction=0.010000
cascade_candidate_stagnation_epochs=12
cascade_max_out_epochs=150
cascade_max_cand_epochs=150
cascade_num_candidate_groups=2
bit_fail_limit=3.49999999999999980000e-001
cascade_candidate_limit=1.00000000000000000000e+003
cascade_weight_multiplier=4.00000000000000020000e-001
cascade_activation_functions_count=10
cascade_activation_functions=3 5 7 8 10 11 14 15 16 17 
cascade_activation_steepnesses_count=4
cascade_activation_steepnesses=2.50000000000000000000e-001 5.00000000000000000000e-001 7.50000000000000000000e-001 1.00000000000000000000e+000 
layer_sizes=9 41 6 
scale_included=0
neurons (num_inputs, activation_function, activation_steepness)=(0, 0, 0.00000000000000000000e+000) (0, 0, 0.00000000000000000000e+000) (0, 0, 0.00000000000000000000e+000) (0, 0, 0.00000000000000000000e+000) (0, 0, 0.00000000000000000000e+000) (0, 0, 0.00000000000000000000e+000) (0, 0, 0.00000000000000000000e+000) (0, 0, 0.00000000000000000000e+000) (0, 0, 0.00000000000000000000e+000) (9, 6, 5.00000000000000000000e-001) (9, 6, 5.00000000000000000000e-001) (9, 6, 5.00000000000000000000e-001) (9, 6, 5.00000000000000000000e-001) (9, 6, 5.00000000000000000000e-001) (9, 6, 5.00000000000000000000e-001) (9, 6, 5.00000000000000000000e-001) (9, 6, 5.00000000000000000000e-001) (9, 6, 5.00000000000000000000e-001) (9, 6, 5.00000000000000000000e-001) (9, 6, 5.00000000000000000000e-001) (9, 6, 5.00000000000000000000e-001) (9, 6, 5.00000000000000000000e-001) (9, 6, 5.00000000000000000000e-001) (9, 6, 5.00000000000000000000e-001) (9, 6, 5.00000000000000000000e-001) (9, 6, 5.00000000000000000000e-001) (9, 6, 5.00000000000000000000e-001) (9, 6, 5.00000000000000000000e-001) (9, 6, 5.00000000000000000000e-001) (9, 6, 5.00000000000000000000e-001) (9, 6, 5.00000000000000000000e-001) (9, 6, 5.00000000000000000000e-001) (9, 6, 5.00000000000000000000e-001) (9, 6, 5.00000000000000000000e-001) (9, 6, 5.00000000000000000000e-001) (9, 6, 5.00000000000000000000e-001) (9, 6, 5.00000000000000000000e-001) (9, 6, 5.00000000000000000000e-001) (9, 6, 5.00000000000000000000e-001) (9, 6, 5.00000000000000000000e-001) (9, 6, 5.00000000000000000000e-001) (9, 6, 5.00000000000000000000e-001) (9, 6, 5.00000000000000000000e-001) (9, 6, 5.00000000000000000000e-001) (9, 6, 5.00000000000000000000e-001) (9, 6, 5.00000000000000000000e-001) (9, 6, 5.00000000000000000000e-001) (9, 6, 5.00000000000000000000e-001) (9, 6, 5.00000000000000000000e-001) (0, 6, 0.00000000000000000000e+000) (41, 6, 5.00000000000000000000e-001) (41, 6, 5.00000000000000000000e-001) (41, 6, 5.00000000000000000000e-001) (41, 6, 5.00000000000000000000e-001) (41, 6, 5.00000000000000000000e-001) (0, 6, 0.00000000000000000000e+000) 
connections (connected_to_neuron, weight)=(0, -3.30989363723307840000e-001) (1, 9.40224844770732980000e-001) (2, 8.78354455466438640000e-001) (3, -5.24046575088354950000e-001) (4, -1.28897220753314640000e-001) (5, -5.90988270766745870000e-001) (6, -1.78384075877591810000e-001) (7, -4.74491957455529470000e-001) (8, -3.63460334149177940000e-001) (0, 2.58223939829181460000e-001) (1, 7.57558621674469410000e-001) (2, 2.07028756616516580000e+000) (3, 4.49961430520771640000e-001) (4, 7.92338662865464950000e-001) (5, 6.43237897840216790000e-001) (6, 7.69011283757839450000e-001) (7, 9.35205652229697090000e-001) (8, 4.34391029781797220000e-001) (0, 4.14648388176998280000e-001) (1, 1.13577819593729030000e+000) (2, 1.05751258038968740000e+000) (3, 1.42289844627387140000e-001) (4, 7.08899096606363850000e-001) (5, 3.55390312330379990000e-001) (6, 8.33809371994765010000e-001) (7, 1.03944068122741440000e+000) (8, 2.69145227604722540000e-001) (0, 5.95247272955997000000e-001) (1, 6.19387137818672940000e-001) (2, 1.17981137424192270000e+000) (3, 3.01257892633534030000e-001) (4, 9.59596283032126410000e-001) (5, 6.23672455880653790000e-001) (6, 8.24648581430694640000e-001) (7, 8.90674122558923090000e-001) (8, 2.62712515078658230000e-001) (0, 6.38044001786248740000e+001) (1, 1.75609405623367790000e+002) (2, -5.51586780168371290000e+001) (3, 3.74239272033062420000e+001) (4, -1.51973808399103940000e+001) (5, -1.11536023056674150000e+002) (6, 3.10573366447140810000e+001) (7, 1.10433226012903890000e+002) (8, 4.56584432133891300000e+000) (0, 1.67305039928793290000e+000) (1, 2.42677593279770360000e+000) (2, 1.50488275944539350000e+000) (3, 8.97732906505188310000e+000) (4, 4.48926401534029180000e-001) (5, -1.03115565926183930000e+001) (6, -4.88550440983156340000e+000) (7, -1.61854178817157400000e+001) (8, -2.78775393409176620000e-001) (0, -1.01201566495776900000e+000) (1, 2.85147778850946100000e+001) (2, -1.82166056986874590000e+001) (3, -2.60475181258223320000e+001) (4, -4.85509637381515450000e+001) (5, 2.71690513905319370000e+001) (6, 7.87297798636782740000e+001) (7, 1.21748097156724210000e+000) (8, 5.54943752945746940000e-001) (0, -6.11366054342483370000e-001) (1, 3.71673284422300960000e+000) (2, 2.02918177215183600000e-001) (3, 3.71912148909171790000e-001) (4, 7.02314561104916410000e-001) (5, -7.32160012419728720000e-001) (6, 3.55408580911951040000e-001) (7, 1.35906219087569120000e+000) (8, -3.34582097945762820000e-001) (0, 1.18742580805794820000e+001) (1, 5.55774735057611040000e+000) (2, -8.02021773319939510000e+000) (3, 1.49049478991481230000e+001) (4, 6.35582663116179520000e+000) (5, 2.89735661644583370000e+001) (6, -3.95009566075972740000e+001) (7, -8.00597102072156730000e+000) (8, -1.08782668608988110000e+000) (0, 1.17348627150222100000e+000) (1, -5.70031756038197220000e-001) (2, -2.15794878579501150000e+000) (3, 6.79812436588501610000e+000) (4, -4.55842435313135930000e+000) (5, -5.59018146305914690000e+000) (6, -6.98663743382692990000e-001) (7, -1.11612774867535940000e+000) (8, 7.00664869754763940000e-001) (0, -1.07463741419352350000e+000) (1, -6.95829879575937780000e-001) (2, -5.95417178929057390000e+000) (3, -1.99025208774458110000e+000) (4, 2.61032220244025080000e+000) (5, -9.52692250807891660000e-001) (6, 1.29320114848658550000e+000) (7, 3.78827745585719910000e-001) (8, -1.05137274424492930000e-001) (0, 2.05027032313408330000e-001) (1, 7.66337778759400570000e-001) (2, 1.18370538842917680000e+000) (3, -1.16598510774928710000e+000) (4, 5.75090450857660200000e-001) (5, 4.87494370479989170000e-001) (6, 5.02297913719412240000e-001) (7, 7.11467974439741630000e-001) (8, -1.63671089843479640000e-001) (0, 2.76012246967091460000e+000) (1, -3.33660168706925440000e-002) (2, 1.50099062926608180000e-001) (3, -7.54906786035959330000e+000) (4, -9.44040125041847310000e+000) (5, 1.02190569750010240000e+000) (6, -1.63015932192076800000e-001) (7, -1.36495697002742350000e+001) (8, -2.65653134952764210000e-001) (0, 5.07952120863000570000e-002) (1, 3.41588628901474230000e-001) (2, 1.19518495511361930000e+000) (3, 6.07079184549672020000e-001) (4, 9.39424702981276560000e-001) (5, 8.24019992258367970000e-001) (6, 8.87234420791174090000e-001) (7, 9.72130222310094160000e-001) (8, 2.37593341610919690000e-001) (0, -3.13710933548914730000e+000) (1, -1.18891939427266240000e+001) (2, 4.82095908778468570000e+001) (3, 1.89357992137397770000e+001) (4, -5.13531152630518140000e+000) (5, -4.76002726443754030000e+000) (6, -2.05190948709897650000e+001) (7, -6.46489902129083840000e+000) (8, 6.86339251249620810000e-001) (0, -1.04218439218388640000e+001) (1, 8.74449465109881710000e+000) (2, 8.98357276858347680000e-002) (3, -1.55155941966125930000e+001) (4, -1.75313817954250840000e+001) (5, 2.07334615471778110000e+001) (6, -1.06304371793092240000e+001) (7, -9.56152117155203870000e-001) (8, -4.78567001899008970000e-001) (0, 5.43861624267603980000e-001) (1, 2.40297613294521590000e-001) (2, 1.24613094369047790000e+000) (3, 3.68686499550495710000e-001) (4, 9.14606558018747460000e-001) (5, 8.92659990294423890000e-001) (6, 8.19258884439422070000e-001) (7, 9.01285385704531430000e-001) (8, 4.51051530830246850000e-001) (0, 1.99762878555542820000e-002) (1, 8.38846496120715710000e-001) (2, 1.13090433404642840000e+000) (3, 9.23672613891547760000e-001) (4, 9.54113000515623530000e-001) (5, 9.57455228934004250000e-001) (6, 9.67534448571112260000e-001) (7, 9.92552810421937660000e-001) (8, 2.51894451079599900000e-001) (0, -4.62441078201086650000e-001) (1, 5.58415615375748350000e-001) (2, 1.74405190443828350000e-001) (3, -2.62954341227592090000e-001) (4, -1.18932232830678030000e-001) (5, -6.30788439409468940000e-001) (6, -1.93223782511097510000e-001) (7, -3.15046409162851760000e-001) (8, -3.27584541085912730000e-001) (0, 2.84123744389113010000e+000) (1, 1.60536493301395280000e+001) (2, 7.88315871941488930000e+000) (3, -2.07904694104028810000e+001) (4, -3.80190069075584560000e+001) (5, 1.12115272056023390000e+001) (6, 3.84435278488462280000e+000) (7, 3.33252264733168670000e+001) (8, 1.16702534142124910000e-001) (0, 3.60563968778823970000e+000) (1, 1.66670148293616580000e+001) (2, -1.36590438488571470000e+001) (3, -4.73211786510879690000e+001) (4, -3.61498612051006550000e+000) (5, 2.79427096901997740000e+001) (6, 4.75758328320655650000e+001) (7, -1.18907435366059830000e+001) (8, 1.03892644535581900000e-001) (0, 1.40807642754027360000e+001) (1, 6.68235131861374180000e-001) (2, 7.14259339969682830000e+000) (3, -3.03729483184907810000e+001) (4, -1.23486008526627290000e+001) (5, 7.32703383126676190000e+001) (6, -3.50604496715608320000e+001) (7, -3.77785419962313540000e+000) (8, -1.10444295495209400000e+000) (0, 1.46508236984387270000e-002) (1, 7.69037521680444480000e-001) (2, -2.09376793349512620000e+000) (3, -1.66741403833981780000e-001) (4, -8.19350055323029070000e-001) (5, -4.12414788433327130000e+000) (6, 4.82074848470296050000e+000) (7, -2.11272579674103870000e+000) (8, 1.85106722433473650000e-001) (0, -3.00398799293366550000e-002) (1, 3.66366300698544420000e-001) (2, -2.42382321076872990000e-001) (3, -3.31568147812085600000e-001) (4, -1.15723969444164340000e+000) (5, -9.79114193693230920000e-003) (6, 6.33411626533789350000e-001) (7, 9.82460358414151690000e-001) (8, -1.44536748428243130000e-001) (0, 2.27087178222352560000e+000) (1, -1.42499265076591680000e+001) (2, 8.07013059270950790000e-001) (3, 6.39850980657973970000e+000) (4, -2.26949914329908830000e+000) (5, 8.18408003146236140000e+000) (6, -4.55922532265388550000e+000) (7, -1.03169549404314630000e+001) (8, 8.04462771325386790000e-001) (0, 5.48440174966140230000e-002) (1, 4.59542687003333010000e-001) (2, 1.08523136832695770000e+000) (3, 8.45053149207947720000e-001) (4, 8.70589735620829200000e-001) (5, 7.81835312884855420000e-001) (6, 9.76975621535406510000e-001) (7, 9.37127655558400610000e-001) (8, 3.23021703157502890000e-001) (0, 3.17329374799369900000e-001) (1, 3.20326223963378180000e-001) (2, 1.12400998232512080000e+000) (3, 9.35903080847055540000e-001) (4, 1.01346147596766860000e+000) (5, 9.33366780588852580000e-001) (6, 9.88668419253969640000e-001) (7, 8.37006856698161770000e-001) (8, 2.40350847328656890000e-001) (0, 6.39446156460075520000e-001) (1, 7.86527009602967400000e-001) (2, 5.23457795180462430000e-001) (3, 7.04380221521632990000e-002) (4, -7.22613549892199500000e-001) (5, -1.11276303837404240000e-001) (6, 1.50819729028321780000e-001) (7, 3.15856333310476970000e-001) (8, 2.48288536871036720000e-001) (0, 7.32324062617396800000e-001) (1, -1.12471162757625470000e+001) (2, -4.03085987217668700000e+001) (3, -1.69040698379594620000e+001) (4, -2.23992093691333770000e+001) (5, 4.13743417377449490000e+001) (6, 8.84073887337500540000e+001) (7, 1.60797202063832540000e+001) (8, 5.73974627572657270000e-001) (0, 2.55598000813862030000e-001) (1, 7.26918480276697120000e+000) (2, -1.24880999478486170000e+001) (3, 1.01813145271145620000e+001) (4, 5.96935151563305120000e-001) (5, 1.82179198204945370000e+000) (6, 8.17224329823081950000e+000) (7, 9.40708587787119650000e+000) (8, 6.79374087900124350000e-002) (0, 1.78923040806915850000e-001) (1, 2.14495371627632130000e-001) (2, 7.07160311996056560000e-001) (3, -8.29123398733636470000e-002) (4, 6.01901422708629010000e-001) (5, 4.62500385945874700000e-002) (6, 5.87551136725879330000e-001) (7, 2.00946665507295160000e+000) (8, 2.69192851718976560000e-001) (0, 3.96349846220744100000e-001) (1, -4.56535741272336650000e-001) (2, 2.32609861248569640000e+000) (3, -2.20355502160558240000e+000) (4, 1.60899769954554060000e+000) (5, -2.91222835387590030000e-001) (6, 1.40079812278139810000e+000) (7, -6.91267925091065290000e+000) (8, -3.13861053138618340000e-001) (0, -2.56567173356375580000e-001) (1, 6.00418918241687580000e-001) (2, 5.78761480658602220000e-001) (3, -2.75200848710732530000e-001) (4, -3.96220140194918300000e-001) (5, -3.76014990163256960000e-001) (6, -1.51580329112034170000e-002) (7, -2.14013009299370390000e-001) (8, -2.41530391376988590000e-001) (0, -9.42265741606023580000e-002) (1, 1.86716634606751140000e+000) (2, -5.72080837023320910000e-001) (3, 2.60352867851615110000e+000) (4, -2.96663819666082600000e+000) (5, 9.64108630146682470000e-001) (6, 7.64211676464709380000e+000) (7, -1.35159814069410200000e+000) (8, -1.93707622506691660000e-001) (0, -2.81416866503814920000e-001) (1, 7.39836768630428910000e-001) (2, 2.79424315472821260000e-001) (3, -1.73537265718939630000e-001) (4, -1.51571412639724760000e-001) (5, -5.20434694696900960000e-001) (6, 3.25505756677016700000e-002) (7, -4.56452616471338720000e-001) (8, -1.86630963091804600000e-001) (0, 3.77493844605169220000e-001) (1, 9.90927979147435130000e-001) (2, 1.03660096691895330000e+000) (3, 3.09796200152211710000e-001) (4, 8.67507413812620640000e-001) (5, 9.12655391233144430000e-001) (6, 9.04413202983549440000e-001) (7, 9.39135712136652030000e-001) (8, 2.64444722159661080000e-001) (0, 1.26694987624243840000e+001) (1, -1.42807635507952300000e+001) (2, 2.06742593781207520000e+001) (3, 6.12955904910346940000e+001) (4, -9.89789743153765220000e+000) (5, -5.54784880969405020000e+001) (6, 2.15191776230845020000e+001) (7, -1.58640736416068360000e+001) (8, -5.23344610243691500000e-001) (0, -1.28045926025221780000e+000) (1, -1.42918153138463850000e+001) (2, 5.00763301985871720000e+001) (3, 8.89967534157731780000e+000) (4, -1.51857885559982830000e+001) (5, 5.16725000035170280000e+000) (6, -3.12562224593510440000e+001) (7, 1.08865341544107150000e+001) (8, 7.57405294324970830000e-001) (0, -2.26088323157086740000e-001) (1, 7.99511800280899990000e-002) (2, 4.48835730089349790000e-001) (3, -3.13267636091218770000e-001) (4, -4.13260498345649040000e-001) (5, -4.20820702990072850000e-001) (6, -5.88633527846208830000e-002) (7, -1.35169098063829040000e-001) (8, -2.90686425372134240000e-001) (0, 4.87560521505456280000e+000) (1, -1.43448755308908570000e+001) (2, -2.87461362291275040000e+000) (3, 3.15553751624491670000e+001) (4, 4.37388749974792820000e+000) (5, -2.31791053330025180000e+001) (6, 4.38040615549144170000e+000) (7, 4.03012343922551960000e+001) (8, 6.24523401022232030000e-001) (9, 8.31288078145896230000e-001) (10, 6.20705519458791710000e-001) (11, 5.53116994643932710000e-001) (12, 6.80365676044890730000e-001) (13, -1.08180233504420680000e+000) (14, 1.46306542995383080000e+000) (15, -2.25846942571011070000e-001) (16, -8.59111062143882220000e-001) (17, 6.61707242819543300000e-001) (18, -9.69322966050293110000e-001) (19, 2.88291850202270840000e+000) (20, -1.53132953445473880000e+000) (21, -1.44191812840397040000e+000) (22, 4.50246566926558960000e-001) (23, -6.83217419147919220000e-001) (24, 1.76523943636326950000e-001) (25, 6.54928603035867090000e-001) (26, 4.97121698782000800000e-001) (27, 7.42872474864103900000e-001) (28, 7.97083104191753990000e-001) (29, 4.21323189440662100000e-001) (30, -5.68273025253106190000e-001) (31, 2.66786242553314510000e+000) (32, -3.92753489735184360000e+000) (33, 8.05920988412306860000e-001) (34, 5.00098702288951150000e-001) (35, 4.46292920155965780000e-001) (36, 6.15873312211872470000e-001) (37, 1.36279244541040570000e-001) (38, -9.18764576380705970000e-001) (39, 5.75107092681500400000e-001) (40, -7.64293807569999430000e-001) (41, 7.32132124820245370000e-001) (42, 1.21283358510418320000e+000) (43, 8.25486368359458540000e-001) (44, 6.26396609123325180000e-001) (45, -3.16689251693365040000e-002) (46, 9.48955538820423940000e-001) (47, 6.38517917954001700000e-001) (48, -1.19179645645760100000e-001) (49, 7.01179304836086260000e-001) (9, 1.26763966424309940000e+000) (10, 1.60980007661179980000e-001) (11, 2.39170376945882250000e-001) (12, 1.60536275407760170000e-001) (13, 5.82522322131984400000e-001) (14, -9.79000446171729770000e-001) (15, 2.55601909749518240000e-001) (16, 3.67625909488704880000e-001) (17, -4.48013265408602090000e-001) (18, 2.46670861905078640000e-001) (19, -6.32944160537033950000e-001) (20, 1.98511423717743000000e+000) (21, 8.02057490349494030000e-001) (22, 2.08713417752313530000e-001) (23, 3.04290859267752680000e-001) (24, 1.41811864450890780000e-001) (25, 1.87066638905246860000e-001) (26, 1.25684149645970800000e-001) (27, 7.34743643520573090000e-001) (28, -4.82297196249262210000e-001) (29, -4.13714193502421890000e-001) (30, 3.84149383978792450000e-001) (31, 5.40156040510263220000e-001) (32, 5.05924759873285980000e+000) (33, 6.54663331442494110000e-001) (34, 1.36459604899466650000e-001) (35, 1.32301925222594260000e-001) (36, 6.77481190543384510000e-001) (37, -2.22747795020905140000e-001) (38, 1.37508085779612490000e+000) (39, 6.97546952845467860000e-001) (40, 4.87671065562199580000e-001) (41, 1.22424382741793840000e+000) (42, -2.48523889783356510000e+000) (43, 1.17593624279873320000e+000) (44, 2.23807886253579140000e-001) (45, -2.63646143015441560000e-002) (46, -4.23649010775357220000e-001) (47, 8.54287607744764090000e-001) (48, -1.53070124720995650000e-001) (49, 6.44453177854110830000e-001) (9, 1.02018991302594730000e+000) (10, 2.68507284708242640000e-001) (11, 5.84296129602237980000e-001) (12, 6.90869378027173520000e-001) (13, 5.54726759154967390000e-001) (14, -1.61949579990712290000e+000) (15, 9.61594810076897150000e-002) (16, 2.04102347260020940000e-001) (17, -5.06106383320320980000e-001) (18, 4.74165529623401660000e+000) (19, 3.17790954370412140000e+000) (20, 1.63036727934376820000e-001) (21, -1.77773207600501140000e-001) (22, 7.17389718265318830000e-001) (23, -3.96260057762430950000e-001) (24, 7.33142042594569610000e-001) (25, 6.92010901805617640000e-001) (26, 6.60945168603261910000e-001) (27, 1.01492358296971410000e+000) (28, -7.45733679153606550000e-001) (29, 3.56596583888192100000e-002) (30, 6.34531087026922070000e-001) (31, -2.81053495365618210000e+000) (32, 6.88017146992323700000e+000) (33, -1.81963937907739570000e-001) (34, 6.59063349769169250000e-001) (35, 9.27891901248404700000e-001) (36, 7.38056219794952060000e-001) (37, -4.63193231052516700000e-001) (38, 6.65552238547340300000e-002) (39, 6.00755927047131880000e-001) (40, 2.90841558636286870000e+000) (41, 1.15075027996194380000e+000) (42, 4.08444144229928140000e-001) (43, 5.83186785982380500000e-001) (44, 6.61551260575192980000e-001) (45, 3.07696986567605250000e-001) (46, 1.72519888093800170000e-001) (47, 1.08964016154931140000e+000) (48, -2.27305597681439150000e-001) (49, 4.55595964692280030000e-001) (9, 1.19832737062830730000e+000) (10, 1.79779153366577570000e-001) (11, 1.33018722018766940000e-001) (12, 2.30438821933236590000e-001) (13, 2.65707454246219620000e-002) (14, -1.50569213240661790000e+000) (15, 6.67813316001305670000e-001) (16, 2.48773696295132440000e+000) (17, -4.64829870895028310000e-001) (18, 9.82445058091379500000e-001) (19, 9.70151817115402990000e-001) (20, 2.44754310109239670000e+000) (21, 1.88350354916915250000e+000) (22, 2.25599286936408710000e-001) (23, -3.48869840130114520000e-001) (24, -1.41731519009503180000e+000) (25, 2.40951852844591560000e-001) (26, 2.65034417333130660000e-001) (27, 1.16218950658541040000e+000) (28, -2.33335736216129690000e-001) (29, -9.51515459689314840000e-001) (30, 1.93070164767063820000e-001) (31, 1.37923643273786740000e+000) (32, -5.37833347518333140000e+000) (33, 9.47681810295638580000e-001) (34, 2.72759400341483550000e-001) (35, 2.76819908901400240000e-001) (36, 5.39176828215674920000e-001) (37, -4.41804494575257000000e-001) (38, 1.64462506313651180000e+000) (39, 7.31340410863950190000e-001) (40, 2.57847450879572420000e+000) (41, 1.16936304511594450000e+000) (42, -9.99682229216460770000e-001) (43, 1.16263994907873600000e+000) (44, 2.65772080702546380000e-001) (45, -7.21545585480952820000e-001) (46, 6.04448394716359250000e-001) (47, 1.12092582531933130000e+000) (48, 3.21934762350985670000e-001) (49, 2.17176990162730180000e-001) (9, 7.24879541725764630000e-001) (10, 8.66205632137748370000e-001) (11, 8.92318916817817720000e-001) (12, 8.20573697472371740000e-001) (13, 4.18484498223364590000e-002) (14, -1.00687210348360030000e+000) (15, -4.76247227121531060000e-001) (16, 3.07579297189375820000e+000) (17, -4.22741663160587920000e-002) (18, 4.54850157246738660000e-001) (19, 4.93532503152412480000e-001) (20, 3.25969248780991040000e-001) (21, 4.25184829019905510000e-001) (22, 9.03183229735524450000e-001) (23, 1.44264004679290700000e+000) (24, -1.51477401480566520000e+000) (25, 7.51858841126417100000e-001) (26, 8.24782871961592610000e-001) (27, 1.15427669637787790000e+000) (28, 9.02790461555169730000e-001) (29, -6.48660955598822970000e-001) (30, -3.31363595591548430000e-001) (31, 1.64616295945642890000e+000) (32, 1.19039824158207920000e+001) (33, 2.04385450112022980000e+000) (34, 8.73284750877091900000e-001) (35, 8.66397847406993330000e-001) (36, 1.92823616635061900000e-001) (37, 4.72469878257600730000e-001) (38, 1.50072391943166260000e+000) (39, 7.30376631568307570000e-001) (40, 1.62675831593083850000e+000) (41, 6.33248280106772250000e-001) (42, -5.54508207887804530000e+000) (43, 6.66348026835275610000e-001) (44, 8.91471329569706430000e-001) (45, -1.64248013362892020000e-001) (46, -1.38247103212971310000e+000) (47, 6.52530828951436210000e-001) (48, -1.79250689824676560000e+000) (49, 2.55412058305399310000e-001) 
