FANN_FLO_2.1
num_layers=3
learning_rate=0.700000
connection_rate=1.000000
network_type=0
learning_momentum=0.000000
training_algorithm=2
train_error_function=1
train_stop_function=0
cascade_output_change_fraction=0.010000
quickprop_decay=-0.000100
quickprop_mu=1.750000
rprop_increase_factor=1.200000
rprop_decrease_factor=0.500000
rprop_delta_min=0.000000
rprop_delta_max=50.000000
rprop_delta_zero=0.100000
cascade_output_stagnation_epochs=12
cascade_candidate_change_fraction=0.010000
cascade_candidate_stagnation_epochs=12
cascade_max_out_epochs=150
cascade_max_cand_epochs=150
cascade_num_candidate_groups=2
bit_fail_limit=3.49999999999999980000e-001
cascade_candidate_limit=1.00000000000000000000e+003
cascade_weight_multiplier=4.00000000000000020000e-001
cascade_activation_functions_count=10
cascade_activation_functions=3 5 7 8 10 11 14 15 16 17 
cascade_activation_steepnesses_count=4
cascade_activation_steepnesses=2.50000000000000000000e-001 5.00000000000000000000e-001 7.50000000000000000000e-001 1.00000000000000000000e+000 
layer_sizes=9 4 6 
scale_included=0
neurons (num_inputs, activation_function, activation_steepness)=(0, 0, 0.00000000000000000000e+000) (0, 0, 0.00000000000000000000e+000) (0, 0, 0.00000000000000000000e+000) (0, 0, 0.00000000000000000000e+000) (0, 0, 0.00000000000000000000e+000) (0, 0, 0.00000000000000000000e+000) (0, 0, 0.00000000000000000000e+000) (0, 0, 0.00000000000000000000e+000) (0, 0, 0.00000000000000000000e+000) (9, 6, 5.00000000000000000000e-001) (9, 6, 5.00000000000000000000e-001) (9, 6, 5.00000000000000000000e-001) (0, 6, 0.00000000000000000000e+000) (4, 6, 5.00000000000000000000e-001) (4, 6, 5.00000000000000000000e-001) (4, 6, 5.00000000000000000000e-001) (4, 6, 5.00000000000000000000e-001) (4, 6, 5.00000000000000000000e-001) (0, 6, 0.00000000000000000000e+000) 
connections (connected_to_neuron, weight)=(0, 7.09460405242110160000e+000) (1, -5.32301205952742240000e+000) (2, 3.90993595377550070000e+000) (3, 1.58977591097283800000e+000) (4, 2.77616255738909390000e+001) (5, -6.24795243809337610000e+001) (6, 1.73180591383883140000e+001) (7, -3.84831418484177860000e+000) (8, -3.78530875981514190000e-001) (0, -7.14389475118200950000e-001) (1, 4.72724529598247960000e-001) (2, -1.05190623509452920000e+000) (3, 8.17215450376757690000e-001) (4, -9.74488829878934930000e-001) (5, 1.76325678815978360000e+000) (6, -1.97619911303266840000e+000) (7, 2.60322685649378950000e+000) (8, 3.00237988157723350000e-001) (0, 1.03304634785004000000e+001) (1, -9.79185511907229330000e+000) (2, -1.13397889192365980000e+001) (3, 1.21196518603016590000e+001) (4, 6.62706470608580100000e+001) (5, -1.14419416377083340000e+002) (6, -1.49279924181047210000e+000) (7, 4.95721390540204250000e+001) (8, 4.91277348940699850000e-001) (9, 4.27038678924307970000e-001) (10, 1.84728169132547730000e+000) (11, -2.43019687981489960000e-001) (12, 4.55646645920970930000e-001) (9, -5.02134499069926020000e-001) (10, -1.59956106123155250000e+000) (11, 1.81182637044520780000e-001) (12, 9.16831821696572850000e-001) (9, 1.95702037277397410000e-001) (10, 1.45133221581486740000e+000) (11, -1.63442769571923300000e-001) (12, 8.60768618624889630000e-001) (9, -8.33603563657979830000e-001) (10, -3.92397372474899340000e+000) (11, 4.71884301159171240000e-001) (12, 1.30028279105475560000e+000) (9, 1.61605946034011650000e-001) (10, 1.17450712305745420000e+000) (11, 2.20058204718727340000e-002) (12, 9.50342310000979240000e-001) 
