FANN_FLO_2.1
num_layers=3
learning_rate=0.700000
connection_rate=1.000000
network_type=0
learning_momentum=0.000000
training_algorithm=2
train_error_function=1
train_stop_function=0
cascade_output_change_fraction=0.010000
quickprop_decay=-0.000100
quickprop_mu=1.750000
rprop_increase_factor=1.200000
rprop_decrease_factor=0.500000
rprop_delta_min=0.000000
rprop_delta_max=50.000000
rprop_delta_zero=0.100000
cascade_output_stagnation_epochs=12
cascade_candidate_change_fraction=0.010000
cascade_candidate_stagnation_epochs=12
cascade_max_out_epochs=150
cascade_max_cand_epochs=150
cascade_num_candidate_groups=2
bit_fail_limit=3.49999999999999980000e-001
cascade_candidate_limit=1.00000000000000000000e+003
cascade_weight_multiplier=4.00000000000000020000e-001
cascade_activation_functions_count=10
cascade_activation_functions=3 5 7 8 10 11 14 15 16 17 
cascade_activation_steepnesses_count=4
cascade_activation_steepnesses=2.50000000000000000000e-001 5.00000000000000000000e-001 7.50000000000000000000e-001 1.00000000000000000000e+000 
layer_sizes=9 21 6 
scale_included=0
neurons (num_inputs, activation_function, activation_steepness)=(0, 0, 0.00000000000000000000e+000) (0, 0, 0.00000000000000000000e+000) (0, 0, 0.00000000000000000000e+000) (0, 0, 0.00000000000000000000e+000) (0, 0, 0.00000000000000000000e+000) (0, 0, 0.00000000000000000000e+000) (0, 0, 0.00000000000000000000e+000) (0, 0, 0.00000000000000000000e+000) (0, 0, 0.00000000000000000000e+000) (9, 6, 5.00000000000000000000e-001) (9, 6, 5.00000000000000000000e-001) (9, 6, 5.00000000000000000000e-001) (9, 6, 5.00000000000000000000e-001) (9, 6, 5.00000000000000000000e-001) (9, 6, 5.00000000000000000000e-001) (9, 6, 5.00000000000000000000e-001) (9, 6, 5.00000000000000000000e-001) (9, 6, 5.00000000000000000000e-001) (9, 6, 5.00000000000000000000e-001) (9, 6, 5.00000000000000000000e-001) (9, 6, 5.00000000000000000000e-001) (9, 6, 5.00000000000000000000e-001) (9, 6, 5.00000000000000000000e-001) (9, 6, 5.00000000000000000000e-001) (9, 6, 5.00000000000000000000e-001) (9, 6, 5.00000000000000000000e-001) (9, 6, 5.00000000000000000000e-001) (9, 6, 5.00000000000000000000e-001) (9, 6, 5.00000000000000000000e-001) (0, 6, 0.00000000000000000000e+000) (21, 6, 5.00000000000000000000e-001) (21, 6, 5.00000000000000000000e-001) (21, 6, 5.00000000000000000000e-001) (21, 6, 5.00000000000000000000e-001) (21, 6, 5.00000000000000000000e-001) (0, 6, 0.00000000000000000000e+000) 
connections (connected_to_neuron, weight)=(0, 4.88450283206667100000e+000) (1, 2.73545370027866670000e+001) (2, -5.33049359115888420000e+000) (3, 5.83283387523690600000e+000) (4, 1.51677579635076490000e+001) (5, -8.00501733561846510000e+000) (6, -7.11693691795464640000e+000) (7, -1.44571983886094460000e-001) (8, -3.80307438119733830000e-001) (0, 1.85333979038619740000e+000) (1, -2.26600576931305620000e+000) (2, 4.05234790570201130000e+000) (3, -8.57055658029292730000e-001) (4, 2.20729114046139600000e+000) (5, 4.81612166355443850000e-001) (6, -7.02239340605964930000e-001) (7, -1.22937847450490840000e-001) (8, -1.52149939770255370000e-001) (0, 3.55957504671028820000e-001) (1, -2.58485141790384980000e+000) (2, 1.51982048190613580000e+001) (3, 1.19252018211598570000e-001) (4, -3.30982416315426690000e+000) (5, 1.04747626742757640000e+000) (6, 3.46708824050660500000e-001) (7, -1.69536953963324140000e+001) (8, 5.42378004700744270000e-001) (0, 5.69471696550221230000e-001) (1, 6.74972536297771870000e-001) (2, -5.54946559163070480000e-002) (3, -2.40726626943143200000e-001) (4, -1.98556189964382960000e+000) (5, 1.38744858127008290000e-001) (6, 4.48480413613694310000e+000) (7, -5.24398269493834390000e-001) (8, -1.03226805212823260000e-001) (0, 4.09496390700621140000e+000) (1, 2.13431497463896240000e+001) (2, 1.13508324917233580000e+001) (3, -1.09944942756379240000e+001) (4, -3.47394783864402120000e+000) (5, 8.20473734857269580000e+000) (6, 1.11427390854129950000e+001) (7, -4.14893052385103540000e+000) (8, -4.11760604215633120000e-002) (0, -1.24041402118743900000e-001) (1, -5.56899827968583240000e+000) (2, 2.12124717681547810000e-001) (3, 7.22350078581160830000e+000) (4, 4.70564508828592750000e+000) (5, 1.25240581285570420000e+001) (6, 3.58305207271728810000e+000) (7, 3.18401622449408880000e+000) (8, 1.94180870606239760000e-001) (0, 4.16386455865330430000e+000) (1, 1.01177545197037040000e+001) (2, -3.65168461180988610000e-001) (3, -2.12462572738635250000e+000) (4, 2.96807612277968650000e-001) (5, -1.32791552950433100000e+000) (6, 4.76807462255877040000e+001) (7, -1.51882065001523290000e+001) (8, -8.36704453511730950000e-001) (0, 1.42852153220005910000e-001) (1, 1.62833049683616890000e+000) (2, 2.00158660271289700000e+000) (3, 2.32259029935911740000e+000) (4, -1.31691678930484370000e+000) (5, -8.73022501007362450000e+000) (6, 3.10068763426398370000e+000) (7, -1.21665635716906810000e+001) (8, 2.97583375947371110000e-001) (0, -9.30350111733249660000e-001) (1, -1.41540356877345430000e+001) (2, 7.63189157517392940000e+000) (3, -1.02459745770846700000e+001) (4, -1.58948798030196350000e+000) (5, 1.32232372750848450000e+001) (6, -4.64324361072818090000e+000) (7, 1.65272461298024860000e+000) (8, -2.05147648763845340000e-001) (0, -1.32933766058229950000e+000) (1, -2.74008678882862840000e+000) (2, 5.48159775340336330000e-001) (3, 1.27341816826249720000e+000) (4, 2.00983897070574800000e+000) (5, -1.07185927044866250000e+000) (6, 3.16379513170675420000e-001) (7, 2.00008693793887420000e+000) (8, 4.03246201619672170000e-001) (0, 2.73106410333498810000e+000) (1, 2.12020673016991390000e+000) (2, 2.57831135438402900000e+000) (3, 1.21383181827999160000e+000) (4, 6.59254584589840410000e+000) (5, -3.05080053828432310000e-002) (6, -2.73923557123215480000e+000) (7, -1.25238548381135090000e+001) (8, -2.06026092379326260000e-002) (0, -3.03628908156999660000e+000) (1, 3.82023957009847150000e-001) (2, 2.82317496052369870000e+000) (3, 4.86168695500885130000e+000) (4, -2.08763610608764210000e+000) (5, -1.23364809500927280000e+001) (6, 1.76636034666670420000e+000) (7, 6.72907913980780400000e+000) (8, 7.13194268982178440000e-003) (0, 1.87038104689421340000e-001) (1, -2.96445073568677620000e+000) (2, 4.23522070266701430000e+000) (3, -2.90328924802922340000e+000) (4, 8.75618515033613760000e-002) (5, 2.05116751072273920000e+000) (6, 2.17747064919544100000e+000) (7, 1.31538722006216570000e+000) (8, 7.41652225656127680000e-002) (0, 9.23888191294924790000e+000) (1, 5.45232800187791110000e+001) (2, -8.43857889675318700000e+000) (3, -5.18825428603252090000e+000) (4, 3.02235377548702360000e+001) (5, -5.82120990819244530000e+000) (6, -1.24265383318180350000e+001) (7, 7.62593899015303030000e+000) (8, 3.44036767094958120000e-001) (0, -1.00682951307429770000e+000) (1, 6.08739179202734440000e+000) (2, -2.30463236757411090000e+000) (3, -1.41286358608290690000e+000) (4, -4.57264409175333600000e+000) (5, -6.90823852389136020000e-001) (6, 1.66873764748235840000e+001) (7, -7.65018427198459610000e+000) (8, -2.11824431780970800000e-001) (0, -8.58872044185153170000e+000) (1, 9.39141200827831920000e+000) (2, 1.50609458785982890000e-001) (3, -1.03857174562923690000e+001) (4, 1.44755697349959700000e+000) (5, 1.35446688934130800000e+001) (6, -3.47427501779793600000e+001) (7, -2.88657205699341940000e+001) (8, 3.56534854567279120000e-001) (0, -5.19829221418939990000e+000) (1, 9.72816912849479110000e+000) (2, 2.84187746261889840000e+001) (3, -9.84422188335930850000e+000) (4, -1.61534628154901160000e+001) (5, -1.95417176137107740000e+000) (6, 6.11745081639137740000e+000) (7, 6.04765572408665800000e+000) (8, -4.33602072796970660000e-001) (0, 7.35671879887715270000e+000) (1, -3.81534528800716230000e+000) (2, 3.28344466568042260000e+000) (3, -6.66904851995656060000e+000) (4, 1.85802702009290120000e+000) (5, -1.07859513367045270000e+000) (6, 7.14130194520458340000e-001) (7, 3.83085253490390270000e+000) (8, -5.19290836703243590000e-002) (0, 1.53361767721566470000e+000) (1, 1.47703280254977610000e+001) (2, -3.92731400939774180000e+001) (3, -3.49228472074106700000e+000) (4, 1.70735758273933160000e+001) (5, -7.77997451085510420000e+000) (6, 2.41198162533657690000e+001) (7, -7.08731058743502640000e+000) (8, -1.37068963543305950000e+000) (0, 3.90396249061027600000e-001) (1, 2.89163097199103600000e-001) (2, 5.45809748328915600000e-001) (3, 2.33245876140025030000e+000) (4, -1.60598250788944810000e+000) (5, -2.70151443769368040000e+000) (6, 1.26401716378497220000e-003) (7, 1.99476331327874880000e+000) (8, -9.70873870227550310000e-002) (9, 6.49289881725686140000e-001) (10, 2.48248060598799850000e-003) (11, -2.78895040706672730000e+000) (12, 3.31833035585275930000e+000) (13, 6.50273477122717770000e-001) (14, 3.89017430717602640000e-001) (15, 8.93571131776895870000e-002) (16, 2.02993803569698360000e+000) (17, 1.15534695368787070000e+000) (18, 1.10448806478776020000e+000) (19, 1.60119805801740740000e+000) (20, 6.80247674016117630000e-001) (21, -5.21344912198617560000e-001) (22, -7.68051985745137670000e-001) (23, 1.20698576163175720000e-001) (24, 2.29336088737498060000e-001) (25, -6.66798643998840480000e-002) (26, -1.54099384591201650000e-001) (27, -9.87026325308418720000e-001) (28, -1.68819927740717010000e+000) (29, 7.44419609451478340000e-001) (9, -7.96228978666428500000e-001) (10, -1.40586166383044290000e+000) (11, 1.73387730697386130000e+000) (12, -5.32680525510060730000e-001) (13, -1.37251469889181880000e-001) (14, 6.55330144941014600000e-001) (15, 1.14259962448853790000e-001) (16, -1.55222243326670760000e+000) (17, -1.00547858994388520000e+000) (18, -3.40754597622684900000e+000) (19, -6.71576125822717530000e-001) (20, 1.47584965649355240000e+000) (21, 9.60707527626026400000e-001) (22, 5.93908124521127730000e-001) (23, -9.31381664326943910000e-001) (24, 3.17307645019838660000e-001) (25, -2.20745444423826960000e-001) (26, 5.71434554662661910000e-001) (27, 5.29247182521540350000e-001) (28, -2.18093781052074220000e+000) (29, 7.05262115507264480000e-001) (9, -1.34181938192322960000e+000) (10, -4.33298480962038290000e+000) (11, 1.41949872360619440000e+000) (12, -3.15098737842091480000e+000) (13, 4.85611613816569480000e-001) (14, 4.39942765524668320000e-001) (15, -2.99964691753466290000e-001) (16, -1.53824672600550950000e+000) (17, -1.47783317230204150000e+000) (18, -8.60970227253164080000e-001) (19, 9.41172867115975140000e-001) (20, -2.21340371170122150000e-001) (21, 4.07136897361865560000e+000) (22, 3.84581284204714490000e-001) (23, -1.10951686786251380000e-001) (24, 3.06339096937258190000e-001) (25, -2.38190171022791220000e-001) (26, 6.62128626633578630000e-001) (27, 7.10132489975146660000e-001) (28, 5.01184311193212830000e+000) (29, 3.89224515995186590000e-001) (9, -1.46758886990260030000e+000) (10, -1.25609785338285420000e+000) (11, -6.19378310244440680000e-001) (12, -2.33922747511588410000e+000) (13, 6.10898783045951240000e-001) (14, 3.68878417058007500000e-001) (15, -8.39677595003867740000e-001) (16, 2.53712724380167010000e-001) (17, -1.96344446241811040000e+000) (18, -2.68562205213406810000e+000) (19, 1.21906923983330670000e+000) (20, 3.93308704668358490000e-001) (21, 5.30319808898782160000e+000) (22, 6.32044565251445480000e-001) (23, 3.56050362856884740000e-001) (24, -3.89179225432091820000e-001) (25, -4.62933121135141070000e-001) (26, -3.59912895207949670000e-001) (27, -2.48413481562047210000e-001) (28, -5.95947214572315250000e-001) (29, 1.30012100748521630000e-001) (9, -1.03072290095391160000e+000) (10, -8.99116880160985940000e+000) (11, 1.49852973400777520000e+000) (12, 1.29179099646030360000e+001) (13, -1.90978211369551980000e+000) (14, 8.10160401965072330000e-001) (15, 1.54844304215096560000e+000) (16, -2.17268483016005250000e+000) (17, -1.18029509710313870000e+000) (18, -1.50725206971769410000e+000) (19, 2.85318980243363420000e+000) (20, 2.96407360003695210000e+000) (21, 8.22990258321805830000e-001) (22, 9.21731829895762520000e-001) (23, -6.19585020250367080000e+000) (24, 9.47054394524882600000e-001) (25, 7.72310947786286730000e-001) (26, 2.14182699891515820000e+000) (27, 6.44528200813138890000e-001) (28, -6.06446107263673810000e+000) (29, 8.44556028511793900000e-001) 
