FANN_FLO_2.1
num_layers=3
learning_rate=0.700000
connection_rate=1.000000
network_type=0
learning_momentum=0.000000
training_algorithm=2
train_error_function=1
train_stop_function=0
cascade_output_change_fraction=0.010000
quickprop_decay=-0.000100
quickprop_mu=1.750000
rprop_increase_factor=1.200000
rprop_decrease_factor=0.500000
rprop_delta_min=0.000000
rprop_delta_max=50.000000
rprop_delta_zero=0.100000
cascade_output_stagnation_epochs=12
cascade_candidate_change_fraction=0.010000
cascade_candidate_stagnation_epochs=12
cascade_max_out_epochs=150
cascade_max_cand_epochs=150
cascade_num_candidate_groups=2
bit_fail_limit=3.49999999999999980000e-001
cascade_candidate_limit=1.00000000000000000000e+003
cascade_weight_multiplier=4.00000000000000020000e-001
cascade_activation_functions_count=10
cascade_activation_functions=3 5 7 8 10 11 14 15 16 17 
cascade_activation_steepnesses_count=4
cascade_activation_steepnesses=2.50000000000000000000e-001 5.00000000000000000000e-001 7.50000000000000000000e-001 1.00000000000000000000e+000 
layer_sizes=9 4 6 
scale_included=0
neurons (num_inputs, activation_function, activation_steepness)=(0, 0, 0.00000000000000000000e+000) (0, 0, 0.00000000000000000000e+000) (0, 0, 0.00000000000000000000e+000) (0, 0, 0.00000000000000000000e+000) (0, 0, 0.00000000000000000000e+000) (0, 0, 0.00000000000000000000e+000) (0, 0, 0.00000000000000000000e+000) (0, 0, 0.00000000000000000000e+000) (0, 0, 0.00000000000000000000e+000) (9, 6, 5.00000000000000000000e-001) (9, 6, 5.00000000000000000000e-001) (9, 6, 5.00000000000000000000e-001) (0, 6, 0.00000000000000000000e+000) (4, 6, 5.00000000000000000000e-001) (4, 6, 5.00000000000000000000e-001) (4, 6, 5.00000000000000000000e-001) (4, 6, 5.00000000000000000000e-001) (4, 6, 5.00000000000000000000e-001) (0, 6, 0.00000000000000000000e+000) 
connections (connected_to_neuron, weight)=(0, -6.77345411981454950000e+000) (1, 7.28044899108173290000e+000) (2, -3.71262660844253920000e+000) (3, 5.62193827388126000000e+000) (4, -1.88714445175275180000e+001) (5, 1.95762638925425100000e+001) (6, -3.71983757682847840000e+000) (7, 8.14549833392214320000e+000) (8, 5.81898845387107680000e-002) (0, -7.36241849163739910000e-001) (1, 1.86416634241568340000e+000) (2, -1.68394591574974160000e+000) (3, -1.26691562250292920000e+000) (4, -2.01923296144813900000e+000) (5, 6.51112515386904360000e+000) (6, -5.18894769029115730000e+000) (7, 3.09199284164398320000e+000) (8, 1.00306407804943930000e+000) (0, -4.62158251302922930000e-001) (1, 4.47115151613651620000e-001) (2, -3.74649525570643130000e-001) (3, 7.14911470664807310000e-001) (4, -1.11213146919078620000e+000) (5, 8.80530025237737710000e-001) (6, -3.53321516115472860000e-001) (7, 9.66274947434726530000e-001) (8, 1.67511590777500610000e-001) (9, 1.08481632703331830000e-001) (10, -6.98481343897253030000e-001) (11, 8.41057990591168810000e-001) (12, 8.24705221288792200000e-001) (9, 3.30461581982163850000e-001) (10, 7.36786000358675140000e-001) (11, -3.31601028970533030000e+000) (12, 7.55211105327320940000e-001) (9, 3.40141876544491470000e-003) (10, -1.60132820702584380000e-002) (11, 1.87481735512794550000e+000) (12, 8.53964719867875140000e-001) (9, 1.96359395632086600000e-001) (10, 4.01516557096483730000e-004) (11, -3.29489602505534230000e+000) (12, 1.26997665298040370000e+000) (9, -5.04742491473034400000e-001) (10, 5.41359317213813140000e-001) (11, 3.24251228871450660000e+000) (12, 5.88611260993057050000e-001) 
