FANN_FLO_2.1
num_layers=3
learning_rate=0.700000
connection_rate=1.000000
network_type=0
learning_momentum=0.000000
training_algorithm=2
train_error_function=1
train_stop_function=0
cascade_output_change_fraction=0.010000
quickprop_decay=-0.000100
quickprop_mu=1.750000
rprop_increase_factor=1.200000
rprop_decrease_factor=0.500000
rprop_delta_min=0.000000
rprop_delta_max=50.000000
rprop_delta_zero=0.100000
cascade_output_stagnation_epochs=12
cascade_candidate_change_fraction=0.010000
cascade_candidate_stagnation_epochs=12
cascade_max_out_epochs=150
cascade_max_cand_epochs=150
cascade_num_candidate_groups=2
bit_fail_limit=3.49999999999999980000e-001
cascade_candidate_limit=1.00000000000000000000e+003
cascade_weight_multiplier=4.00000000000000020000e-001
cascade_activation_functions_count=10
cascade_activation_functions=3 5 7 8 10 11 14 15 16 17 
cascade_activation_steepnesses_count=4
cascade_activation_steepnesses=2.50000000000000000000e-001 5.00000000000000000000e-001 7.50000000000000000000e-001 1.00000000000000000000e+000 
layer_sizes=9 21 6 
scale_included=0
neurons (num_inputs, activation_function, activation_steepness)=(0, 0, 0.00000000000000000000e+000) (0, 0, 0.00000000000000000000e+000) (0, 0, 0.00000000000000000000e+000) (0, 0, 0.00000000000000000000e+000) (0, 0, 0.00000000000000000000e+000) (0, 0, 0.00000000000000000000e+000) (0, 0, 0.00000000000000000000e+000) (0, 0, 0.00000000000000000000e+000) (0, 0, 0.00000000000000000000e+000) (9, 6, 5.00000000000000000000e-001) (9, 6, 5.00000000000000000000e-001) (9, 6, 5.00000000000000000000e-001) (9, 6, 5.00000000000000000000e-001) (9, 6, 5.00000000000000000000e-001) (9, 6, 5.00000000000000000000e-001) (9, 6, 5.00000000000000000000e-001) (9, 6, 5.00000000000000000000e-001) (9, 6, 5.00000000000000000000e-001) (9, 6, 5.00000000000000000000e-001) (9, 6, 5.00000000000000000000e-001) (9, 6, 5.00000000000000000000e-001) (9, 6, 5.00000000000000000000e-001) (9, 6, 5.00000000000000000000e-001) (9, 6, 5.00000000000000000000e-001) (9, 6, 5.00000000000000000000e-001) (9, 6, 5.00000000000000000000e-001) (9, 6, 5.00000000000000000000e-001) (9, 6, 5.00000000000000000000e-001) (9, 6, 5.00000000000000000000e-001) (0, 6, 0.00000000000000000000e+000) (21, 6, 5.00000000000000000000e-001) (21, 6, 5.00000000000000000000e-001) (21, 6, 5.00000000000000000000e-001) (21, 6, 5.00000000000000000000e-001) (21, 6, 5.00000000000000000000e-001) (0, 6, 0.00000000000000000000e+000) 
connections (connected_to_neuron, weight)=(0, 5.92163821380168650000e-001) (1, 1.49518252946540660000e+000) (2, -1.28018392336360880000e+000) (3, -5.34412149666104600000e+000) (4, 9.45377850213976910000e-001) (5, 6.27974362954582090000e-001) (6, -2.36464254734775860000e+000) (7, 7.47738887269759340000e-001) (8, 6.04378090911432580000e-003) (0, 2.87141550183129590000e+000) (1, -8.10796958535886510000e-001) (2, -5.18821961110633390000e-001) (3, -8.31734605320840540000e+000) (4, -5.99511135313711210000e+000) (5, 1.90339402358395940000e+001) (6, -2.77048170566495110000e+000) (7, -2.71564386996839510000e+000) (8, -6.51472101754246440000e-002) (0, -7.80463179841631600000e-001) (1, 1.95167545389620330000e+000) (2, -1.03358494861416690000e+001) (3, -1.30596515627978760000e+001) (4, 1.44482276857904990000e+001) (5, 3.33362602723638660000e+001) (6, -1.16224669203706440000e-001) (7, 2.10441523459626300000e+001) (8, 3.57238706308017680000e-001) (0, 8.49352595587037130000e-001) (1, -5.36069612328778790000e+000) (2, 4.77918179581400700000e+000) (3, -1.45421485298710130000e+000) (4, 2.23004202315642530000e+000) (5, 2.36082017723528990000e-001) (6, 4.95605404302423610000e-001) (7, 9.58647517792991730000e-001) (8, 8.82632199980243000000e-001) (0, 4.68657930448204500000e+000) (1, -1.15454410798492240000e+001) (2, 5.49270919727957720000e+000) (3, -5.91537298653650810000e+000) (4, 1.13255163105507480000e+001) (5, -2.68288110732895200000e+000) (6, 2.00321852930225170000e+000) (7, -2.12665079720856200000e+001) (8, 1.24413277501380120000e+000) (0, 2.03095655527188470000e+000) (1, 4.75060734481944640000e+000) (2, -1.47677660492514650000e+000) (3, 8.63603257829071990000e-001) (4, -1.48017239769346730000e+001) (5, -2.06303231046630400000e+000) (6, 6.61033255955227080000e+000) (7, 9.93466251145911270000e+000) (8, 5.54497101114559760000e-002) (0, -2.61510608348535060000e+000) (1, 1.13201101710345760000e+000) (2, 6.17208735599921400000e-001) (3, 5.94180560169021810000e+000) (4, 3.52125435898661810000e+000) (5, -5.48655939683161260000e+000) (6, 6.79180794635884650000e-002) (7, 2.97003416226484620000e+001) (8, 3.94231995638529290000e-002) (0, -1.25411564908628590000e-001) (1, -1.42074290911884900000e+000) (2, 5.05508778560676840000e+000) (3, -2.63800096339054240000e+000) (4, -3.89952557201117140000e+000) (5, 5.87476526976619430000e+000) (6, 2.16245230827735610000e+000) (7, 4.53626867481020390000e+000) (8, -2.09534659851061840000e-001) (0, -1.42095865175220770000e+000) (1, 5.21263284795141950000e+000) (2, -6.33663801385142640000e+000) (3, -7.89015508788930010000e-001) (4, 1.70414356645821760000e+000) (5, 1.35612458649376790000e+000) (6, -6.43048144680072540000e-001) (7, -1.49703115383403840000e+000) (8, 5.03833944552992340000e-002) (0, -1.27558590345153540000e-001) (1, 1.09446165533252240000e+001) (2, 1.73371461054050700000e+000) (3, 3.67691886232684780000e+000) (4, -3.74190302131010530000e+001) (5, 1.77826239703120520000e+001) (6, -5.91631790201991150000e+000) (7, 3.92757431986761030000e+001) (8, 1.73105382333037930000e-001) (0, 6.36696730368030120000e+000) (1, -1.93602662775561130000e+000) (2, -4.64334492817998670000e+001) (3, -4.14892718593129570000e+000) (4, 7.14902466646597360000e+001) (5, 9.26953362941345030000e+000) (6, 6.70909381406635110000e+001) (7, 1.21266584046068080000e+001) (8, -8.02423423687773640000e-002) (0, -4.01607052033876500000e+000) (1, 1.39507279456078060000e+001) (2, 1.35207566198156660000e+000) (3, 8.57303616408994880000e+000) (4, -3.32104298019468440000e+001) (5, -2.05565320475696870000e+000) (6, 6.09404252561703390000e-001) (7, 9.10168287505184100000e+000) (8, 1.44859619064035170000e+000) (0, 2.44946163486640970000e-001) (1, 2.39407821241418130000e+000) (2, -2.32218147949958190000e+000) (3, 1.16496457430805230000e+000) (4, 1.11347478403463970000e+000) (5, -9.87012406154941900000e-001) (6, 4.92344173071626980000e-001) (7, -1.45531757039050350000e+000) (8, 1.94145655110385150000e-001) (0, -2.47212708558762540000e-001) (1, 4.44427695563103850000e-001) (2, -1.60259848881842530000e+000) (3, -2.28791076705660760000e-001) (4, -1.35623537331318850000e-001) (5, -1.48315568350937290000e-001) (6, -1.77527449121900860000e+000) (7, 7.46950611420457560000e+000) (8, 7.45139849703733980000e-002) (0, -1.58554306509963320000e+000) (1, 9.86230448426309180000e+000) (2, -1.60310118069252430000e+001) (3, 1.53202996856839650000e+001) (4, -7.87203319903565730000e+000) (5, -3.44530875250289450000e+000) (6, 7.58236827237943720000e-001) (7, 5.62615199715184250000e+001) (8, -3.65057813224424270000e-001) (0, -4.74533899656858880000e+000) (1, -3.43724930653152990000e+000) (2, 6.34782020067945310000e+000) (3, -5.33925186093403870000e+000) (4, -1.38811055877808940000e+001) (5, 2.06859349096427000000e+001) (6, -3.15440903719525710000e+001) (7, -3.74391767121058150000e+000) (8, 5.65210140535313490000e-001) (0, 2.46923389373412180000e-001) (1, -4.14233944581293090000e-001) (2, 5.39633421151931360000e-001) (3, -9.00255076594965180000e-002) (4, -2.33259020359297910000e+000) (5, 1.51843806641081440000e+000) (6, 1.99263504158694600000e+000) (7, -2.27401647811388300000e-001) (8, 4.43590126504648170000e-002) (0, -7.35507963323977830000e-001) (1, 1.90174338306302700000e-001) (2, -1.84524350215506870000e-001) (3, -1.25073103212770280000e+000) (4, 1.29357376273503830000e+000) (5, 2.03303920387485170000e+000) (6, 9.39095647625998400000e-001) (7, -3.15460667198391850000e+000) (8, 1.03110977986558480000e-001) (0, -2.09136713721784990000e-001) (1, 7.11892031699365900000e+000) (2, 1.51676708123485170000e+000) (3, -8.55534578539390010000e+000) (4, -3.85119525321055580000e+000) (5, -2.96444161085068280000e-002) (6, 1.43393069324652740000e+001) (7, -5.70285572071207800000e+000) (8, 9.16205318581616860000e-002) (0, 3.83711003467977760000e-001) (1, 1.00919826906468080000e+000) (2, -5.89652367486580790000e-001) (3, 1.47399361470789340000e+000) (4, 2.82281402461290120000e+000) (5, 3.83016019447835900000e+000) (6, 2.39046897628882120000e+000) (7, 5.71421133086159560000e+000) (8, -1.00296872359986400000e-001) (9, -1.76756938710576020000e-001) (10, -7.18801678315254100000e-001) (11, -7.09189440056215760000e-001) (12, 3.31004117794956530000e-001) (13, 4.44853293054887520000e-001) (14, 1.82464628487233970000e+000) (15, 1.69612553935730690000e+000) (16, -2.56592185016718190000e+000) (17, 3.05358992994762170000e+000) (18, 1.06834404531891190000e+000) (19, 4.44894274917452930000e-001) (20, -1.10739536998634350000e+000) (21, -4.04186532337505430000e+000) (22, -1.62823630634774340000e+000) (23, -1.40098442766367760000e+000) (24, 7.21689113351415720000e-001) (25, 2.03099107734112700000e+000) (26, 3.47678033121567090000e-001) (27, -5.90362331162472620000e-002) (28, 2.41848745487991360000e+000) (29, 4.82453583933821870000e-001) (9, 3.03005558286882910000e+000) (10, -6.11708817870084130000e-001) (11, 4.86853238173958200000e-001) (12, 1.03308243684718850000e+000) (13, -7.04223800720585660000e-001) (14, -1.06899389262397300000e+000) (15, -1.57550048723778050000e+000) (16, 2.99657883149789690000e-001) (17, -1.94014915186560510000e+000) (18, -6.69256006389835730000e-001) (19, -2.66725615449162010000e-001) (20, 9.89302149740944100000e-001) (21, 1.01453799565305510000e+000) (22, -3.68841654093664870000e-001) (23, 9.64273918065821860000e-001) (24, -1.03985890773064220000e-001) (25, 2.71411890830618980000e+000) (26, 1.50795334779359510000e+000) (27, -4.40702374550780710000e-001) (28, 1.19214200676822490000e+000) (29, 3.85040054864617230000e-001) (9, -2.77925797593797470000e+000) (10, 6.61849000520510540000e-001) (11, 9.80126985024258660000e-001) (12, 1.49303240999290290000e+000) (13, 1.86139783718987570000e-001) (14, 1.30984909792536740000e+000) (15, 2.36201647358785710000e-001) (16, 1.53251886167835120000e+000) (17, 3.73137463111635090000e+000) (18, -1.00687664176977610000e+000) (19, -3.98417248575354490000e-001) (20, 2.57372874756958530000e-001) (21, -1.52051341294021290000e+000) (22, -3.49480156627450360000e+000) (23, 1.78065786762435760000e-001) (24, 1.14027774562850060000e-001) (25, -3.51371196094020320000e+000) (26, -6.55885080149193380000e+000) (27, -4.61496387284784860000e-002) (28, -1.10558764985671990000e+000) (29, 7.54387161880535780000e-001) (9, 2.92128891513673890000e+000) (10, -1.30620944316646240000e+000) (11, -5.99032339291454050000e-001) (12, 9.87795867966988370000e-001) (13, 7.54001620954563470000e-001) (14, 3.36169849721708400000e+000) (15, -5.42657186779036740000e-001) (16, 3.59494850936546050000e+000) (17, 9.83967524960778220000e-001) (18, -7.37030993980021360000e-001) (19, 2.32743135907206990000e-001) (20, -2.17009123217222050000e-003) (21, 5.90455172019905160000e-001) (22, -3.61767026169034040000e+000) (23, 6.74082959440041150000e-001) (24, 7.96609445919341130000e-001) (25, -5.38317786589580470000e+000) (26, 5.65649502185358080000e+000) (27, -1.89097671203278410000e+000) (28, 2.47029501155113880000e+000) (29, 6.00789708059747520000e-001) (9, 4.38405418673458950000e+000) (10, -3.06887872139508030000e+000) (11, 7.03677898992843500000e-001) (12, 9.28538900118893730000e-001) (13, 1.38611552214256030000e+000) (14, 3.17327422772673050000e+000) (15, -1.06799798202375440000e+000) (16, 8.94666677483687420000e+000) (17, 6.74727803843895830000e+000) (18, -8.55492627654969360000e-001) (19, -2.20934647895813240000e-001) (20, 3.99233712747235290000e-001) (21, 8.39106968144516690000e-001) (22, -5.35740879374205110000e+000) (23, -9.23311845915362750000e-002) (24, -5.72535329639642040000e-001) (25, -9.31551128761321180000e-001) (26, -1.95732039647497320000e+000) (27, -4.51211842452783430000e+000) (28, 1.20304759420642960000e+000) (29, 8.21895141796902260000e-001) 
