FANN_FLO_2.1
num_layers=3
learning_rate=0.700000
connection_rate=1.000000
network_type=0
learning_momentum=0.000000
training_algorithm=2
train_error_function=1
train_stop_function=0
cascade_output_change_fraction=0.010000
quickprop_decay=-0.000100
quickprop_mu=1.750000
rprop_increase_factor=1.200000
rprop_decrease_factor=0.500000
rprop_delta_min=0.000000
rprop_delta_max=50.000000
rprop_delta_zero=0.100000
cascade_output_stagnation_epochs=12
cascade_candidate_change_fraction=0.010000
cascade_candidate_stagnation_epochs=12
cascade_max_out_epochs=150
cascade_max_cand_epochs=150
cascade_num_candidate_groups=2
bit_fail_limit=3.49999999999999980000e-001
cascade_candidate_limit=1.00000000000000000000e+003
cascade_weight_multiplier=4.00000000000000020000e-001
cascade_activation_functions_count=10
cascade_activation_functions=3 5 7 8 10 11 14 15 16 17 
cascade_activation_steepnesses_count=4
cascade_activation_steepnesses=2.50000000000000000000e-001 5.00000000000000000000e-001 7.50000000000000000000e-001 1.00000000000000000000e+000 
layer_sizes=9 21 6 
scale_included=0
neurons (num_inputs, activation_function, activation_steepness)=(0, 0, 0.00000000000000000000e+000) (0, 0, 0.00000000000000000000e+000) (0, 0, 0.00000000000000000000e+000) (0, 0, 0.00000000000000000000e+000) (0, 0, 0.00000000000000000000e+000) (0, 0, 0.00000000000000000000e+000) (0, 0, 0.00000000000000000000e+000) (0, 0, 0.00000000000000000000e+000) (0, 0, 0.00000000000000000000e+000) (9, 6, 5.00000000000000000000e-001) (9, 6, 5.00000000000000000000e-001) (9, 6, 5.00000000000000000000e-001) (9, 6, 5.00000000000000000000e-001) (9, 6, 5.00000000000000000000e-001) (9, 6, 5.00000000000000000000e-001) (9, 6, 5.00000000000000000000e-001) (9, 6, 5.00000000000000000000e-001) (9, 6, 5.00000000000000000000e-001) (9, 6, 5.00000000000000000000e-001) (9, 6, 5.00000000000000000000e-001) (9, 6, 5.00000000000000000000e-001) (9, 6, 5.00000000000000000000e-001) (9, 6, 5.00000000000000000000e-001) (9, 6, 5.00000000000000000000e-001) (9, 6, 5.00000000000000000000e-001) (9, 6, 5.00000000000000000000e-001) (9, 6, 5.00000000000000000000e-001) (9, 6, 5.00000000000000000000e-001) (9, 6, 5.00000000000000000000e-001) (0, 6, 0.00000000000000000000e+000) (21, 6, 5.00000000000000000000e-001) (21, 6, 5.00000000000000000000e-001) (21, 6, 5.00000000000000000000e-001) (21, 6, 5.00000000000000000000e-001) (21, 6, 5.00000000000000000000e-001) (0, 6, 0.00000000000000000000e+000) 
connections (connected_to_neuron, weight)=(0, 8.56395332759326950000e+000) (1, -1.60035189709688370000e+001) (2, 1.72985916194978100000e+001) (3, 1.19625287049015120000e+001) (4, 2.78151870313709500000e+001) (5, -1.70461008369356120000e+001) (6, 2.22691112682415900000e+000) (7, -1.75991748742753950000e+001) (8, 2.08788478754183340000e+000) (0, -9.08218164510774170000e+000) (1, -2.79527740085490350000e+001) (2, 7.27990677032910230000e+000) (3, -6.68567774374452560000e+000) (4, -7.09440829240702890000e+000) (5, 1.14659421095429560000e+001) (6, 3.93547779450533210000e+001) (7, 2.43925851670663930000e+001) (8, 1.69375778064872310000e-001) (0, 1.31941399344990410000e+000) (1, 3.05145507624712130000e+001) (2, 1.05033292517952700000e+001) (3, -3.81687724212477310000e+001) (4, -4.64282554589272960000e+001) (5, 1.11625106494511780000e+001) (6, -1.06225555345804850000e+001) (7, 5.09383977763934080000e+001) (8, 7.39989164081947930000e-001) (0, -2.79763270740714630000e+000) (1, 1.88592513649892530000e+000) (2, 9.33381185628503920000e-001) (3, 5.66266757452497770000e+000) (4, 4.69297200225510910000e+000) (5, 5.24315907785960710000e+000) (6, 4.58824094043094190000e+000) (7, 3.56219914894578430000e+000) (8, -1.01251756173168440000e-001) (0, 4.78257172668806160000e+000) (1, 1.19617196130040560000e+000) (2, 2.02930458017469950000e+001) (3, 1.13815398691873550000e+001) (4, -7.67222565548068850000e+000) (5, -1.88944892035156030000e+000) (6, -8.34088094667932370000e+000) (7, -2.10500938687185310000e+000) (8, -2.46095633422410700000e-001) (0, 6.00294586812474380000e-001) (1, -3.91386020600572430000e-001) (2, 7.18625910030009420000e-001) (3, 5.19928076085962250000e-001) (4, 1.89997258169031280000e+000) (5, 8.51786576444244380000e-001) (6, 8.66326964538677300000e-001) (7, -4.55718154868602190000e+000) (8, 1.29387789876580770000e+000) (0, 5.87478455875908170000e+000) (1, -8.96841189219199460000e+000) (2, 1.02817272268020240000e+001) (3, 1.04421754559066910000e+001) (4, -1.02121438983767960000e+001) (5, 2.36453506522432290000e+000) (6, -2.35778119865660650000e+001) (7, 2.53833652527910270000e+001) (8, -3.77791550078845130000e-001) (0, 6.69171801007938160000e-001) (1, -9.50585100941595050000e+000) (2, -6.89528576426479470000e-001) (3, -1.77163370861758280000e+000) (4, -2.93754001111016110000e+000) (5, 4.87678679424317090000e+000) (6, -3.19349700438970660000e+000) (7, 4.74502394724018030000e+000) (8, -1.35506202771017130000e-001) (0, 1.90317902338530230000e+001) (1, 9.76872248826539790000e+001) (2, -1.70996318911381380000e+001) (3, -3.82859228265649560000e+001) (4, 2.52555236874800250000e+001) (5, 1.96230032729200700000e+000) (6, 1.51409623303281970000e+001) (7, 1.80709984362986020000e+001) (8, -1.63570761315563470000e+000) (0, 4.65939684044668010000e-001) (1, 6.87280097303353620000e+000) (2, -2.31437278617036980000e+000) (3, 1.38376299015813230000e+000) (4, 5.47430805564889540000e-001) (5, -2.99014360608080070000e-001) (6, 1.35707621835759330000e+000) (7, -1.05246865744643900000e+000) (8, -7.20385381306918590000e-002) (0, -1.09140843861552980000e+000) (1, -4.89744832244338820000e+000) (2, -3.41732038169566900000e+000) (3, -7.20451162423784820000e-001) (4, -1.88330833493551730000e+000) (5, 5.57267014902850910000e+000) (6, 9.61097682295939730000e-001) (7, -1.15512070418050820000e+001) (8, 4.89506781223687900000e-001) (0, 5.52956299613646230000e-001) (1, 6.07993130494027260000e-001) (2, -1.07096195992478150000e+000) (3, 2.81200019344578680000e+000) (4, -1.96469387964766210000e+000) (5, -2.24204916583286010000e+000) (6, 7.25600176516638110000e-001) (7, -4.34211839855981550000e-001) (8, 8.60162316681012730000e-001) (0, -9.02461970247531860000e-002) (1, 1.64878949730214300000e-001) (2, 9.48523681686262780000e-001) (3, -1.59372604481243800000e+000) (4, 1.63955200011857150000e+000) (5, -5.23804817260446480000e-001) (6, 1.28968688608624120000e+000) (7, -4.87259065035635160000e+000) (8, -1.70066877594547830000e-001) (0, 5.08738273887282210000e-001) (1, -5.17970508636493850000e-001) (2, 5.52030667822871690000e-001) (3, -1.79034070779861930000e+000) (4, -2.75277241744068000000e+000) (5, -1.22839068873604720000e+000) (6, -1.25124246949313430000e+000) (7, 9.18834490282676160000e+000) (8, -2.36407738971016690000e-001) (0, 3.65778486250854980000e+000) (1, 9.59539543071834090000e+000) (2, -7.92702886719995270000e+000) (3, -3.43104706453441680000e+001) (4, -9.81307529230395330000e-001) (5, 1.87486527765025740000e+001) (6, 3.55301986290378840000e+001) (7, -1.21583857094297230000e+001) (8, 1.37357780835962890000e-001) (0, 3.54213109530507890000e+000) (1, -5.07941431818575230000e+000) (2, -3.33380739204413650000e+000) (3, 9.79353854164859250000e+000) (4, 2.77176742671686930000e+001) (5, -4.89252835831911530000e+000) (6, -3.72225615404692880000e+000) (7, -8.05752474489119660000e+000) (8, -1.88710696144172050000e-001) (0, -1.05968535654943560000e-001) (1, -2.73033322318775030000e-001) (2, -4.12378912959875280000e-001) (3, 1.17154246553048380000e+000) (4, -6.38295310283067960000e-001) (5, -2.25254842267098800000e-001) (6, 5.96138684671012280000e-001) (7, 8.29543954109922320000e-001) (8, -2.51747831552710580000e-001) (0, 4.09494327899232950000e+000) (1, 1.06838531003569450000e-001) (2, 4.25630013782198000000e+000) (3, -1.71234170658066630000e+000) (4, -1.60695782987613730000e+000) (5, -4.93936969129123660000e-001) (6, -1.88902941716354850000e+001) (7, 7.50835525350396700000e+000) (8, 2.57469132094077440000e-003) (0, 9.46304203938906600000e+000) (1, 5.84485282511706640000e+001) (2, 5.94935662948164000000e+000) (3, -5.66489479045412030000e+001) (4, -6.02382344099027470000e+000) (5, 3.33066743859278490000e+001) (6, 8.89701890426066910000e+000) (7, 6.81644281138676340000e+000) (8, -8.22468791481995810000e-001) (0, 2.42011488296171080000e-001) (1, 1.28998793562286320000e+000) (2, 2.45559968585139550000e+000) (3, 1.48419436857583320000e+000) (4, -2.00302475666279810000e+000) (5, -8.30637843212868350000e+000) (6, -3.34780601673309740000e+000) (7, -2.06835345188086790000e+000) (8, -1.16662569847454000000e-001) (9, -1.51903314000614330000e-001) (10, -6.00679073227165520000e-001) (11, 3.70352209323461520000e-001) (12, 1.93987581934300610000e+000) (13, -1.53526839285886290000e-001) (14, 8.18480260084119890000e-001) (15, 1.00279071175097270000e-001) (16, 3.54064455395512120000e+000) (17, -3.64287330721325300000e-001) (18, 3.27061089301234010000e-001) (19, -1.29670092920363090000e+000) (20, 5.87907829123685330000e-001) (21, 5.33312508559098060000e-001) (22, -1.27238619886633630000e+000) (23, 3.87605094686454210000e-001) (24, 7.07264906580243990000e-001) (25, 7.81238945758905620000e-001) (26, -1.54438455671687260000e+000) (27, 2.79102707993437230000e-001) (28, 3.32758902365203820000e+000) (29, 6.59725792993679390000e-001) (9, -9.90132258628396020000e-002) (10, 5.04793940964312850000e-001) (11, -2.77036150608769740000e-001) (12, -6.60846162763266240000e-001) (13, 2.22666912017300320000e-001) (14, 9.36238007391647200000e-001) (15, -5.09392845527491640000e-001) (16, -1.83629179406648270000e+000) (17, 2.82238438102349330000e-001) (18, 1.14921068586568140000e+000) (19, 1.79937695921822960000e+000) (20, -5.47758105349949450000e-002) (21, 1.85352641734797880000e+000) (22, 3.18625947620240750000e+000) (23, -5.48126312805039210000e-001) (24, -5.63853121365159300000e-001) (25, -7.67640983522656970000e-001) (26, 1.66673560351398260000e+000) (27, -1.76870034707546920000e-001) (28, -2.57243207851999990000e+000) (29, 2.50992322204659560000e-001) (9, 1.23350060322583930000e+000) (10, 4.30504049410924630000e-001) (11, -6.28160486248418910000e-001) (12, -2.34302699727378240000e-001) (13, -5.91178208219500620000e-001) (14, 1.27360162110246480000e+000) (15, -2.92928611129655240000e-001) (16, -1.67729044952995170000e+000) (17, -2.85460870262993100000e-001) (18, 1.94232370883190210000e+000) (19, 1.79786898033273990000e+000) (20, 1.24758826615117830000e+000) (21, 5.30725576418172820000e+000) (22, 3.87387703690535680000e+000) (23, -8.24733491678725890000e-001) (24, -9.81423901382317720000e-001) (25, 1.09401014442095960000e+001) (26, 2.11600154366404780000e+000) (27, 8.25261071542988890000e-001) (28, -1.98121334917996910000e+000) (29, 5.72190364740171040000e-001) (9, 6.82617069804877240000e-001) (10, 5.35495709324195100000e-001) (11, 1.95851697764796160000e-001) (12, -4.21345917259185240000e-001) (13, -8.39443662812090370000e-001) (14, 1.09782144870004080000e+000) (15, 7.30105447692344420000e-001) (16, 6.64423067604823610000e-001) (17, 1.12913239742598950000e-001) (18, 4.55778988226237750000e+000) (19, 1.38213618303577460000e+000) (20, 1.04667683696428520000e+000) (21, 1.05164303517941080000e+001) (22, 3.56126835952839780000e+000) (23, -1.11913669347466540000e+000) (24, 1.29662978651687970000e-001) (25, 3.77666624570792920000e+000) (26, 1.07638148237873450000e-001) (27, 1.60225606019477380000e-001) (28, -1.34229680613945650000e+000) (29, 1.05436619380541230000e+000) (9, 9.31344972632737630000e-001) (10, -1.19834311443125580000e-002) (11, 1.18373803166733150000e-001) (12, 6.64743409011147480000e-001) (13, 2.98697471751069810000e-001) (14, 7.22523988494818140000e-001) (15, -2.03162621619851920000e+000) (16, -1.81354505414046750000e-002) (17, 2.52971662754507660000e-001) (18, -1.24314851798700650000e+000) (19, -3.82198111215681200000e-001) (20, 1.08665925669010610000e+000) (21, 3.58417851023321620000e+000) (22, 1.30175469230305450000e+000) (23, -1.30930290795558100000e-001) (24, -3.76842127659021030000e-001) (25, 1.44945149170011030000e+001) (26, 3.60794890460070050000e+000) (27, -5.45951092191943270000e-001) (28, -2.85623692651187260000e+000) (29, 1.16287354784345510000e+000) 
