FANN_FLO_2.1
num_layers=3
learning_rate=0.700000
connection_rate=1.000000
network_type=0
learning_momentum=0.000000
training_algorithm=2
train_error_function=1
train_stop_function=0
cascade_output_change_fraction=0.010000
quickprop_decay=-0.000100
quickprop_mu=1.750000
rprop_increase_factor=1.200000
rprop_decrease_factor=0.500000
rprop_delta_min=0.000000
rprop_delta_max=50.000000
rprop_delta_zero=0.100000
cascade_output_stagnation_epochs=12
cascade_candidate_change_fraction=0.010000
cascade_candidate_stagnation_epochs=12
cascade_max_out_epochs=150
cascade_max_cand_epochs=150
cascade_num_candidate_groups=2
bit_fail_limit=3.49999999999999980000e-001
cascade_candidate_limit=1.00000000000000000000e+003
cascade_weight_multiplier=4.00000000000000020000e-001
cascade_activation_functions_count=10
cascade_activation_functions=3 5 7 8 10 11 14 15 16 17 
cascade_activation_steepnesses_count=4
cascade_activation_steepnesses=2.50000000000000000000e-001 5.00000000000000000000e-001 7.50000000000000000000e-001 1.00000000000000000000e+000 
layer_sizes=9 21 6 
scale_included=0
neurons (num_inputs, activation_function, activation_steepness)=(0, 0, 0.00000000000000000000e+000) (0, 0, 0.00000000000000000000e+000) (0, 0, 0.00000000000000000000e+000) (0, 0, 0.00000000000000000000e+000) (0, 0, 0.00000000000000000000e+000) (0, 0, 0.00000000000000000000e+000) (0, 0, 0.00000000000000000000e+000) (0, 0, 0.00000000000000000000e+000) (0, 0, 0.00000000000000000000e+000) (9, 6, 5.00000000000000000000e-001) (9, 6, 5.00000000000000000000e-001) (9, 6, 5.00000000000000000000e-001) (9, 6, 5.00000000000000000000e-001) (9, 6, 5.00000000000000000000e-001) (9, 6, 5.00000000000000000000e-001) (9, 6, 5.00000000000000000000e-001) (9, 6, 5.00000000000000000000e-001) (9, 6, 5.00000000000000000000e-001) (9, 6, 5.00000000000000000000e-001) (9, 6, 5.00000000000000000000e-001) (9, 6, 5.00000000000000000000e-001) (9, 6, 5.00000000000000000000e-001) (9, 6, 5.00000000000000000000e-001) (9, 6, 5.00000000000000000000e-001) (9, 6, 5.00000000000000000000e-001) (9, 6, 5.00000000000000000000e-001) (9, 6, 5.00000000000000000000e-001) (9, 6, 5.00000000000000000000e-001) (9, 6, 5.00000000000000000000e-001) (0, 6, 0.00000000000000000000e+000) (21, 6, 5.00000000000000000000e-001) (21, 6, 5.00000000000000000000e-001) (21, 6, 5.00000000000000000000e-001) (21, 6, 5.00000000000000000000e-001) (21, 6, 5.00000000000000000000e-001) (0, 6, 0.00000000000000000000e+000) 
connections (connected_to_neuron, weight)=(0, 1.83685344608353950000e+000) (1, 2.94967469561508370000e+000) (2, 1.64937636673544220000e+000) (3, 1.17059480615677840000e+000) (4, -1.54428690386350170000e+001) (5, 2.90141608129586670000e-001) (6, 5.31947300177172360000e+000) (7, 5.37289118919268830000e+000) (8, 2.73210137935283930000e-001) (0, 2.35603521708520790000e+000) (1, -5.88634775916426370000e+000) (2, 5.65546310606367000000e+000) (3, 2.54627733325524370000e+000) (4, -4.09864387536724540000e+000) (5, -6.33101102089964400000e+000) (6, -6.87229232673344460000e-001) (7, 1.89375903577238880000e+000) (8, 2.32196635531671610000e-001) (0, 5.71207196608152110000e-001) (1, 2.09184846738340720000e+000) (2, 1.24220395873219010000e-001) (3, -6.55471463401172640000e+000) (4, -6.20474579081549480000e+000) (5, -1.95006552157225450000e-003) (6, -2.68847844597758940000e+000) (7, -1.21887408799346500000e+000) (8, 2.48283467949518750000e-001) (0, 2.50621777151260330000e+001) (1, -2.67325118360876100000e+001) (2, 4.15724808043950760000e+002) (3, 7.51299702214747070000e+001) (4, -1.41145261632667970000e+002) (5, 5.35745963206871710000e+001) (6, -1.10469625309264470000e+001) (7, -1.14808460917261090000e+002) (8, 3.72221138261688500000e+000) (0, -9.82671768167830420000e-002) (1, 7.68062512044128280000e+000) (2, -1.99224698554266210000e+000) (3, 2.12032356243510020000e+000) (4, 3.40763675266128160000e-001) (5, -2.60806612554434070000e+000) (6, 1.20517856134148380000e+000) (7, -1.09060319235124890000e+000) (8, 1.56563113429533860000e-001) (0, 5.85963728641214380000e-001) (1, -8.68515752187804300000e-001) (2, 2.10437508197486520000e+000) (3, -4.37280827674149820000e+000) (4, 6.57278442625915950000e-001) (5, -4.14939177172778010000e-001) (6, -5.01766090668733080000e+000) (7, 5.67853891041281680000e+000) (8, 5.14822549488820890000e-002) (0, 4.00497459346825290000e-001) (1, 8.55049371794723400000e-001) (2, -6.49756139619446450000e-001) (3, 1.39846212636503810000e+000) (4, -1.76216613950337810000e+000) (5, -4.20352175240485570000e-001) (6, -4.78986307560054390000e-001) (7, 1.55083763780711870000e+000) (8, 1.51586199014690390000e-001) (0, -4.35090245207069790000e-001) (1, 1.31530124891720780000e-001) (2, 3.64412346543110280000e-001) (3, -2.57297212300248040000e-003) (4, -2.91806626133047250000e-001) (5, -2.08345430496030030000e+000) (6, -5.80683570063274650000e-001) (7, 3.39087854690593550000e-001) (8, 7.76107441772412590000e-002) (0, 3.55837430538707130000e+000) (1, 2.24623872402463980000e+000) (2, 2.55009899079680040000e+000) (3, -7.57732260458459180000e+000) (4, -4.54773690261625420000e+000) (5, -1.34245627833435030000e+000) (6, 1.82355940530485480000e+001) (7, -1.35996611300450820000e+001) (8, -4.41446234894951720000e-001) (0, 4.09764481359303430000e-001) (1, -1.41506990913733090000e+000) (2, -6.31488799808307370000e+000) (3, 5.03721635915089380000e+000) (4, -1.36256000400976160000e+000) (5, 1.30765231984486420000e+000) (6, -2.76721600073575090000e+000) (7, 1.08585166247180440000e+001) (8, 8.55462419933086250000e-002) (0, 9.94635631183794540000e+000) (1, 1.03770787884000150000e+001) (2, -1.66983801375212590000e+001) (3, 1.07019321010323990000e+000) (4, -9.71636340045245820000e+000) (5, -9.39754759984804270000e+000) (6, 2.49688242715018590000e+001) (7, 3.69293950837013870000e+001) (8, 3.89273783703015740000e-001) (0, 3.79993416833896580000e+000) (1, 9.11462079520200530000e-001) (2, -2.64089551880341110000e-001) (3, -7.66340089117348190000e-001) (4, -1.12459967153038070000e+001) (5, -3.54861234881863390000e+000) (6, 6.61011540831163910000e+000) (7, -1.35145906828602030000e-001) (8, 2.12257234425811900000e-001) (0, -1.60414479166108380000e+000) (1, -2.90530646318225520000e+000) (2, -1.75671630727451350000e+001) (3, 6.97421114429781610000e-001) (4, 3.17591779755063140000e-001) (5, 2.91707934983349260000e+000) (6, 7.16612648389214430000e+000) (7, -5.11092511651171930000e+000) (8, -3.50106789347087370000e-002) (0, 2.48564469772956010000e-001) (1, 1.49943614356886970000e-001) (2, 4.97088006631971780000e-001) (3, -7.00785721381409270000e-001) (4, 1.40768229556821180000e+000) (5, -1.15720831145179350000e+000) (6, 2.66354977318397750000e+000) (7, -4.97558958779704330000e+000) (8, -5.85798451634537420000e-002) (0, 9.75274080908122800000e+000) (1, -3.84067603181193110000e+001) (2, 3.28476056389035250000e+002) (3, 9.28606734273558350000e+001) (4, -1.10007739735064390000e+002) (5, 7.38116567556756990000e+001) (6, -3.84799283654121210000e+001) (7, -1.78420231917759450000e+002) (8, 4.86110093294192860000e+000) (0, -2.96215921126270090000e+000) (1, 2.43264460596121480000e+000) (2, -3.83219605025636350000e-001) (3, -4.61567921037578090000e+000) (4, -1.17409622266345860000e+000) (5, 8.45466734933473060000e+000) (6, 1.53523974446877020000e+000) (7, 9.98531431381640290000e+000) (8, 7.00863795221384870000e-001) (0, -1.30512706106524380000e-001) (1, -9.22051076065800150000e+000) (2, -5.13173231297280810000e+000) (3, 1.16974435523371660000e+001) (4, 7.15656134718594840000e+000) (5, 9.44728947511473820000e-002) (6, 5.09833164846277680000e+000) (7, 6.81996979333085300000e+000) (8, -4.58427966348423590000e-001) (0, 5.29603929029844610000e+000) (1, -1.23721705361384820000e+001) (2, -1.38694710598942170000e+001) (3, 4.62011321758184490000e+000) (4, 2.85187896208170490000e+001) (5, -3.30613334494025610000e+001) (6, 3.20316859096999660000e+001) (7, -1.36142352316270790000e+001) (8, 6.88905653737608260000e-001) (0, 3.98492952402353180000e+000) (1, -4.24429315166804070000e+000) (2, 3.20582191934515710000e+001) (3, -1.33659178727297030000e+001) (4, 1.14264223262171290000e+001) (5, -9.76635649792014780000e-001) (6, 9.07660209474340230000e-001) (7, -4.52474601362872430000e-001) (8, 3.83788635261820610000e-001) (0, 1.41858634777006420000e+000) (1, -3.73872818051584230000e+000) (2, 4.08703448362975950000e-001) (3, 5.99428368844182200000e+000) (4, 3.57483331383976880000e+000) (5, -2.25858393202210240000e+000) (6, -2.35095493732003740000e+000) (7, 7.97204233007495770000e-001) (8, -1.09511154733609200000e-001) (9, 1.73553348188234470000e+000) (10, -1.80397094472840710000e+000) (11, -5.01428644058116110000e+000) (12, 6.40334933970281570000e-002) (13, -3.48307265997581880000e+000) (14, 7.39783956690074350000e-001) (15, 2.53246164211159200000e-001) (16, 6.75070520055027950000e+000) (17, 3.24673002602449690000e-001) (18, 4.06954118965711140000e+000) (19, -1.34538838141641780000e-001) (20, -3.83883595397390250000e-001) (21, 7.75933723992422860000e-002) (22, 7.74706819124305750000e+000) (23, -1.47128712146438030000e-002) (24, 2.25437560432609620000e-001) (25, -3.59426322172631840000e+000) (26, 7.07612126991033620000e-002) (27, 2.91816814361498080000e-002) (28, 1.70211391450173570000e+000) (29, 4.53194685990692010000e-001) (9, -1.13280267624131640000e+000) (10, 2.02887631095588630000e+000) (11, 2.18641879112175320000e+000) (12, 2.30945217826618060000e-001) (13, 2.62752823246471580000e+000) (14, 1.07111114729513870000e+000) (15, 1.15453208467887580000e+000) (16, -6.20113635794304590000e+000) (17, -4.92844022514693280000e-001) (18, -1.71594014314990880000e+000) (19, 4.19270924143008150000e-002) (20, -2.20112195261808670000e-001) (21, 3.16407221265005980000e-001) (22, -1.06514594247023320000e+000) (23, -1.56430957067565270000e-001) (24, -7.13815725845234230000e-001) (25, 2.61979244847184400000e+000) (26, -3.78418672023691010000e-001) (27, 3.36634070370712200000e-002) (28, -3.65146857969044090000e+000) (29, 1.05862919105738660000e+000) (9, -9.80983849685510890000e-001) (10, -7.94944174545234360000e-001) (11, 4.13144152617440420000e+000) (12, 2.89588030765394360000e-001) (13, 3.99431570825976580000e+000) (14, 4.44819326410371750000e-001) (15, 5.86959152642331670000e-001) (16, 1.88998566224791880000e+000) (17, -1.23841803915394930000e-001) (18, -5.63681111858229840000e+000) (19, -4.93851068950036780000e-001) (20, 2.48855149956993490000e+000) (21, 2.25802579101236050000e+000) (22, -8.41480390430789700000e+000) (23, -2.37737755315696550000e-001) (24, 8.74537115359487750000e-001) (25, 3.57340828540600920000e+000) (26, -5.45342051874885050000e-001) (27, 1.15823258503306550000e+000) (28, 3.52001164154331780000e+000) (29, 7.51044157388613740000e-001) (9, 2.95876916172347700000e+000) (10, 1.73693175708057110000e+000) (11, 9.57375683294975690000e-001) (12, -7.09851326683037410000e-001) (13, 1.62587895586442710000e+000) (14, 2.13143106319541610000e+000) (15, 4.95978119540795240000e-001) (16, -1.29281354002561780000e+001) (17, -4.50599567341442860000e+000) (18, -1.73326497118754850000e+000) (19, 3.43237178498012400000e-002) (20, 1.34251742230538950000e-003) (21, 7.91492908479192070000e-001) (22, 1.14203554774201680000e+001) (23, 1.78543597726057260000e-002) (24, 2.59029207833576250000e-001) (25, 9.34313785073571660000e-001) (26, 5.77431799291396100000e-001) (27, 5.25908010419246510000e-001) (28, -2.68299495904871320000e+000) (29, 4.35498373754840020000e-001) (9, -1.10035556462951410000e-001) (10, -4.21642471452607380000e+000) (11, -1.51608943860349200000e+000) (12, -1.37081183818527230000e+000) (13, -5.50927620833236100000e-001) (14, 2.41277263697797160000e+000) (15, 4.90538438247055840000e-001) (16, 4.44152023805329500000e+000) (17, -1.87974021632870620000e+000) (18, -3.05963222680136050000e+000) (19, -5.22079692604472960000e-001) (20, 5.56767023115648830000e+000) (21, 7.57751334334344500000e-001) (22, -9.22036527145705050000e-001) (23, 9.61047960344876380000e-001) (24, 1.62243238329588490000e+000) (25, 3.97413271944251220000e-002) (26, 3.43258755261920180000e-001) (27, 5.29089484853836560000e-001) (28, 4.53155768919181150000e+000) (29, 6.94298447301810010000e-001) 
