FANN_FLO_2.1
num_layers=3
learning_rate=0.700000
connection_rate=1.000000
network_type=0
learning_momentum=0.000000
training_algorithm=2
train_error_function=1
train_stop_function=0
cascade_output_change_fraction=0.010000
quickprop_decay=-0.000100
quickprop_mu=1.750000
rprop_increase_factor=1.200000
rprop_decrease_factor=0.500000
rprop_delta_min=0.000000
rprop_delta_max=50.000000
rprop_delta_zero=0.100000
cascade_output_stagnation_epochs=12
cascade_candidate_change_fraction=0.010000
cascade_candidate_stagnation_epochs=12
cascade_max_out_epochs=150
cascade_max_cand_epochs=150
cascade_num_candidate_groups=2
bit_fail_limit=3.49999999999999980000e-001
cascade_candidate_limit=1.00000000000000000000e+003
cascade_weight_multiplier=4.00000000000000020000e-001
cascade_activation_functions_count=10
cascade_activation_functions=3 5 7 8 10 11 14 15 16 17 
cascade_activation_steepnesses_count=4
cascade_activation_steepnesses=2.50000000000000000000e-001 5.00000000000000000000e-001 7.50000000000000000000e-001 1.00000000000000000000e+000 
layer_sizes=9 4 6 
scale_included=0
neurons (num_inputs, activation_function, activation_steepness)=(0, 0, 0.00000000000000000000e+000) (0, 0, 0.00000000000000000000e+000) (0, 0, 0.00000000000000000000e+000) (0, 0, 0.00000000000000000000e+000) (0, 0, 0.00000000000000000000e+000) (0, 0, 0.00000000000000000000e+000) (0, 0, 0.00000000000000000000e+000) (0, 0, 0.00000000000000000000e+000) (0, 0, 0.00000000000000000000e+000) (9, 6, 5.00000000000000000000e-001) (9, 6, 5.00000000000000000000e-001) (9, 6, 5.00000000000000000000e-001) (0, 6, 0.00000000000000000000e+000) (4, 6, 5.00000000000000000000e-001) (4, 6, 5.00000000000000000000e-001) (4, 6, 5.00000000000000000000e-001) (4, 6, 5.00000000000000000000e-001) (4, 6, 5.00000000000000000000e-001) (0, 6, 0.00000000000000000000e+000) 
connections (connected_to_neuron, weight)=(0, -9.84739941048943470000e-001) (1, 5.60878232674264510000e-001) (2, -2.31528993907007760000e+000) (3, 1.98287655025794020000e+000) (4, -3.22448097882333470000e-001) (5, 1.85799974683485750000e+000) (6, -4.67966347284799070000e+000) (7, 8.14346983993369020000e+000) (8, 8.52783997623602910000e-001) (0, 2.21765326668574550000e+001) (1, 3.32075271219644420000e-001) (2, 2.73550008528551700000e+001) (3, -1.57847605316376730000e+001) (4, 3.26635140543347330000e+001) (5, -1.68026074998548150000e+002) (6, 1.20239970077741770000e+002) (7, -9.96666282097092590000e+001) (8, -1.77860222269038300000e+000) (0, 2.80031882788545590000e+001) (1, -6.36881177527511340000e+000) (2, -3.50134026858488810000e+001) (3, 1.42013882906023740000e+001) (4, 6.84144398423896690000e+001) (5, -9.64662666308061740000e+001) (6, -1.58651302684891570000e+001) (7, 1.17178021012139270000e+002) (8, -1.65463624761755250000e-001) (9, 7.78044503535101240000e-001) (10, 1.13143675478365280000e-001) (11, -1.02076102563919410000e-001) (12, 3.62319647236568180000e-001) (9, -4.40490673213567330000e-001) (10, -1.24833331175359220000e-001) (11, 1.88172674207850850000e-003) (12, 9.31327166082601580000e-001) (9, 5.31279191085638810000e-001) (10, 4.09738687024905550000e-002) (11, -1.24679430679795880000e-001) (12, 8.30920874178044940000e-001) (9, -2.00347798739985010000e+000) (10, -2.56701994343454420000e-001) (11, 1.79374472435172350000e-001) (12, 1.61612569714548070000e+000) (9, -9.28267356230726700000e-002) (10, -5.78670392673488950000e-002) (11, 9.07183169929157010000e-002) (12, 1.05854865890811770000e+000) 
