FANN_FLO_2.1
num_layers=3
learning_rate=0.700000
connection_rate=1.000000
network_type=0
learning_momentum=0.000000
training_algorithm=2
train_error_function=1
train_stop_function=0
cascade_output_change_fraction=0.010000
quickprop_decay=-0.000100
quickprop_mu=1.750000
rprop_increase_factor=1.200000
rprop_decrease_factor=0.500000
rprop_delta_min=0.000000
rprop_delta_max=50.000000
rprop_delta_zero=0.100000
cascade_output_stagnation_epochs=12
cascade_candidate_change_fraction=0.010000
cascade_candidate_stagnation_epochs=12
cascade_max_out_epochs=150
cascade_max_cand_epochs=150
cascade_num_candidate_groups=2
bit_fail_limit=3.49999999999999980000e-001
cascade_candidate_limit=1.00000000000000000000e+003
cascade_weight_multiplier=4.00000000000000020000e-001
cascade_activation_functions_count=10
cascade_activation_functions=3 5 7 8 10 11 14 15 16 17 
cascade_activation_steepnesses_count=4
cascade_activation_steepnesses=2.50000000000000000000e-001 5.00000000000000000000e-001 7.50000000000000000000e-001 1.00000000000000000000e+000 
layer_sizes=9 21 6 
scale_included=0
neurons (num_inputs, activation_function, activation_steepness)=(0, 0, 0.00000000000000000000e+000) (0, 0, 0.00000000000000000000e+000) (0, 0, 0.00000000000000000000e+000) (0, 0, 0.00000000000000000000e+000) (0, 0, 0.00000000000000000000e+000) (0, 0, 0.00000000000000000000e+000) (0, 0, 0.00000000000000000000e+000) (0, 0, 0.00000000000000000000e+000) (0, 0, 0.00000000000000000000e+000) (9, 6, 5.00000000000000000000e-001) (9, 6, 5.00000000000000000000e-001) (9, 6, 5.00000000000000000000e-001) (9, 6, 5.00000000000000000000e-001) (9, 6, 5.00000000000000000000e-001) (9, 6, 5.00000000000000000000e-001) (9, 6, 5.00000000000000000000e-001) (9, 6, 5.00000000000000000000e-001) (9, 6, 5.00000000000000000000e-001) (9, 6, 5.00000000000000000000e-001) (9, 6, 5.00000000000000000000e-001) (9, 6, 5.00000000000000000000e-001) (9, 6, 5.00000000000000000000e-001) (9, 6, 5.00000000000000000000e-001) (9, 6, 5.00000000000000000000e-001) (9, 6, 5.00000000000000000000e-001) (9, 6, 5.00000000000000000000e-001) (9, 6, 5.00000000000000000000e-001) (9, 6, 5.00000000000000000000e-001) (9, 6, 5.00000000000000000000e-001) (0, 6, 0.00000000000000000000e+000) (21, 6, 5.00000000000000000000e-001) (21, 6, 5.00000000000000000000e-001) (21, 6, 5.00000000000000000000e-001) (21, 6, 5.00000000000000000000e-001) (21, 6, 5.00000000000000000000e-001) (0, 6, 0.00000000000000000000e+000) 
connections (connected_to_neuron, weight)=(0, 4.93235393805317630000e+001) (1, -4.25367638182434080000e+001) (2, 1.03759083129382660000e+001) (3, 9.90098278857833380000e+001) (4, 6.62490168142715700000e+001) (5, -1.11503724992699720000e+002) (6, 5.76659941639844080000e+001) (7, -7.03928829118773080000e+001) (8, 5.28930993873387930000e-001) (0, 6.15895213378378870000e+000) (1, -7.94404205898162450000e+000) (2, 1.13413550539083290000e+001) (3, 1.49272987657535850000e+001) (4, 2.13805218995098080000e+000) (5, -9.54688939704980830000e+000) (6, 8.29010499138713580000e-002) (7, -1.99680735260550830000e+001) (8, 6.91103500318455130000e-001) (0, -1.04053597277578400000e+001) (1, 1.02792824223857200000e+001) (2, -1.81745436348497800000e+001) (3, -3.27529098488566320000e+001) (4, 1.64630617711174130000e+001) (5, 2.12809413086158690000e+001) (6, -6.40787236709259390000e+000) (7, 1.87138915181284740000e+001) (8, -7.89828385884172040000e-001) (0, 7.11390297809269430000e-001) (1, 4.06029586321627180000e+000) (2, 5.48533582798584710000e+000) (3, -6.73861986290142050000e+000) (4, 6.00572187191954490000e+000) (5, 3.14028331156521070000e+000) (6, 1.46630998172292970000e+001) (7, -1.56605439986362960000e+001) (8, 3.75842295669198250000e-001) (0, -4.16679766131506750000e+000) (1, 7.45256203049245870000e+000) (2, -1.12710435203399030000e+001) (3, 2.37739084590297550000e+001) (4, -1.24305323508494910000e+001) (5, 1.26724274293575410000e+001) (6, 5.31551674797201730000e+000) (7, -6.85209898149742270000e+000) (8, 1.07655828450502540000e+000) (0, 8.51189991042622520000e-002) (1, -6.40716894579551520000e+000) (2, 5.13293110295373100000e+000) (3, 2.85731567471191420000e+000) (4, -6.15758874772989100000e+000) (5, -5.02931967232338820000e+000) (6, -1.02026464923356870000e+000) (7, 1.17158358174759190000e+000) (8, 9.67259612619211780000e-002) (0, -2.27637020795797530000e+000) (1, 2.32976373806610580000e+001) (2, -2.66088180980350410000e+000) (3, 1.58768563971731340000e+000) (4, -2.78327064389052770000e+001) (5, 7.70105633642270030000e-001) (6, 2.36154466929331130000e+000) (7, -3.09118355800926530000e+001) (8, -5.49937719332267220000e-002) (0, 6.38698845357400180000e-001) (1, 1.01500227230572900000e+000) (2, 1.32349867268273000000e+000) (3, 3.33884737281161860000e-001) (4, -3.93194146397945940000e+000) (5, 5.48834598210649390000e-001) (6, 6.24190680180826020000e-001) (7, 1.41508846578605850000e+000) (8, -1.09135293295997530000e-001) (0, 5.24109842866130940000e-001) (1, -1.75799941591756890000e+000) (2, 2.64635639709787900000e+000) (3, 4.26488355017670080000e+000) (4, -2.15867608035401220000e+000) (5, -3.39896575052207520000e+000) (6, 8.09718954456705860000e-002) (7, -3.07444886067773930000e-001) (8, 1.51241088324572890000e-001) (0, 4.34703099310189510000e+000) (1, -1.06566311096308170000e+001) (2, 1.39322274200779500000e+001) (3, 1.12964615643921920000e+001) (4, -9.62670508839723030000e+000) (5, 5.04132945920781950000e+000) (6, -7.31358919198483170000e-001) (7, 4.88117373444624290000e+000) (8, -4.63892978023877190000e-001) (0, 6.02471767401967510000e-001) (1, 4.16424707368374760000e+000) (2, -7.23655731081548240000e-001) (3, 7.77120691926355690000e-002) (4, 2.18838078379198030000e-001) (5, -1.24311127288147610000e-001) (6, 2.92196919455686380000e+000) (7, 4.20202353764738630000e-001) (8, -1.79345566562349930000e-001) (0, -2.40743356970881180000e+000) (1, -7.45078461332105310000e+000) (2, 9.52714532999896240000e+000) (3, -9.75155047081887010000e+000) (4, 3.22300915726531870000e+001) (5, 1.62324025731134860000e+001) (6, -4.81606087607779450000e+000) (7, 8.93757486752211430000e+000) (8, 1.80983534751078930000e+000) (0, -2.87699243005014820000e-001) (1, -1.45396340789369160000e+000) (2, -1.07979512282362450000e-001) (3, -4.78680188471885430000e+000) (4, 2.16310275954490680000e+000) (5, -1.85494373057148820000e+000) (6, -8.27857124131719300000e-001) (7, -5.79171270214118990000e-003) (8, 6.11208380311760520000e-002) (0, -8.15758964141081580000e+000) (1, 3.32486886566842940000e+002) (2, 4.77818734029271540000e+001) (3, 1.45426115377121930000e+002) (4, -1.05250460337160530000e+002) (5, -1.97280480940862110000e+002) (6, 3.82653336513803770000e+002) (7, -1.38390236551475900000e+001) (8, 2.60946562378830560000e+000) (0, -2.18164173673722180000e-001) (1, -2.26297090725052550000e-001) (2, -5.44681959927629360000e-001) (3, 1.91671877319798840000e-001) (4, -2.31632857130126680000e-001) (5, 4.36185955461127540000e-003) (6, -3.79458112606968770000e-001) (7, 9.87668875023637650000e-001) (8, -6.12351144414892690000e-002) (0, 2.17029506095438530000e-001) (1, -4.29609685446661270000e-002) (2, 5.33846814731095740000e-001) (3, -2.20323814386220730000e-001) (4, -1.07054282612999540000e+000) (5, 7.34202440364157690000e-002) (6, 3.27498203391550780000e-001) (7, 3.67498943945805120000e-001) (8, -1.17859049333434940000e-001) (0, -8.68699919875098200000e-001) (1, 1.74342954530612960000e+001) (2, -4.72822376523860210000e+000) (3, -1.52327847956005670000e+001) (4, -1.66980727732334660000e+001) (5, 4.28698042474689170000e+000) (6, 2.96072562637450470000e+001) (7, -2.01825156847882530000e+001) (8, 5.37195850030741220000e-001) (0, 1.34370774614058800000e+000) (1, -2.10152452974596350000e+000) (2, -1.84936180833080650000e+000) (3, 1.19666539245136640000e+000) (4, 1.40556375115726590000e+001) (5, 2.26030318752742580000e-002) (6, 4.73180923509814110000e+000) (7, -8.90818112971788170000e+000) (8, 4.43988385920975780000e-001) (0, 1.28904480571885970000e+000) (1, 9.91578607369739570000e-001) (2, 1.05618558506295010000e+001) (3, 4.23680356068846550000e+000) (4, 5.38963719003860970000e-001) (5, 8.82329810688304630000e-001) (6, -9.29003552373995230000e+000) (7, 1.43243339320384480000e+001) (8, -3.52352880683969420000e-001) (0, 1.70955640623012580000e+000) (1, -5.13816488624383450000e+000) (2, -9.17062255444327960000e-001) (3, -2.62294868820684710000e+000) (4, 1.39585045523836850000e+001) (5, -2.02728855793583000000e+000) (6, 1.40292107769818080000e+001) (7, -1.78473964096308710000e+000) (8, 3.18364772272805570000e-002) (9, -1.56972780367555160000e-001) (10, -6.59570252282792540000e-001) (11, -6.61754016268013220000e-001) (12, -4.68292943424915560000e-001) (13, -2.45141049246753170000e-001) (14, 3.27761936444807890000e+000) (15, -4.65699392797574790000e-002) (16, -6.22522048751659840000e-001) (17, -2.37089504992627380000e+000) (18, -9.27157149013153490000e-001) (19, 7.75702896445284670000e-001) (20, 7.81918671859676840000e-002) (21, -2.39597681906427340000e+000) (22, -5.02478271063510840000e-001) (23, 2.41211995287154930000e+000) (24, -5.12199456189873060000e-001) (25, 5.58434429123820570000e-001) (26, 2.57539444737451100000e+000) (27, 9.78090111839712060000e-001) (28, -3.82034961600995040000e-001) (29, 7.07823956148952220000e-001) (9, -7.26061708494893650000e-002) (10, 4.30001449822541790000e-001) (11, 3.82831516549285770000e-001) (12, -1.71724441090711280000e-001) (13, 5.61143647189463860000e-001) (14, -1.65403406538974030000e+000) (15, 2.57340386040989470000e-001) (16, -2.16353894404891100000e+000) (17, 9.53277515821505440000e-001) (18, 4.38072341103905580000e-001) (19, 3.00971469861086140000e-001) (20, 3.98498397538529670000e-001) (21, 2.24015613895349920000e+000) (22, 3.87013101800203870000e-001) (23, -4.00480810533559590000e+000) (24, 1.10687474658651720000e+001) (25, -4.51573254809928270000e-001) (26, -1.09740009166230900000e+000) (27, -4.35902419216800340000e-001) (28, 3.47029814739929280000e-001) (29, 7.12094743377844950000e-001) (9, -2.84394900515185580000e-002) (10, 1.36091126409262530000e+000) (11, 5.19632099917301530000e-001) (12, 2.29005676752195160000e+000) (13, 3.13343764485201790000e-001) (14, -2.25848294795733120000e+000) (15, -6.98363370928530960000e-001) (16, 1.70200077254209510000e+000) (17, 3.32202131682963890000e+000) (18, 4.40995271306896970000e-001) (19, 4.29198573693999560000e+000) (20, 8.51335001214402420000e-001) (21, 2.27330610550817980000e+000) (22, 1.07809619323345680000e-001) (23, 6.62878682410906260000e+000) (24, 8.51397843678649850000e-002) (25, -1.21047029563625010000e+000) (26, -3.49971710544781400000e+000) (27, -2.84591254106022620000e+000) (28, -1.24974842838598790000e+000) (29, 6.01157986498889070000e-001) (9, 4.43000711179810710000e-001) (10, 9.90848651327531080000e-001) (11, 1.93448966842082730000e+000) (12, -2.50319733178348170000e+000) (13, 6.43275451436119190000e-001) (14, 8.46452959186678620000e-001) (15, 1.62237890961139030000e-001) (16, -4.59379197313602640000e+000) (17, 5.00125837649294080000e-001) (18, 1.78479259985812130000e+000) (19, 4.41091428904263160000e+000) (20, 6.46301688775523080000e-001) (21, 2.95163745402069820000e+000) (22, 2.02828186429229400000e-001) (23, -1.78366078941191080000e+001) (24, 1.64060819900262290000e+000) (25, 4.80790381172394810000e-001) (26, -7.02739656709356230000e-001) (27, -4.45322727204208570000e-001) (28, -1.57419654808957450000e-001) (29, 6.48381660481073490000e-001) (9, 1.08260208392868800000e-002) (10, 1.07415366609458360000e+000) (11, 2.08533456343053700000e-001) (12, -6.57162789742806170000e-001) (13, 5.63121121601362300000e-001) (14, 7.88382002425480730000e-001) (15, 1.54798275311940990000e+000) (16, 9.01317521289930390000e+000) (17, -3.75811953583237470000e+000) (18, -4.82058872223583230000e-001) (19, -6.83029409641492840000e-001) (20, 9.42120340172498570000e-001) (21, 2.65688900463398840000e+000) (22, 1.73310090422798880000e-001) (23, 8.49837850078430930000e-002) (24, -9.77347077048780300000e+000) (25, -1.47313044411375250000e+000) (26, -1.43161992107206530000e+000) (27, -7.47045910211686370000e-002) (28, 3.66236001547036860000e+000) (29, 4.14293048198545290000e-001) 
