FANN_FLO_2.1
num_layers=3
learning_rate=0.700000
connection_rate=1.000000
network_type=0
learning_momentum=0.000000
training_algorithm=2
train_error_function=1
train_stop_function=0
cascade_output_change_fraction=0.010000
quickprop_decay=-0.000100
quickprop_mu=1.750000
rprop_increase_factor=1.200000
rprop_decrease_factor=0.500000
rprop_delta_min=0.000000
rprop_delta_max=50.000000
rprop_delta_zero=0.100000
cascade_output_stagnation_epochs=12
cascade_candidate_change_fraction=0.010000
cascade_candidate_stagnation_epochs=12
cascade_max_out_epochs=150
cascade_max_cand_epochs=150
cascade_num_candidate_groups=2
bit_fail_limit=3.49999999999999980000e-001
cascade_candidate_limit=1.00000000000000000000e+003
cascade_weight_multiplier=4.00000000000000020000e-001
cascade_activation_functions_count=10
cascade_activation_functions=3 5 7 8 10 11 14 15 16 17 
cascade_activation_steepnesses_count=4
cascade_activation_steepnesses=2.50000000000000000000e-001 5.00000000000000000000e-001 7.50000000000000000000e-001 1.00000000000000000000e+000 
layer_sizes=9 41 6 
scale_included=0
neurons (num_inputs, activation_function, activation_steepness)=(0, 0, 0.00000000000000000000e+000) (0, 0, 0.00000000000000000000e+000) (0, 0, 0.00000000000000000000e+000) (0, 0, 0.00000000000000000000e+000) (0, 0, 0.00000000000000000000e+000) (0, 0, 0.00000000000000000000e+000) (0, 0, 0.00000000000000000000e+000) (0, 0, 0.00000000000000000000e+000) (0, 0, 0.00000000000000000000e+000) (9, 6, 5.00000000000000000000e-001) (9, 6, 5.00000000000000000000e-001) (9, 6, 5.00000000000000000000e-001) (9, 6, 5.00000000000000000000e-001) (9, 6, 5.00000000000000000000e-001) (9, 6, 5.00000000000000000000e-001) (9, 6, 5.00000000000000000000e-001) (9, 6, 5.00000000000000000000e-001) (9, 6, 5.00000000000000000000e-001) (9, 6, 5.00000000000000000000e-001) (9, 6, 5.00000000000000000000e-001) (9, 6, 5.00000000000000000000e-001) (9, 6, 5.00000000000000000000e-001) (9, 6, 5.00000000000000000000e-001) (9, 6, 5.00000000000000000000e-001) (9, 6, 5.00000000000000000000e-001) (9, 6, 5.00000000000000000000e-001) (9, 6, 5.00000000000000000000e-001) (9, 6, 5.00000000000000000000e-001) (9, 6, 5.00000000000000000000e-001) (9, 6, 5.00000000000000000000e-001) (9, 6, 5.00000000000000000000e-001) (9, 6, 5.00000000000000000000e-001) (9, 6, 5.00000000000000000000e-001) (9, 6, 5.00000000000000000000e-001) (9, 6, 5.00000000000000000000e-001) (9, 6, 5.00000000000000000000e-001) (9, 6, 5.00000000000000000000e-001) (9, 6, 5.00000000000000000000e-001) (9, 6, 5.00000000000000000000e-001) (9, 6, 5.00000000000000000000e-001) (9, 6, 5.00000000000000000000e-001) (9, 6, 5.00000000000000000000e-001) (9, 6, 5.00000000000000000000e-001) (9, 6, 5.00000000000000000000e-001) (9, 6, 5.00000000000000000000e-001) (9, 6, 5.00000000000000000000e-001) (9, 6, 5.00000000000000000000e-001) (9, 6, 5.00000000000000000000e-001) (9, 6, 5.00000000000000000000e-001) (0, 6, 0.00000000000000000000e+000) (41, 6, 5.00000000000000000000e-001) (41, 6, 5.00000000000000000000e-001) (41, 6, 5.00000000000000000000e-001) (41, 6, 5.00000000000000000000e-001) (41, 6, 5.00000000000000000000e-001) (0, 6, 0.00000000000000000000e+000) 
connections (connected_to_neuron, weight)=(0, -5.35071916878165010000e+001) (1, 5.06307452570794400000e+001) (2, -9.74578168705139660000e+001) (3, -3.73151961540672870000e+001) (4, -2.47414783970288510000e+002) (5, 1.50000000000000000000e+003) (6, -2.28937978179904150000e+002) (7, 3.25514452973606690000e+002) (8, 2.05292152032896240000e+001) (0, -7.28230784091350720000e-002) (1, -3.12319832921406510000e+001) (2, -5.65460445702607120000e+001) (3, -2.86375661814188870000e+001) (4, 1.68416530481073320000e+001) (5, -1.77593552407672560000e+001) (6, 4.86398611118992010000e+001) (7, 6.83357692972244380000e+000) (8, 1.93889859203230940000e+001) (0, -1.09539554922455500000e+003) (1, -1.23352258337529290000e+003) (2, 1.36762368041314520000e+003) (3, -4.80755596488457630000e+002) (4, 1.48499999940395360000e+003) (5, -9.37600159417359240000e+002) (6, 4.25133345307604100000e+001) (7, 1.12463788851264030000e+003) (8, -1.85269732656947210000e+002) (0, 2.31522994942945670000e+001) (1, 3.32425404639252730000e+001) (2, 7.37293108533476800000e+000) (3, 9.12905397068752220000e+001) (4, 1.65283656781081280000e+002) (5, -3.33987200478587030000e+001) (6, -1.36553156549829170000e+002) (7, 1.28042822387122270000e+002) (8, -7.07416515524723180000e+000) (0, 3.00638725571250800000e+002) (1, -3.24202945641557560000e+002) (2, -2.45640769178472600000e+002) (3, -1.21990643177650070000e+002) (4, 8.91156999775020610000e+001) (5, 1.14988388645370260000e+003) (6, 2.87087423085654110000e+002) (7, -9.20573207735343770000e+002) (8, 2.36220986067921290000e+001) (0, -5.86631364244343430000e+000) (1, 3.28346376027744520000e+000) (2, 6.08671339144360030000e+001) (3, 5.61924352085182190000e+001) (4, -1.06448892755129240000e+002) (5, 7.44327077738012690000e+001) (6, -9.00219743423128880000e+001) (7, -1.12145385292829220000e+000) (8, -4.19815827901031840000e-001) (0, 1.49981495845296670000e+003) (1, 1.49999961599997910000e+003) (2, 1.49995027218530210000e+003) (3, 1.49999961599997910000e+003) (4, 1.48499999940395360000e+003) (5, 1.49996852621917560000e+003) (6, -1.49960640949284930000e+003) (7, -1.49916102665164700000e+003) (8, 1.49348205207506000000e+003) (0, 3.67795079111562300000e+002) (1, -6.93487493087381380000e+002) (2, -5.58798961597783770000e+002) (3, 1.68200927497153320000e+002) (4, 9.63323904592557600000e+002) (5, 8.21530628708939960000e+002) (6, 8.77031219201803310000e+002) (7, -1.50000000000000000000e+003) (8, 4.69806569781736060000e+001) (0, 2.88109297593816760000e+001) (1, 2.18312770293818290000e+002) (2, 9.73198812603865520000e+001) (3, 1.78562192332206990000e+002) (4, 1.12432954067434420000e+002) (5, 1.50000000000000000000e+003) (6, 2.94130417228966690000e+001) (7, -1.08752595085379450000e+003) (8, -5.84243833417767710000e+000) (0, 4.72146410936093460000e+000) (1, 7.96120512990090670000e+001) (2, -1.78911998365880790000e+001) (3, -9.36821332096070170000e+001) (4, 2.67888206956168030000e+001) (5, 7.35909072141962920000e+001) (6, -1.60718742825605750000e+001) (7, -6.49019871076602330000e+001) (8, 4.12619746989779030000e+000) (0, -3.76463804154840490000e+002) (1, -1.35200675149464860000e+003) (2, 1.28295275084657830000e+003) (3, -1.47411997810768000000e+003) (4, 1.47668491023182010000e+003) (5, -1.39490087980703900000e+003) (6, 1.45529689885610130000e+003) (7, 5.17628371744848100000e+002) (8, -2.02670547260161730000e+002) (0, 1.04456586232763440000e+001) (1, -1.62484865193813310000e+001) (2, -1.25223018511206010000e+002) (3, -1.10906613804431840000e+002) (4, 3.03422040821600660000e+001) (5, 5.23463811710215620000e+001) (6, 4.56267258672566640000e+002) (7, -1.93932611710399560000e+002) (8, -5.16533357471961830000e-001) (0, -1.84462282174885080000e+002) (1, -8.46469009169108290000e+002) (2, 1.31657017035042710000e+003) (3, -8.11432582195652800000e+002) (4, 1.42301379826192420000e+003) (5, -1.13397512398180170000e+003) (6, 7.98336535897846260000e+002) (7, -1.05493642396310020000e+003) (8, -1.78173178419924260000e+002) (0, 1.49999992547163170000e+003) (1, 1.49999945759996310000e+003) (2, 1.49999993999999770000e+003) (3, 1.49999960893434720000e+003) (4, 1.50000000000000000000e+003) (5, 1.49999901359993990000e+003) (6, 1.49996574623503310000e+003) (7, 1.49999961599997910000e+003) (8, 1.49986471256751220000e+003) (0, 1.44539569130025940000e+001) (1, 1.07065997878760560000e+002) (2, -6.27640094263919150000e+001) (3, -2.39433258038850950000e+001) (4, -8.11587180092174240000e+001) (5, 1.60099126844462460000e+002) (6, -2.35977240452093260000e+001) (7, -2.39652281601393840000e+002) (8, 1.26042665274955330000e+001) (0, 4.09535965550153590000e+001) (1, 5.24169686056944500000e+001) (2, -4.45902306885540090000e+001) (3, 1.19952606442009410000e+002) (4, 3.51777731590046240000e+002) (5, 9.85079344873414580000e+001) (6, -2.19079153625221320000e+002) (7, 1.79131309062849270000e+001) (8, -1.33539280648646650000e+001) (0, 2.39674793944403590000e+000) (1, -9.35825389412453770000e+002) (2, -4.05424927618742910000e+002) (3, 1.50000000000000000000e+003) (4, 1.53676730735053380000e+002) (5, -5.84527123920788430000e+002) (6, 1.50000000000000000000e+003) (7, 1.50000000000000000000e+003) (8, 1.47696204326143890000e+002) (0, 1.49999988019490500000e+003) (1, 1.49999945759996310000e+003) (2, 1.48499999940395360000e+003) (3, 1.49999956033043050000e+003) (4, 1.50000000000000000000e+003) (5, 1.49999574566974520000e+003) (6, 1.49999961599997910000e+003) (7, 1.49995859594890380000e+003) (8, 1.49989504630993450000e+003) (0, -3.11060571705283730000e+001) (1, -1.87119812919485180000e+002) (2, 2.62721781119357840000e+001) (3, 1.67915065110238400000e+002) (4, -1.00782407501631300000e+002) (5, 6.82395953156377710000e+001) (6, -1.19052719785606770000e+002) (7, 1.86867373329277600000e+002) (8, 3.36926678394789930000e+001) (0, -2.48685786554114830000e+002) (1, -2.19529954021517940000e+002) (2, -3.24903758244432990000e+002) (3, 5.12061311458016460000e+002) (4, 7.03310144425138670000e+002) (5, -1.50000000000000000000e+003) (6, 8.34340029347670000000e+002) (7, 6.54907320161132930000e+002) (8, 5.86768727334317150000e+001) (0, 5.70354003877311940000e+001) (1, 5.39310110382132140000e+001) (2, -8.44337337963451660000e+001) (3, 1.37931667345515730000e+002) (4, -8.26563879198038190000e+001) (5, -2.24326305013482960000e+001) (6, -2.99699765664624460000e+001) (7, -5.04315327129295530000e+001) (8, 1.58661018746124290000e+001) (0, 9.14974917299106850000e+000) (1, -1.74891623391131790000e+001) (2, 1.25702063957668490000e+001) (3, -5.76676489520232940000e+000) (4, 1.00637999159900090000e+001) (5, 7.32817754769039100000e+000) (6, 1.81166252910183760000e+001) (7, -1.70060710461308380000e+001) (8, -1.42319752567825030000e+001) (0, -7.73955884113170360000e+001) (1, -3.83585381458392480000e+001) (2, -8.62682455971625050000e+001) (3, 4.04461141335092240000e+002) (4, 6.47632423326309090000e+002) (5, -4.38997452450455340000e+002) (6, 3.91661960746224510000e+002) (7, 2.42967583184342290000e+002) (8, 1.11122666578837810000e+001) (0, -2.07925865301958340000e+001) (1, 8.25821393283079370000e+002) (2, -7.44342539895755290000e+002) (3, -8.89883531943080240000e+002) (4, 9.91815365480722450000e+002) (5, -1.50000000000000000000e+003) (6, -1.32166153876058230000e+003) (7, 4.29249246833390320000e+002) (8, 8.53910985925981980000e+001) (0, -1.06350547348756910000e+001) (1, -9.05005789831435160000e+000) (2, -1.42787440835943920000e+001) (3, -2.74420803391471610000e+001) (4, 2.26663264640648960000e+000) (5, 1.49796670694447870000e+001) (6, 1.97091148977603890000e+002) (7, 3.75864336842902700000e+001) (8, -1.30417166007613620000e+000) (0, 4.19206678107215320000e+000) (1, 2.42392575134275850000e+001) (2, 1.99418774412732560000e+001) (3, -5.19740046113544170000e+001) (4, 1.11671129345750640000e+001) (5, 2.56074308454290360000e+001) (6, 9.44449352730770110000e+000) (7, 8.44227871984023710000e+000) (8, 1.29686070382494220000e+000) (0, -1.16165429663010430000e+002) (1, -1.50000000000000000000e+003) (2, -1.00662277778493110000e+003) (3, -9.86734676327020790000e+002) (4, 6.70508467344520680000e+002) (5, 1.50000000000000000000e+003) (6, 1.58305831034486830000e+002) (7, 1.50000000000000000000e+003) (8, 3.72295855387898140000e+002) (0, 1.95068999210399850000e+002) (1, 1.96076985590203410000e+002) (2, -1.18270367393092710000e+001) (3, -6.12045874571372010000e+001) (4, -5.85005353290720360000e+000) (5, -7.45649057463228220000e+001) (6, -8.12302085538312750000e+001) (7, 6.16941998926210160000e-001) (8, 4.06687354273571170000e+000) (0, -1.41260316138659240000e+000) (1, 3.45195961270671460000e+001) (2, 5.93682338985396570000e+001) (3, -1.41597932502082620000e+001) (4, -6.14155187712172430000e+001) (5, -2.82245409660204450000e+001) (6, 2.57555399311527890000e+001) (7, 9.31219188082289970000e+001) (8, -1.35056900745258090000e+000) (0, 4.41991351288460020000e+001) (1, -4.73226991698426860000e+001) (2, 2.48285592018004270000e+001) (3, 1.77276102668327380000e+002) (4, -5.65007543879304520000e-001) (5, -1.26312876236801590000e+002) (6, 8.40215196943675830000e+001) (7, -1.51178330004662630000e+002) (8, -3.55655564074603970000e+000) (0, 4.89788768216430150000e-004) (1, 1.19541476678056230000e-001) (2, -3.24176934749874630000e-001) (3, 3.54716326761582770000e-001) (4, -1.64898024418325630000e-001) (5, -3.98608463054585420000e-001) (6, 4.15112818119294650000e-002) (7, 4.96329017855934030000e-002) (8, -5.04648336724807130000e-001) (0, -1.50000000000000000000e+003) (1, -1.49999950314423110000e+003) (2, 1.49999993999999770000e+003) (3, 1.49999993999999770000e+003) (4, -1.00135164672366950000e+003) (5, 1.49999865222511860000e+003) (6, 1.50000000000000000000e+003) (7, 1.50000000000000000000e+003) (8, 1.49995603642192780000e+003) (0, 1.48499999940395360000e+003) (1, 1.49999961599997910000e+003) (2, 1.48499999940395360000e+003) (3, 1.49999956033043050000e+003) (4, 1.50000000000000000000e+003) (5, 1.49999703532247850000e+003) (6, 1.49974714206297090000e+003) (7, 1.49980633502874410000e+003) (8, 1.49992084030982230000e+003) (0, -2.08732506150141750000e+001) (1, -1.58517495438887830000e+002) (2, 1.87636969714353710000e+002) (3, -4.37037301830281880000e+002) (4, 4.49655128958965120000e+002) (5, 5.51556042504564740000e+002) (6, 4.60895441109311360000e+001) (7, -3.57472699230947280000e+002) (8, 5.77898662260417670000e+001) (0, -3.03568515865389030000e+002) (1, -1.45355515005336160000e+003) (2, 1.43222055779802920000e+003) (3, -1.46960586994851250000e+003) (4, 1.49999816612244470000e+003) (5, -1.32755575551668560000e+003) (6, 1.18329064258038490000e+003) (7, 1.02226000716521910000e+003) (8, -2.44224263261277030000e+002) (0, 1.57867132640640710000e+001) (1, -1.89369238475437380000e+001) (2, -6.61859004179185460000e+001) (3, -3.49289195693874530000e+001) (4, 1.26879538938926470000e+002) (5, -1.16731794196656610000e+002) (6, 1.23179383688779320000e+002) (7, -1.89939692015970890000e+001) (8, 2.27191085616770400000e-001) (0, 1.49985562354413450000e+003) (1, 1.49909131547254080000e+003) (2, 1.48499999940395360000e+003) (3, 1.49999993999999770000e+003) (4, 1.48499999940395360000e+003) (5, 1.49999961599997910000e+003) (6, 1.49999981982516690000e+003) (7, 1.48499999940395360000e+003) (8, 1.49986204288976890000e+003) (0, -1.04843328199173680000e+001) (1, -8.19365823027291210000e+001) (2, -4.16863102098508420000e+002) (3, 1.50000000000000000000e+003) (4, 3.84923392543081260000e+002) (5, 4.31446681718702340000e+002) (6, -1.50714855586025380000e+002) (7, -5.87990547705503100000e+002) (8, 1.53995747257413140000e+000) (0, 1.21177925462975740000e+000) (1, 1.19361012867945130000e+002) (2, -3.36986614189638870000e+001) (3, -1.17858695076222820000e+002) (4, 5.96675177541751010000e+001) (5, 5.13608115556312230000e+001) (6, -2.74684033541184430000e+001) (7, -4.53094399579009630000e+001) (8, 5.83108660289998240000e+000) (0, -1.09475577558910490000e+001) (1, -1.02479645541723950000e+000) (2, -2.30537797321665540000e+001) (3, -3.66148849718425140000e+001) (4, -3.15890706140750300000e+001) (5, 2.32050767551582520000e+001) (6, 2.60667016364580770000e+002) (7, 3.33164996742562920000e+001) (8, -1.85889348625201680000e+000) (9, -2.97107842903590160000e-001) (10, 6.18769426607149510000e-001) (11, 2.05891931049291910000e+001) (12, -2.76924310759704530000e-001) (13, -2.41845018685512720000e-001) (14, 2.65655664398649560000e-002) (15, 6.42241329019488470000e+000) (16, -5.21354048889504860000e-003) (17, -8.42927869073646090000e-002) (18, 6.00702708855466510000e-001) (19, 7.89825167266946870000e+000) (20, 2.10493306983313140000e-001) (21, 7.10779818184812510000e-001) (22, 9.29743617087388510000e+000) (23, -2.38307022269444110000e-001) (24, 2.47483891953260340000e-001) (25, 6.10914790063675290000e-002) (26, 5.45564204658609770000e+000) (27, 2.68212894096349410000e-001) (28, -1.33990655017496370000e-002) (29, 2.13323594958741940000e+001) (30, 1.86486768161725220000e+001) (31, 8.34222817272887160000e-002) (32, 1.57891251409997210000e-001) (33, 6.68069263070571680000e-001) (34, -2.41340824225587200000e-001) (35, -4.82935554383657710000e-001) (36, -3.87038851547290170000e-001) (37, 3.51092680326334010000e-001) (38, 6.97277497641288910000e-002) (39, 6.07356566571668390000e+000) (40, 1.91624012806610730000e-001) (41, 1.28928501081709150000e+001) (42, 3.87315981727600790000e-001) (43, 2.34466575694293590000e+001) (44, -7.66538129111191260000e-002) (45, 7.34955183972686040000e+000) (46, 1.21222988994835840000e-001) (47, -4.47804120388519020000e-001) (48, -7.48394324120570050000e-001) (49, 1.03962774653773750000e+001) (9, 2.55677354747211090000e-001) (10, -1.40390972817887840000e-001) (11, 1.54635404761637820000e+001) (12, 1.86854152070145190000e-001) (13, 5.64016881655202580000e-001) (14, -2.35334184640443450000e-001) (15, 3.01435420319565890000e+000) (16, -4.76502071354277080000e-001) (17, 2.30093353818570180000e-001) (18, -1.22497632916580450000e+000) (19, 9.12142955695672050000e-001) (20, -1.20890468680168450000e-001) (21, -1.15095266581892310000e-001) (22, 2.63488023671223370000e+000) (23, 2.57452173171509920000e-001) (24, -1.76623689276273200000e-001) (25, 5.87760087196036340000e-001) (26, 3.05767283918419340000e+000) (27, -2.93171058104906230000e-001) (28, -6.01882718739466870000e-002) (29, 1.10715572918417620000e+001) (30, 1.45801614262077970000e+001) (31, 6.58466502140475360000e-002) (32, -1.20909888187533380000e-001) (33, -5.05324078652363170000e-001) (34, 3.78424109450503980000e-001) (35, 2.21863528807954960000e-001) (36, 1.73870185110277630000e-001) (37, -2.99506386714114230000e-001) (38, -9.04857738326363400000e-002) (39, 1.98625436790068100000e+000) (40, 3.39882796614591020000e+000) (41, 4.74683742889124540000e+000) (42, 1.67782980532091290000e-001) (43, 9.41978801862412500000e+000) (44, -1.95030129348569310000e-001) (45, 7.00112803279919850000e+000) (46, -1.12079298924707430000e-001) (47, 1.03391880339737470000e+000) (48, 5.18349651696486060000e-001) (49, 5.18668695299791600000e+000) (9, 2.80050543633675650000e-001) (10, -1.73374667509709050000e+000) (11, 2.60704683632748240000e+001) (12, -1.04974200330403670000e-001) (13, 6.55166855507845920000e-001) (14, -1.69272847308542280000e-001) (15, 7.93675084045098080000e+000) (16, -3.29155623529795100000e-001) (17, -5.18810372254992010000e-002) (18, -3.40986983294116200000e-001) (19, 9.45542782658465700000e+000) (20, -1.18620188333398700000e-001) (21, 2.51902995218119650000e-001) (22, 1.22055704561026220000e+001) (23, 2.04780094778179210000e-001) (24, -8.44403643513467330000e-003) (25, -1.14637733576564970000e-001) (26, 5.57318203372508410000e+000) (27, -4.38325029981194600000e-001) (28, -7.76290844561739670000e-004) (29, 2.24554316546706370000e+001) (30, 1.91332870689510240000e+001) (31, 4.52237430125849510000e-002) (32, -1.24082069729432450000e-001) (33, 6.54671253269847430000e-001) (34, 1.11990611009579210000e+000) (35, 7.87355701825988570000e-001) (36, 3.02538565172738270000e-002) (37, -2.58584577484966660000e-001) (38, 1.00297131335964160000e-001) (39, 3.46692225146290410000e+001) (40, 7.21140826738396170000e+000) (41, 7.76176230466513850000e+000) (42, 6.86392154398727810000e-002) (43, 1.95016508271000540000e+001) (44, -2.71779016694839890000e-001) (45, 1.02432703076800100000e+001) (46, -1.06477776365269280000e-001) (47, 1.72218937303632020000e-002) (48, -4.91874486685384300000e-001) (49, 1.02683900467099820000e+001) (9, 2.01701584556041540000e-001) (10, -1.70948400008972380000e-001) (11, 1.93168927344442380000e+001) (12, 5.48314772176830220000e-001) (13, -4.66962945153498680000e-001) (14, 8.16603145492489470000e-001) (15, 5.97251269740833560000e+000) (16, 7.43394606334997650000e-001) (17, 1.83864229619465250000e-001) (18, -9.01860859990370470000e-001) (19, 3.62221582038446590000e+000) (20, -2.66293758417021580000e-001) (21, -2.34086947494798580000e-001) (22, 5.25903507775116190000e+000) (23, 4.13444426367297890000e-001) (24, -4.61013509504711870000e-001) (25, 7.26590586649333850000e-001) (26, 6.22474631437170080000e+000) (27, -5.75397244316306120000e-001) (28, -8.76101783083115120000e-002) (29, 2.56674468516155830000e+001) (30, 2.53589692667633140000e+001) (31, -1.21195160804333240000e-001) (32, -1.81752525533306510000e-001) (33, -7.25193724802225990000e-001) (34, 5.11786721428639900000e-001) (35, -1.88481186955521850000e-001) (36, 2.17464022433367900000e-001) (37, -4.61566394799688080000e-001) (38, -3.28566215640824550000e-001) (39, 5.55019074175861600000e+000) (40, 4.91324366159460980000e+000) (41, 9.39779730384617550000e+000) (42, 1.11141920483991390000e+000) (43, 2.24799352490507620000e+001) (44, 8.69499914852837400000e-001) (45, 8.89465690781926630000e+000) (46, -1.60582986359519120000e-001) (47, 6.66380900093387680000e-001) (48, 8.61030246510470440000e-001) (49, 4.67832630661588040000e+000) (9, 4.34314339881002100000e-001) (10, 6.36309504944438050000e-001) (11, 2.91954529820289860000e+001) (12, -2.80185204267288810000e-004) (13, 1.04569141988255000000e+000) (14, 1.62054301629919410000e-001) (15, 1.12812217920184390000e+001) (16, -5.26211510445775850000e-001) (17, 7.78513558358974590000e-002) (18, -1.42460082449602780000e+000) (19, 6.41495422179903320000e+000) (20, 2.82955951209266300000e-002) (21, -2.50098636754677470000e-001) (22, 9.49356088764529640000e+000) (23, -3.38854309462225110000e-001) (24, -5.11829132982286610000e-002) (25, -1.85699200490136200000e+000) (26, 8.02879776915956530000e+000) (27, 1.49033391713259800000e-001) (28, -4.10680017180025170000e-001) (29, 2.70533855755912710000e+001) (30, 2.09753405548194860000e+001) (31, 4.87780750900864920000e-001) (32, -6.21786503585380000000e-002) (33, 4.47905398917272990000e-001) (34, 6.14914064042446420000e-001) (35, -1.59840220372654550000e+000) (36, 8.95011957846901520000e-002) (37, -1.37441433116804710000e-001) (38, -5.77346088603037310000e-002) (39, 1.81844856704707140000e+001) (40, 2.26429450821706220000e+000) (41, 1.41534667186693710000e+001) (42, 2.43091385528028250000e+000) (43, 2.60453274044247860000e+001) (44, 1.82869042216811470000e-001) (45, 8.37061474280115900000e+000) (46, -7.31356078136080750000e-002) (47, 1.10312591720568550000e+000) (48, -5.05262605070418980000e-001) (49, 6.22572586141897060000e+000) 
