FANN_FLO_2.1
num_layers=3
learning_rate=0.700000
connection_rate=1.000000
network_type=0
learning_momentum=0.000000
training_algorithm=2
train_error_function=1
train_stop_function=0
cascade_output_change_fraction=0.010000
quickprop_decay=-0.000100
quickprop_mu=1.750000
rprop_increase_factor=1.200000
rprop_decrease_factor=0.500000
rprop_delta_min=0.000000
rprop_delta_max=50.000000
rprop_delta_zero=0.100000
cascade_output_stagnation_epochs=12
cascade_candidate_change_fraction=0.010000
cascade_candidate_stagnation_epochs=12
cascade_max_out_epochs=150
cascade_max_cand_epochs=150
cascade_num_candidate_groups=2
bit_fail_limit=3.49999999999999980000e-001
cascade_candidate_limit=1.00000000000000000000e+003
cascade_weight_multiplier=4.00000000000000020000e-001
cascade_activation_functions_count=10
cascade_activation_functions=3 5 7 8 10 11 14 15 16 17 
cascade_activation_steepnesses_count=4
cascade_activation_steepnesses=2.50000000000000000000e-001 5.00000000000000000000e-001 7.50000000000000000000e-001 1.00000000000000000000e+000 
layer_sizes=9 21 6 
scale_included=0
neurons (num_inputs, activation_function, activation_steepness)=(0, 0, 0.00000000000000000000e+000) (0, 0, 0.00000000000000000000e+000) (0, 0, 0.00000000000000000000e+000) (0, 0, 0.00000000000000000000e+000) (0, 0, 0.00000000000000000000e+000) (0, 0, 0.00000000000000000000e+000) (0, 0, 0.00000000000000000000e+000) (0, 0, 0.00000000000000000000e+000) (0, 0, 0.00000000000000000000e+000) (9, 6, 5.00000000000000000000e-001) (9, 6, 5.00000000000000000000e-001) (9, 6, 5.00000000000000000000e-001) (9, 6, 5.00000000000000000000e-001) (9, 6, 5.00000000000000000000e-001) (9, 6, 5.00000000000000000000e-001) (9, 6, 5.00000000000000000000e-001) (9, 6, 5.00000000000000000000e-001) (9, 6, 5.00000000000000000000e-001) (9, 6, 5.00000000000000000000e-001) (9, 6, 5.00000000000000000000e-001) (9, 6, 5.00000000000000000000e-001) (9, 6, 5.00000000000000000000e-001) (9, 6, 5.00000000000000000000e-001) (9, 6, 5.00000000000000000000e-001) (9, 6, 5.00000000000000000000e-001) (9, 6, 5.00000000000000000000e-001) (9, 6, 5.00000000000000000000e-001) (9, 6, 5.00000000000000000000e-001) (9, 6, 5.00000000000000000000e-001) (0, 6, 0.00000000000000000000e+000) (21, 6, 5.00000000000000000000e-001) (21, 6, 5.00000000000000000000e-001) (21, 6, 5.00000000000000000000e-001) (21, 6, 5.00000000000000000000e-001) (21, 6, 5.00000000000000000000e-001) (0, 6, 0.00000000000000000000e+000) 
connections (connected_to_neuron, weight)=(0, 2.12805055224967840000e+000) (1, -8.68024609161746950000e+000) (2, 6.44182249633153510000e+000) (3, -4.05117066098354140000e+001) (4, 1.70601227947238420000e+001) (5, 4.76110665590277340000e+001) (6, -1.93829285122752640000e+000) (7, 3.61744005880180380000e+001) (8, 2.79819345339459960000e+000) (0, 4.48326313644658650000e+000) (1, 8.69048877693884770000e+000) (2, 1.79308999559552910000e+000) (3, -8.05725137597691440000e+000) (4, -3.74428896750670280000e+000) (5, 6.00818348756563390000e+000) (6, 1.49297479491332030000e+001) (7, -1.61838863365030830000e+001) (8, 2.31496768006189710000e-001) (0, 4.27266246863718990000e+000) (1, -3.48551900943450330000e+001) (2, 6.08838695008622540000e+001) (3, 1.79588620023533490000e+001) (4, 4.50472983562728970000e+001) (5, -3.67102314419541550000e+000) (6, -4.42714764604623530000e+001) (7, -3.06056497961107520000e+000) (8, 3.51053484776999140000e+000) (0, -4.22221153338616960000e+000) (1, 8.32641491085821530000e+000) (2, -1.35369333715773640000e+000) (3, -1.10935982993346880000e-001) (4, -1.92879922933523100000e+001) (5, 7.64058795028622220000e+000) (6, -2.23620988625619570000e+001) (7, 1.25744323032909890000e+001) (8, 2.80213818308013780000e-001) (0, -1.41122448636427030000e-001) (1, -5.01013311307264790000e+000) (2, -4.82226123552091220000e+000) (3, 1.40675950172736980000e+001) (4, 6.48719003690198990000e+000) (5, -9.48582082043262180000e+000) (6, 1.22697382767376630000e+000) (7, -3.48078549221356950000e+000) (8, 6.17363642127021910000e-002) (0, 1.69241830983164960000e+000) (1, 4.88918564753218290000e+000) (2, -6.93133414589702010000e-001) (3, -1.00753262732704590000e+001) (4, 7.34031933436368170000e+000) (5, 5.15844827860060030000e+000) (6, -1.40860293208193200000e+000) (7, -6.90617462341063250000e+000) (8, 2.97042916710762050000e-001) (0, 1.08589432817445100000e+001) (1, 1.42754774544436390000e+000) (2, 9.73537038942465220000e+000) (3, 7.15303882721577810000e+000) (4, -4.18596117391738290000e+001) (5, -3.30130608456111350000e+000) (6, -8.40281856086807900000e+000) (7, -1.90252255591691190000e+001) (8, -6.09092140227567520000e-001) (0, 7.02951781251103820000e+000) (1, -1.19720314244659020000e+001) (2, 8.99690468480272720000e+000) (3, 1.57005706371317170000e+001) (4, -5.06909335579750840000e+000) (5, -2.18095342873927440000e+001) (6, -7.74777412846209490000e+000) (7, 1.38507416612933570000e+001) (8, 1.96993623274846620000e-001) (0, 4.16099874395566440000e+000) (1, -4.32125225706719100000e+000) (2, 6.44095920907594710000e-001) (3, -5.20740982501886140000e+000) (4, -1.19519048660980780000e+001) (5, 1.93973567619603160000e+000) (6, 3.55293674917439790000e+000) (7, 7.19375055093604400000e+000) (8, 1.06162046675194050000e-001) (0, 3.84070871351698400000e+000) (1, 2.11460888984470760000e+001) (2, 6.61787275827594000000e+000) (3, -1.56925165633679700000e+001) (4, -5.36325030313646710000e+001) (5, -1.29792831481705410000e+001) (6, 3.29432532287074480000e+001) (7, 5.09162798054561560000e+001) (8, 8.65083349859746830000e-002) (0, 2.05135229861295220000e+000) (1, 2.59847951267054760000e+000) (2, 4.68678471485181090000e+000) (3, 4.13476633514540650000e+000) (4, -1.53138778381295960000e+001) (5, -2.45252999793019420000e+000) (6, -1.26731831580032470000e+000) (7, 5.88783158816507160000e+000) (8, 4.83009349740034340000e-001) (0, 2.04019542519237750000e+000) (1, -5.36544318423545170000e+000) (2, 3.93741743989735230000e+000) (3, 2.43039410888568110000e+000) (4, 1.17956247983974280000e+001) (5, -1.34755643728082820000e+000) (6, -7.62415083640554860000e+000) (7, 1.06301212426544020000e+001) (8, 6.51228804069548640000e-001) (0, 5.38165276997805810000e-001) (1, 3.54665775560708380000e-003) (2, 1.85263252143435760000e-003) (3, -1.65183294322181260000e+000) (4, -8.28629038504532650000e-002) (5, 7.32331031653058130000e-001) (6, 2.88876752432912220000e-003) (7, 1.11029054409827850000e-002) (8, 3.21919162845700400000e-003) (0, 1.19771000518848500000e+001) (1, 3.58442337305108010000e+001) (2, -9.03204690503770990000e+000) (3, -1.99700206326845660000e+000) (4, 8.22625913815162060000e+000) (5, -2.03864433368344540000e+001) (6, -3.80723188981213710000e+000) (7, 2.25162238124910560000e+001) (8, 5.85707339305693410000e-001) (0, -5.51064085919884410000e+000) (1, 3.23137175898323030000e+000) (2, -6.07321614208844900000e+000) (3, -3.31796955110209390000e+000) (4, 8.63843202715587570000e+000) (5, 1.22305278326467980000e+001) (6, 8.90213339374712300000e+000) (7, 9.86963837220400290000e+000) (8, 1.14738005745372720000e+000) (0, 3.20627333548444990000e+000) (1, 5.88872389302275500000e+000) (2, 1.99225175208053830000e+000) (3, -2.96671760803448550000e+000) (4, 5.86061426914519770000e+000) (5, -5.04245815642142590000e+000) (6, -1.43887652550663640000e+001) (7, -3.75581266654167220000e+000) (8, -3.99371459807012550000e-001) (0, -1.09629110958135240000e+001) (1, -2.55527952437024620000e+001) (2, 1.03909374349325890000e+001) (3, -1.03908238816435270000e+001) (4, -1.36242831856120540000e+001) (5, 3.39310950016023800000e+000) (6, 3.53017557054328040000e+001) (7, 4.32916792056497930000e+001) (8, 7.62304834645737420000e-002) (0, 9.19927304089958930000e-001) (1, 1.03180572469113390000e+000) (2, -1.06760120763790160000e+000) (3, -8.05637797555330830000e-001) (4, -1.60657386116534150000e+000) (5, 2.61224840166039620000e+000) (6, -3.60946977759137510000e+000) (7, 2.35207950909571690000e+000) (8, 1.08804432914857960000e-001) (0, -1.19385469956462530000e+000) (1, 1.34269693380483890000e+001) (2, -3.85506796841850270000e+001) (3, -3.43315808039410230000e+001) (4, 4.10716436672166780000e-001) (5, 7.81878849709450030000e+000) (6, 4.09139568228417830000e+001) (7, -1.64569606017374920000e+001) (8, -2.85062719714141540000e+000) (0, -6.04981136302395490000e+000) (1, 1.08293318963870280000e+001) (2, 5.72355809016488500000e+000) (3, 3.60618981896672740000e+000) (4, 4.51684621539206080000e+000) (5, -4.40748615126440860000e+000) (6, -2.80790287330836110000e+000) (7, -1.92557474185337640000e+000) (8, -2.90770492554599020000e-001) (9, -5.94780879128906310000e-001) (10, -2.47011437412723080000e-001) (11, -2.43360718251635830000e-001) (12, -9.06935262894227740000e-002) (13, -2.39638434615492470000e-001) (14, -6.50565723328698910000e-002) (15, -5.61816390464512040000e-001) (16, -6.21868556009465110000e-001) (17, 2.71175186766451750000e-001) (18, 6.04720929879528190000e-001) (19, 5.92780718195415450000e-001) (20, 1.39917261643473730000e+000) (21, -2.57723645529276090000e+000) (22, -8.81073085328377470000e-001) (23, 6.70379391837985920000e-002) (24, 5.14377154090596590000e-001) (25, -7.00518013690172300000e-001) (26, -3.90710724219184740000e+000) (27, -3.98866265274714360000e-001) (28, -8.76981382868099240000e-001) (29, 7.64067780460309650000e-001) (9, 2.17372421034723650000e-001) (10, 5.46758574574218730000e-001) (11, 4.95487086724930640000e-001) (12, 3.09050704736507530000e-001) (13, 2.59346251388869460000e-001) (14, -9.53537470684425960000e-001) (15, 2.52190733764804050000e-001) (16, 1.47555519979345570000e-001) (17, -2.09717599826480970000e-001) (18, -5.59953878569146690000e-001) (19, 9.81982264630039960000e-002) (20, -7.96034529487750220000e-001) (21, 5.81649208696483200000e+000) (22, 5.37213240462745770000e-001) (23, 5.30885126317915180000e-001) (24, 4.77136348067091820000e-001) (25, 5.67998262550911020000e-001) (26, 1.89241294540605250000e+000) (27, 5.93817705330695220000e-001) (28, 3.94875857182903970000e-001) (29, 6.49605958792351830000e-001) (9, 9.19568282876122130000e-001) (10, 1.13073579345174790000e+000) (11, 9.62253400689027650000e-001) (12, 5.46866739415052930000e-001) (13, 1.47341624361744380000e+000) (14, 1.84578590276709540000e-003) (15, 1.63363393395661060000e-001) (16, 3.14099640591296690000e-001) (17, 3.39419385429933220000e+000) (18, -6.87869705351531360000e-001) (19, -3.85399877408766410000e-001) (20, -6.47456043156692810000e-001) (21, -7.79241129498519580000e+000) (22, -2.02159207413436200000e-002) (23, 9.63720449567180280000e-001) (24, 1.23801848454403940000e+000) (25, 4.52120251264039430000e-001) (26, 2.30985342217436070000e+000) (27, 1.61778336706967860000e+000) (28, 1.91155209909038250000e+000) (29, 5.76846324999550690000e-001) (9, -4.35910240980267090000e-001) (10, -1.13629105836150620000e+000) (11, 8.02613066237882090000e-001) (12, 2.73475912668633690000e-001) (13, 1.30361818813981120000e+000) (14, 1.69320214498183570000e+000) (15, 8.45861205534043870000e-001) (16, -9.17094691570525920000e-001) (17, -8.58317071050674450000e-001) (18, -2.97402743291470540000e-001) (19, 2.24441629095319640000e+000) (20, 1.05375721214384100000e+000) (21, 5.56151106489992220000e+000) (22, 6.97493812277168890000e-001) (23, 4.97647845231497410000e-001) (24, 2.10137863707164500000e-001) (25, 7.15666932754232540000e-001) (26, -2.21009476071446100000e+000) (27, 1.05933973949137910000e+000) (28, -3.97395014213365150000e-001) (29, 5.86411534195445010000e-001) (9, 6.22542936931125280000e-001) (10, -1.51244078581532500000e+000) (11, 2.05633054172499080000e-001) (12, -1.49482925283682570000e+000) (13, 6.76544887132086050000e-001) (14, -2.98956972266025380000e+000) (15, 1.03185499136543910000e+000) (16, -1.74446798945076890000e+000) (17, 1.33590382183522640000e+000) (18, -2.63411588846629460000e-001) (19, 7.10410768656305150000e-001) (20, -2.84748215641756950000e-001) (21, 7.49366987315501110000e+000) (22, 3.96317682788195960000e-001) (23, 2.29154609996013200000e+000) (24, 3.02699098719532380000e+000) (25, 1.93974366278106690000e-001) (26, -2.04934025289853490000e+000) (27, -3.67327182311498300000e-001) (28, 3.37163123204416330000e-001) (29, 5.14485440087194100000e-001) 
