FANN_FLO_2.1
num_layers=3
learning_rate=0.700000
connection_rate=1.000000
network_type=0
learning_momentum=0.000000
training_algorithm=2
train_error_function=1
train_stop_function=0
cascade_output_change_fraction=0.010000
quickprop_decay=-0.000100
quickprop_mu=1.750000
rprop_increase_factor=1.200000
rprop_decrease_factor=0.500000
rprop_delta_min=0.000000
rprop_delta_max=50.000000
rprop_delta_zero=0.100000
cascade_output_stagnation_epochs=12
cascade_candidate_change_fraction=0.010000
cascade_candidate_stagnation_epochs=12
cascade_max_out_epochs=150
cascade_max_cand_epochs=150
cascade_num_candidate_groups=2
bit_fail_limit=3.49999999999999980000e-001
cascade_candidate_limit=1.00000000000000000000e+003
cascade_weight_multiplier=4.00000000000000020000e-001
cascade_activation_functions_count=10
cascade_activation_functions=3 5 7 8 10 11 14 15 16 17 
cascade_activation_steepnesses_count=4
cascade_activation_steepnesses=2.50000000000000000000e-001 5.00000000000000000000e-001 7.50000000000000000000e-001 1.00000000000000000000e+000 
layer_sizes=9 21 6 
scale_included=0
neurons (num_inputs, activation_function, activation_steepness)=(0, 0, 0.00000000000000000000e+000) (0, 0, 0.00000000000000000000e+000) (0, 0, 0.00000000000000000000e+000) (0, 0, 0.00000000000000000000e+000) (0, 0, 0.00000000000000000000e+000) (0, 0, 0.00000000000000000000e+000) (0, 0, 0.00000000000000000000e+000) (0, 0, 0.00000000000000000000e+000) (0, 0, 0.00000000000000000000e+000) (9, 6, 5.00000000000000000000e-001) (9, 6, 5.00000000000000000000e-001) (9, 6, 5.00000000000000000000e-001) (9, 6, 5.00000000000000000000e-001) (9, 6, 5.00000000000000000000e-001) (9, 6, 5.00000000000000000000e-001) (9, 6, 5.00000000000000000000e-001) (9, 6, 5.00000000000000000000e-001) (9, 6, 5.00000000000000000000e-001) (9, 6, 5.00000000000000000000e-001) (9, 6, 5.00000000000000000000e-001) (9, 6, 5.00000000000000000000e-001) (9, 6, 5.00000000000000000000e-001) (9, 6, 5.00000000000000000000e-001) (9, 6, 5.00000000000000000000e-001) (9, 6, 5.00000000000000000000e-001) (9, 6, 5.00000000000000000000e-001) (9, 6, 5.00000000000000000000e-001) (9, 6, 5.00000000000000000000e-001) (9, 6, 5.00000000000000000000e-001) (0, 6, 0.00000000000000000000e+000) (21, 6, 5.00000000000000000000e-001) (21, 6, 5.00000000000000000000e-001) (21, 6, 5.00000000000000000000e-001) (21, 6, 5.00000000000000000000e-001) (21, 6, 5.00000000000000000000e-001) (0, 6, 0.00000000000000000000e+000) 
connections (connected_to_neuron, weight)=(0, 7.60491717773965210000e-002) (1, -5.85102074083279630000e-001) (2, -2.27760730250241660000e+000) (3, -1.10448143462027760000e+000) (4, -7.88253132198181720000e-001) (5, -6.38635991288530100000e-001) (6, -1.43890108267770020000e+000) (7, 3.46700767899882530000e+000) (8, 4.51717918070389080000e-001) (0, -1.93517391526452220000e+000) (1, 8.75877058849140360000e-001) (2, -1.47129499191232990000e+000) (3, 1.70422939433290930000e-001) (4, 7.98478473121309040000e-002) (5, 6.70093861534336700000e-001) (6, 1.78050676976515420000e+000) (7, 1.48151641495462740000e+000) (8, -2.00230368674612500000e-001) (0, 1.85355795279566760000e+000) (1, -8.97705262875602820000e-001) (2, -2.21208684322653770000e+000) (3, -4.22395168957100960000e+000) (4, 8.29594492716317510000e+000) (5, -7.50489118928864760000e+000) (6, 4.57507490643170730000e+000) (7, 1.27383207369713210000e+001) (8, 4.92869090517521920000e-001) (0, 1.44569541219002870000e+000) (1, -2.69368777251963460000e+000) (2, -5.22198684314750580000e-001) (3, -1.34470987053109890000e+000) (4, 1.10156607488520120000e+000) (5, 4.90484910247911300000e-001) (6, 2.69945226871252150000e+000) (7, 1.09825251830062220000e+001) (8, 6.35811042071674940000e-001) (0, 7.95439123272625110000e-001) (1, -2.42398354072256320000e-001) (2, 1.17169823079375260000e+001) (3, -1.48155327504670340000e+001) (4, 1.96714666915705370000e+001) (5, 7.04478899418184850000e+000) (6, -9.70356173323462200000e+000) (7, -3.06837237087586420000e+001) (8, 8.05283530240161420000e-001) (0, 3.32145694620156200000e+000) (1, 5.52901657234124060000e+000) (2, 8.37910749948340870000e+000) (3, -3.07215159916702130000e+001) (4, 1.81636690022174570000e+001) (5, 3.24577519642902890000e+001) (6, 8.00525037388012350000e+000) (7, -9.12676426088945550000e+000) (8, 8.92565756153613920000e-002) (0, 8.18125429711898280000e-001) (1, -2.15222207574062190000e+000) (2, -1.39093942498594550000e+000) (3, 6.36377968115996140000e+000) (4, -8.79747468088800670000e+000) (5, -5.89098084640756640000e-001) (6, -4.15636851899342030000e+000) (7, 1.29028638270470050000e+001) (8, 3.07246779365628660000e-001) (0, 2.95453369043982760000e+000) (1, 1.16115974756423540000e+001) (2, 1.46717580889743040000e+001) (3, -6.01344753721676000000e+001) (4, -1.09690910342279440000e+001) (5, 3.03063645663765550000e+001) (6, 3.29236571552579490000e+001) (7, 1.61570760815057500000e+001) (8, 7.46795987889173780000e-001) (0, -7.96231987704915210000e-001) (1, -4.15513069255022580000e+000) (2, -4.00935261535665700000e+000) (3, 1.84789040253185560000e+001) (4, 2.63073908041504410000e+000) (5, 2.13329179781124220000e+000) (6, 1.48852282720262060000e+001) (7, -7.10433172033068060000e+000) (8, 4.50980348823820040000e-001) (0, 8.37751200307101310000e+000) (1, 1.62763446473779570000e+001) (2, 1.18537709011082640000e+001) (3, -1.13934875563155290000e+001) (4, 7.91839606387283280000e+000) (5, 3.07446708332919730000e+001) (6, -3.21595261543260660000e+001) (7, -2.94617415360423520000e+000) (8, -6.43778081163170150000e-001) (0, 7.52476858854092520000e+000) (1, -1.38912575390662310000e+001) (2, -1.11999537004866490000e+001) (3, 5.26826449206668530000e+001) (4, -2.05792933929873920000e+001) (5, -1.87575950282631960000e+001) (6, 3.70241958379688900000e+001) (7, 4.97234201127075510000e+001) (8, 1.65055586981778530000e+000) (0, 8.89729568564385430000e+000) (1, -3.88504876777767960000e-001) (2, 1.46929563287887220000e+000) (3, 6.38925182383697800000e+000) (4, -5.02231782658290890000e+000) (5, -1.01991621704368360000e+001) (6, 1.56545011687512650000e+000) (7, -1.65384694632381580000e+001) (8, 7.00718063465445070000e-001) (0, -4.92284454584883570000e-001) (1, 3.28532779428693990000e+000) (2, -1.11882984632888980000e+001) (3, 2.40166150761280410000e+001) (4, 2.04259747612265910000e+001) (5, -1.55450842515752520000e+001) (6, 4.80874240863867900000e+000) (7, -1.45435255382492330000e+001) (8, 2.40255458405640140000e-001) (0, 1.41333076624891120000e+000) (1, -8.07213717137039430000e-002) (2, 2.24808671071513460000e+000) (3, -2.68253527571014990000e+000) (4, 4.78044652076441690000e+000) (5, -6.78100797313224120000e+000) (6, 9.37921976419400140000e+000) (7, -1.31807242111498830000e+001) (8, 5.78843642105074330000e-001) (0, 4.52660293866248060000e+000) (1, 7.00841946035711150000e-001) (2, 1.61579624300634240000e+000) (3, 6.98936731036720720000e+000) (4, -1.66295377136288710000e+001) (5, -5.75012402162935740000e+000) (6, 5.45564657828459460000e-002) (7, -3.88557647902186610000e+000) (8, -3.19230084766929210000e-001) (0, 3.35021952696418750000e+000) (1, 1.53878090790025460000e+001) (2, 7.62329962800058160000e-001) (3, -2.36868878959025460000e+000) (4, -1.61831251508749350000e+000) (5, -1.86650213180012270000e+001) (6, -7.08377506931364920000e+000) (7, -2.77660529879142400000e+000) (8, -4.65707559623545210000e-001) (0, 6.07024177642902150000e+002) (1, 1.25980174479398370000e+002) (2, -1.55572949324341320000e+001) (3, -8.06399528800875060000e+001) (4, -2.26643682934189170000e+001) (5, -8.78599796285020030000e+001) (6, -2.52748196241738900000e+001) (7, -2.98520397954541220000e+001) (8, 3.05544129677709410000e+000) (0, 3.21637533189605080000e+000) (1, -2.59832118465461280000e+000) (2, -5.57090771505499300000e+000) (3, 3.93173387088866730000e+000) (4, 2.79553838803106030000e+001) (5, -1.19484015581602470000e+001) (6, 1.14056088934587500000e+001) (7, -1.61230514177205140000e+001) (8, 2.82765522009361340000e-001) (0, 2.90842502067174060000e+000) (1, 2.40473539706669600000e+000) (2, -1.17608504935006830000e+000) (3, 1.01602165832160220000e+000) (4, 5.66643896959406580000e+000) (5, -1.08975658566894090000e+001) (6, 9.72697246027549260000e-001) (7, -1.75973248655361870000e+001) (8, 5.67261136829344740000e-002) (0, 3.16706915060649450000e+000) (1, 6.58536733256595760000e+000) (2, 6.15035309560185080000e+000) (3, -8.85514918174780340000e+000) (4, -1.09910121736278300000e+000) (5, -1.45689467890358660000e+001) (6, 2.58644596339666250000e+001) (7, -1.97532035414620390000e+001) (8, -4.01245408171326650000e-001) (9, -1.97965470946771860000e+000) (10, 1.58945200309119940000e+000) (11, -1.10619938565549060000e+000) (12, 2.86349629151065540000e-001) (13, -3.06318917566032360000e-001) (14, -7.88667322070361610000e-001) (15, 2.57234437552069740000e+000) (16, 7.70170499593352600000e-001) (17, 1.15136311971144960000e+000) (18, 2.24314475020341630000e-001) (19, -3.21598425924869090000e-001) (20, 1.38391785828226950000e-001) (21, -1.07997506541886670000e+000) (22, 2.13312859910730120000e+000) (23, -1.60002626702063870000e+000) (24, 8.72910894993442100000e-001) (25, -3.30694348922904830000e-001) (26, 8.75837091825501400000e-001) (27, 1.34795437585489970000e+000) (28, -9.24386389510702950000e-001) (29, 3.02493556433980240000e-001) (9, 2.93344626734451940000e+000) (10, -1.49103084108013920000e+000) (11, 6.66300758310081200000e-002) (12, 6.07515388942676760000e-001) (13, 6.39024019238835510000e-002) (14, 7.60828834267830660000e-001) (15, -2.28973376846000230000e+000) (16, -6.59120826163187570000e-001) (17, -3.38868654672386530000e-001) (18, -2.47857723811309850000e-001) (19, -2.21260123781638780000e-001) (20, -1.54461806082226090000e-001) (21, 6.82810866073786490000e-001) (22, 2.42563988093522090000e-001) (23, 1.17740221735054870000e+000) (24, 1.65309081793668990000e-001) (25, 1.20983335041727440000e-001) (26, -6.53035912953384810000e-001) (27, -2.06608012272676420000e+000) (28, 5.09358723899960150000e-002) (29, 7.14566978756427830000e-001) (9, 6.57213612612317700000e-001) (10, 1.11198503655124000000e+000) (11, 5.02205186024714980000e-001) (12, 1.03616347867967410000e+000) (13, 4.55520981115967120000e-001) (14, 1.29189854799124420000e+000) (15, 2.16961680710425260000e-001) (16, -5.07799245526506240000e-001) (17, -4.38852919522190240000e-001) (18, -5.27850878896437560000e-001) (19, -5.84230624263400220000e-001) (20, 9.08875977270216410000e-001) (21, 1.25701310632557890000e+000) (22, 7.03677677565427980000e-001) (23, 5.82241022428192530000e-001) (24, -8.84605064804606240000e-002) (25, 3.63430971579566460000e-003) (26, -1.69521799902295660000e+000) (27, -9.64230093164842210000e-001) (28, -2.71592712044081490000e-002) (29, 4.80086356132934820000e-001) (9, 4.57912480009571580000e-001) (10, 1.78644307773098410000e+000) (11, 1.40949459573455190000e+000) (12, 7.77568820075246300000e-001) (13, 4.93808153076140340000e-001) (14, -5.15763024474625960000e-001) (15, -3.41951754987202290000e+000) (16, 7.28928252030014020000e-002) (17, 9.09682474781545850000e-001) (18, -4.25235976716933780000e-002) (19, -1.81131486540437620000e-001) (20, -6.98264867014728900000e-001) (21, -3.65676726083397800000e-001) (22, 1.88986562960721470000e+000) (23, 3.14757417870083730000e+000) (24, 8.53746683455556380000e-001) (25, 1.36749092206849280000e-001) (26, 6.07824465239187650000e-001) (27, -2.19377575465410240000e+000) (28, -1.83284509535721020000e+000) (29, 7.07075328759255720000e-001) (9, 8.32006604692600570000e-001) (10, 4.30060435377136500000e+000) (11, 2.56932978753398400000e+000) (12, 9.81726423716514080000e-001) (13, 1.73174073630880380000e+000) (14, 6.74750240033576310000e-001) (15, -1.25649860002254600000e+000) (16, -3.98478256793407980000e-001) (17, 1.74843759679320290000e+000) (18, -8.44194193239936270000e-001) (19, -1.15995082003185290000e+000) (20, 1.04012536408563210000e+000) (21, -2.73574843386866380000e-001) (22, 2.29408722564491880000e-001) (23, 2.62619569239219830000e+000) (24, 1.41180773386407200000e+000) (25, 2.64818740593769810000e-003) (26, 1.29737426014365100000e-002) (27, -2.45557373891232670000e+000) (28, -1.45787552030844300000e+000) (29, 3.87592653892433470000e-001) 
