FANN_FLO_2.1
num_layers=3
learning_rate=0.700000
connection_rate=1.000000
network_type=0
learning_momentum=0.000000
training_algorithm=2
train_error_function=1
train_stop_function=0
cascade_output_change_fraction=0.010000
quickprop_decay=-0.000100
quickprop_mu=1.750000
rprop_increase_factor=1.200000
rprop_decrease_factor=0.500000
rprop_delta_min=0.000000
rprop_delta_max=50.000000
rprop_delta_zero=0.100000
cascade_output_stagnation_epochs=12
cascade_candidate_change_fraction=0.010000
cascade_candidate_stagnation_epochs=12
cascade_max_out_epochs=150
cascade_max_cand_epochs=150
cascade_num_candidate_groups=2
bit_fail_limit=3.49999999999999980000e-001
cascade_candidate_limit=1.00000000000000000000e+003
cascade_weight_multiplier=4.00000000000000020000e-001
cascade_activation_functions_count=10
cascade_activation_functions=3 5 7 8 10 11 14 15 16 17 
cascade_activation_steepnesses_count=4
cascade_activation_steepnesses=2.50000000000000000000e-001 5.00000000000000000000e-001 7.50000000000000000000e-001 1.00000000000000000000e+000 
layer_sizes=9 21 6 
scale_included=0
neurons (num_inputs, activation_function, activation_steepness)=(0, 0, 0.00000000000000000000e+000) (0, 0, 0.00000000000000000000e+000) (0, 0, 0.00000000000000000000e+000) (0, 0, 0.00000000000000000000e+000) (0, 0, 0.00000000000000000000e+000) (0, 0, 0.00000000000000000000e+000) (0, 0, 0.00000000000000000000e+000) (0, 0, 0.00000000000000000000e+000) (0, 0, 0.00000000000000000000e+000) (9, 6, 5.00000000000000000000e-001) (9, 6, 5.00000000000000000000e-001) (9, 6, 5.00000000000000000000e-001) (9, 6, 5.00000000000000000000e-001) (9, 6, 5.00000000000000000000e-001) (9, 6, 5.00000000000000000000e-001) (9, 6, 5.00000000000000000000e-001) (9, 6, 5.00000000000000000000e-001) (9, 6, 5.00000000000000000000e-001) (9, 6, 5.00000000000000000000e-001) (9, 6, 5.00000000000000000000e-001) (9, 6, 5.00000000000000000000e-001) (9, 6, 5.00000000000000000000e-001) (9, 6, 5.00000000000000000000e-001) (9, 6, 5.00000000000000000000e-001) (9, 6, 5.00000000000000000000e-001) (9, 6, 5.00000000000000000000e-001) (9, 6, 5.00000000000000000000e-001) (9, 6, 5.00000000000000000000e-001) (9, 6, 5.00000000000000000000e-001) (0, 6, 0.00000000000000000000e+000) (21, 6, 5.00000000000000000000e-001) (21, 6, 5.00000000000000000000e-001) (21, 6, 5.00000000000000000000e-001) (21, 6, 5.00000000000000000000e-001) (21, 6, 5.00000000000000000000e-001) (0, 6, 0.00000000000000000000e+000) 
connections (connected_to_neuron, weight)=(0, 5.99603010796079610000e+000) (1, -2.85438945898199490000e+000) (2, 9.52738381998511690000e-001) (3, -1.69616449606101430000e+000) (4, -3.17062754874003570000e+000) (5, 2.25764813668488080000e+000) (6, 3.05908075992994370000e+000) (7, -3.40847461060613320000e+000) (8, 2.45497768594456630000e-001) (0, 3.03780935260103800000e-001) (1, 1.32421257737514980000e-001) (2, 3.11417657636422430000e-001) (3, -3.33766192522005840000e-001) (4, -6.03569175543150000000e-002) (5, -4.02737252331129890000e-001) (6, -3.97991620487216090000e-001) (7, -2.07706284609860680000e-001) (8, 1.17808366973497170000e-002) (0, -1.88086427701773570000e+000) (1, 7.76079020882213530000e-002) (2, 1.97540091293811490000e+001) (3, 2.61970820232180050000e-001) (4, -2.18901410810663060000e+000) (5, 2.36996675952310860000e+000) (6, -1.23441961919412540000e+001) (7, 9.84480403026095270000e+000) (8, 4.26086619024844350000e-001) (0, 6.80418866226548900000e-001) (1, 7.63932915148246680000e-001) (2, -1.02575203779224950000e+000) (3, -4.15204081015691880000e+000) (4, -1.55546397131297450000e+000) (5, 1.90491192214089260000e+000) (6, -4.71778309415087360000e+000) (7, -6.18879370837579560000e-002) (8, 2.23150691186531800000e-001) (0, 8.12970930102017010000e-002) (1, 5.05810216925931750000e+000) (2, 1.06678089681112830000e+001) (3, 6.89501874362022790000e+000) (4, -4.11568451136298210000e+000) (5, -6.95859236491660930000e+000) (6, 3.47594468971379020000e+000) (7, -1.73355229965054500000e+001) (8, 8.73662497312821310000e-001) (0, 2.02473884217640790000e-001) (1, 9.73079462650353650000e+000) (2, -4.25810342321372380000e+000) (3, 1.89487066406210400000e+000) (4, -3.97121922487666310000e-001) (5, -2.30807882924884030000e+000) (6, 1.24210336431260270000e+000) (7, 8.36855552883282310000e-002) (8, 2.17974308716306850000e-001) (0, -2.92321767013682620000e+000) (1, -5.37472023233259380000e-001) (2, 3.90956263644542550000e+000) (3, 7.82034171616365640000e+000) (4, -7.55104051882274960000e+000) (5, -1.93905902124977580000e+000) (6, 2.65377787923618320000e-001) (7, 8.29529621393467840000e+000) (8, 2.03961337584518810000e-001) (0, -2.49555385877037580000e+000) (1, -4.52765406543178360000e+000) (2, 2.90345601748834890000e-001) (3, -7.38542130075093080000e+000) (4, -1.24743294810566270000e-001) (5, 2.78500041801876150000e+000) (6, 6.93752143228145360000e+000) (7, 9.35227970544882050000e+000) (8, -1.67027174162254970000e-002) (0, -3.11788633454712020000e+000) (1, -5.05273012563124180000e+000) (2, 2.28587218212663320000e+001) (3, -1.82159480077718070000e+001) (4, 1.40725622762132780000e+001) (5, 1.73727685569164050000e+001) (6, -3.17913641804676450000e+000) (7, 1.83586664653552740000e+001) (8, 2.22346668090227830000e+000) (0, 1.46716888955727530000e+001) (1, -7.03235244544890930000e+000) (2, -7.47512722527676220000e+000) (3, -1.42071948997564790000e+001) (4, 1.67544815388219310000e+001) (5, -2.41110619392174960000e+001) (6, 4.16412306080624650000e+001) (7, -1.41240221695585220000e+001) (8, -1.57124701382855780000e-001) (0, 1.54113179135278530000e-001) (1, -5.69215967484096090000e-001) (2, -1.26018826930132720000e-001) (3, 8.19406137803270540000e-001) (4, -3.51445895311770110000e+000) (5, -2.66107062399790980000e-001) (6, 9.96930269707506640000e-001) (7, 2.95961659040346790000e+000) (8, -1.14424132271312950000e-002) (0, -4.77522225440081270000e+000) (1, 7.05135309010315490000e+000) (2, 6.45593869344865910000e+000) (3, -7.60423606049483230000e-001) (4, 8.43349811706976200000e-001) (5, -3.10792220783352360000e+000) (6, -8.53184964231297370000e+000) (7, 1.30534794914414650000e+001) (8, 2.62299437751607190000e-001) (0, 5.90368738117994620000e-001) (1, 8.41789754445781390000e+000) (2, 9.29242052400600650000e-001) (3, -1.98129453262876940000e+000) (4, -1.31329042251420440000e+001) (5, -6.48215554797054170000e-001) (6, 1.45297218247193080000e+000) (7, 8.93096404805244680000e+000) (8, 7.13446545903195010000e-001) (0, -4.38219582213334120000e+000) (1, 2.07348123237122240000e+000) (2, 3.45852376703006350000e+000) (3, -1.20730139663729870000e+000) (4, 3.11249369640156370000e+000) (5, 2.71850198493119950000e+000) (6, 6.13500587108907780000e+000) (7, 3.09022108662400590000e+000) (8, 7.16776236230658230000e-001) (0, -8.87051266260926830000e-003) (1, -2.51061281681470570000e-001) (2, -5.95756196939558910000e-003) (3, -2.59564229581345260000e+000) (4, 2.77316091940369970000e+000) (5, -1.31429598059241760000e-001) (6, 3.11091035973495570000e+000) (7, -4.72048437911101800000e+000) (8, 3.26604009487803380000e-001) (0, 1.91394816043996860000e+000) (1, 8.45903859825040530000e+000) (2, 1.96498710073723460000e+000) (3, -1.63276363294285250000e+001) (4, 2.18884337778434060000e+000) (5, -2.28896001696758280000e+000) (6, 2.08889832074202670000e+001) (7, -8.56721087406888060000e+000) (8, -1.40580275088518970000e-001) (0, -5.53861012107496440000e+001) (1, -3.17233638827081920000e+001) (2, 3.84368139903133750000e+001) (3, -5.29436001502089650000e+001) (4, 4.84890810717163210000e+001) (5, 6.33659547685308910000e+001) (6, -1.26298198124048200000e+001) (7, -5.73609982990973110000e+001) (8, -5.13227458307565950000e+000) (0, 5.72759227045419040000e-001) (1, 4.28736828934607140000e+000) (2, 4.88418597927382630000e-001) (3, 6.62318536482351840000e+000) (4, 4.22886265273541540000e+000) (5, -7.04592386186125410000e-001) (6, -1.21625669050523070000e+001) (7, -6.97896276306259990000e+000) (8, -6.54555974975823630000e-001) (0, 1.00869301061408440000e-001) (1, -1.28519277279614270000e+000) (2, 4.35445694885235210000e-001) (3, -2.59856868041636970000e+000) (4, 2.65042145023758470000e+000) (5, 1.24591057508200880000e+000) (6, 4.62328673708944480000e+000) (7, 2.33043871019326510000e+000) (8, -1.29722372018925470000e-001) (0, 3.15021716213202300000e+000) (1, -7.55290366683670780000e-001) (2, 3.03070010027504160000e+000) (3, 5.72725744946357910000e+000) (4, -1.12716757782779040000e+001) (5, -2.27876212328434980000e+000) (6, -1.18076331844008740000e+000) (7, -5.14918433344976820000e+000) (8, -1.40525158332019760000e-001) (9, -4.85505898837078120000e-001) (10, 7.68324419550825600000e+000) (11, 7.24707710724022290000e-001) (12, -3.95008162365915940000e+000) (13, -1.28853181564488240000e+000) (14, -2.11523638892773080000e+000) (15, -2.83704592263200380000e-001) (16, -2.21854984075711630000e+000) (17, -1.57311582472700880000e-001) (18, -1.42311506902131900000e-002) (19, 4.82858186420371460000e+000) (20, -1.28958776484372550000e+000) (21, 2.56841120346094120000e+000) (22, 3.82311243886593380000e-001) (23, 4.52097392141601340000e+000) (24, 9.67790199465854710000e-002) (25, 8.02803182604147740000e-001) (26, 3.81471307152702720000e-001) (27, -3.83685893987652980000e+000) (28, -2.77901986126962840000e+000) (29, 7.35166431503001090000e-001) (9, 3.43563842048225540000e-001) (10, 3.42576111873450410000e+000) (11, -5.99557895360859130000e-001) (12, 4.19286747509727850000e+000) (13, 8.92268161046258500000e-001) (14, 1.93880781231852280000e+000) (15, 1.54867683112683490000e+000) (16, 2.23865411944657660000e+000) (17, 2.61872330035176850000e-001) (18, -4.26453952229125800000e-002) (19, -1.13822388818437690000e-001) (20, 1.43632294482902930000e-001) (21, -1.36567316142031860000e+000) (22, -2.08807828681596180000e-002) (23, 1.57197547675577000000e-001) (24, -4.71751197218107650000e-001) (25, -2.08306142897603770000e-001) (26, 1.50031150736229720000e+000) (27, 4.21636223477690210000e+000) (28, 1.08771256538339460000e+000) (29, 5.55745819240404120000e-001) (9, 1.54152811522964670000e+000) (10, 1.80893298493478770000e+000) (11, -2.08018975286448080000e+000) (12, -2.07849133580060610000e+000) (13, 1.86117224557659240000e+000) (14, 1.10412459761581740000e+000) (15, -3.39001148998688300000e+000) (16, 4.71590764325612180000e+000) (17, 2.02438998682741870000e+000) (18, -2.31105998073045330000e-001) (19, 2.95985995255226620000e+000) (20, 1.61091348331951380000e+000) (21, -1.20694769081848110000e+000) (22, 1.03846906525756260000e+000) (23, -4.70889957698655960000e+000) (24, -4.95406755500154730000e-001) (25, 3.79471854552640540000e-001) (26, 1.96657374285595150000e+000) (27, -2.29781283489303380000e+000) (28, 2.16444633111002330000e+000) (29, 8.50056779681501280000e-001) (9, -2.69019611571232800000e+000) (10, -3.17556689925103570000e+000) (11, 5.56703555089976270000e-001) (12, -2.12231106193466520000e+000) (13, -1.46820006995354870000e+000) (14, 2.19297019446903270000e+000) (15, -3.03125855719623650000e+000) (16, 2.99763933656075170000e+000) (17, 2.75319463542185210000e-002) (18, 6.76547860683039510000e-001) (19, -1.15694996163199060000e+001) (20, 6.11131943474288230000e-001) (21, 1.85308170968384390000e+000) (22, 7.36178241340614050000e-001) (23, 2.57346191815662540000e+000) (24, -2.59646409940365960000e+000) (25, 1.00407384899122680000e-001) (26, -5.25665777755855880000e-001) (27, 3.29710445448592890000e+000) (28, 6.58020040933952010000e+000) (29, 1.20826094292479120000e+000) (9, -9.97586585717695100000e-001) (10, -1.97320820958595980000e+000) (11, -5.83113953974862880000e-001) (12, 3.44241048868289030000e+000) (13, 7.24578644449405010000e-001) (14, 8.16776775927465340000e-001) (15, -9.94471466838643630000e-001) (16, -5.77738857104699080000e-001) (17, 6.80452377852467370000e-001) (18, 7.21968028667944960000e-001) (19, 5.62486508251525220000e+000) (20, 1.16554069881019860000e+000) (21, -3.66424751180074950000e-001) (22, 1.07873543477782640000e+000) (23, 2.43174603605198360000e+000) (24, -1.89729673849739640000e+000) (25, 9.42393244872157700000e-001) (26, 8.15604302990591830000e-001) (27, 5.51975133353070110000e+000) (28, 1.58450352013971950000e+000) (29, 9.54929603369632400000e-001) 
