FANN_FLO_2.1
num_layers=3
learning_rate=0.700000
connection_rate=1.000000
network_type=0
learning_momentum=0.000000
training_algorithm=2
train_error_function=1
train_stop_function=0
cascade_output_change_fraction=0.010000
quickprop_decay=-0.000100
quickprop_mu=1.750000
rprop_increase_factor=1.200000
rprop_decrease_factor=0.500000
rprop_delta_min=0.000000
rprop_delta_max=50.000000
rprop_delta_zero=0.100000
cascade_output_stagnation_epochs=12
cascade_candidate_change_fraction=0.010000
cascade_candidate_stagnation_epochs=12
cascade_max_out_epochs=150
cascade_max_cand_epochs=150
cascade_num_candidate_groups=2
bit_fail_limit=3.49999999999999980000e-001
cascade_candidate_limit=1.00000000000000000000e+003
cascade_weight_multiplier=4.00000000000000020000e-001
cascade_activation_functions_count=10
cascade_activation_functions=3 5 7 8 10 11 14 15 16 17 
cascade_activation_steepnesses_count=4
cascade_activation_steepnesses=2.50000000000000000000e-001 5.00000000000000000000e-001 7.50000000000000000000e-001 1.00000000000000000000e+000 
layer_sizes=9 21 6 
scale_included=0
neurons (num_inputs, activation_function, activation_steepness)=(0, 0, 0.00000000000000000000e+000) (0, 0, 0.00000000000000000000e+000) (0, 0, 0.00000000000000000000e+000) (0, 0, 0.00000000000000000000e+000) (0, 0, 0.00000000000000000000e+000) (0, 0, 0.00000000000000000000e+000) (0, 0, 0.00000000000000000000e+000) (0, 0, 0.00000000000000000000e+000) (0, 0, 0.00000000000000000000e+000) (9, 6, 5.00000000000000000000e-001) (9, 6, 5.00000000000000000000e-001) (9, 6, 5.00000000000000000000e-001) (9, 6, 5.00000000000000000000e-001) (9, 6, 5.00000000000000000000e-001) (9, 6, 5.00000000000000000000e-001) (9, 6, 5.00000000000000000000e-001) (9, 6, 5.00000000000000000000e-001) (9, 6, 5.00000000000000000000e-001) (9, 6, 5.00000000000000000000e-001) (9, 6, 5.00000000000000000000e-001) (9, 6, 5.00000000000000000000e-001) (9, 6, 5.00000000000000000000e-001) (9, 6, 5.00000000000000000000e-001) (9, 6, 5.00000000000000000000e-001) (9, 6, 5.00000000000000000000e-001) (9, 6, 5.00000000000000000000e-001) (9, 6, 5.00000000000000000000e-001) (9, 6, 5.00000000000000000000e-001) (9, 6, 5.00000000000000000000e-001) (0, 6, 0.00000000000000000000e+000) (21, 6, 5.00000000000000000000e-001) (21, 6, 5.00000000000000000000e-001) (21, 6, 5.00000000000000000000e-001) (21, 6, 5.00000000000000000000e-001) (21, 6, 5.00000000000000000000e-001) (0, 6, 0.00000000000000000000e+000) 
connections (connected_to_neuron, weight)=(0, 3.75611703336529650000e+000) (1, -4.74657997281098310000e-001) (2, -4.98046353575457520000e+000) (3, -5.02007732241051400000e+000) (4, -5.44488902000748000000e+000) (5, -4.35210820365107410000e+000) (6, -4.73123200887527240000e+000) (7, -6.36166549339281230000e+000) (8, 3.70332140659182240000e-001) (0, -2.18774025363997280000e+000) (1, -8.96118115484675570000e+000) (2, 3.64056085416509760000e+000) (3, 6.08960194211134360000e+000) (4, -3.58054708666477950000e+000) (5, 3.36722083565307220000e+000) (6, 9.41556228249358900000e+000) (7, 7.66727943592425640000e+000) (8, -4.33944223799225610000e-002) (0, -2.48707010773809630000e-001) (1, -2.44101065796168770000e+000) (2, 5.42372286487946330000e-001) (3, -9.17302905291686700000e+000) (4, 9.27152404508453600000e-001) (5, 2.08916127061957510000e+001) (6, 2.06577247225960050000e-001) (7, 7.25977843701896400000e+000) (8, 8.49556794216133280000e-001) (0, 3.00106398873058120000e+000) (1, 1.66358456763153060000e+001) (2, -3.17598541505109470000e+000) (3, -4.38342241876033400000e+001) (4, -1.76077308788179780000e+001) (5, 4.31375128018914960000e+001) (6, 3.71003271368800110000e+001) (7, -3.88238659627272750000e+001) (8, 7.09903806416685160000e-001) (0, -1.23981709641312960000e+000) (1, -6.69261374928109550000e+000) (2, 4.37485446435334600000e+000) (3, -4.42200483798277500000e+000) (4, -6.54691379781038970000e-001) (5, -3.22707529984640360000e-001) (6, 4.84109857170800240000e+000) (7, -1.64300156488660210000e+000) (8, 7.45306768202332880000e-001) (0, -1.43916867689067480000e+000) (1, 3.55477798460151200000e+000) (2, 1.42814352536588110000e+001) (3, 4.93736341205931420000e+000) (4, -1.76515327629484560000e+001) (5, 3.14077392279367550000e+000) (6, -1.85251487965916300000e+001) (7, 2.72095795693332290000e+001) (8, 7.15309136507416900000e-001) (0, 4.52738948173696920000e-001) (1, 1.44186322894083450000e-001) (2, -1.15699742576912910000e+000) (3, 4.60245247707841750000e-001) (4, 3.40514933088553560000e+000) (5, 2.90447631132386470000e-001) (6, 2.85898361292352020000e+000) (7, 2.46535089053692680000e+000) (8, 1.19634674873727020000e-001) (0, -1.86150678726692080000e-001) (1, -2.12941691708268890000e+000) (2, -1.40429003034960840000e-001) (3, 1.52465263309087720000e+000) (4, -4.75592577447134610000e+000) (5, -2.27618596454689040000e-001) (6, 4.93868658257319680000e-001) (7, 2.03701797898513660000e+000) (8, 9.76442678925911050000e-002) (0, 3.07416787139110690000e-001) (1, 4.22169697022573850000e+000) (2, -1.43396640702078890000e+000) (3, -2.73349473875145450000e+000) (4, 4.97346574963215640000e+000) (5, -2.50570103789641910000e+000) (6, -1.16919486765617080000e+001) (7, 1.16905522161894840000e+001) (8, 1.94744208618816420000e-001) (0, -1.05084677174380950000e+000) (1, -5.90750473319072380000e-001) (2, 6.88185954623011800000e-001) (3, 5.18272814377081570000e+000) (4, -9.37782734093847160000e-001) (5, -2.01918156899612860000e+000) (6, 2.44508783630171990000e+000) (7, 5.67793548842584260000e-001) (8, 4.39598945647554430000e-002) (0, -3.61262966964479350000e+000) (1, -1.37408752789731700000e+000) (2, 3.92379267342748150000e+000) (3, 3.37249417586208480000e-002) (4, -1.25631901538050820000e-001) (5, 1.06188599785706530000e+001) (6, 3.69769153034450950000e+000) (7, 5.13670779317963880000e+000) (8, 1.39471835846362080000e-001) (0, 4.91142671937695510000e-001) (1, 2.20552956692936150000e-001) (2, 1.25915846327219570000e+000) (3, -3.68838381127729320000e-001) (4, 1.50329515329305020000e-001) (5, -1.15110326856427900000e+000) (6, 1.90845442767143500000e+000) (7, -6.41266823276448680000e+000) (8, -1.08706421907768110000e-002) (0, -7.09788465469046610000e-001) (1, 1.62455150559640220000e+000) (2, 3.95509439666600170000e+000) (3, -1.64985080836046170000e+000) (4, 2.61233205156621630000e-001) (5, 1.36455558219365480000e+000) (6, 9.21724810138220050000e-001) (7, 4.71138080407001960000e+000) (8, 1.83893767000926440000e-001) (0, -3.17836876328845100000e+000) (1, -5.95408101012219590000e+000) (2, 1.01071036517712030000e+001) (3, -3.09461490215775290000e+000) (4, -1.57979203642706470000e+001) (5, 1.93230969716956480000e+001) (6, -1.79169325927393430000e+001) (7, 8.98412213536261820000e+000) (8, -1.11130542406626470000e-001) (0, 2.93711053705559610000e+000) (1, -1.91894593746984750000e-001) (2, 1.99764080824278630000e-001) (3, -9.09018384908217490000e+000) (4, 3.00455450812084420000e+000) (5, -2.98351344394419550000e+000) (6, 8.24703106997059980000e+000) (7, -8.71005479809138980000e+000) (8, 7.32576998533529640000e-001) (0, 5.88550585004499420000e-001) (1, 9.28306653452680660000e+000) (2, -2.34150044994695830000e+000) (3, 1.17275117272273550000e+000) (4, 3.66425931336158860000e-001) (5, -7.41257154381577350000e-001) (6, 3.29398269680942150000e+000) (7, -6.00047814352967900000e+000) (8, 4.40336548119105440000e-001) (0, 1.08214797085070070000e+000) (1, 5.42857008398808460000e+000) (2, 1.09491919165190630000e+000) (3, 2.35242871891584170000e+000) (4, 6.44157608022762230000e-001) (5, -3.88935628437488350000e+000) (6, -6.18016069379185850000e+000) (7, -1.27048805703617740000e+000) (8, 2.27522573925399680000e-001) (0, 8.37619385914015080000e-001) (1, 1.22571274237256490000e+000) (2, -5.09347558677112900000e-001) (3, -5.86514692939330890000e-001) (4, -1.83255101870441230000e+000) (5, -7.41958667181168100000e-001) (6, 1.85481495969560340000e+000) (7, 2.68136971020966630000e+000) (8, 7.01606750447158760000e-002) (0, -1.75192996725115550000e+000) (1, 1.46624944946974980000e+000) (2, 9.03590882155117650000e+000) (3, -1.55722316359575030000e+000) (4, -1.27140487711897250000e+000) (5, 4.23859659562019710000e-001) (6, 3.29229210220665670000e+000) (7, -1.09832903490730120000e+001) (8, -3.07494208685224440000e-002) (0, 6.52379173444786020000e-001) (1, 4.84138573600865820000e-001) (2, -4.40728993130424680000e-001) (3, 5.75445028006528640000e-001) (4, -3.20235974611283500000e-001) (5, -1.07245001561630420000e+000) (6, -7.74698335153957810000e-001) (7, 1.02436137704990050000e-001) (8, 1.77456907329065320000e-003) (9, -1.99734478677198160000e+000) (10, -2.58257548041884280000e+000) (11, -1.09091470662938630000e+000) (12, 4.54265400750883230000e-001) (13, 1.74384413409250820000e+000) (14, 7.32199662256085130000e-001) (15, 2.17658052585119920000e-001) (16, -7.65624821472391300000e-001) (17, -2.48383589267732760000e+000) (18, 2.34226459767967390000e+000) (19, 2.08330246518438370000e-001) (20, 4.54664115629938780000e+000) (21, 1.56857508366301230000e+000) (22, 1.95013346537284640000e-001) (23, 2.74579144647482730000e-001) (24, -2.26773844687664820000e+000) (25, 3.06126210335169400000e+000) (26, 3.20504543368686280000e-001) (27, -4.94258984646522760000e+000) (28, -8.45102976307065210000e+000) (29, 3.59779940578715710000e-001) (9, 5.85718943096765090000e-001) (10, 1.56817220926319670000e+000) (11, 1.81094193451944610000e-001) (12, -2.71079112070118920000e-001) (13, -6.35923421761550870000e-002) (14, -6.40205626704717590000e-001) (15, 1.18555632417486350000e+000) (16, 9.54880718269604970000e-001) (17, 2.44844121963740410000e+000) (18, -1.43764098727150520000e+000) (19, 5.72173974266498300000e-001) (20, -2.18713563898468740000e+000) (21, -3.70964279887088640000e+000) (22, 7.50151565637866000000e-001) (23, 3.87525189964608660000e-001) (24, 2.31819840479146460000e+000) (25, -8.29484592903409370000e-001) (26, 1.96690331286697570000e+000) (27, 2.70511408340974710000e+000) (28, 2.51402025627651950000e+000) (29, 5.09803985745078680000e-001) (9, 8.89756071014379590000e-001) (10, -2.22810071130704810000e-001) (11, 1.48782266573910560000e+000) (12, -3.54294972467949940000e-001) (13, -1.65973550353597150000e+000) (14, -1.07698334258933450000e+000) (15, 4.61710049757664330000e-001) (16, 3.68368797859611560000e+000) (17, 3.84451542309784690000e+000) (18, 5.60392779192048620000e+000) (19, 9.17394202757733420000e-001) (20, 1.85017806359874970000e+000) (21, -1.28771141329975910000e+000) (22, 1.10014747079651750000e+000) (23, 1.71626310350593900000e+000) (24, 1.46570220001799130000e+000) (25, -3.85808176262449760000e+000) (26, 4.80938255127851820000e-001) (27, 2.80610136568965320000e+000) (28, 9.78483529131883680000e+000) (29, 3.30914518724320370000e-001) (9, 2.14790715636520660000e+000) (10, 1.56986441165049560000e+000) (11, -2.78169797697219610000e-001) (12, -3.69606689876997070000e-001) (13, -1.02369937952325410000e+000) (14, 1.95701403442140130000e-001) (15, 1.46471117742360480000e+000) (16, 1.49746712160925030000e+000) (17, 3.70955821810088620000e+000) (18, -1.94372755138671800000e-001) (19, 2.13134122493945140000e+000) (20, 1.26212310485915610000e+001) (21, -4.46481679815001250000e-001) (22, 1.34787694652806380000e-001) (23, -4.76174711762778310000e-001) (24, 1.26096230657082800000e+000) (25, -1.71854162384963870000e+000) (26, 2.07823150268971310000e+000) (27, -1.05803519246470090000e+000) (28, -8.92844896025904510000e+000) (29, 7.37941796751748540000e-001) (9, 1.09832709294886890000e+000) (10, -1.98710455861358830000e+000) (11, 1.10171349744824790000e+000) (12, -6.50591395694070870000e-001) (13, -2.94370708882279120000e+000) (14, -6.20450600993585070000e-001) (15, 1.97051392392585380000e+000) (16, 6.88670535484722190000e+000) (17, -9.36099758231526690000e-002) (18, 1.08108008624935880000e+000) (19, 2.68217162193855120000e+000) (20, 2.47909265519957070000e+000) (21, 7.55490369602349280000e-001) (22, -6.02505008412905440000e-001) (23, 1.98038521692917540000e+000) (24, -3.34011709429311710000e+000) (25, 3.04219619331451610000e+000) (26, 1.33824820253928680000e+000) (27, 4.38300187866392970000e-001) (28, -1.21527623655158000000e+001) (29, 8.38423349291671390000e-001) 
