FANN_FLO_2.1
num_layers=3
learning_rate=0.700000
connection_rate=1.000000
network_type=0
learning_momentum=0.000000
training_algorithm=2
train_error_function=1
train_stop_function=0
cascade_output_change_fraction=0.010000
quickprop_decay=-0.000100
quickprop_mu=1.750000
rprop_increase_factor=1.200000
rprop_decrease_factor=0.500000
rprop_delta_min=0.000000
rprop_delta_max=50.000000
rprop_delta_zero=0.100000
cascade_output_stagnation_epochs=12
cascade_candidate_change_fraction=0.010000
cascade_candidate_stagnation_epochs=12
cascade_max_out_epochs=150
cascade_max_cand_epochs=150
cascade_num_candidate_groups=2
bit_fail_limit=3.49999999999999980000e-001
cascade_candidate_limit=1.00000000000000000000e+003
cascade_weight_multiplier=4.00000000000000020000e-001
cascade_activation_functions_count=10
cascade_activation_functions=3 5 7 8 10 11 14 15 16 17 
cascade_activation_steepnesses_count=4
cascade_activation_steepnesses=2.50000000000000000000e-001 5.00000000000000000000e-001 7.50000000000000000000e-001 1.00000000000000000000e+000 
layer_sizes=9 21 6 
scale_included=0
neurons (num_inputs, activation_function, activation_steepness)=(0, 0, 0.00000000000000000000e+000) (0, 0, 0.00000000000000000000e+000) (0, 0, 0.00000000000000000000e+000) (0, 0, 0.00000000000000000000e+000) (0, 0, 0.00000000000000000000e+000) (0, 0, 0.00000000000000000000e+000) (0, 0, 0.00000000000000000000e+000) (0, 0, 0.00000000000000000000e+000) (0, 0, 0.00000000000000000000e+000) (9, 6, 5.00000000000000000000e-001) (9, 6, 5.00000000000000000000e-001) (9, 6, 5.00000000000000000000e-001) (9, 6, 5.00000000000000000000e-001) (9, 6, 5.00000000000000000000e-001) (9, 6, 5.00000000000000000000e-001) (9, 6, 5.00000000000000000000e-001) (9, 6, 5.00000000000000000000e-001) (9, 6, 5.00000000000000000000e-001) (9, 6, 5.00000000000000000000e-001) (9, 6, 5.00000000000000000000e-001) (9, 6, 5.00000000000000000000e-001) (9, 6, 5.00000000000000000000e-001) (9, 6, 5.00000000000000000000e-001) (9, 6, 5.00000000000000000000e-001) (9, 6, 5.00000000000000000000e-001) (9, 6, 5.00000000000000000000e-001) (9, 6, 5.00000000000000000000e-001) (9, 6, 5.00000000000000000000e-001) (9, 6, 5.00000000000000000000e-001) (0, 6, 0.00000000000000000000e+000) (21, 6, 5.00000000000000000000e-001) (21, 6, 5.00000000000000000000e-001) (21, 6, 5.00000000000000000000e-001) (21, 6, 5.00000000000000000000e-001) (21, 6, 5.00000000000000000000e-001) (0, 6, 0.00000000000000000000e+000) 
connections (connected_to_neuron, weight)=(0, 2.38499070217949190000e-001) (1, -2.65689659122842900000e+000) (2, 2.75720844641899720000e+000) (3, 1.36894936677893410000e+000) (4, 1.49088414771529760000e+000) (5, 2.81272475391473750000e+000) (6, 1.40642249590152770000e+000) (7, -1.51690350940684960000e+001) (8, 5.66075610018533020000e-001) (0, -2.00546985546358140000e-001) (1, -1.92858850073541870000e+000) (2, 1.78678832193960900000e+000) (3, -2.55174751471197590000e+000) (4, 1.51662430307934600000e+000) (5, 4.43736888759305350000e+000) (6, -1.19975882623886940000e-002) (7, 2.44214588574121190000e+000) (8, 3.49153632394548440000e-001) (0, -3.09338785900964330000e+000) (1, 7.24022270362391750000e+000) (2, -7.65373540317230990000e+000) (3, -3.04694613065150670000e+000) (4, 1.73706154275207100000e+000) (5, 8.95797049078508860000e+000) (6, -1.43908526530604710000e+000) (7, -1.27547233942162010000e+000) (8, 5.50340844767213460000e-001) (0, 1.99622768769807070000e+000) (1, 2.05885413164730350000e+000) (2, -1.34844035070799760000e+000) (3, 2.47587566950556770000e+000) (4, -6.72386702328243490000e+000) (5, -3.21863063399800130000e+000) (6, 3.39902546681868770000e+000) (7, 3.91555600300135210000e+000) (8, -2.33872269126101820000e-001) (0, -2.87847001905105480000e-001) (1, -2.04588191478933950000e+000) (2, 1.57305430331949950000e+000) (3, -5.24547228482716950000e-001) (4, 2.87314098813331280000e+000) (5, 2.99677960033204020000e+000) (6, 1.29125854726323430000e-001) (7, 4.61479102664458960000e-001) (8, 4.32444966089774560000e-001) (0, 3.75237041878064440000e+000) (1, 9.00650443638864930000e+000) (2, 9.69995457250103320000e+000) (3, 2.08973289882275530000e+001) (4, -6.06082360894474230000e+001) (5, -5.52236088276314520000e+000) (6, -1.78351530925893440000e+001) (7, 5.98408859284724100000e+001) (8, -1.06420784760838730000e-001) (0, 2.84002089222124580000e+000) (1, 5.84081686520803700000e+000) (2, 1.13487721482932450000e+001) (3, 5.19987915997607430000e+001) (4, -9.34193130712439230000e+000) (5, -4.54543147653561800000e+001) (6, 5.79470542328381910000e+000) (7, -1.00040772874939260000e+001) (8, 3.51434890125936870000e-001) (0, -3.09609506667173680000e-001) (1, -4.65474344814824910000e-001) (2, -1.21457652883695570000e+000) (3, 3.74040782290193750000e+000) (4, -1.10217184729748970000e+000) (5, -2.43896948255727110000e-001) (6, -7.18981281618744640000e-001) (7, 8.28025009608725250000e+000) (8, 7.25042299329468070000e-002) (0, -2.75426279230478020000e+000) (1, -8.67569265976035630000e+000) (2, -2.57535650257313040000e+000) (3, -1.16519781416360680000e-002) (4, 5.47064242933231790000e+000) (5, 1.31644967036852310000e+001) (6, -1.54997245318954910000e+000) (7, 1.90325140321191420000e+001) (8, 1.29939496291580080000e-001) (0, -2.41639227792686830000e+000) (1, -1.87736845123340080000e+000) (2, -4.17754395405126710000e-001) (3, 2.87893555954617760000e+000) (4, 1.86539957009072730000e+000) (5, 5.16691439195025470000e+000) (6, 2.25745920826280420000e+000) (7, 1.15930518688365040000e+001) (8, -8.21247073134948460000e-002) (0, 3.34887487022644010000e+000) (1, 1.64751388016665320000e+001) (2, -2.35001482216048140000e+001) (3, 5.76076703986887930000e+000) (4, 1.08306422576405450000e+001) (5, -1.83545034282251540000e+001) (6, 3.70720946377227350000e+001) (7, 6.23334001170988560000e+000) (8, 3.76862392152724880000e-001) (0, -1.02159570358256810000e+001) (1, 1.93391242050006580000e+001) (2, 1.28975834202588190000e+001) (3, 5.02563783389231200000e+001) (4, 4.58624338328544660000e+000) (5, -3.22221548763391970000e+001) (6, -1.78477830364577270000e+000) (7, -1.87336883485699170000e+001) (8, 2.51871535117443760000e-001) (0, 3.35544655642128340000e+000) (1, 1.23761390368112260000e+001) (2, -5.56993377119603220000e+000) (3, -1.24483969010296800000e+001) (4, -7.93217809030390430000e+000) (5, 1.44173957185982250000e+001) (6, 2.20356215759412030000e+001) (7, -2.64187562639550070000e+001) (8, -1.29215574107471860000e-001) (0, -2.99564581710708160000e-001) (1, -2.52390250267582550000e+000) (2, 1.62628414323556700000e+000) (3, -1.59090431594308110000e-001) (4, 2.94223530896731860000e+000) (5, -3.63434975817550400000e+000) (6, -1.60545885103687150000e+000) (7, -1.97932646158764240000e-001) (8, 5.84311003847862510000e-002) (0, 5.38447007460145950000e-001) (1, 1.06728422319444500000e+000) (2, 1.55418018356129100000e+000) (3, -2.41622670437464480000e+000) (4, 2.19667133283946340000e+000) (5, -4.57783326094487300000e-001) (6, -9.97106140858848460000e+000) (7, 3.30197130330246940000e+000) (8, 3.97570513191772560000e-001) (0, 4.26080871681295100000e-001) (1, 6.44530511200296810000e-001) (2, -1.86023488892879580000e+000) (3, -2.79883077739741060000e+000) (4, -5.13749078948453900000e-001) (5, -7.14625596799419730000e-002) (6, 3.41986918905757500000e-001) (7, -1.06353747360136090000e-001) (8, 1.65089045551995440000e-001) (0, 1.00979451171966370000e+001) (1, 1.03494014441475880000e+001) (2, 1.09229932160607550000e+001) (3, 2.62647232846364580000e+000) (4, -5.23657552084776440000e+001) (5, -7.91294990328736690000e+000) (6, 6.47598687752905990000e+000) (7, -1.11624311693697640000e+001) (8, -4.69002801297164100000e-001) (0, 3.19277712019186840000e+000) (1, -1.38587469842931060000e+001) (2, 6.82779252603508270000e+000) (3, -6.22410614811701190000e+000) (4, 1.65305936618105850000e+001) (5, 1.60302165140164490000e+000) (6, 2.89154253831170480000e+000) (7, -2.04204798444326240000e+001) (8, 3.08146529475918750000e-001) (0, 4.00527519291934200000e-001) (1, 1.10034979804192580000e+001) (2, -9.95105419309861180000e+000) (3, 9.30554548827802820000e+000) (4, -1.12404417836457780000e+000) (5, -1.52137417673926870000e+001) (6, 1.17793373461986430000e+001) (7, 9.34854446954260430000e+000) (8, 6.52405818633009390000e-001) (0, -6.76832284063101850000e+000) (1, 7.86243650534722430000e+000) (2, 1.19261878354762810000e+000) (3, 9.27056027636830390000e+000) (4, 9.77543124775638360000e+000) (5, -6.51983808638243540000e+000) (6, 1.04048786939016670000e+001) (7, 9.04207712981173550000e+000) (8, 3.51612823569882990000e-001) (9, 1.09817717928355350000e+000) (10, -5.48833226135226000000e-001) (11, 1.73309442321291170000e+000) (12, 2.64614634427795940000e+000) (13, 4.18359252723347900000e-003) (14, 3.78433559607309340000e-001) (15, -1.19399908988112420000e-001) (16, 4.33572691647438630000e+000) (17, -2.96430942482947700000e+000) (18, 3.80549027798278820000e+000) (19, 3.08563698860170210000e-001) (20, -6.90467892898243700000e-002) (21, 4.23654033915237590000e-001) (22, 5.28663778435024680000e+000) (23, 1.91575986622338910000e-001) (24, 2.92480794996804990000e+000) (25, -4.36522045912458520000e-001) (26, 9.73271758724774010000e-001) (27, -1.69225528841536430000e+000) (28, 6.87858614916620900000e-002) (29, 2.72067204783269350000e-001) (9, 1.04462360483370280000e+000) (10, 6.38662744508445070000e-001) (11, -1.09352675572123270000e+000) (12, -5.76429217873315890000e-002) (13, 8.26255363274738250000e-001) (14, -4.18103812370770770000e-001) (15, -1.99743362255766830000e-001) (16, -2.71013946101249110000e+000) (17, 6.08650050126087190000e-001) (18, 1.35096960914975890000e+000) (19, -2.79765301545275400000e-001) (20, 3.15794784657146780000e-001) (21, -4.10915641799128710000e-001) (22, -2.14417387091802380000e+000) (23, 1.08287539227636650000e+000) (24, 2.51396933023789830000e+000) (25, 2.30792414501668650000e-001) (26, -9.66382688655204820000e-001) (27, 1.20097312131947610000e+000) (28, -6.56702877859981940000e-001) (29, 3.22076969050722470000e-001) (9, 8.33211751025065280000e-001) (10, 5.36225067499630500000e-001) (11, 2.07672244815493780000e+000) (12, 5.59192186865529630000e+000) (13, 4.34176554681125980000e-001) (14, -6.98768161444887850000e-001) (15, 4.28288095493110920000e-001) (16, -4.10715166178897830000e+000) (17, 2.93270506665100460000e+000) (18, -2.48881366261334150000e+000) (19, -1.22506195735198280000e+000) (20, -5.47729441936299350000e-001) (21, 7.66619783766105120000e-003) (22, 3.76897804913174330000e+000) (23, 1.10850103951634750000e+000) (24, -6.36696538234293640000e+000) (25, 4.56691924503279830000e-001) (26, -6.70519281672332210000e-001) (27, 1.65444433897018060000e+000) (28, 6.87198900768911100000e-001) (29, 5.47921542645456340000e-001) (9, 1.14396796871019180000e+000) (10, 4.90614320807042260000e-001) (11, 3.44497201359118600000e-001) (12, 2.39045367642095610000e+000) (13, 4.04648942473173900000e-001) (14, 2.36720492546639040000e-001) (15, -7.14094380569750940000e-001) (16, -7.44544142295604590000e+000) (17, -9.25931929578109880000e-001) (18, 5.06390055033202820000e+000) (19, -1.27163605938561880000e-001) (20, 4.96362946955384300000e-001) (21, -1.28281478062313670000e+000) (22, -1.12061728226120750000e+000) (23, 9.05907760310611490000e-001) (24, 3.93848559166419480000e-001) (25, -4.50601008567422730000e-002) (26, 6.86632368031394600000e-001) (27, 2.29281923802274260000e+000) (28, -1.55552980014926520000e+000) (29, 5.90332643129576340000e-001) (9, 5.76896540088315590000e-001) (10, 1.57575700785281380000e+000) (11, 3.86810178280489850000e+000) (12, 8.16414996942534540000e+000) (13, 9.14703867887786790000e-001) (14, -5.76018285663431940000e-001) (15, -1.97331407951015110000e-001) (16, -3.76279199897874150000e+000) (17, 1.75069149631025380000e-001) (18, 2.54758496879685260000e+000) (19, 6.24565349085469570000e-001) (20, 4.45855845150308240000e-001) (21, -1.61238359139606540000e+000) (22, 4.76515530892621180000e+000) (23, 1.44693498681801860000e+000) (24, -1.84592225348705670000e-001) (25, 1.04493786658084840000e+000) (26, 1.17563506944254570000e+000) (27, -9.06489782548563160000e-001) (28, -1.44222911547348400000e-001) (29, 3.43110982120850950000e-001) 
