FANN_FLO_2.1
num_layers=3
learning_rate=0.700000
connection_rate=1.000000
network_type=0
learning_momentum=0.000000
training_algorithm=2
train_error_function=1
train_stop_function=0
cascade_output_change_fraction=0.010000
quickprop_decay=-0.000100
quickprop_mu=1.750000
rprop_increase_factor=1.200000
rprop_decrease_factor=0.500000
rprop_delta_min=0.000000
rprop_delta_max=50.000000
rprop_delta_zero=0.100000
cascade_output_stagnation_epochs=12
cascade_candidate_change_fraction=0.010000
cascade_candidate_stagnation_epochs=12
cascade_max_out_epochs=150
cascade_max_cand_epochs=150
cascade_num_candidate_groups=2
bit_fail_limit=3.49999999999999980000e-001
cascade_candidate_limit=1.00000000000000000000e+003
cascade_weight_multiplier=4.00000000000000020000e-001
cascade_activation_functions_count=10
cascade_activation_functions=3 5 7 8 10 11 14 15 16 17 
cascade_activation_steepnesses_count=4
cascade_activation_steepnesses=2.50000000000000000000e-001 5.00000000000000000000e-001 7.50000000000000000000e-001 1.00000000000000000000e+000 
layer_sizes=9 21 6 
scale_included=0
neurons (num_inputs, activation_function, activation_steepness)=(0, 0, 0.00000000000000000000e+000) (0, 0, 0.00000000000000000000e+000) (0, 0, 0.00000000000000000000e+000) (0, 0, 0.00000000000000000000e+000) (0, 0, 0.00000000000000000000e+000) (0, 0, 0.00000000000000000000e+000) (0, 0, 0.00000000000000000000e+000) (0, 0, 0.00000000000000000000e+000) (0, 0, 0.00000000000000000000e+000) (9, 6, 5.00000000000000000000e-001) (9, 6, 5.00000000000000000000e-001) (9, 6, 5.00000000000000000000e-001) (9, 6, 5.00000000000000000000e-001) (9, 6, 5.00000000000000000000e-001) (9, 6, 5.00000000000000000000e-001) (9, 6, 5.00000000000000000000e-001) (9, 6, 5.00000000000000000000e-001) (9, 6, 5.00000000000000000000e-001) (9, 6, 5.00000000000000000000e-001) (9, 6, 5.00000000000000000000e-001) (9, 6, 5.00000000000000000000e-001) (9, 6, 5.00000000000000000000e-001) (9, 6, 5.00000000000000000000e-001) (9, 6, 5.00000000000000000000e-001) (9, 6, 5.00000000000000000000e-001) (9, 6, 5.00000000000000000000e-001) (9, 6, 5.00000000000000000000e-001) (9, 6, 5.00000000000000000000e-001) (9, 6, 5.00000000000000000000e-001) (0, 6, 0.00000000000000000000e+000) (21, 6, 5.00000000000000000000e-001) (21, 6, 5.00000000000000000000e-001) (21, 6, 5.00000000000000000000e-001) (21, 6, 5.00000000000000000000e-001) (21, 6, 5.00000000000000000000e-001) (0, 6, 0.00000000000000000000e+000) 
connections (connected_to_neuron, weight)=(0, 1.87558890319826750000e+000) (1, -4.23756033027514260000e+000) (2, 4.19913781775818950000e+000) (3, 1.27393774766517560000e+001) (4, 1.65928565664444320000e+001) (5, -6.84584247540759260000e+000) (6, -6.97183262186325070000e+000) (7, 8.52637424088868200000e+000) (8, 1.06170775010063560000e-001) (0, 5.91192016214172830000e-001) (1, 4.89515220552956800000e+000) (2, -1.36162387672655250000e+000) (3, -2.36960997191459820000e+000) (4, 2.35103053955689360000e+000) (5, -2.93192589242569210000e+000) (6, 8.24058655409160570000e-001) (7, -8.73507081828033940000e-001) (8, 1.48896993174102960000e-001) (0, 7.63276523165760210000e+001) (1, 2.33063970093968180000e+002) (2, -4.67627795109719440000e+002) (3, 2.57520353216399260000e+002) (4, 4.77319163046997520000e+002) (5, -1.00327184774296060000e+003) (6, 3.19849485294196710000e+002) (7, 4.65268713459579940000e+002) (8, 8.23186326953701550000e+000) (0, 1.43536033301278890000e+001) (1, 4.22373095475247450000e+001) (2, -8.36911564867156700000e+000) (3, 8.10461026625019440000e+000) (4, -1.15559636022360280000e+001) (5, 7.23985446298471950000e-001) (6, -1.01887004793354310000e+001) (7, -9.91248174910469440000e+000) (8, 1.97254616772253180000e+000) (0, 4.81740622911360270000e-001) (1, -7.55684351090590580000e+000) (2, 1.09550901306619330000e+000) (3, -3.23558938311708180000e-001) (4, 3.65408412936428920000e+000) (5, -6.04035183955527130000e-001) (6, -1.51495166443376590000e+001) (7, 6.07735671115878430000e+000) (8, 8.30096298818100210000e-001) (0, -3.96925395495710640000e+000) (1, -1.16267750264770660000e+001) (2, 6.01777835373723580000e+000) (3, 4.53584619006176620000e+001) (4, 5.80585801711943630000e+000) (5, -2.96057901954889750000e+001) (6, -3.45002668466754090000e+001) (7, 7.16021495242594860000e+000) (8, -8.71991501967715880000e-002) (0, 7.17422107659151290000e+000) (1, 1.48373328794205970000e+000) (2, 6.59289837718421450000e+000) (3, 1.15092259647331050000e+001) (4, -3.09813062784048230000e+001) (5, -6.61450612914434810000e+000) (6, -4.94578131409972870000e+000) (7, -1.18305823025337520000e+001) (8, -7.35556591114930100000e-001) (0, 1.97445229959725470000e+000) (1, 7.51862049981773640000e-001) (2, 3.37280908776950430000e+000) (3, -1.96874961608714780000e+000) (4, 7.40032378678583220000e+000) (5, -1.64029349338974730000e+001) (6, -8.01102004547574410000e-001) (7, -3.03302294305346280000e+000) (8, 2.29813664815104250000e-002) (0, -6.25115629925683440000e+000) (1, -1.38755459371960760000e+001) (2, 6.13977171075821020000e+000) (3, -8.13956904970571490000e+000) (4, -4.42199894474833770000e+000) (5, 8.47994304873741630000e+000) (6, 2.21448495550641800000e+001) (7, 1.85259820884986010000e+001) (8, -1.21622509978551300000e-001) (0, 1.44882894840677780000e+000) (1, 8.94387020839115010000e+000) (2, 2.48139187345385890000e+000) (3, 1.08281638968125340000e+001) (4, -2.19857385023209130000e+001) (5, -9.32982072543594000000e-001) (6, -5.53956275066300830000e+000) (7, 2.26377422117624610000e+001) (8, 2.03700884322839670000e-001) (0, 4.91717190676288830000e-001) (1, 6.03757975958434740000e+000) (2, -1.30358596481618180000e+001) (3, 1.63648074389219150000e+001) (4, 2.10403119044567150000e+001) (5, -4.83381635820281090000e+001) (6, -3.54030456081395610000e-001) (7, 3.99581293102765830000e+001) (8, 8.68564455105327650000e-001) (0, -3.51602300417418910000e+000) (1, 1.10111826689340210000e+000) (2, -5.47810658550290740000e-003) (3, -9.68418195895099030000e+000) (4, -1.11016614682939040000e+000) (5, 9.65887620924891620000e+000) (6, 7.74406596797335740000e+000) (7, 1.48095906340352990000e+001) (8, 3.04062185455465820000e-001) (0, -5.21860297256614560000e+000) (1, -2.24642567509466180000e+000) (2, -1.41039740044523330000e+000) (3, -3.94768758225547460000e+001) (4, 6.78842262234728220000e+001) (5, 3.07976941094815510000e+001) (6, 4.70756868030718060000e+000) (7, -1.63215196458455810000e+000) (8, 2.10035367632865900000e-001) (0, -1.99753283893280760000e-001) (1, 9.99641130712518590000e+000) (2, -9.26335823792831370000e+000) (3, 1.07339350233447330000e+001) (4, -5.50707469793748630000e-001) (5, -2.06014346393737920000e+000) (6, 2.82364701296893950000e+000) (7, 6.26059380324666750000e+000) (8, -1.26904291538375290000e-001) (0, 1.51230047890493570000e-001) (1, 1.73066726177649510000e-001) (2, -2.47771882888079810000e+000) (3, 7.09378641347547930000e+000) (4, -1.55485102361236290000e+001) (5, 1.47784714865529820000e+000) (6, -6.60984533450487980000e+000) (7, 2.53800954759491470000e+001) (8, 3.80364957397255790000e-001) (0, 6.34084625737421530000e-001) (1, 2.31810282390720660000e+000) (2, 7.85330953059832580000e-001) (3, -7.92779827555233570000e-001) (4, -2.21229519288992060000e+000) (5, 1.43739661492156910000e+000) (6, -2.08556238080059540000e+000) (7, 2.92489928628488370000e+000) (8, 2.04438124163533460000e-001) (0, 3.11921958441391570000e+000) (1, -1.99154782031734870000e+000) (2, 2.40006517813109060000e-002) (3, -2.51820362790231600000e-002) (4, -1.29600115318361910000e+001) (5, -3.05711348316781350000e+000) (6, 1.11640866281931500000e+001) (7, 1.29082776746484340000e+000) (8, -3.68465641633774520000e-003) (0, -6.26924512090895950000e-001) (1, 1.39517819571102250000e+000) (2, -1.65785825045367830000e+000) (3, 7.35432346482520050000e+000) (4, -3.75824873669782790000e-001) (5, -6.15149235858182710000e-001) (6, -2.23557377395371230000e+000) (7, 2.77436503479821320000e+000) (8, 2.97751258532761910000e-001) (0, -3.27967079060329250000e+000) (1, -6.85658536999649910000e+000) (2, -8.48408024011177990000e+000) (3, -3.29398466608465270000e+001) (4, -5.27776144840872610000e+000) (5, 2.37585821098950090000e+001) (6, 9.19780931307494680000e+000) (7, -1.21073500759953400000e+001) (8, 7.19774810152100540000e-001) (0, -4.12789191009904940000e+000) (1, 2.91311420954266880000e+000) (2, 3.26976383874016340000e-001) (3, 9.64703143370182660000e+000) (4, 2.94125242980028420000e+000) (5, 4.74251750595022250000e+000) (6, 2.37092193479224280000e-001) (7, 1.87426101503958000000e+000) (8, -1.39013978296083950000e-002) (9, 1.29716678286292560000e+000) (10, -4.83278248080444700000e-002) (11, 4.58218796975543090000e-002) (12, -9.14003411228349160000e-001) (13, 1.35916624969421700000e-001) (14, -2.93878216500313090000e-001) (15, -1.21438121598387740000e+000) (16, 2.19757129556573940000e+000) (17, -1.22471842948935630000e+000) (18, 1.19921632668523560000e+000) (19, -9.10798939758365010000e-001) (20, 8.19871701041357090000e-001) (21, -4.11106232633229210000e-001) (22, -1.61909868862358670000e-001) (23, 1.95024497438891530000e-001) (24, -3.62494785389802090000e+000) (25, 1.32525996447469470000e+000) (26, 1.28821775445253640000e+000) (27, 8.14178316515971610000e-001) (28, 9.28907357960512160000e-001) (29, 6.29424204743917690000e-001) (9, -8.28311370024629840000e-001) (10, 1.05589014637337030000e+000) (11, -2.07312043471267570000e-002) (12, 7.42107927649495070000e-001) (13, 6.45750176548943950000e-001) (14, 4.10981567922181880000e-001) (15, 7.11677556775121230000e-001) (16, -8.02922922715502140000e-001) (17, 9.30801339658345440000e-001) (18, -9.17572842582891070000e-001) (19, 2.18657594857527920000e-001) (20, -9.23689273249666880000e-001) (21, 4.01835341691636760000e-001) (22, 1.02390339571196700000e+000) (23, 4.29251760074000790000e-001) (24, 2.73341952808553980000e+000) (25, -2.70191205691700630000e-001) (26, -3.19128876354066420000e+000) (27, -2.19651270535475010000e-001) (28, 7.15884068300392530000e-001) (29, 6.84010733303389020000e-001) (9, -8.93990807194407490000e-001) (10, 2.43408698549404670000e-001) (11, -2.36722437459141840000e-001) (12, 4.42253489170973120000e-001) (13, 1.86773111772421230000e-001) (14, 5.20513933284136640000e-001) (15, 6.96449628339824050000e-001) (16, -1.91325429734254180000e-001) (17, 1.49361092720203060000e-001) (18, -8.83037545769002060000e-001) (19, 5.40437811326387570000e-001) (20, 4.35566334935150400000e-001) (21, 4.58215113300736890000e-001) (22, 2.97574845797450530000e-001) (23, -2.21534552025938660000e-001) (24, 1.84675281661555000000e+000) (25, 8.07329783152610720000e-001) (26, 1.13059179197600000000e+000) (27, 6.96167006293467310000e-002) (28, -3.84655108516884990000e-002) (29, 6.13468074456748780000e-001) (9, 2.03088534225743440000e+000) (10, 2.31032098459054370000e+000) (11, 2.03957598751256730000e-002) (12, 6.64531725959067950000e-001) (13, 8.71582283200892370000e-001) (14, 8.41173469522610300000e-001) (15, 1.71422508104706810000e+000) (16, -1.40114307233219710000e+000) (17, 1.00569163442511700000e+000) (18, 1.52257356740293280000e+000) (19, 5.18881993645386790000e-001) (20, 7.03540857396365290000e-001) (21, 1.92821897181854430000e-002) (22, 1.44165185576869640000e+000) (23, -2.23782460160316890000e+000) (24, -5.74057169285921100000e-001) (25, -9.12581766030751140000e-001) (26, -2.70525657463523440000e+000) (27, 1.73763558512721030000e+000) (28, -3.58594830759011110000e-001) (29, 5.15104044544947850000e-001) (9, -1.51543369776708820000e-001) (10, 1.41166540187215950000e+000) (11, 6.25443900455829870000e-002) (12, -7.34203975688305980000e-001) (13, 3.09617406013348130000e+000) (14, 5.22397962254237740000e-001) (15, 6.42031576238315420000e-001) (16, 3.85888905338567570000e-001) (17, -9.28475029050142010000e-001) (18, -9.07086843565920310000e-002) (19, -2.39494041807141790000e-001) (20, 3.13942560192926750000e+000) (21, 2.34549735800963080000e-001) (22, 8.60904953234127750000e-001) (23, -2.22781718000563480000e+000) (24, 8.62967968858399990000e-001) (25, 3.16914054987296150000e+000) (26, 2.48675628305561030000e+000) (27, 1.01351488018298320000e-001) (28, 1.00552713564138710000e+000) (29, 1.55722126686471650000e-001) 
