FANN_FLO_2.1
num_layers=3
learning_rate=0.700000
connection_rate=1.000000
network_type=0
learning_momentum=0.000000
training_algorithm=2
train_error_function=1
train_stop_function=0
cascade_output_change_fraction=0.010000
quickprop_decay=-0.000100
quickprop_mu=1.750000
rprop_increase_factor=1.200000
rprop_decrease_factor=0.500000
rprop_delta_min=0.000000
rprop_delta_max=50.000000
rprop_delta_zero=0.100000
cascade_output_stagnation_epochs=12
cascade_candidate_change_fraction=0.010000
cascade_candidate_stagnation_epochs=12
cascade_max_out_epochs=150
cascade_max_cand_epochs=150
cascade_num_candidate_groups=2
bit_fail_limit=3.49999999999999980000e-001
cascade_candidate_limit=1.00000000000000000000e+003
cascade_weight_multiplier=4.00000000000000020000e-001
cascade_activation_functions_count=10
cascade_activation_functions=3 5 7 8 10 11 14 15 16 17 
cascade_activation_steepnesses_count=4
cascade_activation_steepnesses=2.50000000000000000000e-001 5.00000000000000000000e-001 7.50000000000000000000e-001 1.00000000000000000000e+000 
layer_sizes=9 21 6 
scale_included=0
neurons (num_inputs, activation_function, activation_steepness)=(0, 0, 0.00000000000000000000e+000) (0, 0, 0.00000000000000000000e+000) (0, 0, 0.00000000000000000000e+000) (0, 0, 0.00000000000000000000e+000) (0, 0, 0.00000000000000000000e+000) (0, 0, 0.00000000000000000000e+000) (0, 0, 0.00000000000000000000e+000) (0, 0, 0.00000000000000000000e+000) (0, 0, 0.00000000000000000000e+000) (9, 6, 5.00000000000000000000e-001) (9, 6, 5.00000000000000000000e-001) (9, 6, 5.00000000000000000000e-001) (9, 6, 5.00000000000000000000e-001) (9, 6, 5.00000000000000000000e-001) (9, 6, 5.00000000000000000000e-001) (9, 6, 5.00000000000000000000e-001) (9, 6, 5.00000000000000000000e-001) (9, 6, 5.00000000000000000000e-001) (9, 6, 5.00000000000000000000e-001) (9, 6, 5.00000000000000000000e-001) (9, 6, 5.00000000000000000000e-001) (9, 6, 5.00000000000000000000e-001) (9, 6, 5.00000000000000000000e-001) (9, 6, 5.00000000000000000000e-001) (9, 6, 5.00000000000000000000e-001) (9, 6, 5.00000000000000000000e-001) (9, 6, 5.00000000000000000000e-001) (9, 6, 5.00000000000000000000e-001) (9, 6, 5.00000000000000000000e-001) (0, 6, 0.00000000000000000000e+000) (21, 6, 5.00000000000000000000e-001) (21, 6, 5.00000000000000000000e-001) (21, 6, 5.00000000000000000000e-001) (21, 6, 5.00000000000000000000e-001) (21, 6, 5.00000000000000000000e-001) (0, 6, 0.00000000000000000000e+000) 
connections (connected_to_neuron, weight)=(0, 1.70569365264129250000e+000) (1, -1.88850999519503550000e+000) (2, -6.19692298480900480000e+000) (3, 4.12110875131830580000e+000) (4, 4.68254465566415680000e+000) (5, -2.32511318073685160000e+001) (6, 3.34731298103137660000e+000) (7, -2.26479529910643420000e+000) (8, 2.61441617888661600000e-001) (0, -3.42029604377537930000e+000) (1, 5.65758540766934100000e+000) (2, 5.14401274313054110000e+000) (3, 3.00341164476906600000e+000) (4, -3.49103548352177170000e+001) (5, 3.82973212837949450000e+000) (6, -2.05911432008183050000e+001) (7, 3.49941042642374000000e+001) (8, 2.06966192102258110000e-001) (0, -2.76483812796346210000e-001) (1, -2.63867669739875190000e+000) (2, 1.38405532785004980000e+000) (3, -1.16163089159602980000e+000) (4, 1.04170128155819450000e+001) (5, 6.24393584983925900000e+000) (6, 2.50212064049187430000e+000) (7, -4.37551526203793980000e+000) (8, 1.81463231848641130000e-001) (0, 1.20722137012205070000e+000) (1, -2.81048026573441370000e+000) (2, 8.33762383301600350000e+000) (3, -1.27920572110683350000e+000) (4, -7.39169103895021970000e+000) (5, -1.54054550681293590000e+000) (6, -1.33353852855170450000e+000) (7, 6.56862547331194420000e+000) (8, 3.74206339103528460000e-001) (0, -7.68334708391719000000e-002) (1, 1.92948725725611990000e+000) (2, 1.04158349632395050000e+000) (3, 3.66822654534977140000e-001) (4, -4.25522236338156330000e-001) (5, -9.94421350556993770000e-001) (6, 4.09499669809037850000e-001) (7, -2.81502353376549940000e+000) (8, 1.19995938527224860000e-001) (0, -2.33475637975544800000e+000) (1, 2.32345961134587680000e+000) (2, -1.13099506428065920000e+000) (3, 9.78025911553383410000e+000) (4, 1.22727210424534740000e+000) (5, -4.49301113592278960000e+000) (6, -1.77756853523872360000e+000) (7, 2.20832032120037560000e+001) (8, 2.36857924475564860000e-001) (0, -1.91441111845967100000e-001) (1, -2.40841675743783550000e+000) (2, 8.52827968070641210000e-001) (3, -8.46376956685925560000e+000) (4, 3.45076013638175430000e+001) (5, 9.42013840257129510000e+000) (6, 5.77018883554967400000e+000) (7, -1.08594310186781460000e+001) (8, 3.04239679308198340000e-001) (0, -4.58996520594422200000e+000) (1, 2.07335320862027040000e+001) (2, -3.25686641275317540000e+001) (3, -5.71678208226030640000e+000) (4, 6.06744125747388190000e+000) (5, 2.95770301271881020000e+001) (6, 6.22877823065922520000e+000) (7, 4.05547154169212900000e+001) (8, 9.28802013522922580000e-001) (0, 2.64769648233044470000e+000) (1, 2.20552355088241540000e+001) (2, -4.10424251675905180000e-001) (3, -2.39009001284765570000e+001) (4, -4.29858759675028280000e+001) (5, 4.21818878082938500000e-001) (6, 1.70808141863159370000e+001) (7, 5.05906361877619090000e+001) (8, 5.61000794893241270000e-004) (0, 3.07186147022917950000e+001) (1, 8.29129952835698880000e+000) (2, -1.02545205706618620000e+002) (3, 6.30915621305378520000e+001) (4, 1.67056161841387650000e+002) (5, -2.48396492147626900000e+002) (6, 5.17763662776875790000e+001) (7, 9.70914231852104450000e+001) (8, 1.61377356959401340000e+000) (0, 1.09314654436894100000e+000) (1, -1.33065157191440330000e-001) (2, -1.71303513862238160000e-001) (3, 3.80228220332399800000e+000) (4, -4.05819981309306140000e+000) (5, -7.52293642535868830000e-001) (6, -2.12405056976003200000e+000) (7, 1.18800725793006600000e+000) (8, 5.46434622096356250000e-002) (0, 5.38970605991184120000e+000) (1, 4.19728944770736410000e+000) (2, 2.84144805046664730000e-001) (3, -1.50828112049645060000e+000) (4, -5.35357280839271430000e+000) (5, -6.47746349535965390000e+000) (6, 6.75712443670661500000e+000) (7, -4.38134640727331880000e+000) (8, 5.64494961867291870000e-001) (0, 1.04783833575288020000e+000) (1, 1.46785928600521110000e+001) (2, -9.08303703043817560000e+000) (3, -6.63619435250094190000e+000) (4, -1.88217026001770300000e+000) (5, 2.47624991963978000000e+000) (6, 1.36092453486517770000e+000) (7, 1.07084685650256510000e+001) (8, 1.61045689682465080000e-001) (0, 3.21065851629611790000e+000) (1, 4.83242571165694110000e+000) (2, -4.76253666151429300000e+000) (3, -8.90701820338041910000e+000) (4, 1.50771016058560110000e+001) (5, -3.94152104355569930000e+001) (6, 8.29093880803734610000e+000) (7, -6.80184918385356330000e-001) (8, 5.35376709587228740000e-002) (0, -1.87689246642151100000e+000) (1, 1.19146419728853150000e+001) (2, -1.43924815016343750000e+001) (3, 9.98755421173790480000e+000) (4, -4.84198453935431950000e+000) (5, -4.85386761087894400000e+000) (6, 1.66606804501592950000e+000) (7, 4.25318920236246210000e+001) (8, 1.52267251732778570000e-002) (0, -3.76560229310183790000e-001) (1, 2.06262413815138150000e+000) (2, 7.60516175999926070000e+000) (3, 3.93388171367602800000e+000) (4, 2.56569865436487320000e+000) (5, -1.51115195201717960000e-001) (6, -6.65179857932521120000e+000) (7, 1.10676182141676150000e+001) (8, -2.49193092073117410000e-002) (0, -3.10524817723832610000e-001) (1, -5.75058037091321860000e-001) (2, 1.08356376625437070000e+000) (3, -7.00265445678930790000e-001) (4, -2.31305199503351490000e+000) (5, -4.88577549155936930000e-001) (6, -1.07732521969785790000e-001) (7, 2.05770645934890210000e+000) (8, 8.57724476368167540000e-002) (0, -1.44242647328947960000e+000) (1, 1.14246326488766600000e+000) (2, 4.98249704097763240000e+000) (3, -3.71710628753102570000e-001) (4, 4.28038050964402890000e-001) (5, -2.46684708840844670000e-001) (6, -6.40939148314572520000e-002) (7, -5.43062384180729500000e-001) (8, 1.07952691601247220000e-001) (0, 8.87882428651868420000e+000) (1, -3.58718796400866810000e+000) (2, -2.14209622528413270000e+000) (3, -1.11261814815059990000e+000) (4, 1.32356841445286480000e+001) (5, -2.42565763562123420000e+001) (6, 2.10991454200548640000e+001) (7, -1.87848320129765970000e+001) (8, 5.69124188092848590000e-001) (0, 3.97724289399401300000e-001) (1, -7.89944216292599590000e+000) (2, 1.91395615911171220000e+000) (3, 1.41727102127821800000e+001) (4, -7.99028051570457350000e+000) (5, -1.56415270811288810000e+001) (6, -6.82138263266247780000e+000) (7, 3.71302786672348880000e+000) (8, -1.72605087640384650000e-002) (9, -1.65723525004286440000e+000) (10, -1.24104159366968860000e+000) (11, 4.51724166959055150000e-001) (12, -1.02433169205958910000e+000) (13, 4.09155418449498760000e+000) (14, 2.53199014076541400000e+000) (15, -4.71178946057657310000e-001) (16, 6.99711165623229440000e-001) (17, 6.34701157045856830000e-001) (18, -3.21028247848939920000e-002) (19, -1.29429652285211750000e+000) (20, 3.58872137059366440000e-001) (21, 2.59743280228625250000e-001) (22, 7.55510081718297590000e-001) (23, -2.06927362447515330000e+000) (24, 7.17024107089472620000e-001) (25, 4.33436711158497890000e+000) (26, -3.91029472851912540000e+000) (27, -7.98970114604191430000e-001) (28, 1.99915134111946370000e+000) (29, 4.88211897156049510000e-001) (9, 1.52436905920790930000e+000) (10, 9.46237135028613510000e-001) (11, 4.27430379466316570000e-001) (12, 1.15704825280832410000e+000) (13, -9.92071111333082570000e-001) (14, -2.06453139741409060000e+000) (15, 3.85858434334460650000e-001) (16, -2.64411631011540190000e-001) (17, -5.30443081320114420000e-001) (18, -5.62723779550183390000e-003) (19, -1.21814472846936520000e+000) (20, 3.05915804885844910000e-001) (21, 3.87003095843108940000e-002) (22, -7.02395629740088290000e-001) (23, 1.48403548946150220000e+000) (24, -2.40540117752662820000e-001) (25, -2.42130363224459980000e+000) (26, 1.71437261022622670000e+000) (27, 1.19725925948633650000e-001) (28, -8.59291394475783840000e-001) (29, 5.88712369847225300000e-001) (9, -6.18735810288933920000e-002) (10, 1.62367159289965990000e+000) (11, 1.35370069081348940000e+000) (12, 6.20210078620756610000e-001) (13, -1.49828563778991100000e+000) (14, 8.70722662662627320000e-001) (15, 8.54127570422286380000e-001) (16, -3.80578524418619720000e-001) (17, -5.58311271397580410000e-001) (18, -2.89797605887350430000e-001) (19, 4.75276068547169750000e+000) (20, -1.37350181144071910000e+000) (21, 1.09059447296035830000e+000) (22, 4.30548446930547060000e-001) (23, 2.97867774143990400000e-001) (24, -3.30175416197174210000e+000) (25, -2.12581560466388100000e+000) (26, 3.06133027274732240000e+000) (27, 1.59936178499286100000e+000) (28, -7.02761922506488610000e-001) (29, 4.75929467601245220000e-001) (9, -1.37258745572685850000e+000) (10, 1.15395556725003150000e+000) (11, 2.60821137194116750000e+000) (12, 2.32065108027255680000e+000) (13, 7.08781101540356940000e+000) (14, -1.29290729957678850000e+000) (15, 9.16989397381541840000e-001) (16, -2.19730330065218750000e-001) (17, 3.78840411868007570000e-003) (18, 1.02570907403351690000e-001) (19, -3.19744077361580640000e+000) (20, -1.52149842331738490000e+000) (21, 8.57259587362523390000e-001) (22, 1.59017227894569040000e-001) (23, 1.03499320564649140000e+000) (24, -1.48724060573147910000e+000) (25, -4.78305391315206750000e+000) (26, -2.57666641551811490000e+000) (27, 7.59261118498669170000e-001) (28, 2.46894648551915990000e+000) (29, 6.32316932304705540000e-001) (9, -3.61057683918032570000e+000) (10, 6.04725199392771250000e-001) (11, 2.27647825136704450000e+000) (12, 1.37906747419991590000e-001) (13, 3.06145230932753250000e+000) (14, 6.62327882975111030000e-001) (15, 5.98261248428081820000e-001) (16, 7.21947036927678920000e-001) (17, -1.19026373897695370000e-001) (18, -7.48994755880133260000e-002) (19, 2.29220783308500580000e+000) (20, -1.46006505576904780000e+000) (21, 1.17382105929674880000e+000) (22, 1.81717513787954580000e+000) (23, -7.16261990128390420000e-001) (24, -1.48969846337546170000e+000) (25, 1.62916775511529170000e+000) (26, -1.13145135295705650000e+000) (27, 1.17959445902426750000e+000) (28, 2.96466176660776970000e+000) (29, 5.54561269396986130000e-001) 
