FANN_FLO_2.1
num_layers=3
learning_rate=0.700000
connection_rate=1.000000
network_type=0
learning_momentum=0.000000
training_algorithm=2
train_error_function=1
train_stop_function=0
cascade_output_change_fraction=0.010000
quickprop_decay=-0.000100
quickprop_mu=1.750000
rprop_increase_factor=1.200000
rprop_decrease_factor=0.500000
rprop_delta_min=0.000000
rprop_delta_max=50.000000
rprop_delta_zero=0.100000
cascade_output_stagnation_epochs=12
cascade_candidate_change_fraction=0.010000
cascade_candidate_stagnation_epochs=12
cascade_max_out_epochs=150
cascade_max_cand_epochs=150
cascade_num_candidate_groups=2
bit_fail_limit=3.49999999999999980000e-001
cascade_candidate_limit=1.00000000000000000000e+003
cascade_weight_multiplier=4.00000000000000020000e-001
cascade_activation_functions_count=10
cascade_activation_functions=3 5 7 8 10 11 14 15 16 17 
cascade_activation_steepnesses_count=4
cascade_activation_steepnesses=2.50000000000000000000e-001 5.00000000000000000000e-001 7.50000000000000000000e-001 1.00000000000000000000e+000 
layer_sizes=9 11 6 
scale_included=0
neurons (num_inputs, activation_function, activation_steepness)=(0, 0, 0.00000000000000000000e+000) (0, 0, 0.00000000000000000000e+000) (0, 0, 0.00000000000000000000e+000) (0, 0, 0.00000000000000000000e+000) (0, 0, 0.00000000000000000000e+000) (0, 0, 0.00000000000000000000e+000) (0, 0, 0.00000000000000000000e+000) (0, 0, 0.00000000000000000000e+000) (0, 0, 0.00000000000000000000e+000) (9, 6, 5.00000000000000000000e-001) (9, 6, 5.00000000000000000000e-001) (9, 6, 5.00000000000000000000e-001) (9, 6, 5.00000000000000000000e-001) (9, 6, 5.00000000000000000000e-001) (9, 6, 5.00000000000000000000e-001) (9, 6, 5.00000000000000000000e-001) (9, 6, 5.00000000000000000000e-001) (9, 6, 5.00000000000000000000e-001) (9, 6, 5.00000000000000000000e-001) (0, 6, 0.00000000000000000000e+000) (11, 6, 5.00000000000000000000e-001) (11, 6, 5.00000000000000000000e-001) (11, 6, 5.00000000000000000000e-001) (11, 6, 5.00000000000000000000e-001) (11, 6, 5.00000000000000000000e-001) (0, 6, 0.00000000000000000000e+000) 
connections (connected_to_neuron, weight)=(0, -3.39633437988517970000e+000) (1, -6.63816133901597550000e-001) (2, -3.52893505287361850000e+000) (3, -1.07655547791544960000e+000) (4, -5.96815572254761760000e+000) (5, 2.27438236177998550000e+001) (6, -1.41922064166115100000e+001) (7, 1.22078150996366990000e+001) (8, 9.55032605056432950000e-001) (0, 1.18507552749979740000e+001) (1, 1.51207209946591590000e+001) (2, 6.39222848089279250000e+000) (3, -9.07201155246302800000e+000) (4, -5.77042898788375420000e+001) (5, -3.09658767439685750000e+001) (6, 1.63913562361377530000e+001) (7, 3.20452793895200400000e+001) (8, -8.48132181038513290000e-001) (0, -6.95135991200284400000e+000) (1, 2.11235922154043580000e+001) (2, -5.96310107400887810000e+000) (3, -5.82740461806771390000e+001) (4, 1.85198372290050780000e+000) (5, 4.84335726643831210000e+001) (6, -2.04715474985360540000e+001) (7, 6.91928692932708330000e+000) (8, -5.15480904175204650000e-001) (0, 1.35320669450566110000e+000) (1, -5.90572352472997660000e-001) (2, 2.83153304094221700000e+000) (3, -3.58929965143841260000e+000) (4, 7.95139917574316010000e-001) (5, -1.82245129376597650000e+000) (6, 5.02281551753826340000e+000) (7, -8.70199263283449480000e+000) (8, -7.65491487146884310000e-001) (0, 3.84586028903898520000e+000) (1, 1.56584478187649250000e+001) (2, -2.77584056198634350000e-001) (3, -4.27014155583762400000e+001) (4, -6.08664182099841610000e+000) (5, 3.27234926177067180000e+001) (6, 2.06150916596324660000e+001) (7, -2.24198116046327020000e+001) (8, 1.48202640744951710000e-001) (0, 7.73499821784177040000e+000) (1, -2.99927999940037040000e+001) (2, 3.14464497969786680000e+000) (3, 6.54534537962332480000e+001) (4, 2.20833320574373740000e+001) (5, -4.90893582209335550000e+001) (6, 3.43360762481522240000e+001) (7, -2.60104680483805170000e+001) (8, 6.48807710146337980000e-001) (0, 8.22107593289664430000e+000) (1, 2.11744648187566150000e+001) (2, -1.10493398297808240000e+000) (3, -8.84965364900490140000e+000) (4, -6.31014258392271760000e+001) (5, -1.38959316205453370000e+001) (6, 1.92175024791612810000e+000) (7, 6.19465152650584870000e+001) (8, -5.02117154230345420000e-001) (0, 8.13157792290408570000e+001) (1, -3.33043505876363610000e+002) (2, -6.55642006610201800000e+001) (3, -5.12027472765820450000e+002) (4, -1.75710310227893270000e+002) (5, 1.48372334410521670000e+003) (6, 9.91075830693775540000e+001) (7, 1.50000000000000000000e+003) (8, 2.08985782445169090000e+001) (0, -4.01258593827369920000e+000) (1, -1.59867270912087700000e+001) (2, 1.30073603278709310000e+001) (3, -1.23583328814403530000e+001) (4, -3.56552670624514580000e+001) (5, 4.27105502580740720000e+001) (6, -2.67106184362589750000e+000) (7, 5.40438738432209490000e+000) (8, -6.83012368276639470000e-001) (0, 1.50231364418707920000e+000) (1, 9.47362444937454210000e+000) (2, -7.45200730903861960000e+000) (3, 5.73752473070635730000e+000) (4, 3.82999247830128600000e+000) (5, -1.54699299121644330000e+001) (6, 1.20355331922268440000e+000) (7, 1.23985506864064610000e+001) (8, 5.31750597525079920000e-001) (9, -1.39990029006737120000e+000) (10, -4.58870368391131430000e-001) (11, 4.27530948016831280000e-001) (12, -2.64446846971576650000e+000) (13, 1.15634814960643320000e-001) (14, 4.10740880873661560000e-001) (15, 5.98141803333992810000e-001) (16, -5.45375015120228900000e-001) (17, -2.57000044941892820000e-001) (18, -1.52565858302304420000e+000) (19, 1.01620058924845400000e+000) (9, 1.06253432668885810000e+000) (10, 3.90967599145882580000e-001) (11, -1.86831377146414230000e-001) (12, 2.34334201034887400000e+000) (13, -2.02690967165914310000e-001) (14, -4.21972616737975930000e-001) (15, -6.13619225981782200000e-001) (16, 3.96172551673263870000e-001) (17, 4.70837323158582290000e-001) (18, 1.65046990949761320000e+000) (19, 6.90869242790734360000e-001) (9, 4.12094755162516650000e-001) (10, 1.00740156574181430000e+000) (11, -3.71291853582979280000e-001) (12, 1.22881999334578950000e-001) (13, -4.79227985402682560000e-002) (14, -5.50946694538859800000e-001) (15, -1.24636881780378930000e+000) (16, 4.22882781451578090000e-001) (17, 7.50810925118731820000e-001) (18, 1.56380552020400110000e+000) (19, 5.10642605633542130000e-001) (9, 1.26737967354436740000e+000) (10, 1.31913205032599960000e-001) (11, 1.15264754438814030000e+000) (12, 4.38548126373093350000e+000) (13, -7.77941775173351950000e-001) (14, 9.19492757213833940000e-001) (15, 4.62758271893566470000e-002) (16, 9.68853281434865590000e-003) (17, 4.03551533640361890000e-001) (18, 1.56311687278081020000e+000) (19, 1.84527564871697210000e+000) (9, 1.21582362281544890000e+000) (10, 1.17760111131268030000e+000) (11, 1.39449926212079500000e+000) (12, 2.41463801398142990000e+000) (13, -7.45646358671379960000e-001) (14, 9.99510494578275230000e-001) (15, -9.14634525450744420000e-001) (16, 2.45412775858075670000e-001) (17, 3.29827063502664110000e-001) (18, 1.57727141318010240000e+000) (19, 1.20400160951439060000e+000) 
