FANN_FLO_2.1
num_layers=3
learning_rate=0.700000
connection_rate=1.000000
network_type=0
learning_momentum=0.000000
training_algorithm=2
train_error_function=1
train_stop_function=0
cascade_output_change_fraction=0.010000
quickprop_decay=-0.000100
quickprop_mu=1.750000
rprop_increase_factor=1.200000
rprop_decrease_factor=0.500000
rprop_delta_min=0.000000
rprop_delta_max=50.000000
rprop_delta_zero=0.100000
cascade_output_stagnation_epochs=12
cascade_candidate_change_fraction=0.010000
cascade_candidate_stagnation_epochs=12
cascade_max_out_epochs=150
cascade_max_cand_epochs=150
cascade_num_candidate_groups=2
bit_fail_limit=3.49999999999999980000e-001
cascade_candidate_limit=1.00000000000000000000e+003
cascade_weight_multiplier=4.00000000000000020000e-001
cascade_activation_functions_count=10
cascade_activation_functions=3 5 7 8 10 11 14 15 16 17 
cascade_activation_steepnesses_count=4
cascade_activation_steepnesses=2.50000000000000000000e-001 5.00000000000000000000e-001 7.50000000000000000000e-001 1.00000000000000000000e+000 
layer_sizes=9 4 6 
scale_included=0
neurons (num_inputs, activation_function, activation_steepness)=(0, 0, 0.00000000000000000000e+000) (0, 0, 0.00000000000000000000e+000) (0, 0, 0.00000000000000000000e+000) (0, 0, 0.00000000000000000000e+000) (0, 0, 0.00000000000000000000e+000) (0, 0, 0.00000000000000000000e+000) (0, 0, 0.00000000000000000000e+000) (0, 0, 0.00000000000000000000e+000) (0, 0, 0.00000000000000000000e+000) (9, 6, 5.00000000000000000000e-001) (9, 6, 5.00000000000000000000e-001) (9, 6, 5.00000000000000000000e-001) (0, 6, 0.00000000000000000000e+000) (4, 6, 5.00000000000000000000e-001) (4, 6, 5.00000000000000000000e-001) (4, 6, 5.00000000000000000000e-001) (4, 6, 5.00000000000000000000e-001) (4, 6, 5.00000000000000000000e-001) (0, 6, 0.00000000000000000000e+000) 
connections (connected_to_neuron, weight)=(0, 3.71740983628351740000e-002) (1, 1.59772760889689970000e-001) (2, 2.86255843755521490000e-001) (3, -7.23997404977003930000e-001) (4, -4.97832704068373880000e-001) (5, 1.21976828379019710000e+000) (6, -5.29550472950824250000e-001) (7, -5.11389162438525170000e-001) (8, 6.61464431621373720000e-002) (0, -5.04202345078577850000e+001) (1, -2.38194869929604560000e+001) (2, 6.29965793069059640000e-001) (3, -3.01654692950284940000e+001) (4, 1.42566795409450600000e+001) (5, 9.43797955024022740000e+001) (6, -4.41963960281637470000e+001) (7, 2.08315936711713620000e+001) (8, 1.46700681440271170000e+000) (0, -3.06587546186449170000e+001) (1, -7.73791097497781080000e+000) (2, 7.25561211189550730000e+000) (3, -2.01813322683784120000e+001) (4, -9.14738708199665320000e+000) (5, 5.87626531620182180000e+001) (6, -1.64414516832064200000e+001) (7, -4.45480860001986830000e+000) (8, 3.55455910616749420000e-001) (9, -3.81250400206031340000e+000) (10, -3.10196740704538510000e-001) (11, 4.89946681563918240000e-001) (12, 8.00441937779821980000e-001) (9, 2.65621425974625010000e+000) (10, 1.32815404356695340000e-001) (11, -1.04852777004488150000e-001) (12, 7.19902598202871610000e-001) (9, -1.38245271593557460000e+000) (10, -2.40769441881224370000e-001) (11, 4.20476250071599280000e-001) (12, 1.11655464448169540000e+000) (9, 3.34268144183847400000e+000) (10, 3.51995791746270050000e-001) (11, -5.31239075857110610000e-001) (12, 8.04327360570012080000e-001) (9, 1.59072941565433480000e+000) (10, 5.30748138423903450000e-001) (11, -7.52213230210518220000e-001) (12, 8.49969714265547460000e-001) 
