FANN_FLO_2.1
num_layers=3
learning_rate=0.700000
connection_rate=1.000000
network_type=0
learning_momentum=0.000000
training_algorithm=2
train_error_function=1
train_stop_function=0
cascade_output_change_fraction=0.010000
quickprop_decay=-0.000100
quickprop_mu=1.750000
rprop_increase_factor=1.200000
rprop_decrease_factor=0.500000
rprop_delta_min=0.000000
rprop_delta_max=50.000000
rprop_delta_zero=0.100000
cascade_output_stagnation_epochs=12
cascade_candidate_change_fraction=0.010000
cascade_candidate_stagnation_epochs=12
cascade_max_out_epochs=150
cascade_max_cand_epochs=150
cascade_num_candidate_groups=2
bit_fail_limit=3.49999999999999980000e-001
cascade_candidate_limit=1.00000000000000000000e+003
cascade_weight_multiplier=4.00000000000000020000e-001
cascade_activation_functions_count=10
cascade_activation_functions=3 5 7 8 10 11 14 15 16 17 
cascade_activation_steepnesses_count=4
cascade_activation_steepnesses=2.50000000000000000000e-001 5.00000000000000000000e-001 7.50000000000000000000e-001 1.00000000000000000000e+000 
layer_sizes=9 21 6 
scale_included=0
neurons (num_inputs, activation_function, activation_steepness)=(0, 0, 0.00000000000000000000e+000) (0, 0, 0.00000000000000000000e+000) (0, 0, 0.00000000000000000000e+000) (0, 0, 0.00000000000000000000e+000) (0, 0, 0.00000000000000000000e+000) (0, 0, 0.00000000000000000000e+000) (0, 0, 0.00000000000000000000e+000) (0, 0, 0.00000000000000000000e+000) (0, 0, 0.00000000000000000000e+000) (9, 6, 5.00000000000000000000e-001) (9, 6, 5.00000000000000000000e-001) (9, 6, 5.00000000000000000000e-001) (9, 6, 5.00000000000000000000e-001) (9, 6, 5.00000000000000000000e-001) (9, 6, 5.00000000000000000000e-001) (9, 6, 5.00000000000000000000e-001) (9, 6, 5.00000000000000000000e-001) (9, 6, 5.00000000000000000000e-001) (9, 6, 5.00000000000000000000e-001) (9, 6, 5.00000000000000000000e-001) (9, 6, 5.00000000000000000000e-001) (9, 6, 5.00000000000000000000e-001) (9, 6, 5.00000000000000000000e-001) (9, 6, 5.00000000000000000000e-001) (9, 6, 5.00000000000000000000e-001) (9, 6, 5.00000000000000000000e-001) (9, 6, 5.00000000000000000000e-001) (9, 6, 5.00000000000000000000e-001) (9, 6, 5.00000000000000000000e-001) (0, 6, 0.00000000000000000000e+000) (21, 6, 5.00000000000000000000e-001) (21, 6, 5.00000000000000000000e-001) (21, 6, 5.00000000000000000000e-001) (21, 6, 5.00000000000000000000e-001) (21, 6, 5.00000000000000000000e-001) (0, 6, 0.00000000000000000000e+000) 
connections (connected_to_neuron, weight)=(0, -2.37726033283112500000e+000) (1, 5.66123370649065900000e+000) (2, -8.38304033201720600000e+000) (3, -3.45038936296276950000e+000) (4, 1.63188722495259060000e+000) (5, 5.48166580501436500000e+000) (6, -7.73185664116203820000e-002) (7, 1.41016593641581560000e-001) (8, 7.43818934083416040000e-001) (0, 7.06633783288368460000e-002) (1, -1.00609717037962310000e+000) (2, 2.10451527414669690000e-001) (3, -2.45456379942469430000e+000) (4, 1.29301281786486300000e+000) (5, -9.26514212760040870000e-001) (6, -5.78079908273466710000e+000) (7, 4.94482101868591520000e+000) (8, -6.55404395263429200000e-002) (0, 3.25237300898315170000e+001) (1, 2.95906562393678660000e+002) (2, -1.04832116060448770000e+001) (3, 1.51486524994787430000e+002) (4, -8.69314716163200810000e+001) (5, -1.91400975786062450000e+002) (6, 8.65495521038831160000e+001) (7, 3.94365906672198040000e+002) (8, 2.96883091888075200000e+000) (0, 1.63933623152558590000e+000) (1, 6.27624630118599570000e+000) (2, -2.48955339445281480000e+000) (3, 7.50019472671158540000e-001) (4, 1.10451316829434100000e+000) (5, -2.27392027726426790000e+000) (6, 3.52182964707356440000e-001) (7, 2.35322391771311690000e+000) (8, 6.99392676957608090000e-001) (0, 6.20565487488335180000e-001) (1, 1.64010761315314360000e+000) (2, 2.10434069561734430000e+000) (3, 3.66550367190317970000e-001) (4, 1.46739356313639460000e+000) (5, 5.55641112592733410000e-001) (6, 4.64241189050995150000e-001) (7, 2.86411113206450010000e+000) (8, 3.12340952351033980000e-001) (0, 6.39917664260801990000e-001) (1, -3.04483748956705650000e+000) (2, 8.74124543764955300000e-001) (3, 5.87368006307618430000e-001) (4, -1.81772019709456980000e+000) (5, -1.25305190470156120000e-001) (6, 6.01445305515052040000e-001) (7, 1.31211162864633990000e+000) (8, -1.51908871581147690000e-001) (0, -4.53925845803357930000e+000) (1, 1.46503882036099600000e+001) (2, -9.45344711930492030000e+000) (3, 4.99347760740571810000e+000) (4, -2.15216598529429960000e+000) (5, 9.57034762207052130000e+000) (6, 6.91068746976504000000e-001) (7, 1.63292161101521240000e+001) (8, 1.05379450774940290000e+000) (0, 5.98736746056780510000e-001) (1, 3.73789880955141600000e-001) (2, -6.12152558505704490000e-001) (3, 3.61447836235204050000e+000) (4, -1.90428748648595290000e+000) (5, -2.94951290274407980000e+000) (6, 1.63494025470797940000e+000) (7, 7.75933693402042320000e-001) (8, -3.01334360384894970000e-001) (0, 1.52014194564363820000e-001) (1, 2.01485519279506690000e+000) (2, 1.61102169519334450000e+000) (3, 8.99549809771641450000e-001) (4, 7.28359382271167250000e-001) (5, -6.85754497551656780000e+000) (6, -2.75169453046231020000e+000) (7, -2.83153796736373490000e+000) (8, 8.81155895462104950000e-003) (0, 6.05215306322679280000e-001) (1, -5.56093858801565030000e-001) (2, 4.97754881613669920000e+000) (3, -1.67750820760904770000e+001) (4, 1.42504325446128210000e+001) (5, 1.70449225115180560000e+001) (6, -1.28536880911157430000e+000) (7, 1.12863036437839370000e+001) (8, 5.55933295527708090000e-001) (0, 8.11408253490836340000e-001) (1, 2.09358866957414770000e+001) (2, 2.34211009216956350000e+000) (3, -2.49748581750709240000e+001) (4, -4.03053489527874260000e+001) (5, 1.02489238493582630000e+001) (6, -2.79290625663878470000e-002) (7, 3.08055651361446610000e+001) (8, 6.57729948886909830000e-001) (0, 2.83708692284710590000e+002) (1, 7.32937777802803650000e+001) (2, -9.60087171646224870000e+002) (3, 1.09792423244398240000e+003) (4, 8.45927028696169830000e+002) (5, -1.15339733015049910000e+003) (6, 9.37490557795584550000e+002) (7, 5.00150828614201370000e+002) (8, -6.99654680314838550000e+000) (0, 1.02035068727774430000e-001) (1, 5.11144173941153080000e-001) (2, 3.48229264854646470000e+000) (3, -4.59756811124749140000e-001) (4, 9.30354477057287600000e-002) (5, -3.31050786495869550000e-001) (6, 2.80684289103125860000e+000) (7, -8.01865684002518720000e+000) (8, -2.76899182402891130000e-001) (0, -1.66226423869540980000e+000) (1, 1.77329836761709880000e+001) (2, 2.34938253499991530000e+000) (3, -8.12127741907429980000e+000) (4, -3.46564420770034190000e+001) (5, 2.34734136602139150000e+000) (6, 3.41154455811717880000e-001) (7, 1.03015748776623470000e+001) (8, 4.95808974334131130000e-001) (0, -3.28577966092058690000e+000) (1, -3.41787515753942010000e-001) (2, -5.53879389163635330000e-001) (3, -2.25688579583290010000e+000) (4, -9.81262167532372410000e+000) (5, 6.06095725258750040000e+000) (6, -6.90967161860810290000e+000) (7, 5.15290914146159370000e+000) (8, 9.15086479269745510000e-002) (0, 5.76544494767642020000e-001) (1, -1.95150479022492300000e+000) (2, -5.08632775978664760000e+000) (3, -4.49104619582945120000e+000) (4, -1.56046303400719010000e-001) (5, 2.21224345217219520000e+000) (6, 1.91683502483646940000e+000) (7, -1.45910307860388970000e+000) (8, -7.82497250338453470000e-004) (0, -9.88384437987735010000e-001) (1, -2.38696363796552860000e+000) (2, 6.50358501212549190000e+000) (3, 1.30124175331316640000e+000) (4, 1.74662926452415880000e+000) (5, 6.55716298385518750000e+000) (6, 1.41133822018315540000e-001) (7, 2.11742868759699830000e+000) (8, 5.82648849285871130000e-001) (0, 3.32669938392896990000e-001) (1, 6.83083943821017340000e-001) (2, 2.93980118648205210000e+000) (3, 2.26040689903111460000e-001) (4, 1.58398214387260320000e+000) (5, 5.62747231988990680000e-001) (6, 4.53156246983218380000e-001) (7, 3.59013692268197640000e+000) (8, 2.60465740291550170000e-001) (0, 2.90696111816818360000e+000) (1, -1.31196752811380560000e+001) (2, 3.82283944630227970000e+000) (3, 2.30037395093403770000e+001) (4, -1.32867274041409940000e+001) (5, -3.17982870411835350000e+001) (6, -4.53680929697406570000e+000) (7, 5.38858213426306240000e+000) (8, 9.40794338189495510000e-003) (0, -1.07576521805155970000e-002) (1, 3.16059345641527490000e+000) (2, 1.37115737639869990000e+001) (3, 1.62216567237937180000e+000) (4, -4.11101406483322770000e-001) (5, 3.22612615406231100000e-001) (6, -1.05113585165468490000e+001) (7, 3.06613276231289260000e+001) (8, 1.94876720385041140000e-001) (9, 1.96907659568113220000e+000) (10, -3.36403272250556280000e+000) (11, -9.62131264407844910000e-001) (12, -8.49729910349668600000e-002) (13, 9.11412218054527100000e-001) (14, 4.17590109630949160000e+000) (15, -5.97421657095312040000e-002) (16, -1.59836387125959360000e+000) (17, 3.54881116364212270000e+000) (18, -5.53780970306910980000e-001) (19, 1.21297257662289580000e+000) (20, 2.88891128252024010000e-002) (21, -1.92187897723648500000e-001) (22, -1.69026934891965340000e+000) (23, 6.91123998889082490000e-001) (24, -5.20266314223863270000e-001) (25, 5.27282417247005530000e-001) (26, 1.02016817021070590000e+000) (27, 1.53757318656885160000e-001) (28, 1.50127886686249070000e-001) (29, 5.54730146375939200000e-001) (9, -1.75183802291239020000e+000) (10, 2.17823998831129110000e+000) (11, 3.78243644192815250000e-001) (12, 7.12611718941629450000e-001) (13, 5.88636510353729100000e-001) (14, -2.94625863534664980000e+000) (15, 4.84250998409646360000e-001) (16, 1.47036977152922300000e+000) (17, -1.08003684931302460000e+000) (18, 4.92378597814316810000e-001) (19, -9.70359654217309300000e-001) (20, -1.92498691260183860000e-002) (21, 3.01992526493919220000e-001) (22, 1.16681861065658590000e+000) (23, 6.30448237237170810000e-001) (24, 2.41196690951184720000e+000) (25, 6.55591105972921920000e-001) (26, 2.04112708854790710000e-001) (27, -7.02142806971620400000e-002) (28, -3.67215973799417780000e-001) (29, 3.39354807102656810000e-001) (9, 5.88727032699807420000e-001) (10, 2.93886124953757260000e+000) (11, 4.77627143061086500000e-001) (12, 1.13022950455185580000e+000) (13, 5.57655870985371280000e-001) (14, 4.86222938861413930000e-001) (15, 6.28610563822464270000e-001) (16, 4.50419405161361120000e+000) (17, -5.08808374037214350000e-001) (18, 1.60742961275502210000e+000) (19, -8.18016319536589150000e-001) (20, -1.31698680574208860000e-001) (21, 2.57351158454936390000e+000) (22, 8.02159935965317540000e-001) (23, 8.01285614898182170000e-001) (24, 1.02339598765721630000e+000) (25, 7.69748437282718250000e-001) (26, 4.85431879755763020000e-001) (27, 4.97115670986426840000e-001) (28, -9.69632187369293350000e-001) (29, 1.27669418184064100000e-001) (9, -1.50319776223276900000e+000) (10, 2.24893306970639270000e+000) (11, -3.38692351708664740000e-001) (12, 1.43270022185159560000e+000) (13, 8.63220209449517610000e-001) (14, -7.57355978087331750000e+000) (15, 8.25097837972345150000e-001) (16, 1.94353282916340350000e+000) (17, -2.33066555911667410000e+000) (18, 2.14094028736423470000e-001) (19, 5.06233239138211170000e-001) (20, 7.12301374133564870000e-002) (21, 4.32216624199619840000e+000) (22, -9.67980629792595250000e-001) (23, 2.01174882052714120000e+000) (24, 3.48544717054714500000e+000) (25, 7.87052355611428500000e-001) (26, 1.03851360303503880000e+000) (27, 1.17091111341484240000e+000) (28, -1.48592160028207470000e-002) (29, 8.48307644385486890000e-001) (9, 4.65207294604859010000e+000) (10, 1.17028645371717740000e+001) (11, 3.77631834183528440000e-002) (12, 4.19563306396034340000e-001) (13, 1.18384657732528840000e+000) (14, 3.76106648311753530000e+000) (15, 1.05117010500991650000e+000) (16, 8.35148722630645150000e+000) (17, -3.67269692280616320000e+000) (18, 1.21294561368881530000e+000) (19, -2.87523470688784090000e-001) (20, -4.67076366950092900000e-002) (21, 9.94033555023495020000e+000) (22, 2.27587180510634620000e-001) (23, -1.04843417074027220000e+000) (24, -3.67616701428979900000e-001) (25, 1.04448767158346280000e+000) (26, 1.12269541110665800000e+000) (27, 1.31054259326329060000e+000) (28, -1.01931365497132910000e+000) (29, 1.13393757465754970000e+000) 
