FANN_FLO_2.1
num_layers=3
learning_rate=0.700000
connection_rate=1.000000
network_type=0
learning_momentum=0.000000
training_algorithm=2
train_error_function=1
train_stop_function=0
cascade_output_change_fraction=0.010000
quickprop_decay=-0.000100
quickprop_mu=1.750000
rprop_increase_factor=1.200000
rprop_decrease_factor=0.500000
rprop_delta_min=0.000000
rprop_delta_max=50.000000
rprop_delta_zero=0.100000
cascade_output_stagnation_epochs=12
cascade_candidate_change_fraction=0.010000
cascade_candidate_stagnation_epochs=12
cascade_max_out_epochs=150
cascade_max_cand_epochs=150
cascade_num_candidate_groups=2
bit_fail_limit=3.49999999999999980000e-001
cascade_candidate_limit=1.00000000000000000000e+003
cascade_weight_multiplier=4.00000000000000020000e-001
cascade_activation_functions_count=10
cascade_activation_functions=3 5 7 8 10 11 14 15 16 17 
cascade_activation_steepnesses_count=4
cascade_activation_steepnesses=2.50000000000000000000e-001 5.00000000000000000000e-001 7.50000000000000000000e-001 1.00000000000000000000e+000 
layer_sizes=9 4 6 
scale_included=0
neurons (num_inputs, activation_function, activation_steepness)=(0, 0, 0.00000000000000000000e+000) (0, 0, 0.00000000000000000000e+000) (0, 0, 0.00000000000000000000e+000) (0, 0, 0.00000000000000000000e+000) (0, 0, 0.00000000000000000000e+000) (0, 0, 0.00000000000000000000e+000) (0, 0, 0.00000000000000000000e+000) (0, 0, 0.00000000000000000000e+000) (0, 0, 0.00000000000000000000e+000) (9, 6, 5.00000000000000000000e-001) (9, 6, 5.00000000000000000000e-001) (9, 6, 5.00000000000000000000e-001) (0, 6, 0.00000000000000000000e+000) (4, 6, 5.00000000000000000000e-001) (4, 6, 5.00000000000000000000e-001) (4, 6, 5.00000000000000000000e-001) (4, 6, 5.00000000000000000000e-001) (4, 6, 5.00000000000000000000e-001) (0, 6, 0.00000000000000000000e+000) 
connections (connected_to_neuron, weight)=(0, -3.56259753230847620000e+000) (1, 3.32901408859893880000e+000) (2, -2.35583357830246110000e+000) (3, 8.97142282176046460000e+000) (4, -5.56884206154975910000e+000) (5, 2.71586214641651610000e-001) (6, -4.91413979778445680000e+000) (7, 6.29932389058087950000e+000) (8, 6.51272622048761570000e-001) (0, -3.01447433527261710000e+000) (1, 5.98749055862713230000e+000) (2, -4.03913709457306780000e+000) (3, 1.70678607504175410000e+001) (4, 8.95701892768285960000e-002) (5, -1.49919439229569330000e+001) (6, -1.24289165235441640000e+001) (7, 1.33991840210287330000e+001) (8, 5.62515138195028850000e-001) (0, 5.83407400582156120000e+000) (1, -1.73993143302985250000e+000) (2, 2.71201498259092540000e+000) (3, -3.29568876896235040000e+000) (4, 1.74057360992478610000e+001) (5, -2.76716180377824480000e+001) (6, 7.53810805230043180000e-001) (7, -7.72858870482937110000e-001) (8, -1.17186135014838850000e+000) (9, 2.25309038985831430000e+000) (10, -1.10690295886625250000e+000) (11, 8.58965241574189300000e-001) (12, 6.26394541827486220000e-001) (9, -2.10338965741793960000e+000) (10, 9.95057278598756810000e-001) (11, -1.01048298239550640000e+000) (12, 6.95321065062263430000e-001) (9, 7.62055033721418390000e-002) (10, 2.97851613335241920000e-002) (11, -1.17765665893332550000e-001) (12, 9.03459289411863490000e-001) (9, -2.92521576850525870000e+000) (10, 1.42543662162174960000e+000) (11, -1.09643671596074950000e+000) (12, 9.71560997554172910000e-001) (9, -1.64393435327835350000e+000) (10, 9.54163107080738260000e-001) (11, -5.59407125293054140000e-001) (12, 1.03897438326697490000e+000) 
