FANN_FLO_2.1
num_layers=3
learning_rate=0.700000
connection_rate=1.000000
network_type=0
learning_momentum=0.000000
training_algorithm=2
train_error_function=1
train_stop_function=0
cascade_output_change_fraction=0.010000
quickprop_decay=-0.000100
quickprop_mu=1.750000
rprop_increase_factor=1.200000
rprop_decrease_factor=0.500000
rprop_delta_min=0.000000
rprop_delta_max=50.000000
rprop_delta_zero=0.100000
cascade_output_stagnation_epochs=12
cascade_candidate_change_fraction=0.010000
cascade_candidate_stagnation_epochs=12
cascade_max_out_epochs=150
cascade_max_cand_epochs=150
cascade_num_candidate_groups=2
bit_fail_limit=3.49999999999999980000e-001
cascade_candidate_limit=1.00000000000000000000e+003
cascade_weight_multiplier=4.00000000000000020000e-001
cascade_activation_functions_count=10
cascade_activation_functions=3 5 7 8 10 11 14 15 16 17 
cascade_activation_steepnesses_count=4
cascade_activation_steepnesses=2.50000000000000000000e-001 5.00000000000000000000e-001 7.50000000000000000000e-001 1.00000000000000000000e+000 
layer_sizes=9 21 6 
scale_included=0
neurons (num_inputs, activation_function, activation_steepness)=(0, 0, 0.00000000000000000000e+000) (0, 0, 0.00000000000000000000e+000) (0, 0, 0.00000000000000000000e+000) (0, 0, 0.00000000000000000000e+000) (0, 0, 0.00000000000000000000e+000) (0, 0, 0.00000000000000000000e+000) (0, 0, 0.00000000000000000000e+000) (0, 0, 0.00000000000000000000e+000) (0, 0, 0.00000000000000000000e+000) (9, 6, 5.00000000000000000000e-001) (9, 6, 5.00000000000000000000e-001) (9, 6, 5.00000000000000000000e-001) (9, 6, 5.00000000000000000000e-001) (9, 6, 5.00000000000000000000e-001) (9, 6, 5.00000000000000000000e-001) (9, 6, 5.00000000000000000000e-001) (9, 6, 5.00000000000000000000e-001) (9, 6, 5.00000000000000000000e-001) (9, 6, 5.00000000000000000000e-001) (9, 6, 5.00000000000000000000e-001) (9, 6, 5.00000000000000000000e-001) (9, 6, 5.00000000000000000000e-001) (9, 6, 5.00000000000000000000e-001) (9, 6, 5.00000000000000000000e-001) (9, 6, 5.00000000000000000000e-001) (9, 6, 5.00000000000000000000e-001) (9, 6, 5.00000000000000000000e-001) (9, 6, 5.00000000000000000000e-001) (9, 6, 5.00000000000000000000e-001) (0, 6, 0.00000000000000000000e+000) (21, 6, 5.00000000000000000000e-001) (21, 6, 5.00000000000000000000e-001) (21, 6, 5.00000000000000000000e-001) (21, 6, 5.00000000000000000000e-001) (21, 6, 5.00000000000000000000e-001) (0, 6, 0.00000000000000000000e+000) 
connections (connected_to_neuron, weight)=(0, -8.91797699541296730000e-001) (1, 2.70863061389199620000e+000) (2, 1.24044302485074360000e+000) (3, 2.34313647201681130000e+000) (4, -3.03294735140980660000e+000) (5, 4.76342327970437460000e-001) (6, 5.08022325672897690000e+000) (7, 3.33392121873314420000e+000) (8, -1.03724458621859280000e-001) (0, 5.67248445920327860000e-001) (1, 1.10294292071434730000e+000) (2, 4.27610412762100660000e-001) (3, -1.38546370440989960000e+000) (4, -2.40363829617373150000e-001) (5, 1.77607794738779110000e-001) (6, -6.85641372135637360000e-001) (7, -5.17997436855458910000e+000) (8, -1.29133986793124740000e-001) (0, -1.45037163477345570000e+000) (1, -1.12947107010562820000e+001) (2, -4.07538970030464580000e-001) (3, 2.98116196689510820000e+001) (4, 4.88394772099091230000e+000) (5, -1.34816845925670760000e+001) (6, -2.18692750784726970000e+001) (7, 4.05277038258710130000e+000) (8, -3.06764638607369520000e-001) (0, 1.39501929332223720000e-001) (1, 1.17748996969522320000e+001) (2, -5.22896512634675940000e+000) (3, 8.88273648309465090000e-001) (4, -1.28142820789570180000e+000) (5, -1.07969299267941080000e+000) (6, 1.61074041209561610000e+000) (7, -9.32449988652632290000e-001) (8, 5.61130241187005050000e-001) (0, -4.50679903320782120000e-001) (1, -4.38689534225541470000e-001) (2, 6.33047028461501180000e-001) (3, -5.18214695685235370000e-001) (4, 4.68998927210179860000e+000) (5, 1.84126712854459110000e-001) (6, 2.08502623001938940000e+000) (7, -1.10443900461732310000e+000) (8, -1.85129923326397490000e-001) (0, 3.76532707128895130000e+000) (1, 3.40289989710254750000e+000) (2, -1.08790508086822650000e+001) (3, 6.67637170821980770000e+000) (4, 1.01285532548946480000e+001) (5, -2.47918354484516530000e+001) (6, 8.47900091410653370000e+000) (7, 6.04405883743779700000e+000) (8, 8.40964619461343900000e-002) (0, -2.12255509802478060000e-002) (1, -3.18555731741616490000e-002) (2, 1.08764665029886110000e+000) (3, -6.53981674672145070000e-001) (4, 5.61834575510477770000e-001) (5, -5.93733162696635230000e-001) (6, 7.27090238253873420000e-001) (7, 4.43846085401981170000e-001) (8, -1.24619715759214140000e-001) (0, -1.45610354546753390000e-001) (1, -1.79708578706531270000e+000) (2, -9.25747265354470630000e+000) (3, 2.23821839790004870000e+001) (4, -1.29492837637111770000e+001) (5, -3.04907906461840530000e+001) (6, -1.49077689762276880000e+001) (7, 7.32846042942191640000e+000) (8, 1.56338802640374670000e-001) (0, 1.54728187977458890000e+000) (1, -8.19439075891451730000e+000) (2, 1.20076426102000000000e+001) (3, 1.02007821875054820000e+000) (4, 9.13241478224547620000e+000) (5, 5.09694808891490500000e+000) (6, 2.94607480051470730000e+000) (7, 1.16841840831680660000e+001) (8, 2.88034499198178860000e-001) (0, 3.15257825871383350000e-001) (1, -9.09154261377076890000e-001) (2, 9.18133860412527760000e-001) (3, -8.64198869082387410000e-001) (4, -1.16812629834740970000e+000) (5, 5.07556448898280220000e-001) (6, 2.47318508708670000000e+000) (7, -4.15796382246422610000e+000) (8, 5.12355201377762800000e-001) (0, -1.53339634261054640000e+000) (1, 2.45631244095066540000e+000) (2, -1.33614272103968120000e+000) (3, 5.23038361426285010000e+000) (4, -3.66340575757009790000e-001) (5, -1.67901170007749490000e+001) (6, 6.15978096799492030000e+000) (7, 5.56769344190499280000e+000) (8, -6.00766217234254270000e-001) (0, 7.96719688912855610000e-001) (1, -9.54320748334277490000e-001) (2, -3.90512374150022270000e+000) (3, 3.26924562447202890000e+000) (4, 1.84142260709984360000e+000) (5, -5.71456290074750670000e+000) (6, -1.23571764829824570000e+000) (7, -1.73142014509898060000e+000) (8, 4.05827542066136420000e-002) (0, -4.65544779481845340000e+000) (1, 6.53823545414331340000e+000) (2, 5.94582133444423810000e+000) (3, -1.96280936574293460000e+001) (4, -7.16996650967326230000e+000) (5, -5.54145826275486540000e+000) (6, -1.38525903377493480000e+001) (7, -3.29359013515342130000e+001) (8, 2.92286100902186600000e-001) (0, -1.13961085938005070000e+000) (1, 4.15210502952718160000e-001) (2, -1.92935131200214900000e+001) (3, -1.17774305142317900000e+000) (4, 1.79708433595490000000e+000) (5, -4.22682252222016330000e-001) (6, 9.36227441855361600000e+000) (7, -8.49558384688933540000e+000) (8, 4.56062479322673740000e-001) (0, 1.13715399684413640000e+000) (1, 3.44727805831059090000e+000) (2, -6.86131394014423000000e+000) (3, 9.37550966040114340000e-001) (4, -5.95065300288299070000e-001) (5, 5.03369523419353930000e-001) (6, 1.63208034213148250000e-001) (7, 2.40059499123061610000e+001) (8, 3.48902538285192740000e-001) (0, 9.13845419963780080000e-002) (1, -2.36534828052334940000e+000) (2, -3.19721031727954740000e-001) (3, 4.70611909007936100000e+000) (4, 3.23147825632672350000e+000) (5, -4.19722164891485150000e+000) (6, 2.24619252773576420000e+000) (7, -3.39812380220603850000e+000) (8, 5.59119180666940880000e-001) (0, 2.37433473638616690000e+000) (1, -1.65647891548595050000e-001) (2, -3.67063564345619530000e+000) (3, 6.62565799049694080000e+000) (4, 3.96320954827364290000e+000) (5, 2.60621002558605920000e+001) (6, 4.74575260388461470000e+001) (7, -2.90151463970861910000e+001) (8, 3.76356077817868560000e-001) (0, 5.83707456371868360000e+000) (1, -2.03692874171046730000e+000) (2, 5.62869542945085840000e+000) (3, -4.14950259098877170000e+000) (4, 2.21771179924719790000e-001) (5, -7.80714516021929620000e-002) (6, 7.68177731095752600000e-001) (7, -1.17488579912985620000e+000) (8, 2.74680213372524240000e-001) (0, -1.12789434349963910000e+000) (1, 9.46634435136348710000e-001) (2, -1.26879589964564140000e+001) (3, -1.06005387080244780000e+001) (4, 2.08863169564253590000e+000) (5, 1.32052363085887930000e+001) (6, -7.55951611186824390000e+000) (7, 5.28439342224668880000e+000) (8, -1.94111294660501810000e-001) (0, -4.51460932933797390000e+000) (1, -1.08871162583232440000e+001) (2, 6.30679182474703380000e+000) (3, -3.96765183494692360000e+000) (4, -5.82979407831779280000e+000) (5, 1.08500138421427450000e+001) (6, 1.67388719956005330000e+001) (7, 7.68388766463571480000e+000) (8, -1.76974039448721570000e-002) (9, 3.75983105066559010000e+000) (10, -1.53109172510708150000e+000) (11, -9.85595587066333100000e-001) (12, -1.65237655484896170000e+000) (13, 8.40145031312532380000e-001) (14, -1.09264823361379130000e+000) (15, 1.43808931477044010000e+000) (16, 5.59684359256946150000e-001) (17, 1.27442613957272390000e+000) (18, 2.88048437922657330000e+000) (19, 9.32195255693527900000e-001) (20, 3.39912263463886430000e+000) (21, 1.50923919905105370000e-001) (22, -4.48030239001275870000e-001) (23, -1.09494718149641120000e-001) (24, 1.19417551592483130000e+000) (25, 3.16558952964349940000e-001) (26, -5.51984831951712440000e-001) (27, 1.44966818904526700000e+000) (28, -1.58793720545995520000e+000) (29, 3.33650459434475970000e-001) (9, -3.25293754816085380000e+000) (10, 4.70977464468696040000e-001) (11, 1.43251755056701510000e+000) (12, 1.97039873484529120000e+000) (13, 1.17697456175113470000e+000) (14, 1.53226238795084070000e-001) (15, 2.99926079609280280000e+000) (16, -3.66476946771370880000e-001) (17, -6.55637894554878640000e-001) (18, 2.34730653439059100000e+000) (19, 4.94741172994970780000e-001) (20, -4.69725745503256910000e-001) (21, 5.22354259343556950000e-001) (22, -1.53059843177261510000e-001) (23, 1.07919430084211190000e+000) (24, -3.07512706957675160000e+000) (25, 5.84993475227285060000e-001) (26, 7.03532466117356540000e-001) (27, -8.97110341558117340000e-002) (28, 1.20132817438570690000e+000) (29, 7.63359861846943930000e-001) (9, -1.24352228562687280000e+000) (10, 3.44204809252146980000e+000) (11, 1.08497849394225530000e+000) (12, 9.71603920009929900000e-001) (13, -4.35559443360773010000e+000) (14, -3.55793176335513380000e-001) (15, 4.03567980932872580000e+000) (16, -9.44121221218826580000e-001) (17, 6.54688120151434740000e-001) (18, -5.12743762310901200000e+000) (19, 9.82487875128826850000e-002) (20, -3.03820407084911800000e+000) (21, 8.26694302908684950000e-001) (22, 2.17440780284178590000e+000) (23, 1.04904440489582650000e+000) (24, 2.10841390512359480000e+000) (25, -2.17219016602470370000e-001) (26, 1.15903764000872170000e+000) (27, -1.21669456514211550000e+000) (28, 5.97680723238569910000e-001) (29, 7.41422215878333790000e-001) (9, -8.13487698518102430000e-001) (10, 7.10584429977854090000e+000) (11, 6.36483275205893980000e-001) (12, 1.62174960193375940000e+000) (13, -2.00758434390330850000e+000) (14, 1.20746681824513290000e+000) (15, 3.82472747453256860000e+000) (16, 7.36475580348347920000e-001) (17, 1.05926696644546750000e+000) (18, -1.42969269568485010000e+000) (19, -3.53147845547920000000e-001) (20, -3.26674677651848410000e+000) (21, 3.57965906781883890000e-001) (22, -4.68541325105562960000e-001) (23, 3.73398375184426200000e-001) (24, 2.77766850630766270000e+000) (25, 5.22339362451473070000e-002) (26, 2.60993559111343090000e-001) (27, 1.69796066324852070000e+000) (28, 1.62530239300339670000e+000) (29, 6.23370779452746220000e-001) (9, -3.80107390607075460000e+000) (10, 4.36269130662958740000e+000) (11, 1.51656408890926710000e+000) (12, -4.55888018510622680000e-002) (13, -1.76494269242210010000e+000) (14, 1.25697914959545250000e+000) (15, -5.50192580946688900000e+000) (16, -6.46765092097899150000e-002) (17, 1.15208744768610560000e+000) (18, -8.26580405917494710000e-001) (19, 2.10841749596772090000e+000) (20, -9.29934404330049700000e+000) (21, 1.25564030374828640000e+000) (22, 8.00796778527690930000e-001) (23, 1.44220568112479520000e+000) (24, 1.04301297384991740000e+000) (25, 1.05385984055325930000e+000) (26, 8.84660561887191670000e-001) (27, 5.96409694242682310000e-001) (28, 1.65012373018237730000e-001) (29, 5.63596640790055340000e-001) 
