FANN_FLO_2.1
num_layers=3
learning_rate=0.700000
connection_rate=1.000000
network_type=0
learning_momentum=0.000000
training_algorithm=2
train_error_function=1
train_stop_function=0
cascade_output_change_fraction=0.010000
quickprop_decay=-0.000100
quickprop_mu=1.750000
rprop_increase_factor=1.200000
rprop_decrease_factor=0.500000
rprop_delta_min=0.000000
rprop_delta_max=50.000000
rprop_delta_zero=0.100000
cascade_output_stagnation_epochs=12
cascade_candidate_change_fraction=0.010000
cascade_candidate_stagnation_epochs=12
cascade_max_out_epochs=150
cascade_max_cand_epochs=150
cascade_num_candidate_groups=2
bit_fail_limit=3.49999999999999980000e-001
cascade_candidate_limit=1.00000000000000000000e+003
cascade_weight_multiplier=4.00000000000000020000e-001
cascade_activation_functions_count=10
cascade_activation_functions=3 5 7 8 10 11 14 15 16 17 
cascade_activation_steepnesses_count=4
cascade_activation_steepnesses=2.50000000000000000000e-001 5.00000000000000000000e-001 7.50000000000000000000e-001 1.00000000000000000000e+000 
layer_sizes=9 21 6 
scale_included=0
neurons (num_inputs, activation_function, activation_steepness)=(0, 0, 0.00000000000000000000e+000) (0, 0, 0.00000000000000000000e+000) (0, 0, 0.00000000000000000000e+000) (0, 0, 0.00000000000000000000e+000) (0, 0, 0.00000000000000000000e+000) (0, 0, 0.00000000000000000000e+000) (0, 0, 0.00000000000000000000e+000) (0, 0, 0.00000000000000000000e+000) (0, 0, 0.00000000000000000000e+000) (9, 6, 5.00000000000000000000e-001) (9, 6, 5.00000000000000000000e-001) (9, 6, 5.00000000000000000000e-001) (9, 6, 5.00000000000000000000e-001) (9, 6, 5.00000000000000000000e-001) (9, 6, 5.00000000000000000000e-001) (9, 6, 5.00000000000000000000e-001) (9, 6, 5.00000000000000000000e-001) (9, 6, 5.00000000000000000000e-001) (9, 6, 5.00000000000000000000e-001) (9, 6, 5.00000000000000000000e-001) (9, 6, 5.00000000000000000000e-001) (9, 6, 5.00000000000000000000e-001) (9, 6, 5.00000000000000000000e-001) (9, 6, 5.00000000000000000000e-001) (9, 6, 5.00000000000000000000e-001) (9, 6, 5.00000000000000000000e-001) (9, 6, 5.00000000000000000000e-001) (9, 6, 5.00000000000000000000e-001) (9, 6, 5.00000000000000000000e-001) (0, 6, 0.00000000000000000000e+000) (21, 6, 5.00000000000000000000e-001) (21, 6, 5.00000000000000000000e-001) (21, 6, 5.00000000000000000000e-001) (21, 6, 5.00000000000000000000e-001) (21, 6, 5.00000000000000000000e-001) (0, 6, 0.00000000000000000000e+000) 
connections (connected_to_neuron, weight)=(0, 4.74322082777743180000e-001) (1, -2.96580398788151120000e-001) (2, 6.16908668140053870000e+000) (3, -3.66802420522092110000e-002) (4, 5.36490957724390260000e-001) (5, 1.70659908440407420000e+000) (6, -7.00446882722587020000e+000) (7, -1.58503493360010170000e+000) (8, 3.56616570597504180000e-001) (0, 9.41577778356252180000e+000) (1, -5.26146009112954840000e-001) (2, -1.38775323438453580000e+000) (3, -1.44789968915920600000e+000) (4, 1.88256996730142770000e+001) (5, -4.99649758072137050000e+001) (6, 4.16078973271345300000e+001) (7, -1.99022131402593740000e+001) (8, 3.10971596147918420000e-001) (0, 4.20573828180695660000e-001) (1, 3.21898583696104360000e+000) (2, 2.84161081536964180000e-001) (3, -2.89181618302022210000e-002) (4, 2.03285970625785710000e-002) (5, -1.25612017230559730000e-001) (6, 1.17133441206749100000e-003) (7, 8.51488508638607030000e-001) (8, 9.87746842287223060000e-002) (0, -1.01787195279858890000e+000) (1, -1.71694077150661540000e-001) (2, -7.38715787572135070000e-001) (3, 4.58315103957842850000e+000) (4, -2.69928320792665400000e+000) (5, -5.10599412617263600000e-001) (6, 1.06872930920816710000e+000) (7, 3.32188470770467290000e+000) (8, 1.38373442163281510000e-001) (0, 3.51595820619872710000e-001) (1, -1.82657663288516870000e-001) (2, -5.07353213481725680000e-001) (3, 2.78008608881419150000e-001) (4, 6.06081108971825430000e-001) (5, 7.61082517838813420000e-001) (6, 2.69052776323192080000e-001) (7, 1.11421627924410820000e+001) (8, 7.98371732552733750000e-001) (0, 1.61148381398687410000e+000) (1, -1.34450130130594550000e+000) (2, 3.36073504876923090000e+000) (3, -3.55077178553761700000e-001) (4, 7.10986408011462510000e-001) (5, -1.54946378166271280000e+000) (6, 1.24373328198510150000e+000) (7, -1.61478438279790320000e+000) (8, -7.96631275082314990000e-002) (0, 2.65772597577614960000e-001) (1, -1.11836989854268750000e+000) (2, 5.47017152254129390000e-001) (3, 5.85691254425902860000e-001) (4, 8.42113872798752270000e-001) (5, 9.40308721918548750000e-001) (6, 8.26800115547140950000e-001) (7, 3.55248328442759090000e+000) (8, 7.64489326160925800000e-001) (0, -1.78509439649670390000e-001) (1, 1.95620946911926610000e-001) (2, -1.33407064650162220000e-001) (3, 4.55434021333233010000e-002) (4, 6.11690250015141430000e-001) (5, 1.09279838651908110000e-001) (6, -6.30121365953453690000e-001) (7, -5.81624852488464850000e-001) (8, 2.85063799647948200000e-001) (0, 2.44510598409011370000e+000) (1, 1.63816247516857770000e+001) (2, 9.65636628038609280000e-001) (3, -3.22715058010089560000e+001) (4, -3.15217595769017220000e+000) (5, 1.22981903799708260000e+001) (6, 2.51191401065080660000e+001) (7, -1.51817415112552640000e+001) (8, 5.06704075068932670000e-001) (0, -1.34261791399105790000e+000) (1, 2.49627700984307350000e+000) (2, -4.21269662410403920000e-001) (3, -3.73440654252540890000e+000) (4, -8.59072947014943190000e+000) (5, 1.52606012255898380000e+000) (6, 7.14821239981486830000e-001) (7, -7.01610056234922340000e-001) (8, 3.99671172440949520000e-001) (0, 3.91778395637889430000e+000) (1, 1.90511823285738160000e+001) (2, 1.69549541817965290000e+000) (3, -2.52040194969397680000e+001) (4, -1.96924697448037820000e+000) (5, 1.25682462460776920000e+001) (6, 4.24552029575273160000e+000) (7, 1.97458923185312050000e+001) (8, 7.21096620388373850000e-001) (0, 1.13489220875802740000e+001) (1, 2.10936156468993020000e+001) (2, -2.29024858223318510000e+001) (3, -2.52252048924511610000e+000) (4, 1.89185896071916240000e+001) (5, -6.04583003298785190000e+001) (6, 3.59204964605695170000e+001) (7, 3.08278930729729590000e+001) (8, 3.25266506607497840000e-001) (0, -7.39316580066176200000e-002) (1, 1.65780446889367790000e+000) (2, -1.40212636631646250000e+000) (3, 4.67783923530866060000e-001) (4, 5.38153821239665710000e-001) (5, -2.69581335135308420000e+000) (6, -2.78551250129805170000e+000) (7, -5.02178389419477900000e-001) (8, -5.76995933213607540000e-001) (0, 4.15129593183019340000e-001) (1, 4.89962759800612880000e+000) (2, 3.43801137570447770000e+000) (3, -9.74368896270413340000e-001) (4, -9.23064112956607370000e+000) (5, -2.18672325867741610000e+000) (6, -1.67206983589558170000e+000) (7, -2.23339070162803480000e+000) (8, 4.02449862767065350000e-001) (0, 5.25528069672883460000e-001) (1, 5.66368888873937550000e-001) (2, 7.94085688298985850000e-001) (3, -1.89620909146935630000e+000) (4, -4.89687185605155510000e-001) (5, -4.35933336614663550000e-001) (6, 1.02856565075278780000e+000) (7, -8.58171587209741400000e-001) (8, -1.83483007886154070000e-001) (0, 6.30155042868790320000e-001) (1, 1.38663522504720120000e+000) (2, 5.46971807665265140000e-002) (3, 1.73014234854244050000e-001) (4, -2.18376814524912310000e+000) (5, -5.82790120499477590000e-002) (6, -3.15458949754881370000e-001) (7, 9.76365351112318920000e-001) (8, 3.46405202963905090000e-001) (0, -3.82574689770592500000e-001) (1, 1.27998470537871230000e+000) (2, 2.57081157138890100000e+000) (3, 5.07400260222102940000e-001) (4, -4.37725244167066210000e-001) (5, 5.64548794787075980000e-001) (6, 3.22961512853929160000e-001) (7, 1.37347679921424630000e+000) (8, 7.26229138581574560000e-001) (0, -9.56093533367679100000e-001) (1, -7.74003639428330010000e+000) (2, 9.24939090637682780000e+000) (3, 2.74118556182091040000e+000) (4, 1.45704401750265980000e+000) (5, 9.91217944968698460000e+000) (6, -7.59858108103172560000e-001) (7, 1.46398829051762600000e+000) (8, 8.63968766004480910000e-001) (0, -4.20033833931352070000e-001) (1, 1.38416354924782560000e+001) (2, -5.49341487040162150000e+000) (3, 3.43874193503672560000e+000) (4, 3.41600556250927360000e+000) (5, -5.78589556470688300000e+000) (6, 8.04930811964988060000e-001) (7, -2.55418910114901600000e-002) (8, 4.09347663654656410000e-001) (0, -2.12763269119322360000e-001) (1, -2.83772026799364910000e+000) (2, -1.38619848169621460000e+001) (3, -7.57892669141873740000e+000) (4, 6.11696356236545840000e+000) (5, -1.82082658719619840000e+000) (6, 1.65204773583412320000e+001) (7, -2.24480336376215850000e+001) (8, 1.45102279780429330000e-001) (9, -2.32962766563796910000e+000) (10, -1.54689875565904860000e-001) (11, -7.54423968967496190000e-001) (12, 1.12287034161633810000e+000) (13, 3.60923561381843670000e-001) (14, 1.12880284707002540000e-001) (15, 6.65256036635058720000e-001) (16, 6.59878042806545210000e+000) (17, 5.31030619230028920000e-001) (18, -2.60092347223278610000e+000) (19, -1.20565554980735620000e-001) (20, -7.26645811815421340000e-002) (21, 2.45030533192369450000e+000) (22, 2.25871362886096570000e+000) (23, 7.53871409682798420000e-001) (24, -2.33256604176417290000e+000) (25, 6.52571108573883120000e-001) (26, 2.19917556002193730000e-001) (27, -7.73426689211007100000e-001) (28, -1.85930488696374380000e-001) (29, 6.18725120176948250000e-001) (9, 1.55106178519636990000e+000) (10, -5.68515230536078070000e-002) (11, -5.45263798256373570000e-002) (12, -3.76896714074793640000e-001) (13, 4.56945556443220710000e-001) (14, 4.21205568111408630000e-001) (15, 7.07768143056942020000e-001) (16, -5.48420071358180830000e+000) (17, -3.73216054668638660000e-001) (18, 2.35418501669338240000e+000) (19, 8.88907810355489550000e-002) (20, -7.95747978319469860000e-002) (21, 1.46566727763915990000e+000) (22, -2.11322489245372800000e+000) (23, 2.47068494480003190000e+000) (24, 1.84708058298602440000e+000) (25, 5.71147076051870430000e-001) (26, 5.77333448683025720000e-001) (27, 9.61113537007837420000e-001) (28, 5.21599808327521620000e-001) (29, 6.38271914126964270000e-001) (9, 1.86405375879305120000e+000) (10, 6.65542107375409200000e-001) (11, 9.15610064534488790000e-001) (12, 8.95666551247794930000e-001) (13, 7.53277297809900160000e-001) (14, -5.07991063914988050000e-001) (15, 7.41715659028504120000e-001) (16, -9.90790560635340970000e+000) (17, -9.62989359240963630000e-001) (18, 1.53942703277379090000e+000) (19, 1.33429888322848700000e+000) (20, -7.77266989474463490000e-001) (21, 2.76118396750865140000e+000) (22, -9.98674597655521580000e-001) (23, -2.50648550518986490000e-002) (24, 1.81095735622399070000e+000) (25, 6.94316914247119720000e-001) (26, 7.38166793755795410000e-001) (27, 7.63041031005480600000e-001) (28, 1.39467539580653830000e+000) (29, 7.07527804767277500000e-001) (9, -8.68903421932814780000e-001) (10, -4.03503508237074500000e-002) (11, 7.41738349217647030000e-001) (12, -2.05297305622036270000e+000) (13, 4.10029350758780500000e-001) (14, -8.86392155952345880000e-001) (15, 3.72995874496441170000e-001) (16, 4.17113142866567800000e+000) (17, -8.59261506711122110000e-001) (18, -1.06001548793725950000e-001) (19, 2.73067642660868800000e-001) (20, 8.38193341906690180000e-002) (21, -2.50703106069991620000e+000) (22, 1.28104053702496000000e+000) (23, 2.56162943888060330000e+000) (24, -8.58497500208964760000e-001) (25, -1.02305617231734590000e+000) (26, 6.44304718157251540000e-001) (27, 3.03601324070994550000e-001) (28, 2.08663927880428120000e-001) (29, -1.47087058019570710000e-002) (9, 1.87534521949188490000e+000) (10, 7.38925697654925880000e-001) (11, 9.56808315889550180000e-001) (12, -3.97197938055129550000e+000) (13, 8.16453762386713850000e-001) (14, -6.96372937621771730000e+000) (15, 8.63585374175273150000e-001) (16, -1.69680525973402430000e+001) (17, -1.14297495056370700000e+000) (18, -1.06507375560762420000e+000) (19, 6.52466753861557170000e-001) (20, -3.04454388111196240000e-001) (21, -7.84263061607917370000e-001) (22, 1.11812417000653720000e+000) (23, 2.44133809913399170000e-001) (24, 1.21518554024480530000e+000) (25, 1.06747338666441370000e+000) (26, 1.12773529331886800000e+000) (27, 3.45518448887156440000e-001) (28, 9.90873391166179340000e-001) (29, 9.61472571899246840000e-001) 
