FANN_FLO_2.1
num_layers=3
learning_rate=0.700000
connection_rate=1.000000
network_type=0
learning_momentum=0.000000
training_algorithm=2
train_error_function=1
train_stop_function=0
cascade_output_change_fraction=0.010000
quickprop_decay=-0.000100
quickprop_mu=1.750000
rprop_increase_factor=1.200000
rprop_decrease_factor=0.500000
rprop_delta_min=0.000000
rprop_delta_max=50.000000
rprop_delta_zero=0.100000
cascade_output_stagnation_epochs=12
cascade_candidate_change_fraction=0.010000
cascade_candidate_stagnation_epochs=12
cascade_max_out_epochs=150
cascade_max_cand_epochs=150
cascade_num_candidate_groups=2
bit_fail_limit=3.49999999999999980000e-001
cascade_candidate_limit=1.00000000000000000000e+003
cascade_weight_multiplier=4.00000000000000020000e-001
cascade_activation_functions_count=10
cascade_activation_functions=3 5 7 8 10 11 14 15 16 17 
cascade_activation_steepnesses_count=4
cascade_activation_steepnesses=2.50000000000000000000e-001 5.00000000000000000000e-001 7.50000000000000000000e-001 1.00000000000000000000e+000 
layer_sizes=9 4 6 
scale_included=0
neurons (num_inputs, activation_function, activation_steepness)=(0, 0, 0.00000000000000000000e+000) (0, 0, 0.00000000000000000000e+000) (0, 0, 0.00000000000000000000e+000) (0, 0, 0.00000000000000000000e+000) (0, 0, 0.00000000000000000000e+000) (0, 0, 0.00000000000000000000e+000) (0, 0, 0.00000000000000000000e+000) (0, 0, 0.00000000000000000000e+000) (0, 0, 0.00000000000000000000e+000) (9, 6, 5.00000000000000000000e-001) (9, 6, 5.00000000000000000000e-001) (9, 6, 5.00000000000000000000e-001) (0, 6, 0.00000000000000000000e+000) (4, 6, 5.00000000000000000000e-001) (4, 6, 5.00000000000000000000e-001) (4, 6, 5.00000000000000000000e-001) (4, 6, 5.00000000000000000000e-001) (4, 6, 5.00000000000000000000e-001) (0, 6, 0.00000000000000000000e+000) 
connections (connected_to_neuron, weight)=(0, -1.10331822989570640000e+001) (1, 9.44962716132542900000e+000) (2, 1.08220400788054590000e+001) (3, -1.24234687511099240000e+001) (4, -6.71926798309992390000e+001) (5, 1.17073847799330790000e+002) (6, 2.39059506366606690000e+000) (7, -5.50213102355239700000e+001) (8, -2.00001161891408400000e-001) (0, 6.97615710366833230000e+000) (1, -3.41700536479936550000e+000) (2, 5.03338636569699370000e+000) (3, 9.16410484464241500000e-002) (4, 2.58758798656085710000e+001) (5, -6.05118614543904490000e+001) (6, 1.91587036400220260000e+001) (7, -1.00266789109809660000e+001) (8, -4.48759349217121520000e-001) (0, -1.37886146570169510000e+000) (1, 3.94916573605959720000e-001) (2, -2.13223751068472070000e+000) (3, 1.71511312432839990000e+000) (4, -2.18570210574213420000e+000) (5, 4.95297368316931230000e+000) (6, -4.61714656498556590000e+000) (7, 7.16479617526027470000e+000) (8, 7.81274451767632110000e-001) (9, 2.51121906855983620000e-001) (10, 5.26826607137616420000e-001) (11, 1.25333248511363600000e+000) (12, 2.69602860470444790000e-001) (9, -1.35222952082788370000e-001) (10, -4.85456231248442230000e-001) (11, -8.89754034261628910000e-001) (12, 1.02877167207301020000e+000) (9, 1.44628540049067690000e-001) (10, 1.81918008375856250000e-001) (11, 6.75118129972544940000e-001) (12, 7.97807879607704610000e-001) (9, -4.46826649289228770000e-001) (10, -9.49752907769831340000e-001) (11, -2.45359314260962200000e+000) (12, 1.64530283618973570000e+000) (9, -4.75031771516198560000e-002) (10, 1.32606651771958740000e-001) (11, 5.85767203842964990000e-001) (12, 8.94878908333640370000e-001) 
