FANN_FLO_2.1
num_layers=3
learning_rate=0.700000
connection_rate=1.000000
network_type=0
learning_momentum=0.000000
training_algorithm=2
train_error_function=1
train_stop_function=0
cascade_output_change_fraction=0.010000
quickprop_decay=-0.000100
quickprop_mu=1.750000
rprop_increase_factor=1.200000
rprop_decrease_factor=0.500000
rprop_delta_min=0.000000
rprop_delta_max=50.000000
rprop_delta_zero=0.100000
cascade_output_stagnation_epochs=12
cascade_candidate_change_fraction=0.010000
cascade_candidate_stagnation_epochs=12
cascade_max_out_epochs=150
cascade_max_cand_epochs=150
cascade_num_candidate_groups=2
bit_fail_limit=3.49999999999999980000e-001
cascade_candidate_limit=1.00000000000000000000e+003
cascade_weight_multiplier=4.00000000000000020000e-001
cascade_activation_functions_count=10
cascade_activation_functions=3 5 7 8 10 11 14 15 16 17 
cascade_activation_steepnesses_count=4
cascade_activation_steepnesses=2.50000000000000000000e-001 5.00000000000000000000e-001 7.50000000000000000000e-001 1.00000000000000000000e+000 
layer_sizes=9 4 6 
scale_included=0
neurons (num_inputs, activation_function, activation_steepness)=(0, 0, 0.00000000000000000000e+000) (0, 0, 0.00000000000000000000e+000) (0, 0, 0.00000000000000000000e+000) (0, 0, 0.00000000000000000000e+000) (0, 0, 0.00000000000000000000e+000) (0, 0, 0.00000000000000000000e+000) (0, 0, 0.00000000000000000000e+000) (0, 0, 0.00000000000000000000e+000) (0, 0, 0.00000000000000000000e+000) (9, 6, 5.00000000000000000000e-001) (9, 6, 5.00000000000000000000e-001) (9, 6, 5.00000000000000000000e-001) (0, 6, 0.00000000000000000000e+000) (4, 6, 5.00000000000000000000e-001) (4, 6, 5.00000000000000000000e-001) (4, 6, 5.00000000000000000000e-001) (4, 6, 5.00000000000000000000e-001) (4, 6, 5.00000000000000000000e-001) (0, 6, 0.00000000000000000000e+000) 
connections (connected_to_neuron, weight)=(0, -2.27042308712566540000e+000) (1, -6.84910869223743220000e-001) (2, -1.88670882518317940000e+000) (3, 5.95880697286552060000e+000) (4, -3.24033515391870490000e+000) (5, 3.70379111422966730000e+000) (6, -3.07428863060397980000e+000) (7, 5.17372646690326390000e+000) (8, 7.60377413244694660000e-001) (0, -2.02732895129023040000e+000) (1, -9.29251239215297350000e+000) (2, -8.08871863910816020000e+000) (3, 3.25988317899997990000e+001) (4, 1.43646230564139610000e+001) (5, -2.41828224541225690000e+001) (6, -2.41888345436480920000e+001) (7, 2.96347928538675230000e+001) (8, -6.62664790692319870000e-001) (0, 4.28364923035408380000e+000) (1, -1.12162325922450080000e+000) (2, 2.50253148858711500000e+000) (3, -8.29410596024580890000e-001) (4, 1.33464583389863180000e+001) (5, -2.30936537315499600000e+001) (6, 2.26015558950248430000e+000) (7, -1.91574031691851610000e+000) (8, -1.09557393042767530000e+000) (9, 1.60621894156807210000e+000) (10, -3.19211883291963150000e-001) (11, 7.42514398264675140000e-001) (12, 2.77687627049681860000e-001) (9, -1.80466462289749630000e+000) (10, 3.60142800963945080000e-001) (11, -1.06333176928700860000e+000) (12, 1.06320007564270110000e+000) (9, 4.24652123373798650000e-001) (10, -7.46877582311765990000e-002) (11, 8.88236627680352550000e-003) (12, 8.24095414401099460000e-001) (9, -3.22136590506815110000e+000) (10, 7.10564202739442870000e-001) (11, -1.42639996362538100000e+000) (12, 1.67164269067142430000e+000) (9, -1.36670578593167290000e+000) (10, 4.63082161888464240000e-001) (11, -5.92681528481994960000e-001) (12, 1.40580634119463670000e+000) 
