FANN_FLO_2.1
num_layers=3
learning_rate=0.700000
connection_rate=1.000000
network_type=0
learning_momentum=0.000000
training_algorithm=2
train_error_function=1
train_stop_function=0
cascade_output_change_fraction=0.010000
quickprop_decay=-0.000100
quickprop_mu=1.750000
rprop_increase_factor=1.200000
rprop_decrease_factor=0.500000
rprop_delta_min=0.000000
rprop_delta_max=50.000000
rprop_delta_zero=0.100000
cascade_output_stagnation_epochs=12
cascade_candidate_change_fraction=0.010000
cascade_candidate_stagnation_epochs=12
cascade_max_out_epochs=150
cascade_max_cand_epochs=150
cascade_num_candidate_groups=2
bit_fail_limit=3.49999999999999980000e-001
cascade_candidate_limit=1.00000000000000000000e+003
cascade_weight_multiplier=4.00000000000000020000e-001
cascade_activation_functions_count=10
cascade_activation_functions=3 5 7 8 10 11 14 15 16 17 
cascade_activation_steepnesses_count=4
cascade_activation_steepnesses=2.50000000000000000000e-001 5.00000000000000000000e-001 7.50000000000000000000e-001 1.00000000000000000000e+000 
layer_sizes=9 76 6 
scale_included=0
neurons (num_inputs, activation_function, activation_steepness)=(0, 0, 0.00000000000000000000e+000) (0, 0, 0.00000000000000000000e+000) (0, 0, 0.00000000000000000000e+000) (0, 0, 0.00000000000000000000e+000) (0, 0, 0.00000000000000000000e+000) (0, 0, 0.00000000000000000000e+000) (0, 0, 0.00000000000000000000e+000) (0, 0, 0.00000000000000000000e+000) (0, 0, 0.00000000000000000000e+000) (9, 6, 5.00000000000000000000e-001) (9, 6, 5.00000000000000000000e-001) (9, 6, 5.00000000000000000000e-001) (9, 6, 5.00000000000000000000e-001) (9, 6, 5.00000000000000000000e-001) (9, 6, 5.00000000000000000000e-001) (9, 6, 5.00000000000000000000e-001) (9, 6, 5.00000000000000000000e-001) (9, 6, 5.00000000000000000000e-001) (9, 6, 5.00000000000000000000e-001) (9, 6, 5.00000000000000000000e-001) (9, 6, 5.00000000000000000000e-001) (9, 6, 5.00000000000000000000e-001) (9, 6, 5.00000000000000000000e-001) (9, 6, 5.00000000000000000000e-001) (9, 6, 5.00000000000000000000e-001) (9, 6, 5.00000000000000000000e-001) (9, 6, 5.00000000000000000000e-001) (9, 6, 5.00000000000000000000e-001) (9, 6, 5.00000000000000000000e-001) (9, 6, 5.00000000000000000000e-001) (9, 6, 5.00000000000000000000e-001) (9, 6, 5.00000000000000000000e-001) (9, 6, 5.00000000000000000000e-001) (9, 6, 5.00000000000000000000e-001) (9, 6, 5.00000000000000000000e-001) (9, 6, 5.00000000000000000000e-001) (9, 6, 5.00000000000000000000e-001) (9, 6, 5.00000000000000000000e-001) (9, 6, 5.00000000000000000000e-001) (9, 6, 5.00000000000000000000e-001) (9, 6, 5.00000000000000000000e-001) (9, 6, 5.00000000000000000000e-001) (9, 6, 5.00000000000000000000e-001) (9, 6, 5.00000000000000000000e-001) (9, 6, 5.00000000000000000000e-001) (9, 6, 5.00000000000000000000e-001) (9, 6, 5.00000000000000000000e-001) (9, 6, 5.00000000000000000000e-001) (9, 6, 5.00000000000000000000e-001) (9, 6, 5.00000000000000000000e-001) (9, 6, 5.00000000000000000000e-001) (9, 6, 5.00000000000000000000e-001) (9, 6, 5.00000000000000000000e-001) (9, 6, 5.00000000000000000000e-001) (9, 6, 5.00000000000000000000e-001) (9, 6, 5.00000000000000000000e-001) (9, 6, 5.00000000000000000000e-001) (9, 6, 5.00000000000000000000e-001) (9, 6, 5.00000000000000000000e-001) (9, 6, 5.00000000000000000000e-001) (9, 6, 5.00000000000000000000e-001) (9, 6, 5.00000000000000000000e-001) (9, 6, 5.00000000000000000000e-001) (9, 6, 5.00000000000000000000e-001) (9, 6, 5.00000000000000000000e-001) (9, 6, 5.00000000000000000000e-001) (9, 6, 5.00000000000000000000e-001) (9, 6, 5.00000000000000000000e-001) (9, 6, 5.00000000000000000000e-001) (9, 6, 5.00000000000000000000e-001) (9, 6, 5.00000000000000000000e-001) (9, 6, 5.00000000000000000000e-001) (9, 6, 5.00000000000000000000e-001) (9, 6, 5.00000000000000000000e-001) (9, 6, 5.00000000000000000000e-001) (9, 6, 5.00000000000000000000e-001) (9, 6, 5.00000000000000000000e-001) (9, 6, 5.00000000000000000000e-001) (9, 6, 5.00000000000000000000e-001) (9, 6, 5.00000000000000000000e-001) (9, 6, 5.00000000000000000000e-001) (9, 6, 5.00000000000000000000e-001) (9, 6, 5.00000000000000000000e-001) (9, 6, 5.00000000000000000000e-001) (0, 6, 0.00000000000000000000e+000) (76, 6, 5.00000000000000000000e-001) (76, 6, 5.00000000000000000000e-001) (76, 6, 5.00000000000000000000e-001) (76, 6, 5.00000000000000000000e-001) (76, 6, 5.00000000000000000000e-001) (0, 6, 0.00000000000000000000e+000) 
connections (connected_to_neuron, weight)=(0, -1.51441191759536320000e+001) (1, -1.48337711663366830000e+002) (2, -2.95163446394996750000e+001) (3, 2.02687251216574940000e+002) (4, 1.86978186644791460000e+002) (5, 2.18327929707968480000e+002) (6, 1.50129519169465620000e+002) (7, -1.90861858674591930000e+002) (8, 1.51379937123825150000e+001) (0, 7.64241228901421630000e+000) (1, 3.92830446832381550000e+000) (2, 1.63867836513935040000e+001) (3, 3.55116342908204960000e+001) (4, -1.75404908996939600000e+001) (5, -2.25075581114411310000e+001) (6, 1.38244105858770500000e+001) (7, -3.68046874583238690000e+001) (8, 9.42251601271879850000e-002) (0, -6.35779708644989580000e+000) (1, -1.48257278720110470000e+001) (2, 4.46622371461250150000e+001) (3, 1.35599456323350400000e+001) (4, -1.32892899514471420000e+001) (5, 2.50008286357057480000e+001) (6, -1.53574909830538270000e+001) (7, -1.26739575552333950000e+001) (8, 9.50812607190734240000e-001) (0, -8.48829454803972870000e-001) (1, -9.38746846919116250000e+000) (2, 3.37211435455525790000e+000) (3, 5.90758245381039690000e+000) (4, 7.26614740888357890000e+001) (5, -7.42363989527009240000e+001) (6, 7.86408620147378650000e+000) (7, 3.64634017941532280000e+001) (8, -8.98271424249835420000e-001) (0, 1.74240211731773480000e+001) (1, -7.05576263992842810000e+000) (2, 4.51195569721193480000e+000) (3, -3.99458501844372480000e+001) (4, 6.80385314867917970000e+001) (5, 1.03408556097610370000e+000) (6, 4.78213443961218870000e+001) (7, 8.73654368698495740000e+001) (8, 2.52264909106771240000e+000) (0, 3.96018098145140930000e+000) (1, -2.37992991487667900000e+000) (2, 5.53291713215982120000e+000) (3, 9.27495796598651750000e-002) (4, -6.26070056825890690000e+001) (5, 5.38849530699956960000e+000) (6, -4.65827845941578110000e+000) (7, 7.47739002417411460000e+001) (8, 2.56716172787295530000e-001) (0, 3.20335049342102210000e+001) (1, 4.30800466453165430000e+001) (2, 1.56183881971414850000e+002) (3, 1.88455844566791950000e+001) (4, -1.06110172744866980000e+000) (5, 5.94887867347682420000e+000) (6, 9.05230513201287010000e+001) (7, 5.15753297185007840000e+000) (8, 2.78920844646729150000e+000) (0, -6.34064032718430950000e+000) (1, -4.98673974770275570000e+000) (2, -7.96409422798728170000e+000) (3, 7.45029673125123580000e-001) (4, -2.34592327717818220000e+000) (5, -3.23410743470581120000e+000) (6, 1.87390557681812280000e+000) (7, -6.65877733364655900000e+000) (8, 4.57044188230638240000e+000) (0, 2.10496394738295360000e+001) (1, 9.59112873051856770000e+000) (2, -3.96018235664280920000e+000) (3, 1.12140011847841470000e+001) (4, 4.08243066270104860000e+001) (5, 1.43713810518264630000e+001) (6, 4.81713947618781050000e+001) (7, 6.16599220686571910000e-001) (8, 3.59689410081843920000e+000) (0, 4.54294688982546990000e+000) (1, 3.81403062883322400000e+000) (2, -1.74583451589622880000e+001) (3, 2.64281192792772150000e+001) (4, 2.66712625264173690000e+001) (5, 3.09885635960030010000e+001) (6, -3.59425585277350380000e+001) (7, -8.55803021368588720000e+000) (8, -1.04407789062910040000e+000) (0, 4.21228629019191710000e+002) (1, -2.16582512545391240000e+002) (2, -1.26074036808956080000e+002) (3, -1.29269999183305770000e+002) (4, -4.83161627219541000000e+001) (5, 7.37056578053179690000e+001) (6, 1.32587280548660600000e+003) (7, 1.32980625567735100000e+002) (8, 1.25970438234250840000e+001) (0, -4.35137692540613140000e+000) (1, 7.01170923613894250000e+001) (2, 1.65509221548733410000e+001) (3, -1.95266758826459860000e+001) (4, 1.76973915982388120000e+000) (5, 1.98599840518077570000e+001) (6, 2.61321614769957580000e+001) (7, -3.69976702905168790000e+001) (8, 1.77331230145391780000e+000) (0, -1.63995416784860280000e+001) (1, 1.39092177675189850000e+001) (2, 1.22376578518287240000e+001) (3, 1.98458520996993320000e+001) (4, 4.73558198618121720000e+001) (5, -4.72125211411428510000e+001) (6, 3.35674363938683980000e+001) (7, 2.79094181251351830000e+001) (8, 2.58231538428256300000e+000) (0, 1.50000000000000000000e+003) (1, 1.49999913870386920000e+003) (2, 1.45606777615180180000e+003) (3, 1.50000000000000000000e+003) (4, 1.50000000000000000000e+003) (5, 1.50000000000000000000e+003) (6, 1.50000000000000000000e+003) (7, 1.50000000000000000000e+003) (8, 1.49999968553804300000e+003) (0, 3.52787485978000110000e+001) (1, -1.07213264342481160000e+001) (2, 1.71223466905907320000e+001) (3, 8.22504221128775730000e+000) (4, -8.91421812053101230000e+001) (5, 2.11376049164185990000e+001) (6, 6.61945628082109180000e+001) (7, -3.14457049570684750000e+001) (8, 6.02040089113795940000e+000) (0, 2.49609145730323510000e+000) (1, 1.12432433365129270000e+000) (2, 7.71279185453462520000e-001) (3, 3.56443165782391320000e-001) (4, -3.77976937597744980000e-001) (5, 1.62474002881115550000e+000) (6, 2.03192594760791500000e+000) (7, 2.09692649174373910000e-001) (8, 7.24727030563850130000e-001) (0, -1.19939317497387150000e+001) (1, -5.43760445501023510000e+000) (2, 2.55177917122805700000e+001) (3, -2.25094005308492700000e+001) (4, 6.36589389476741910000e+000) (5, 1.06546221593205960000e+001) (6, 5.42035075667798410000e+001) (7, -1.28914930325536030000e+000) (8, 1.91296988218044990000e+000) (0, 3.42195690761325100000e+000) (1, -4.81812362850045160000e+000) (2, 1.51499384734731010000e+001) (3, -3.30259176711370730000e+001) (4, 1.79090110695877700000e+001) (5, -2.25303789584379820000e+001) (6, -4.27877669289375080000e+001) (7, 2.70058517213686180000e+001) (8, 5.95808384078128640000e-001) (0, -3.10963074559513970000e+001) (1, -1.42353711028365950000e+001) (2, -4.23033247163660060000e+000) (3, -1.50663153452240860000e+000) (4, -5.05548147513554990000e+000) (5, -7.56873009256822820000e+000) (6, -7.12894917150502750000e+000) (7, -2.13731986783664780000e+001) (8, -2.02700918068193700000e+000) (0, -1.83564576604691280000e+000) (1, -1.28594484219936210000e+001) (2, -2.21859024823132390000e+001) (3, -1.34267070620421340000e+001) (4, 1.56187294387935330000e+001) (5, 1.02337537595826300000e-001) (6, 1.50546598266402880000e+001) (7, -1.58675395603503450000e+001) (8, 6.47988172533044700000e+000) (0, 1.94159866065246130000e+000) (1, -1.48129475946179630000e+001) (2, 9.83588365419659990000e+000) (3, -1.06853276758152770000e+001) (4, 9.45688586007635300000e+000) (5, 1.54868328834251060000e-001) (6, 1.47268200080651250000e+001) (7, 3.49937672410711970000e+001) (8, 3.07693544384605660000e+000) (0, 8.43106018987928250000e+000) (1, 6.97517324662067040000e+001) (2, -4.27302694814806260000e+001) (3, -5.91368181094990530000e+001) (4, -9.50567783596319060000e+000) (5, 5.30981623997150720000e+001) (6, 5.40433233210086430000e+001) (7, 2.07069234732976780000e+001) (8, -1.31999636348905700000e+000) (0, -4.73869164933761410000e+000) (1, 2.96011648205751500000e+001) (2, 4.39047105133247580000e+000) (3, 1.70203458333474590000e+001) (4, 5.12558806710286420000e+001) (5, -5.70330553694676470000e+001) (6, 1.64748509501818110000e+001) (7, -6.91959174749138480000e+000) (8, 7.42895130318090850000e+000) (0, -6.16690276178148000000e+000) (1, -8.75045399537764370000e+000) (2, 2.87450403074138560000e+001) (3, -7.62219193610320290000e+000) (4, -1.45084928671303590000e+001) (5, 1.45483596938381250000e+002) (6, -2.22949729305285200000e+001) (7, -1.88248830032655050000e+001) (8, 3.41256348732431870000e+000) (0, -9.73360454851600210000e+000) (1, -3.22821123046406600000e+000) (2, -1.62841573967724810000e+000) (3, -7.16373770539541650000e-001) (4, 5.40529097626934090000e+000) (5, -1.16857469479999580000e+000) (6, -1.63153278864516360000e+000) (7, -1.53596191561308080000e+000) (8, 3.69914865883097080000e+000) (0, 6.30887531293621520000e+000) (1, -3.87500344822630400000e+000) (2, 7.39555765909976740000e-001) (3, -6.32742213948507890000e+000) (4, 1.13217071302884950000e+001) (5, -6.19820085782082500000e+000) (6, -4.23030474676389990000e+000) (7, -8.21912095928026610000e+000) (8, 1.53771595689751470000e+000) (0, 8.67037755260053000000e-001) (1, -6.26369434387006050000e+000) (2, -7.56771461609095470000e-001) (3, 2.42154141753058670000e+001) (4, 7.67314139758209900000e+000) (5, 5.70121420781053610000e+000) (6, -3.41090773379836620000e-001) (7, 3.47812957040470310000e+000) (8, 3.79134404359579370000e+000) (0, 1.49944599227079220000e+003) (1, 6.29353220032639230000e+002) (2, 1.49788905867292240000e+003) (3, -1.32822449265763130000e+003) (4, 1.50000000000000000000e+003) (5, -4.86521994180049660000e+002) (6, -1.47258061781831950000e+003) (7, -1.48501165252217020000e+003) (8, 1.50000000000000000000e+003) (0, 2.78503504101567060000e+000) (1, 2.97392588895919640000e+000) (2, -2.09252149090009440000e+000) (3, -9.03930823069153950000e-001) (4, -1.11720600080839280000e+000) (5, -5.32675641028062640000e-001) (6, 5.75184910789311330000e-001) (7, 6.02704548111214100000e-001) (8, 3.51518312685860590000e-001) (0, 1.28618044330024530000e+000) (1, 8.12923404553585690000e-001) (2, 2.85364532368897230000e+000) (3, -1.49218560423573270000e+000) (4, 3.10999778842626240000e+000) (5, 1.83339497769438050000e+000) (6, -3.58302657425390910000e-001) (7, 3.36386658326476920000e+000) (8, -1.90343042631169520000e+000) (0, 3.24473853047788150000e+000) (1, 9.00771179561468390000e+000) (2, -1.40968952353385870000e+000) (3, -6.66377157130769590000e+000) (4, -8.24305100996716970000e+000) (5, 1.83375716367808210000e+000) (6, -8.32343139041723390000e+000) (7, -4.54015559294721970000e+000) (8, 2.91169312960421410000e+000) (0, 1.73343006221280830000e+001) (1, 1.82060630929336260000e+001) (2, -3.49988029499407960000e+001) (3, 4.16981174213644220000e+001) (4, 5.09445289286935360000e+001) (5, -9.05023931914362120000e+001) (6, -1.48982568591463860000e+001) (7, 1.44722045627441140000e+001) (8, 3.26803086674075820000e-001) (0, -3.15772893026640620000e+000) (1, -1.99980530844039850000e+001) (2, -5.90478352658410090000e+000) (3, -3.21194580588451330000e+001) (4, -2.29793288506806340000e+001) (5, 6.65519899505741960000e+001) (6, 2.15403527804315190000e+001) (7, 5.81962535885097340000e+001) (8, 3.81352921734291360000e-001) (0, 3.52483048750045100000e-001) (1, -3.85686809364875630000e+000) (2, -3.03977592829871130000e+000) (3, 1.50224516094760020000e+000) (4, -7.42839316211060920000e-001) (5, 5.03707516740392070000e+000) (6, 1.32274194161767860000e-001) (7, -3.04559389097524360000e+000) (8, 9.58142970088455280000e-001) (0, -5.81000160376556170000e+000) (1, -4.97000346215605760000e+000) (2, -3.08160564309715700000e+000) (3, -1.48527429892015240000e+000) (4, 6.83205950658145330000e+000) (5, 1.61075919708842290000e+001) (6, 1.94357707471067090000e+001) (7, 3.52059412217852170000e+001) (8, 2.77717112876946490000e+000) (0, -6.11243638870172210000e+000) (1, -1.89216693614011680000e+000) (2, 4.21502944058601960000e+000) (3, 8.10410322635383600000e-001) (4, -9.94834977089409270000e-001) (5, -1.33837027044431970000e+000) (6, -1.06424392909833140000e+000) (7, -9.40945843627555960000e-001) (8, -1.67320698476002970000e+000) (0, 9.61136041612723350000e+000) (1, -1.45911033989614100000e+001) (2, -2.79035556690283780000e+001) (3, 5.46002554605884030000e+002) (4, 2.22733402161166040000e+000) (5, 5.98353791330775400000e+000) (6, -2.55588759593270570000e+002) (7, 1.18441116268322230000e+003) (8, 6.17393697766541120000e+000) (0, 1.42497838815490710000e+001) (1, -2.66969839383596650000e+001) (2, 3.77997898957810720000e-001) (3, 1.20828615388625970000e+001) (4, 5.35938807986591930000e+001) (5, 4.19469962133147960000e+000) (6, 1.09551704735070330000e+001) (7, -5.25045918640971290000e+001) (8, 3.72906304485314830000e+000) (0, 1.10885668734332990000e+000) (1, -7.22084711387180220000e-001) (2, 2.01327834547841170000e-001) (3, 1.08618709186691810000e+000) (4, 3.51061948508037290000e+000) (5, 8.15292026327667400000e-001) (6, 3.56026471876583580000e+000) (7, 1.21173265624495750000e+000) (8, 1.64771501688343360000e+000) (0, -1.33900563965440190000e+000) (1, -1.88860044679304200000e+001) (2, 4.93013006706648800000e+001) (3, -3.62185155726673860000e+001) (4, 2.58961932309061990000e+000) (5, 1.25405804589854160000e+002) (6, 9.13851307732803660000e+001) (7, -7.27943583360008830000e+001) (8, -1.77751010070152240000e+000) (0, -7.21705570540377030000e+000) (1, 7.09249424869873910000e+001) (2, 3.32488567904398590000e+001) (3, -2.76048077051637290000e+001) (4, -2.14192454325503970000e+001) (5, 7.27427663566215020000e+001) (6, 5.91712954955262020000e+001) (7, -6.18259712608023120000e+001) (8, -4.56483254138983050000e-001) (0, -5.24248353294849510000e+000) (1, 2.76206127363039890000e+000) (2, 2.17665852397597300000e+000) (3, 4.81904128543033040000e+000) (4, -8.06746013619719090000e+000) (5, 8.22986379334364690000e-001) (6, 4.54196305132076980000e-001) (7, 9.21100516273540570000e+000) (8, -5.67803365107830480000e-002) (0, 1.23433260616942290000e+002) (1, 9.62278780464640820000e+002) (2, 1.49743648065669050000e+003) (3, -1.61161894442210610000e+002) (4, -6.04928839757548990000e+002) (5, -4.76713057590987430000e+002) (6, 1.49999986559999070000e+003) (7, 1.50000000000000000000e+003) (8, 1.72835770008707570000e+001) (0, -1.96114699532436880000e+001) (1, 1.43390670291007000000e+003) (2, 1.46746435594671770000e+003) (3, -5.84771451544947690000e+002) (4, 1.49810983256166080000e+003) (5, 1.48939157770318910000e+003) (6, -7.94953881123646940000e+001) (7, -7.50443615807188170000e+002) (8, 1.04387076280660640000e+001) (0, 1.68306926125009930000e+001) (1, 1.94940509130551300000e+001) (2, -2.21976107817451440000e+001) (3, -9.50585058942608190000e+000) (4, 2.22040334897934560000e+001) (5, 2.36823102547966540000e+001) (6, -1.89162974680359350000e+001) (7, 4.18140953214936810000e+001) (8, -1.08885067596723830000e+000) (0, -2.25826995304184970000e+000) (1, 6.41563738427408330000e-001) (2, -8.70881038341313810000e-001) (3, 2.17780278548591300000e+000) (4, 2.99785407355078220000e+000) (5, 2.93838281931192660000e+000) (6, 2.54407307287187170000e+000) (7, -7.51576089123923930000e-001) (8, 1.72506046197807290000e+000) (0, 7.39717958353255330000e+000) (1, -1.93961549946443770000e+001) (2, -1.62719946542968330000e+001) (3, -2.14735334509519490000e+000) (4, 2.50190191110504290000e+001) (5, 3.49304806437091670000e+001) (6, -2.24775060588752460000e+001) (7, 9.09736840787725210000e+001) (8, -1.77108112171908600000e+000) (0, -1.30669693562630360000e+000) (1, 3.42572862456997610000e+000) (2, -4.09888669021397480000e+001) (3, 4.97613537998269440000e+000) (4, -7.91023669823532760000e+000) (5, 6.35599903779976070000e+001) (6, 1.14399983776280710000e+002) (7, -1.04318266519181890000e+002) (8, -3.78190044882259770000e-001) (0, -8.47863944161235340000e-001) (1, 4.50802914285363790000e+000) (2, -1.31764029380122460000e+000) (3, 6.22702089501680870000e+000) (4, -2.21865074234836700000e+000) (5, -3.76919780747002830000e+000) (6, 1.68477194521368960000e+001) (7, -5.33369768962825400000e+000) (8, -8.26227835801310210000e-001) (0, 5.97460261979330000000e-001) (1, 3.01611230701174680000e-001) (2, -9.62557091291274260000e-002) (3, -6.55830246239288760000e-001) (4, -4.13534667898204920000e-001) (5, -1.67015920774327520000e+000) (6, -2.36672380198964130000e+000) (7, -7.30631976152305570000e-001) (8, -5.03114786387594220000e-001) (0, -5.30767776864251140000e+000) (1, -2.80416190358510510000e+000) (2, -5.41326293359608620000e+000) (3, -1.30825239796552350000e+001) (4, 7.57552052250903870000e+000) (5, -4.45561093923220760000e+000) (6, 3.31125063917991160000e+001) (7, -1.20881557399130590000e+001) (8, 7.21469503651520760000e+000) (0, 5.30580305937420430000e+000) (1, 1.85217078940455480000e+001) (2, -6.42353812509753210000e+000) (3, 1.88531209980456220000e+001) (4, 3.58659400664988310000e+000) (5, -1.54376593682499230000e+001) (6, -2.63463132992919530000e+001) (7, -2.61400071146777580000e+001) (8, -4.21353172581342920000e-001) (0, 1.64347158850626720000e+000) (1, -1.78217175939358020000e+000) (2, 6.84580662656278150000e-001) (3, 3.06688654892234380000e+000) (4, 5.29341974811954240000e+000) (5, 1.95512084628026180000e+000) (6, 4.34103778898163740000e+000) (7, 3.68434456171877890000e+000) (8, 1.99908537126176580000e+000) (0, 5.81260494417852240000e+000) (1, -7.11923886706659200000e+000) (2, 6.50233197490727920000e+000) (3, 1.77760016329502620000e+001) (4, -1.83847369177157200000e+001) (5, 1.68028509685601860000e+001) (6, 9.06677514831345090000e+001) (7, -8.00955103693999180000e+001) (8, 3.81398085019023770000e+000) (0, 2.05036957576849270000e+001) (1, -7.00151427459410500000e+000) (2, -1.96439239950798030000e+001) (3, -1.43026551430253400000e+000) (4, 6.03257965453840760000e+000) (5, 5.49751324311622100000e+000) (6, -5.84745741213223270000e+000) (7, -2.78574261627486090000e+001) (8, 3.10233478286415920000e+000) (0, 4.88553984632821430000e+000) (1, -6.06453964475044850000e+000) (2, -3.65750926804796830000e-002) (3, 1.14491139471454220000e+001) (4, 3.65142982867907260000e+001) (5, -3.38494923577173740000e+001) (6, 1.38687027915835620000e+001) (7, -1.22011270308111840000e+001) (8, -9.70248742695120070000e-001) (0, 2.67780411603181310000e+000) (1, -3.91649400510054200000e-001) (2, -5.39159346846560860000e-001) (3, 5.16261629324356260000e+000) (4, -6.66064270845383620000e+000) (5, -2.92698647619888550000e+000) (6, 1.34751253898714500000e+000) (7, 2.83225099433776740000e+000) (8, -7.84254703849597720000e-001) (0, -1.25831784643930840000e+001) (1, -2.00582651520598270000e+000) (2, 2.50537008911365110000e+001) (3, -3.55307198169914290000e+001) (4, 3.77209045294805850000e+001) (5, 8.90166599290674580000e+001) (6, 6.58105057397877150000e+001) (7, -9.30524186253992090000e+000) (8, 3.06070878088679330000e-001) (0, 7.19331680050234610000e+001) (1, 4.14663671269110100000e+001) (2, 2.20171367627873240000e+001) (3, -1.02482197959114330000e+000) (4, 2.20443615386600090000e+001) (5, 1.33691550538608630000e+001) (6, 3.96022417670850620000e+000) (7, 4.61386280739584860000e+001) (8, 1.16407921963300340000e+000) (0, 4.58902294207649590000e+000) (1, -3.24316981286000820000e+001) (2, 2.83738630521737390000e+001) (3, 1.30780969044385780000e+001) (4, -2.23897275304396110000e+001) (5, 4.24474335070131450000e+001) (6, 7.75816582647698430000e+001) (7, 1.96394247066882180000e+000) (8, 1.84128334107550250000e-001) (0, 1.49999413480369090000e+003) (1, 5.01556706319161950000e+002) (2, -6.71020332264297390000e+001) (3, -3.24598065065418210000e+002) (4, 1.50485553382122660000e+001) (5, -2.84170893973182610000e+002) (6, -3.59773031993941570000e+002) (7, -1.42871073266136450000e+001) (8, 1.85859189617646510000e+001) (0, -4.05632861950182730000e+000) (1, -3.21762826364496850000e+001) (2, -1.49290667704565030000e+001) (3, -9.97336149323190260000e-001) (4, 3.30906399028688800000e+001) (5, -1.69724139887627140000e+001) (6, 1.00675995549994180000e+002) (7, 1.16001158956316170000e+002) (8, 5.86818895413921740000e+000) (0, -7.26500811322329020000e+000) (1, 6.86428534215567600000e+000) (2, -5.25822480260258730000e+000) (3, 1.35390190977023740000e+001) (4, 6.96407873084940210000e+000) (5, -5.27571574164730170000e+000) (6, -9.19633653911550120000e+000) (7, 1.51324536834421280000e+001) (8, 2.43988978561570760000e+000) (0, -3.98850202054853900000e+001) (1, 3.93896919509846600000e+000) (2, 1.41501590010763100000e+002) (3, -3.23506550072206610000e+002) (4, -5.54319277305134620000e+002) (5, 1.50000000000000000000e+003) (6, 4.76618853980298870000e+002) (7, 5.10396033413648240000e+002) (8, 1.72916973959046910000e+001) (0, -1.96864877961724960000e+000) (1, -4.58450771085139540000e-001) (2, -1.44617823029830950000e-001) (3, -1.78572417360642610000e-001) (4, -1.49647243220250230000e+000) (5, -4.36693282384125250000e-001) (6, 1.87542451658934660000e+000) (7, -3.32420455061853640000e-001) (8, 2.00769930615721660000e+000) (0, -1.01144699871703980000e+000) (1, -1.57492138834365100000e+000) (2, 2.54780041809584080000e-001) (3, 3.66775718944606140000e-001) (4, 1.27067261689578160000e+000) (5, -1.15766912167208090000e+000) (6, 2.25122325664450960000e+000) (7, -2.00541671926065310000e+000) (8, 2.00998837208026390000e-001) (0, -4.11259657298145690000e+000) (1, 1.82001663453769640000e+001) (2, 3.28151915028126810000e+001) (3, -1.05991244737050680000e+001) (4, -1.96160133957772200000e+001) (5, 2.81356538389566670000e+001) (6, -5.77198583533910320000e+001) (7, -2.18214757638000450000e+001) (8, 1.12930513849063520000e+000) (0, -2.40197625581214690000e-001) (1, -4.15624657379886650000e+000) (2, -4.15210587139046180000e-001) (3, 6.29514889281555520000e-001) (4, -1.19326025861019170000e-001) (5, 1.80284632634437280000e+000) (6, 3.14675511165593890000e+000) (7, 6.73675988041725660000e+000) (8, 1.08868457736170290000e+000) (0, 2.90210202608067960000e+000) (1, 9.13080114355207860000e+000) (2, -1.47566021412159400000e+000) (3, -7.59228613960752430000e+000) (4, -1.93276417898009580000e+000) (5, 3.07308473910403500000e-001) (6, -1.23122356131865400000e+000) (7, -4.66351364693218960000e+000) (8, -1.64979438387195470000e+000) (0, -4.14788857397491210000e+000) (1, 4.85174777963728650000e-001) (2, -4.06463643452540250000e+000) (3, 2.13880394196240610000e+001) (4, 1.86819493811079090000e+001) (5, -1.89712979823384450000e+001) (6, -3.18529557382304520000e+001) (7, 1.17204421187331530000e+001) (8, 1.76033468037508080000e+000) (0, -6.39708906896184360000e+000) (1, -4.44645230950061570000e+001) (2, 3.70373044170159960000e+001) (3, -9.86284183991217840000e+001) (4, -2.86029038642695990000e+001) (5, -4.01762036644287830000e+001) (6, 6.01458504854908940000e+002) (7, 6.20492252198694420000e+001) (8, 9.65658250476672640000e+000) (0, -8.20517383548860660000e+000) (1, 2.86185782451887220000e+001) (2, -2.02272824334317820000e+001) (3, -4.03921225397587310000e+001) (4, 2.76555733050040620000e+001) (5, -2.93354022398094010000e+001) (6, 1.71084408217663220000e+001) (7, -1.16876181546086230000e+001) (8, 8.95687105954764110000e+000) (0, 2.42316371108754570000e+001) (1, -1.83532407155899160000e+000) (2, 1.06898072489499970000e+002) (3, 9.24775719238473930000e+000) (4, -1.76607908530006230000e+001) (5, -6.94984515051791800000e+000) (6, -3.26433816290172910000e+001) (7, 2.64202676974353320000e+001) (8, 4.34276339391173400000e+000) (0, 1.08623641741932770000e+000) (1, -1.10833047769293390000e+000) (2, 4.39624084657201370000e-001) (3, 1.04120638564272230000e+000) (4, 2.17440930001677970000e+000) (5, 4.73372014922428470000e-001) (6, 2.65435865355116500000e+000) (7, -1.51676416970129790000e+000) (8, 1.85800743235275160000e+000) (0, -9.04313698259067600000e+000) (1, -2.56725959239577650000e+001) (2, 1.53586554211179790000e+002) (3, -1.79821464012633920000e+002) (4, -1.71097485927087520000e+002) (5, 5.72880580878382020000e+001) (6, -1.10358041626047860000e+002) (7, 3.41165664515957930000e+002) (8, 1.07088581344052770000e+001) (9, 7.17562743090179760000e-001) (10, -3.86094180170334590000e-001) (11, 1.58332526318303140000e-001) (12, -1.63677562818061120000e-001) (13, 1.59979400820295290000e+000) (14, 1.63607670248481830000e-001) (15, -1.31160086669681640000e+000) (16, -5.97363147593759410000e-001) (17, 3.74785318042596940000e+000) (18, 5.20312263364881120000e-001) (19, -1.32043951357625570000e+000) (20, -8.27353595946900390000e-001) (21, -1.96951590487998600000e-001) (22, 3.53872755243456460000e-001) (23, -8.36502825880525440000e-002) (24, 1.98404912244045990000e+000) (25, 7.24300907521980290000e-001) (26, 1.45979480008659950000e+000) (27, 5.44825012443433110000e+000) (28, 5.99296919487934070000e-001) (29, -3.78822897740958140000e+000) (30, 1.21859858009683780000e-001) (31, -2.88390576870233060000e+000) (32, -9.31870941733399380000e-002) (33, 1.95717145129692200000e+000) (34, 2.50920938697367020000e+000) (35, -1.59137499907587050000e-001) (36, -3.60713243826093270000e-001) (37, 7.75529012663418800000e+000) (38, 1.97058015504670500000e+000) (39, 7.91526967094125070000e-001) (40, -3.83456204159301430000e-001) (41, 6.92444929473990670000e-002) (42, 1.31007395719919930000e+000) (43, -1.18973748054600330000e-001) (44, 4.51863785453780680000e+000) (45, -1.40625526916132810000e-001) (46, -1.47467467554190000000e+000) (47, 3.53730753982804350000e-001) (48, -4.75561695468130600000e-001) (49, 2.90171077846855530000e-001) (50, 2.16407563535747280000e+000) (51, -3.27838804978978790000e+000) (52, -2.69371523611608570000e-002) (53, -7.92759214703569800000e-001) (54, 2.00988182154525850000e+000) (55, 5.95229982212768570000e-001) (56, 5.73156099137079660000e-001) (57, 2.20278028395234760000e+000) (58, 7.67755523048016380000e+000) (59, 8.23425586375675760000e-001) (60, 9.97016784341568150000e-001) (61, 1.42905912373006630000e+000) (62, -4.78285134602965010000e-001) (63, 4.50150029235207140000e-001) (64, 8.78106941795526840000e-001) (65, 1.68786152100879900000e+000) (66, 5.76337121319557420000e-002) (67, 3.06775236858871960000e+000) (68, 6.50856854306959050000e-001) (69, -4.44511522060807020000e-001) (70, -7.63638895318858650000e-001) (71, 8.47047735906719670000e-001) (72, -2.97461899717446740000e-001) (73, 4.68669757712046400000e+000) (74, 5.96734366839391940000e+000) (75, 4.26124968513052930000e-001) (76, 3.37919054618550390000e+000) (77, 5.31849440963148460000e-001) (78, -3.13340235218858070000e-001) (79, 6.39744772863967690000e-001) (80, -8.04236502296652220000e-001) (81, 5.55689633753026600000e-001) (82, 5.51816436275079970000e+000) (83, 2.96260934417635850000e-001) (84, 1.83930968627219050000e-001) (9, -9.50310239575671840000e-001) (10, -1.54028716087539460000e-001) (11, 2.58628520803883770000e-001) (12, -4.76401203731063370000e-001) (13, -7.25160146590344560000e-001) (14, -2.46950889714356140000e-001) (15, 2.91779945101809530000e+000) (16, 1.22436100181886310000e+000) (17, 2.30324687227811440000e-001) (18, -1.49297039588494160000e-001) (19, 2.05751420189528740000e+000) (20, 4.23856969797710700000e-001) (21, 2.03679807496847910000e-001) (22, -2.79568787383501990000e+000) (23, 1.01734812740032180000e-001) (24, 4.76870740988586480000e+000) (25, -1.17414289502141390000e+000) (26, -4.27991613243465630000e-001) (27, 2.31770653330947640000e+000) (28, -8.63008184189173800000e-001) (29, 4.54783397295670080000e+000) (30, -3.16716951903864510000e-001) (31, -7.47040615506874280000e-001) (32, -2.37703661843305100000e-001) (33, 3.79669393822986700000e-001) (34, 3.14307567993883550000e+000) (35, -2.13353590050654860000e+000) (36, -1.83605052595831930000e+000) (37, 3.29062002050820770000e+000) (38, 4.55713345165774440000e+000) (39, 3.34573152951823720000e-001) (40, 2.81827136741909570000e-001) (41, -5.12482432814399650000e-001) (42, 3.92297949538868410000e+000) (43, -3.49451254024413900000e-001) (44, 4.47292329875177860000e+000) (45, -1.85101039962657500000e+000) (46, -9.22745450703481020000e-001) (47, -5.30410412926491160000e-001) (48, 2.22306093100488600000e-001) (49, -1.15642820058987840000e-002) (50, 3.70148289073799000000e+000) (51, 1.51742257992191790000e+000) (52, -1.88830311304310250000e+000) (53, 9.70130293404676270000e-001) (54, 7.24365167431464730000e-001) (55, -6.04759617629194280000e-001) (56, -3.50171037073641500000e-001) (57, -1.06332049279204080000e+000) (58, 1.25740387578454140000e+000) (59, -1.85331101551591870000e+000) (60, -1.43023924782683310000e+000) (61, 2.73030523347587730000e+000) (62, 2.36643163959354300000e+000) (63, -3.53587844534148720000e-002) (64, -4.08657174714476430000e-001) (65, -3.40915254600607790000e-001) (66, 3.74738790991097080000e-001) (67, 1.11439081763598300000e-001) (68, -7.90533041779233450000e-001) (69, 8.73654188762253700000e-002) (70, 2.78149012787114720000e+000) (71, -7.80612145656235160000e-001) (72, 3.31980481164179770000e-001) (73, 3.97367952804319740000e+000) (74, 1.73671863796045930000e+000) (75, -6.21338317504727790000e-001) (76, 1.83031266639871190000e+000) (77, 3.23528805117596360000e+000) (78, 1.06738744136540720000e+000) (79, -1.08814254785886240000e+000) (80, 8.47702527374263880000e-001) (81, -2.09296642238403050000e+000) (82, 2.76398617970766880000e+000) (83, -1.22718665579240550000e-001) (84, -1.93392726813789340000e+000) (9, -2.40021015178361980000e+000) (10, 6.30717461215887680000e-001) (11, -7.08466941354818360000e-001) (12, 2.43345478753152970000e-002) (13, -1.46944609957506050000e-001) (14, -3.28323170993695620000e-001) (15, 8.55643057037753780000e-001) (16, 2.26273844142468180000e+000) (17, 1.69736013100563740000e+000) (18, -2.29844320264239570000e-001) (19, 3.40105177858374440000e+000) (20, 1.81114563285622310000e-001) (21, -4.98017058008484280000e-001) (22, 1.93768180589473000000e+000) (23, -3.36940460419770220000e-001) (24, 3.46449466808864770000e+000) (25, 4.98628705609670130000e-002) (26, -6.23961807177090710000e-001) (27, 3.40573173433049540000e+000) (28, -7.15022135407698430000e-001) (29, 1.83287247233585470000e+000) (30, 2.74463241826403300000e-001) (31, 2.49969990114599480000e+000) (32, 6.32275360218402030000e-001) (33, 5.11197601487651140000e-001) (34, -2.33850592065637030000e+000) (35, -1.69729978086765710000e+000) (36, 2.09350178570033260000e+000) (37, 7.46442819977539030000e-001) (38, 6.36537917904015770000e+000) (39, 1.59781579593013580000e+000) (40, -2.57330364346470770000e-001) (41, -6.87574073352470780000e-001) (42, 4.91056365919541530000e-002) (43, -1.31635972845096490000e+000) (44, 6.90850991142898610000e+000) (45, -1.97540931165123260000e+000) (46, 9.99200061398376470000e-001) (47, 9.18731306484011250000e-001) (48, 1.56468101669024220000e-001) (49, -3.28234080668321330000e-001) (50, -3.39185440494962980000e+000) (51, -3.32530327731224210000e-001) (52, -5.83127120251222040000e-001) (53, -8.04634397616032500000e-002) (54, 9.45089629157950360000e-001) (55, 5.66457403026563780000e-001) (56, -3.93295105316451230000e-001) (57, -9.66898085520166570000e-002) (58, -5.68623980973122390000e-001) (59, -3.70125148425165260000e+000) (60, -9.87458148155765380000e-001) (61, -1.06193090682820880000e+000) (62, 1.31763242139885240000e-001) (63, 1.19212694487155630000e+000) (64, -5.16949735522731270000e-001) (65, 3.72500651713391750000e+000) (66, 4.99224988063228130000e-001) (67, 9.64271738632749400000e-001) (68, -6.13354530511677650000e-001) (69, 2.67356634136907590000e-002) (70, 3.00416996008207700000e+000) (71, 7.28309096098890830000e-001) (72, 4.87379715854179000000e-001) (73, 4.51511243108484980000e+000) (74, 1.60483876460632870000e+000) (75, 3.29167977442541000000e-001) (76, 1.53455915942912260000e+000) (77, 4.40950407114627570000e-001) (78, 5.65992782841240660000e-001) (79, -2.98588513334055190000e-004) (80, 3.87549190832867650000e-001) (81, -7.87013430040573450000e-002) (82, -3.09718098246111180000e+000) (83, -2.31755380712481970000e-001) (84, -1.07389740116489010000e+000) (9, -2.37181242822741280000e-001) (10, -1.22524417379308040000e+000) (11, 5.52474287564633900000e-001) (12, 1.49964243518077710000e+000) (13, -2.50222621277486650000e+000) (14, -2.86225748634717060000e-001) (15, 6.05546881854674090000e+000) (16, 2.61977394340727400000e+000) (17, 3.34289638127296400000e+000) (18, 6.90122227640914690000e-002) (19, -1.46713377615210590000e+000) (20, -1.41181406566646970000e+000) (21, -8.59777964788217770000e-001) (22, 2.94112965049845190000e-001) (23, -5.51630014368958530000e-001) (24, 5.42884176932693040000e+000) (25, 1.31576866393144060000e-001) (26, -1.22136348731786740000e+000) (27, 3.72526542580238160000e+000) (28, -2.06953321466005800000e+000) (29, 5.18020549007439970000e+000) (30, -3.37647800115830570000e-001) (31, -1.57783158366824840000e+000) (32, 2.45798530851709170000e+000) (33, 2.45651673500391700000e+000) (34, -1.10636139170271660000e+000) (35, -2.51983002679086310000e+000) (36, -8.54665134211139880000e-001) (37, 3.77706985664712440000e+000) (38, 8.01099119867935270000e+000) (39, -1.96378123615421620000e-001) (40, -2.11356263134963780000e-001) (41, 3.09621525490545560000e-001) (42, 2.34543492245738610000e+000) (43, -2.99669513038908870000e-001) (44, 7.26066592484267570000e+000) (45, -1.61074772572743960000e+000) (46, 3.69170276740706750000e+000) (47, -3.97864748492699150000e-001) (48, -6.21498220091176610000e-001) (49, 8.85165886028001950000e-001) (50, -3.41910114704243020000e+000) (51, 1.29861707455450960000e+000) (52, 1.83848216395003660000e+000) (53, 7.61904441022652420000e-001) (54, -4.48148040603937760000e-001) (55, -8.77037929503162950000e-001) (56, -4.05008613184395850000e-001) (57, 1.00664197621675690000e+000) (58, 4.25769236332450430000e+000) (59, 1.20282182301384500000e+000) (60, -2.57651038971694000000e-001) (61, 1.66797606725590190000e+000) (62, 1.47945024176289850000e+000) (63, -6.67254160297927390000e-001) (64, -2.25516321360645030000e+000) (65, 5.80134148072751720000e+000) (66, 7.44540768125309670000e-002) (67, 7.46821013608737870000e-001) (68, -3.61518227112389730000e-001) (69, 1.38428071993409730000e-001) (70, 2.00422136181286660000e+000) (71, -1.72790307786973090000e+000) (72, -1.22692904869283080000e-001) (73, 4.03553254609348770000e+000) (74, 2.36499440656105530000e+000) (75, -2.18460307736591250000e-001) (76, -2.21164349516177780000e-001) (77, 3.30390575403369450000e+000) (78, 1.48415268275657120000e+000) (79, -2.55583442277743520000e+000) (80, 1.56843649124770580000e+000) (81, -2.24364537788076120000e+000) (82, 8.38376363157207760000e-001) (83, -1.85877969677959580000e-001) (84, -2.02247472613855450000e+000) (9, 9.55093753521423890000e-001) (10, -8.26323328426895040000e-002) (11, 5.72913433850603780000e-001) (12, 3.36762948535023530000e-001) (13, -2.65038194617827600000e+000) (14, -8.55394540463006890000e-001) (15, 3.43521464044223280000e+000) (16, 4.94035085686541730000e+000) (17, -4.38757582691890300000e-001) (18, -1.43084227228152370000e+000) (19, -1.35589016386405390000e+000) (20, 2.04980217293139690000e+000) (21, -3.16080730226965760000e-001) (22, -7.69175428019325590000e-001) (23, -1.85065333382631050000e+000) (24, 4.38996732895274100000e+000) (25, 7.33660629194892390000e-001) (26, -1.53218623818811190000e+000) (27, 4.48545849890992090000e+000) (28, -1.37855386753544870000e+000) (29, -1.46223340962161270000e+000) (30, -3.07161943878557000000e-001) (31, 2.29933317783879380000e+000) (32, 1.48125077413868930000e+000) (33, -5.87895264554312510000e-001) (34, -2.67369392381899380000e+000) (35, -2.27643502330289180000e+000) (36, -2.92177495207245670000e-001) (37, 4.15554717905984730000e+000) (38, 7.44594787007023040000e+000) (39, -1.63676142812886250000e+000) (40, -8.86691911239453230000e-001) (41, 1.06730290857791000000e+000) (42, -1.16015642606628840000e+000) (43, -2.25976123413646590000e+000) (44, 6.81211917635173410000e+000) (45, -2.39255005290476990000e+000) (46, 1.28572786723000390000e+000) (47, 2.84963023026755070000e+000) (48, -4.73082556373821180000e-001) (49, -9.66928384001860210000e-001) (50, -1.15623479360921280000e+000) (51, -1.60402186373849040000e-001) (52, 1.81500441293213430000e+000) (53, 1.09740801047593290000e+000) (54, 4.08342717117584800000e-001) (55, -4.72488438785877430000e-001) (56, -1.24719418177489370000e-001) (57, -5.53804952078749580000e+000) (58, 3.21803198193058380000e+000) (59, 4.58603579772606820000e+000) (60, 1.36258989757854470000e+000) (61, 2.24250081029525240000e+000) (62, 1.48598668966747400000e+000) (63, 8.72304943766625600000e-001) (64, 5.41005531887248090000e-001) (65, 5.24158418861662150000e+000) (66, 5.73525224910669480000e-001) (67, 2.50053747383915950000e+000) (68, -3.35170770574033270000e-001) (69, -2.00663088367580480000e-001) (70, 5.89636842282998950000e-001) (71, 2.67875164267303980000e+000) (72, 6.17864711772427850000e-001) (73, 3.40555668602945700000e+000) (74, 2.98002953336978220000e+000) (75, -4.72991511422072690000e-001) (76, 4.56051071698890280000e+000) (77, 6.02132872141334200000e+000) (78, 4.66357595795411530000e-001) (79, 7.78236445254806060000e-001) (80, -7.06229603819888420000e-001) (81, -1.52747829323230100000e+000) (82, 2.79118671913597010000e+000) (83, -7.92257209851732900000e-002) (84, -1.84616882708976160000e+000) 
