FANN_FLO_2.1
num_layers=3
learning_rate=0.700000
connection_rate=1.000000
network_type=0
learning_momentum=0.000000
training_algorithm=2
train_error_function=1
train_stop_function=0
cascade_output_change_fraction=0.010000
quickprop_decay=-0.000100
quickprop_mu=1.750000
rprop_increase_factor=1.200000
rprop_decrease_factor=0.500000
rprop_delta_min=0.000000
rprop_delta_max=50.000000
rprop_delta_zero=0.100000
cascade_output_stagnation_epochs=12
cascade_candidate_change_fraction=0.010000
cascade_candidate_stagnation_epochs=12
cascade_max_out_epochs=150
cascade_max_cand_epochs=150
cascade_num_candidate_groups=2
bit_fail_limit=3.49999999999999980000e-001
cascade_candidate_limit=1.00000000000000000000e+003
cascade_weight_multiplier=4.00000000000000020000e-001
cascade_activation_functions_count=10
cascade_activation_functions=3 5 7 8 10 11 14 15 16 17 
cascade_activation_steepnesses_count=4
cascade_activation_steepnesses=2.50000000000000000000e-001 5.00000000000000000000e-001 7.50000000000000000000e-001 1.00000000000000000000e+000 
layer_sizes=9 4 6 
scale_included=0
neurons (num_inputs, activation_function, activation_steepness)=(0, 0, 0.00000000000000000000e+000) (0, 0, 0.00000000000000000000e+000) (0, 0, 0.00000000000000000000e+000) (0, 0, 0.00000000000000000000e+000) (0, 0, 0.00000000000000000000e+000) (0, 0, 0.00000000000000000000e+000) (0, 0, 0.00000000000000000000e+000) (0, 0, 0.00000000000000000000e+000) (0, 0, 0.00000000000000000000e+000) (9, 6, 5.00000000000000000000e-001) (9, 6, 5.00000000000000000000e-001) (9, 6, 5.00000000000000000000e-001) (0, 6, 0.00000000000000000000e+000) (4, 6, 5.00000000000000000000e-001) (4, 6, 5.00000000000000000000e-001) (4, 6, 5.00000000000000000000e-001) (4, 6, 5.00000000000000000000e-001) (4, 6, 5.00000000000000000000e-001) (0, 6, 0.00000000000000000000e+000) 
connections (connected_to_neuron, weight)=(0, 7.86401319791601660000e-001) (1, 2.35869062527294000000e-001) (2, 2.44072481394129630000e-001) (3, -2.50831566418243130000e+000) (4, 1.45646306521553550000e+000) (5, 2.26741389828287110000e+000) (6, -3.74810303633007850000e+000) (7, -6.17353642431222040000e-001) (8, 4.24862000335873120000e-001) (0, -3.00794315300445310000e+000) (1, 2.15639596662315780000e+000) (2, -1.92010493930633070000e+000) (3, 3.15853858963649260000e+000) (4, -6.71189177558700050000e+000) (5, 2.73297882784878210000e+000) (6, 4.21839904322946870000e+000) (7, 4.84355801538909250000e+000) (8, 1.13003870148466650000e-001) (0, -8.83975720586542830000e-001) (1, 1.25563716493548600000e+000) (2, -8.82249712330255060000e-001) (3, -7.75989108898813700000e-002) (4, -1.88720242734530190000e+000) (5, 2.40644724736917270000e+000) (6, -1.09582677194975790000e+000) (7, 2.24712036317477760000e+000) (8, 3.09495649990236820000e-001) (9, -3.01292227762706920000e-001) (10, 3.00801013525222480000e-001) (11, -7.47300205959695260000e-001) (12, 7.20079257909791660000e-001) (9, 2.36769831811208360000e+000) (10, 1.20507008073746640000e+000) (11, -9.81698623495797280000e-001) (12, 4.59957304271378210000e-001) (9, -6.41447284675299990000e-001) (10, -3.21369159463558150000e-001) (11, 1.33583209079374800000e+000) (12, 9.43478964665615540000e-001) (9, 1.39582657506453730000e+000) (10, 8.30447278815655830000e-001) (11, -2.09026961578676000000e+000) (12, 9.99005795475513270000e-001) (9, -2.76091697468588350000e+000) (10, -2.17775716817471520000e+000) (11, 3.80838399358414480000e+000) (12, 1.18770499378977370000e+000) 
