FANN_FLO_2.1
num_layers=3
learning_rate=0.700000
connection_rate=1.000000
network_type=0
learning_momentum=0.000000
training_algorithm=2
train_error_function=1
train_stop_function=0
cascade_output_change_fraction=0.010000
quickprop_decay=-0.000100
quickprop_mu=1.750000
rprop_increase_factor=1.200000
rprop_decrease_factor=0.500000
rprop_delta_min=0.000000
rprop_delta_max=50.000000
rprop_delta_zero=0.100000
cascade_output_stagnation_epochs=12
cascade_candidate_change_fraction=0.010000
cascade_candidate_stagnation_epochs=12
cascade_max_out_epochs=150
cascade_max_cand_epochs=150
cascade_num_candidate_groups=2
bit_fail_limit=3.49999999999999980000e-001
cascade_candidate_limit=1.00000000000000000000e+003
cascade_weight_multiplier=4.00000000000000020000e-001
cascade_activation_functions_count=10
cascade_activation_functions=3 5 7 8 10 11 14 15 16 17 
cascade_activation_steepnesses_count=4
cascade_activation_steepnesses=2.50000000000000000000e-001 5.00000000000000000000e-001 7.50000000000000000000e-001 1.00000000000000000000e+000 
layer_sizes=9 21 6 
scale_included=0
neurons (num_inputs, activation_function, activation_steepness)=(0, 0, 0.00000000000000000000e+000) (0, 0, 0.00000000000000000000e+000) (0, 0, 0.00000000000000000000e+000) (0, 0, 0.00000000000000000000e+000) (0, 0, 0.00000000000000000000e+000) (0, 0, 0.00000000000000000000e+000) (0, 0, 0.00000000000000000000e+000) (0, 0, 0.00000000000000000000e+000) (0, 0, 0.00000000000000000000e+000) (9, 6, 5.00000000000000000000e-001) (9, 6, 5.00000000000000000000e-001) (9, 6, 5.00000000000000000000e-001) (9, 6, 5.00000000000000000000e-001) (9, 6, 5.00000000000000000000e-001) (9, 6, 5.00000000000000000000e-001) (9, 6, 5.00000000000000000000e-001) (9, 6, 5.00000000000000000000e-001) (9, 6, 5.00000000000000000000e-001) (9, 6, 5.00000000000000000000e-001) (9, 6, 5.00000000000000000000e-001) (9, 6, 5.00000000000000000000e-001) (9, 6, 5.00000000000000000000e-001) (9, 6, 5.00000000000000000000e-001) (9, 6, 5.00000000000000000000e-001) (9, 6, 5.00000000000000000000e-001) (9, 6, 5.00000000000000000000e-001) (9, 6, 5.00000000000000000000e-001) (9, 6, 5.00000000000000000000e-001) (9, 6, 5.00000000000000000000e-001) (0, 6, 0.00000000000000000000e+000) (21, 6, 5.00000000000000000000e-001) (21, 6, 5.00000000000000000000e-001) (21, 6, 5.00000000000000000000e-001) (21, 6, 5.00000000000000000000e-001) (21, 6, 5.00000000000000000000e-001) (0, 6, 0.00000000000000000000e+000) 
connections (connected_to_neuron, weight)=(0, 3.05726261040390580000e+000) (1, 1.50908818186188400000e+001) (2, -9.66652719821956910000e+000) (3, -4.81724075946229040000e+000) (4, 2.48596917610479870000e+001) (5, -9.25369440712180590000e+000) (6, 1.32500704375200030000e+001) (7, -1.79663502885824510000e+001) (8, -3.18752895843824190000e-002) (0, 7.07055765654509290000e+002) (1, 1.32343849600276910000e+002) (2, -1.89391143650762570000e+001) (3, -8.01829298697211500000e+001) (4, -9.22736980787036560000e+000) (5, -9.98781057874940070000e+001) (6, -3.99920729741366120000e+001) (7, -9.65695418665898760000e+000) (8, 2.91966187824195390000e+000) (0, 1.23465415303653450000e+000) (1, -8.61795513573274970000e+000) (2, 5.70187702705896180000e+000) (3, 1.33021181632880110000e+001) (4, -1.42583310239042120000e+001) (5, -1.37071571402316540000e+001) (6, -7.21222093021084460000e+000) (7, 4.15384445514246360000e+000) (8, 1.32518436701767080000e-001) (0, 4.29338698154200850000e+000) (1, -7.73803390047221920000e+000) (2, 4.97126673966240680000e+000) (3, -2.83247148044288830000e+001) (4, 1.77826248443656110000e+001) (5, 2.49509281366873770000e+001) (6, 9.17459069466032060000e+000) (7, 3.64734340791965930000e+001) (8, 1.18018092682101130000e+000) (0, -6.92190953999917100000e+000) (1, 1.23315526651605530000e+001) (2, 7.31611090996865340000e+000) (3, 5.12416165127814600000e+000) (4, -7.28968830261917500000e-001) (5, -1.78235995996491980000e+000) (6, 1.34691842960271770000e+000) (7, -2.01158342669003400000e-001) (8, -4.99465579873799530000e-001) (0, 6.08257551112984100000e+000) (1, -2.64973413811709440000e+001) (2, -4.28953785840238740000e+001) (3, -3.31733949206014810000e+001) (4, -1.73427620247065130000e+001) (5, 6.85924678270929750000e+001) (6, 9.71925107318993750000e+001) (7, 2.26979003512088370000e+001) (8, -1.92886648874823740000e-001) (0, -4.09019806212810530000e+000) (1, 3.56247207814861480000e+000) (2, 1.15684558750242130000e+001) (3, 2.14039333019783560000e+001) (4, 6.09095758817817860000e+000) (5, -1.73499652575696570000e+001) (6, 1.25269142135234350000e+001) (7, 2.05869879361281430000e+000) (8, 2.34357795367332200000e-001) (0, 8.20106185231120750000e+000) (1, -1.00578793589266650000e+000) (2, 1.67038500788699530000e+000) (3, -4.01652160151647490000e+000) (4, -7.73171945319488610000e+000) (5, 1.85605874711963300000e+000) (6, 9.05823959430427710000e-001) (7, -1.17772869031636560000e+001) (8, 3.36494644772839690000e-001) (0, -3.61919780230749000000e-001) (1, -2.23939513615818560000e+000) (2, 1.35235785827474070000e-002) (3, 6.27133533387637110000e-001) (4, 1.43962650370834220000e+000) (5, -9.55217389519648740000e-001) (6, -2.29136880421898060000e-001) (7, -1.52151529997920700000e+000) (8, 1.37267432705097420000e-001) (0, 3.27698858805454190000e-001) (1, 2.17606500788117440000e-001) (2, 1.63449097050300280000e+000) (3, -1.70777980746393370000e+000) (4, 2.07389196843301840000e+000) (5, -5.29807253008160310000e-002) (6, 1.73959923412039270000e+000) (7, -7.22761305058035570000e+000) (8, -4.10798737611325210000e-003) (0, 1.03484553722343400000e+000) (1, 1.45218367886606000000e+001) (2, -2.61071319719901180000e+000) (3, -3.70153278952983870000e+000) (4, -8.99358816695923660000e+000) (5, 9.69378823986459180000e+000) (6, 1.28960419073365300000e+001) (7, -3.08068348359456440000e+001) (8, 6.49662385252433030000e-001) (0, -3.64370590207751870000e+000) (1, 5.42224668058187920000e+000) (2, 3.71340205123328860000e+000) (3, 4.93848642041354500000e+000) (4, 2.93796834147581840000e+000) (5, -1.97739588664742240000e+000) (6, 3.91145350651486320000e+000) (7, 1.12480952353553260000e+001) (8, -1.98766063018870730000e-001) (0, -5.53641514000256580000e+000) (1, 1.28834630470773170000e+001) (2, -1.08649741035825350000e+001) (3, -7.66930637801009410000e+000) (4, 6.65790490357962920000e+000) (5, -6.04444563011613580000e+000) (6, 8.07457271110712860000e+000) (7, -1.97679594497210940000e+001) (8, 9.59778341132977440000e-001) (0, -1.71199352966687510000e+000) (1, -6.35016748791340960000e-001) (2, -1.09593673029180790000e+000) (3, -4.54137461113892100000e+000) (4, -8.54675720807617220000e-001) (5, 4.03152953164533660000e+000) (6, -7.51448292833834410000e-001) (7, -2.76545729426955540000e+000) (8, 2.06577742440325620000e-001) (0, -9.24149682822589140000e-001) (1, -9.08752811601673470000e+000) (2, 9.93619075867504620000e+000) (3, 8.36753242553957750000e+000) (4, 9.46636759502995420000e+000) (5, 7.84770041590580280000e+000) (6, 2.93941732950337190000e+000) (7, -2.69345230257090450000e+000) (8, 5.51977335325039560000e-001) (0, 7.27460574012937580000e+000) (1, 1.53784362026607100000e+000) (2, 1.33323988455270450000e+001) (3, -6.39303352771044770000e+000) (4, -1.51564293785697600000e+001) (5, 5.56907483504846730000e+000) (6, -1.39503678714836870000e+001) (7, 2.32416637479896520000e+001) (8, 5.74500567200235790000e-001) (0, -2.49919993927421390000e+000) (1, -2.45433506675191240000e+000) (2, -1.02071427692201840000e+001) (3, -3.61250966939918650000e+000) (4, 1.89749232125374490000e+000) (5, 1.44335180823155640000e+000) (6, 7.93844484819269790000e+000) (7, -1.12088122048988090000e+001) (8, 3.41016031862649560000e-001) (0, 8.35032101908202760000e-001) (1, 3.49494233499873190000e-001) (2, 9.76150605171830940000e-001) (3, 6.14168268634706850000e-002) (4, 8.02466056820790750000e-001) (5, -1.84409920841284310000e+000) (6, 3.99872448700401010000e-001) (7, -9.39581211327611300000e-001) (8, 1.17878715572697630000e-002) (0, -9.81639569211369410000e-001) (1, 1.05597242751425850000e+001) (2, -8.16143453340274940000e+000) (3, 5.58704117162357770000e+000) (4, -1.48856250735350050000e+000) (5, 8.32694978967345460000e+000) (6, 2.89831177357977200000e+001) (7, -1.31558353644348620000e+001) (8, 6.57274587934287610000e-001) (0, 7.40958563756165870000e-001) (1, 1.21531451829996850000e+001) (2, -7.04120815113283880000e+000) (3, 4.25336723360975990000e+000) (4, 7.35193810952215900000e+000) (5, -1.04421989777589100000e+001) (6, 2.01540458095643520000e+000) (7, 1.48344527118505140000e+000) (8, 1.32825755501231680000e-001) (9, 6.80392453390605280000e-001) (10, -3.71107507033389570000e-001) (11, 6.43416166411993060000e-001) (12, -4.36806385195218030000e-001) (13, -1.35798327156366950000e+000) (14, 1.00674419479232900000e-001) (15, -5.62870590974924640000e-001) (16, -9.31628910729270450000e-001) (17, 2.07178816793464150000e+000) (18, -6.25977164203428830000e-002) (19, 7.00434199242258800000e-001) (20, 1.76100026761353810000e+000) (21, 1.61153120898218070000e+000) (22, -2.36053383383311210000e+000) (23, 4.42616674330572670000e-001) (24, 9.79044996003418540000e-001) (25, -9.81694190332663250000e-001) (26, -1.13942151859428490000e+000) (27, -3.05137508820074450000e-001) (28, -1.32995292905189540000e+000) (29, 3.11883753811024680000e-001) (9, -5.00929700519563090000e-001) (10, 1.27190956542681010000e-001) (11, -1.53629428934233950000e-001) (12, 1.87706707128054070000e-001) (13, 5.82137464950398640000e-001) (14, -1.93242839776156250000e-001) (15, -3.59387802332370050000e-001) (16, 5.44441150878673400000e-001) (17, -2.22272043589268400000e+000) (18, -4.16571805094905600000e-001) (19, -5.32629948618750790000e-001) (20, -3.48008734268611180000e-001) (21, -8.78500619372773460000e-001) (22, 3.19074776393598420000e+000) (23, 3.44462678920004710000e-001) (24, -6.51290756547022400000e-001) (25, 5.64936979941461640000e-001) (26, 3.74493087956405810000e+000) (27, 7.77190221754400670000e-001) (28, 9.84711850779917520000e-001) (29, 7.40362376963377480000e-001) (9, -1.22769922184703220000e+000) (10, 5.88833223700985510000e-002) (11, -7.76605775004147960000e-001) (12, 1.31827359633556070000e+000) (13, 2.02486892251378550000e+000) (14, -4.20696961286040390000e-001) (15, -2.04714926635125890000e-001) (16, 1.83739118650265580000e+000) (17, 8.06903003037836570000e-001) (18, -2.97795083607603540000e+000) (19, -2.48345353323454640000e-001) (20, -9.76136559775084070000e-001) (21, -9.97181078000041850000e-001) (22, -8.22579693422385460000e-001) (23, 4.67215194933530530000e-001) (24, -5.09380399947769960000e-001) (25, 3.18061855591111220000e+000) (26, 3.83355603983133800000e+000) (27, 2.82007301404177680000e-001) (28, 1.20567160129515600000e+000) (29, 2.63398888368957700000e-001) (9, -1.00952529575896190000e-001) (10, 1.34543333426628050000e-001) (11, 2.08634776591446510000e+000) (12, 5.14438548112912900000e-001) (13, -1.42650589681673660000e+000) (14, -2.91849525855024110000e-001) (15, -1.12151022938826820000e+000) (16, -1.18013593159807040000e+000) (17, -8.71121741014882110000e+000) (18, 7.15605116414295670000e+000) (19, -5.71434783244874290000e-001) (20, 1.65319297225947710000e+000) (21, -5.67147829098778480000e-001) (22, 2.38215040919242550000e+000) (23, 9.35809051972764430000e-001) (24, 9.84648810718810750000e-002) (25, 1.01819949324630320000e+000) (26, -2.59487992201423050000e+000) (27, 1.10220348264353270000e+000) (28, 1.62088493758997140000e+000) (29, 5.15709095961013000000e-001) (9, 1.93665087288436930000e-001) (10, 1.18745095647411530000e-002) (11, 9.95942857027816260000e-001) (12, 4.86789489548393180000e-001) (13, 1.05451713878254630000e+000) (14, -5.90330998821147410000e-002) (15, -3.97739181603076750000e-001) (16, 1.55512755371218430000e+000) (17, -7.36932945806166640000e+000) (18, 4.79293132640362800000e+000) (19, -2.58200324092855290000e+000) (20, -1.63385382727689430000e+000) (21, 1.17422975231287800000e+000) (22, -1.92890696359590710000e+000) (23, 1.31152607320403040000e+000) (24, -2.05385609751362550000e-001) (25, 3.86486238002964400000e-002) (26, -1.02797474784558820000e+001) (27, 9.98524945153769110000e-001) (28, 4.53900763075010480000e-001) (29, 9.31151462572490600000e-001) 
