FANN_FLO_2.1
num_layers=3
learning_rate=0.700000
connection_rate=1.000000
network_type=0
learning_momentum=0.000000
training_algorithm=2
train_error_function=1
train_stop_function=0
cascade_output_change_fraction=0.010000
quickprop_decay=-0.000100
quickprop_mu=1.750000
rprop_increase_factor=1.200000
rprop_decrease_factor=0.500000
rprop_delta_min=0.000000
rprop_delta_max=50.000000
rprop_delta_zero=0.100000
cascade_output_stagnation_epochs=12
cascade_candidate_change_fraction=0.010000
cascade_candidate_stagnation_epochs=12
cascade_max_out_epochs=150
cascade_max_cand_epochs=150
cascade_num_candidate_groups=2
bit_fail_limit=3.49999999999999980000e-001
cascade_candidate_limit=1.00000000000000000000e+003
cascade_weight_multiplier=4.00000000000000020000e-001
cascade_activation_functions_count=10
cascade_activation_functions=3 5 7 8 10 11 14 15 16 17 
cascade_activation_steepnesses_count=4
cascade_activation_steepnesses=2.50000000000000000000e-001 5.00000000000000000000e-001 7.50000000000000000000e-001 1.00000000000000000000e+000 
layer_sizes=9 4 6 
scale_included=0
neurons (num_inputs, activation_function, activation_steepness)=(0, 0, 0.00000000000000000000e+000) (0, 0, 0.00000000000000000000e+000) (0, 0, 0.00000000000000000000e+000) (0, 0, 0.00000000000000000000e+000) (0, 0, 0.00000000000000000000e+000) (0, 0, 0.00000000000000000000e+000) (0, 0, 0.00000000000000000000e+000) (0, 0, 0.00000000000000000000e+000) (0, 0, 0.00000000000000000000e+000) (9, 6, 5.00000000000000000000e-001) (9, 6, 5.00000000000000000000e-001) (9, 6, 5.00000000000000000000e-001) (0, 6, 0.00000000000000000000e+000) (4, 6, 5.00000000000000000000e-001) (4, 6, 5.00000000000000000000e-001) (4, 6, 5.00000000000000000000e-001) (4, 6, 5.00000000000000000000e-001) (4, 6, 5.00000000000000000000e-001) (0, 6, 0.00000000000000000000e+000) 
connections (connected_to_neuron, weight)=(0, 7.31109293323452200000e-001) (1, -1.12803223499822760000e-001) (2, -1.08290491266256570000e-001) (3, -1.49411284311081170000e+000) (4, 1.71736339681363610000e+000) (5, -2.09292689465851170000e-001) (6, -1.22816850631941920000e+000) (7, -1.47923264551135000000e+000) (8, 3.02681038286798380000e-001) (0, 2.07344345351565450000e+000) (1, 6.02567121008175890000e-001) (2, -7.80365141368206120000e-001) (3, -6.53341540099192300000e+000) (4, 4.96594049942142580000e+000) (5, 2.36861545509891420000e+000) (6, -8.73810593608322960000e+000) (7, -2.90382925800515860000e+000) (8, 3.75608307440994270000e-001) (0, -5.36935613772600020000e+000) (1, 6.94417450932545940000e+000) (2, -6.64651439720362340000e-001) (3, -8.42842990315804390000e+000) (4, -1.37963180799939610000e+001) (5, 2.23564467315037520000e+001) (6, -1.62076230173089720000e+001) (7, 1.14277119501585260000e+001) (8, -6.85919610261799710000e-001) (9, 1.23304804470911260000e+000) (10, -5.93738300615244690000e-001) (11, 9.39323362762123640000e-002) (12, 5.29932975196095950000e-001) (9, 2.26862982926797850000e+000) (10, -5.11553493739855260000e-001) (11, 4.80265336846018690000e-001) (12, 7.93241467720289580000e-001) (9, -1.70921334651849620000e+000) (10, 3.28029633955860210000e-001) (11, 8.03227093815121470000e-002) (12, 1.20036760279735180000e+000) (9, 2.65849189603965150000e+000) (10, -5.72130610891571910000e-001) (11, 8.66374998742181770000e-002) (12, 7.81842695487829700000e-001) (9, -5.20304551529342700000e+000) (10, 1.64559029247203650000e+000) (11, -4.72702960625369320000e-001) (12, 1.35522402981435540000e+000) 
