FANN_FLO_2.1
num_layers=3
learning_rate=0.700000
connection_rate=1.000000
network_type=0
learning_momentum=0.000000
training_algorithm=2
train_error_function=1
train_stop_function=0
cascade_output_change_fraction=0.010000
quickprop_decay=-0.000100
quickprop_mu=1.750000
rprop_increase_factor=1.200000
rprop_decrease_factor=0.500000
rprop_delta_min=0.000000
rprop_delta_max=50.000000
rprop_delta_zero=0.100000
cascade_output_stagnation_epochs=12
cascade_candidate_change_fraction=0.010000
cascade_candidate_stagnation_epochs=12
cascade_max_out_epochs=150
cascade_max_cand_epochs=150
cascade_num_candidate_groups=2
bit_fail_limit=3.49999999999999980000e-001
cascade_candidate_limit=1.00000000000000000000e+003
cascade_weight_multiplier=4.00000000000000020000e-001
cascade_activation_functions_count=10
cascade_activation_functions=3 5 7 8 10 11 14 15 16 17 
cascade_activation_steepnesses_count=4
cascade_activation_steepnesses=2.50000000000000000000e-001 5.00000000000000000000e-001 7.50000000000000000000e-001 1.00000000000000000000e+000 
layer_sizes=9 21 6 
scale_included=0
neurons (num_inputs, activation_function, activation_steepness)=(0, 0, 0.00000000000000000000e+000) (0, 0, 0.00000000000000000000e+000) (0, 0, 0.00000000000000000000e+000) (0, 0, 0.00000000000000000000e+000) (0, 0, 0.00000000000000000000e+000) (0, 0, 0.00000000000000000000e+000) (0, 0, 0.00000000000000000000e+000) (0, 0, 0.00000000000000000000e+000) (0, 0, 0.00000000000000000000e+000) (9, 6, 5.00000000000000000000e-001) (9, 6, 5.00000000000000000000e-001) (9, 6, 5.00000000000000000000e-001) (9, 6, 5.00000000000000000000e-001) (9, 6, 5.00000000000000000000e-001) (9, 6, 5.00000000000000000000e-001) (9, 6, 5.00000000000000000000e-001) (9, 6, 5.00000000000000000000e-001) (9, 6, 5.00000000000000000000e-001) (9, 6, 5.00000000000000000000e-001) (9, 6, 5.00000000000000000000e-001) (9, 6, 5.00000000000000000000e-001) (9, 6, 5.00000000000000000000e-001) (9, 6, 5.00000000000000000000e-001) (9, 6, 5.00000000000000000000e-001) (9, 6, 5.00000000000000000000e-001) (9, 6, 5.00000000000000000000e-001) (9, 6, 5.00000000000000000000e-001) (9, 6, 5.00000000000000000000e-001) (9, 6, 5.00000000000000000000e-001) (0, 6, 0.00000000000000000000e+000) (21, 6, 5.00000000000000000000e-001) (21, 6, 5.00000000000000000000e-001) (21, 6, 5.00000000000000000000e-001) (21, 6, 5.00000000000000000000e-001) (21, 6, 5.00000000000000000000e-001) (0, 6, 0.00000000000000000000e+000) 
connections (connected_to_neuron, weight)=(0, 1.07610358512928260000e+000) (1, -5.76405693931381520000e+000) (2, 6.59741382770854480000e+000) (3, 3.32183364980675220000e+000) (4, -3.90373820535201690000e+000) (5, 3.31956119353454060000e+000) (6, 4.14915139821549590000e-001) (7, 5.81149943447650850000e+000) (8, -1.23112756076921510000e-001) (0, -2.89150236662185600000e+000) (1, 1.80878749417215620000e+001) (2, -2.29705830220587440000e+000) (3, -4.97422438121855940000e+000) (4, 5.74653170383435170000e+000) (5, 1.70240921639369450000e+001) (6, -3.57228421399878810000e-001) (7, -1.25453157144735790000e+001) (8, 1.55502676848208650000e-002) (0, -1.44800258131392940000e+000) (1, 6.20223420130674660000e-001) (2, -1.65846464924488110000e+000) (3, 3.87444238982426500000e+000) (4, -4.10966118284251090000e+000) (5, -2.81753834002347990000e-001) (6, -1.82743775969822760000e+000) (7, 7.59785978989612690000e+000) (8, 4.54259281304115360000e-001) (0, -2.83634154788079410000e-001) (1, 4.92137627404716230000e-001) (2, 1.19715059710942540000e-001) (3, -3.23443452232977990000e-001) (4, -1.66040877254431170000e+000) (5, 1.76440403219760960000e+000) (6, -1.58562612634389270000e-002) (7, 9.30477324904253060000e-001) (8, -1.24915217961500790000e-001) (0, 5.41760834427260730000e+000) (1, 1.13529944090759920000e+001) (2, 1.84723085689625700000e+000) (3, -3.24808694072111810000e+001) (4, 4.13893369542301030000e+001) (5, 2.20883950783185160000e+001) (6, 4.13440872434487400000e+001) (7, -2.47627140592475610000e+001) (8, -5.22244133935957590000e-001) (0, -5.21240848873083080000e-001) (1, -2.69036558595989160000e+000) (2, 3.63210959587660700000e+000) (3, 1.45432817944887520000e+001) (4, -1.28826385766503130000e+001) (5, -7.92702880983935380000e+000) (6, 3.25524507558947150000e+000) (7, 2.77894422634420440000e+001) (8, 4.34022514049065440000e-001) (0, 2.06738385876237330000e-001) (1, 8.88017451459701230000e-001) (2, 6.62571974565274240000e+000) (3, -2.69438977024933290000e+000) (4, -8.67761365316191270000e-002) (5, -7.18958004483182920000e-001) (6, -9.75449415288350050000e-001) (7, -5.48881418401083640000e+000) (8, -2.47060851832120590000e-001) (0, -1.56534711906941130000e-001) (1, -1.00245589517693810000e-001) (2, 1.37401226374305120000e+000) (3, -3.89641361207175350000e-001) (4, 2.41367935972671700000e-001) (5, -1.31725759829940810000e-001) (6, -1.33081141126114870000e-002) (7, -1.01073579433510230000e+000) (8, 2.54237441566676350000e-002) (0, -6.14331486490212300000e-001) (1, 3.02081100582216070000e+000) (2, -3.86293187861336760000e-001) (3, -6.25789072774398660000e+000) (4, 6.07799418848619880000e-001) (5, 2.58287668062830370000e+000) (6, -1.50937361150626610000e+000) (7, -1.27914842159908470000e+000) (8, -7.26419157746533010000e-002) (0, 1.74741442336397520000e-001) (1, -1.27113707917919390000e+001) (2, 8.27843602866775830000e-001) (3, 2.12783549599966510000e+001) (4, 1.86378979790431990000e+001) (5, -5.66126716296342640000e+000) (6, 9.21130067836589280000e+000) (7, -1.87272321286630580000e+001) (8, 2.28369316488399530000e+000) (0, 1.02620445149765320000e+001) (1, 1.59916055426307850000e+001) (2, -8.31083350234551970000e+001) (3, 1.87374836751884510000e+000) (4, 1.35070269455821200000e+002) (5, -9.18177391942291800000e+000) (6, 1.77788312055531970000e+002) (7, 1.49465866706043560000e+001) (8, -3.21266757861114630000e+000) (0, 2.64286882745992860000e+000) (1, 1.84372977895533660000e+001) (2, 5.44728178993476410000e+000) (3, -5.70134398735940170000e+001) (4, -7.50592783412990800000e+000) (5, 3.10122758725653010000e+001) (6, 4.00005681019675310000e+001) (7, -2.79566597264542370000e+001) (8, 8.48755876668665250000e-001) (0, 2.04913975496923890000e+000) (1, -1.88807051850314430000e+000) (2, -4.69927706177547440000e+001) (3, 1.97936138031098920000e+001) (4, 2.94588771266745080000e+000) (5, -3.73990328911703000000e+001) (6, 4.32100867360296730000e+001) (7, 8.80527746716979750000e+001) (8, 3.76151203097683180000e-001) (0, 6.92202484214919030000e-001) (1, 1.21930904617383220000e+001) (2, -6.24308465949341600000e+000) (3, 8.63380694279705450000e+000) (4, 2.08288636599934260000e+000) (5, -1.22946490725979040000e+001) (6, -1.16731100809258080000e+000) (7, 5.41979399527875840000e+000) (8, 1.31862452361587890000e-001) (0, 6.94429464372679160000e-001) (1, -2.61190016839599220000e+000) (2, 1.35150107871991690000e-001) (3, 2.65601663287255410000e+000) (4, -2.23394674756254300000e+000) (5, -1.88784583835728000000e+000) (6, 3.30971203437588410000e+000) (7, 1.18452265656828830000e+000) (8, -3.20089831265674530000e-001) (0, 1.39168981821011070000e+000) (1, 7.22230503004299810000e-001) (2, -7.59467032827656150000e-001) (3, -1.26526564843772890000e+000) (4, -7.99138588865164090000e-001) (5, -1.30932663155685030000e-001) (6, -2.53030240163300890000e-001) (7, 3.22146765431563110000e+000) (8, 2.61622967620631640000e-001) (0, -3.05123596991646550000e+000) (1, -7.26165182029552980000e+000) (2, -5.61386157165972750000e+000) (3, -1.69060146636531790000e+000) (4, -9.69161711839354470000e+000) (5, 2.08214619125219880000e+000) (6, 7.88273762661885870000e+000) (7, -5.25392787267792280000e+000) (8, 1.07533795619297920000e+000) (0, -6.76424364547186130000e-001) (1, -4.22059260127031700000e+000) (2, -1.69422282282828610000e+000) (3, 3.83066176380757550000e+000) (4, 1.90408000403185480000e+000) (5, 3.29570663195831460000e+000) (6, -4.40482082110871700000e-001) (7, 2.89600485568458450000e+001) (8, 6.60869727774683780000e-001) (0, -3.90734987274158430000e+000) (1, 9.11135079121445910000e+000) (2, 1.73060450244169740000e+000) (3, -5.32692418647998660000e-002) (4, -2.58707927996735520000e+000) (5, 1.62784347702209690000e+001) (6, -6.41901695101759450000e+000) (7, 1.25347877617033790000e+000) (8, 8.88065101346153570000e-001) (0, 1.19756987412858340000e+000) (1, 5.80395542409321410000e+000) (2, 8.13778874325750050000e+000) (3, 4.82408208811790050000e+001) (4, -8.15187288127673490000e-001) (5, -4.17604499204211090000e+001) (6, -1.31652144543274670000e+000) (7, 9.10755411774400870000e+000) (8, 4.35772860890520810000e-001) (9, -3.05708170739818690000e+000) (10, -6.08368475192197390000e-001) (11, -3.80554580121777950000e-001) (12, 5.76047176526575560000e-001) (13, -7.38059944601469950000e-001) (14, 1.57961299447446610000e+000) (15, -1.81276394035641800000e+000) (16, 6.95205301963159350000e+000) (17, -1.92273210026399830000e+000) (18, 7.45562966491623570000e-001) (19, 3.01347538689385240000e-001) (20, 5.75824420798851320000e-001) (21, -5.57075513919419670000e-001) (22, -1.54594070653267800000e-001) (23, 6.36743946229183290000e-001) (24, -6.49876795861797030000e-001) (25, -1.39404356067199610000e+000) (26, -3.49399278819549910000e-002) (27, 8.14429016410988530000e-002) (28, -7.07610989306862840000e-001) (29, 3.14867248094054090000e-001) (9, 2.08936082891384700000e+000) (10, 8.90712529240180850000e-001) (11, 1.19850348373100850000e+000) (12, -2.19277098667797340000e+000) (13, 5.55856461317971280000e-001) (14, -1.18181485303618690000e+000) (15, 1.20001151111011330000e+000) (16, -3.75419195744206740000e-001) (17, 2.47355912199625650000e+000) (18, -2.98301788341775180000e-001) (19, -2.49666232641923340000e-001) (20, -6.35582656565904070000e-001) (21, 3.74878216366332780000e-001) (22, 1.79932544720878190000e-001) (23, 8.11314045577784190000e-001) (24, 2.00534973079225540000e+000) (25, 1.18067787056142560000e+000) (26, 2.32253043739706980000e-001) (27, -2.56471313774841500000e-001) (28, 2.29225665952405510000e-001) (29, 6.02838782571947670000e-001) (9, -1.57953066398871010000e+000) (10, 3.09223357525365950000e-001) (11, -1.36910437698762790000e-001) (12, 4.27014091592651020000e+000) (13, 6.69355635776941900000e-001) (14, -1.17488219621337130000e+000) (15, 2.65633761702588880000e+000) (16, -1.69996111674509590000e+000) (17, -3.37051004967965450000e+000) (18, -7.52419226903256020000e-001) (19, -2.37789305447748320000e-001) (20, -4.18660893132236480000e-001) (21, -1.24740443022757610000e-001) (22, 3.56519735838998540000e-001) (23, 6.50326707331189690000e-001) (24, 2.89990163386265200000e+000) (25, 1.64774651307850450000e+000) (26, 2.01791318825982690000e+000) (27, 2.91513808484022520000e-002) (28, 2.87988043069951790000e-001) (29, 5.12548977487488840000e-001) (9, 1.43773443821758900000e+000) (10, -1.21951504977252110000e+000) (11, -4.29809563782240020000e+000) (12, 3.87203960437121750000e+000) (13, 6.31164289216386980000e-002) (14, 6.93160190358047320000e-001) (15, -7.45750142446787830000e-001) (16, 2.01891115288512960000e+000) (17, 2.52234631393585480000e+000) (18, 1.00677056250536290000e+000) (19, -7.17391575599330210000e-003) (20, -3.93049333952233960000e-001) (21, -2.36388703120941680000e-003) (22, 2.33657688748488960000e+000) (23, -8.73714973708895610000e-001) (24, -4.71702672389036020000e-001) (25, 7.32099548635126270000e-001) (26, -2.81302961779238410000e-001) (27, 1.24729645293302900000e+000) (28, -6.75352177517528630000e-001) (29, 6.24707128266663970000e-001) (9, -2.45341248455650610000e-001) (10, -2.27992297007350060000e+000) (11, -2.87939505803076790000e+000) (12, 7.46564033158007150000e+000) (13, 8.07870400204903190000e-001) (14, -1.01946244715748160000e+000) (15, 1.50671228483209460000e+000) (16, -3.50070055785434730000e+000) (17, 2.40538310784603440000e+000) (18, 1.40013245995042520000e+000) (19, -2.61699483965328490000e-001) (20, -6.35220908624034910000e-001) (21, 2.55728564734718890000e-001) (22, 1.87154867849165710000e+000) (23, 2.26785478235097270000e+000) (24, 8.41421508077974810000e-002) (25, 3.18148990636657080000e-001) (26, 5.69851218955614970000e-001) (27, 2.75304561564748250000e+000) (28, -2.23167900332528560000e-001) (29, 4.07658726022683940000e-001) 
