FANN_FLO_2.1
num_layers=3
learning_rate=0.700000
connection_rate=1.000000
network_type=0
learning_momentum=0.000000
training_algorithm=2
train_error_function=1
train_stop_function=0
cascade_output_change_fraction=0.010000
quickprop_decay=-0.000100
quickprop_mu=1.750000
rprop_increase_factor=1.200000
rprop_decrease_factor=0.500000
rprop_delta_min=0.000000
rprop_delta_max=50.000000
rprop_delta_zero=0.100000
cascade_output_stagnation_epochs=12
cascade_candidate_change_fraction=0.010000
cascade_candidate_stagnation_epochs=12
cascade_max_out_epochs=150
cascade_max_cand_epochs=150
cascade_num_candidate_groups=2
bit_fail_limit=3.49999999999999980000e-001
cascade_candidate_limit=1.00000000000000000000e+003
cascade_weight_multiplier=4.00000000000000020000e-001
cascade_activation_functions_count=10
cascade_activation_functions=3 5 7 8 10 11 14 15 16 17 
cascade_activation_steepnesses_count=4
cascade_activation_steepnesses=2.50000000000000000000e-001 5.00000000000000000000e-001 7.50000000000000000000e-001 1.00000000000000000000e+000 
layer_sizes=9 501 6 
scale_included=0
neurons (num_inputs, activation_function, activation_steepness)=(0, 0, 0.00000000000000000000e+000) (0, 0, 0.00000000000000000000e+000) (0, 0, 0.00000000000000000000e+000) (0, 0, 0.00000000000000000000e+000) (0, 0, 0.00000000000000000000e+000) (0, 0, 0.00000000000000000000e+000) (0, 0, 0.00000000000000000000e+000) (0, 0, 0.00000000000000000000e+000) (0, 0, 0.00000000000000000000e+000) (9, 6, 5.00000000000000000000e-001) (9, 6, 5.00000000000000000000e-001) (9, 6, 5.00000000000000000000e-001) (9, 6, 5.00000000000000000000e-001) (9, 6, 5.00000000000000000000e-001) (9, 6, 5.00000000000000000000e-001) (9, 6, 5.00000000000000000000e-001) (9, 6, 5.00000000000000000000e-001) (9, 6, 5.00000000000000000000e-001) (9, 6, 5.00000000000000000000e-001) (9, 6, 5.00000000000000000000e-001) (9, 6, 5.00000000000000000000e-001) (9, 6, 5.00000000000000000000e-001) (9, 6, 5.00000000000000000000e-001) (9, 6, 5.00000000000000000000e-001) (9, 6, 5.00000000000000000000e-001) (9, 6, 5.00000000000000000000e-001) (9, 6, 5.00000000000000000000e-001) (9, 6, 5.00000000000000000000e-001) (9, 6, 5.00000000000000000000e-001) (9, 6, 5.00000000000000000000e-001) (9, 6, 5.00000000000000000000e-001) (9, 6, 5.00000000000000000000e-001) (9, 6, 5.00000000000000000000e-001) (9, 6, 5.00000000000000000000e-001) (9, 6, 5.00000000000000000000e-001) (9, 6, 5.00000000000000000000e-001) (9, 6, 5.00000000000000000000e-001) (9, 6, 5.00000000000000000000e-001) (9, 6, 5.00000000000000000000e-001) (9, 6, 5.00000000000000000000e-001) (9, 6, 5.00000000000000000000e-001) (9, 6, 5.00000000000000000000e-001) (9, 6, 5.00000000000000000000e-001) (9, 6, 5.00000000000000000000e-001) (9, 6, 5.00000000000000000000e-001) (9, 6, 5.00000000000000000000e-001) (9, 6, 5.00000000000000000000e-001) (9, 6, 5.00000000000000000000e-001) (9, 6, 5.00000000000000000000e-001) (9, 6, 5.00000000000000000000e-001) (9, 6, 5.00000000000000000000e-001) (9, 6, 5.00000000000000000000e-001) (9, 6, 5.00000000000000000000e-001) (9, 6, 5.00000000000000000000e-001) (9, 6, 5.00000000000000000000e-001) (9, 6, 5.00000000000000000000e-001) (9, 6, 5.00000000000000000000e-001) (9, 6, 5.00000000000000000000e-001) (9, 6, 5.00000000000000000000e-001) (9, 6, 5.00000000000000000000e-001) (9, 6, 5.00000000000000000000e-001) (9, 6, 5.00000000000000000000e-001) (9, 6, 5.00000000000000000000e-001) (9, 6, 5.00000000000000000000e-001) (9, 6, 5.00000000000000000000e-001) (9, 6, 5.00000000000000000000e-001) (9, 6, 5.00000000000000000000e-001) (9, 6, 5.00000000000000000000e-001) (9, 6, 5.00000000000000000000e-001) (9, 6, 5.00000000000000000000e-001) (9, 6, 5.00000000000000000000e-001) (9, 6, 5.00000000000000000000e-001) (9, 6, 5.00000000000000000000e-001) (9, 6, 5.00000000000000000000e-001) (9, 6, 5.00000000000000000000e-001) (9, 6, 5.00000000000000000000e-001) (9, 6, 5.00000000000000000000e-001) (9, 6, 5.00000000000000000000e-001) (9, 6, 5.00000000000000000000e-001) (9, 6, 5.00000000000000000000e-001) (9, 6, 5.00000000000000000000e-001) (9, 6, 5.00000000000000000000e-001) (9, 6, 5.00000000000000000000e-001) (9, 6, 5.00000000000000000000e-001) (9, 6, 5.00000000000000000000e-001) (9, 6, 5.00000000000000000000e-001) (9, 6, 5.00000000000000000000e-001) (9, 6, 5.00000000000000000000e-001) (9, 6, 5.00000000000000000000e-001) (9, 6, 5.00000000000000000000e-001) (9, 6, 5.00000000000000000000e-001) (9, 6, 5.00000000000000000000e-001) (9, 6, 5.00000000000000000000e-001) (9, 6, 5.00000000000000000000e-001) (9, 6, 5.00000000000000000000e-001) (9, 6, 5.00000000000000000000e-001) (9, 6, 5.00000000000000000000e-001) (9, 6, 5.00000000000000000000e-001) (9, 6, 5.00000000000000000000e-001) (9, 6, 5.00000000000000000000e-001) (9, 6, 5.00000000000000000000e-001) (9, 6, 5.00000000000000000000e-001) (9, 6, 5.00000000000000000000e-001) (9, 6, 5.00000000000000000000e-001) (9, 6, 5.00000000000000000000e-001) (9, 6, 5.00000000000000000000e-001) (9, 6, 5.00000000000000000000e-001) (9, 6, 5.00000000000000000000e-001) (9, 6, 5.00000000000000000000e-001) (9, 6, 5.00000000000000000000e-001) (9, 6, 5.00000000000000000000e-001) (9, 6, 5.00000000000000000000e-001) (9, 6, 5.00000000000000000000e-001) (9, 6, 5.00000000000000000000e-001) (9, 6, 5.00000000000000000000e-001) (9, 6, 5.00000000000000000000e-001) (9, 6, 5.00000000000000000000e-001) (9, 6, 5.00000000000000000000e-001) (9, 6, 5.00000000000000000000e-001) (9, 6, 5.00000000000000000000e-001) (9, 6, 5.00000000000000000000e-001) (9, 6, 5.00000000000000000000e-001) (9, 6, 5.00000000000000000000e-001) (9, 6, 5.00000000000000000000e-001) (9, 6, 5.00000000000000000000e-001) (9, 6, 5.00000000000000000000e-001) (9, 6, 5.00000000000000000000e-001) (9, 6, 5.00000000000000000000e-001) (9, 6, 5.00000000000000000000e-001) (9, 6, 5.00000000000000000000e-001) (9, 6, 5.00000000000000000000e-001) (9, 6, 5.00000000000000000000e-001) (9, 6, 5.00000000000000000000e-001) (9, 6, 5.00000000000000000000e-001) (9, 6, 5.00000000000000000000e-001) (9, 6, 5.00000000000000000000e-001) (9, 6, 5.00000000000000000000e-001) (9, 6, 5.00000000000000000000e-001) (9, 6, 5.00000000000000000000e-001) (9, 6, 5.00000000000000000000e-001) (9, 6, 5.00000000000000000000e-001) (9, 6, 5.00000000000000000000e-001) (9, 6, 5.00000000000000000000e-001) (9, 6, 5.00000000000000000000e-001) (9, 6, 5.00000000000000000000e-001) (9, 6, 5.00000000000000000000e-001) (9, 6, 5.00000000000000000000e-001) (9, 6, 5.00000000000000000000e-001) (9, 6, 5.00000000000000000000e-001) (9, 6, 5.00000000000000000000e-001) (9, 6, 5.00000000000000000000e-001) (9, 6, 5.00000000000000000000e-001) (9, 6, 5.00000000000000000000e-001) (9, 6, 5.00000000000000000000e-001) (9, 6, 5.00000000000000000000e-001) (9, 6, 5.00000000000000000000e-001) (9, 6, 5.00000000000000000000e-001) (9, 6, 5.00000000000000000000e-001) (9, 6, 5.00000000000000000000e-001) (9, 6, 5.00000000000000000000e-001) (9, 6, 5.00000000000000000000e-001) (9, 6, 5.00000000000000000000e-001) (9, 6, 5.00000000000000000000e-001) (9, 6, 5.00000000000000000000e-001) (9, 6, 5.00000000000000000000e-001) (9, 6, 5.00000000000000000000e-001) (9, 6, 5.00000000000000000000e-001) (9, 6, 5.00000000000000000000e-001) (9, 6, 5.00000000000000000000e-001) (9, 6, 5.00000000000000000000e-001) (9, 6, 5.00000000000000000000e-001) (9, 6, 5.00000000000000000000e-001) (9, 6, 5.00000000000000000000e-001) (9, 6, 5.00000000000000000000e-001) (9, 6, 5.00000000000000000000e-001) (9, 6, 5.00000000000000000000e-001) (9, 6, 5.00000000000000000000e-001) (9, 6, 5.00000000000000000000e-001) (9, 6, 5.00000000000000000000e-001) (9, 6, 5.00000000000000000000e-001) (9, 6, 5.00000000000000000000e-001) (9, 6, 5.00000000000000000000e-001) (9, 6, 5.00000000000000000000e-001) (9, 6, 5.00000000000000000000e-001) (9, 6, 5.00000000000000000000e-001) (9, 6, 5.00000000000000000000e-001) (9, 6, 5.00000000000000000000e-001) (9, 6, 5.00000000000000000000e-001) (9, 6, 5.00000000000000000000e-001) (9, 6, 5.00000000000000000000e-001) (9, 6, 5.00000000000000000000e-001) (9, 6, 5.00000000000000000000e-001) (9, 6, 5.00000000000000000000e-001) (9, 6, 5.00000000000000000000e-001) (9, 6, 5.00000000000000000000e-001) (9, 6, 5.00000000000000000000e-001) (9, 6, 5.00000000000000000000e-001) (9, 6, 5.00000000000000000000e-001) (9, 6, 5.00000000000000000000e-001) (9, 6, 5.00000000000000000000e-001) (9, 6, 5.00000000000000000000e-001) (9, 6, 5.00000000000000000000e-001) (9, 6, 5.00000000000000000000e-001) (9, 6, 5.00000000000000000000e-001) (9, 6, 5.00000000000000000000e-001) (9, 6, 5.00000000000000000000e-001) (9, 6, 5.00000000000000000000e-001) (9, 6, 5.00000000000000000000e-001) (9, 6, 5.00000000000000000000e-001) (9, 6, 5.00000000000000000000e-001) (9, 6, 5.00000000000000000000e-001) (9, 6, 5.00000000000000000000e-001) (9, 6, 5.00000000000000000000e-001) (9, 6, 5.00000000000000000000e-001) (9, 6, 5.00000000000000000000e-001) (9, 6, 5.00000000000000000000e-001) (9, 6, 5.00000000000000000000e-001) (9, 6, 5.00000000000000000000e-001) (9, 6, 5.00000000000000000000e-001) (9, 6, 5.00000000000000000000e-001) (9, 6, 5.00000000000000000000e-001) (9, 6, 5.00000000000000000000e-001) (9, 6, 5.00000000000000000000e-001) (9, 6, 5.00000000000000000000e-001) (9, 6, 5.00000000000000000000e-001) (9, 6, 5.00000000000000000000e-001) (9, 6, 5.00000000000000000000e-001) (9, 6, 5.00000000000000000000e-001) (9, 6, 5.00000000000000000000e-001) (9, 6, 5.00000000000000000000e-001) (9, 6, 5.00000000000000000000e-001) (9, 6, 5.00000000000000000000e-001) (9, 6, 5.00000000000000000000e-001) (9, 6, 5.00000000000000000000e-001) (9, 6, 5.00000000000000000000e-001) (9, 6, 5.00000000000000000000e-001) (9, 6, 5.00000000000000000000e-001) (9, 6, 5.00000000000000000000e-001) (9, 6, 5.00000000000000000000e-001) (9, 6, 5.00000000000000000000e-001) (9, 6, 5.00000000000000000000e-001) (9, 6, 5.00000000000000000000e-001) (9, 6, 5.00000000000000000000e-001) (9, 6, 5.00000000000000000000e-001) (9, 6, 5.00000000000000000000e-001) (9, 6, 5.00000000000000000000e-001) (9, 6, 5.00000000000000000000e-001) (9, 6, 5.00000000000000000000e-001) (9, 6, 5.00000000000000000000e-001) (9, 6, 5.00000000000000000000e-001) (9, 6, 5.00000000000000000000e-001) (9, 6, 5.00000000000000000000e-001) (9, 6, 5.00000000000000000000e-001) (9, 6, 5.00000000000000000000e-001) (9, 6, 5.00000000000000000000e-001) (9, 6, 5.00000000000000000000e-001) (9, 6, 5.00000000000000000000e-001) (9, 6, 5.00000000000000000000e-001) (9, 6, 5.00000000000000000000e-001) (9, 6, 5.00000000000000000000e-001) (9, 6, 5.00000000000000000000e-001) (9, 6, 5.00000000000000000000e-001) (9, 6, 5.00000000000000000000e-001) (9, 6, 5.00000000000000000000e-001) (9, 6, 5.00000000000000000000e-001) (9, 6, 5.00000000000000000000e-001) (9, 6, 5.00000000000000000000e-001) (9, 6, 5.00000000000000000000e-001) (9, 6, 5.00000000000000000000e-001) (9, 6, 5.00000000000000000000e-001) (9, 6, 5.00000000000000000000e-001) (9, 6, 5.00000000000000000000e-001) (9, 6, 5.00000000000000000000e-001) (9, 6, 5.00000000000000000000e-001) (9, 6, 5.00000000000000000000e-001) (9, 6, 5.00000000000000000000e-001) (9, 6, 5.00000000000000000000e-001) (9, 6, 5.00000000000000000000e-001) (9, 6, 5.00000000000000000000e-001) (9, 6, 5.00000000000000000000e-001) (9, 6, 5.00000000000000000000e-001) (9, 6, 5.00000000000000000000e-001) (9, 6, 5.00000000000000000000e-001) (9, 6, 5.00000000000000000000e-001) (9, 6, 5.00000000000000000000e-001) (9, 6, 5.00000000000000000000e-001) (9, 6, 5.00000000000000000000e-001) (9, 6, 5.00000000000000000000e-001) (9, 6, 5.00000000000000000000e-001) (9, 6, 5.00000000000000000000e-001) (9, 6, 5.00000000000000000000e-001) (9, 6, 5.00000000000000000000e-001) (9, 6, 5.00000000000000000000e-001) (9, 6, 5.00000000000000000000e-001) (9, 6, 5.00000000000000000000e-001) (9, 6, 5.00000000000000000000e-001) (9, 6, 5.00000000000000000000e-001) (9, 6, 5.00000000000000000000e-001) (9, 6, 5.00000000000000000000e-001) (9, 6, 5.00000000000000000000e-001) (9, 6, 5.00000000000000000000e-001) (9, 6, 5.00000000000000000000e-001) (9, 6, 5.00000000000000000000e-001) (9, 6, 5.00000000000000000000e-001) (9, 6, 5.00000000000000000000e-001) (9, 6, 5.00000000000000000000e-001) (9, 6, 5.00000000000000000000e-001) (9, 6, 5.00000000000000000000e-001) (9, 6, 5.00000000000000000000e-001) (9, 6, 5.00000000000000000000e-001) (9, 6, 5.00000000000000000000e-001) (9, 6, 5.00000000000000000000e-001) (9, 6, 5.00000000000000000000e-001) (9, 6, 5.00000000000000000000e-001) (9, 6, 5.00000000000000000000e-001) (9, 6, 5.00000000000000000000e-001) (9, 6, 5.00000000000000000000e-001) (9, 6, 5.00000000000000000000e-001) (9, 6, 5.00000000000000000000e-001) (9, 6, 5.00000000000000000000e-001) (9, 6, 5.00000000000000000000e-001) (9, 6, 5.00000000000000000000e-001) (9, 6, 5.00000000000000000000e-001) (9, 6, 5.00000000000000000000e-001) (9, 6, 5.00000000000000000000e-001) (9, 6, 5.00000000000000000000e-001) (9, 6, 5.00000000000000000000e-001) (9, 6, 5.00000000000000000000e-001) (9, 6, 5.00000000000000000000e-001) (9, 6, 5.00000000000000000000e-001) (9, 6, 5.00000000000000000000e-001) (9, 6, 5.00000000000000000000e-001) (9, 6, 5.00000000000000000000e-001) (9, 6, 5.00000000000000000000e-001) (9, 6, 5.00000000000000000000e-001) (9, 6, 5.00000000000000000000e-001) (9, 6, 5.00000000000000000000e-001) (9, 6, 5.00000000000000000000e-001) (9, 6, 5.00000000000000000000e-001) (9, 6, 5.00000000000000000000e-001) (9, 6, 5.00000000000000000000e-001) (9, 6, 5.00000000000000000000e-001) (9, 6, 5.00000000000000000000e-001) (9, 6, 5.00000000000000000000e-001) (9, 6, 5.00000000000000000000e-001) (9, 6, 5.00000000000000000000e-001) (9, 6, 5.00000000000000000000e-001) (9, 6, 5.00000000000000000000e-001) (9, 6, 5.00000000000000000000e-001) (9, 6, 5.00000000000000000000e-001) (9, 6, 5.00000000000000000000e-001) (9, 6, 5.00000000000000000000e-001) (9, 6, 5.00000000000000000000e-001) (9, 6, 5.00000000000000000000e-001) (9, 6, 5.00000000000000000000e-001) (9, 6, 5.00000000000000000000e-001) (9, 6, 5.00000000000000000000e-001) (9, 6, 5.00000000000000000000e-001) (9, 6, 5.00000000000000000000e-001) (9, 6, 5.00000000000000000000e-001) (9, 6, 5.00000000000000000000e-001) (9, 6, 5.00000000000000000000e-001) (9, 6, 5.00000000000000000000e-001) (9, 6, 5.00000000000000000000e-001) (9, 6, 5.00000000000000000000e-001) (9, 6, 5.00000000000000000000e-001) (9, 6, 5.00000000000000000000e-001) (9, 6, 5.00000000000000000000e-001) (9, 6, 5.00000000000000000000e-001) (9, 6, 5.00000000000000000000e-001) (9, 6, 5.00000000000000000000e-001) (9, 6, 5.00000000000000000000e-001) (9, 6, 5.00000000000000000000e-001) (9, 6, 5.00000000000000000000e-001) (9, 6, 5.00000000000000000000e-001) (9, 6, 5.00000000000000000000e-001) (9, 6, 5.00000000000000000000e-001) (9, 6, 5.00000000000000000000e-001) (9, 6, 5.00000000000000000000e-001) (9, 6, 5.00000000000000000000e-001) (9, 6, 5.00000000000000000000e-001) (9, 6, 5.00000000000000000000e-001) (9, 6, 5.00000000000000000000e-001) (9, 6, 5.00000000000000000000e-001) (9, 6, 5.00000000000000000000e-001) (9, 6, 5.00000000000000000000e-001) (9, 6, 5.00000000000000000000e-001) (9, 6, 5.00000000000000000000e-001) (9, 6, 5.00000000000000000000e-001) (9, 6, 5.00000000000000000000e-001) (9, 6, 5.00000000000000000000e-001) (9, 6, 5.00000000000000000000e-001) (9, 6, 5.00000000000000000000e-001) (9, 6, 5.00000000000000000000e-001) (9, 6, 5.00000000000000000000e-001) (9, 6, 5.00000000000000000000e-001) (9, 6, 5.00000000000000000000e-001) (9, 6, 5.00000000000000000000e-001) (9, 6, 5.00000000000000000000e-001) (9, 6, 5.00000000000000000000e-001) (9, 6, 5.00000000000000000000e-001) (9, 6, 5.00000000000000000000e-001) (9, 6, 5.00000000000000000000e-001) (9, 6, 5.00000000000000000000e-001) (9, 6, 5.00000000000000000000e-001) (9, 6, 5.00000000000000000000e-001) (9, 6, 5.00000000000000000000e-001) (9, 6, 5.00000000000000000000e-001) (9, 6, 5.00000000000000000000e-001) (9, 6, 5.00000000000000000000e-001) (9, 6, 5.00000000000000000000e-001) (9, 6, 5.00000000000000000000e-001) (9, 6, 5.00000000000000000000e-001) (9, 6, 5.00000000000000000000e-001) (9, 6, 5.00000000000000000000e-001) (9, 6, 5.00000000000000000000e-001) (9, 6, 5.00000000000000000000e-001) (9, 6, 5.00000000000000000000e-001) (9, 6, 5.00000000000000000000e-001) (9, 6, 5.00000000000000000000e-001) (9, 6, 5.00000000000000000000e-001) (9, 6, 5.00000000000000000000e-001) (9, 6, 5.00000000000000000000e-001) (9, 6, 5.00000000000000000000e-001) (9, 6, 5.00000000000000000000e-001) (9, 6, 5.00000000000000000000e-001) (9, 6, 5.00000000000000000000e-001) (9, 6, 5.00000000000000000000e-001) (9, 6, 5.00000000000000000000e-001) (9, 6, 5.00000000000000000000e-001) (9, 6, 5.00000000000000000000e-001) (9, 6, 5.00000000000000000000e-001) (9, 6, 5.00000000000000000000e-001) (9, 6, 5.00000000000000000000e-001) (9, 6, 5.00000000000000000000e-001) (9, 6, 5.00000000000000000000e-001) (9, 6, 5.00000000000000000000e-001) (9, 6, 5.00000000000000000000e-001) (9, 6, 5.00000000000000000000e-001) (9, 6, 5.00000000000000000000e-001) (9, 6, 5.00000000000000000000e-001) (9, 6, 5.00000000000000000000e-001) (9, 6, 5.00000000000000000000e-001) (9, 6, 5.00000000000000000000e-001) (9, 6, 5.00000000000000000000e-001) (9, 6, 5.00000000000000000000e-001) (9, 6, 5.00000000000000000000e-001) (9, 6, 5.00000000000000000000e-001) (9, 6, 5.00000000000000000000e-001) (9, 6, 5.00000000000000000000e-001) (9, 6, 5.00000000000000000000e-001) (9, 6, 5.00000000000000000000e-001) (9, 6, 5.00000000000000000000e-001) (9, 6, 5.00000000000000000000e-001) (9, 6, 5.00000000000000000000e-001) (9, 6, 5.00000000000000000000e-001) (9, 6, 5.00000000000000000000e-001) (9, 6, 5.00000000000000000000e-001) (9, 6, 5.00000000000000000000e-001) (9, 6, 5.00000000000000000000e-001) (9, 6, 5.00000000000000000000e-001) (9, 6, 5.00000000000000000000e-001) (9, 6, 5.00000000000000000000e-001) (9, 6, 5.00000000000000000000e-001) (9, 6, 5.00000000000000000000e-001) (9, 6, 5.00000000000000000000e-001) (9, 6, 5.00000000000000000000e-001) (9, 6, 5.00000000000000000000e-001) (9, 6, 5.00000000000000000000e-001) (9, 6, 5.00000000000000000000e-001) (9, 6, 5.00000000000000000000e-001) (9, 6, 5.00000000000000000000e-001) (9, 6, 5.00000000000000000000e-001) (9, 6, 5.00000000000000000000e-001) (9, 6, 5.00000000000000000000e-001) (9, 6, 5.00000000000000000000e-001) (9, 6, 5.00000000000000000000e-001) (9, 6, 5.00000000000000000000e-001) (9, 6, 5.00000000000000000000e-001) (9, 6, 5.00000000000000000000e-001) (9, 6, 5.00000000000000000000e-001) (9, 6, 5.00000000000000000000e-001) (9, 6, 5.00000000000000000000e-001) (9, 6, 5.00000000000000000000e-001) (9, 6, 5.00000000000000000000e-001) (9, 6, 5.00000000000000000000e-001) (9, 6, 5.00000000000000000000e-001) (9, 6, 5.00000000000000000000e-001) (9, 6, 5.00000000000000000000e-001) (9, 6, 5.00000000000000000000e-001) (9, 6, 5.00000000000000000000e-001) (9, 6, 5.00000000000000000000e-001) (9, 6, 5.00000000000000000000e-001) (9, 6, 5.00000000000000000000e-001) (9, 6, 5.00000000000000000000e-001) (9, 6, 5.00000000000000000000e-001) (9, 6, 5.00000000000000000000e-001) (9, 6, 5.00000000000000000000e-001) (9, 6, 5.00000000000000000000e-001) (9, 6, 5.00000000000000000000e-001) (9, 6, 5.00000000000000000000e-001) (9, 6, 5.00000000000000000000e-001) (9, 6, 5.00000000000000000000e-001) (9, 6, 5.00000000000000000000e-001) (9, 6, 5.00000000000000000000e-001) (9, 6, 5.00000000000000000000e-001) (9, 6, 5.00000000000000000000e-001) (9, 6, 5.00000000000000000000e-001) (9, 6, 5.00000000000000000000e-001) (0, 6, 0.00000000000000000000e+000) (501, 6, 5.00000000000000000000e-001) (501, 6, 5.00000000000000000000e-001) (501, 6, 5.00000000000000000000e-001) (501, 6, 5.00000000000000000000e-001) (501, 6, 5.00000000000000000000e-001) (0, 6, 0.00000000000000000000e+000) 
connections (connected_to_neuron, weight)=(0, -3.49815204600365750000e-001) (1, 6.48725291463549180000e-001) (2, -2.99782623165725790000e-001) (3, -2.43909044106492700000e-001) (4, -2.74118131512512580000e-001) (5, -2.39124388160812520000e-001) (6, 4.77268663400401310000e-001) (7, -3.29856098834032880000e-001) (8, -3.71415898447186810000e-001) (0, 6.16829282405403130000e-001) (1, 1.82384830712402610000e-001) (2, 7.45319351837109980000e-002) (3, 4.98809004549219060000e-001) (4, 1.47706957500199550000e-001) (5, 1.29257562595448820000e-001) (6, 1.00946105180528350000e-001) (7, 6.61521603258074410000e-001) (8, 1.72720353342513950000e-001) (0, 5.63333586535601170000e-001) (1, 1.80316480257868950000e+000) (2, 4.51750449725768370000e+000) (3, 9.39841551292197490000e-001) (4, 1.65187222261483240000e+000) (5, 2.13623204553522280000e+000) (6, 6.19748443617401780000e-001) (7, 9.67008353492407990000e-001) (8, 1.00572555004924120000e+000) (0, 4.91722461500655960000e-001) (1, 5.55695156474788950000e-001) (2, 5.49690160604737740000e-001) (3, 1.42614772321391470000e-001) (4, 4.68673607358505940000e-001) (5, 3.90538248464819880000e-001) (6, 4.34672205030970980000e-001) (7, 2.63310016052727640000e-001) (8, 4.07569701466334760000e-001) (0, -3.33350153776331200000e-001) (1, -3.82369696526216440000e-001) (2, -2.63729064944750510000e-001) (3, -2.19171541691452530000e-001) (4, -2.67275285734907050000e-001) (5, -3.14790366645481430000e-001) (6, -3.46568357680737520000e-001) (7, -2.84345507583201760000e-001) (8, -2.38461373047688720000e-001) (0, 5.73937101004957540000e-001) (1, 6.10542536066884240000e-001) (2, 4.42147051950539660000e-001) (3, 7.64563334099405580000e-001) (4, 7.72063966853054230000e-001) (5, 1.09117053093848200000e+000) (6, 7.75833401444464000000e-001) (7, 1.19506924542400110000e+000) (8, 5.64893563135455130000e-001) (0, 6.11101887165566240000e-001) (1, 7.45043485187365520000e-001) (2, 6.73901187956481680000e-001) (3, 8.41562116054849870000e-001) (4, 7.24805687877667860000e-001) (5, -6.72383289529479900000e-001) (6, 6.09244994751375950000e-001) (7, 1.46301017780798560000e+000) (8, 5.14213439897857840000e-001) (0, 6.70334706145946590000e-001) (1, 1.53715574919460330000e-001) (2, 3.95623434798853740000e-002) (3, 1.12931627778336440000e-001) (4, 1.89649653964378160000e-001) (5, 2.32020653798948800000e-003) (6, 5.65076395975671990000e-003) (7, 1.27495253732772930000e-001) (8, 8.54567414018157920000e-002) (0, 4.36434856248575420000e-001) (1, 5.24053166399470820000e-002) (2, 9.08786421711485770000e-002) (3, 3.72884199688011500000e-003) (4, 1.51094122752029130000e-001) (5, 1.85837194506036250000e-001) (6, 8.03456968770048800000e-002) (7, 1.29083691691987080000e-001) (8, 1.45928164571814100000e-001) (0, 5.31920527542811160000e-001) (1, 6.03222652201633290000e-001) (2, 1.15385490608020240000e+000) (3, 1.34829072215760040000e+000) (4, 1.34235696206852920000e+000) (5, 6.73441704965481500000e-001) (6, 6.33092917277731760000e-001) (7, 6.86952631110415270000e-001) (8, 1.18984786995029880000e+000) (0, 5.71363730775517940000e-001) (1, 2.46707905000134420000e-002) (2, 1.08290877392222180000e-001) (3, 6.00693869927863670000e-001) (4, 1.46097157068488360000e-001) (5, 5.26040844172809340000e-002) (6, 2.66394167779744930000e-002) (7, 4.78459282915454140000e-001) (8, 1.44144376477066490000e-001) (0, 6.72797831093732920000e-001) (1, 4.81853314940652590000e-001) (2, 5.74923491451539980000e-001) (3, 6.58866759324459040000e-001) (4, 7.01615582616995750000e-001) (5, 7.66861492313073880000e-001) (6, 6.54802281678982580000e-001) (7, 5.31286799747828000000e-001) (8, 9.66794373129991610000e-001) (0, 3.67363876608567510000e-001) (1, 3.59392037064581340000e-001) (2, 1.61600788499391830000e-001) (3, 1.43867819959573840000e-001) (4, 2.13843281484969310000e-001) (5, 4.03079710374195990000e-001) (6, 3.21334511544395240000e-001) (7, 2.26934308437206370000e+000) (8, 4.57474995489987880000e-001) (0, 1.05655502909948630000e+000) (1, 1.66768347588544590000e-001) (2, 1.96931791890699450000e-001) (3, 3.39197480093185800000e-002) (4, 1.83299452098972800000e-001) (5, 1.47749712222898540000e-001) (6, 2.14751316527280740000e-001) (7, 2.57617511626613280000e-001) (8, 9.24514424290289400000e-001) (0, 6.21479301241151800000e-001) (1, 8.90420800992741010000e-001) (2, 7.44546425688157100000e-001) (3, 6.83532532683853610000e-001) (4, 7.64878906922263570000e-001) (5, 7.90644002797720620000e-001) (6, 8.81497861657974950000e-001) (7, 1.21112989445151300000e+000) (8, 1.10163559532939700000e+000) (0, 1.61439610547657130000e-001) (1, 2.52170232361360440000e-001) (2, 1.56322496145527230000e-001) (3, 6.62214041802787620000e-002) (4, 1.13735094951499370000e-001) (5, 1.99305831900336100000e-001) (6, 4.89100507835739450000e-002) (7, 1.47370102850624990000e-001) (8, 1.89259234200175180000e-001) (0, 2.72586815824634950000e-001) (1, -4.14349034265035910000e-003) (2, 1.33866550305428660000e-001) (3, 4.62617621137526190000e-001) (4, 4.93621663292550040000e-002) (5, 3.93724316010871710000e-001) (6, 7.28702372959614820000e-002) (7, 5.28861247099864040000e-001) (8, 1.24151765413259920000e-001) (0, 3.12328504587676410000e-001) (1, 1.35577368189458040000e-001) (2, 2.33461580891751670000e-001) (3, 1.21314090682412400000e-001) (4, 1.90956523306596600000e-001) (5, 1.44335373563277080000e-001) (6, 1.42671921153969460000e-001) (7, 2.31379540200578850000e-001) (8, 1.70392941962770360000e-001) (0, 4.67777099591057010000e-001) (1, 7.75334145474215150000e+001) (2, 2.01003114221477580000e+001) (3, -5.23947208991598710000e+001) (4, -6.70581747823643180000e+001) (5, 3.44224448403754830000e+001) (6, 1.25590510845553550000e+000) (7, 4.03583565818698200000e+001) (8, 8.30365218512849830000e-001) (0, -4.29067766577919010000e-001) (1, 5.61167397067933620000e-001) (2, 4.98803468944052140000e-001) (3, -2.91950086423285520000e-001) (4, 1.33286169390509580000e-001) (5, -2.24055382919228330000e-001) (6, 4.23139056079760490000e-001) (7, -3.26348714875774830000e-001) (8, -3.14366651071991190000e-001) (0, -3.17649031392262470000e-001) (1, 3.81498928878961470000e-001) (2, -2.88951852032548310000e-001) (3, -3.44406020307115150000e-001) (4, -3.69189736061277140000e-001) (5, -3.11644720368063450000e-001) (6, -3.09499141900135060000e-001) (7, -2.51666482303035900000e-001) (8, -3.24467436633404050000e-001) (0, 5.48776324720442020000e-001) (1, 6.13766609984867650000e-001) (2, 5.68916522048593110000e-001) (3, 8.72078907181342070000e-001) (4, 5.87590158203740610000e-001) (5, 1.03459792503728960000e+000) (6, 5.22935930974090080000e-001) (7, 1.19712947775930290000e+000) (8, 5.54767082778355290000e-001) (0, 4.84458871227733840000e-001) (1, 2.15244787253979820000e+000) (2, -5.73482388747922460000e-001) (3, 1.13959922773416040000e+000) (4, -1.59670002218749050000e+000) (5, 4.38415831626514760000e+000) (6, -4.51252944600689430000e+000) (7, 8.59703366183872400000e+000) (8, 2.27717283476705970000e-001) (0, 5.51680919834781400000e-001) (1, 5.43131107349089870000e-001) (2, 3.41606292393292710000e-001) (3, 6.22327134675182860000e-001) (4, 5.48955559236354750000e-001) (5, 6.10933175686936500000e-001) (6, 4.67548288072040240000e-001) (7, 6.07563869601619230000e-001) (8, 4.85653849700792340000e-001) (0, -3.99451551099699650000e-001) (1, 2.76185555834093380000e-001) (2, -2.29643996869022370000e-001) (3, -8.13699512914161090000e-002) (4, 2.27262969319125400000e-001) (5, 5.55390957356687860000e-002) (6, -8.64394027939206080000e-002) (7, -1.85031077180467910000e-001) (8, -1.62572078374778110000e-001) (0, 6.70724027056590400000e-001) (1, 7.75122950588900130000e-001) (2, 7.22203141510524890000e-001) (3, 6.35751837709647380000e-001) (4, 6.22181935008943370000e-001) (5, 2.01844304202273770000e+000) (6, 8.49637726268726470000e-001) (7, 6.24117775071442500000e-001) (8, 1.05494678100838590000e+000) (0, 5.32666242001741400000e-001) (1, 1.16246807716367490000e-001) (2, 5.51463122951783920000e-002) (3, 4.48770474662887660000e-001) (4, 1.45611217640015920000e-001) (5, 1.18650969617750870000e-001) (6, 4.07223157631216100000e-002) (7, 5.58925595054356240000e-001) (8, 1.03187004268227900000e-001) (0, -6.85911920983995230000e-001) (1, 5.01434883906346050000e-001) (2, -2.79339060442563460000e-001) (3, -2.20155524590730480000e-001) (4, -2.61838606597663230000e-001) (5, -9.39665731309101420000e-002) (6, 5.78426344064873030000e-001) (7, -7.71126555558962480000e-002) (8, -2.77085078732683290000e-001) (0, -2.58315774757515270000e-001) (1, -2.31814989567339700000e-001) (2, -1.52135985672785880000e-001) (3, -1.07133357629531550000e-001) (4, -9.74150534271246980000e-002) (5, -4.60539690660202450000e-002) (6, -2.12851116876743600000e-001) (7, -1.42640097553657950000e-001) (8, -2.35646754007547120000e-001) (0, 5.61608637923528890000e-001) (1, 3.82677456978182780000e-001) (2, 9.21680115103305160000e-001) (3, 7.79592272781467140000e-001) (4, 7.23964965263760970000e-001) (5, 9.34532461024672470000e-001) (6, 7.84253863847961700000e-001) (7, 9.26164766689917430000e-001) (8, -2.22453321456010270000e-001) (0, -3.06452511439250170000e-001) (1, -3.55079073507697740000e-001) (2, -3.60210331663569580000e-001) (3, -2.54849355705058070000e-001) (4, -3.56656174211117010000e-001) (5, -2.81117457692860280000e-001) (6, -3.32164931826770590000e-001) (7, -2.79782727609059810000e-001) (8, -3.40351988280552190000e-001) (0, 1.13975111319837370000e-001) (1, 2.79080866761770240000e-001) (2, 8.19506715458784700000e-002) (3, -3.83256340950032530000e-001) (4, 3.49824706580220020000e-001) (5, 1.79292622007395290000e+000) (6, 6.38626625504889740000e-002) (7, 3.78907267745482580000e-002) (8, 1.32090238095518090000e-001) (0, 1.11365248722045220000e-001) (1, 4.59699201709949380000e-002) (2, 5.26318886654640110000e-001) (3, 1.78005179208854090000e-001) (4, -1.66907355304067060000e-001) (5, 6.05513387772002480000e-001) (6, 2.69113836288312790000e-002) (7, 2.97460325945577250000e-001) (8, 4.60279115115644340000e-003) (0, 2.91566409924816190000e-001) (1, 4.44665114593635670000e-001) (2, 2.76139851167219510000e-001) (3, -1.37119191886647700000e-001) (4, 3.44520648216392830000e-001) (5, 5.56342258513690010000e-001) (6, 2.19532061927337290000e-001) (7, 3.31869218024954000000e-001) (8, 5.22078212336196000000e-001) (0, 9.60653509115402510000e-004) (1, 2.62226377004769860000e-001) (2, 2.37355059583925550000e-001) (3, 1.66764605099020610000e-001) (4, -8.49395462849730500000e-002) (5, 1.73499210962888950000e-001) (6, 2.68143532990123970000e-002) (7, 1.71403357425762240000e-001) (8, 1.32566895934414840000e-001) (0, 5.62906726915659460000e-001) (1, 5.37929343039217360000e-001) (2, 6.19120023899334960000e-001) (3, 2.10268845996009410000e+000) (4, 5.97544305942900760000e-001) (5, 5.13490053910290120000e-001) (6, -6.27140675588569780000e-001) (7, 3.91181553502263180000e+000) (8, 4.24166846470996120000e-001) (0, 6.33101374426402460000e-001) (1, 3.55148310908110080000e+000) (2, 5.43167209201522190000e+000) (3, -9.42995621315331990000e-001) (4, -1.19551664195473140000e+001) (5, 3.80921604141227780000e+000) (6, 4.27225314900749280000e-001) (7, 4.03770350722716920000e+000) (8, 1.21712307798691470000e+000) (0, 5.57510215656986440000e-001) (1, 9.50330989953215520000e-001) (2, 1.25297213051767440000e+000) (3, 8.25404229214725670000e-001) (4, 8.76582142600798810000e-001) (5, 7.76833879873916610000e-001) (6, 7.82447551879071330000e-001) (7, 7.03595563773301460000e-001) (8, 6.07856572228998690000e-001) (0, -1.23521597518849390000e-002) (1, 3.33302107503365970000e-001) (2, -3.19054865892463570000e-001) (3, -3.50893329319905800000e-001) (4, -3.40249370700005160000e-001) (5, -2.96563298570599990000e-001) (6, -3.50498436595604700000e-001) (7, -2.75804311393992920000e-001) (8, -2.90382834132835170000e-001) (0, 6.96120984192146520000e-001) (1, 9.43560443814154940000e-001) (2, 2.53143498613908590000e+000) (3, -1.25870572315208710000e+000) (4, 6.46968088283216390000e-001) (5, 1.13351409129617140000e+000) (6, 1.20289967368136040000e+000) (7, 6.47234096403081160000e-001) (8, 6.63025434795439070000e-001) (0, -3.46508772532225340000e-001) (1, -2.82431621847162250000e-001) (2, -2.20652554272472210000e-001) (3, -2.21113642730492970000e-001) (4, -3.31771450706579370000e-001) (5, -2.87622414212760250000e-001) (6, -2.28557441155943480000e-001) (7, -2.05047703539230800000e-001) (8, -2.52284228541747420000e-001) (0, -3.13100604634647060000e-001) (1, -3.04900884964773240000e-001) (2, -4.04577024928817530000e-001) (3, -3.94418581445233060000e-001) (4, -3.70370597621494210000e-001) (5, -2.86725269412646200000e-001) (6, -4.03896449873235700000e-001) (7, -2.80796250129875360000e-001) (8, -2.80066397280057110000e-001) (0, 6.26119110203182670000e-002) (1, 1.94308855975878600000e-001) (2, 4.83207928546904090000e-001) (3, 2.89847516140743830000e-001) (4, 4.57609323152173340000e-001) (5, 2.37468191581010710000e-001) (6, 3.09242026681108230000e-001) (7, -5.31333529285288760000e-001) (8, 8.30749661494314950000e-002) (0, 3.69021731954278120000e-001) (1, 6.47217841820147850000e-001) (2, 2.04757437478272550000e-001) (3, 3.84146491840221430000e-001) (4, 6.93436013897515750000e-001) (5, 3.02991772869979190000e-001) (6, 4.88074530416970460000e-001) (7, 4.64711480550901060000e-001) (8, 2.69814383673799950000e-001) (0, 2.25860945454676520000e+001) (1, -1.39082874972670020000e+001) (2, -4.68737710778930230000e-001) (3, -5.71243017734149650000e-001) (4, 7.30665256556916390000e-001) (5, 1.73246696814742450000e+000) (6, 1.37337280694051020000e+000) (7, -3.11888950256981130000e+001) (8, 1.19658419598460310000e+000) (0, 9.72735695673832220000e-001) (1, 1.03798531423765410000e+000) (2, 7.19280265030499910000e-001) (3, 1.22818903425864120000e+000) (4, 8.10125668535648710000e-001) (5, 7.97082847477000870000e-001) (6, 7.15679014949624710000e-001) (7, 6.03172924152671760000e-001) (8, 5.86873217356780330000e-001) (0, -3.17967314182240830000e-001) (1, -2.95974143222854590000e-001) (2, -2.77699850464151350000e-001) (3, -2.13152641344525220000e-001) (4, -2.23590498951806910000e-001) (5, -1.88369718507309410000e-001) (6, -2.93745868601236470000e-001) (7, -2.21393763779018790000e-001) (8, -2.73182938117903170000e-001) (0, 5.83069778542056110000e-001) (1, 2.52773637267493130000e-001) (2, 9.45393827471056740000e-002) (3, 4.50129290907016550000e-002) (4, 9.16273159431441050000e-002) (5, 1.26286005253582520000e-001) (6, 1.45218471404566700000e-001) (7, 2.30763028769468110000e-001) (8, 1.29770671597061680000e-001) (0, 3.03396610513560430000e-001) (1, 1.50114782741455700000e-001) (2, 1.98834385720392110000e-001) (3, 2.12060517508600860000e-001) (4, 1.64319319676764520000e-001) (5, 8.49581390266739150000e-002) (6, 1.14523864237865510000e-001) (7, 1.72786513383884870000e-001) (8, 1.93089143710591300000e-001) (0, 1.06633151251283360000e-001) (1, 5.12699254201579470000e-001) (2, 4.51309654569119980000e-001) (3, -3.59996947360772370000e-001) (4, 1.42926941628762770000e-001) (5, -2.40309351612070040000e-001) (6, 4.19794350376029020000e-001) (7, 2.49224435990980180000e-001) (8, -3.13314166138082440000e-001) (0, -8.67884009288864970000e-002) (1, 1.11805476976490960000e-001) (2, 2.83707502340286740000e-001) (3, 3.73266566692447630000e-002) (4, 1.01018185884144880000e-001) (5, 2.34535937600053010000e-001) (6, -8.11495446031458010000e-002) (7, 7.07173655843964940000e-002) (8, 2.08748026764474240000e-001) (0, 6.61961404242932260000e-002) (1, -9.16408297402503400000e-001) (2, 9.19642903249521560000e-003) (3, 7.18280497368845360000e-001) (4, 4.92415485064263640000e-001) (5, 7.41634207020468230000e-001) (6, 2.73920131684943840000e-001) (7, 6.50864278780198260000e-001) (8, 2.62234366536923560000e-001) (0, -3.11813821678447900000e-001) (1, -2.36260017570828230000e-001) (2, -3.75010608466422260000e-001) (3, -2.49650537899399670000e-001) (4, 5.53043080385257620000e-001) (5, -2.02705311866352990000e-001) (6, -2.70826423231007700000e-001) (7, -3.33946508052672510000e-001) (8, -2.60972722010602510000e-001) (0, 1.34332223170058710000e+000) (1, 2.94781192564347320000e-001) (2, 4.14300576843575690000e-001) (3, 1.12209686916602510000e+000) (4, 8.82258881257923950000e-001) (5, -7.31205025063507290000e+000) (6, 9.20053474299103780000e-001) (7, 4.56497773723726570000e-001) (8, 6.47425841827268810000e-001) (0, -2.34857530438182390000e-001) (1, 3.59924599547393310000e-001) (2, -4.14176761859177290000e-001) (3, -3.71090932147694290000e-001) (4, -3.58275537035445730000e-001) (5, -2.68707647284207710000e-001) (6, 3.80457435129429640000e-001) (7, -2.67351443014558880000e-001) (8, -3.18682783748950480000e-001) (0, 2.65452013067136620000e-001) (1, 1.10832796877421950000e-001) (2, 2.67273699652347510000e-002) (3, 5.54939565021662970000e-001) (4, 4.74551479600255410000e-002) (5, 2.53517251382591120000e-001) (6, 1.23200792657240450000e-001) (7, 5.31066055015416040000e-001) (8, 1.27138048008346660000e-001) (0, -4.01780755534757280000e-001) (1, -3.47620708683684220000e-001) (2, -3.75962134895107660000e-001) (3, -2.46743683217065020000e-001) (4, -4.00058119088755490000e-001) (5, -2.39821787646700590000e-001) (6, -4.12664754115578130000e-001) (7, -1.99458001079338420000e-001) (8, -2.81014378586635360000e-001) (0, 5.36104057432219010000e-001) (1, 5.97719060679734790000e-001) (2, 1.25790354371552300000e+000) (3, 1.41227002484632250000e+000) (4, 1.26452357553685560000e+000) (5, 6.53966475667101090000e-001) (6, 1.29068778330880440000e+000) (7, 1.25305040338007710000e+000) (8, 1.18877888974216610000e+000) (0, -3.74155069494811030000e-001) (1, -3.11609370758401950000e-001) (2, -3.65217156470878490000e-001) (3, -3.95153801822239640000e-001) (4, -3.23195333221896030000e-001) (5, -3.62360726317600800000e-001) (6, -2.92505433169742310000e-001) (7, -2.36262624540477860000e-001) (8, -3.01431968365127590000e-001) (0, 4.64359061641866300000e-001) (1, 2.31339518365557270000e-001) (2, 2.28579972545455150000e-001) (3, 2.47590951184870520000e-002) (4, 1.84972494732764060000e-001) (5, 2.15037362044181700000e-001) (6, 3.87506009187052820000e-002) (7, 2.24669059049493440000e-001) (8, 1.62888597197203440000e-001) (0, -4.12308008651127880000e-001) (1, -2.06956774309115280000e-002) (2, 2.05146862181606500000e-002) (3, 1.79370153961778970000e-001) (4, -7.60075372170791800000e-001) (5, 2.93348060805016910000e-001) (6, -9.70374986990067000000e-002) (7, -2.68188300107443710000e-001) (8, -3.05935209057955740000e-001) (0, 3.00726238673456940000e-001) (1, 8.59480085946576210000e-002) (2, 2.13376320537754650000e-001) (3, 2.75295607439338900000e-001) (4, 3.37560539638346700000e-001) (5, 5.02229416531655200000e-001) (6, 1.48328817569760050000e-001) (7, 6.88448634713854980000e-001) (8, 1.42388823378680780000e-001) (0, 6.36589495716823660000e-001) (1, 1.93138393398703870000e-001) (2, 2.03679316589181010000e-001) (3, 4.34955405122518580000e-002) (4, 1.63426760929684530000e-001) (5, 2.51045315594136680000e-001) (6, 1.34120958278444110000e-001) (7, 6.47373066650167030000e-001) (8, 9.23626693688915260000e-001) (0, -3.68874018107959580000e-002) (1, 4.89383805192863170000e-001) (2, 1.40304559172912040000e-001) (3, -5.29316966053781090000e-001) (4, -7.50443275685881870000e-001) (5, 1.06681477880566630000e+000) (6, -3.38777029320802230000e-001) (7, 1.57135117052477430000e-001) (8, 3.08986276813133340000e-001) (0, 4.79779747260587200000e-001) (1, 6.42691584121252380000e-001) (2, 7.29910729109174540000e-001) (3, 4.21603299562936240000e-001) (4, 8.55299766074800040000e-002) (5, 4.75440165985505040000e-001) (6, 7.97987186884991930000e-001) (7, 5.51979209489537670000e-002) (8, 5.36306513166653340000e-001) (0, 9.69302268318602780000e-001) (1, 2.16855463395965930000e-001) (2, 1.68174268100874490000e-001) (3, 1.65854193943766630000e-001) (4, 1.46416925152181080000e-001) (5, 9.54091571844140760000e-002) (6, 2.57182053042613250000e-003) (7, 4.56541794581608390000e-002) (8, 1.33452221176600410000e-001) (0, 5.36830736616953800000e-001) (1, 4.83936616537426640000e-001) (2, 3.88486499341157530000e-001) (3, 6.44500713530666620000e-001) (4, 5.92018377728001480000e-001) (5, 4.16634997804763370000e-001) (6, 5.48354024697402690000e-001) (7, 6.76153171441427170000e-001) (8, 5.21563305258166520000e-001) (0, 6.31113863543996010000e-001) (1, 6.77383851708577730000e-001) (2, 8.03189166517894290000e-001) (3, 9.00117782172998200000e-001) (4, 7.98123995030800670000e-001) (5, 8.92840931836322520000e-001) (6, 6.57326745566802040000e-001) (7, 7.77665863970463890000e-001) (8, 6.44717812300653390000e-001) (0, -3.82477943812777890000e-001) (1, -1.83492201124792030000e-001) (2, -1.46005846634618850000e-001) (3, -1.48660718603527360000e-001) (4, 5.84265243359820110000e-001) (5, -1.55943732659469790000e-001) (6, -7.19686427911648830000e-002) (7, -1.50583209810491970000e-001) (8, -2.73678872439401310000e-001) (0, 1.32002703857188150000e-001) (1, 4.05131737769937050000e-001) (2, -3.82355622194992580000e-001) (3, -3.04085410885937270000e-001) (4, -4.11154755388343280000e-001) (5, -2.54135049097135750000e-001) (6, 4.17352239692118210000e-001) (7, -4.22335340296775770000e-001) (8, -3.67729078426614730000e-001) (0, 5.54448172132184890000e-001) (1, 1.32803502327800000000e-001) (2, 1.98460553536183890000e-001) (3, -9.00435035839440070000e-001) (4, 5.90019982868281940000e-001) (5, 1.64966320767301920000e-001) (6, 1.39244001782474370000e-001) (7, -7.72340061854912290000e+000) (8, 6.52495136772429510000e-002) (0, 5.06762495675339260000e-001) (1, 5.40694379516340470000e-001) (2, 1.29214967255651690000e+000) (3, 7.68113419040537650000e-001) (4, 7.52446645438372140000e-001) (5, 4.96415554892449540000e-001) (6, 7.55093652050807470000e-001) (7, 1.27596806620920830000e+000) (8, 1.15736063689796680000e+000) (0, -1.72813571606692910000e+001) (1, 1.90537474683758600000e+001) (2, 2.14454916317112350000e+001) (3, 5.98561410555273630000e+000) (4, 1.69236547229966910000e+001) (5, -1.38297286734464220000e+001) (6, 2.27042172250369490000e+001) (7, -5.47263147372097620000e+001) (8, 2.14557071710076760000e-001) (0, 2.55138267881266090000e-001) (1, -4.20615572824052100000e-002) (2, 1.69863701511117020000e-001) (3, 4.92493325695743940000e-001) (4, 3.75130690970944480000e-001) (5, 5.21219786475936700000e-001) (6, 3.03184767984605970000e-002) (7, 4.43997575325797640000e-001) (8, 1.24915502261217300000e-001) (0, -2.56723482528554980000e-001) (1, -3.84788365915970930000e-001) (2, -3.79335563497761320000e-001) (3, -3.19419462804820420000e-001) (4, -2.92833935979043280000e-001) (5, -3.09215128036262940000e-001) (6, -3.14070782404189450000e-001) (7, -2.76598022974433090000e-001) (8, -2.88356762683002640000e-001) (0, 8.78404312634951330000e-001) (1, 9.99796639946724300000e-001) (2, 6.23028618093721560000e-001) (3, 6.64073573124076780000e-001) (4, 7.13954686265519170000e-001) (5, 7.29582308078690840000e-001) (6, 6.27537145986702400000e-001) (7, 5.96338926128693330000e-001) (8, 5.24232730925246030000e-001) (0, 1.25403438862338850000e+000) (1, 6.84885647576331750000e-001) (2, 1.40499784542163850000e+000) (3, 1.54084101094770020000e+000) (4, 1.32723854561736080000e+000) (5, 4.33988066334234980000e-001) (6, 4.90454281847035160000e-001) (7, 1.32328663635708430000e+000) (8, 1.09070756484778620000e+000) (0, -3.42152097260596140000e-001) (1, -1.86686885721508180000e-001) (2, -2.88046232039513350000e-001) (3, -2.80091946514815670000e-001) (4, -4.21996637105235000000e-001) (5, -2.90660862082009750000e-001) (6, -2.87406291472648010000e-001) (7, -2.50342259670316310000e-001) (8, -2.74986630811012160000e-001) (0, 5.47380192857550680000e-001) (1, 1.75310561626409120000e-001) (2, 4.84192933731070540000e-002) (3, 2.91343481265673960000e-002) (4, 1.42190832166505830000e-001) (5, 1.76437460380106910000e-001) (6, 1.73316294016056440000e-001) (7, 5.22081752384314650000e-001) (8, 1.15522804473057840000e-001) (0, 4.07273750620692540000e-001) (1, 4.35098214587151810000e-001) (2, 4.07683617611020180000e-001) (3, 4.50957979449268630000e-001) (4, 3.65053472808584080000e-001) (5, 6.91387113682835230000e-001) (6, 5.41423795502302570000e-001) (7, 3.54198159323062030000e-001) (8, 4.50791039122697800000e-001) (0, 5.21605897855544010000e-001) (1, 6.25831441101016520000e-001) (2, -3.07516783333312920000e+000) (3, 1.16308184670737870000e+000) (4, 3.80677445077031940000e-001) (5, -1.03104247178058950000e+000) (6, 1.61227468867773900000e+000) (7, 1.72505380714361030000e+000) (8, 4.93920847786722350000e-001) (0, -2.31965442240231270000e-001) (1, -1.85863916176401190000e-001) (2, -3.13784419289497850000e-001) (3, -2.63532944658826100000e-001) (4, -3.57559472041303780000e-001) (5, -4.14073296041269690000e-001) (6, -3.39571789910952440000e-001) (7, -2.49150151649364940000e-001) (8, -3.26523590892059350000e-001) (0, 3.41924487186918700000e-001) (1, 1.43833239637320670000e-001) (2, 1.14832295161042600000e-001) (3, 6.51545210543015170000e-001) (4, 1.77156687753819830000e+000) (5, -5.14337784479678080000e-002) (6, 6.43462782850756860000e-001) (7, 7.58512359659401000000e-001) (8, 2.39484200721085420000e-001) (0, 2.17610072120503040000e-001) (1, 2.53559333581187540000e-001) (2, 4.50056203632920810000e-001) (3, -5.27870222581590470000e-003) (4, 2.62971686138004200000e-001) (5, 2.55365391624110040000e-001) (6, 2.33300539666398550000e-001) (7, 3.23256800133137900000e-001) (8, 4.60069884242808590000e-001) (0, 5.39554530537703860000e-001) (1, 9.15969968429678480000e-001) (2, 7.78149605989300830000e-001) (3, 7.39265647734687950000e-001) (4, 7.77042024094146910000e-001) (5, 6.21270039198738020000e-001) (6, 6.92562453635063860000e-001) (7, 7.04676824485026000000e-001) (8, 5.95171314793832230000e-001) (0, 4.62007401624908440000e-001) (1, 5.48515668661730520000e-001) (2, 1.34302693175791510000e+000) (3, 8.80295635440768160000e-001) (4, 8.23135997680400470000e-001) (5, 7.34242717910514990000e-001) (6, 8.08060444975712940000e-001) (7, 8.07756754529706630000e-001) (8, 1.11166365053417730000e+000) (0, -2.15015397925134050000e-001) (1, -3.24806934682383360000e-001) (2, -2.91844235676453010000e-001) (3, -1.95175489457059040000e-001) (4, -3.39443192787237950000e-001) (5, -2.75046455860083970000e-001) (6, -2.15493240155764790000e-001) (7, -2.76017669745990290000e-001) (8, -3.39155817047085810000e-001) (0, 2.83521328579136260000e-001) (1, 5.92091607818405680000e-002) (2, 2.30105723927749750000e-001) (3, 4.98480594558907700000e-001) (4, 3.31683664307817040000e-001) (5, 5.49228130300475010000e-001) (6, 3.14588704614950980000e-001) (7, 6.57124133475895040000e-001) (8, 2.09800271964416360000e-001) (0, -3.04970609269825220000e-001) (1, -2.45187964780816860000e-001) (2, -3.42519283021487380000e-001) (3, -2.48867682241917520000e-001) (4, -3.92347655585857210000e-001) (5, -3.88432300691602450000e-001) (6, -2.70829658447210190000e-001) (7, -2.53041430411526880000e-001) (8, -3.13289173449854910000e-001) (0, -6.09444028285472460000e-002) (1, 3.19432172480896980000e-003) (2, 8.24164385905727380000e-001) (3, 9.06735171761307470000e-001) (4, 2.47381203710278660000e-001) (5, 5.55997354253870200000e-001) (6, 1.96546667722651700000e-001) (7, -7.60272059882348760000e-003) (8, 4.52878629826685860000e-001) (0, -2.95622076154259670000e-001) (1, -3.83057667460532770000e-001) (2, -3.19958085926178580000e-001) (3, -1.87010500746381180000e-001) (4, -2.53634086483042640000e-001) (5, -2.08790013739867330000e-001) (6, -2.34506327416462910000e-001) (7, -2.89774280900807700000e-001) (8, -2.82221083684887570000e-001) (0, 2.34137329804376830000e+000) (1, -1.53688321805879280000e+001) (2, 9.37083214437465980000e+000) (3, -2.17823560650032550000e-001) (4, 1.88984326173171110000e+000) (5, 3.89043163716168920000e+000) (6, 1.07833531810528630000e+001) (7, 8.42715285793394880000e+001) (8, 1.00758059151015570000e+000) (0, 5.97800213627882940000e-001) (1, 4.53916479366391290000e-001) (2, 1.23259851682907920000e+000) (3, 8.27796759949723680000e-001) (4, 7.56940557887447190000e-001) (5, 8.05932639024041660000e-001) (6, 7.27252305232280130000e-001) (7, 6.63543697631920000000e-001) (8, 1.09905522061831730000e+000) (0, 4.54013573770223060000e-001) (1, 6.26455534816444340000e-001) (2, 5.32983098580330660000e-001) (3, 8.14704755925122700000e-001) (4, 7.16032721249136190000e-001) (5, 7.75254428425788400000e-001) (6, 7.86922609225595540000e-001) (7, -3.30410066787389490000e-001) (8, 5.72146474947379690000e-001) (0, 6.67610718688306680000e-001) (1, 9.24312219088539110000e-001) (2, 1.24939528209972960000e+000) (3, 7.41054834011097510000e-001) (4, 6.44449555166313300000e-001) (5, 8.44412096553738280000e-001) (6, 6.31404357277406510000e-001) (7, 6.46406372772153630000e-001) (8, 1.14534089669157680000e+000) (0, -2.23837193806340870000e-001) (1, 5.15208798538640430000e-001) (2, 6.82040013567264850000e-001) (3, -1.77695446510392730000e-002) (4, -6.05789175018023600000e-002) (5, -2.51175001464777950000e-001) (6, 4.55911723014537470000e-001) (7, -2.01106203948009600000e-001) (8, -2.65016010727823100000e-001) (0, 5.73440146538765180000e-001) (1, 1.08670572220611290000e+000) (2, 1.34846771230634240000e+000) (3, 1.60502693282403790000e+000) (4, 1.62625399202428890000e+000) (5, 1.76363728534375820000e-001) (6, 1.31934742791284480000e+000) (7, 1.29052423078685790000e+000) (8, 1.14047865823824530000e+000) (0, -3.24095780197979190000e-001) (1, -3.00244978067604530000e-001) (2, -2.69412738420949370000e-001) (3, -3.07212983616743430000e-001) (4, -2.99554525577442890000e-001) (5, -2.46524581934316480000e-001) (6, -2.33383036365650690000e-001) (7, -3.95907746615019980000e-001) (8, -2.63519562485904250000e-001) (0, 4.25563015391610730000e-001) (1, 5.80307880064081070000e-001) (2, 3.58854912133039440000e-001) (3, 4.13392750302533580000e-001) (4, 4.22954240539918090000e-001) (5, 1.04899137140670850000e+000) (6, 6.27591408523196500000e-001) (7, 5.45931311292083050000e-001) (8, 4.64014044279616790000e-001) (0, 5.92760960852000580000e-001) (1, 1.32405589535395190000e-001) (2, 2.19774133402283470000e-001) (3, 1.52828725221714150000e-001) (4, 1.23513612561578360000e-001) (5, 1.96531571068704560000e-001) (6, 1.23357056214086820000e-002) (7, 4.28219466359278170000e-002) (8, 1.70175722417636930000e-001) (0, -1.50556387605901120000e-001) (1, -1.67443977112348290000e-001) (2, 6.19399656852975820000e-001) (3, -3.00878325457200020000e-002) (4, -3.03333183387187700000e-002) (5, -1.50013846774758150000e-001) (6, 8.47391657027456890000e-001) (7, 3.30942673100566510000e-002) (8, -2.51608229074507530000e-001) (0, 4.30849682653177630000e-001) (1, 5.11972929922541460000e+000) (2, -1.94586142357709790000e+000) (3, -2.59047928532727230000e-001) (4, 1.20919365669789960000e+000) (5, 7.65099274049016010000e-001) (6, 5.35797976496519190000e+000) (7, -5.16706917108079810000e+000) (8, 5.36070795519898110000e-001) (0, 4.72874142240531200000e-001) (1, 3.28957357027901200000e-002) (2, 5.52344375878905040000e-002) (3, 9.61148992452515310000e-002) (4, 2.45145030495442680000e-002) (5, 1.65672968937825790000e-001) (6, -6.16073183659924690000e-004) (7, 6.47568997804099820000e-001) (8, 1.43375049274443610000e-001) (0, 2.69764947363269390000e-001) (1, 4.94144983429447500000e-002) (2, 1.51879625254891900000e-001) (3, 6.32870355215840790000e-001) (4, 1.00957938911662110000e-002) (5, 1.33072116418509380000e-001) (6, 1.51580360022277180000e-001) (7, 4.51812203915074650000e-001) (8, 1.99266546845485950000e-001) (0, 2.59952578578269980000e-001) (1, 2.04207007583461620000e+000) (2, -1.25053642351631130000e-001) (3, -1.62603515671781530000e+000) (4, -6.44340789366780740000e-001) (5, 9.49988757326856840000e-001) (6, -2.64389751511895810000e-001) (7, -1.28499462790030970000e+000) (8, 3.09648067072312520000e-001) (0, 7.14443830005636160000e-001) (1, 2.02244625814793550000e-001) (2, 5.27615196502244570000e-002) (3, 1.16661536502469910000e-001) (4, 1.24129874653494070000e-001) (5, 2.16363310486802300000e-001) (6, 9.36891984003831860000e-002) (7, 2.37860466782369080000e-001) (8, 1.34166390579636610000e-001) (0, 1.29927760652214120000e-001) (1, -1.72263861995637190000e-002) (2, 2.67532867620353170000e-001) (3, 6.07465141779284010000e-001) (4, 3.96768431554647080000e-001) (5, 5.09031256098299250000e-001) (6, 1.92054765547463200000e-001) (7, 5.21075546092452440000e-001) (8, 1.24390038896308810000e-001) (0, -2.91755041149593050000e-001) (1, 5.56175600398514770000e-001) (2, -3.35096405754776840000e-001) (3, -2.36194882974022440000e-001) (4, 1.35769888128429190000e-001) (5, -3.77664663764766930000e-001) (6, -3.71704560591570420000e-001) (7, -2.49634990357919580000e-001) (8, -3.09359482701736350000e-001) (0, 1.60311890468020250000e-001) (1, 1.61642063581322240000e-001) (2, 2.12737438073044570000e-001) (3, 9.28824774530989660000e-002) (4, 2.74088252786839570000e-001) (5, 6.14181412228382630000e-001) (6, -1.31540692088593590000e-001) (7, 3.52290792256018670000e-001) (8, 3.10197794686597920000e-001) (0, 4.05916117848596710000e-001) (1, 3.05179006962793750000e-003) (2, 1.48159194114309170000e-001) (3, 5.01667836752912670000e-002) (4, 5.88412309947067350000e-002) (5, 2.01157541722937620000e-001) (6, 1.81496218278559690000e-001) (7, 4.85050465820339780000e-001) (8, 1.69105023519900390000e-001) (0, 2.06567667243541200000e-001) (1, 4.82404197513256960000e-002) (2, 6.02232840587199840000e-001) (3, -6.72847838434770250000e-001) (4, 1.12481370131815430000e+000) (5, 3.10296984120922400000e-002) (6, 2.79353073648282440000e-001) (7, -2.84157608889168150000e+000) (8, 3.39467357372278070000e-001) (0, -3.95659956754048080000e-001) (1, -2.36697238683121920000e-001) (2, -3.56472599812535260000e-001) (3, -3.21710063957385490000e-001) (4, -2.29883613682192980000e-001) (5, -2.40475405295646480000e-001) (6, -3.98694987625556270000e-001) (7, -3.32941086098106520000e-001) (8, -3.06674443072049220000e-001) (0, -2.52854885248230630000e-001) (1, 3.49066110715974060000e-002) (2, 1.09966679106785840000e-001) (3, 1.29824612522188990000e-001) (4, 9.37409047551718310000e-005) (5, 1.89704842655139790000e-001) (6, 1.96653077406069300000e-001) (7, 1.99707451458942060000e-001) (8, 9.49534539162382620000e-001) (0, 7.06115746038558230000e-002) (1, -1.84297562487697240000e-001) (2, 1.20532954334470000000e-001) (3, 1.21612588814103620000e+000) (4, -2.68609532127783760000e+000) (5, -3.12659379891410520000e-001) (6, 1.77859590962858060000e-001) (7, 1.20048930164076920000e+000) (8, -1.71096421285729800000e-001) (0, -4.06513624308292690000e-001) (1, -4.39059726977920060000e-001) (2, -3.35573172204196410000e-001) (3, -4.28550019315340040000e-001) (4, -4.22783106858228340000e-001) (5, -3.55701061706336810000e-001) (6, -3.67958892020817770000e-001) (7, -3.48005101353702990000e-001) (8, -3.30342491166843390000e-001) (0, 1.11090627925475080000e+000) (1, 2.56332209443249140000e-001) (2, 6.81556150387153530000e-002) (3, 2.06933638739135120000e-001) (4, 2.39728920784649020000e-001) (5, 5.17963985724168370000e-002) (6, 7.58195261641245870000e-002) (7, 1.47644288139745450000e-001) (8, 2.20950575852108560000e-001) (0, -3.39363780635971330000e-001) (1, -3.82444621761349020000e-001) (2, -2.39545400487635530000e-001) (3, -2.34949922958085620000e-001) (4, -2.41955186902665210000e-001) (5, -3.20367437298124390000e-001) (6, -3.40950430948660010000e-001) (7, -2.84712650512328470000e-001) (8, -2.75775772713942550000e-001) (0, 7.24187778484668310000e-001) (1, 5.44741671158379680000e-001) (2, 1.18275167776367110000e+000) (3, 7.81525587957692000000e-001) (4, 7.82037499661186190000e-001) (5, 7.99206863951731240000e-001) (6, 7.04037712098153360000e-001) (7, 1.17948233920883980000e+000) (8, 1.17828285301128650000e+000) (0, -7.85597144199676030000e+000) (1, 1.20311774458246980000e+001) (2, -7.88248697340129480000e+000) (3, 1.39728014146466070000e+001) (4, 2.58826014025619350000e+001) (5, 4.14318526102899160000e+001) (6, 4.77511857184884380000e+000) (7, -3.26917906083672850000e+001) (8, 2.22034409329040190000e+000) (0, 1.29901179809498820000e+000) (1, 1.86198889533818990000e+001) (2, -6.52875236718367540000e+000) (3, -1.36380664731622760000e+000) (4, 2.61326519279662990000e+000) (5, -3.17345468127340700000e+000) (6, -5.42209705150516470000e-001) (7, 1.56000115210150800000e+000) (8, 2.03167911669688370000e-001) (0, 6.07042735959040350000e-001) (1, 6.09651184151888060000e-002) (2, 2.17114417452779230000e-001) (3, -9.28767868839889750000e-003) (4, 4.55705098301545030000e-002) (5, 5.88568559424622850000e-003) (6, 1.22822074616934920000e-002) (7, 1.41232240520199360000e-001) (8, 1.56277979155325790000e-001) (0, -2.80600687332307640000e-001) (1, -3.09123178084768470000e-001) (2, -3.15856329467500590000e-001) (3, -2.81550076887398800000e-001) (4, 3.90553784661804630000e-001) (5, -2.25909449287376690000e-001) (6, -3.10481468602927750000e-001) (7, -3.47028288957653470000e-001) (8, -3.03407998012784840000e-001) (0, 2.30851560529222570000e-001) (1, 2.84591980103965910000e-001) (2, 4.30189407161429170000e-001) (3, 3.84613976958900760000e-001) (4, 5.74020971659657820000e-001) (5, 2.93157963231470140000e-001) (6, 5.51178919379046280000e-001) (7, 6.27373306758265640000e-001) (8, 2.62011537501610380000e-001) (0, 2.50092304811869450000e-001) (1, 7.17063407764521040000e-002) (2, 1.79251629495169870000e-001) (3, 8.00083486916135650000e-002) (4, 4.03284911622734670000e-001) (5, 4.86886920616418640000e-001) (6, 2.12952436166110510000e-001) (7, 6.67654119730927700000e-001) (8, 9.38760559673258440000e-002) (0, -6.83998983404883630000e-001) (1, -1.19358418778604820000e+000) (2, 1.74073561381276410000e-001) (3, 3.43979176176928970000e-001) (4, 6.05809324920168370000e-001) (5, -1.29535886351214160000e+000) (6, 8.21555672870106560000e-001) (7, -1.89195572020359190000e-002) (8, 5.65770074897662330000e-002) (0, 4.62452174199619300000e+000) (1, 6.15559124030763360000e+000) (2, 3.30243451511320130000e+000) (3, 9.81511859309396660000e-001) (4, 1.37734521627810880000e+000) (5, 1.66934536462926150000e+000) (6, 8.39117917548490300000e-001) (7, 8.56734723998188400000e-001) (8, 1.15070497720752770000e+000) (0, -9.95624564379227470000e-002) (1, 2.00569458701727020000e-001) (2, 3.98222225332472480000e-001) (3, 2.60230576411336290000e-001) (4, -9.03010870743318210000e-002) (5, 5.60706195338002030000e-001) (6, 1.39792329420538900000e-001) (7, 3.25947539485353040000e-001) (8, 1.22398709740895630000e-001) (0, -3.62745660072912590000e-001) (1, 6.09720307951878700000e-001) (2, -4.36806412470617690000e-001) (3, -2.78812262882688120000e-001) (4, -3.95280536681588130000e-001) (5, -2.21746741465870640000e-001) (6, -3.04799303142711700000e-001) (7, -2.94219582056893470000e-001) (8, -2.94833044879116930000e-001) (0, 2.19128118609198120000e-001) (1, 2.64617101054332450000e-001) (2, 1.68674221443795850000e-001) (3, 5.46678133550383080000e-001) (4, 3.05508970104122650000e-001) (5, 3.88382353288706460000e-001) (6, 1.20039276606575040000e-001) (7, 5.03299365709283130000e-001) (8, 1.10383624977399880000e-001) (0, -2.98573562238982130000e-001) (1, -2.57431747272459320000e-001) (2, -2.85420143615287060000e-001) (3, -3.14311029116960410000e-001) (4, -4.32244630578986270000e-001) (5, -3.16079905984615110000e-001) (6, -2.87116171294872320000e-001) (7, -3.84086434908068990000e-001) (8, -3.18995501784956110000e-001) (0, -1.10594344100938520000e+001) (1, 5.88877145212599730000e+000) (2, -9.02839733769930500000e+000) (3, 6.75075449399728630000e+000) (4, 1.63531349937337370000e-001) (5, -1.28307777700005360000e+001) (6, -1.06399996408124070000e+001) (7, 1.11704674275267020000e+001) (8, 5.82620357564551110000e-001) (0, 3.31511668156405480000e-001) (1, 1.25468691746915260000e+000) (2, 5.83882592969192430000e-001) (3, 5.11622098930964660000e-001) (4, 6.54222596858744510000e-001) (5, 5.25465682412898480000e-001) (6, 5.65326484122590680000e-001) (7, 6.02050908219122990000e-001) (8, 5.53217175901317360000e-001) (0, 5.30821268504607980000e-001) (1, 8.33066006711736470000e-001) (2, 1.04459501355255040000e+000) (3, 5.31305928167285720000e-001) (4, 8.85889959628425210000e-001) (5, 8.64903371042039850000e-001) (6, 6.96786233940610230000e-001) (7, 1.13765974132798740000e+000) (8, 1.09105536403572170000e+000) (0, 7.96213253178374100000e-001) (1, 6.15247040319910730000e-001) (2, 1.14987773090185040000e+000) (3, 8.10115691077495930000e-001) (4, 1.35075115827451690000e+000) (5, 1.22223301339876330000e+000) (6, 1.36786373697521070000e+000) (7, 1.10004693801811930000e+000) (8, 6.74478722996744380000e-001) (0, -3.25478902181083050000e-001) (1, -3.64429924978776460000e-001) (2, -3.06716988194173260000e-001) (3, -3.19576888529190810000e-001) (4, 4.42653866130325920000e-001) (5, -3.17967113215701650000e-001) (6, -3.09878634987283410000e-001) (7, -3.09402407202932940000e-001) (8, -2.90675170262264140000e-001) (0, -4.69191557731044710000e-001) (1, -3.55942802206023980000e-001) (2, -3.86286795766572990000e-001) (3, -3.34608443995944250000e-001) (4, -2.54462721161777260000e-001) (5, -2.27780247433442330000e-001) (6, -3.32980955708303770000e-001) (7, -2.19887952786820720000e-001) (8, -2.98608207409287560000e-001) (0, 7.45383448660169280000e+001) (1, -2.78367309280879950000e+001) (2, -7.64705813237993670000e+000) (3, 6.28063327104762980000e+001) (4, 7.91135030318822460000e+001) (5, -3.33175790931821820000e+001) (6, -1.93906068452155120000e+001) (7, -1.89151852318928920000e+001) (8, -1.26606750746642790000e-001) (0, 4.38278797334930750000e-001) (1, -1.10503652581392280000e-001) (2, 6.42103774589862560000e-001) (3, 5.12596960663233900000e-001) (4, 5.82410998454124580000e-001) (5, 6.27466310007147700000e-001) (6, 7.98288018095187790000e-001) (7, 6.40494461957182070000e-001) (8, 5.46774251773182840000e-001) (0, 3.82207699202471000000e-001) (1, 2.91461709520601240000e-001) (2, 5.46841675492444560000e-001) (3, -3.42413702859401250000e+000) (4, 1.52113621118358560000e+000) (5, 2.56786310905419420000e-001) (6, 4.41834956902458110000e-001) (7, -6.07260839657509520000e+000) (8, 3.22868243607057790000e-001) (0, 8.89938851165852810000e-001) (1, 8.35163846946963770000e-001) (2, 6.00132435261787500000e-001) (3, 1.31680345614072740000e+000) (4, 6.62482825638419200000e-001) (5, 7.71495459439213160000e-001) (6, 7.65908152428528280000e-001) (7, -1.30218326547811340000e+000) (8, 6.31034581717983660000e-001) (0, 2.17825926893766310000e-001) (1, 2.27251484238105090000e-001) (2, 1.11914077416918330000e-001) (3, 1.53562525493942390000e-002) (4, 1.27068934320529380000e-001) (5, 5.16835615320291870000e-001) (6, 2.91737788636586780000e-001) (7, 3.16967771105595260000e-001) (8, 2.47875293356453500000e-001) (0, -1.10661085337407120000e-001) (1, -9.17290150575641730000e-002) (2, 6.08621563931984740000e-001) (3, 5.78676395944773050000e-001) (4, 4.47173060923148970000e-002) (5, 3.03166778495189360000e-001) (6, -1.85447255299736320000e-001) (7, -7.75056153955816230000e-002) (8, 2.12104236325163120000e-001) (0, 5.90865776400088420000e-001) (1, 9.69217363156568370000e-001) (2, 6.73923081568979620000e-001) (3, 8.24671733903575620000e-001) (4, 6.53997107525919220000e-001) (5, 1.19470170296231680000e+000) (6, 7.09281365341672960000e-001) (7, 1.36480854060691240000e+000) (8, 1.04694603814713540000e+000) (0, 2.92128633880683270000e-001) (1, 4.11133674481438010000e-001) (2, 8.49863382089312340000e-001) (3, 6.25087252872653540000e-001) (4, -1.67659754840441040000e-001) (5, 1.82027386950168320000e-001) (6, 8.76864321332670340000e-001) (7, -2.30200058315876180000e+000) (8, 6.58148023252802860000e-001) (0, -1.29895826773567560000e-001) (1, 1.49294143139953020000e+000) (2, 6.38098756047007680000e+000) (3, -3.67811807247833490000e+000) (4, 1.41878790201228750000e+000) (5, 2.42424093215922230000e+001) (6, 4.34646970203328740000e+000) (7, 1.40921236653403950000e+001) (8, -2.39683071348447930000e-001) (0, 5.96932152343123910000e-001) (1, 5.80138183340376590000e-001) (2, 4.84550299078481740000e-001) (3, 7.65215617396355690000e-001) (4, 7.26487563103677790000e-001) (5, 6.03460921168889500000e-001) (6, 5.76133441143620200000e-001) (7, 1.18499035681468450000e+000) (8, 5.79430285541017720000e-001) (0, -2.53281101310439680000e-001) (1, -2.52409814141473680000e-001) (2, 5.06581203207018940000e-001) (3, -2.32830119728285240000e-001) (4, 1.74643620030036860000e-001) (5, -3.39809231998266350000e-001) (6, -2.13598847252578860000e-001) (7, -2.59140388660511090000e-001) (8, -2.66844568154258000000e-001) (0, -1.18057963246184810000e-001) (1, 8.76735518813980400000e-002) (2, 2.02892208668152910000e-001) (3, -7.43639482957715040000e-002) (4, 3.24714989125883480000e-001) (5, 3.05914519736656950000e-001) (6, 1.78623516576546690000e-002) (7, -2.04517130104448580000e-001) (8, 2.95934636802027310000e-001) (0, 2.72209175519371070000e-001) (1, 1.86752187483292390000e-001) (2, 1.99129232689572310000e-002) (3, -1.28171351649159630000e+000) (4, 9.26205282364131580000e-001) (5, 3.17854688518476400000e+000) (6, 2.66221512341114020000e-001) (7, 4.71623330767203030000e-001) (8, 4.21060156638870920000e-001) (0, -2.25533697880397410000e-002) (1, 2.17643362440389540000e-001) (2, 1.64880399088414480000e-001) (3, 1.96833529835895360000e-001) (4, 1.03273822013516370000e-001) (5, 9.51170424374953030000e-002) (6, 1.13615845103018850000e-001) (7, 1.23442754805679640000e-001) (8, 1.15191409788827930000e-001) (0, 7.03234854750766910000e-002) (1, 3.30874164530095880000e-001) (2, 6.79403052099749940000e-001) (3, 5.69209351681739690000e-001) (4, 2.04748571994665310000e-001) (5, 6.08454651724614550000e-001) (6, 6.89213576297693200000e-001) (7, 6.16245091743103490000e-001) (8, 5.23212298897093640000e-001) (0, 6.72912942512795760000e-001) (1, 4.54185635811848620000e-001) (2, 6.97880460714813380000e+000) (3, -5.79740163298874680000e-001) (4, 1.52415092336435330000e+000) (5, 6.57881433180006960000e+000) (6, 1.60065006932462060000e+000) (7, 6.08917976160258870000e+000) (8, 6.73679771082304590000e-001) (0, 5.65186224949227210000e-001) (1, 4.88484179408320620000e-001) (2, 1.28630978785471160000e+000) (3, 7.23892783652959280000e-001) (4, 8.40213697106014460000e-001) (5, 1.54430079614604620000e+000) (6, 8.40008754040492690000e-001) (7, 5.58664367454283270000e-001) (8, 1.12684071439994730000e+000) (0, 9.61519165162584570000e-002) (1, 1.65320334678489170000e-001) (2, 6.45284366037352650000e-002) (3, 1.50304758289057930000e-001) (4, 3.68003367873712340000e-002) (5, 9.81920351402276740000e-002) (6, 1.18495691873359200000e-002) (7, 8.19315653412323460000e-002) (8, 1.24914867541667600000e-001) (0, 6.38206086437047570000e-001) (1, 2.27536458859421360000e-001) (2, 3.41539534567520010000e-001) (3, 3.91734948509083400000e-002) (4, 9.19445370667528290000e-001) (5, 1.95842096965360780000e-001) (6, 1.62510417622267060000e-001) (7, -9.88286012594336290000e-002) (8, 2.60281335508567860000e-001) (0, 6.73649287915198400000e-001) (1, 1.37906530403443830000e-001) (2, 1.75704165187884480000e-001) (3, 3.13557155605895460000e-002) (4, 1.24851110680706730000e-001) (5, 1.36436267762604750000e-002) (6, 1.42746525662863390000e-001) (7, 9.16423503976257080000e-002) (8, 1.56510368430522710000e-001) (0, -2.83217554110085530000e-001) (1, -3.28617576294273960000e-001) (2, -4.08089538088796610000e-001) (3, -2.44421998941579540000e-001) (4, -4.30742612311399380000e-001) (5, -2.07385137800915140000e-001) (6, -2.70196820501910240000e-001) (7, -2.81157602655498220000e-001) (8, -2.99120279670180790000e-001) (0, 2.07959039372364350000e+001) (1, -2.99986902451161900000e+001) (2, 9.61324338942868480000e+001) (3, -8.79385071465418800000e+001) (4, 7.77452203185409160000e+001) (5, 8.39054060612254490000e+001) (6, -4.10743065957485670000e+001) (7, -2.33613921565764960000e+001) (8, 4.36981288044680010000e-001) (0, 2.03568426841240430000e+001) (1, 2.28788727449860830000e+002) (2, 6.06743284900206770000e+001) (3, -8.97238481843249860000e+000) (4, -1.04898594307251470000e+001) (5, -4.28215110356769910000e+001) (6, -4.11139744939382870000e+001) (7, 5.68412908175450300000e+001) (8, -2.97440702290977250000e+000) (0, -1.06839815694754250000e+000) (1, -3.97232290836552480000e-002) (2, 7.36128971000642450000e-001) (3, -1.65535624851874040000e-001) (4, 4.06726942284720560000e-001) (5, -2.70495977801268770000e-001) (6, 2.53082657057905410000e-002) (7, -6.88897452031871140000e-001) (8, -6.26102050010967360000e-002) (0, -7.09218409886496620000e-002) (1, 1.00576961406179470000e-001) (2, 7.65318867992443750000e-001) (3, 8.67975297072599790000e-001) (4, -9.36074608703089340000e-001) (5, 2.22685801482739280000e-001) (6, 3.88181940518487090000e-001) (7, -1.70858623150932480000e+000) (8, 1.77843701622936420000e-001) (0, -3.10983898058832310000e-001) (1, -3.08658704097213800000e-001) (2, -2.79004860524091620000e-001) (3, -4.35418038091938910000e-001) (4, -4.18948614942602220000e-001) (5, -2.86325235076463620000e-001) (6, -3.63873558715414660000e-001) (7, -3.74352838606361430000e-001) (8, -3.44350525647535160000e-001) (0, -3.86612705921280110000e-001) (1, 3.60075454748154560000e-001) (2, -2.78937496316147280000e-001) (3, -2.88956725410145500000e-001) (4, -2.73978446367460490000e-001) (5, -3.78449775308960570000e-001) (6, -4.16875214914839860000e-001) (7, -4.09607838901936640000e-001) (8, -2.87278961353077120000e-001) (0, -3.24724825856310350000e-001) (1, -4.16627543171807060000e-001) (2, -3.86027832658138450000e-001) (3, -2.87608107553436350000e-001) (4, 1.83571799119872540000e-001) (5, -3.14832352121360290000e-001) (6, -2.34518193021515660000e-001) (7, -3.80393028038667870000e-001) (8, -2.53335609211753960000e-001) (0, -1.34760309028725430000e-001) (1, -1.12264978193851490000e-001) (2, 7.11168991029593970000e-001) (3, 2.21954208583083540000e-001) (4, 4.41766343008286880000e-001) (5, 3.25960019843857920000e-001) (6, -2.41246788496732620000e-002) (7, 1.52981621407367400000e-001) (8, 5.00693948853124240000e-002) (0, -2.82028971963002420000e-001) (1, -3.42791271200745540000e-001) (2, -4.21465659356474560000e-001) (3, -2.23354795381900340000e-001) (4, -2.80762392437245430000e-001) (5, -3.39466434497472050000e-001) (6, -3.39918768786523440000e-001) (7, -2.76620364298893470000e-001) (8, -3.54615031986752870000e-001) (0, 5.67013275737923370000e-001) (1, 1.18999979496869620000e+000) (2, 2.73073351090865520000e+000) (3, 8.63247842343552010000e-001) (4, 1.43098980729730400000e+000) (5, 4.43736494713745490000e-001) (6, 7.49630004128537750000e-001) (7, 8.76673056719548760000e-001) (8, 1.23349695894807310000e+000) (0, 2.56820522914488420000e-001) (1, 3.42117001816853950000e-001) (2, 4.47904987387386380000e-001) (3, 5.68866353655418820000e-001) (4, 5.57578450546441170000e-001) (5, 4.43550876801369730000e-001) (6, 5.35411379979880420000e-001) (7, 3.02248312182918640000e-001) (8, 4.27199330250222390000e-001) (0, -6.84015123994015890000e-003) (1, -4.48062625088049560000e-002) (2, 7.41373145060691630000e-001) (3, 6.85884989564938040000e-001) (4, 3.27564345442882540000e-001) (5, 3.08675741094034710000e-002) (6, -8.68020548479275790000e-003) (7, 5.11340321020105700000e-002) (8, -1.00569718229853570000e-001) (0, -5.61953188156801620000e-001) (1, -2.97578423013986680000e-001) (2, -4.03291308930282420000e-001) (3, -5.02715768303894710000e-002) (4, -2.79462645443834150000e-001) (5, -1.14675347246783120000e-001) (6, -3.14185448027150040000e-001) (7, -3.58966233087789470000e-001) (8, -2.66084359673375290000e-001) (0, 6.14990096731534490000e-001) (1, 1.06088600359322340000e-001) (2, 1.83053290553403630000e-002) (3, 1.58007152069370440000e-001) (4, 1.47270405111274340000e-001) (5, 3.55865866941163860000e-002) (6, 9.50615430838880890000e-002) (7, 1.83199425393395570000e-001) (8, 1.44546308964967560000e-001) (0, 3.46204508851162050000e-001) (1, -1.13146510501336860000e-002) (2, 2.10214447953283420000e-001) (3, 4.65207965123338730000e-001) (4, 4.54609841449429080000e-002) (5, 2.19791508116906090000e-001) (6, 1.76829091448547800000e-001) (7, 5.25874845335213780000e-001) (8, 1.52963599550780870000e-001) (0, 1.70805291224459370000e-001) (1, 4.54885171756160390000e-001) (2, 3.30778616097514970000e-001) (3, 1.27079759318954680000e-001) (4, 7.70254186203573670000e-001) (5, 1.14622709953586390000e-001) (6, -1.53394889138685150000e-001) (7, 3.28895036209358170000e-002) (8, -1.43665973444658670000e-001) (0, -3.76509698396545260000e-002) (1, 4.54742559508381160000e-001) (2, -3.01634310488820670000e-001) (3, -4.28273761080672610000e-001) (4, -3.51869041072051970000e-001) (5, -2.81971618769888630000e-001) (6, 3.73975237030240050000e-001) (7, -2.58979336026872730000e-001) (8, -2.92405060657041080000e-001) (0, 6.02657791670609290000e-001) (1, 1.43987233602303620000e-001) (2, 7.42115935251115850000e-001) (3, 4.99168968980409910000e-001) (4, -1.28921105258690910000e-001) (5, 5.14333016921615040000e-001) (6, -6.67891647862973590000e-002) (7, 6.78640326496048440000e-001) (8, -1.79932441851619550000e-001) (0, -3.55006250699369310000e-001) (1, -4.15335341574679880000e-001) (2, -4.03829602042686310000e-001) (3, -3.20602857908062870000e-001) (4, -3.35536216175281950000e-001) (5, -4.15884383716567940000e-001) (6, -3.17024410825765660000e-001) (7, -2.46018680469804130000e-001) (8, -3.18370660825336050000e-001) (0, -2.95236340957067240000e-001) (1, -2.60884113101051580000e-001) (2, -2.45969990052998470000e-001) (3, -2.64332423637047180000e-001) (4, -3.12920861859334540000e-001) (5, -3.98118470661939060000e-001) (6, -3.25404123409342830000e-001) (7, -2.48920133009842390000e-001) (8, -3.27992466182764400000e-001) (0, 6.12408515204531540000e-001) (1, 2.27682825453718480000e-001) (2, 1.97372556237700890000e-001) (3, 8.61811364492248710000e-002) (4, 9.96281440639846530000e-002) (5, 2.03344725199583740000e-001) (6, 2.10817109960712290000e-001) (7, 1.24427951736436240000e-001) (8, 9.94806509549830550000e-002) (0, 1.77610724785250610000e-001) (1, -3.26008024779514630000e-001) (2, 3.44364232861836260000e-001) (3, -4.46211835114161130000e-001) (4, -4.14471427469911000000e-001) (5, -3.71899899117637380000e-001) (6, 4.47662572006897800000e-001) (7, 1.71920703070880420000e-001) (8, -2.90931474308913310000e-001) (0, 1.44539067422465380000e-002) (1, 2.59082849496034660000e-001) (2, 2.92973453398226220000e-001) (3, 1.82469521197285130000e-001) (4, 3.61924205198478570000e-001) (5, 2.61422350814776770000e-001) (6, 2.51740483436501910000e-001) (7, -4.45118737480507900000e-003) (8, 1.22113245358726770000e-001) (0, 4.98404314769273490000e-001) (1, 1.44705634080635080000e-001) (2, 9.51890680686723610000e-002) (3, 5.43635063114719990000e-001) (4, 2.27755564256253810000e-002) (5, 1.72049019412973850000e-001) (6, 7.45037195974499050000e-002) (7, 6.32704472293913470000e-001) (8, 1.42346624721756160000e-001) (0, -1.15818433499642150000e-001) (1, -1.27969446893724530000e-001) (2, -1.69736327159441400000e-001) (3, -6.22321081225881560000e-002) (4, -2.03810527334122750000e-001) (5, -3.36154564020447050000e-002) (6, -7.95820632479249810000e-002) (7, -1.06708488187918750000e-001) (8, -2.66878565231316370000e-001) (0, 5.96282115952620150000e-001) (1, 5.03296789690523160000e-001) (2, 4.31322464090092890000e-001) (3, 2.68205383317693890000e-001) (4, 6.23003268108845430000e-001) (5, 5.65804588922007690000e-001) (6, 5.70017278862500090000e-001) (7, 4.77888463665498310000e-001) (8, 4.79190259243311100000e-001) (0, 5.90102670844737000000e-001) (1, 1.01319986444843570000e+000) (2, 7.30342573632216440000e-001) (3, 8.06572150410255650000e-001) (4, 7.35292107149486900000e-001) (5, 8.21585763849891130000e-001) (6, 8.64640972703971670000e-001) (7, 6.81314846621367880000e-001) (8, 6.51012947792941500000e-001) (0, 6.50850140554637300000e-001) (1, 7.12481413527876330000e-002) (2, 1.77172206700109300000e-001) (3, 7.70108592154394350000e-003) (4, 2.62501729497145230000e-001) (5, 1.22859319607634590000e-001) (6, 3.51968544068948850000e-002) (7, 6.31125909709070450000e-001) (8, 9.77075522297950580000e-001) (0, -4.07517480914322220000e-001) (1, -3.60725646176442260000e-001) (2, -3.67763734975588170000e-001) (3, -4.37508170465825570000e-001) (4, -4.55184637183036980000e-001) (5, -3.78759096449739210000e-001) (6, -4.14566217391539430000e-001) (7, -3.55220210369661950000e-001) (8, -2.93299904271483950000e-001) (0, 5.49354307259817490000e-001) (1, 2.45558471036731090000e-001) (2, 2.21449771520232370000e-001) (3, 9.77871216166549400000e-002) (4, 1.31617615771169150000e-001) (5, 2.11928480382484440000e-001) (6, 2.03229748102043690000e-001) (7, 6.09143029427854140000e-001) (8, 2.04048912009029300000e-001) (0, 5.21802168809628600000e-001) (1, 9.80757110859840630000e-001) (2, 6.65799806565594790000e-001) (3, 7.87038590070588740000e-001) (4, 7.89676783640236750000e-001) (5, 1.29106372729213440000e+000) (6, 8.75908981096149120000e-001) (7, 1.37872420364356670000e+000) (8, 1.05396505976408440000e+000) (0, -2.66949322400794440000e-001) (1, -1.89893531165757770000e-001) (2, 5.56482256982860140000e-001) (3, -1.62238025485005130000e-001) (4, 6.14024694138883050000e-001) (5, 6.55213805653150900000e-001) (6, 6.65622180768809750000e-001) (7, -8.63708401338339620000e-002) (8, -2.79975980431135030000e-001) (0, 4.88045055658787790000e-002) (1, -3.33859484096751700000e-001) (2, -3.33302230742588630000e-001) (3, 2.20026914138848280000e-001) (4, -2.56114271989543400000e-001) (5, -2.96076382420623340000e-001) (6, -2.50536513336856060000e-001) (7, 1.16587221635449540000e-001) (8, -2.84987518315678700000e-001) (0, 1.22194261941861750000e-001) (1, 6.59287994559082660000e-002) (2, 2.86733067164583300000e-001) (3, 5.20295167728958450000e-001) (4, 4.06109410025466200000e-002) (5, 4.95712897118906700000e-001) (6, 3.25183472730657230000e-001) (7, 5.99930959082602520000e-001) (8, 1.59763060695289170000e-001) (0, 5.15735694743219560000e-001) (1, 5.63802243787826280000e-001) (2, 5.21364042062883120000e-001) (3, 7.50198953088113570000e-001) (4, 6.54346473063133200000e-001) (5, 1.25983719093409520000e-001) (6, 7.47145300504345020000e-001) (7, 1.19484098274086280000e+000) (8, 5.15971722716438430000e-001) (0, 8.41171450829466260000e-002) (1, 3.75657349218489700000e-001) (2, -6.23065241585338600000e-001) (3, 8.43125217297525760000e-001) (4, 7.24058076914682380000e-001) (5, 9.58479689399169210000e+000) (6, 1.17825484706062800000e-001) (7, -3.01346100186287820000e-001) (8, 2.20388084584618950000e-001) (0, -3.10041563707111060000e-001) (1, 3.92594553329753680000e-001) (2, -4.27356573230599890000e-001) (3, -2.48859871577453620000e-001) (4, -3.03095538726336490000e-001) (5, -2.23671056414060320000e-001) (6, 3.27350939548867790000e-001) (7, -3.65220490674712290000e-001) (8, -2.71528633142715640000e-001) (0, -2.70783873282366860000e-001) (1, -2.99550383214738420000e-001) (2, -3.08584820051211520000e-001) (3, -4.40661902377197320000e-001) (4, -3.82419275804587900000e-001) (5, -3.79705219060925970000e-001) (6, -2.58292399758300980000e-001) (7, -3.72831858271767180000e-001) (8, -3.67079070444927820000e-001) (0, 7.98212189645930580000e-002) (1, 3.33536529808240510000e-002) (2, 2.73852216691790770000e-001) (3, 4.94445240909267110000e-001) (4, 3.72069383749535560000e-002) (5, 5.79838197727895910000e-001) (6, 1.33509857832147310000e-001) (7, 5.40452141756263660000e-001) (8, 1.67204041009521630000e-001) (0, 4.01821499369922900000e-001) (1, 6.42921376724059910000e-001) (2, 3.49949227979077400000e-001) (3, 1.30783298225088050000e+000) (4, 1.46051345049111130000e+000) (5, 8.80448181638336710000e-001) (6, -1.18534605263260840000e-001) (7, -2.84530070095977460000e+000) (8, 5.09008309558593220000e-001) (0, -2.26507379369049880000e-001) (1, -3.89857134599540800000e-001) (2, -3.69291077690541700000e-001) (3, -3.83173623975263720000e-001) (4, -2.58893185043972850000e-001) (5, -3.09511872545624340000e-001) (6, -3.45239913580075390000e-001) (7, -4.12458001555220110000e-001) (8, -2.69811659270151940000e-001) (0, -3.53852590487808390000e+000) (1, -9.50957072237642010000e+000) (2, -1.06255355207404230000e+000) (3, 8.28091101327297800000e-001) (4, 3.69592842715275790000e+000) (5, -3.17663669360202090000e+000) (6, -1.73625580658709060000e-001) (7, -2.80859669817788360000e+000) (8, 3.88787271677808690000e-001) (0, -4.14484356985344860000e-002) (1, 4.18890856821943820000e-001) (2, -2.55036229482327570000e-001) (3, -4.18767690552350300000e-001) (4, -2.74370439919237490000e-001) (5, -2.89399042200044090000e-001) (6, 2.69360095997518870000e-001) (7, -3.64856273026860080000e-001) (8, -3.47997286656804350000e-001) (0, -1.14000943717739910000e-002) (1, -2.49403484213556180000e-002) (2, 3.13974631877333490000e-001) (3, 2.83839121328078370000e-001) (4, 5.47268320290373310000e-001) (5, 2.31259791520962070000e-001) (6, 4.14996097866539570000e-001) (7, 2.17257624397648870000e-001) (8, 2.06296511071280220000e-001) (0, -5.73915441160356640000e-001) (1, -2.14483538871994420000e-001) (2, 6.17725299198652930000e-001) (3, -2.94815520031103950000e-001) (4, -2.33371881047871520000e-001) (5, -1.85469304665206590000e-001) (6, -2.24289931705938060000e-001) (7, -3.45974008436070730000e-001) (8, -2.56387229431355500000e-001) (0, -1.59352582317275750000e-001) (1, -1.81404825104487940000e-001) (2, 3.12718974814609810000e-001) (3, 2.51754753693309240000e-001) (4, 3.56026480675969930000e-001) (5, 2.00030289660386160000e-001) (6, 1.25868525228688170000e-002) (7, -7.86601666876805550000e-001) (8, 1.90627823234292730000e-001) (0, 6.28175295333307850000e-001) (1, 4.35337516832005110000e-001) (2, -5.39469067031431380000e-001) (3, 8.05659621123731020000e-001) (4, 8.27814796557349690000e-001) (5, -8.07117812219514810000e-002) (6, 3.81715499570620060000e-001) (7, 5.39626423883683760000e-001) (8, 4.51132030591303910000e-001) (0, -2.81496764651567590000e-003) (1, 3.31230431486878970000e-001) (2, -2.58161357949167610000e-001) (3, -3.72427808853653510000e-001) (4, -2.95605517732536070000e-001) (5, -2.59106124691139530000e-001) (6, 3.52409054874306740000e-001) (7, -3.46631512318000880000e-001) (8, -2.72201532884295660000e-001) (0, -2.42991970894297580000e-001) (1, 4.42612224545808510000e-001) (2, 5.71546389897794050000e-001) (3, -3.59126785298599040000e-001) (4, 2.01560648450315350000e-001) (5, -2.90038646273448280000e-001) (6, 4.33663637930565390000e-001) (7, -2.02092112133555100000e-001) (8, -2.72321981582094700000e-001) (0, -3.06550804143266120000e+000) (1, 2.40784014103637610000e+000) (2, 7.29067652939405430000e+000) (3, 2.36398108803713350000e+000) (4, 5.39229776386139670000e-001) (5, 6.74378780603590130000e-001) (6, -1.53100502992402480000e+000) (7, 7.54555337665996630000e+000) (8, 1.14141210446661660000e+000) (0, 4.28954787655003380000e-002) (1, 2.74332739077663030000e-001) (2, 8.34842902238231570000e-002) (3, -1.19591805727330270000e-001) (4, 1.81790193440689970000e-001) (5, 1.65552744734974580000e-001) (6, 5.79306451613433790000e-002) (7, 2.49236687320082640000e-001) (8, 1.50560983941494720000e-001) (0, 2.35676776889753390000e-001) (1, 6.73498021651693960000e-003) (2, 2.55096309670927390000e-001) (3, -2.02195588492759290000e-002) (4, 2.93599163330670150000e-001) (5, 4.40536698366383540000e-001) (6, 3.28404331253386030000e-001) (7, 5.39812426129190000000e-001) (8, 1.33927464368867400000e-001) (0, 6.19119125194659170000e-001) (1, 4.36336238341356540000e-001) (2, 4.24221454018527460000e-001) (3, 5.98515964845756640000e-001) (4, 5.57974972283706520000e-001) (5, 6.01068765981915830000e-001) (6, 5.90807252203548240000e-001) (7, 6.27157926044627390000e-001) (8, 5.13937681175358540000e-001) (0, -5.14936371062914120000e-003) (1, 4.61845137330193280000e-001) (2, -2.46490260605279480000e-001) (3, -3.64415535784089310000e-001) (4, -2.50187284546492250000e-001) (5, -2.92185007680351270000e-001) (6, 3.88666507713001820000e-001) (7, -2.78871961985236730000e-001) (8, -3.30597188661520440000e-001) (0, -2.28565416043456180000e-001) (1, -2.79053197437661440000e-001) (2, -4.19962781820557240000e-001) (3, -3.22021827150190120000e-001) (4, -2.66051476305714410000e-001) (5, -3.45524482227621170000e-001) (6, -3.85725301621044400000e-001) (7, -3.44416025349850660000e-001) (8, -3.06783506013318830000e-001) (0, 8.04995464446979230000e-001) (1, 3.22966982714269070000e+000) (2, -6.91426474355429210000e+000) (3, 4.86516007707180010000e-001) (4, 4.94246339691431920000e+000) (5, 7.97472633482909870000e-001) (6, 1.30196308692223830000e+000) (7, 1.59374063809068660000e+001) (8, 6.94683558954630520000e-001) (0, 5.96329282868001690000e-001) (1, 2.47378759147023040000e-001) (2, 1.66678490626163330000e-001) (3, 4.73922498604924690000e-001) (4, 4.65102692048287090000e-002) (5, 3.92544344091366900000e-001) (6, 1.53910287579408390000e-001) (7, 1.91408424121195270000e-001) (8, -1.50367699815136400000e-001) (0, 1.12366307386630670000e+000) (1, 2.65637221239249040000e-001) (2, 1.90686121806252800000e-001) (3, 1.55169807171980670000e-001) (4, 9.28197038320813790000e-002) (5, 1.23638321291442090000e-001) (6, 2.01895832186621440000e-001) (7, 1.56827329752253300000e-001) (8, 1.70086926039368760000e-001) (0, 6.66786024136458160000e-002) (1, 8.99008595895982030000e-002) (2, 1.56658241084805750000e-001) (3, 1.77905543469964500000e+000) (4, 4.68870083704970080000e-001) (5, -2.57392432216892450000e-001) (6, 2.06732489519238890000e-001) (7, 2.74833775705509040000e-001) (8, 2.14131580065829250000e-001) (0, 2.31846088155794240000e-001) (1, 2.86959183627625330000e-002) (2, 2.20992826158085990000e-001) (3, 5.15915217074559340000e-001) (4, 6.71390374653988990000e-002) (5, 5.42530812031343680000e-001) (6, 1.28426135752210150000e-001) (7, 4.66204523930663640000e-001) (8, 1.09911680508531270000e-001) (0, -1.14864111527659230000e+000) (1, 6.46516182706906720000e-002) (2, 3.15351590020507670000e-001) (3, 1.03630277182321410000e-001) (4, 1.15698886704213920000e-001) (5, 3.86502028452964520000e-002) (6, -1.28113673433460330000e-001) (7, -6.76242879695571900000e-002) (8, 1.58021612767726860000e-001) (0, 3.28997903046940320000e-001) (1, 1.20758414303055980000e-001) (2, 2.35454581407865490000e-001) (3, 9.50691806293296190000e-002) (4, 3.92828194551801510000e-001) (5, 4.78876828803015520000e-001) (6, 2.71624153140047450000e-001) (7, 4.77189631124620370000e-001) (8, 1.89964361967471270000e-001) (0, -4.48139158508537170000e-002) (1, 2.71819137724853100000e-002) (2, 5.72576778056704590000e-001) (3, 9.12171567800257320000e-001) (4, 4.53190405878430960000e-001) (5, 3.48295052792729490000e-001) (6, 9.37441358265640350000e-001) (7, 3.87025754906575040000e-001) (8, -1.42407188126848740000e-001) (0, -4.35707364949544370000e-001) (1, -3.55520609335311770000e-001) (2, -3.48979117037811430000e-001) (3, -4.09914775555257630000e-001) (4, -2.69821229878921490000e-001) (5, -2.13648825759608450000e-001) (6, -2.67815931884400620000e-001) (7, -3.83423471659810330000e-001) (8, -2.82820075644954430000e-001) (0, 1.02914354818719940000e-001) (1, 1.62946116840844700000e-001) (2, 6.15033027676726410000e-001) (3, 6.74274418955768560000e-001) (4, -1.15515211782911100000e-002) (5, 2.68900925077309970000e-002) (6, -4.53942761718270980000e-002) (7, 4.92247907488623900000e-001) (8, 5.86213749421433600000e-002) (0, 7.12688299566656910000e-001) (1, 2.17889087880604710000e-001) (2, 7.95512087419243260000e-002) (3, 7.78722975764272600000e-002) (4, 2.01886026666175780000e-001) (5, 1.29698972069219020000e-001) (6, 1.95299709409136490000e-001) (7, 4.88226472039986650000e-001) (8, 9.53684777500698240000e-001) (0, 4.95930296039374940000e-001) (1, 4.70752871918559910000e-001) (2, 1.29705460458714720000e+000) (3, 1.33467296583465230000e+000) (4, 6.65531859455287480000e-001) (5, 5.96359890861946850000e-001) (6, 7.68294132455272780000e-001) (7, 6.99274860989091200000e-001) (8, 1.09584204210861080000e+000) (0, -2.17769489267277070000e-001) (1, 5.93304391672372920000e-001) (2, 6.82778693364832770000e-001) (3, 4.26055546638796580000e-001) (4, 2.71947268980224140000e-001) (5, 6.84504151269808570000e-001) (6, 7.21676512986577650000e-001) (7, -1.15782442920970220000e-001) (8, -1.90121274806928670000e-001) (0, 5.60059248489178760000e-001) (1, -1.43804789910421280000e-001) (2, 7.62734786385951600000e-001) (3, 6.37617645972213040000e-001) (4, -7.23313197416541600000e-002) (5, 1.61217642439971050000e-001) (6, 8.77752358284478730000e-002) (7, 1.41679073148953950000e-001) (8, -1.77843697709561930000e-001) (0, -4.91288750842220280000e-002) (1, -1.89774683794083830000e-001) (2, 4.33092319321059680000e-001) (3, 3.44677011508708330000e-001) (4, 3.14887942668426400000e-001) (5, 3.01885887229917600000e-001) (6, -1.71851135951208380000e-001) (7, -1.13823140335249320000e-001) (8, 1.73305560350880960000e-001) (0, 1.19192599085918310000e-001) (1, 2.48754897098693890000e-001) (2, 5.26533559288837540000e-002) (3, 1.75181377222269540000e-001) (4, 1.27414301018973270000e-001) (5, 8.90624782999309140000e-002) (6, 1.17932579089004440000e-001) (7, 1.50287780260569490000e-001) (8, 1.55574302042133180000e-001) (0, -4.93016555519330930000e-001) (1, -3.24787894053143680000e-001) (2, -3.18784820812271940000e-001) (3, -2.03911654330777510000e-001) (4, -2.59147163083546070000e-001) (5, -2.00086903345728320000e-001) (6, -2.99062455960490800000e-001) (7, -3.06792747179970520000e-001) (8, -3.39583328501395330000e-001) (0, 5.03031535074066840000e-001) (1, 1.04973393460218680000e+000) (2, 1.10248943079920480000e+000) (3, 8.05580704347197310000e-001) (4, 7.71158283687250370000e-001) (5, 1.24208969543231970000e+000) (6, 1.15703250517985360000e+000) (7, 5.97217934691471110000e-001) (8, 1.18255689537915810000e+000) (0, 6.69478448141609390000e-001) (1, -2.44771765215857600000e-002) (2, 2.30066827615107130000e-001) (3, 7.78399456334173960000e-002) (4, 1.15608447601505070000e-001) (5, 8.85963508035452480000e-002) (6, 1.15830351974665690000e-002) (7, 6.31449362545885460000e-001) (8, 1.11886377500472170000e-001) (0, 4.67912035863136260000e-002) (1, 3.14422464309389530000e-001) (2, -3.22028040989790040000e-001) (3, -4.24811397959772300000e-001) (4, -4.16813994078824250000e-001) (5, -3.50999721827932150000e-001) (6, -3.37358590195904970000e-001) (7, -3.50931034793435290000e-001) (8, -3.25596713492585620000e-001) (0, 5.03895826021748090000e-001) (1, 4.53618857475876990000e-001) (2, 5.13348253203070870000e-001) (3, 1.32531318817886800000e+000) (4, 1.09436396229480140000e+000) (5, 6.30790099838075660000e-001) (6, 1.44090489481043990000e+000) (7, 5.07848362779035330000e-001) (8, 1.16395227793081710000e+000) (0, 4.46221721965348650000e-001) (1, 5.61263919041097510000e-001) (2, 6.95643178673713170000e-001) (3, 5.89426765516344100000e-001) (4, 6.39721064497726480000e-001) (5, 5.21614113224050490000e-001) (6, 6.98753437052318520000e-001) (7, 5.82586847556428090000e-001) (8, 5.46865544885969170000e-001) (0, 6.28575214147919280000e-001) (1, 2.69589185139371160000e+000) (2, 2.69465450234988600000e+000) (3, 1.39440984072345970000e+000) (4, 8.55263629961729550000e-001) (5, 8.34730742980860580000e-001) (6, 6.50126724253843880000e-001) (7, 6.20501873735291420000e-001) (8, 1.19798061247038310000e+000) (0, 2.16725430709119680000e-001) (1, 2.69216160710472020000e-002) (2, 1.29608385415320470000e-001) (3, 6.30103996553558090000e-001) (4, 7.00717974669627240000e-002) (5, 1.97958456783989300000e-001) (6, 1.57591757099165700000e-001) (7, 5.72208282144452850000e-001) (8, 1.41011953218446590000e-001) (0, 6.11999905784636810000e-001) (1, 1.48263430311326770000e-001) (2, 1.66506047577744070000e-001) (3, 1.87784555284541770000e-001) (4, 1.16962601341281100000e-001) (5, 1.39330789681308050000e-001) (6, 2.02790379720260840000e-001) (7, 1.16190543121414300000e-001) (8, 1.97789213353354390000e-001) (0, 4.43281962703509110000e-001) (1, 1.72654484395199650000e-001) (2, 1.88458865887458860000e-001) (3, 6.44963308744848090000e-001) (4, 1.11994560401588780000e-001) (5, 1.41594958975329120000e-001) (6, -1.01206946380135230000e-003) (7, 5.44042882517746130000e-001) (8, 1.75153854828993980000e-001) (0, 2.97312753155584970000e-001) (1, -3.08164172499121760000e-002) (2, -4.86141302429415330000e-002) (3, -4.99306267853474590000e-002) (4, 2.12679567641319430000e-001) (5, 5.33299528357200290000e-001) (6, 3.08281034989822010000e-001) (7, 4.83855040476572910000e-001) (8, -2.26876295973353350000e-001) (0, -2.11449450015021990000e-001) (1, -4.34011524768723510000e-001) (2, -2.67471317843747890000e-001) (3, -3.13645246572041790000e-001) (4, -2.28869387123512900000e-001) (5, -3.31788908133475450000e-001) (6, -3.63670367471518320000e-001) (7, -2.13917522556312580000e-001) (8, -2.84049083256602890000e-001) (0, 9.32972879631138400000e-001) (1, 1.06013540486929390000e+000) (2, 6.49553190033594460000e-001) (3, 3.41797440178217780000e-001) (4, 9.10396713938223080000e-001) (5, 1.32866348911279200000e+000) (6, 7.83434174087155320000e-001) (7, 7.30032947125290430000e-001) (8, 6.16580401337616050000e-001) (0, 6.61651187955800470000e-001) (1, 1.05667981507299280000e-001) (2, 1.38659948357829190000e-001) (3, 4.40945048443614820000e-001) (4, 1.46914045983311560000e-001) (5, 6.01912370401774740000e-002) (6, 1.35766619673159730000e-001) (7, 6.68398694715656600000e-001) (8, 1.22317248469704900000e-001) (0, 2.16401962067315600000e-001) (1, -5.81112359010593990000e-001) (2, 3.41921706604108590000e-001) (3, -4.67919644053288760000e+000) (4, 3.44902054302505070000e+000) (5, -3.50608152782489120000e-002) (6, -2.07496901939392940000e+000) (7, -1.09007957666964870000e+000) (8, 3.15731900950302070000e-001) (0, -1.45816531606937640000e-001) (1, -2.87939893521630570000e-001) (2, 4.26982268820591930000e-001) (3, 8.11506859966897640000e-001) (4, -4.97604712656073590000e-001) (5, 6.64066486550732750000e-001) (6, -4.12405360547366770000e-003) (7, 7.77157033666434490000e-002) (8, 5.63922321711167740000e-001) (0, 9.86123729959860330000e-002) (1, 1.90654896291089500000e-001) (2, 3.60182574017368360000e-001) (3, 1.54527918559638050000e-002) (4, 2.94076741838513180000e-001) (5, 5.95268652782149910000e-001) (6, -1.00752511547882080000e-001) (7, 3.45458546300901560000e-001) (8, 2.24595894726101340000e-001) (0, -3.74727812362773900000e-002) (1, -1.20421979341472830000e-001) (2, 5.86575239104340840000e-001) (3, -4.05009562890797160000e-002) (4, -1.47169910689810170000e-001) (5, 6.10127660653503660000e-001) (6, 6.70957758837120830000e-001) (7, 4.37746543954236900000e-001) (8, -2.25320225666587100000e-001) (0, -2.32070030734507470000e-001) (1, 4.60729514498483870000e-001) (2, -3.02319365850971190000e-001) (3, -2.70213053466443200000e-001) (4, -2.84477570873677480000e-001) (5, -3.95431952542106110000e-001) (6, 3.46747909461639080000e-001) (7, -4.28174411228575580000e-001) (8, -3.24810528222876870000e-001) (0, -4.52355143412999150000e-001) (1, -3.78163935709869110000e-001) (2, -3.97919134379235370000e-001) (3, -3.29817633742026270000e-001) (4, -2.75322135962763000000e-001) (5, -4.09331061124416860000e-001) (6, -3.60340876976463660000e-001) (7, -2.64824577046496200000e-001) (8, -3.26342649949973860000e-001) (0, 2.40383705438371550000e+000) (1, 2.77863435267028790000e+000) (2, -6.89771044028840310000e+000) (3, -9.36028134980374200000e+000) (4, -3.25023649223901500000e+001) (5, 2.85274758091239500000e+000) (6, -4.14233962891131000000e+001) (7, 2.01052808094275550000e+001) (8, 5.77565407137909050000e-001) (0, 8.01076116283980790000e-002) (1, 6.12676098649844620000e-001) (2, 4.25154955245253710000e-001) (3, -2.57369442901217220000e-001) (4, -2.37679244586998960000e-001) (5, -3.91864474105325600000e-001) (6, 3.20461341566614540000e-001) (7, 1.88926950914272530000e-001) (8, -2.79382702872178980000e-001) (0, 8.50040932904230660000e-001) (1, 1.40217956115274260000e+000) (2, 1.44821660587443790000e+000) (3, 1.52861840620508800000e+000) (4, 1.39612361777882030000e+000) (5, 1.40542956452574350000e+000) (6, 1.39285489471987070000e+000) (7, 1.50483639331993690000e+000) (8, 1.26242757536147730000e+000) (0, 5.31977249891211490000e+001) (1, -1.82811341685409940000e+001) (2, 1.34129826154782250000e+002) (3, -1.87517767482972030000e+001) (4, -4.43379876279004680000e+001) (5, 1.72137215859276830000e-001) (6, -1.88485155238770790000e+001) (7, 8.97363010162732170000e+001) (8, -1.66234219051242250000e+000) (0, 5.36260509020570870000e-001) (1, 6.45150447282552440000e-001) (2, 5.11840009559263560000e-001) (3, 7.22155067172693070000e-001) (4, 6.90794592100969050000e-001) (5, 1.00453818565639490000e+000) (6, 8.39950677826916010000e-001) (7, 1.16936637557787690000e+000) (8, 5.22923648552681810000e-001) (0, 7.04295028893003110000e-001) (1, 5.55503895697346370000e-001) (2, 6.67386448076050520000e-001) (3, 1.23292583367560840000e+000) (4, 1.05846823530468460000e+000) (5, 1.54303212818613880000e+000) (6, 8.03403334756673140000e-001) (7, 7.26938763892575170000e-001) (8, 6.70237460632945540000e-001) (0, -3.55857573861798670000e-001) (1, -3.12374653088972440000e-001) (2, -3.06196898668381900000e-001) (3, 2.48070395771284230000e-001) (4, -3.26453347825109370000e-001) (5, -2.78214985580598710000e-001) (6, -1.99421701852468210000e-001) (7, -3.47513831196508470000e-001) (8, -3.32588687635203160000e-001) (0, 4.67385877241735970000e-001) (1, 3.70551738519688420000e-001) (2, 6.53171189908011480000e-001) (3, 1.96412051726423850000e-002) (4, 7.42793073496999110000e-002) (5, 6.19915358894439720000e-001) (6, 6.13775115913834820000e-001) (7, 5.34680452071768180000e-001) (8, -1.95197911661249420000e-001) (0, 1.22328588200598260000e-001) (1, -2.45143068857489740000e-001) (2, -3.72918041125322450000e-002) (3, -1.03512729636264730000e-001) (4, 7.92858366161600210000e-001) (5, 4.12353970372385530000e-001) (6, 2.87666002908684270000e-001) (7, 2.31249869150716330000e-001) (8, 1.62066936704924420000e-001) (0, 6.34955404289926920000e-001) (1, 8.40747691133928780000e-001) (2, 1.26347881362434310000e+000) (3, 8.56691515202960390000e-001) (4, 8.22774006869070540000e-001) (5, 8.26338992237236720000e-001) (6, 6.97922177911055600000e-001) (7, 6.42753188593010230000e-001) (8, 1.17485016133091280000e+000) (0, -2.91504061930222050000e-001) (1, -4.27030062728387280000e-001) (2, 4.03769003539572180000e-001) (3, -3.13260639117849290000e-001) (4, 1.71170764256083070000e-001) (5, -2.79441310157209850000e-001) (6, -2.13094221728449440000e-001) (7, -3.51725376353809790000e-001) (8, -3.09089350816755760000e-001) (0, -2.60971114248630290000e-001) (1, -3.41852888242023810000e-001) (2, -2.58055818856287200000e-001) (3, -2.29849806883342360000e-001) (4, 5.43460722551631690000e-001) (5, -3.42608411492536350000e-001) (6, -2.41209304609421610000e-001) (7, -2.61169279628156230000e-001) (8, -2.54159470375174830000e-001) (0, 1.81745144101818110000e-001) (1, 1.82418497897622930000e-001) (2, 1.18340643345949350000e-001) (3, 4.62870798313329720000e-001) (4, 4.56005734532045700000e-002) (5, 4.91161887264111420000e-001) (6, 1.40168369398967730000e-001) (7, 7.05110549761566510000e-001) (8, 2.12738983724251100000e-001) (0, -3.37542655538960850000e-001) (1, -2.53318485948059950000e-001) (2, 5.07461315987802750000e-001) (3, -3.83921305489538900000e-001) (4, 1.16556433142276040000e-001) (5, -3.45228125400406430000e-001) (6, -3.48710653742898720000e-001) (7, -4.14880418047885110000e-001) (8, -2.92340147605589740000e-001) (0, -5.39644386961245500000e-001) (1, -6.64011537569441130000e+000) (2, 1.62119284877967900000e+001) (3, 7.88915306173487350000e+000) (4, -1.06759230497294020000e+001) (5, -1.54126121622043770000e+001) (6, 1.86956976735351890000e+001) (7, -9.16966289646915200000e+000) (8, 1.61053863805158540000e-001) (0, -4.11986675647148470000e-001) (1, -1.39422831456532450000e-001) (2, -2.89117153563023420000e-001) (3, -2.69031425264805610000e-001) (4, -3.07262329781301190000e-001) (5, -3.79797325989694010000e-001) (6, -3.95257744910113170000e-001) (7, -3.64624515725633980000e-001) (8, -2.80777176777043170000e-001) (0, 1.44275133544073040000e-001) (1, 3.94283733891843120000e-002) (2, 3.00820141510577180000e-001) (3, 3.80268604574555640000e-001) (4, 3.53459882129158190000e-001) (5, 5.76141407399044740000e-001) (6, 1.45676152845886670000e-001) (7, 5.32118232197005380000e-001) (8, 2.52484432821073750000e-001) (0, 2.08285387346872880000e-001) (1, -9.36596666468666320000e-002) (2, 3.83741107428192510000e-001) (3, 2.87136475901841940000e-001) (4, 1.88122477147769420000e-001) (5, 5.14678186529718750000e-001) (6, -2.69570743093498040000e-002) (7, 3.34528357275314050000e-001) (8, 2.04035182852434690000e-001) (0, 5.52526984509244870000e-001) (1, 7.46970651074626790000e-001) (2, 1.25039069857294980000e+000) (3, 8.28675728504563950000e-001) (4, 1.21902312241158930000e+000) (5, 6.97753741670053000000e-001) (6, 7.62663775290682520000e-001) (7, 5.44024916581511640000e-001) (8, 1.15263520025516870000e+000) (0, 1.76090568976159820000e-003) (1, 1.77553845314719690000e+000) (2, 