FANN_FLO_2.1
num_layers=3
learning_rate=0.700000
connection_rate=1.000000
network_type=0
learning_momentum=0.000000
training_algorithm=2
train_error_function=1
train_stop_function=0
cascade_output_change_fraction=0.010000
quickprop_decay=-0.000100
quickprop_mu=1.750000
rprop_increase_factor=1.200000
rprop_decrease_factor=0.500000
rprop_delta_min=0.000000
rprop_delta_max=50.000000
rprop_delta_zero=0.100000
cascade_output_stagnation_epochs=12
cascade_candidate_change_fraction=0.010000
cascade_candidate_stagnation_epochs=12
cascade_max_out_epochs=150
cascade_max_cand_epochs=150
cascade_num_candidate_groups=2
bit_fail_limit=3.49999999999999980000e-001
cascade_candidate_limit=1.00000000000000000000e+003
cascade_weight_multiplier=4.00000000000000020000e-001
cascade_activation_functions_count=10
cascade_activation_functions=3 5 7 8 10 11 14 15 16 17 
cascade_activation_steepnesses_count=4
cascade_activation_steepnesses=2.50000000000000000000e-001 5.00000000000000000000e-001 7.50000000000000000000e-001 1.00000000000000000000e+000 
layer_sizes=9 4 6 
scale_included=0
neurons (num_inputs, activation_function, activation_steepness)=(0, 0, 0.00000000000000000000e+000) (0, 0, 0.00000000000000000000e+000) (0, 0, 0.00000000000000000000e+000) (0, 0, 0.00000000000000000000e+000) (0, 0, 0.00000000000000000000e+000) (0, 0, 0.00000000000000000000e+000) (0, 0, 0.00000000000000000000e+000) (0, 0, 0.00000000000000000000e+000) (0, 0, 0.00000000000000000000e+000) (9, 6, 5.00000000000000000000e-001) (9, 6, 5.00000000000000000000e-001) (9, 6, 5.00000000000000000000e-001) (0, 6, 0.00000000000000000000e+000) (4, 6, 5.00000000000000000000e-001) (4, 6, 5.00000000000000000000e-001) (4, 6, 5.00000000000000000000e-001) (4, 6, 5.00000000000000000000e-001) (4, 6, 5.00000000000000000000e-001) (0, 6, 0.00000000000000000000e+000) 
connections (connected_to_neuron, weight)=(0, -6.27819752379824350000e+000) (1, -1.36202589473734830000e+001) (2, -4.85706687826457540000e+000) (3, 1.88823714194089370000e+001) (4, 2.89379431826780390000e+000) (5, 5.19767199300956940000e+000) (6, -3.71261931033918560000e+001) (7, 3.84906081232316310000e+001) (8, 8.78877881283230740000e-001) (0, -1.03277426686725590000e+000) (1, -2.28562498155252580000e+000) (2, -1.57150640415302200000e+000) (3, 5.97001312740651620000e+000) (4, 1.07849017706574580000e+000) (5, -2.97081858971252940000e+000) (6, -3.64645828976549200000e+000) (7, 6.89670099581481820000e+000) (8, 7.79153656456026740000e-001) (0, 9.62522827399523170000e+000) (1, 2.24057452142991310000e+000) (2, -5.82628960185643230000e+000) (3, 7.81734075278875910000e+000) (4, 1.58692598468548840000e+001) (5, -3.33601537978439350000e+001) (6, 2.61170686033151290000e+001) (7, -9.27143273943775630000e+000) (8, 4.89888489437024120000e-001) (9, -2.93554864579414930000e-001) (10, 9.74561857357801540000e-001) (11, -2.38720145646696440000e-001) (12, 4.10456207639184500000e-001) (9, 2.52924405766696110000e-001) (10, -9.19036628324531370000e-001) (11, -5.09392997455843450000e-002) (12, 1.09824582887837650000e+000) (9, -1.21861524146876360000e-001) (10, 4.19311168582644280000e-001) (11, -2.41713292996852760000e-001) (12, 9.62975360376429610000e-001) (9, 5.98986249687765930000e-001) (10, -1.94909477505477780000e+000) (11, 4.14608781351025520000e-001) (12, 1.37871245543435880000e+000) (9, 5.83530128378244580000e-001) (10, -1.24264783929501040000e+000) (11, 5.13807954320615320000e-001) (12, 1.15785983387753810000e+000) 
