FANN_FLO_2.1
num_layers=3
learning_rate=0.700000
connection_rate=1.000000
network_type=0
learning_momentum=0.000000
training_algorithm=2
train_error_function=1
train_stop_function=0
cascade_output_change_fraction=0.010000
quickprop_decay=-0.000100
quickprop_mu=1.750000
rprop_increase_factor=1.200000
rprop_decrease_factor=0.500000
rprop_delta_min=0.000000
rprop_delta_max=50.000000
rprop_delta_zero=0.100000
cascade_output_stagnation_epochs=12
cascade_candidate_change_fraction=0.010000
cascade_candidate_stagnation_epochs=12
cascade_max_out_epochs=150
cascade_max_cand_epochs=150
cascade_num_candidate_groups=2
bit_fail_limit=3.49999999999999980000e-001
cascade_candidate_limit=1.00000000000000000000e+003
cascade_weight_multiplier=4.00000000000000020000e-001
cascade_activation_functions_count=10
cascade_activation_functions=3 5 7 8 10 11 14 15 16 17 
cascade_activation_steepnesses_count=4
cascade_activation_steepnesses=2.50000000000000000000e-001 5.00000000000000000000e-001 7.50000000000000000000e-001 1.00000000000000000000e+000 
layer_sizes=9 21 6 
scale_included=0
neurons (num_inputs, activation_function, activation_steepness)=(0, 0, 0.00000000000000000000e+000) (0, 0, 0.00000000000000000000e+000) (0, 0, 0.00000000000000000000e+000) (0, 0, 0.00000000000000000000e+000) (0, 0, 0.00000000000000000000e+000) (0, 0, 0.00000000000000000000e+000) (0, 0, 0.00000000000000000000e+000) (0, 0, 0.00000000000000000000e+000) (0, 0, 0.00000000000000000000e+000) (9, 6, 5.00000000000000000000e-001) (9, 6, 5.00000000000000000000e-001) (9, 6, 5.00000000000000000000e-001) (9, 6, 5.00000000000000000000e-001) (9, 6, 5.00000000000000000000e-001) (9, 6, 5.00000000000000000000e-001) (9, 6, 5.00000000000000000000e-001) (9, 6, 5.00000000000000000000e-001) (9, 6, 5.00000000000000000000e-001) (9, 6, 5.00000000000000000000e-001) (9, 6, 5.00000000000000000000e-001) (9, 6, 5.00000000000000000000e-001) (9, 6, 5.00000000000000000000e-001) (9, 6, 5.00000000000000000000e-001) (9, 6, 5.00000000000000000000e-001) (9, 6, 5.00000000000000000000e-001) (9, 6, 5.00000000000000000000e-001) (9, 6, 5.00000000000000000000e-001) (9, 6, 5.00000000000000000000e-001) (9, 6, 5.00000000000000000000e-001) (0, 6, 0.00000000000000000000e+000) (21, 6, 5.00000000000000000000e-001) (21, 6, 5.00000000000000000000e-001) (21, 6, 5.00000000000000000000e-001) (21, 6, 5.00000000000000000000e-001) (21, 6, 5.00000000000000000000e-001) (0, 6, 0.00000000000000000000e+000) 
connections (connected_to_neuron, weight)=(0, 6.32941786806604960000e-001) (1, -1.48983880227835870000e-001) (2, 3.92869968650287800000e+000) (3, -1.58506348298239090000e+000) (4, -6.07073927617848060000e-001) (5, 1.96171521246180250000e+000) (6, 1.95769872941479430000e+000) (7, -8.96053021663926150000e+000) (8, -2.22705173595961380000e-002) (0, 4.06933032565241510000e+000) (1, 1.79591263306655510000e+001) (2, 1.88257314575193390000e+001) (3, -2.98351076244394240000e+001) (4, 6.72660513848396490000e+000) (5, 2.07082601403439530000e+001) (6, 2.71789054663006240000e-001) (7, 1.03213573096922140000e+001) (8, -1.98098102616569630000e-001) (0, 5.68172403914828480000e-001) (1, -1.72566183686644000000e+000) (2, 2.51945433299235380000e+000) (3, -2.04317875772708120000e+000) (4, -2.81061678286557100000e+000) (5, 2.03627042165067220000e+000) (6, -2.56745323217844710000e+000) (7, 1.08469514905137570000e+001) (8, 3.04892271002782820000e-001) (0, 5.83691617451787080000e+000) (1, 1.31503027797031910000e+001) (2, 1.45276746013065200000e+001) (3, -4.21872362569779290000e+000) (4, -3.68469167690776020000e+001) (5, -1.04066751684740590000e+001) (6, 2.29909465951560280000e+000) (7, 2.04383366034850360000e-001) (8, -1.98894906086828170000e-001) (0, -1.16004289361798120000e+000) (1, -1.05263198534667490000e+001) (2, 1.45629376224214710000e+001) (3, 1.40704422463835050000e+001) (4, 2.65932841673541200000e+001) (5, -6.96252669457921240000e+000) (6, 1.73220258714641440000e+000) (7, -1.37800080302749440000e+001) (8, 3.42448084444567370000e-001) (0, 1.79180373089410480000e+000) (1, 1.75317725534117020000e+001) (2, -1.40621072492410310000e+001) (3, 4.02115625060568770000e+000) (4, -8.81599666718206090000e+000) (5, -2.09786122042792580000e+001) (6, 1.61152900843698570000e+001) (7, 5.78580627226031650000e+001) (8, 2.53683475679301110000e-001) (0, -1.23241220534154660000e-001) (1, 2.20177060855270530000e+000) (2, -5.70844866814938450000e+000) (3, -5.89432647585315330000e-001) (4, 4.40048646506631340000e+000) (5, -6.81470516519530990000e+000) (6, 1.80148605741602590000e+000) (7, -1.92744721052493430000e+000) (8, -1.60426462703882360000e-001) (0, 3.68916493913782610000e+000) (1, 1.85218913467449010000e+001) (2, 9.74598396821472870000e+000) (3, -2.24650054360766840000e+001) (4, -4.39978158261958540000e+001) (5, -1.72271458505359760000e+000) (6, 1.62170385607765900000e+001) (7, 4.95578777867819370000e+001) (8, 1.21842035280426000000e-003) (0, 4.05208666729554250000e+000) (1, -5.90269437396969110000e+000) (2, 1.61078223192953340000e+001) (3, 4.16955870415508480000e+000) (4, -1.90170105044045810000e+001) (5, -1.14681635222956440000e+001) (6, -1.35183383029308930000e+001) (7, 2.61834003169906710000e+001) (8, 1.87053242333190400000e-002) (0, 2.13058371170372180000e+000) (1, 7.98465410124760240000e-001) (2, 2.67928703705059770000e+000) (3, -1.00889181110998310000e+001) (4, 4.77640589961558890000e-001) (5, 3.39425739397563040000e+000) (6, -1.48509076896386420000e+000) (7, -1.45958746556395770000e+001) (8, -1.02626367458182570000e-001) (0, 1.54342589695927220000e+000) (1, -6.21213751304306870000e+000) (2, 2.90306458289449050000e+001) (3, 3.70290635300295890000e+000) (4, -8.64190188415692260000e+000) (5, 5.75294896968200840000e+000) (6, -2.50199668792299760000e+001) (7, 2.41592900958511020000e+001) (8, 9.40827621177943720000e-001) (0, -4.75671353609565270000e+000) (1, -1.87119089581975220000e+001) (2, 2.87203614970450480000e+000) (3, -5.37610130013193910000e+000) (4, -2.70449178738506790000e+001) (5, 5.22294372640263930000e+000) (6, 9.77396603836075430000e+000) (7, 3.05892484278136450000e+000) (8, 1.50969585607730820000e+000) (0, -4.47539294738037260000e+000) (1, 8.83042229782712340000e+000) (2, -1.01676833543792710000e+001) (3, 2.79582941029011880000e+001) (4, -7.65111848147904450000e+000) (5, 9.56732352103108850000e+000) (6, 7.00323359778225680000e-001) (7, -8.72337227579619600000e+000) (8, 8.08372219815203350000e-001) (0, 6.99514321325620610000e+001) (1, -8.75292516637153710000e+001) (2, 1.44145890866998820000e+001) (3, 1.80750955720167870000e+002) (4, 1.13427792451953790000e+002) (5, -1.94073024794797530000e+002) (6, 8.68523666827270660000e+001) (7, -1.04565059103626210000e+002) (8, 1.01184306464545390000e+000) (0, -4.32464715734556560000e+000) (1, -5.23057694994407110000e+000) (2, 4.99044686538825120000e+000) (3, 4.67581774919234690000e+001) (4, 1.75536333607589480000e+001) (5, -2.17133116281352620000e+001) (6, -8.95428390718829980000e+000) (7, 1.02091052710558720000e+000) (8, 7.83234621963814440000e-001) (0, 9.61135758807821320000e-001) (1, 9.78267221970961920000e+000) (2, 3.06967354223946850000e+001) (3, -3.54948083847797380000e+001) (4, 3.94842661980447150000e+001) (5, 4.67078571013357700000e-001) (6, 2.15907652832749620000e+001) (7, -1.89432588577743890000e+001) (8, -8.30838362978694620000e-001) (0, 1.67926881461180540000e-001) (1, -1.11081133259637660000e-001) (2, -1.33101651480483810000e-001) (3, 7.85728912030992710000e-001) (4, -2.79134604404265300000e+000) (5, 6.66311232774279840000e-001) (6, -1.81769457456143040000e+000) (7, 4.10396374354156900000e+000) (8, 6.31296592215527250000e-002) (0, -3.85917627739036430000e-001) (1, 1.35726263083290510000e+001) (2, -8.41096063108626520000e+000) (3, -1.48960464886627130000e+000) (4, 8.23974660533817450000e+000) (5, -2.26009498653774440000e+000) (6, -5.81319316156650670000e-001) (7, -2.24501531592134820000e+000) (8, 1.74112941653449010000e-001) (0, -6.59840501351050770000e-001) (1, -1.46363610528317380000e+001) (2, 2.35597953510521880000e+000) (3, 1.69825390329289120000e+000) (4, 9.59191764870819520000e+000) (5, -1.37145603763258880000e+001) (6, -7.32761985254921470000e+000) (7, 2.91436717023977820000e+001) (8, -5.06385069137910930000e-001) (0, 1.15905768313710630000e+001) (1, -1.09840684496751080000e+001) (2, 1.90109168306690110000e+001) (3, 4.36479090423086550000e+001) (4, -1.16317449070153920000e+001) (5, -4.37824116437110010000e+001) (6, 1.43433055442918870000e+001) (7, -1.97196490243257220000e+001) (8, 8.03779906689136350000e-001) (9, 1.25281660161452480000e+000) (10, -3.23935263665215740000e-001) (11, 8.41377662817992530000e-001) (12, -3.27396587896635780000e-001) (13, 2.72492986580306630000e-001) (14, -6.92186197981057960000e-001) (15, 3.44198005577337660000e+000) (16, 8.06815274039027310000e-001) (17, -2.89500823592331090000e-001) (18, -1.41780117764141520000e+000) (19, 6.48465199550958380000e-001) (20, -5.90037672367316080000e-001) (21, -1.16208770455430090000e-001) (22, 2.18604962187901390000e-002) (23, -1.02544396126342170000e-001) (24, -7.02497559417698810000e-002) (25, 4.62024245067378800000e-002) (26, -1.11359823402757010000e+000) (27, -6.24494896852697880000e-001) (28, -1.83307147146023950000e-001) (29, 8.00631879251154090000e-001) (9, 2.29459727915721580000e-001) (10, 2.39289029263366950000e-001) (11, 1.86998366731338720000e+000) (12, 4.53007284065814090000e-001) (13, 9.24477348768911880000e-002) (14, 3.81321518814514260000e-001) (15, -2.70570707608207730000e-001) (16, -7.26599875612581880000e-001) (17, -6.60121300576792250000e-002) (18, 5.34373813154253920000e-001) (19, -1.59760145299053770000e-001) (20, 5.31612070578863500000e-001) (21, 3.89570310171270470000e-001) (22, -1.40126808537387880000e-001) (23, -1.21261290712431520000e-001) (24, 1.54879963775375710000e-002) (25, -6.65551777099108730000e-001) (26, 7.29259466287973560000e-001) (27, 3.04647356491517580000e-001) (28, 9.44990946235122340000e-002) (29, 3.07349333639845960000e-001) (9, 4.91026514460484440000e+000) (10, 1.16225624945156110000e+000) (11, 5.23778290707260120000e-001) (12, -1.97708756883470670000e-001) (13, 7.39397325320412470000e-001) (14, -3.86310132392549910000e-001) (15, 1.66940270059254340000e+000) (16, -5.50245304313558230000e-001) (17, 8.44228261801152850000e-001) (18, -1.63130417745034450000e+000) (19, -1.25824358341633210000e+000) (20, 9.85046689506881350000e-001) (21, -2.16180996634978660000e-002) (22, -1.20498551517578770000e-001) (23, -3.53449079567487610000e-001) (24, -3.07525202306645100000e-001) (25, 8.37180251478370070000e+000) (26, 2.17477079701647420000e+000) (27, 2.62222506132187120000e-001) (28, 3.04775315295880980000e-001) (29, 5.24904888015883750000e-001) (9, 2.66755240638837600000e+000) (10, 8.06326153654465250000e-001) (11, -1.35592497854615640000e-002) (12, 1.55695663590740520000e-001) (13, 1.33572782165718350000e+000) (14, 3.12519385691727270000e-001) (15, 4.84056544792286820000e-001) (16, -4.89298636006038230000e-001) (17, 1.73881922878748480000e+000) (18, -6.94117372514212900000e-001) (19, -5.80664925163137280000e-001) (20, 4.80084525936023350000e-001) (21, 7.87810135898598050000e-001) (22, 4.05840075933356190000e-001) (23, -1.14013630096635610000e+000) (24, -7.28625713560198340000e-001) (25, -3.02444217777689060000e+000) (26, 1.36721277527305050000e+000) (27, 4.89133261497067260000e-001) (28, -9.78281816274749640000e-001) (29, 8.64789155008298120000e-001) (9, 1.45193229939685640000e+000) (10, 2.89206458680749010000e-001) (11, 7.83094339916916240000e-001) (12, 1.87784126438189560000e+000) (13, 1.53779831120481660000e+000) (14, 2.21154639039820990000e-001) (15, -1.35366125112714600000e+000) (16, -4.09323745740496240000e-001) (17, -2.08545549274832350000e+000) (18, 2.29127511343747960000e+000) (19, -1.01502006590527850000e-001) (20, 3.28246021939529230000e-001) (21, 1.46288111771525010000e+000) (22, 4.00354033511308990000e-002) (23, -8.31357588925433210000e-001) (24, -4.02305786442087750000e-001) (25, 4.73131993398838450000e+000) (26, 1.63324337942754470000e+000) (27, 3.54358511887486300000e+000) (28, 9.95632574658944640000e-002) (29, 8.64503272316064280000e-001) 
