FANN_FLO_2.1
num_layers=3
learning_rate=0.700000
connection_rate=1.000000
network_type=0
learning_momentum=0.000000
training_algorithm=2
train_error_function=1
train_stop_function=0
cascade_output_change_fraction=0.010000
quickprop_decay=-0.000100
quickprop_mu=1.750000
rprop_increase_factor=1.200000
rprop_decrease_factor=0.500000
rprop_delta_min=0.000000
rprop_delta_max=50.000000
rprop_delta_zero=0.100000
cascade_output_stagnation_epochs=12
cascade_candidate_change_fraction=0.010000
cascade_candidate_stagnation_epochs=12
cascade_max_out_epochs=150
cascade_max_cand_epochs=150
cascade_num_candidate_groups=2
bit_fail_limit=3.49999999999999980000e-001
cascade_candidate_limit=1.00000000000000000000e+003
cascade_weight_multiplier=4.00000000000000020000e-001
cascade_activation_functions_count=10
cascade_activation_functions=3 5 7 8 10 11 14 15 16 17 
cascade_activation_steepnesses_count=4
cascade_activation_steepnesses=2.50000000000000000000e-001 5.00000000000000000000e-001 7.50000000000000000000e-001 1.00000000000000000000e+000 
layer_sizes=9 21 6 
scale_included=0
neurons (num_inputs, activation_function, activation_steepness)=(0, 0, 0.00000000000000000000e+000) (0, 0, 0.00000000000000000000e+000) (0, 0, 0.00000000000000000000e+000) (0, 0, 0.00000000000000000000e+000) (0, 0, 0.00000000000000000000e+000) (0, 0, 0.00000000000000000000e+000) (0, 0, 0.00000000000000000000e+000) (0, 0, 0.00000000000000000000e+000) (0, 0, 0.00000000000000000000e+000) (9, 6, 5.00000000000000000000e-001) (9, 6, 5.00000000000000000000e-001) (9, 6, 5.00000000000000000000e-001) (9, 6, 5.00000000000000000000e-001) (9, 6, 5.00000000000000000000e-001) (9, 6, 5.00000000000000000000e-001) (9, 6, 5.00000000000000000000e-001) (9, 6, 5.00000000000000000000e-001) (9, 6, 5.00000000000000000000e-001) (9, 6, 5.00000000000000000000e-001) (9, 6, 5.00000000000000000000e-001) (9, 6, 5.00000000000000000000e-001) (9, 6, 5.00000000000000000000e-001) (9, 6, 5.00000000000000000000e-001) (9, 6, 5.00000000000000000000e-001) (9, 6, 5.00000000000000000000e-001) (9, 6, 5.00000000000000000000e-001) (9, 6, 5.00000000000000000000e-001) (9, 6, 5.00000000000000000000e-001) (9, 6, 5.00000000000000000000e-001) (0, 6, 0.00000000000000000000e+000) (21, 6, 5.00000000000000000000e-001) (21, 6, 5.00000000000000000000e-001) (21, 6, 5.00000000000000000000e-001) (21, 6, 5.00000000000000000000e-001) (21, 6, 5.00000000000000000000e-001) (0, 6, 0.00000000000000000000e+000) 
connections (connected_to_neuron, weight)=(0, 3.44847179426875970000e+000) (1, -5.72577027924203110000e+000) (2, 8.85340986557769400000e+000) (3, -7.01473965711441670000e+000) (4, -2.89809383578019910000e+000) (5, -3.68985928079481300000e+000) (6, 1.34262007905534690000e+000) (7, 7.92847748271081440000e+000) (8, 2.35681636477784810000e-001) (0, 6.52809958514990020000e+000) (1, -3.47415045004263940000e+000) (2, 4.61141931667021780000e+000) (3, -7.06910479276044690000e+000) (4, 1.74006479997456120000e+001) (5, -5.20171592244438590000e+001) (6, 1.94396867594517530000e+001) (7, -4.85330858396280450000e+000) (8, -2.73314284507942370000e-001) (0, -1.05932426608866610000e-001) (1, 5.27753900507630270000e-001) (2, -2.57069258879442090000e+001) (3, -2.25654257279770000000e+000) (4, 6.96257491271245480000e-001) (5, 7.08707003274956780000e-002) (6, 7.88680586437788020000e+000) (7, -6.71413468536286740000e+000) (8, 3.23822927906464280000e-001) (0, 5.17775073845635790000e+000) (1, 2.50196107536650310000e+001) (2, -6.39871150272084940000e+000) (3, 8.03636368452765380000e+000) (4, 4.06490866565794300000e+000) (5, -7.53961764116932990000e+000) (6, -2.35658616379153650000e+001) (7, -1.34773178921792150000e+001) (8, -9.17935898169606410000e-001) (0, 1.37985499072953520000e+000) (1, -1.30296189745599760000e+000) (2, 2.71463090713548280000e+000) (3, -3.81049406119347100000e+000) (4, 6.51389266296444800000e+000) (5, -6.54652845952990560000e-001) (6, 8.75651306251868160000e-001) (7, -1.22425666954086870000e+001) (8, 1.06693073006312800000e-002) (0, -1.14350011225805190000e+000) (1, -1.34553816289179620000e+001) (2, 1.29350470411495320000e+000) (3, 7.17183575481110760000e+000) (4, -8.91730677009610770000e+000) (5, 1.07800841419084440000e+000) (6, -2.40887627453355830000e+000) (7, 2.90512403970923440000e+000) (8, 1.19023865362820560000e-001) (0, 3.46870360714627290000e-001) (1, 1.31312152729723160000e+001) (2, 2.44909134246832390000e+001) (3, 1.57942634165312090000e+001) (4, -4.36669673414991260000e+000) (5, -1.42897528345616290000e+001) (6, 1.47067715571855980000e+000) (7, -4.24746787802897220000e+001) (8, 8.48872836852622830000e-001) (0, 4.15542890746155140000e-001) (1, 1.15507769712729480000e-001) (2, -4.79089197570104540000e-001) (3, -1.36110997551326810000e+000) (4, -2.63733355630985010000e+000) (5, -2.28398746841681980000e+000) (6, 2.60325914171370790000e+000) (7, 1.55742791835463580000e+000) (8, 1.86715078220295230000e-001) (0, 4.85580283540444140000e+000) (1, -2.82187170237090400000e+001) (2, -3.22844834117350460000e+001) (3, -2.74073161900623990000e+001) (4, -2.07910601230576510000e+001) (5, 6.41481788658574030000e+001) (6, 6.52129520805222140000e+001) (7, 2.50443960425208270000e+001) (8, 7.53213479591973820000e-001) (0, 2.52047051471843360000e+000) (1, 5.26767163327225770000e+000) (2, 5.73087854987070780000e+000) (3, -2.51180898350349760000e+001) (4, -1.04074269837028870000e+001) (5, 4.32474222135829790000e+001) (6, 1.03645841252877030000e+001) (7, -2.39691149443223030000e-001) (8, 1.24295933746096550000e+000) (0, -3.52833302494830030000e+000) (1, -1.80915771026513710000e+001) (2, -7.61213682394297280000e+001) (3, 2.15661294119971280000e+001) (4, 4.96032135211193580000e+001) (5, -5.74088543076241960000e+001) (6, -2.04093995183450300000e+001) (7, 1.57512195973531560000e+001) (8, -1.80096113444208950000e+000) (0, -1.20665363579557620000e+000) (1, 1.19142325076544020000e+001) (2, -3.67168427419916600000e+000) (3, -8.12361965173370850000e+000) (4, -1.96712532107822400000e+001) (5, -9.26610166454466370000e-001) (6, 1.55567503585547070000e+001) (7, 3.37449363582199440000e+000) (8, 1.23555197688543390000e+000) (0, -4.01801612667262940000e-001) (1, 9.86997067453902250000e-001) (2, 2.27053233782472490000e+000) (3, -9.43157506593286680000e-001) (4, -1.87205252988901250000e+000) (5, 7.00438628601257470000e+000) (6, -2.09911659612629630000e+000) (7, 3.97595765728119540000e+000) (8, 1.87061391393292950000e-002) (0, 1.19356429730026670000e+000) (1, 1.35179814973113730000e+001) (2, -6.84640126124722760000e+000) (3, -2.57838177213359910000e+000) (4, -6.77357370108296000000e-001) (5, -1.09716253885818030000e+000) (6, 2.38252979373417740000e+000) (7, -2.87662927059669870000e+000) (8, 1.64170914741726240000e-001) (0, -2.24209449741207310000e+000) (1, -9.68206506457191910000e+000) (2, 9.20556897502517120000e+000) (3, -7.61447374683969970000e+000) (4, -7.21155167509080200000e+000) (5, 1.98968234899029350000e+001) (6, -9.93934441988449050000e-001) (7, -1.31160369429573150000e+001) (8, -2.68405679584965360000e-001) (0, -4.94750494480221810000e+000) (1, 6.28447071477217540000e+000) (2, -3.72881602439890840000e+000) (3, 7.37694666581345860000e-001) (4, 1.10207869563198660000e+000) (5, 1.12905689312271380000e+001) (6, -1.80386103299208210000e+000) (7, 1.15375177058674370000e+001) (8, 7.14418728067732210000e-001) (0, 9.40883701599855350000e-001) (1, -1.70978134270197590000e+000) (2, 9.17675757757657530000e-001) (3, 2.43085844427174540000e+000) (4, 1.62887779381302320000e+000) (5, -5.43252886011661220000e+000) (6, 8.13144684096694710000e-001) (7, -7.16552904879280690000e-001) (8, -2.15864891827170140000e-001) (0, -3.27191055475997580000e-001) (1, -3.78873067374915750000e+000) (2, 3.67860146268346140000e+001) (3, -1.03236107766132900000e+001) (4, 1.16671859127721740000e+001) (5, 1.17935086995643200000e+001) (6, -9.36058292596030660000e+000) (7, 1.33478529878566050000e+001) (8, -7.67759195841212490000e-003) (0, -3.52141778831601830000e+000) (1, -3.01037752241543150000e+001) (2, -1.52177107374427810000e+001) (3, 9.28376615394879110000e+001) (4, 6.45906215047850910000e+001) (5, -3.10074015377360120000e+001) (6, 3.45896687518640960000e+001) (7, -7.08256089968519690000e+001) (8, 4.50761372928049480000e+000) (0, -1.75483594717590650000e-001) (1, -1.35635491685723600000e+000) (2, 1.49610721572455760000e+000) (3, -9.43020168921444020000e-002) (4, 4.91222534110794220000e+000) (5, 1.21370180702221160000e+000) (6, -9.05493690928253270000e-001) (7, 2.11482364677311760000e+000) (8, 2.56208163092361940000e-001) (9, -1.34150237052386890000e+000) (10, 6.09129260366819140000e-001) (11, -7.45013840893457350000e-001) (12, 9.76376409359729910000e-001) (13, 6.76572461348997510000e-001) (14, 5.17414973132771740000e-001) (15, -6.68609567319437100000e-001) (16, 4.39430713649619520000e+000) (17, 1.99905137180918070000e-001) (18, -3.68303052607238450000e-001) (19, -1.79995393355790570000e-001) (20, 2.41979134385704590000e-001) (21, 9.68958211955987410000e-001) (22, 1.14377235690582140000e-001) (23, 1.55332950647912730000e+000) (24, 1.26050914949316040000e+000) (25, 3.25109882957415360000e+000) (26, -1.24404110567171560000e-001) (27, 4.54508613191021430000e-001) (28, 1.02166137268142880000e+000) (29, 5.57815893649456160000e-001) (9, 1.35197816310166030000e+000) (10, -7.66730302895410890000e-001) (11, 3.76348857655070420000e-001) (12, -7.39310617923857550000e-001) (13, -5.11284785738784330000e-001) (14, -1.08486261436300340000e-001) (15, 2.49524927265939750000e-001) (16, -2.01422163481394100000e+000) (17, -2.61700533684992020000e-001) (18, 8.88863888519980240000e-002) (19, -1.13605182538902230000e-001) (20, -2.19639656170225930000e-001) (21, -2.71527659029654740000e+000) (22, 1.27794306061457430000e+000) (23, -2.54489636803197810000e-001) (24, -4.18912498941633740000e-001) (25, -7.70064565761512280000e-001) (26, -1.07950738981026100000e-001) (27, -6.29332975572000300000e-001) (28, 1.65261347056941950000e+000) (29, 7.91861813073362900000e-001) (9, 1.75905393785202310000e+000) (10, 1.62460416819593670000e-001) (11, 2.75519827077402810000e+000) (12, -8.76815274763674600000e-001) (13, -2.63800221535263460000e+000) (14, 2.30658269154830720000e+000) (15, 1.07679057447717000000e+000) (16, -3.49118252306514300000e+000) (17, -6.56499654513896250000e-001) (18, 1.67350787662797720000e+000) (19, 3.95404729133294220000e-001) (20, -1.05293029334427660000e+000) (21, 2.26774037644156660000e-001) (22, 3.93678453653228240000e+000) (23, 7.49807563245560080000e-001) (24, 7.15319559861031130000e-001) (25, 4.29718976895690830000e+000) (26, 1.20596170585826970000e+000) (27, -6.15530234792087240000e-001) (28, 7.01570619600108800000e-001) (29, 4.93256091299627440000e-001) (9, 1.13347895499354960000e+000) (10, -7.57006032337886880000e-001) (11, 4.29741361361165310000e-001) (12, -6.04647241280465540000e-001) (13, 3.19738243511638310000e+000) (14, 1.05542864690069350000e+000) (15, -3.18787050097282980000e-001) (16, -2.16767610037583090000e+000) (17, -2.13872395356339030000e-001) (18, -1.21633995644183380000e+000) (19, -4.24791380534743750000e-001) (20, 1.09039259713216330000e+000) (21, 1.94712465592903430000e+000) (22, 9.97833890601173450000e-001) (23, -1.49144767148671380000e+000) (24, -3.07368802367967210000e-001) (25, 1.68128186880002080000e-001) (26, 1.48452385260325340000e-001) (27, 2.15663917333810930000e-001) (28, 8.20333529637317320000e-001) (29, 8.73472941939881510000e-002) (9, 3.64227420317137400000e-001) (10, 8.90338570809256940000e-001) (11, 8.45331304558360920000e-001) (12, 4.89620618051440690000e-001) (13, 1.12297711180020100000e+000) (14, 2.97815435522978600000e+000) (15, 7.20147521038170590000e-001) (16, 4.84606464414844050000e+000) (17, 3.58645914740353050000e-002) (18, 7.46057268790449090000e-001) (19, 1.25403158278369540000e+000) (20, -1.45369581931729460000e+000) (21, 3.60665244602985970000e+000) (22, 1.50906138512483220000e+000) (23, -2.19973589849585900000e-001) (24, 2.03695246111528940000e+000) (25, -9.41333407070004900000e-001) (26, 6.73391607057032160000e-001) (27, 1.65788578160118800000e-001) (28, -9.05465289602107590000e-001) (29, 7.01160110954266890000e-001) 
