FANN_FLO_2.1
num_layers=3
learning_rate=0.700000
connection_rate=1.000000
network_type=0
learning_momentum=0.000000
training_algorithm=2
train_error_function=1
train_stop_function=0
cascade_output_change_fraction=0.010000
quickprop_decay=-0.000100
quickprop_mu=1.750000
rprop_increase_factor=1.200000
rprop_decrease_factor=0.500000
rprop_delta_min=0.000000
rprop_delta_max=50.000000
rprop_delta_zero=0.100000
cascade_output_stagnation_epochs=12
cascade_candidate_change_fraction=0.010000
cascade_candidate_stagnation_epochs=12
cascade_max_out_epochs=150
cascade_max_cand_epochs=150
cascade_num_candidate_groups=2
bit_fail_limit=3.49999999999999980000e-001
cascade_candidate_limit=1.00000000000000000000e+003
cascade_weight_multiplier=4.00000000000000020000e-001
cascade_activation_functions_count=10
cascade_activation_functions=3 5 7 8 10 11 14 15 16 17 
cascade_activation_steepnesses_count=4
cascade_activation_steepnesses=2.50000000000000000000e-001 5.00000000000000000000e-001 7.50000000000000000000e-001 1.00000000000000000000e+000 
layer_sizes=9 4 6 
scale_included=0
neurons (num_inputs, activation_function, activation_steepness)=(0, 0, 0.00000000000000000000e+000) (0, 0, 0.00000000000000000000e+000) (0, 0, 0.00000000000000000000e+000) (0, 0, 0.00000000000000000000e+000) (0, 0, 0.00000000000000000000e+000) (0, 0, 0.00000000000000000000e+000) (0, 0, 0.00000000000000000000e+000) (0, 0, 0.00000000000000000000e+000) (0, 0, 0.00000000000000000000e+000) (9, 6, 5.00000000000000000000e-001) (9, 6, 5.00000000000000000000e-001) (9, 6, 5.00000000000000000000e-001) (0, 6, 0.00000000000000000000e+000) (4, 6, 5.00000000000000000000e-001) (4, 6, 5.00000000000000000000e-001) (4, 6, 5.00000000000000000000e-001) (4, 6, 5.00000000000000000000e-001) (4, 6, 5.00000000000000000000e-001) (0, 6, 0.00000000000000000000e+000) 
connections (connected_to_neuron, weight)=(0, -2.10119500957817480000e-001) (1, 2.17056368362308730000e-002) (2, 2.75900289072165630000e-001) (3, -1.44457426146039670000e+000) (4, -7.10491604136153530000e-001) (5, 3.24257235818759470000e+000) (6, -1.11467466797147340000e+000) (7, 5.17290004613318640000e-001) (8, 1.00489147800550570000e-001) (0, -8.91691120773514200000e-001) (1, 1.43656916814348470000e+000) (2, -5.71044943207416610000e-001) (3, 1.72713234829612560000e+000) (4, -1.85670707982274300000e+000) (5, -5.13630430345762390000e-001) (6, 8.82603537461105650000e-001) (7, 3.44591630553954200000e-001) (8, 3.82369868140966130000e-001) (0, -9.26764568205325820000e-001) (1, 6.64149679098547630000e+000) (2, -4.90043914494112180000e+000) (3, 1.73430741243072500000e+001) (4, -1.47032703094930170000e+000) (5, -2.22711524358269810000e+001) (6, 6.59340771660196890000e+000) (7, -1.82749548707406760000e+000) (8, 1.40944106977411800000e+000) (9, -5.27138125311535520000e+000) (10, 2.54975862509685620000e+000) (11, -1.15070396396642400000e+000) (12, 1.03383167293181000000e+000) (9, 3.12498965078977740000e+000) (10, -4.67774397592855880000e-001) (11, 3.51270126772529560000e-001) (12, 5.67414740654127560000e-001) (9, 2.78432959689555040000e+000) (10, -5.13811780440318190000e-002) (11, 5.98249697171390430000e-001) (12, 5.33091488971538020000e-001) (9, 1.04954283574035490000e+000) (10, -1.30913885258718770000e+000) (11, 3.49610007284091140000e-001) (12, 9.98775355095774640000e-001) (9, 1.52773421409831320000e+000) (10, -9.42894080889117190000e-001) (11, 4.81776805365293380000e-001) (12, 8.92287368248377840000e-001) 
