FANN_FLO_2.1
num_layers=3
learning_rate=0.700000
connection_rate=1.000000
network_type=0
learning_momentum=0.000000
training_algorithm=2
train_error_function=1
train_stop_function=0
cascade_output_change_fraction=0.010000
quickprop_decay=-0.000100
quickprop_mu=1.750000
rprop_increase_factor=1.200000
rprop_decrease_factor=0.500000
rprop_delta_min=0.000000
rprop_delta_max=50.000000
rprop_delta_zero=0.100000
cascade_output_stagnation_epochs=12
cascade_candidate_change_fraction=0.010000
cascade_candidate_stagnation_epochs=12
cascade_max_out_epochs=150
cascade_max_cand_epochs=150
cascade_num_candidate_groups=2
bit_fail_limit=3.49999999999999980000e-001
cascade_candidate_limit=1.00000000000000000000e+003
cascade_weight_multiplier=4.00000000000000020000e-001
cascade_activation_functions_count=10
cascade_activation_functions=3 5 7 8 10 11 14 15 16 17 
cascade_activation_steepnesses_count=4
cascade_activation_steepnesses=2.50000000000000000000e-001 5.00000000000000000000e-001 7.50000000000000000000e-001 1.00000000000000000000e+000 
layer_sizes=9 4 6 
scale_included=0
neurons (num_inputs, activation_function, activation_steepness)=(0, 0, 0.00000000000000000000e+000) (0, 0, 0.00000000000000000000e+000) (0, 0, 0.00000000000000000000e+000) (0, 0, 0.00000000000000000000e+000) (0, 0, 0.00000000000000000000e+000) (0, 0, 0.00000000000000000000e+000) (0, 0, 0.00000000000000000000e+000) (0, 0, 0.00000000000000000000e+000) (0, 0, 0.00000000000000000000e+000) (9, 6, 5.00000000000000000000e-001) (9, 6, 5.00000000000000000000e-001) (9, 6, 5.00000000000000000000e-001) (0, 6, 0.00000000000000000000e+000) (4, 6, 5.00000000000000000000e-001) (4, 6, 5.00000000000000000000e-001) (4, 6, 5.00000000000000000000e-001) (4, 6, 5.00000000000000000000e-001) (4, 6, 5.00000000000000000000e-001) (0, 6, 0.00000000000000000000e+000) 
connections (connected_to_neuron, weight)=(0, -6.11025572097191440000e+001) (1, -1.39321422542859990000e+001) (2, 1.55603149268256910000e+002) (3, -1.00979975310588070000e+002) (4, -2.54398458065932860000e+002) (5, 4.40426921078328230000e+002) (6, -1.33559192684546330000e+002) (7, -3.00205541052943150000e+002) (8, 1.25879915715535610000e-001) (0, -4.67768014678661270000e+000) (1, 7.60763150663938250000e+000) (2, -1.32644939897566730000e+001) (3, -3.06050572586141070000e+001) (4, 2.28039318660951870000e+001) (5, 3.26328602213908640000e+001) (6, -1.06140121331288310000e+001) (7, 8.68865685397114440000e+000) (8, 1.66072434829780400000e+000) (0, 1.17596667450229100000e+000) (1, -1.24100939939244360000e+000) (2, 1.71267033187418380000e+000) (3, 9.04383505001062640000e+000) (4, -4.37377552111565130000e+000) (5, -9.58098494445050440000e+000) (6, 3.72844777721808680000e+000) (7, -8.14362142901710720000e-001) (8, -4.23675496045423210000e-001) (9, 2.70431686728372120000e-002) (10, 8.64274808920305200000e-002) (11, 2.21289190749423630000e-001) (12, 5.71535687029631980000e-001) (9, 3.16812971921254790000e-002) (10, 1.06353645098711900000e-001) (11, -1.19358091193713490000e-001) (12, 7.58286792167909400000e-001) (9, 1.25253515499873370000e-001) (10, 7.13741212399565780000e-001) (11, 1.81195528065256250000e+000) (12, 9.27152692571505340000e-001) (9, -8.22660249956238130000e-002) (10, -8.74255484143623530000e-001) (11, -1.97316083515918250000e+000) (12, 1.16892431769489820000e+000) (9, -2.92549594818108760000e-002) (10, 1.01632792506302320000e-001) (11, 1.96976441661905420000e-001) (12, 1.03616149940471210000e+000) 
