FANN_FLO_2.1
num_layers=3
learning_rate=0.700000
connection_rate=1.000000
network_type=0
learning_momentum=0.000000
training_algorithm=2
train_error_function=1
train_stop_function=0
cascade_output_change_fraction=0.010000
quickprop_decay=-0.000100
quickprop_mu=1.750000
rprop_increase_factor=1.200000
rprop_decrease_factor=0.500000
rprop_delta_min=0.000000
rprop_delta_max=50.000000
rprop_delta_zero=0.100000
cascade_output_stagnation_epochs=12
cascade_candidate_change_fraction=0.010000
cascade_candidate_stagnation_epochs=12
cascade_max_out_epochs=150
cascade_max_cand_epochs=150
cascade_num_candidate_groups=2
bit_fail_limit=3.49999999999999980000e-001
cascade_candidate_limit=1.00000000000000000000e+003
cascade_weight_multiplier=4.00000000000000020000e-001
cascade_activation_functions_count=10
cascade_activation_functions=3 5 7 8 10 11 14 15 16 17 
cascade_activation_steepnesses_count=4
cascade_activation_steepnesses=2.50000000000000000000e-001 5.00000000000000000000e-001 7.50000000000000000000e-001 1.00000000000000000000e+000 
layer_sizes=9 4 6 
scale_included=0
neurons (num_inputs, activation_function, activation_steepness)=(0, 0, 0.00000000000000000000e+000) (0, 0, 0.00000000000000000000e+000) (0, 0, 0.00000000000000000000e+000) (0, 0, 0.00000000000000000000e+000) (0, 0, 0.00000000000000000000e+000) (0, 0, 0.00000000000000000000e+000) (0, 0, 0.00000000000000000000e+000) (0, 0, 0.00000000000000000000e+000) (0, 0, 0.00000000000000000000e+000) (9, 6, 5.00000000000000000000e-001) (9, 6, 5.00000000000000000000e-001) (9, 6, 5.00000000000000000000e-001) (0, 6, 0.00000000000000000000e+000) (4, 6, 5.00000000000000000000e-001) (4, 6, 5.00000000000000000000e-001) (4, 6, 5.00000000000000000000e-001) (4, 6, 5.00000000000000000000e-001) (4, 6, 5.00000000000000000000e-001) (0, 6, 0.00000000000000000000e+000) 
connections (connected_to_neuron, weight)=(0, 6.03115168133819000000e+002) (1, -7.12860602902789990000e+002) (2, 1.97649107645591870000e+002) (3, 7.33308012594592470000e+002) (4, 1.01532524343389400000e+003) (5, -1.24206485033076930000e+003) (6, 2.00377967473908310000e+002) (7, -1.49934448311014390000e+002) (8, 1.18305945304354480000e+001) (0, -5.37682063166765480000e-001) (1, 9.23998245002470520000e-001) (2, -3.05519454781445380000e-001) (3, -1.04588244087719650000e-001) (4, -9.71521355843448790000e-001) (5, 1.10223484697676290000e+000) (6, -1.11604129828014750000e+000) (7, 6.33422292155074170000e-001) (8, 4.77760862999906830000e-001) (0, -1.50963741829245520000e-001) (1, -9.37623847916026630000e-002) (2, 4.39883782154577370000e-002) (3, 9.46030973504215830000e-001) (4, -2.99851789626176310000e-001) (5, -1.01700302595583090000e+000) (6, 7.57628885883754210000e-001) (7, 9.71061396351403510000e-002) (8, 7.73311106821988750000e-002) (9, -2.82074980712270220000e-002) (10, -6.59549331515197900000e-002) (11, 2.31942935499208640000e+000) (12, 5.32615401921301970000e-001) (9, -3.47504434553393000000e-002) (10, 1.49112417470249530000e+000) (11, -2.57520856472394270000e+000) (12, 6.44905241841802980000e-001) (9, -5.17694930544821200000e-002) (10, 1.15963277676720260000e+000) (11, 1.80325705598071260000e+000) (12, 7.29026305267169940000e-001) (9, 1.50759331887614370000e-001) (10, -2.25596009109709760000e-001) (11, -2.25218488962644650000e+000) (12, 1.01358738909739960000e+000) (9, 1.42636240121292860000e-001) (10, 3.94309476855707890000e-001) (11, -6.13787450441910960000e-001) (12, 8.84743761226610470000e-001) 
