FANN_FLO_2.1
num_layers=3
learning_rate=0.700000
connection_rate=1.000000
network_type=0
learning_momentum=0.000000
training_algorithm=2
train_error_function=1
train_stop_function=0
cascade_output_change_fraction=0.010000
quickprop_decay=-0.000100
quickprop_mu=1.750000
rprop_increase_factor=1.200000
rprop_decrease_factor=0.500000
rprop_delta_min=0.000000
rprop_delta_max=50.000000
rprop_delta_zero=0.100000
cascade_output_stagnation_epochs=12
cascade_candidate_change_fraction=0.010000
cascade_candidate_stagnation_epochs=12
cascade_max_out_epochs=150
cascade_max_cand_epochs=150
cascade_num_candidate_groups=2
bit_fail_limit=3.49999999999999980000e-001
cascade_candidate_limit=1.00000000000000000000e+003
cascade_weight_multiplier=4.00000000000000020000e-001
cascade_activation_functions_count=10
cascade_activation_functions=3 5 7 8 10 11 14 15 16 17 
cascade_activation_steepnesses_count=4
cascade_activation_steepnesses=2.50000000000000000000e-001 5.00000000000000000000e-001 7.50000000000000000000e-001 1.00000000000000000000e+000 
layer_sizes=9 4 6 
scale_included=0
neurons (num_inputs, activation_function, activation_steepness)=(0, 0, 0.00000000000000000000e+000) (0, 0, 0.00000000000000000000e+000) (0, 0, 0.00000000000000000000e+000) (0, 0, 0.00000000000000000000e+000) (0, 0, 0.00000000000000000000e+000) (0, 0, 0.00000000000000000000e+000) (0, 0, 0.00000000000000000000e+000) (0, 0, 0.00000000000000000000e+000) (0, 0, 0.00000000000000000000e+000) (9, 6, 5.00000000000000000000e-001) (9, 6, 5.00000000000000000000e-001) (9, 6, 5.00000000000000000000e-001) (0, 6, 0.00000000000000000000e+000) (4, 6, 5.00000000000000000000e-001) (4, 6, 5.00000000000000000000e-001) (4, 6, 5.00000000000000000000e-001) (4, 6, 5.00000000000000000000e-001) (4, 6, 5.00000000000000000000e-001) (0, 6, 0.00000000000000000000e+000) 
connections (connected_to_neuron, weight)=(0, -4.75073112954219920000e+000) (1, 2.03051105463447270000e+000) (2, -2.23109960764595310000e+000) (3, 1.02890168223403800000e+000) (4, -1.20951071142361430000e+001) (5, 1.96439757800685730000e+001) (6, -8.76058477807213690000e-001) (7, -3.29864906033765060000e-001) (8, 1.11734208959803150000e+000) (0, -5.78538374056091960000e+000) (1, 1.88800244008044520000e+000) (2, -4.38033400855608250000e+000) (3, -1.62755818232443160000e+000) (4, -1.32823060079310850000e+001) (5, 2.76720461612408710000e+001) (6, -9.69486408748408480000e+000) (7, 1.01324978696970300000e+001) (8, 2.80141216971282600000e+000) (0, 2.41667101143153220000e+000) (1, -9.57772427461459960000e-001) (2, 9.10410460781151400000e-001) (3, -8.91436527512946660000e-001) (4, 5.17137559295501690000e+000) (5, -6.74253096254210330000e+000) (6, -2.35607539107636930000e-001) (7, -4.48620819704727840000e-001) (8, -6.92845741443883110000e-001) (9, -8.63090081241732370000e-001) (10, -4.23226861190944600000e-001) (11, -2.33012220066783420000e+000) (12, 6.38970905752186850000e-001) (9, 1.35951606992202190000e+000) (10, 1.21719064147447220000e-001) (11, 2.34276192722947880000e+000) (12, 8.00214146977945020000e-001) (9, -1.70240627151701380000e-001) (10, -1.16377065025507350000e-001) (11, -8.44349892882321650000e-001) (12, 9.13103687594640220000e-001) (9, 1.84361153652906440000e+000) (10, -2.65795990318229650000e-001) (11, 3.18382395460620680000e+000) (12, 1.34098464525409500000e+000) (9, -6.18413530048762320000e-001) (10, 8.22880903153647810000e-001) (11, 3.08823576020524350000e-001) (12, 7.61174838095564740000e-001) 
