FANN_FLO_2.1
num_layers=3
learning_rate=0.700000
connection_rate=1.000000
network_type=0
learning_momentum=0.000000
training_algorithm=2
train_error_function=1
train_stop_function=0
cascade_output_change_fraction=0.010000
quickprop_decay=-0.000100
quickprop_mu=1.750000
rprop_increase_factor=1.200000
rprop_decrease_factor=0.500000
rprop_delta_min=0.000000
rprop_delta_max=50.000000
rprop_delta_zero=0.100000
cascade_output_stagnation_epochs=12
cascade_candidate_change_fraction=0.010000
cascade_candidate_stagnation_epochs=12
cascade_max_out_epochs=150
cascade_max_cand_epochs=150
cascade_num_candidate_groups=2
bit_fail_limit=3.49999999999999980000e-001
cascade_candidate_limit=1.00000000000000000000e+003
cascade_weight_multiplier=4.00000000000000020000e-001
cascade_activation_functions_count=10
cascade_activation_functions=3 5 7 8 10 11 14 15 16 17 
cascade_activation_steepnesses_count=4
cascade_activation_steepnesses=2.50000000000000000000e-001 5.00000000000000000000e-001 7.50000000000000000000e-001 1.00000000000000000000e+000 
layer_sizes=9 4 6 
scale_included=0
neurons (num_inputs, activation_function, activation_steepness)=(0, 0, 0.00000000000000000000e+000) (0, 0, 0.00000000000000000000e+000) (0, 0, 0.00000000000000000000e+000) (0, 0, 0.00000000000000000000e+000) (0, 0, 0.00000000000000000000e+000) (0, 0, 0.00000000000000000000e+000) (0, 0, 0.00000000000000000000e+000) (0, 0, 0.00000000000000000000e+000) (0, 0, 0.00000000000000000000e+000) (9, 6, 5.00000000000000000000e-001) (9, 6, 5.00000000000000000000e-001) (9, 6, 5.00000000000000000000e-001) (0, 6, 0.00000000000000000000e+000) (4, 6, 5.00000000000000000000e-001) (4, 6, 5.00000000000000000000e-001) (4, 6, 5.00000000000000000000e-001) (4, 6, 5.00000000000000000000e-001) (4, 6, 5.00000000000000000000e-001) (0, 6, 0.00000000000000000000e+000) 
connections (connected_to_neuron, weight)=(0, 5.45246439718360420000e+000) (1, -5.86506001142415820000e+000) (2, 6.70546976127571350000e+000) (3, -8.18370485290848390000e+000) (4, 8.46712404003989150000e+000) (5, -7.05958364451233140000e+000) (6, 2.33956106627940840000e+000) (7, -1.49068560589214090000e+001) (8, 9.50855202515258680000e-001) (0, -7.69043942068617700000e+000) (1, 9.16144361038112190000e+000) (2, -9.43639411920790750000e+000) (3, 5.30290748805219710000e+000) (4, -1.50723421797981560000e+001) (5, 2.81647774574617170000e+001) (6, -9.84286005122514850000e+000) (7, 2.10263987710383160000e+001) (8, 2.90223341435883240000e-001) (0, -3.33204443959834340000e-001) (1, 4.04936342531511230000e-001) (2, -6.35810015476922400000e-001) (3, 1.29708111149193070000e+000) (4, -5.78158952875161610000e-001) (5, -1.02680793963688870000e-001) (6, -2.52115016320938020000e-001) (7, 1.52342295497263550000e+000) (8, -2.23099799380109900000e-001) (9, -5.19135862122267480000e-001) (10, -1.51815179740071030000e-001) (11, -1.02078300092950030000e+000) (12, 7.12905213491498820000e-001) (9, 3.44865678307264060000e-001) (10, 3.89362914561327100000e-001) (11, -1.45182119726403710000e+000) (12, 4.87614406980627910000e-001) (9, 1.20562954923182500000e+000) (10, 4.69026274519330270000e-001) (11, 4.56696450790609190000e+000) (12, 8.62849365426581750000e-001) (9, 1.52529065749384770000e-001) (10, 7.49871362947758110000e-002) (11, -1.30452709751693670000e+000) (12, 8.21237238323377920000e-001) (9, 1.29491288027311600000e+000) (10, 2.31857042748316560000e-001) (11, 6.17597228766545660000e+000) (12, 1.11239469566830880000e+000) 
