FANN_FLO_2.1
num_layers=3
learning_rate=0.700000
connection_rate=1.000000
network_type=0
learning_momentum=0.000000
training_algorithm=2
train_error_function=1
train_stop_function=0
cascade_output_change_fraction=0.010000
quickprop_decay=-0.000100
quickprop_mu=1.750000
rprop_increase_factor=1.200000
rprop_decrease_factor=0.500000
rprop_delta_min=0.000000
rprop_delta_max=50.000000
rprop_delta_zero=0.100000
cascade_output_stagnation_epochs=12
cascade_candidate_change_fraction=0.010000
cascade_candidate_stagnation_epochs=12
cascade_max_out_epochs=150
cascade_max_cand_epochs=150
cascade_num_candidate_groups=2
bit_fail_limit=3.49999999999999980000e-001
cascade_candidate_limit=1.00000000000000000000e+003
cascade_weight_multiplier=4.00000000000000020000e-001
cascade_activation_functions_count=10
cascade_activation_functions=3 5 7 8 10 11 14 15 16 17 
cascade_activation_steepnesses_count=4
cascade_activation_steepnesses=2.50000000000000000000e-001 5.00000000000000000000e-001 7.50000000000000000000e-001 1.00000000000000000000e+000 
layer_sizes=9 21 6 
scale_included=0
neurons (num_inputs, activation_function, activation_steepness)=(0, 0, 0.00000000000000000000e+000) (0, 0, 0.00000000000000000000e+000) (0, 0, 0.00000000000000000000e+000) (0, 0, 0.00000000000000000000e+000) (0, 0, 0.00000000000000000000e+000) (0, 0, 0.00000000000000000000e+000) (0, 0, 0.00000000000000000000e+000) (0, 0, 0.00000000000000000000e+000) (0, 0, 0.00000000000000000000e+000) (9, 6, 5.00000000000000000000e-001) (9, 6, 5.00000000000000000000e-001) (9, 6, 5.00000000000000000000e-001) (9, 6, 5.00000000000000000000e-001) (9, 6, 5.00000000000000000000e-001) (9, 6, 5.00000000000000000000e-001) (9, 6, 5.00000000000000000000e-001) (9, 6, 5.00000000000000000000e-001) (9, 6, 5.00000000000000000000e-001) (9, 6, 5.00000000000000000000e-001) (9, 6, 5.00000000000000000000e-001) (9, 6, 5.00000000000000000000e-001) (9, 6, 5.00000000000000000000e-001) (9, 6, 5.00000000000000000000e-001) (9, 6, 5.00000000000000000000e-001) (9, 6, 5.00000000000000000000e-001) (9, 6, 5.00000000000000000000e-001) (9, 6, 5.00000000000000000000e-001) (9, 6, 5.00000000000000000000e-001) (9, 6, 5.00000000000000000000e-001) (0, 6, 0.00000000000000000000e+000) (21, 6, 5.00000000000000000000e-001) (21, 6, 5.00000000000000000000e-001) (21, 6, 5.00000000000000000000e-001) (21, 6, 5.00000000000000000000e-001) (21, 6, 5.00000000000000000000e-001) (0, 6, 0.00000000000000000000e+000) 
connections (connected_to_neuron, weight)=(0, 1.90314429297797580000e+000) (1, 1.33724583776833600000e+001) (2, -1.26586892162206950000e+001) (3, 1.26521023708743790000e+001) (4, -6.43455775771338080000e+000) (5, -1.15487959791856770000e+001) (6, 2.53474656904028040000e+000) (7, 2.72217311959073560000e+001) (8, 5.11008817023454240000e-001) (0, -1.89594643059006000000e+000) (1, 5.22109781389681430000e+000) (2, -6.97856545858773900000e+000) (3, -4.59004968893494870000e+000) (4, 4.89141719135164980000e+000) (5, -4.27255277297541360000e+000) (6, 9.79403546572636950000e-001) (7, 1.43953511124180870000e+000) (8, -1.91836280188106830000e-001) (0, 1.53295826351955810000e+002) (1, 9.11301420908717660000e+002) (2, -1.44468397674129680000e+002) (3, -4.13212637674238580000e+002) (4, -5.59828132857334370000e+002) (5, -3.15653006509263780000e+002) (6, 6.32667163516026110000e+002) (7, 1.00123325622343830000e+003) (8, 1.65897731355826430000e+001) (0, 6.90645066709141280000e+000) (1, 1.95685951722939180000e+001) (2, 2.11490041965715960000e+001) (3, -5.10838945295879010000e+001) (4, 8.73776962930813280000e+000) (5, 2.38985327368295200000e+001) (6, 6.81367681401741350000e+000) (7, 1.12430224625371640000e+001) (8, 4.83802007235373460000e-002) (0, 5.96725829061229800000e+000) (1, 5.83585841250587570000e+000) (2, 4.64359985377053790000e+000) (3, -7.87489816577459310000e+000) (4, -5.41136668984534540000e+000) (5, -2.81993066040567230000e-001) (6, 8.70620324258190690000e+000) (7, -1.42779239064193660000e+001) (8, 2.34240239113755630000e-001) (0, 3.14146301788715500000e-001) (1, 9.43201197194373190000e+000) (2, 4.02607026265558510000e+000) (3, -1.01240917294113330000e+001) (4, -1.30224689731870310000e+001) (5, 3.15015176273525200000e+000) (6, -2.29148403482645560000e-001) (7, 1.80461416401355660000e+001) (8, 5.76122598426759170000e-001) (0, 9.24981394121467740000e+000) (1, -4.18084277590990630000e+000) (2, 2.69385361189808530000e+001) (3, 4.32013054312386090000e+001) (4, -4.95390911632586040000e+000) (5, -2.82489813607048850000e+001) (6, -9.39635378086066450000e+000) (7, -1.97268436157982240000e+001) (8, 9.06116751143814070000e-001) (0, -1.90757318609441920000e-001) (1, 9.15626862016758030000e+000) (2, 3.35211844108363800000e-001) (3, 1.31594899216441850000e+000) (4, -1.23145827760194430000e+000) (5, -4.54464592342174980000e+000) (6, -1.34725248670416550000e+000) (7, 3.99319047655336720000e+000) (8, 5.66242861547368030000e-001) (0, 2.29141320578659390000e+000) (1, 1.16249758773934290000e+000) (2, -8.30825890076463480000e+000) (3, 1.04220020544532960000e+001) (4, 4.15826285581341090000e+000) (5, -1.20826102427922670000e+001) (6, -6.68743709380855570000e+000) (7, -6.75800067390947130000e+000) (8, 8.65550036108421850000e-001) (0, -7.53572004575552330000e+000) (1, -2.25295083236911320000e+001) (2, -1.48241527720265650000e+001) (3, 9.43046746246642440000e+001) (4, 1.08744978750297730000e+001) (5, -4.03788665491433390000e+001) (6, -4.81962314356419770000e+001) (7, 7.14327115829437350000e+000) (8, -1.46911518327971710000e+000) (0, -2.67613663914242960000e-001) (1, -1.13345211001282830000e+000) (2, 3.76479793810641890000e+000) (3, 4.43387415355294550000e-002) (4, 5.64490999180679950000e+000) (5, 8.76524607277447690000e-002) (6, 3.42739342877522630000e+000) (7, -1.77384213922695500000e+000) (8, 3.80546062271328700000e-001) (0, 1.03411189598682170000e+001) (1, 9.75495653578152160000e-001) (2, 4.76814696461961680000e+000) (3, 1.35745553523918530000e+001) (4, -3.68368009381968090000e+001) (5, -9.13638408231933500000e+000) (6, 6.37311162392329770000e-001) (7, -5.23888721679356010000e+000) (8, -6.56719505226136420000e-001) (0, 1.06096899748179770000e+000) (1, -9.74627303869608500000e+000) (2, -8.99330857044594700000e-001) (3, 7.68287042185389880000e+000) (4, 5.28277079223471890000e-001) (5, 4.22644200172092790000e+000) (6, -9.66413184899089650000e+000) (7, -1.16940039671162690000e+000) (8, 1.36082660353741360000e-001) (0, -3.57991977570406530000e+000) (1, -8.43560490986672380000e+000) (2, -2.79032257600556730000e+001) (3, 7.66865827586025620000e+000) (4, 3.24749871954525200000e+000) (5, -6.97744352594625550000e+000) (6, 1.25381517817934260000e+001) (7, 5.49107233492574660000e+000) (8, 9.45169168631670300000e-002) (0, 2.95055384451147660000e+001) (1, 6.09084392768296560000e+000) (2, 1.83287753636186540000e+001) (3, 6.88308897824910840000e+001) (4, 8.41442656395963340000e+000) (5, -6.51502253105060020000e+001) (6, 1.33010857679256310000e+000) (7, -4.24041000365608910000e+001) (8, 1.15918540521642520000e+000) (0, 5.94473420591590070000e+000) (1, 1.85684127376250600000e+001) (2, -1.03436937123778600000e+001) (3, 1.43839375192572340000e+001) (4, -7.38023326830258420000e+000) (5, -1.75898400280724480000e+001) (6, 7.82469268141535410000e+000) (7, 2.94864714176114230000e+001) (8, 4.66066603034818310000e-002) (0, 7.06453392745869020000e+000) (1, 7.53301444844228920000e+000) (2, -6.90710635345813980000e+000) (3, -5.27912899033572720000e+000) (4, 2.36241675731826750000e+001) (5, -1.74371011509299940000e+001) (6, 1.37772519511694970000e+001) (7, -6.18746963346625290000e+000) (8, 3.20556248635615380000e-001) (0, 5.04137232887262100000e-002) (1, 1.37857485529384060000e+000) (2, 7.97330976883157790000e-001) (3, -2.52492585845097390000e+000) (4, 2.22373371220772630000e+000) (5, -1.21061917803874270000e+000) (6, 2.67221907297308770000e+000) (7, -5.56001435473540000000e+000) (8, 1.34362863059510840000e-002) (0, 1.45776897850527610000e+000) (1, -9.61655885733184170000e-001) (2, -5.73992500869220160000e-001) (3, -7.43432753228460630000e+000) (4, 4.75716313540608620000e-001) (5, 4.81562946262306650000e+000) (6, -1.27393172840633660000e+001) (7, 5.30475928631843720000e+000) (8, 7.81301947895899130000e-001) (0, 4.72565715501682520000e+000) (1, -1.52315285203746280000e+001) (2, 1.28089533243772000000e+001) (3, 1.28062345440081750000e+001) (4, 2.29329929590576900000e+000) (5, 3.94548137229240540000e+000) (6, -1.39082744643035120000e+001) (7, 8.05234929905980220000e+000) (8, 3.50920355689546220000e-001) (9, -4.71563194655153010000e-001) (10, 3.20529715399470350000e+000) (11, -1.96601824835958090000e-001) (12, -8.23866507738434170000e-001) (13, 1.00228546146297790000e+000) (14, 2.46108999813117090000e+000) (15, 1.36119427883915930000e-002) (16, 2.20452587874599070000e-001) (17, 5.57909512279819550000e-001) (18, -4.74981419590679470000e-001) (19, 5.51163249942875690000e-001) (20, -3.52052759211688100000e-001) (21, 2.92354606836947360000e+000) (22, -4.08573325674928050000e-001) (23, -3.95663972615369450000e-001) (24, 1.35637420299530660000e-001) (25, 2.59906556714941230000e-001) (26, 1.13639915115095120000e+000) (27, -2.48937297679486890000e+000) (28, 1.08397758111832030000e+000) (29, 4.11962664751707950000e-001) (9, 8.39962844321962220000e-001) (10, -9.71924478287758740000e-001) (11, 1.96807169180622580000e-001) (12, 4.27909446778080350000e-001) (13, 7.36163411066529520000e-002) (14, -1.30415015251116670000e+000) (15, 7.39976996337057960000e-002) (16, 3.27129866603450000000e-001) (17, -9.17610720784784560000e-001) (18, 4.06792809677117730000e-001) (19, -5.75605560604849910000e-001) (20, 1.99213119678442150000e-002) (21, -8.65883343562236400000e-001) (22, 2.40773413661700160000e-001) (23, 6.30495274288670750000e-002) (24, -4.79317864547169680000e-001) (25, -2.01683440517204800000e-001) (26, 4.46672472706710790000e-001) (27, 1.37841830264302970000e+000) (28, -3.61071449572063890000e-001) (29, 8.89593245420698290000e-001) (9, 1.20355410046806920000e+000) (10, -1.11781547950348200000e+000) (11, 1.50280693829072250000e-001) (12, 1.62254900555611160000e+000) (13, 6.00841450560433920000e-001) (14, -1.33651177656635320000e+000) (15, 2.27663560617387490000e-001) (16, 6.49019857124359830000e-001) (17, -5.49172860398969290000e-002) (18, 8.01470613082631900000e-001) (19, 1.22659734387589990000e+000) (20, 3.17446259320097790000e-001) (21, -1.15707434102514410000e+000) (22, 1.32217939362373250000e+000) (23, 3.38513646720856930000e-001) (24, -1.26691788235478460000e+000) (25, -1.16916063384365440000e+000) (26, -8.79230852230319160000e-001) (27, 1.13311350254453000000e+000) (28, -5.79654605884300960000e-001) (29, 5.22057497235919540000e-001) (9, 1.67715924396840910000e+000) (10, 3.33982842826108020000e-001) (11, 1.80044149940117970000e-001) (12, 1.48216312799249460000e-001) (13, -1.53930310382848970000e+000) (14, 6.98766497422534490000e-001) (15, -1.33907188020720440000e+000) (16, 7.68519993492258860000e-001) (17, -9.34608396409225770000e-001) (18, 1.79352166187941450000e-001) (19, 2.39440129822710790000e-001) (20, 8.23892855773266540000e-001) (21, 2.19167945745983680000e+000) (22, -2.04187571907414960000e-001) (23, 7.95138512985148370000e-001) (24, -1.17798230637788200000e+000) (25, 3.90928320331228150000e-001) (26, 7.24155948358873140000e+000) (27, -3.08830579615858470000e-001) (28, 5.88135701198307160000e-001) (29, 8.81240932476859860000e-001) (9, 2.05272996895825610000e+000) (10, 2.65885995312121270000e+000) (11, 2.20245030872017520000e-001) (12, 3.81905065496659810000e-001) (13, -4.05002585533445150000e-001) (14, 3.45907253652445960000e-001) (15, 1.17318952489954990000e+000) (16, 1.18625280236274140000e+000) (17, -2.84031389285815150000e+000) (18, 5.55230858173155980000e-001) (19, 3.03953913255575440000e+000) (20, 1.12078876576430850000e+000) (21, 3.66707586273971800000e+000) (22, 5.22406487923129710000e-001) (23, -2.38520793233346520000e-001) (24, -1.86827595391931060000e+000) (25, 1.11835850945448480000e+000) (26, 3.22685362061032600000e+000) (27, 1.16645357996647010000e+000) (28, -1.02065764433362620000e+000) (29, 4.96384615776673920000e-001) 
