FANN_FLO_2.1
num_layers=3
learning_rate=0.700000
connection_rate=1.000000
network_type=0
learning_momentum=0.000000
training_algorithm=2
train_error_function=1
train_stop_function=0
cascade_output_change_fraction=0.010000
quickprop_decay=-0.000100
quickprop_mu=1.750000
rprop_increase_factor=1.200000
rprop_decrease_factor=0.500000
rprop_delta_min=0.000000
rprop_delta_max=50.000000
rprop_delta_zero=0.100000
cascade_output_stagnation_epochs=12
cascade_candidate_change_fraction=0.010000
cascade_candidate_stagnation_epochs=12
cascade_max_out_epochs=150
cascade_max_cand_epochs=150
cascade_num_candidate_groups=2
bit_fail_limit=3.49999999999999980000e-001
cascade_candidate_limit=1.00000000000000000000e+003
cascade_weight_multiplier=4.00000000000000020000e-001
cascade_activation_functions_count=10
cascade_activation_functions=3 5 7 8 10 11 14 15 16 17 
cascade_activation_steepnesses_count=4
cascade_activation_steepnesses=2.50000000000000000000e-001 5.00000000000000000000e-001 7.50000000000000000000e-001 1.00000000000000000000e+000 
layer_sizes=9 21 6 
scale_included=0
neurons (num_inputs, activation_function, activation_steepness)=(0, 0, 0.00000000000000000000e+000) (0, 0, 0.00000000000000000000e+000) (0, 0, 0.00000000000000000000e+000) (0, 0, 0.00000000000000000000e+000) (0, 0, 0.00000000000000000000e+000) (0, 0, 0.00000000000000000000e+000) (0, 0, 0.00000000000000000000e+000) (0, 0, 0.00000000000000000000e+000) (0, 0, 0.00000000000000000000e+000) (9, 6, 5.00000000000000000000e-001) (9, 6, 5.00000000000000000000e-001) (9, 6, 5.00000000000000000000e-001) (9, 6, 5.00000000000000000000e-001) (9, 6, 5.00000000000000000000e-001) (9, 6, 5.00000000000000000000e-001) (9, 6, 5.00000000000000000000e-001) (9, 6, 5.00000000000000000000e-001) (9, 6, 5.00000000000000000000e-001) (9, 6, 5.00000000000000000000e-001) (9, 6, 5.00000000000000000000e-001) (9, 6, 5.00000000000000000000e-001) (9, 6, 5.00000000000000000000e-001) (9, 6, 5.00000000000000000000e-001) (9, 6, 5.00000000000000000000e-001) (9, 6, 5.00000000000000000000e-001) (9, 6, 5.00000000000000000000e-001) (9, 6, 5.00000000000000000000e-001) (9, 6, 5.00000000000000000000e-001) (9, 6, 5.00000000000000000000e-001) (0, 6, 0.00000000000000000000e+000) (21, 6, 5.00000000000000000000e-001) (21, 6, 5.00000000000000000000e-001) (21, 6, 5.00000000000000000000e-001) (21, 6, 5.00000000000000000000e-001) (21, 6, 5.00000000000000000000e-001) (0, 6, 0.00000000000000000000e+000) 
connections (connected_to_neuron, weight)=(0, 2.45391234285772250000e+000) (1, -3.88834895092392420000e+000) (2, -2.84193898374711160000e+000) (3, -3.63847919983264000000e+000) (4, 3.37063692841724250000e+001) (5, -1.49071805462876970000e+000) (6, 3.03109182665662280000e-001) (7, -1.10647702720962280000e+001) (8, -7.96825628428146360000e-002) (0, 1.12316726197162410000e+001) (1, 5.05587103394624650000e+000) (2, -1.41640681583382030000e+001) (3, 4.21941449069828780000e+001) (4, 2.46929721861921500000e-001) (5, -6.72996437692410300000e+001) (6, 3.48166937802796210000e+001) (7, 6.49839192996448960000e+001) (8, 3.45345985379022780000e-001) (0, -2.32335794084875810000e-001) (1, 6.49313481137734680000e-001) (2, -5.32515507010495550000e-001) (3, 5.82497120678496130000e-001) (4, 6.12558234327321360000e-002) (5, -1.69833896933313810000e+000) (6, 2.02754299743366760000e-001) (7, 5.85439708959577420000e-001) (8, 4.70928778500957000000e-002) (0, 8.22167572611391060000e-001) (1, 1.17712680098996890000e+001) (2, 4.84365440432892310000e+000) (3, -2.50254581831437550000e+001) (4, -7.51159700720566810000e-001) (5, 5.52311259569970670000e+000) (6, -6.16657471156513810000e+000) (7, 9.57598194272752500000e+000) (8, 6.12881221144678450000e-002) (0, -8.98558494862162220000e-001) (1, 4.00583116836315600000e+000) (2, -2.38517737595223170000e+000) (3, -1.03889323003955720000e+001) (4, 3.36084986776225540000e+000) (5, 9.90709558073254590000e-002) (6, -1.15014729510240940000e+000) (7, 1.25476588689697930000e+000) (8, -5.02820452401037190000e-002) (0, 1.12166269673239980000e+001) (1, -4.02477952461109290000e+000) (2, 7.49160852011153950000e-002) (3, -7.01563444765620270000e-001) (4, 1.87513639442360510000e+001) (5, -1.66357285470290610000e+001) (6, 2.17369460828859400000e+001) (7, -1.24551361234525610000e+001) (8, 3.39868633434532660000e-001) (0, 3.97540440795530440000e+000) (1, -5.58668407284536970000e+000) (2, 2.25554741810227380000e+001) (3, -8.80784780400895250000e+000) (4, 2.57826085166075490000e+001) (5, 1.48056503392610690000e+000) (6, 3.06305991657420850000e+000) (7, -6.39882384382782520000e+001) (8, 8.88429051203020740000e-001) (0, -1.89602916367593140000e+000) (1, -2.84432213427674570000e+000) (2, -7.28277314717043820000e-001) (3, -4.57678517816806210000e-002) (4, 2.50300922571314040000e+001) (5, 4.04878393232046200000e+000) (6, 6.15191586744841310000e-001) (7, -5.91016244696028540000e-001) (8, 6.61172746239542810000e-001) (0, 2.74489776838937660000e-001) (1, 2.14881234813686950000e+000) (2, 7.32505697562950590000e-001) (3, -2.22887652172305990000e+000) (4, 2.45207174069549040000e+000) (5, -1.71200630836499950000e+000) (6, 3.38392372929515960000e+000) (7, -4.96478818384624350000e+000) (8, -1.77636078331544410000e-001) (0, 2.80899124000007560000e+000) (1, 5.67848087454708760000e+000) (2, -2.85477889990274350000e+000) (3, 1.42790324871897440000e+000) (4, -2.54645401310768960000e-001) (5, -1.22746951901921900000e+001) (6, 9.67956309580942140000e-001) (7, 2.35918956500558040000e+001) (8, 9.59480214392715910000e-001) (0, 3.30167885228340730000e+000) (1, 3.60700922053649500000e+000) (2, 4.42467364532503900000e+000) (3, -1.17550254211951620000e+000) (4, 1.71002801108637950000e+000) (5, -9.63261258537674640000e-001) (6, 1.16925594675394230000e+001) (7, -1.22718921329507150000e+001) (8, 8.02043584475735650000e-002) (0, 7.63911103551676570000e-001) (1, 4.03212061385173830000e+000) (2, -9.85156617878967290000e+000) (3, -3.77546106998382480000e-001) (4, 2.21586905432292590000e+001) (5, -1.80796114344483950000e+001) (6, 3.28000883388725220000e+000) (7, 5.35078424828942010000e+000) (8, 5.13100721886774360000e-001) (0, 2.14825599262276900000e-001) (1, 6.97881093333608060000e+000) (2, 1.96045998964317540000e+001) (3, -2.63493062138392520000e+001) (4, -1.41512597496594400000e+001) (5, 2.42556428960031990000e+001) (6, -1.21594860676290200000e+000) (7, 1.71985771339746270000e+001) (8, 4.19923720467355040000e-001) (0, 4.07973093285590670000e-001) (1, 1.07097564541355070000e+001) (2, -5.43085584953437460000e+000) (3, 7.65351747430157660000e+000) (4, -1.01725095784074800000e+000) (5, -8.68134643081395120000e+000) (6, 2.28714210244677970000e+000) (7, -9.14379763904910940000e-001) (8, 5.25256910418651410000e-001) (0, -2.88824776213206290000e-001) (1, 4.88977787477301010000e+000) (2, -3.33304207355720820000e+000) (3, -1.63335885187196580000e+001) (4, 1.60727352641754000000e+001) (5, 2.14055180276967290000e+001) (6, -3.16493821185738970000e+000) (7, 1.55111920173795890000e+000) (8, 3.58885547790800120000e-002) (0, 8.91224148751788900000e-001) (1, 4.17549331032139650000e+000) (2, 3.95286099246839970000e+000) (3, -8.07206307010832290000e-001) (4, -5.77015299758984490000e+000) (5, 5.39663128388759740000e-001) (6, -1.49656931267318670000e+000) (7, 4.04100176000065580000e+000) (8, 2.00318488503568950000e-001) (0, 2.45970500728132680000e+001) (1, 1.71264541372472290000e+001) (2, 1.18603471295831800000e+002) (3, -5.77495046673802860000e+001) (4, -1.13083619431216490000e+002) (5, 1.05919929551710230000e+002) (6, 3.42966759572140770000e+001) (7, -1.60421045900755170000e+001) (8, 2.72706000372684710000e+000) (0, 1.23953735549665180000e+000) (1, 4.80493266599400040000e+000) (2, 1.09223457752154240000e+001) (3, -7.10070506545680850000e+000) (4, -3.65794338906012180000e+000) (5, -3.41446849602957130000e-001) (6, 4.38040867173551620000e+000) (7, -3.30981866549674080000e+000) (8, 1.43409943966882450000e-001) (0, 7.67920244739388020000e-001) (1, -1.34774486024947130000e+001) (2, 7.60609837592099590000e+000) (3, 1.30599325803006430000e+001) (4, -5.91992911005421350000e+000) (5, 1.70906624719002950000e+001) (6, 8.36736023612048110000e+000) (7, 2.63011146637153860000e-001) (8, -3.83567587465577010000e-001) (0, -1.09417752681626950000e+000) (1, -4.11775360542333060000e-002) (2, -3.50971125142873100000e+000) (3, 6.82342231425521020000e+000) (4, 1.79542074650867760000e+000) (5, 1.23808890959655640000e+000) (6, 3.25566522857411880000e+000) (7, -5.57657205156449360000e+000) (8, 5.19918241530559650000e-001) (9, 1.11546928985105790000e+000) (10, -1.67605397308787790000e-001) (11, 6.67309077222561340000e+000) (12, 6.91519463791372300000e-001) (13, -7.32096562150412970000e-001) (14, -2.49801883621781520000e-001) (15, -4.54283171289295180000e-001) (16, 3.21434955984469860000e-001) (17, 1.84004092867480320000e+000) (18, 6.18816491923629970000e-002) (19, 1.32649904041985130000e+000) (20, -8.58334948908115350000e-001) (21, 6.07253284948618970000e-001) (22, -5.74400343930082100000e-001) (23, -1.16472736998035840000e+000) (24, -2.08659790312828550000e-002) (25, 3.84144749954559920000e-002) (26, -1.86930919234756110000e+000) (27, -2.75597926668251840000e-001) (28, 5.88215738104436840000e-001) (29, 8.25673933501989480000e-001) (9, -5.40432966837360750000e-001) (10, -1.87017317217126110000e-001) (11, -5.10307983929679840000e+000) (12, -6.96640209157253780000e-001) (13, 1.64700335661165240000e+000) (14, 2.49128084753703770000e-001) (15, 1.05358820833560950000e-001) (16, 7.00139886761060180000e-002) (17, -8.51472584230204550000e-001) (18, 6.82624680418392860000e-001) (19, -1.35316336246168280000e+000) (20, -1.30670645471132270000e-001) (21, -8.61471685426028810000e-001) (22, 1.14249974461847660000e+000) (23, 8.17089264407442010000e-001) (24, -5.74321787273866740000e-001) (25, 1.11005100653214270000e-001) (26, 1.92440794029971070000e+000) (27, 5.09726835271568480000e-001) (28, -1.06669853550660500000e+000) (29, 7.05922177232182200000e-001) (9, -1.32545160740113150000e+000) (10, -4.34777498374259660000e-001) (11, -1.66958802604522740000e+000) (12, -3.30442909446546600000e+000) (13, 1.54814858693449020000e+000) (14, 2.54866853888286670000e-001) (15, 2.33486937351580770000e-001) (16, 9.35137609927430220000e-001) (17, 5.31637764976429890000e-001) (18, 7.77076874206520940000e-001) (19, 9.23070220876502920000e-001) (20, 5.27129409064908210000e-003) (21, 7.67820094295268430000e-001) (22, 6.02115061119568030000e-001) (23, 1.01925201702979610000e+000) (24, 1.18072401938705520000e+000) (25, -2.02124512468420000000e-001) (26, -8.90664807721706090000e-001) (27, -7.90402644421445030000e-001) (28, -3.51146540579038510000e+000) (29, 9.46568518104549120000e-001) (9, 1.17183593131305660000e-001) (10, -1.16637125908233620000e-001) (11, -9.59412665577853300000e+000) (12, 1.02983351640013070000e+000) (13, -2.39775904489589490000e-001) (14, 6.34923298525343680000e-001) (15, 1.76593604630612440000e-001) (16, 3.20873626690705520000e-001) (17, 4.08344361496991760000e+000) (18, 9.04821667281048850000e-001) (19, -2.73789422851556540000e+000) (20, -2.92371569427175080000e-002) (21, 2.50673799765346760000e-001) (22, 1.27646621156650800000e+000) (23, -1.06276543574092420000e+000) (24, 5.00982653822391530000e-002) (25, 1.45242487244501170000e-001) (26, -1.00151218991968970000e+000) (27, 8.18225482060037760000e-001) (28, 7.57637280201568180000e-001) (29, 5.16924745099752280000e-001) (9, -1.34835707367663300000e+000) (10, -3.97548214640345010000e-001) (11, -1.44942039288449550000e+001) (12, -2.90480072205981710000e+000) (13, 4.71576557496930260000e+000) (14, 9.22867517863071530000e-001) (15, 6.83723085450271050000e-001) (16, 1.03137874564889010000e+000) (17, 5.65623184659626920000e-002) (18, 1.05387420709937210000e+000) (19, -1.04818391512189170000e+000) (20, 1.29536629034573190000e+000) (21, 6.24300276129471480000e-001) (22, 2.06479177989119770000e-001) (23, -2.48280863876916390000e-001) (24, 5.21318998791190950000e+000) (25, -7.88201676830312060000e-001) (26, -1.13362731479197600000e+000) (27, 1.91659456486413220000e-001) (28, -1.05224766596651010000e+000) (29, 5.30456718986622500000e-001) 
