FANN_FLO_2.1
num_layers=3
learning_rate=0.700000
connection_rate=1.000000
network_type=0
learning_momentum=0.000000
training_algorithm=2
train_error_function=1
train_stop_function=0
cascade_output_change_fraction=0.010000
quickprop_decay=-0.000100
quickprop_mu=1.750000
rprop_increase_factor=1.200000
rprop_decrease_factor=0.500000
rprop_delta_min=0.000000
rprop_delta_max=50.000000
rprop_delta_zero=0.100000
cascade_output_stagnation_epochs=12
cascade_candidate_change_fraction=0.010000
cascade_candidate_stagnation_epochs=12
cascade_max_out_epochs=150
cascade_max_cand_epochs=150
cascade_num_candidate_groups=2
bit_fail_limit=3.49999999999999980000e-001
cascade_candidate_limit=1.00000000000000000000e+003
cascade_weight_multiplier=4.00000000000000020000e-001
cascade_activation_functions_count=10
cascade_activation_functions=3 5 7 8 10 11 14 15 16 17 
cascade_activation_steepnesses_count=4
cascade_activation_steepnesses=2.50000000000000000000e-001 5.00000000000000000000e-001 7.50000000000000000000e-001 1.00000000000000000000e+000 
layer_sizes=9 126 6 
scale_included=0
neurons (num_inputs, activation_function, activation_steepness)=(0, 0, 0.00000000000000000000e+000) (0, 0, 0.00000000000000000000e+000) (0, 0, 0.00000000000000000000e+000) (0, 0, 0.00000000000000000000e+000) (0, 0, 0.00000000000000000000e+000) (0, 0, 0.00000000000000000000e+000) (0, 0, 0.00000000000000000000e+000) (0, 0, 0.00000000000000000000e+000) (0, 0, 0.00000000000000000000e+000) (9, 6, 5.00000000000000000000e-001) (9, 6, 5.00000000000000000000e-001) (9, 6, 5.00000000000000000000e-001) (9, 6, 5.00000000000000000000e-001) (9, 6, 5.00000000000000000000e-001) (9, 6, 5.00000000000000000000e-001) (9, 6, 5.00000000000000000000e-001) (9, 6, 5.00000000000000000000e-001) (9, 6, 5.00000000000000000000e-001) (9, 6, 5.00000000000000000000e-001) (9, 6, 5.00000000000000000000e-001) (9, 6, 5.00000000000000000000e-001) (9, 6, 5.00000000000000000000e-001) (9, 6, 5.00000000000000000000e-001) (9, 6, 5.00000000000000000000e-001) (9, 6, 5.00000000000000000000e-001) (9, 6, 5.00000000000000000000e-001) (9, 6, 5.00000000000000000000e-001) (9, 6, 5.00000000000000000000e-001) (9, 6, 5.00000000000000000000e-001) (9, 6, 5.00000000000000000000e-001) (9, 6, 5.00000000000000000000e-001) (9, 6, 5.00000000000000000000e-001) (9, 6, 5.00000000000000000000e-001) (9, 6, 5.00000000000000000000e-001) (9, 6, 5.00000000000000000000e-001) (9, 6, 5.00000000000000000000e-001) (9, 6, 5.00000000000000000000e-001) (9, 6, 5.00000000000000000000e-001) (9, 6, 5.00000000000000000000e-001) (9, 6, 5.00000000000000000000e-001) (9, 6, 5.00000000000000000000e-001) (9, 6, 5.00000000000000000000e-001) (9, 6, 5.00000000000000000000e-001) (9, 6, 5.00000000000000000000e-001) (9, 6, 5.00000000000000000000e-001) (9, 6, 5.00000000000000000000e-001) (9, 6, 5.00000000000000000000e-001) (9, 6, 5.00000000000000000000e-001) (9, 6, 5.00000000000000000000e-001) (9, 6, 5.00000000000000000000e-001) (9, 6, 5.00000000000000000000e-001) (9, 6, 5.00000000000000000000e-001) (9, 6, 5.00000000000000000000e-001) (9, 6, 5.00000000000000000000e-001) (9, 6, 5.00000000000000000000e-001) (9, 6, 5.00000000000000000000e-001) (9, 6, 5.00000000000000000000e-001) (9, 6, 5.00000000000000000000e-001) (9, 6, 5.00000000000000000000e-001) (9, 6, 5.00000000000000000000e-001) (9, 6, 5.00000000000000000000e-001) (9, 6, 5.00000000000000000000e-001) (9, 6, 5.00000000000000000000e-001) (9, 6, 5.00000000000000000000e-001) (9, 6, 5.00000000000000000000e-001) (9, 6, 5.00000000000000000000e-001) (9, 6, 5.00000000000000000000e-001) (9, 6, 5.00000000000000000000e-001) (9, 6, 5.00000000000000000000e-001) (9, 6, 5.00000000000000000000e-001) (9, 6, 5.00000000000000000000e-001) (9, 6, 5.00000000000000000000e-001) (9, 6, 5.00000000000000000000e-001) (9, 6, 5.00000000000000000000e-001) (9, 6, 5.00000000000000000000e-001) (9, 6, 5.00000000000000000000e-001) (9, 6, 5.00000000000000000000e-001) (9, 6, 5.00000000000000000000e-001) (9, 6, 5.00000000000000000000e-001) (9, 6, 5.00000000000000000000e-001) (9, 6, 5.00000000000000000000e-001) (9, 6, 5.00000000000000000000e-001) (9, 6, 5.00000000000000000000e-001) (9, 6, 5.00000000000000000000e-001) (9, 6, 5.00000000000000000000e-001) (9, 6, 5.00000000000000000000e-001) (9, 6, 5.00000000000000000000e-001) (9, 6, 5.00000000000000000000e-001) (9, 6, 5.00000000000000000000e-001) (9, 6, 5.00000000000000000000e-001) (9, 6, 5.00000000000000000000e-001) (9, 6, 5.00000000000000000000e-001) (9, 6, 5.00000000000000000000e-001) (9, 6, 5.00000000000000000000e-001) (9, 6, 5.00000000000000000000e-001) (9, 6, 5.00000000000000000000e-001) (9, 6, 5.00000000000000000000e-001) (9, 6, 5.00000000000000000000e-001) (9, 6, 5.00000000000000000000e-001) (9, 6, 5.00000000000000000000e-001) (9, 6, 5.00000000000000000000e-001) (9, 6, 5.00000000000000000000e-001) (9, 6, 5.00000000000000000000e-001) (9, 6, 5.00000000000000000000e-001) (9, 6, 5.00000000000000000000e-001) (9, 6, 5.00000000000000000000e-001) (9, 6, 5.00000000000000000000e-001) (9, 6, 5.00000000000000000000e-001) (9, 6, 5.00000000000000000000e-001) (9, 6, 5.00000000000000000000e-001) (9, 6, 5.00000000000000000000e-001) (9, 6, 5.00000000000000000000e-001) (9, 6, 5.00000000000000000000e-001) (9, 6, 5.00000000000000000000e-001) (9, 6, 5.00000000000000000000e-001) (9, 6, 5.00000000000000000000e-001) (9, 6, 5.00000000000000000000e-001) (9, 6, 5.00000000000000000000e-001) (9, 6, 5.00000000000000000000e-001) (9, 6, 5.00000000000000000000e-001) (9, 6, 5.00000000000000000000e-001) (9, 6, 5.00000000000000000000e-001) (9, 6, 5.00000000000000000000e-001) (9, 6, 5.00000000000000000000e-001) (9, 6, 5.00000000000000000000e-001) (9, 6, 5.00000000000000000000e-001) (9, 6, 5.00000000000000000000e-001) (9, 6, 5.00000000000000000000e-001) (9, 6, 5.00000000000000000000e-001) (9, 6, 5.00000000000000000000e-001) (9, 6, 5.00000000000000000000e-001) (9, 6, 5.00000000000000000000e-001) (9, 6, 5.00000000000000000000e-001) (9, 6, 5.00000000000000000000e-001) (0, 6, 0.00000000000000000000e+000) (126, 6, 5.00000000000000000000e-001) (126, 6, 5.00000000000000000000e-001) (126, 6, 5.00000000000000000000e-001) (126, 6, 5.00000000000000000000e-001) (126, 6, 5.00000000000000000000e-001) (0, 6, 0.00000000000000000000e+000) 
connections (connected_to_neuron, weight)=(0, 6.60222080429853530000e+000) (1, 1.60011069092461440000e+002) (2, 1.37656649192805690000e+001) (3, 9.50846264378531100000e+000) (4, 1.36388941048813010000e+001) (5, 2.93086068000019790000e+000) (6, 3.98952473811369850000e+000) (7, 4.70494291578596880000e+000) (8, 7.45573505541561680000e+000) (0, -2.34743821655819930000e+000) (1, -6.36483229119720880000e-002) (2, 5.30259061107989730000e+000) (3, -1.38677609921213420000e+001) (4, -7.04983739536895100000e+000) (5, 2.83108987517976420000e+000) (6, 3.74124699781473210000e+001) (7, 1.95761905187061740000e+001) (8, 2.96014427137676870000e+000) (0, 4.95081253028820210000e+001) (1, -2.08695471941095430000e+001) (2, 3.19090733784816190000e+001) (3, -3.92279853753807740000e+000) (4, -4.44779513511713990000e+001) (5, -1.72502153071155850000e+001) (6, -1.65892066342232100000e+000) (7, -9.56117006275037970000e+000) (8, 3.83538621824992190000e+000) (0, 1.21499356431137580000e+000) (1, -6.73489926930611600000e-001) (2, -8.10066936683638160000e-001) (3, 4.44099381180490080000e-001) (4, -3.28596123569141470000e-001) (5, 1.07399624756966780000e+000) (6, -9.28982510460673930000e-001) (7, -1.00195181774350840000e-001) (8, -3.01056273449842430000e-001) (0, 4.15725083073640800000e+000) (1, 5.15425459974819940000e+000) (2, -1.77076563699361800000e+000) (3, 1.58004032151848220000e+001) (4, -1.17881024922428330000e+001) (5, 6.02334905762987650000e+000) (6, -1.69246140771936990000e+001) (7, 1.05604634834715480000e+001) (8, 1.53607044314960970000e+000) (0, -2.67377715850638480000e+000) (1, 1.42142261381454720000e-001) (2, -1.26766576422610910000e+001) (3, 4.20773798423630740000e+000) (4, 1.21198779799219840000e+001) (5, -1.57837110607636010000e+001) (6, 1.25621082770554280000e+000) (7, 1.93182619572670560000e+000) (8, 1.11370940622353460000e+000) (0, 1.30188683709256520000e+001) (1, 6.45275197675210150000e+000) (2, 2.19484251796206420000e+001) (3, -2.16070804000320040000e+001) (4, 1.35925823547531990000e+001) (5, 1.19180115443105880000e+001) (6, 7.30564904519937240000e+001) (7, 8.27799173929051900000e+001) (8, 1.53735306581942770000e+000) (0, 1.47979919955920670000e+001) (1, -7.40982474245849780000e+000) (2, 9.67893512915666500000e-001) (3, -2.86269903950131490000e+001) (4, -2.32422965463667360000e+000) (5, 1.99443883918806900000e+000) (6, -1.05731921720862140000e+000) (7, 1.13056013885246660000e+001) (8, 2.16121983635546980000e+000) (0, 4.36155927925687960000e+000) (1, 6.12942859280071420000e+000) (2, -1.61272700093497900000e+001) (3, 4.72460703545901670000e+001) (4, -1.04613121137932110000e+000) (5, 1.52424585921994350000e+001) (6, 3.11500494568858210000e+001) (7, 5.07718482709330630000e+001) (8, 9.53092651248332760000e-001) (0, 1.38042837811414040000e+000) (1, 6.50022255578715400000e-001) (2, 1.49211868081023180000e+000) (3, -1.36531823740025010000e-001) (4, 1.31951885200233750000e+000) (5, -4.43655847827779340000e-001) (6, 1.65464418725041900000e+000) (7, -3.48797445418246590000e-001) (8, 2.02979212194222480000e+000) (0, 3.48339646428718510000e+000) (1, 3.69996472018098550000e+000) (2, 1.68146668887079740000e+000) (3, -2.45840906979904930000e+000) (4, 4.43951689713564070000e+000) (5, 3.27840430688401920000e+000) (6, 3.07930959976337930000e+000) (7, -2.69866420732483060000e+000) (8, 2.71452460087551240000e+000) (0, 2.03763994398665640000e+000) (1, 1.35324438779405280000e+001) (2, 3.31338281631141030000e+000) (3, -5.34165434240344870000e+001) (4, 8.37048343525123070000e+000) (5, 1.66321954904007510000e+001) (6, 3.24703275951287650000e+001) (7, -1.29695218681805000000e+001) (8, 9.50279604904936680000e-001) (0, 2.41335857104710990000e+001) (1, -5.90327415277042710000e+000) (2, 1.55750039555746130000e+000) (3, 1.35963205163046440000e+001) (4, 4.83725016894880110000e+001) (5, -2.11129025556668130000e+002) (6, 9.48106576769398690000e+001) (7, -4.25316741760834490000e+001) (8, 1.92944011692077560000e-001) (0, -1.14270045487326580000e+001) (1, 5.95169684424200000000e+000) (2, -2.72772813733847830000e+000) (3, -7.35352660359958170000e-001) (4, 1.72502991627087600000e+001) (5, 1.34216211409431130000e+001) (6, 6.68306774403828190000e-002) (7, 2.83027447168459930000e+001) (8, -8.45720808724977680000e-001) (0, 8.92311410707303690000e-001) (1, 1.04739730407280440000e+000) (2, 4.30172138478046030000e-001) (3, 2.29259185810208490000e-002) (4, -2.19738815454668030000e-001) (5, 1.46231478359211220000e+000) (6, -3.28846727410947450000e-001) (7, -4.49119109501895990000e-001) (8, 1.10578387044897970000e+000) (0, 3.72269329402855490000e+000) (1, 2.40553845966967650000e+001) (2, 5.94603691169204220000e+000) (3, 6.34702964504579280000e+000) (4, 1.50000000000000000000e+003) (5, 4.05755537278525850000e+000) (6, 2.34491072040115290000e+001) (7, 5.06581323653088770000e+000) (8, 7.44521375553849030000e+000) (0, 8.28460238009635310000e-001) (1, 8.67178313266640520000e-002) (2, 1.06770038424897120000e+000) (3, 5.51482473893319610000e-001) (4, 7.79528245452073780000e-001) (5, 5.25936287564067180000e-002) (6, 2.60783604694779400000e-001) (7, 5.47056540378648260000e-001) (8, -8.88410065547784230000e-001) (0, 7.72471273385325040000e+000) (1, 8.58424191165963040000e+001) (2, 5.26657381037014930000e+001) (3, 8.38901502475042450000e+000) (4, 2.30574104617969010000e+000) (5, 3.69979040860970490000e+000) (6, 4.80255891572286850000e+000) (7, 4.06915386680282950000e+000) (8, 3.51291196406349380000e+000) (0, 8.52697168852710520000e+000) (1, 1.40203249002318010000e+001) (2, -3.13118261079720240000e+001) (3, -3.13246922703026160000e+000) (4, -5.01109146292384190000e+000) (5, -7.51041062304214300000e-001) (6, -8.12712693884144950000e+000) (7, 1.79274905005825040000e+001) (8, 2.04706219389336750000e+000) (0, 1.61388475138036710000e+002) (1, -3.23484197442424890000e+002) (2, 1.50000000000000000000e+003) (3, -6.75487209262809500000e+001) (4, -5.97325008820985660000e+002) (5, 3.85112975499447200000e+002) (6, 3.04118279233762510000e+002) (7, 1.03534848823364770000e+002) (8, 1.00661862818985880000e+001) (0, 8.07476878666433070000e+000) (1, 1.73830352473719000000e+001) (2, -4.98264841799721690000e+001) (3, 4.23238043491573350000e+001) (4, -4.10700481496505440000e+000) (5, 3.46557846391908700000e+001) (6, -2.36658899929111790000e+001) (7, -3.65698272728592430000e+001) (8, 1.04430841911093000000e+000) (0, -4.20642992038518790000e-001) (1, -2.93783045797480290000e+000) (2, -3.51565344688448970000e-001) (3, 4.90008579437064050000e-001) (4, 1.97406024012902610000e-001) (5, -1.37529667462278730000e+000) (6, -1.94020071216321700000e+000) (7, -1.26540032921185070000e+000) (8, 2.38298067926842880000e-001) (0, 2.73576184769812090000e+001) (1, 1.98381704786139290000e+001) (2, 1.09131918156558600000e+002) (3, 7.92494635943574190000e+000) (4, 3.02730562692135760000e+000) (5, 6.40173192809601680000e+000) (6, -1.94248851036348600000e+001) (7, 5.27543004971340180000e+001) (8, 1.60211966145936490000e+000) (0, 1.43828458964778520000e+001) (1, 4.86516497251641840000e+001) (2, -1.21595689644933650000e+001) (3, -1.45481287250698510000e+001) (4, 5.47616656301852610000e+000) (5, 1.50124542617202770000e+001) (6, -1.07991731922608580000e+001) (7, 2.38166101012636490000e+001) (8, -3.77380069025798900000e-002) (0, -1.65010070486337160000e+000) (1, 1.59270044062115000000e+000) (2, -3.75096178833760780000e-001) (3, -4.55580456707932250000e-002) (4, -1.86254088028361520000e+000) (5, -1.28532028421854050000e+000) (6, -3.66819726742523810000e+000) (7, 9.05910722199048110000e-002) (8, 9.76322319050673460000e-001) (0, 5.10803442088073110000e+000) (1, 3.68108161058105710000e+000) (2, 3.55741275264296730000e+000) (3, 8.29558694881542100000e+000) (4, 1.22824980392858940000e+001) (5, -7.94707677671808900000e+000) (6, -1.31606314659570330000e+001) (7, 8.92564651142674670000e+000) (8, 1.10919248690644020000e+000) (0, 4.66679147478869570000e-001) (1, 4.36100187840223700000e-001) (2, 6.42737478934631290000e-001) (3, -5.02926974697067850000e-002) (4, -6.42706038738945220000e-002) (5, -6.36888689198559450000e-001) (6, -9.67870786535700990000e-002) (7, 4.06687413873861200000e-001) (8, -5.22491524661899130000e-002) (0, 1.77122910741899560000e+001) (1, 3.85226559482052550000e+001) (2, 3.82660477504387520000e+001) (3, 1.48694104185416830000e+001) (4, 1.07868255690466200000e+001) (5, -1.25812274959205970000e+001) (6, 4.54567449046131690000e+000) (7, 4.61451752563806890000e+001) (8, 7.19771596364977120000e+000) (0, 2.98644401292962460000e+000) (1, -1.01625690290522710000e+000) (2, 4.04482550922262620000e+000) (3, -3.65909522765438710000e+000) (4, -1.61610029479781470000e+000) (5, -1.33959673841006330000e+000) (6, -1.52337565341260150000e+000) (7, -5.19113945860985120000e+000) (8, 3.10695298570748600000e+000) (0, -2.94931159508721350000e+000) (1, -4.45277285480260780000e+000) (2, 1.19404854792753420000e+000) (3, -1.58149486256965280000e+000) (4, 3.31338635646480300000e+000) (5, 1.41283680217220580000e+000) (6, 5.16313463167592520000e-002) (7, 9.60859305093063280000e-001) (8, -5.62231096294842910000e-001) (0, 2.78382781599492770000e+000) (1, 7.45678946075217120000e+000) (2, 1.08386280654947530000e+001) (3, 1.03091450250951290000e+001) (4, 6.41764664572809980000e+000) (5, 2.52441109266428980000e+000) (6, 6.24649542341563360000e+000) (7, 5.36815961225136910000e+000) (8, 6.43732796321994270000e+000) (0, 1.02552381456442760000e-001) (1, 1.74706888765030670000e+000) (2, 2.43797741883803010000e+000) (3, 3.22978465845745850000e-001) (4, 2.77424634871698750000e+000) (5, 1.30597951013520390000e+000) (6, 2.03665811423681650000e+000) (7, -1.90932500411758400000e+000) (8, 9.47459992644560240000e-002) (0, 1.71376437004457640000e+001) (1, -1.87806926934085150000e+001) (2, 5.00436234420813180000e+000) (3, -6.39830727219614870000e-001) (4, 2.55997085771223620000e+000) (5, 2.06031882750736890000e+000) (6, -1.35798212591236370000e+001) (7, -1.15880532775083330000e+001) (8, 3.61768039877384860000e+000) (0, 2.10941627939778180000e+000) (1, -8.35568711819911990000e-001) (2, 7.28187249473017050000e+000) (3, -3.78007153843444770000e+000) (4, 1.48151385109664750000e+001) (5, 8.83399879121200370000e+000) (6, -1.45086225119107850000e+001) (7, -3.25032173803389310000e+000) (8, 1.97438326283337000000e+000) (0, 9.26476807188202050000e+000) (1, -4.15076294539365520000e+001) (2, -8.47047517046700780000e-001) (3, -1.62289871755442410000e+001) (4, 1.60882165630224920000e+001) (5, -2.33248460001983840000e+001) (6, -1.88666479963401060000e+001) (7, 7.02586770469768000000e+001) (8, 7.11369336129709410000e+000) (0, -5.43917087977722070000e+000) (1, 2.02456280454306850000e+001) (2, -3.24032955808210520000e+001) (3, 4.28694677049782290000e+002) (4, 2.27575985092443660000e+002) (5, -1.56608779139815280000e+002) (6, 1.20648085257415270000e+002) (7, -5.95532572511437050000e+001) (8, 2.74096606660093480000e+000) (0, -3.56995381736211200000e-001) (1, 4.04974663410214310000e+000) (2, 3.27006634250330960000e+000) (3, -4.17273301690723300000e+000) (4, 2.23654189617489770000e+000) (5, 8.06587108528244110000e-001) (6, 1.74215724522609890000e-001) (7, -8.07734778310713050000e-001) (8, 2.12784552681485730000e+000) (0, -9.50808488469246350000e+000) (1, -1.72815651856086230000e+000) (2, 7.76377818654578820000e+001) (3, -1.26899785551680800000e+000) (4, -2.51478635233721380000e+001) (5, -2.03860060656196400000e+001) (6, 2.45283153871137860000e+001) (7, 9.07600282506594880000e+000) (8, 2.24611641923185520000e+000) (0, 9.24650931225272090000e-002) (1, 4.69882599744896100000e-001) (2, 1.85163451611587180000e+000) (3, 8.65175145677306990000e-002) (4, 1.02659727540196610000e+000) (5, 2.72165551247166070000e-001) (6, 2.50899021492484840000e+000) (7, 1.49394014840619630000e+000) (8, -1.06935441126585610000e-001) (0, -8.19634468631442560000e+000) (1, -8.23176902066051320000e+000) (2, 1.25288312646814730000e+001) (3, 1.12610444185679230000e+001) (4, 9.40679281994330910000e+000) (5, -1.43139700420873750000e+001) (6, 3.44971542928607220000e+002) (7, -1.61461366197800000000e+002) (8, 4.29126352971200740000e+000) (0, 1.33387577632021190000e+001) (1, 2.62747743119927360000e+001) (2, 1.90403425053838160000e+001) (3, 3.19555873341274790000e+001) (4, 8.98838149185292150000e+000) (5, 2.41523325367886300000e+000) (6, 1.01823985349291220000e+001) (7, 7.58134439416884560000e+000) (8, 4.85784528254910960000e+000) (0, 2.32795528942780680000e+000) (1, 8.31367567828244880000e+000) (2, -3.99249760515153710000e+000) (3, -5.11646544747901720000e-001) (4, 3.89429850556887040000e+000) (5, 3.12518934973962640000e+000) (6, 4.13280408801019220000e+000) (7, 3.62826440695341510000e+000) (8, 2.01439630411773370000e+000) (0, -7.50866526226287690000e-001) (1, -7.14987779472005420000e-001) (2, -3.80927922500044870000e-001) (3, 9.30002072626107570000e-001) (4, -3.60009734521286400000e+000) (5, 9.73256071054145690000e-001) (6, -6.50492762260349910000e-001) (7, -2.66299091722187910000e-001) (8, 9.33383271652790340000e-001) (0, -9.19625407562706390000e-002) (1, 3.26898580589452410000e+001) (2, -3.04482264547501420000e+000) (3, -2.25309025327629550000e+001) (4, -4.33674040722595320000e+000) (5, -6.49557448838200720000e+000) (6, 1.54201321745997740000e-001) (7, -3.71789802671502030000e+000) (8, 2.04592435161727200000e+000) (0, 5.60813892894831410000e+000) (1, 2.94350308743100710000e+000) (2, -1.05237209743534430000e+000) (3, 3.71428870354194980000e+000) (4, 4.11689104123886910000e+000) (5, -1.07514895647519350000e+000) (6, 3.09928322018375810000e+000) (7, 5.69578913718200490000e+000) (8, 1.68225230865966810000e+000) (0, -2.10346678354224630000e+000) (1, 3.87300170037174500000e+001) (2, 1.37867136367760460000e+001) (3, -3.26277429588540500000e+001) (4, -4.87763378433696100000e+001) (5, 4.53523928948287530000e+001) (6, 1.95317190374506850000e+000) (7, 3.03429776682079900000e+001) (8, 7.25891393697010830000e-001) (0, -1.11330891072308980000e+000) (1, 1.69988566236043280000e+000) (2, -8.84238289521564800000e-001) (3, 2.39476675232854940000e+000) (4, -4.23106195603822450000e-001) (5, 2.62998560929238060000e+000) (6, 4.46254671676187100000e-001) (7, 3.58993613645392000000e+000) (8, 3.36503384627475310000e-001) (0, 8.15801117455715820000e-001) (1, 1.71622125416421450000e+001) (2, 1.23894310692052740000e+001) (3, 2.67687927690406950000e+000) (4, 3.47928597063821470000e+000) (5, 2.11300398746133670000e+000) (6, 4.32061641535502880000e+000) (7, 3.52823536686371640000e+001) (8, 2.97219650992562250000e+000) (0, -5.68197480628661270000e-001) (1, -1.25584742327215720000e+001) (2, -6.11955067657051190000e+000) (3, 5.94227018682396580000e+000) (4, 1.52390905728813590000e+001) (5, -1.16543159449979660000e+000) (6, -1.87709316015524020000e+001) (7, -1.80948338601519620000e+001) (8, 5.53353200325471130000e+000) (0, 6.05995813347269600000e+000) (1, 2.09285708660097280000e+001) (2, 1.08194337780294920000e+001) (3, 5.69545468302977480000e+000) (4, 2.29578076002620210000e+000) (5, 2.85962311727658450000e+000) (6, 1.28566642564293150000e+000) (7, 3.49172456227971480000e+000) (8, 3.70471165189507930000e+000) (0, 1.50000000000000000000e+003) (1, -3.16840619624153870000e+002) (2, 7.67712433851908710000e+001) (3, -1.67413547389612060000e+002) (4, 1.29582552786312590000e+003) (5, 1.74379968241559990000e+002) (6, -1.92972905817346710000e+002) (7, -2.11014717158303650000e+002) (8, 5.29307777146367190000e+000) (0, 9.36157047396216630000e-001) (1, 1.92703733384238010000e+000) (2, 2.13967590382722680000e+000) (3, -5.84329365615528160000e-002) (4, -2.97403615707922190000e-002) (5, 4.87079788980423090000e-001) (6, 1.67525645700792090000e+000) (7, 8.74853444522421240000e+000) (8, 8.39357505544074840000e-001) (0, 6.88750777958447280000e+000) (1, 6.19357011699422520000e+000) (2, 2.79089092529998020000e+001) (3, 2.38258811225204110000e+000) (4, 6.71425990922943470000e+001) (5, 1.12688622521029310000e+001) (6, -4.36844204879814140000e-002) (7, 1.47426587350551760000e+001) (8, 4.16978434765942120000e+000) (0, 4.02639238112877000000e-001) (1, 4.27170609281950230000e+000) (2, 4.22874371374489750000e+000) (3, 1.97673269876781580000e+000) (4, -3.15281716868521890000e+000) (5, 1.88850940638716370000e+000) (6, -2.79842222987263580000e-001) (7, 3.00232916721931970000e+000) (8, 7.13008664657832970000e-001) (0, 2.37642710857401160000e+000) (1, -1.73102296722518780000e+000) (2, -1.00771111458904750000e+001) (3, -7.39245630230383900000e+000) (4, 1.66823971409922930000e+001) (5, 8.13079701658260310000e+000) (6, 1.65910945931999690000e+001) (7, 1.22969121703356570000e+001) (8, 1.49447514340496150000e+000) (0, 3.11193295760112450000e+000) (1, 2.73987489399398530000e+001) (2, 8.18830802036166180000e+000) (3, -3.01982520400606800000e+000) (4, -1.16980208451585030000e+001) (5, 3.93994883321243970000e+000) (6, 2.12577717582177120000e+000) (7, -4.99615570493106010000e+000) (8, 3.13643079973154530000e+000) (0, 5.95219198854009330000e+000) (1, -2.46768245954187200000e-001) (2, 2.44425421112516860000e-001) (3, -7.10679713492412900000e+000) (4, -5.51190547789437260000e+000) (5, 5.53259987971239120000e+000) (6, -6.30874645958930550000e+000) (7, -8.63626818272912880000e-001) (8, 2.61528423622672520000e+000) (0, 6.31483055570086990000e-001) (1, 2.30709885906011580000e+000) (2, -2.85102840042916080000e+000) (3, 2.88707760482929120000e-001) (4, -1.72736372789074700000e+000) (5, 4.88943099332125150000e-001) (6, 1.09064893984739330000e+000) (7, -1.64207019486248650000e+000) (8, 1.02369761173529180000e+000) (0, 6.05960045684543620000e+001) (1, 2.60415293519773120000e+002) (2, -6.09483661774129000000e+001) (3, -5.97455277340065580000e+001) (4, 4.11354780607812460000e+001) (5, 9.79390563171119060000e+000) (6, -1.23125030328467640000e+002) (7, -4.49608092106402490000e+001) (8, 1.43783546022181120000e+001) (0, -9.13841407843372620000e+000) (1, 3.18744053225576440000e+000) (2, -9.05920356342488910000e+000) (3, -2.07657443502666080000e+001) (4, 5.09557956851776840000e+001) (5, 1.86869515197789550000e+001) (6, 2.82294666774456290000e+001) (7, -4.41457998700043370000e-001) (8, 3.12392468137362740000e+000) (0, 9.33606796393064400000e+001) (1, 3.33246106373720120000e+002) (2, 5.65618500900576750000e+001) (3, -4.56993795443436280000e+001) (4, 1.36882832159714210000e+002) (5, 1.13125098959982950000e+001) (6, 3.29975626337153120000e+001) (7, 5.01360277083229490000e+001) (8, 3.86963033094073370000e-001) (0, 3.21631018927095360000e+000) (1, 5.89107560794125850000e-001) (2, -4.52965819814214670000e+000) (3, 1.53074296386483180000e+000) (4, 2.85662227831661260000e+000) (5, 2.35600497605596760000e+000) (6, 2.49275105270233110000e+000) (7, -3.49987019829605070000e+000) (8, 3.12312086450566980000e+000) (0, 3.89849437542550570000e+000) (1, 3.24747906010217500000e+000) (2, 7.36478440684275040000e-001) (3, 2.89833612480583410000e+000) (4, 1.77015495928818160000e+000) (5, 8.87830889949262620000e-001) (6, 3.52208464677062020000e+000) (7, 1.81785086992998050000e+000) (8, 1.86368520293548670000e+000) (0, 1.69526955016931710000e+001) (1, -1.91049870578641560000e+000) (2, -2.09328471909598730000e+001) (3, 6.53129688173760400000e+000) (4, 7.18233232665957220000e+001) (5, -1.88255114746965920000e+002) (6, 9.55895802730668720000e+001) (7, -1.66219873908563900000e+001) (8, 1.93445760256849590000e-001) (0, -9.28773673837805850000e-001) (1, 2.19779832376631520000e+000) (2, -1.91807711720359350000e+000) (3, 2.12758613891198720000e+000) (4, -1.68799646258140610000e+000) (5, -4.32743432630780800000e-001) (6, -4.46260872081886640000e-001) (7, -2.65005974095529780000e-001) (8, 9.33067982326763130000e-001) (0, -3.83743860228626390000e-001) (1, 1.24324428871390350000e-001) (2, -6.16884909865575430000e-001) (3, 1.19359691046381200000e+000) (4, -5.56516633294045990000e-001) (5, -1.00559737210532310000e+000) (6, 1.52315029845972920000e+000) (7, -3.56268846323628370000e-001) (8, 6.36460494849481530000e-001) (0, -7.30617630159447810000e-001) (1, 1.96656659607497390000e+000) (2, -1.74757868863903560000e+001) (3, -4.63155520396594780000e+000) (4, -6.97567541604828720000e+000) (5, 2.73641256588131690000e+001) (6, 1.28309146954975170000e+001) (7, -1.76446682709288160000e+000) (8, 3.99296679634087330000e+000) (0, -1.09795091621371000000e+000) (1, 5.07755743109771230000e-001) (2, -4.64465409085550120000e-001) (3, -1.44879527087553290000e+000) (4, 1.20576572837898600000e+000) (5, 1.95695824104418490000e-001) (6, -6.37110653517259710000e-001) (7, 2.17240818558579770000e+000) (8, -2.90357850306617540000e-001) (0, -3.48405889246418980000e+000) (1, 1.60274262265755470000e+000) (2, -5.14680885954560410000e-001) (3, -2.93148662583976140000e+000) (4, 1.35676424584573250000e+000) (5, -1.21963234883130660000e+000) (6, -1.77406684193169050000e-001) (7, -1.22863341245772580000e+000) (8, 3.01333969225854070000e-002) (0, 3.33079935869015700000e+000) (1, 3.26332050245089440000e+000) (2, 1.50572720872054870000e+000) (3, -1.95536786067438780000e+000) (4, 6.97876917536624950000e-001) (5, 1.34563103937600870000e+000) (6, 2.01536153959299910000e+000) (7, 1.31931400355256190000e+000) (8, -5.16600152699978540000e-002) (0, -5.49555679224018160000e+000) (1, -3.16084342475481520000e+000) (2, 6.35547906181080440000e+001) (3, 1.84296334770778040000e+001) (4, 9.13771342104740970000e+001) (5, 1.98122791484217160000e+001) (6, 1.09329688054947540000e+001) (7, -6.70862848832319830000e+001) (8, 2.26073444423950360000e+000) (0, -3.23566160170501500000e+001) (1, 1.49994519430610740000e+003) (2, 1.49847455581634520000e+003) (3, -4.06618573025030740000e+002) (4, -1.10843785754057820000e+002) (5, 1.93615147996886830000e+002) (6, 1.49886389092147060000e+003) (7, 1.50000000000000000000e+003) (8, 3.22707333725710480000e+000) (0, 2.82077635405566070000e+000) (1, 5.47793834493129590000e+000) (2, 7.96758128706695070000e+000) (3, 5.94665715142206790000e+000) (4, -4.69083268896575870000e-001) (5, 2.81765193190001420000e+000) (6, 4.46754801383747770000e+000) (7, 2.25569529173168840000e+000) (8, 3.77678093837541300000e+000) (0, 1.06261418723480290000e+001) (1, -1.35960264810082800000e+002) (2, 1.36477319340507820000e+002) (3, -7.11957725154885280000e+001) (4, 5.23738662338983540000e+001) (5, 1.17783618079441420000e+001) (6, 4.23361186573171950000e+002) (7, -5.98651531446727460000e+001) (8, 2.14466338438800410000e+000) (0, 3.74992702795393960000e+000) (1, 2.38044924759841380000e+000) (2, 1.33507148988992890000e+001) (3, 8.45022863164611170000e-001) (4, -2.54681552063062620000e+000) (5, 1.55477513499737900000e-001) (6, -1.31829692784040000000e+001) (7, 1.28554490791028450000e+001) (8, 6.98829652398365700000e-001) (0, 5.92624252093291220000e+000) (1, -2.00712796883445850000e+001) (2, 4.66844944512765210000e+001) (3, 3.65994925114521830000e+001) (4, 1.93269728946745940000e+001) (5, -4.34973444095939070000e+001) (6, 8.73886244385291280000e+000) (7, -5.71223291306296450000e+001) (8, 5.14165391123018440000e+000) (0, -6.94354715526121820000e-001) (1, 5.16269833817190180000e+000) (2, 5.73226243921413920000e+000) (3, 3.66593845134473000000e+001) (4, 4.27783585016360050000e-001) (5, 3.91012351513006750000e+000) (6, 4.22071071778811470000e+000) (7, 3.34998041595551680000e+001) (8, 2.95895632772238630000e+000) (0, -2.05641371656180460000e-001) (1, 6.21498018180647090000e-001) (2, 2.07363350089074320000e+000) (3, 9.30431701470911810000e-002) (4, -2.32830333913055210000e+000) (5, 7.69280155697402710000e-001) (6, 2.60877652590297830000e+000) (7, 2.40519707593856320000e+000) (8, 1.48016650301613170000e+000) (0, 1.23383462010661100000e+000) (1, 7.05928938794000520000e+000) (2, -1.90676505446971280000e+000) (3, 6.56525230892884170000e+000) (4, 6.13837606110011440000e+000) (5, -2.97035231908430130000e+000) (6, 1.47035875806613840000e+000) (7, -6.12373756587695080000e+000) (8, 2.59525454166564810000e+000) (0, 5.34950640047136880000e-001) (1, -3.16201926172986260000e+000) (2, 6.94961876033876270000e-001) (3, 7.42206451395406840000e+000) (4, -9.52362255815091530000e+000) (5, -2.64315403203743890000e+000) (6, -4.47159166297532720000e+000) (7, -6.35571292693362900000e+000) (8, -2.81490263153910510000e-001) (0, 2.77372333974880060000e+000) (1, 3.66694908499400560000e-001) (2, -1.91971494234290960000e+001) (3, 1.96907267876765530000e+001) (4, 2.05653891513581530000e+000) (5, -2.46100626562375310000e+001) (6, -1.43807035962698840000e+001) (7, -1.24333249191616080000e+001) (8, 2.64782503547371690000e+000) (0, 2.73063970980813940000e+001) (1, 3.11304269936551070000e+001) (2, -2.18249388131206890000e+001) (3, 5.35087894295555340000e+000) (4, 3.07944891875674070000e+001) (5, 2.74789808510063090000e+001) (6, -4.23132262982701310000e+001) (7, 8.05170337082143420000e+001) (8, 2.34835840481962550000e+000) (0, 3.93416962285977200000e+000) (1, 2.65595916230101410000e+000) (2, 2.87283080106815800000e-001) (3, -2.03522844225597130000e+001) (4, -4.12796941994752230000e+000) (5, 1.12321679844233100000e+001) (6, -1.27965855342040950000e+001) (7, -2.41891631678484810000e+001) (8, 5.33157307553025640000e+000) (0, 1.86382958640636610000e+001) (1, -1.90314258527365790000e+001) (2, 6.11643081827828680000e+001) (3, 1.59078394451186650000e+001) (4, -4.27741631368403220000e+000) (5, -2.29924793206051210000e+001) (6, -3.27033106597776420000e+001) (7, 6.74007726469474870000e+001) (8, 2.43816781079926150000e+000) (0, -1.31316993750081310000e+001) (1, 5.51429003441361320000e+000) (2, 6.86351755916676320000e+001) (3, 1.28889080831276570000e+001) (4, -8.96177115206703690000e+000) (5, -2.04646443079555600000e+001) (6, 3.39970485074502240000e+001) (7, -3.36055614698130750000e+001) (8, 3.38346568453236430000e+000) (0, 8.51937920687361410000e-001) (1, -9.17525082963608460000e-001) (2, 2.25973792147238010000e+000) (3, 2.06319105178335880000e-001) (4, 1.26494733176229590000e+000) (5, 2.50374512328273100000e+000) (6, 5.33648398648052800000e-001) (7, 3.41907761959934160000e-001) (8, -1.32194836208371290000e-002) (0, 1.28532527931608060000e+001) (1, 4.88644206892428560000e+000) (2, -3.42810029026978440000e-001) (3, 1.11358922914409710000e+001) (4, 6.86549308964044250000e+000) (5, -3.58764529430529850000e+000) (6, 2.72157003784075580000e+001) (7, 1.27960206222987820000e+001) (8, 1.51878485046050190000e+000) (0, 3.47527944036172440000e+000) (1, 5.44752861444387390000e-001) (2, 6.88501355827424550000e-001) (3, -3.08495414450648820000e-001) (4, 5.24591754128180930000e-001) (5, 1.12384742618474400000e+000) (6, 2.16625375908778970000e+000) (7, 8.74440057305008620000e+000) (8, 9.33336330674803480000e-001) (0, -2.01499961183383600000e+000) (1, -4.89320343703201920000e+000) (2, -2.87582953998845700000e+000) (3, -1.75478686792408210000e+000) (4, -1.07627571781594860000e+000) (5, -2.42188194816026630000e+000) (6, -1.32193673901467910000e+001) (7, 7.30481835764798970000e-001) (8, 3.42311786787380170000e+000) (0, 1.36630720491282040000e+000) (1, 3.14630859013783980000e+000) (2, 2.03242631543028150000e+000) (3, 1.18224778726442150000e+000) (4, 2.73116243342750660000e+000) (5, 2.66166177234513010000e+000) (6, 2.68454537180281250000e+000) (7, -2.54080014646222760000e-001) (8, 2.79403000693616170000e+000) (0, 6.73407367624722750000e+000) (1, 3.23673311119858270000e+001) (2, 8.17739535927247020000e+000) (3, -4.27540681694979700000e+001) (4, -3.38020361580072180000e+000) (5, 3.65304912865730880000e+001) (6, -8.07455951183816540000e+000) (7, 1.97738997248153400000e+001) (8, -2.45439181020550980000e-002) (0, -1.63636265686645980000e+000) (1, 3.57090819445905860000e+001) (2, 9.66813690333336240000e+001) (3, 1.77431959207322270000e+001) (4, 6.39213585980317230000e+001) (5, 1.06893871052009530000e+002) (6, 4.63047472221944290000e+001) (7, -5.51463105284804630000e+001) (8, 6.43963093408009830000e-001) (0, 8.47409315579724430000e-001) (1, 2.50049024885012730000e+000) (2, -9.40235224192263690000e-001) (3, 3.29267872905983160000e+000) (4, 8.17127682453783980000e-001) (5, -1.10540909455288270000e-001) (6, 1.40829202714914390000e+000) (7, -9.86382383167734410000e-001) (8, 2.04920265561267060000e+000) (0, -2.08889154843369060000e-001) (1, 2.38519839832991700000e+000) (2, -1.50758451405425720000e+000) (3, 2.71913726413476950000e+000) (4, -2.72287316294071190000e+000) (5, 2.50825415171797960000e-001) (6, 2.98591943563960570000e-001) (7, 1.64698966449097030000e+000) (8, 1.71251868759548450000e-001) (0, -2.02632154581866610000e+000) (1, -4.66024787960563280000e+000) (2, -1.60058815995489990000e+001) (3, 8.08332012238465400000e+000) (4, 1.66915415746315540000e+000) (5, 8.03555665184924270000e+000) (6, 1.13020566713134760000e+001) (7, -3.83981096348949880000e+000) (8, 3.87499628532671770000e+000) (0, -1.17672292584829310000e+001) (1, 1.21531679037446260000e+001) (2, -2.67921992377401490000e+001) (3, -2.51949827574207960000e+001) (4, 3.20359343387041310000e+001) (5, 2.03294032064434930000e+000) (6, 5.25791212312655890000e+001) (7, -7.04569390267455020000e+001) (8, 2.31016869288135540000e+000) (0, -1.51217656147551450000e+000) (1, -3.22483954979487610000e+000) (2, -2.91297155739583550000e+000) (3, 2.72937937768992580000e+000) (4, 7.93509798836306680000e-001) (5, 6.78211331623869710000e-001) (6, -1.52728616441551930000e+000) (7, 1.15482357363106930000e-001) (8, 1.01717246434773710000e-001) (0, 3.95249363084798660000e+001) (1, 1.24627748093721210000e+002) (2, 5.17211456082361640000e+001) (3, -1.16132962972567880000e+001) (4, -1.59409641670757710000e+001) (5, -1.39661512451317580000e+001) (6, -7.83557162051862030000e+000) (7, 1.99206960188689240000e+002) (8, 1.65604097356482070000e+000) (0, 5.79476187590030830000e-001) (1, -1.91344255837486840000e+000) (2, 1.98152664238755990000e+000) (3, -1.76035317031337500000e+000) (4, 3.31823798842623630000e+000) (5, 1.06984136625706410000e+000) (6, 5.07827333546642780000e-001) (7, -9.02991961818975320000e+000) (8, 1.22025319700968440000e+000) (0, 6.45749068073742370000e+000) (1, 4.68211485938855530000e+000) (2, 1.99893725454987000000e+001) (3, 5.85400023011267740000e+000) (4, -1.74681153601239770000e+000) (5, 2.15212879252532740000e+000) (6, 1.42145757091760050000e+000) (7, 2.31624300625212780000e+000) (8, 2.65778524057283330000e+000) (0, -6.39471823948026770000e+000) (1, -9.47317175985126350000e+000) (2, 9.37445896992898040000e+000) (3, 4.35860133845167820000e+001) (4, -1.26958869275991870000e+001) (5, -1.11665814843521930000e+001) (6, -1.53062417101245020000e+000) (7, 1.11847314177980710000e+001) (8, 3.89385059153196270000e-001) (0, 1.02014602536671720000e+001) (1, -1.08253557336281200000e+001) (2, 1.42091491268133530000e+001) (3, 4.40997538250163500000e+000) (4, -3.49699522004885480000e+000) (5, -1.33096477657993140000e+001) (6, -7.56208456205183130000e+000) (7, -8.19467066166388140000e+000) (8, 2.71625377422520040000e+000) (0, -8.37595170092721200000e+000) (1, -2.30040792101787620000e+001) (2, 1.06781992413164560000e+001) (3, -3.02871089216800460000e+000) (4, -1.93217569393838000000e+001) (5, 3.99025397405391220000e-001) (6, -3.77324818583384400000e+000) (7, 4.26768059701453860000e+000) (8, 1.40146683644666310000e+000) (0, -2.40090348636379860000e+000) (1, -1.58519235439813190000e+000) (2, 3.56026860822759830000e+000) (3, 1.03762097743472840000e+001) (4, 2.65121914761042910000e-001) (5, -1.92496823835374400000e+001) (6, -4.70501566463594580000e+000) (7, -1.05330010500416710000e+001) (8, -2.89977212140659680000e+000) (0, 1.44831391884182410000e+001) (1, 2.26971533513026030000e+001) (2, -2.03021371510525440000e+000) (3, 3.52471235833757040000e+001) (4, -1.58728870434943530000e+001) (5, -9.66016020527556130000e+000) (6, -3.99891490391853990000e+001) (7, 2.76699859439357350000e+001) (8, 8.63371013364676920000e-001) (0, 6.14780428740366160000e+000) (1, 7.65428663900360200000e+000) (2, -1.98331099228585980000e+000) (3, 4.31630660307096910000e+000) (4, 5.01167285751013390000e+000) (5, -3.19276409125089480000e+000) (6, 6.31283096570992240000e-001) (7, -7.91079728328455810000e+000) (8, 1.78538751349361500000e+000) (0, -1.70045554469678950000e-001) (1, -2.72063026754556690000e+000) (2, -4.61626320638471640000e+000) (3, -2.20811494735243040000e+000) (4, -4.06021151708076020000e+000) (5, 5.94557460084310870000e-001) (6, -1.90002621908577370000e+000) (7, -1.48880211636845630000e+001) (8, 3.93190527150023470000e+000) (0, 6.94080215722416090000e+001) (1, -3.42506563614422600000e+001) (2, 6.37458760024975210000e+000) (3, 7.36162854102777830000e+001) (4, 6.74221160780380020000e+001) (5, 3.98693865595682120000e+000) (6, -5.29206800579637860000e+001) (7, 1.39266109103290360000e+000) (8, 4.82918221794498860000e+000) (0, 2.91721220235611590000e-001) (1, 7.64538057805069340000e-001) (2, 7.51333067532616640000e-001) (3, -3.14144104992649440000e-001) (4, 2.03019525558617540000e-002) (5, 1.46108880187021200000e-001) (6, 3.41878570309660730000e-001) (7, 1.21283569430942470000e+000) (8, -9.76290743129822610000e-002) (0, 1.49917247391596630000e+003) (1, 1.49999896789217060000e+003) (2, 1.07688241155074980000e+003) (3, 1.49751772034227500000e+003) (4, -2.30738764487849830000e+002) (5, -7.74778186228386120000e+001) (6, -2.37977989054865190000e+002) (7, -3.85092374194477940000e+002) (8, 1.65189288076410820000e+001) (0, 2.19558821739907620000e+001) (1, 1.30727596023987150000e+001) (2, 7.56378938806143090000e+000) (3, -3.04659354368636920000e+001) (4, 9.07694206460805120000e+000) (5, 1.64025253124778070000e+000) (6, 4.24409316798459100000e+000) (7, 2.15236528224666430000e+000) (8, 3.65955768603855260000e+000) (0, 3.81299899206369810000e-001) (1, 3.83872310351682770000e+001) (2, -8.67221482314741790000e+001) (3, 2.32700939340502940000e+001) (4, 1.24145953337427770000e+002) (5, -1.16545696789940860000e+001) (6, 1.59020838156542480000e+002) (7, -1.14231236734252180000e+001) (8, -2.59043797798790370000e+000) (0, -8.05885078422373670000e-001) (1, -8.24564904118945450000e-001) (2, 4.03958170547963120000e+000) (3, -6.18072217795663730000e+000) (4, -2.79492513405507380000e+000) (5, -3.71652379257540580000e+000) (6, -3.82689471186765350000e+000) (7, 9.30828914952002710000e-001) (8, 4.69267461774334980000e-001) (0, 2.43718676987638500000e+001) (1, 3.65004221668505910000e+001) (2, -1.06297121985142680000e+001) (3, -5.21150921897674290000e+000) (4, -2.83975516690184550000e+001) (5, -1.51108813608852660000e+001) (6, -3.73956196419062440000e+001) (7, 5.22764840851300580000e+001) (8, -9.20524094710444830000e-002) (0, 2.95043930150329460000e+002) (1, 3.04440484068499020000e+001) (2, 5.22266862303738150000e+001) (3, -1.97374257297470420000e+002) (4, 2.78250909956309390000e+002) (5, -3.51713122582593480000e+001) (6, 1.26535456491142650000e+003) (7, 1.50000000000000000000e+003) (8, 6.53624787360249200000e+000) (0, 9.22222394414846040000e+000) (1, 2.61284890916084360000e+001) (2, -5.18675120486754790000e+000) (3, -3.08968893006392480000e+001) (4, -8.71927212429334380000e+000) (5, 1.53075033300061780000e+001) (6, 5.45806308517911990000e+000) (7, -1.53347458861949160000e+000) (8, 3.19317702847598590000e+000) (0, 2.23698316199940910000e+001) (1, 4.29781211818844840000e+002) (2, 9.78223386834200000000e+001) (3, 4.25781200373338910000e+000) (4, 1.11329636680000480000e+001) (5, 2.52755592500329660000e+000) (6, 4.15181969949215630000e+000) (7, 4.84177571517341490000e+000) (8, 4.19416018785914260000e+000) (0, 3.07584415654193990000e+000) (1, 3.06833634500613930000e+001) (2, 1.44201604875734460000e+001) (3, 2.90532440303148750000e+000) (4, 4.67956474576725840000e-001) (5, 1.56407691704150760000e+000) (6, 7.86121376753152750000e+000) (7, 1.37560166522230110000e+000) (8, 1.90958300700211980000e+000) (0, -2.32583347611320510000e+000) (1, 8.97220189361809690000e+000) (2, -1.29740598314713530000e+001) (3, 1.08955993833926250000e+001) (4, -1.23325802398658610000e+001) (5, 1.48208505743515030000e+001) (6, 4.14827216574765330000e+000) (7, -3.76599125993221500000e+000) (8, 1.26033699370678720000e+000) (0, -9.97824449975680670000e+000) (1, -1.13515607049886770000e+000) (2, 1.14571507912661270000e+001) (3, 6.96312323942262790000e+000) (4, 4.46191057589419910000e+001) (5, 1.34442418100682040000e+001) (6, 9.88562071880321900000e+000) (7, 2.85886791352372430000e+000) (8, 2.38908286165920770000e+000) (0, 1.14892488881791620000e+000) (1, 8.02407308257010340000e-001) (2, -1.00198574503331890000e+000) (3, -2.98626833231332160000e-001) (4, -4.18163804231043490000e-001) (5, -1.03326383847730340000e+000) (6, 1.35642048107373040000e+000) (7, -8.63062617716868540000e-001) (8, -4.87668034339842630000e-001) (0, 1.12800875583304450000e+001) (1, 9.35398316702624440000e+001) (2, -2.69219658615671950000e+001) (3, -1.80725146581749070000e+001) (4, -1.04914749291282770000e+001) (5, 2.17165911106812040000e+001) (6, -1.72421982113391440000e+001) (7, -2.00966591608216140000e-001) (8, 3.26826373543272690000e+000) (0, -6.69914190786085190000e-002) (1, 4.58639034296640700000e+000) (2, -1.80562852561689230000e+001) (3, 5.28974697334667180000e-001) (4, 2.43293107150090520000e+000) (5, 1.56225652488696130000e+001) (6, 4.18217777279730820000e+000) (7, -5.59992093724742630000e+000) (8, 6.95618776090974000000e-001) (0, 2.53671441424617360000e+001) (1, 7.69491117527375220000e+001) (2, 2.49031471562517980000e+001) (3, 6.76515758498584940000e+000) (4, 1.50000000000000000000e+003) (5, 3.35218835636616450000e+000) (6, 5.91010740456792490000e+000) (7, 2.73497025533984580000e+001) (8, 7.03686075388761890000e+000) (0, -2.55726487892760260000e-001) (1, -8.49110221611725180000e+000) (2, 2.49060326544139730000e+001) (3, -8.31595007645403330000e+000) (4, 2.52708046140405480000e-001) (5, 1.37530169542835150000e+001) (6, -6.21907267370128110000e+000) (7, -4.03165969104382140000e+001) (8, 3.47046549903214620000e+000) (9, -4.57781808090181870000e-001) (10, 5.76664689948267360000e-001) (11, -2.07263218297526530000e-001) (12, 1.80292337902914300000e+000) (13, -6.02689949259244680000e-001) (14, 1.53093229639489460000e+000) (15, 8.89372465746552380000e-001) (16, -1.17901890912163250000e+000) (17, -2.50299798400327570000e-001) (18, 7.08337923706873760000e-001) (19, 4.64241136065556560000e-001) (20, 5.80005301306319780000e-001) (21, 5.45966203731891860000e-001) (22, 2.85185787033904960000e-001) (23, 2.28424796666054110000e+000) (24, -6.14278590886286450000e-001) (25, 4.79851148648731480000e+000) (26, -5.53329029326293910000e-001) (27, 9.42599089422061390000e-001) (28, 1.54473518888935460000e-001) (29, 7.18251506107750020000e-001) (30, 1.06997804161478580000e+001) (31, -1.33307321460468040000e+000) (32, -1.59987649614479980000e+000) (33, 9.81937004603686270000e-001) (34, -7.19129465284562790000e-001) (35, 3.75643396078654760000e+000) (36, -5.98683922647024080000e-001) (37, -6.75035979270957490000e-001) (38, 3.65333380745583950000e+000) (39, -3.06830810653991480000e-001) (40, 2.03132737692618240000e+000) (41, 2.20327962930282420000e-001) (42, 3.85223607745871000000e-001) (43, 9.27274132716934120000e-002) (44, -7.49734721365564460000e-002) (45, 2.79001141389586800000e+000) (46, -6.34198548047357420000e-001) (47, -5.22525775036214000000e-001) (48, 2.45882284614136570000e-002) (49, 7.52045059261058140000e-001) (50, 3.07748910354666340000e-001) (51, 1.86541790791228320000e+000) (52, -3.33627383596026780000e-001) (53, 8.49286847012392210000e-001) (54, 5.27454207214710150000e-001) (55, 1.50628114146593360000e+000) (56, 3.80100075643231630000e-002) (57, -9.89733118731897950000e-001) (58, -4.28983973674206490000e-001) (59, -2.71793481382654580000e+000) (60, 1.70131801657932580000e+000) (61, -1.55234645227057830000e+000) (62, 2.83693145362960570000e+000) (63, 8.11685262423664900000e-001) (64, 9.01929339360360460000e-001) (65, 8.57279970955891200000e-002) (66, 2.20063277266412530000e+000) (67, -2.23241393997776600000e+000) (68, 3.18959151753480110000e-001) (69, 1.54970241954668400000e+000) (70, 1.07020641851883510000e+000) (71, 9.94948635429555920000e-001) (72, -5.67868895102456640000e-001) (73, 5.78579395673387010000e-001) (74, 1.71200873763945640000e+000) (75, 1.91188106157658580000e-001) (76, 1.54412203893325530000e+000) (77, 2.90448093770211770000e+000) (78, 4.51215246606495680000e+000) (79, -2.42081522947790340000e-001) (80, -2.01544909704387410000e+000) (81, -1.19835093049586940000e-001) (82, 7.44149535837845680000e-002) (83, 1.97144336683182850000e+000) (84, -5.31691141333189510000e-001) (85, -4.73763435841231930000e-001) (86, 1.38809369287628300000e+000) (87, -9.91969136584411770000e-001) (88, 3.50920159279381320000e+000) (89, -8.75880081561225430000e-001) (90, 1.83511925232485540000e+000) (91, 1.88155487521702750000e-002) (92, -2.56615693246546280000e-002) (93, 3.99215162470361430000e-001) (94, 1.43447991318278540000e+000) (95, -8.23243644097528040000e-001) (96, 2.15055315518409800000e+000) (97, -2.00234175313951380000e+000) (98, 1.64164549313167730000e+000) (99, 1.40001880155620840000e-001) (100, 1.40532789180695010000e-001) (101, 1.10784859770011960000e+000) (102, 7.48514460619288500000e-001) (103, 1.77763845144504360000e-001) (104, 2.08443917504631950000e-001) (105, 3.65812621713351450000e+000) (106, 4.99496122319997790000e-001) (107, 5.85687037135768480000e+000) (108, -1.21566994675205780000e-001) (109, 6.18866360064307620000e-001) (110, 1.34015159529741880000e+000) (111, -4.78528167482660420000e-001) (112, 5.32680475691184090000e+000) (113, -9.57103628514151870000e-001) (114, -3.54485850375820980000e-001) (115, 1.38819185868625290000e+000) (116, -1.01300373937459630000e+000) (117, 4.48867417919760920000e+000) (118, 7.42913010354564360000e-001) (119, -1.06900365617200370000e-001) (120, 2.99747433883857440000e-001) (121, 3.58486745646058400000e+000) (122, 7.07737553066124740000e-001) (123, -1.73780851654040800000e+000) (124, 1.97646130193535050000e-001) (125, 2.46639742048364010000e+000) (126, -9.47372860121872270000e-002) (127, -1.09510707315625310000e+000) (128, -3.53330326972232270000e-001) (129, 1.44800261954794070000e+000) (130, 8.64085286887164020000e-001) (131, 2.53378230370043530000e-001) (132, -6.03858618727305950000e-001) (133, -1.90270743201529370000e+000) (134, 2.63947078406376050000e-001) (9, -1.06377089561939990000e+000) (10, 3.51522226276855140000e-001) (11, -3.68686275150953260000e-001) (12, 4.04333533451710460000e+000) (13, 1.64127811962122890000e-001) (14, 2.03495862190028100000e-001) (15, -8.60906517245602520000e-001) (16, 1.72529300830568780000e-001) (17, -9.11444715946546190000e-001) (18, 3.73735169196234200000e+000) (19, -5.61357720847814880000e-001) (20, -4.49142413436464660000e-002) (21, -1.13268959311724140000e-001) (22, 8.84498898642611330000e-001) (23, 9.81700093517478560000e-001) (24, -7.44579360625808540000e-001) (25, 5.11099052792624420000e+000) (26, -1.17861121021697630000e+000) (27, -7.54733063028641400000e-001) (28, 2.55719074556003840000e-001) (29, -3.09999601144623720000e-001) (30, 1.44940989539629370000e+000) (31, -1.15449028659342920000e+000) (32, 1.37911236890387840000e+000) (33, -4.20864032878724980000e-001) (34, 3.90065609437718010000e-001) (35, 3.41263949463083050000e+000) (36, -8.09055894175533470000e-001) (37, 1.40554070313415420000e+000) (38, 2.97999014381935410000e+000) (39, -1.17982364326370700000e+000) (40, -5.59346380992457700000e-001) (41, -1.18097229078113890000e+000) (42, -8.87721481327025550000e-001) (43, 7.48227620387059030000e-001) (44, 2.24703186549594700000e-001) (45, 1.34527153538539720000e+000) (46, 8.07126293181699590000e-001) (47, 2.30101858689832110000e+000) (48, 1.13536233884439450000e+000) (49, -8.16220348770780870000e-001) (50, 4.28277236568403830000e-001) (51, -4.31886881424259130000e-001) (52, 1.03087898809862040000e+000) (53, 1.65704786218681050000e+000) (54, -4.04352510649566120000e-001) (55, 4.99418379167527790000e-001) (56, -1.18386024575179530000e+000) (57, -1.20220310883407570000e+000) (58, -8.52441963812198280000e-001) (59, 2.58575057258158880000e+000) (60, 7.93979284937210290000e-002) (61, 2.70671938424386040000e+000) (62, 1.53881276864878510000e+000) (63, -6.41716016390249530000e-002) (64, -1.13879470780511220000e+000) (65, 3.74281909375437260000e+000) (66, 3.61207104175018130000e+000) (67, 4.78899843095166140000e-001) (68, -2.71833735752128490000e-001) (69, -1.35162274640430620000e-001) (70, 3.94747170366308850000e-001) (71, 2.54505698631607440000e+000) (72, -5.63014626334187690000e-003) (73, 3.40679827043897930000e-001) (74, 1.38363934643715460000e+000) (75, -7.32075963430360520000e-001) (76, 1.84336298393668230000e+000) (77, -1.15363359205313270000e+000) (78, 1.39407702853976480000e+000) (79, -9.98323878684972520000e-001) (80, 1.38857488385357100000e+000) (81, -7.62308710138265400000e-001) (82, -5.70891362450134720000e-001) (83, -3.05033285033839750000e-001) (84, 4.38447207099961660000e-001) (85, -1.21609550231832750000e+000) (86, -3.73980935488787690000e-001) (87, -1.10189133004593030000e+000) (88, -5.77242102830568430000e-001) (89, 5.86390043535866880000e-001) (90, -1.06455689419970230000e+000) (91, -1.67906724814275440000e+000) (92, -1.14709074028257410000e+000) (93, -1.03992272911500480000e+000) (94, 5.45671479012120540000e-001) (95, 1.31902369358583950000e+000) (96, 1.55282148740758850000e+000) (97, 3.70262142497268170000e+000) (98, 1.07653554900834610000e+000) (99, -8.21534279193215310000e-001) (100, 1.39995626852694750000e+000) (101, 4.05479325613444630000e-001) (102, -8.36032610062519610000e-001) (103, 5.96766114854941020000e-001) (104, 4.42939853311197230000e-001) (105, 9.94732576075285310000e-001) (106, -2.35802158168359890000e-001) (107, -7.84027442125035720000e-001) (108, -8.91556530184109300000e-001) (109, -4.87125082348686820000e-002) (110, 1.48052260374283650000e-001) (111, 1.03295124567022230000e+000) (112, 2.85999507241535200000e+000) (113, 6.93124160511704330000e-001) (114, -1.76780896703445240000e-001) (115, -6.39008781877469010000e-001) (116, 7.54727419552117970000e-001) (117, 4.64085423982553900000e+000) (118, -3.76051725621103440000e-002) (119, -1.09475112731888480000e+000) (120, -2.93054586468114890000e-001) (121, 1.73152711250721910000e+000) (122, -4.39806337910858550000e-001) (123, -2.24726805454383480000e+000) (124, 4.00595823373038060000e-001) (125, -5.10629327505049520000e-001) (126, -8.92344771623711170000e-001) (127, 1.80326804156672660000e+000) (128, 1.29748296735403690000e+000) (129, 4.69727202492899030000e+000) (130, -1.87380931334100910000e-001) (131, 4.08004354871701720000e-001) (132, -7.63400595762128930000e-001) (133, 1.96180538617141130000e+000) (134, -3.06076537428792430000e-001) (9, -5.63673097789566540000e-001) (10, 1.93941992979613150000e-001) (11, 4.90079712069834310000e-001) (12, 3.13122803857767810000e+000) (13, -6.28656757417056510000e-001) (14, -9.07421850519545410000e-002) (15, -2.76370227138277190000e-001) (16, 5.21904933249673980000e-002) (17, -8.34938511971416770000e-001) (18, 1.99065428664628310000e+000) (19, 1.22465820312181140000e+000) (20, -8.11552399112936310000e-001) (21, 3.97824835090053510000e-001) (22, 1.12985775851910990000e+000) (23, -1.45362385541494250000e-001) (24, -2.43416681031514180000e-001) (25, 5.24285869786008970000e+000) (26, -6.16577269282445490000e-001) (27, -1.24830003337316080000e-002) (28, -4.30106843277429100000e-001) (29, -8.99093030958494630000e-002) (30, 3.58700219992596740000e+000) (31, -8.26444134940260920000e-001) (32, -1.93268122261288510000e-001) (33, 9.43988114428725320000e-001) (34, -1.14175628210988300000e+000) (35, 4.04581513744268670000e+000) (36, -3.10883310413752670000e-001) (37, -2.31877952684747160000e+000) (38, 3.96464959186743380000e+000) (39, -2.03507144549465310000e-001) (40, 1.47261760195096600000e+000) (41, -2.88802387321600520000e-001) (42, 7.55114766683941840000e-001) (43, 9.79249684522446540000e-001) (44, 4.82348604848641000000e-001) (45, -1.53452531198187180000e+000) (46, 6.89497313579272690000e-001) (47, 2.84365045171213150000e+000) (48, 2.65125441597750150000e-002) (49, -4.57948006880798560000e-001) (50, -1.30236864683686750000e-001) (51, 2.54907270898630300000e-001) (52, 1.75785032860355680000e-001) (53, 1.98422720492838330000e+000) (54, -6.59492289392794690000e-001) (55, 2.38510894336060230000e+000) (56, -1.48123964492040180000e-001) (57, -3.51875135972474990000e-001) (58, -7.35213950631150360000e-001) (59, -1.07602077080769560000e+000) (60, 6.78586302939630070000e-001) (61, 1.38266882850166240000e+000) (62, 6.32611163823374010000e-001) (63, 6.84469301728389820000e-001) (64, -4.04851610545785060000e-001) (65, 1.64087236568205500000e+000) (66, 2.81111145036004070000e+000) (67, 8.05673993124169540000e-001) (68, 1.23175578699827600000e+000) (69, -1.75850983302739270000e-002) (70, 2.29384970269612780000e+000) (71, 2.47948778927429150000e+000) (72, -2.13299659818112580000e-001) (73, 2.34013250279701790000e+000) (74, 2.28194788932336470000e-001) (75, -2.93377066356061920000e-001) (76, 1.56931943004638040000e+000) (77, -9.98597073017382100000e-001) (78, 9.59527763997860440000e-001) (79, -3.03259604140640070000e-001) (80, 5.71653604751785060000e-001) (81, -6.83653264544044290000e-001) (82, -1.43069017966875770000e-001) (83, -2.08827379175006020000e+000) (84, 1.41298918303343020000e+000) (85, -3.29065812250771530000e-001) (86, 6.71557517793941350000e-001) (87, 1.57599931641834500000e+000) (88, 2.53487748444933380000e+000) (89, 4.21780775725212110000e-001) (90, -9.02347600310710710000e-001) (91, -1.33902502926038690000e+000) (92, -6.48297565477757080000e-001) (93, -8.19035453245748000000e-001) (94, 2.07994634318775300000e+000) (95, -2.25159245453892900000e-001) (96, 5.90412216013240450000e-001) (97, 2.06118684425253930000e-002) (98, 1.18588646773879100000e+000) (99, 1.38063890430352450000e+000) (100, 3.73378625687664670000e-001) (101, 1.77989233299148660000e+000) (102, 1.32484337923455550000e+000) (103, -2.25591952465817780000e+000) (104, 9.15268409144221610000e-002) (105, 4.56269694763184520000e-001) (106, 1.59072011520081410000e+000) (107, -1.21225842620521960000e+000) (108, -5.98931680740343860000e-001) (109, -7.13675250357410970000e-001) (110, 1.76787966613786230000e-001) (111, 1.14901205695840190000e+000) (112, 3.34441999714229830000e+000) (113, 1.19168953618927140000e+000) (114, 1.41598510962966270000e+000) (115, 2.85523680774495680000e+000) (116, -8.16424391066734730000e-002) (117, 5.73924006915848310000e+000) (118, -4.06878893426755480000e-001) (119, -2.36651255711761630000e-001) (120, -1.20498689144105750000e-001) (121, 3.08341382711412490000e+000) (122, -5.73608773661783420000e-001) (123, -2.38515080380536660000e+000) (124, 1.83807763630370790000e+000) (125, -2.87269537638440610000e+000) (126, -3.73523989505435640000e-001) (127, 1.25042067250391200000e+000) (128, 2.33600968937681620000e-001) (129, 3.17436996806599400000e+000) (130, -1.11509050973425160000e-001) (131, 3.98843450114902740000e-001) (132, -1.68565364043199790000e-002) (133, 4.00521004436732890000e-001) (134, 1.60419600674745950000e-001) (9, -1.06873006520034260000e+000) (10, -1.07055940857120800000e+000) (11, -1.83897377592238560000e-001) (12, -2.63459937280450200000e-001) (13, -1.72526541000544050000e+000) (14, 7.28116813843383110000e-001) (15, -1.00691491147621640000e+000) (16, 1.53643711902441720000e-001) (17, -5.80653395099461460000e-001) (18, -1.12257306310988610000e-001) (19, 1.82911889275557850000e-001) (20, -8.30643828618080280000e-001) (21, -8.21742845411301380000e-001) (22, -4.37108297891971980000e-001) (23, 8.59801132687163410000e-001) (24, -1.10775110301026050000e+000) (25, 8.93627488671051220000e+000) (26, -6.53809107486902020000e-001) (27, 5.47213447332142390000e-001) (28, -1.60710221257066580000e-001) (29, 1.33186303000806140000e-001) (30, 3.26409713607630540000e+000) (31, 3.33760230220098490000e-001) (32, -2.09436635191960510000e-001) (33, -1.04317409831359750000e+000) (34, 8.92718690381528850000e-001) (35, 4.67261739917673680000e+000) (36, -1.18045436214350640000e+000) (37, 3.21931287908655860000e+000) (38, 3.66675862021616220000e+000) (39, -1.06073850852893560000e+000) (40, -2.86808273992537060000e-001) (41, -1.03210053195396670000e+000) (42, 6.78099953923386730000e-001) (43, -2.78104759520683700000e-001) (44, -8.41023408853888820000e-001) (45, -8.07229723375730180000e-001) (46, 1.95728532737170810000e-001) (47, 5.76317069551161440000e-002) (48, -2.21316886632432400000e-001) (49, -9.86403008535053250000e-001) (50, 7.60208357591108830000e-001) (51, -7.67337417140942360000e-002) (52, 3.90036550084543660000e-003) (53, 7.69234289695389320000e-001) (54, 5.19274842729355650000e-001) (55, 2.12220510692910790000e+000) (56, -8.91724835501854110000e-001) (57, -1.05551485440313360000e+000) (58, -9.91705764691250820000e-001) (59, 2.83506432147342210000e+000) (60, 6.68203243823899060000e-001) (61, 1.28337667892291440000e+000) (62, 3.04424565941534600000e+000) (63, -2.55978972717707880000e-003) (64, -3.93074843956718770000e-001) (65, -1.28988886987258390000e+000) (66, 2.61613122667728160000e+000) (67, 1.32535355051860160000e+000) (68, 6.58746991208267740000e-001) (69, 5.67989929165084510000e-001) (70, 5.29034730182559200000e-001) (71, 1.83760257696028130000e+000) (72, 8.85107862180309570000e-001) (73, -5.61602244267269120000e-001) (74, 1.68016944474924590000e+000) (75, -9.58880742767942880000e-001) (76, -2.07026547227453140000e-001) (77, 3.46686205603755400000e+000) (78, 2.37868938824948020000e+000) (79, -8.13233241524140450000e-001) (80, 6.07829859114768610000e-001) (81, -8.09516368181660170000e-001) (82, 4.33299067118896810000e-002) (83, -1.53967730426650510000e+000) (84, -7.58107896992378020000e-001) (85, -9.25377927341191060000e-001) (86, 1.09943610633441180000e+000) (87, 3.57245991998125100000e+000) (88, -1.61954268728331160000e-001) (89, -8.08716160510154050000e-001) (90, -1.66755589360731510000e-001) (91, -1.27406916391798370000e+000) (92, -8.84860704807878260000e-001) (93, -2.13978862907276520000e-002) (94, 2.71410548688738820000e+000) (95, 1.12560162768449710000e+000) (96, 4.23317417778617810000e-001) (97, 1.28940253166422040000e+000) (98, 2.56503158412863370000e+000) (99, 3.51848354487813260000e-001) (100, 7.34490590021426030000e-001) (101, 8.21272305263655800000e-001) (102, -2.98112922769241280000e-001) (103, 1.71403733897518230000e-001) (104, -4.87303160337965390000e-001) (105, 3.75993219654899050000e+000) (106, -3.57724020563109090000e-001) (107, 4.33284216631309870000e+000) (108, -8.05476502754772340000e-001) (109, -3.47207687205144280000e-001) (110, 7.80477607388467050000e-001) (111, 1.00750032573793870000e+000) (112, 6.14300012067334670000e+000) (113, 4.33747648438970570000e-001) (114, -6.98225854421185790000e-001) (115, 2.76504122256970100000e+000) (116, 5.27370034331127520000e+000) (117, 3.91195368075899900000e+000) (118, 3.82863469451962150000e+000) (119, -8.52055594542391330000e-001) (120, -3.89590263501641970000e-002) (121, 1.02679483548473030000e+000) (122, 2.09568207667874540000e-001) (123, -3.55016400259520190000e-001) (124, 1.73576629871818320000e+000) (125, -3.47425180956661530000e+000) (126, -6.93646705572116940000e-001) (127, 1.38842963848742730000e+000) (128, -4.61818345566009420000e-001) (129, 5.45589455533656680000e+000) (130, -5.46775477608376300000e-001) (131, -4.64880677699710920000e-001) (132, -1.12646267077803790000e+000) (133, 2.00322852586655580000e-001) (134, -6.07008842016912300000e-001) (9, -9.51559879649439330000e-001) (10, 2.33269184182311800000e+000) (11, -1.09395099383947710000e+000) (12, 3.73128566584471470000e+000) (13, 1.83090059297983960000e+000) (14, -1.68007244018320120000e+000) (15, -9.81272998149318120000e-001) (16, 2.47871707470630160000e+000) (17, -1.28644753868113530000e-001) (18, 3.92406676142405650000e+000) (19, -1.20373706559769330000e-001) (20, -8.23929841971351550000e-001) (21, -7.79383733955663850000e-001) (22, 1.32984587544004400000e+000) (23, 5.98185279268083400000e-001) (24, -1.17460402395569900000e+000) (25, 1.15167126198522810000e+000) (26, -8.17764710742954430000e-001) (27, 1.17868913610058270000e+000) (28, -6.10873156650999730000e-001) (29, -7.19078800192222920000e-001) (30, 2.09508754540431050000e+000) (31, -2.80930066249272640000e-001) (32, 1.14664662218818680000e+000) (33, 8.73667571229008840000e-001) (34, 1.58713570166627370000e+000) (35, 5.00667416732646680000e+000) (36, -9.36644717756798470000e-001) (37, -1.20080239755722130000e+000) (38, 2.42969726885627900000e-001) (39, -1.18572674404002210000e+000) (40, -5.16236470859261940000e-001) (41, -8.05372973043623540000e-001) (42, -4.72126854406088650000e-001) (43, -8.23945484336782050000e-001) (44, 1.21525310783760850000e+000) (45, 2.38538651461457270000e+000) (46, 9.81099012881464230000e-002) (47, 2.06840958122341820000e+000) (48, 4.47659596198183190000e-001) (49, -1.03793594922257100000e+000) (50, 1.10024122890415300000e+000) (51, 5.83263764092544320000e-001) (52, 3.44511813905378270000e-001) (53, 5.99969432305650250000e-001) (54, -2.54157267033271240000e-001) (55, -1.52096230510154060000e+000) (56, -1.17462044477931540000e+000) (57, -5.10692590160377160000e-001) (58, -1.16407215308267390000e+000) (59, 2.00845448488745190000e+000) (60, -1.12841820294277290000e-001) (61, 2.51347757008270230000e+000) (62, 5.35630503706468720000e+000) (63, -4.28526714543304600000e-001) (64, -1.03701429900952920000e+000) (65, -1.76691895399839470000e+000) (66, 3.14481443435115170000e+000) (67, -4.65614808016797780000e-001) (68, 1.52995949577349480000e+000) (69, 6.19218967812206530000e-001) (70, 2.43090484308738920000e+000) (71, 1.93213241296925630000e+000) (72, 9.97190848294550620000e-001) (73, 2.97991748952183500000e-001) (74, 3.84753834861984910000e+000) (75, -9.54029200898181990000e-001) (76, 3.05492212577518740000e-001) (77, 6.02621687147803290000e-001) (78, -3.71011684398804390000e-001) (79, -1.28786012206186480000e+000) (80, 1.72531619237328160000e+000) (81, -9.88126753143296010000e-001) (82, 4.63501117414511980000e-002) (83, -3.69123536526002220000e-001) (84, 1.08755249407888550000e-001) (85, -9.88258483260961770000e-001) (86, 9.59370960253503100000e-001) (87, 3.61492662349317230000e+000) (88, 3.67205732168888630000e+000) (89, -5.35063702335306530000e-001) (90, -3.49249471515945990000e-001) (91, -7.36780541742912630000e-001) (92, -3.09311443290517680000e-001) (93, -6.88109820010126330000e-001) (94, -3.24352196425612800000e-001) (95, -8.70842687611124040000e-001) (96, -2.32840640873179170000e-002) (97, 4.54065702499599230000e+000) (98, 2.01439187294262020000e+000) (99, -1.99332624210569100000e-001) (100, 5.65127711265327020000e-001) (101, 1.96962260272864010000e+000) (102, 5.44977711116516380000e-001) (103, -1.23272141324733240000e-001) (104, 6.79686255597354070000e-001) (105, 2.07548059041351560000e+000) (106, 7.50635976596150220000e-001) (107, 1.70856749632029770000e+000) (108, -1.04156438525156460000e+000) (109, -3.67374915357348670000e-001) (110, 2.25874616066965350000e+000) (111, 9.33211827697711600000e-001) (112, 3.17412384618477890000e+000) (113, -5.49577480524260700000e-001) (114, 9.97001652201834900000e-001) (115, -2.14258402057650650000e+000) (116, -4.84974278245882630000e-001) (117, 6.35506727654935680000e+000) (118, -4.37945655037590060000e+000) (119, -1.09268451197503060000e+000) (120, -3.46554871710217150000e-001) (121, -7.99755880552981190000e-001) (122, -6.27171899567004370000e-001) (123, 2.05849082628143740000e+000) (124, 1.17123578837003350000e-001) (125, -6.77173554327047360000e+000) (126, -9.81370077978783950000e-001) (127, -3.45471785011541470000e-001) (128, 1.03979031539838120000e+000) (129, 5.37262418689625940000e+000) (130, -8.77247317497104270000e-001) (131, 1.27162182569624330000e+000) (132, -8.78426517755788620000e-001) (133, 1.36048879544687520000e+000) (134, -6.40687664216655910000e-001) 
