FANN_FLO_2.1
num_layers=3
learning_rate=0.700000
connection_rate=1.000000
network_type=0
learning_momentum=0.000000
training_algorithm=2
train_error_function=1
train_stop_function=0
cascade_output_change_fraction=0.010000
quickprop_decay=-0.000100
quickprop_mu=1.750000
rprop_increase_factor=1.200000
rprop_decrease_factor=0.500000
rprop_delta_min=0.000000
rprop_delta_max=50.000000
rprop_delta_zero=0.100000
cascade_output_stagnation_epochs=12
cascade_candidate_change_fraction=0.010000
cascade_candidate_stagnation_epochs=12
cascade_max_out_epochs=150
cascade_max_cand_epochs=150
cascade_num_candidate_groups=2
bit_fail_limit=3.49999999999999980000e-001
cascade_candidate_limit=1.00000000000000000000e+003
cascade_weight_multiplier=4.00000000000000020000e-001
cascade_activation_functions_count=10
cascade_activation_functions=3 5 7 8 10 11 14 15 16 17 
cascade_activation_steepnesses_count=4
cascade_activation_steepnesses=2.50000000000000000000e-001 5.00000000000000000000e-001 7.50000000000000000000e-001 1.00000000000000000000e+000 
layer_sizes=9 4 6 
scale_included=0
neurons (num_inputs, activation_function, activation_steepness)=(0, 0, 0.00000000000000000000e+000) (0, 0, 0.00000000000000000000e+000) (0, 0, 0.00000000000000000000e+000) (0, 0, 0.00000000000000000000e+000) (0, 0, 0.00000000000000000000e+000) (0, 0, 0.00000000000000000000e+000) (0, 0, 0.00000000000000000000e+000) (0, 0, 0.00000000000000000000e+000) (0, 0, 0.00000000000000000000e+000) (9, 6, 5.00000000000000000000e-001) (9, 6, 5.00000000000000000000e-001) (9, 6, 5.00000000000000000000e-001) (0, 6, 0.00000000000000000000e+000) (4, 6, 5.00000000000000000000e-001) (4, 6, 5.00000000000000000000e-001) (4, 6, 5.00000000000000000000e-001) (4, 6, 5.00000000000000000000e-001) (4, 6, 5.00000000000000000000e-001) (0, 6, 0.00000000000000000000e+000) 
connections (connected_to_neuron, weight)=(0, -2.68014324118489840000e+000) (1, -1.27868996675656830000e+000) (2, -1.79672747786874940000e+000) (3, 7.97708238648442780000e+000) (4, -3.31659348622185850000e+000) (5, 4.18606654241838340000e+000) (6, -3.35491514928479000000e+000) (7, 4.85340785380391450000e+000) (8, 3.73585626924957110000e-001) (0, -2.12869760575054690000e+000) (1, -1.52383073880838020000e+001) (2, -7.48862391394050150000e+000) (3, 4.31405135270063200000e+001) (4, 1.78945332259456580000e+001) (5, -2.87520252694524280000e+001) (6, -2.93408686299683450000e+001) (7, 3.14369533255376230000e+001) (8, -1.12438955901577840000e+000) (0, 5.14501110536434410000e+000) (1, -8.62407489194232160000e-001) (2, 2.86881749319361080000e+000) (3, -2.52138644077459560000e+000) (4, 1.41186176429591810000e+001) (5, -2.57896610047415500000e+001) (6, 3.76175948775718760000e+000) (7, -2.38562344664153650000e+000) (8, -1.19747579797972640000e+000) (9, 1.60654883873863040000e+000) (10, -3.55098570088559270000e-001) (11, 7.68215490748044410000e-001) (12, 5.21548683655251420000e-001) (9, -1.66879008280167640000e+000) (10, 3.52287067316750190000e-001) (11, -1.01039335298033080000e+000) (12, 7.79132224413565330000e-001) (9, 1.88170421564980080000e-002) (10, 1.35990495699667460000e-002) (11, -1.73836977855020220000e-001) (12, 9.03787467099050890000e-001) (9, -2.14318606663663760000e+000) (10, 5.32475031538637960000e-001) (11, -9.84276439286304370000e-001) (12, 1.14444133772545430000e+000) (9, -1.69878227271553530000e+000) (10, 5.71213477197890400000e-001) (11, -8.02622554472653290000e-001) (12, 1.23104226216152710000e+000) 
