FANN_FLO_2.1
num_layers=3
learning_rate=0.700000
connection_rate=1.000000
network_type=0
learning_momentum=0.000000
training_algorithm=2
train_error_function=1
train_stop_function=0
cascade_output_change_fraction=0.010000
quickprop_decay=-0.000100
quickprop_mu=1.750000
rprop_increase_factor=1.200000
rprop_decrease_factor=0.500000
rprop_delta_min=0.000000
rprop_delta_max=50.000000
rprop_delta_zero=0.100000
cascade_output_stagnation_epochs=12
cascade_candidate_change_fraction=0.010000
cascade_candidate_stagnation_epochs=12
cascade_max_out_epochs=150
cascade_max_cand_epochs=150
cascade_num_candidate_groups=2
bit_fail_limit=3.49999999999999980000e-001
cascade_candidate_limit=1.00000000000000000000e+003
cascade_weight_multiplier=4.00000000000000020000e-001
cascade_activation_functions_count=10
cascade_activation_functions=3 5 7 8 10 11 14 15 16 17 
cascade_activation_steepnesses_count=4
cascade_activation_steepnesses=2.50000000000000000000e-001 5.00000000000000000000e-001 7.50000000000000000000e-001 1.00000000000000000000e+000 
layer_sizes=9 21 6 
scale_included=0
neurons (num_inputs, activation_function, activation_steepness)=(0, 0, 0.00000000000000000000e+000) (0, 0, 0.00000000000000000000e+000) (0, 0, 0.00000000000000000000e+000) (0, 0, 0.00000000000000000000e+000) (0, 0, 0.00000000000000000000e+000) (0, 0, 0.00000000000000000000e+000) (0, 0, 0.00000000000000000000e+000) (0, 0, 0.00000000000000000000e+000) (0, 0, 0.00000000000000000000e+000) (9, 6, 5.00000000000000000000e-001) (9, 6, 5.00000000000000000000e-001) (9, 6, 5.00000000000000000000e-001) (9, 6, 5.00000000000000000000e-001) (9, 6, 5.00000000000000000000e-001) (9, 6, 5.00000000000000000000e-001) (9, 6, 5.00000000000000000000e-001) (9, 6, 5.00000000000000000000e-001) (9, 6, 5.00000000000000000000e-001) (9, 6, 5.00000000000000000000e-001) (9, 6, 5.00000000000000000000e-001) (9, 6, 5.00000000000000000000e-001) (9, 6, 5.00000000000000000000e-001) (9, 6, 5.00000000000000000000e-001) (9, 6, 5.00000000000000000000e-001) (9, 6, 5.00000000000000000000e-001) (9, 6, 5.00000000000000000000e-001) (9, 6, 5.00000000000000000000e-001) (9, 6, 5.00000000000000000000e-001) (9, 6, 5.00000000000000000000e-001) (0, 6, 0.00000000000000000000e+000) (21, 6, 5.00000000000000000000e-001) (21, 6, 5.00000000000000000000e-001) (21, 6, 5.00000000000000000000e-001) (21, 6, 5.00000000000000000000e-001) (21, 6, 5.00000000000000000000e-001) (0, 6, 0.00000000000000000000e+000) 
connections (connected_to_neuron, weight)=(0, 1.49629248321290230000e+000) (1, 3.42156946887319210000e+000) (2, 3.60305652205264500000e-001) (3, 3.84769911535280780000e-001) (4, -1.95466664678388760000e+000) (5, -1.18717552421119770000e+000) (6, 7.35880586866878990000e-002) (7, -1.10910107625917220000e+000) (8, -6.98533709615738880000e-002) (0, 1.51581116068017180000e+001) (1, -6.92457859680549870000e+000) (2, -5.42140757666872660000e+001) (3, -3.07156410793810150000e+000) (4, 5.70482517602032790000e+001) (5, -1.38363529175170190000e+002) (6, 8.15309190944005880000e+001) (7, 4.75526415301040330000e+001) (8, 1.05868360310671620000e+000) (0, 5.74745462908901810000e-002) (1, 2.08521211039069950000e-001) (2, -1.11486730443580150000e+000) (3, 1.05681439851171710000e+000) (4, -1.88470735114496100000e+000) (5, -6.06870986781595440000e-002) (6, -7.18287066468756170000e-001) (7, 1.22409730145944780000e+000) (8, 1.03578626486574750000e-001) (0, 2.56274882170183630000e-001) (1, -2.18884297188786460000e+000) (2, -1.86828093256832290000e+000) (3, -6.47869008134064120000e-001) (4, 1.07878890942344400000e+000) (5, -6.07898831528040160000e+000) (6, 1.98532100114779910000e+000) (7, -5.79970937990345090000e+000) (8, 2.73912347937758370000e-001) (0, -3.90961405284157500000e+000) (1, 9.35128778969633780000e+000) (2, 7.38190769588406130000e-001) (3, -7.62096924418961490000e+000) (4, 4.74548874379132620000e+000) (5, -5.99231627815682500000e-002) (6, 1.39221398093768030000e+000) (7, -5.57953765037234910000e+000) (8, -4.43646734637025590000e-001) (0, 1.29294810570482230000e-001) (1, -7.05936727906503060000e+000) (2, 1.91826641414704070000e+000) (3, 1.27467142639231130000e+000) (4, 6.88292771234221150000e+000) (5, -1.19020996257973230000e+001) (6, -7.35076065306657340000e+000) (7, 6.71278913660644600000e+000) (8, 7.04532305405254580000e-001) (0, 3.95030567206257730000e+000) (1, -3.83745580219464910000e+001) (2, -9.56523940063584810000e+000) (3, 9.16382759118911490000e+000) (4, 4.83052680991954520000e+001) (5, -9.69511931906098920000e+000) (6, 4.84501919426150970000e+000) (7, -1.88664355607343060000e+001) (8, 2.31878410454319010000e+000) (0, 3.40642525116360640000e+000) (1, -7.58766882245717530000e-001) (2, 3.62152551989303980000e+000) (3, 2.43568075170927200000e-002) (4, 1.09168724344736640000e+001) (5, -2.12173855189373380000e+001) (6, 1.86985766373358060000e+000) (7, -5.12134896594435410000e+000) (8, -2.76435324364186610000e-001) (0, -7.16860717582710750000e-001) (1, 2.05637797049780070000e+000) (2, -2.26697024395241180000e+000) (3, -4.11496426110754990000e-001) (4, 2.45814399207730980000e+000) (5, 4.17927695075435060000e+000) (6, 4.64188950423834260000e+000) (7, -9.84253853876489780000e-001) (8, 6.86346122672600760000e-001) (0, -8.11619291393592260000e-002) (1, -1.30648875859285750000e-001) (2, -1.27690809391532540000e+000) (3, -1.74536283946731370000e+000) (4, 1.74866932918817360000e+000) (5, -6.28285360448682080000e+000) (6, -2.98281618420894820000e+000) (7, 1.55081838515872320000e+001) (8, 2.01897073954098010000e-001) (0, 9.19048816872830850000e-002) (1, 1.00240221537117900000e+001) (2, 4.13361349804726160000e+000) (3, 2.44161031433313620000e+001) (4, 3.84363286094475590000e+000) (5, -1.71876903955268330000e+001) (6, -9.29226042451225530000e+000) (7, -2.41467779667879830000e+001) (8, 1.05612626446522430000e+000) (0, -4.74920108879565550000e+000) (1, -2.21822594655154150000e+000) (2, 1.91073332856714370000e+001) (3, -1.04903252004739790000e+001) (4, 3.98929446572387860000e+001) (5, 7.51261740136102940000e+000) (6, 1.15308610880367560000e+001) (7, -5.86847747175091360000e+001) (8, -8.01218268499927080000e-002) (0, 4.58772597134311690000e+000) (1, -1.19391555629215950000e+000) (2, 2.12533865464193510000e+000) (3, 7.98958178399604610000e+000) (4, -1.94713138013743610000e+001) (5, -9.45973183279485850000e+000) (6, -1.39325514412287550000e-001) (7, 3.41481239902701850000e+000) (8, -1.73491529717807290000e-001) (0, 5.95051934033420250000e+000) (1, 1.48116198735415670000e+001) (2, 1.35762853871519480000e+001) (3, -4.33870256470358980000e+001) (4, 8.70099717696370160000e+000) (5, 1.60977441988060330000e+001) (6, 5.14360298286732660000e+000) (7, 1.49610393106797000000e+001) (8, -5.62811484733337160000e-002) (0, 2.60346394314191880000e-001) (1, 9.39650500827924520000e+000) (2, -5.43217766560642530000e+000) (3, 2.89463204897738490000e+000) (4, 5.21065121214604690000e+000) (5, -3.93689329664555330000e-001) (6, -2.25221272783890880000e+000) (7, 3.87888580147158550000e+000) (8, 6.73870949845730150000e-001) (0, -4.06609782378183960000e-001) (1, -6.38563700362100310000e-001) (2, -2.21512719859532490000e+000) (3, -5.68295887325045550000e-001) (4, -8.06038643596989960000e-001) (5, -8.20241399123484150000e-001) (6, 5.64126311937161900000e-001) (7, 5.25398667867089110000e-001) (8, 1.71655914829320110000e-001) (0, -3.37896721520147110000e+000) (1, -1.67507834661172410000e+001) (2, -2.30414081080887900000e+000) (3, 4.28362176022790140000e+001) (4, 1.00188989964090470000e+000) (5, -1.16473498350452850000e+001) (6, -2.83427275424716000000e+001) (7, 7.87228840838096480000e+000) (8, -2.09460939182123160000e-001) (0, -9.51043557015539550000e-001) (1, -2.94699890887320050000e+000) (2, -9.48233661481887320000e+000) (3, -9.59040043121025640000e-001) (4, -8.90997115092040490000e-001) (5, -2.78505804418422320000e+000) (6, 8.69631356844174700000e+000) (7, -6.21872308153351130000e+000) (8, 1.49187412854052760000e-001) (0, 1.25239335969150640000e+000) (1, -2.45498605510372810000e+000) (2, -1.07415148758291230000e+000) (3, -1.01368021404188640000e+001) (4, 1.21669259136603870000e+001) (5, 1.42114890784427180000e+000) (6, 5.67329859031830970000e+000) (7, -1.63758009459448420000e+001) (8, 2.88781223994336760000e-001) (0, -1.16428683168121560000e+000) (1, 1.31976656816220710000e+001) (2, -3.98312220922479070000e+000) (3, -4.29364930409574440000e+000) (4, 6.26319349115938890000e+000) (5, 8.52951861737878740000e-001) (6, 3.62207517448519530000e+000) (7, -6.86217794186010900000e+000) (8, 4.94563427210608420000e-001) (9, 2.06576517841663910000e+000) (10, -1.69668068729401520000e-001) (11, -8.16506371391155780000e-001) (12, -3.60005502929550620000e+000) (13, 2.67711258656230240000e-001) (14, 9.56854423801168810000e-001) (15, 3.49229243050879930000e-001) (16, 1.99237505781403200000e+000) (17, 5.98209716491152730000e-001) (18, -2.71750261904494560000e+000) (19, -6.60583071024457850000e-002) (20, -2.48259174488324380000e-001) (21, -1.12710323379378010000e+000) (22, -1.86994355827956840000e-001) (23, -2.38192347126972740000e-001) (24, 7.32914102525976310000e+000) (25, -6.02352799233136670000e-001) (26, 4.94510519118900040000e-001) (27, -1.70019362958727100000e+000) (28, -6.96218299556179310000e-001) (29, 7.05797440150494730000e-001) (9, 1.36143211641820170000e+000) (10, -1.96668296834451760000e-002) (11, -3.29881210237421430000e+000) (12, 3.69946341986024580000e+000) (13, 1.14077292774118200000e-001) (14, 4.33301312431364990000e-001) (15, -1.73235388514792870000e-001) (16, -1.95014821521457790000e+000) (17, 4.23196516403005930000e-001) (18, 1.56163369706415330000e+000) (19, -5.83513661847675720000e-001) (20, 3.50435129175094170000e-001) (21, 9.38391679227502000000e-001) (22, 1.43480707733190440000e-001) (23, 9.33030231816257660000e-001) (24, -3.90343691634291190000e+000) (25, 5.54718699103529220000e-001) (26, -8.07100462489176020000e-002) (27, 5.47776537127072530000e-001) (28, 4.86352589115070570000e-001) (29, 3.28335433600497660000e-001) (9, -8.16622173171299040000e-001) (10, -1.85382490819926050000e-001) (11, 5.34672615323820020000e+000) (12, -5.45562869021377410000e-001) (13, 6.77893492272856670000e-001) (14, 3.83664877232372300000e-001) (15, 4.71556741095817830000e-002) (16, -6.64407342099129330000e-001) (17, 8.27265579569494090000e-001) (18, 2.22819846400211570000e+000) (19, -1.69098680519072900000e-001) (20, 5.34925199454030160000e-001) (21, 1.92533749167977120000e+000) (22, 9.54925836410482900000e-001) (23, -5.58931336144894210000e-001) (24, -7.74235119428907480000e+000) (25, 1.15104898125657540000e+000) (26, 3.06269791156234960000e+000) (27, 9.58634453073499150000e-001) (28, 1.38691188757451340000e+000) (29, 7.79107579630627490000e-001) (9, 1.12830867132488490000e+000) (10, 2.47514805366502610000e-001) (11, -6.51522394189753660000e+000) (12, 1.11546393775105400000e+000) (13, 2.44768700970772280000e+000) (14, 6.89110601984409320000e-001) (15, 7.68921829016571020000e-001) (16, -2.33617931227459110000e+000) (17, 3.75491779475257190000e-001) (18, 2.19004829195061670000e-001) (19, -1.02806201984932670000e+000) (20, 2.24604104540404160000e-001) (21, 2.92921291829581510000e+000) (22, 3.57969971230123700000e-001) (23, 1.10933250432711960000e+000) (24, -1.71163340876284890000e+000) (25, 1.14995794910522900000e+000) (26, -8.44330514244832850000e-001) (27, 1.11772148399406320000e+000) (28, 6.46784328437781550000e-001) (29, 7.63783151091374180000e-001) (9, 1.64348173798204370000e+000) (10, 2.44473251101819810000e-001) (11, 2.88140871127876390000e+000) (12, -1.11140161670700140000e+001) (13, 1.54820176763967200000e+000) (14, 3.51346251711715850000e+000) (15, -3.33016580032569620000e-001) (16, -1.11961263953529120000e+000) (17, 9.27340851406089680000e-001) (18, 1.94787992855608490000e-001) (19, 3.75724089144103270000e-001) (20, 9.56634510995412860000e-001) (21, 3.09009647638525300000e+000) (22, 1.68449842986177910000e-001) (23, 4.29684540312485150000e-001) (24, 6.35986753076228520000e+000) (25, 6.18862632839137780000e-001) (26, 2.30706774872024710000e+000) (27, 3.45570298612180960000e+000) (28, -5.28375923122036630000e-001) (29, 3.32971885515591480000e-001) 
