FANN_FLO_2.1
num_layers=3
learning_rate=0.700000
connection_rate=1.000000
network_type=0
learning_momentum=0.000000
training_algorithm=2
train_error_function=1
train_stop_function=0
cascade_output_change_fraction=0.010000
quickprop_decay=-0.000100
quickprop_mu=1.750000
rprop_increase_factor=1.200000
rprop_decrease_factor=0.500000
rprop_delta_min=0.000000
rprop_delta_max=50.000000
rprop_delta_zero=0.100000
cascade_output_stagnation_epochs=12
cascade_candidate_change_fraction=0.010000
cascade_candidate_stagnation_epochs=12
cascade_max_out_epochs=150
cascade_max_cand_epochs=150
cascade_num_candidate_groups=2
bit_fail_limit=3.49999999999999980000e-001
cascade_candidate_limit=1.00000000000000000000e+003
cascade_weight_multiplier=4.00000000000000020000e-001
cascade_activation_functions_count=10
cascade_activation_functions=3 5 7 8 10 11 14 15 16 17 
cascade_activation_steepnesses_count=4
cascade_activation_steepnesses=2.50000000000000000000e-001 5.00000000000000000000e-001 7.50000000000000000000e-001 1.00000000000000000000e+000 
layer_sizes=9 11 6 
scale_included=0
neurons (num_inputs, activation_function, activation_steepness)=(0, 0, 0.00000000000000000000e+000) (0, 0, 0.00000000000000000000e+000) (0, 0, 0.00000000000000000000e+000) (0, 0, 0.00000000000000000000e+000) (0, 0, 0.00000000000000000000e+000) (0, 0, 0.00000000000000000000e+000) (0, 0, 0.00000000000000000000e+000) (0, 0, 0.00000000000000000000e+000) (0, 0, 0.00000000000000000000e+000) (9, 6, 5.00000000000000000000e-001) (9, 6, 5.00000000000000000000e-001) (9, 6, 5.00000000000000000000e-001) (9, 6, 5.00000000000000000000e-001) (9, 6, 5.00000000000000000000e-001) (9, 6, 5.00000000000000000000e-001) (9, 6, 5.00000000000000000000e-001) (9, 6, 5.00000000000000000000e-001) (9, 6, 5.00000000000000000000e-001) (9, 6, 5.00000000000000000000e-001) (0, 6, 0.00000000000000000000e+000) (11, 6, 5.00000000000000000000e-001) (11, 6, 5.00000000000000000000e-001) (11, 6, 5.00000000000000000000e-001) (11, 6, 5.00000000000000000000e-001) (11, 6, 5.00000000000000000000e-001) (0, 6, 0.00000000000000000000e+000) 
connections (connected_to_neuron, weight)=(0, 2.56644639171142440000e+002) (1, 3.00473192611297630000e+002) (2, 9.32797219598687520000e+001) (3, 4.04070996766314390000e+001) (4, -9.32544792667616780000e+002) (5, 3.34739513630396170000e+001) (6, 2.43019914385996060000e+002) (7, -1.84500882850361480000e+002) (8, -3.48687431951483830000e+001) (0, -1.89215540610926270000e+000) (1, 2.72219229991498860000e+000) (2, -2.60944262935957650000e+000) (3, 8.13474570779446000000e+000) (4, -9.52823102327883120000e+000) (5, -1.30349445716377340000e+000) (6, 1.66066012724237420000e+000) (7, 3.22001836829440840000e+000) (8, 6.59392387317526030000e-001) (0, -3.26543966012803600000e+000) (1, 8.45419549408220480000e+000) (2, -6.10622620185109890000e+000) (3, 1.36243851133105970000e+001) (4, -2.42324154501481670000e+001) (5, 7.88043273147825300000e+000) (6, 8.19739703593202360000e-001) (7, 7.79168454724695360000e+000) (8, 8.87868286075971680000e-001) (0, 4.45101234231009290000e+001) (1, 3.45086854315598150000e+002) (2, -2.76207065621978190000e+002) (3, 2.65891882533718220000e+002) (4, 1.37082001196006600000e+003) (5, -1.14799401872506020000e+003) (6, 5.03109937108148700000e+002) (7, 5.49575858063089530000e+002) (8, -1.90128544266352360000e+001) (0, 2.48515368700284900000e+001) (1, 9.41226354565491190000e+001) (2, -1.85135551486166070000e+001) (3, -2.53572609187667160000e+001) (4, 1.94299748213074930000e+001) (5, 2.77507630999825280000e-001) (6, 4.39955212500013280000e+000) (7, -1.70097957359018250000e+001) (8, -7.09174722395558810000e+000) (0, 8.21841899024553730000e-001) (1, 1.03797369799882620000e+001) (2, 2.64538237554134350000e+000) (3, 9.95473066215032530000e+000) (4, -2.22745316232168110000e+000) (5, -1.82290922077842370000e+001) (6, 7.74817694640508490000e+000) (7, -1.76000461635279210000e+001) (8, 2.80481620567860280000e+000) (0, -1.75652399855512050000e+001) (1, 3.10550678859084390000e+001) (2, 3.58309099544008450000e+001) (3, -8.40675952134964180000e+001) (4, 4.81646787453822820000e+001) (5, 1.07388829776004980000e+002) (6, 1.18599913485409540000e+002) (7, -2.23917942899991150000e+001) (8, 2.30911820976834330000e-001) (0, -1.94267428049683880000e+001) (1, 4.74762193657534510000e+001) (2, 7.52376663960056500000e+001) (3, -9.08815750507915250000e+001) (4, -9.91425280999640390000e+001) (5, 1.78333983282532810000e+002) (6, 1.55708452332136970000e+002) (7, -1.91788829567520730000e+001) (8, 8.17068116687603490000e-001) (0, 2.99573077972431290000e+002) (1, -1.50000000000000000000e+003) (2, 6.02436276766570700000e+002) (3, -1.00530488636697780000e+003) (4, 2.52372537702394710000e+002) (5, 1.26578359582169430000e+002) (6, 1.26158236331166780000e+002) (7, -1.23729146634263570000e+003) (8, -1.91359946408648090000e+001) (0, 8.40350646157056870000e-002) (1, -1.24270588591460250000e-002) (2, -3.52313848298591080000e-001) (3, -1.16972455145953940000e+000) (4, 3.56115049968267820000e-001) (5, 2.29132093320017600000e+000) (6, -9.87610644267431610000e-001) (7, 1.76444456759020830000e+000) (8, -6.55691992494859770000e-001) (9, -6.83608651849988700000e-002) (10, 6.46663064158566780000e-001) (11, -3.76053799286461100000e-001) (12, -1.04494071541006670000e-002) (13, 1.88710136331368520000e-001) (14, -1.61798767535730130000e+000) (15, -1.74799175126148650000e-002) (16, 8.46833146611819240000e-002) (17, 2.75308581619852780000e-003) (18, -4.98459295448042730000e+000) (19, 5.55769048094624350000e-001) (9, 1.33424140574912860000e-002) (10, -1.76793970375802090000e+000) (11, 1.03758048990698310000e+000) (12, 4.61573627946890770000e-003) (13, -1.70881198570380060000e-001) (14, 6.74770350828254870000e-001) (15, 1.47254610109477850000e-001) (16, -1.41360802423053070000e-001) (17, 8.10588534815802320000e-005) (18, 1.56535173777499840000e+000) (19, 6.62253601656886630000e-001) (9, 1.30503264595023120000e-001) (10, 1.20775045136480470000e+000) (11, -4.80280770736927820000e-001) (12, -9.65979125032288830000e-002) (13, -1.25982877084108460000e-001) (14, 1.64827528733408510000e+000) (15, 3.45744489128139710000e-001) (16, -2.50254789088722840000e-001) (17, -4.78081456312043000000e-002) (18, 5.23220145416607970000e+000) (19, 8.15446149733216610000e-001) (9, 2.69556474061455400000e-002) (10, -1.76558730675324820000e+000) (11, 6.39377614999230740000e-001) (12, 8.04296711036369130000e-002) (13, -9.84015283967016740000e-002) (14, -1.56344346752000040000e-001) (15, -3.11460589135128250000e-001) (16, 1.62270162706069920000e-001) (17, -1.46578971082648140000e-001) (18, -1.64938892222971840000e+000) (19, 8.44457508919694510000e-001) (9, 3.85800008782134770000e-001) (10, 1.82115844040584850000e+000) (11, -1.26613744833165450000e+000) (12, -5.36679273624266760000e-002) (13, -3.65278377448173040000e-001) (14, 1.75959681536866560000e+000) (15, 3.11955223675934150000e-001) (16, -3.86171771346910830000e-001) (17, -2.58348413214192390000e-001) (18, 7.62706071068730470000e+000) (19, 1.58422935873240740000e+000) 
