FANN_FLO_2.1
num_layers=3
learning_rate=0.700000
connection_rate=1.000000
network_type=0
learning_momentum=0.000000
training_algorithm=2
train_error_function=1
train_stop_function=0
cascade_output_change_fraction=0.010000
quickprop_decay=-0.000100
quickprop_mu=1.750000
rprop_increase_factor=1.200000
rprop_decrease_factor=0.500000
rprop_delta_min=0.000000
rprop_delta_max=50.000000
rprop_delta_zero=0.100000
cascade_output_stagnation_epochs=12
cascade_candidate_change_fraction=0.010000
cascade_candidate_stagnation_epochs=12
cascade_max_out_epochs=150
cascade_max_cand_epochs=150
cascade_num_candidate_groups=2
bit_fail_limit=3.49999999999999980000e-001
cascade_candidate_limit=1.00000000000000000000e+003
cascade_weight_multiplier=4.00000000000000020000e-001
cascade_activation_functions_count=10
cascade_activation_functions=3 5 7 8 10 11 14 15 16 17 
cascade_activation_steepnesses_count=4
cascade_activation_steepnesses=2.50000000000000000000e-001 5.00000000000000000000e-001 7.50000000000000000000e-001 1.00000000000000000000e+000 
layer_sizes=9 4 6 
scale_included=0
neurons (num_inputs, activation_function, activation_steepness)=(0, 0, 0.00000000000000000000e+000) (0, 0, 0.00000000000000000000e+000) (0, 0, 0.00000000000000000000e+000) (0, 0, 0.00000000000000000000e+000) (0, 0, 0.00000000000000000000e+000) (0, 0, 0.00000000000000000000e+000) (0, 0, 0.00000000000000000000e+000) (0, 0, 0.00000000000000000000e+000) (0, 0, 0.00000000000000000000e+000) (9, 6, 5.00000000000000000000e-001) (9, 6, 5.00000000000000000000e-001) (9, 6, 5.00000000000000000000e-001) (0, 6, 0.00000000000000000000e+000) (4, 6, 5.00000000000000000000e-001) (4, 6, 5.00000000000000000000e-001) (4, 6, 5.00000000000000000000e-001) (4, 6, 5.00000000000000000000e-001) (4, 6, 5.00000000000000000000e-001) (0, 6, 0.00000000000000000000e+000) 
connections (connected_to_neuron, weight)=(0, -2.15297397030294760000e+000) (1, -3.59057832386898170000e+000) (2, 3.52877936545873050000e+000) (3, 9.00460986214055300000e+000) (4, -5.64062463714614460000e+000) (5, -4.44837879111765670000e+000) (6, 8.56365310038574990000e+000) (7, 1.27351923165935940000e+001) (8, -2.59974743118245420000e-001) (0, -2.43094963629234860000e+000) (1, 2.46132983312843660000e+000) (2, 2.56462901516693660000e+000) (3, -6.91853976151924480000e-002) (4, -5.09083146076766550000e+000) (5, 4.14885156684433820000e+000) (6, 1.51298525568121220000e+000) (7, 2.19723274802133470000e+000) (8, 5.76660439888261100000e-001) (0, -3.10320022806942530000e+000) (1, 1.36259320954255030000e+001) (2, 1.74555087531215310000e+000) (3, -1.52037099666690040000e+001) (4, -7.24792626124377030000e+000) (5, 2.17244643890042750000e+001) (6, -9.11037909111063370000e+000) (7, -1.50571724066527080000e+001) (8, 1.13874176675869030000e+000) (9, 2.38050807606791650000e-001) (10, -1.08802595867742700000e-001) (11, 7.25028942657076760000e-002) (12, 5.83877096944123260000e-001) (9, -6.62793236723027530000e-004) (10, 4.22472274641102260000e-003) (11, 1.82374709486747250000e-001) (12, 7.53934489690031520000e-001) (9, -6.51373565723518120000e-001) (10, 1.32981328176828110000e+000) (11, -3.64786765156799810000e-001) (12, 7.47676852608383460000e-001) (9, 1.30761421895526000000e+000) (10, -2.39473541058258110000e+000) (11, 8.49326099335779960000e-001) (12, 1.37395301177088760000e+000) (9, -3.37816584869676100000e+000) (10, 5.33390622650304370000e+000) (11, -2.25601924217458590000e+000) (12, 4.38553317611820980000e-001) 
