FANN_FLO_2.1
num_layers=3
learning_rate=0.700000
connection_rate=1.000000
network_type=0
learning_momentum=0.000000
training_algorithm=2
train_error_function=1
train_stop_function=0
cascade_output_change_fraction=0.010000
quickprop_decay=-0.000100
quickprop_mu=1.750000
rprop_increase_factor=1.200000
rprop_decrease_factor=0.500000
rprop_delta_min=0.000000
rprop_delta_max=50.000000
rprop_delta_zero=0.100000
cascade_output_stagnation_epochs=12
cascade_candidate_change_fraction=0.010000
cascade_candidate_stagnation_epochs=12
cascade_max_out_epochs=150
cascade_max_cand_epochs=150
cascade_num_candidate_groups=2
bit_fail_limit=3.49999999999999980000e-001
cascade_candidate_limit=1.00000000000000000000e+003
cascade_weight_multiplier=4.00000000000000020000e-001
cascade_activation_functions_count=10
cascade_activation_functions=3 5 7 8 10 11 14 15 16 17 
cascade_activation_steepnesses_count=4
cascade_activation_steepnesses=2.50000000000000000000e-001 5.00000000000000000000e-001 7.50000000000000000000e-001 1.00000000000000000000e+000 
layer_sizes=9 21 6 
scale_included=0
neurons (num_inputs, activation_function, activation_steepness)=(0, 0, 0.00000000000000000000e+000) (0, 0, 0.00000000000000000000e+000) (0, 0, 0.00000000000000000000e+000) (0, 0, 0.00000000000000000000e+000) (0, 0, 0.00000000000000000000e+000) (0, 0, 0.00000000000000000000e+000) (0, 0, 0.00000000000000000000e+000) (0, 0, 0.00000000000000000000e+000) (0, 0, 0.00000000000000000000e+000) (9, 6, 5.00000000000000000000e-001) (9, 6, 5.00000000000000000000e-001) (9, 6, 5.00000000000000000000e-001) (9, 6, 5.00000000000000000000e-001) (9, 6, 5.00000000000000000000e-001) (9, 6, 5.00000000000000000000e-001) (9, 6, 5.00000000000000000000e-001) (9, 6, 5.00000000000000000000e-001) (9, 6, 5.00000000000000000000e-001) (9, 6, 5.00000000000000000000e-001) (9, 6, 5.00000000000000000000e-001) (9, 6, 5.00000000000000000000e-001) (9, 6, 5.00000000000000000000e-001) (9, 6, 5.00000000000000000000e-001) (9, 6, 5.00000000000000000000e-001) (9, 6, 5.00000000000000000000e-001) (9, 6, 5.00000000000000000000e-001) (9, 6, 5.00000000000000000000e-001) (9, 6, 5.00000000000000000000e-001) (9, 6, 5.00000000000000000000e-001) (0, 6, 0.00000000000000000000e+000) (21, 6, 5.00000000000000000000e-001) (21, 6, 5.00000000000000000000e-001) (21, 6, 5.00000000000000000000e-001) (21, 6, 5.00000000000000000000e-001) (21, 6, 5.00000000000000000000e-001) (0, 6, 0.00000000000000000000e+000) 
connections (connected_to_neuron, weight)=(0, -5.24743867016101980000e+000) (1, 4.56887650242701680000e+000) (2, 7.91012442683135970000e-001) (3, -6.09767273902547750000e+000) (4, -8.35801659448863750000e-001) (5, 1.18944003150457950000e+001) (6, -5.32652356836899890000e+000) (7, 2.32042541628970720000e+001) (8, 6.99440756328871040000e-001) (0, 2.44072552399077690000e-001) (1, -4.19117180915047260000e+000) (2, -5.53421240982170910000e+000) (3, -2.12108790843360270000e+000) (4, 1.57278094863101250000e+000) (5, 2.38188489658403000000e+000) (6, -1.01086553968604190000e+001) (7, 1.68409674684522770000e+001) (8, -5.94499143600575460000e-002) (0, 6.87275951105181250000e-001) (1, 5.92279105884266350000e-001) (2, 1.07453713189119380000e+000) (3, -1.31030880246879230000e+000) (4, 1.88170186454024570000e+000) (5, -1.63073550207013970000e-001) (6, 8.30817137735363360000e-001) (7, -6.73897663868068180000e+000) (8, -1.90586831624489670000e-001) (0, 4.67425637348052360000e+000) (1, -1.47393479908242600000e+001) (2, -6.70815493584867720000e+000) (3, 1.48974159977736620000e+001) (4, 2.53970311091820090000e+001) (5, -4.34549405157052430000e+000) (6, -1.18186274235721560000e+001) (7, 1.66694900850121040000e+001) (8, 3.38396699357262300000e-001) (0, -4.17143786553852090000e+000) (1, 1.18622599770766010000e+001) (2, 1.19414888875250470000e+000) (3, -9.65586697453788110000e+000) (4, -7.04913416366676240000e+000) (5, 1.01284132196401180000e+001) (6, 2.40495408697386550000e+000) (7, -1.44044374459725040000e+000) (8, -3.44883631639958110000e-001) (0, 1.37024779211803520000e+000) (1, -4.40482209644899920000e+000) (2, -2.35301683014977490000e+000) (3, -2.71668813993296610000e+000) (4, 6.22648626263460690000e+000) (5, 6.70872841696432780000e+000) (6, 8.11340731639496050000e+000) (7, -1.17964172361421450000e+000) (8, 6.17383217650519960000e-001) (0, 2.47636477534832800000e+000) (1, 1.55439370300611940000e+001) (2, -4.36369453537977760000e+000) (3, -3.57754095625831070000e+001) (4, -7.65268117073810390000e+000) (5, 2.48515836999435110000e+001) (6, 3.03049049280261900000e+001) (7, -3.20390258551084910000e+001) (8, 3.20587919334998640000e-001) (0, 4.70693202977216170000e-001) (1, -3.34845863934349790000e-001) (2, 3.90721016144363830000e-001) (3, 1.08760809695686180000e-001) (4, 1.24417654354046300000e+000) (5, 1.11912180681645750000e+000) (6, 1.24314545844974430000e+000) (7, 7.26803507004913360000e-001) (8, 5.79175291006133410000e-001) (0, -4.07224146904870130000e-001) (1, 1.21662424646514570000e+001) (2, -5.81656427262837280000e+000) (3, -3.19359981452859540000e-001) (4, -3.17243540140246160000e+000) (5, -3.67105728377912670000e+000) (6, 4.01967032877633020000e+000) (7, -1.80702022879874020000e+000) (8, 7.96634224109269650000e-001) (0, -4.80621070918465680000e-001) (1, -1.48779939645916160000e+000) (2, 2.85154106574475370000e-001) (3, -5.87055587655993010000e-003) (4, 3.65713770363140010000e-001) (5, -1.91492106497097820000e+000) (6, 1.71111386017992560000e+000) (7, -1.74775838654220030000e-001) (8, -1.68414776849620500000e-001) (0, -1.07128138897126910000e+000) (1, 1.63037214567376410000e+000) (2, 1.49775599651718600000e+001) (3, 1.19684831991697220000e+001) (4, -1.99310053266553380000e+001) (5, 2.46575078330013750000e-002) (6, -1.77281952064642780000e+001) (7, 3.81197724650938030000e+001) (8, -3.58103532295262760000e-002) (0, 2.01770449873662150000e+000) (1, 1.02759373641411970000e+000) (2, 1.55905956074767070000e-001) (3, -1.46455706768640060000e+000) (4, -1.64290219087976030000e+000) (5, 1.22860724993159560000e+000) (6, -2.10541503032079900000e+000) (7, 8.17697831948067000000e-001) (8, 2.96943120650956850000e-001) (0, -4.37617547003521290000e-001) (1, -2.58940035441038050000e-001) (2, 5.99987422415717910000e-002) (3, 2.79146312950125440000e+000) (4, -2.01306947575295770000e+000) (5, -1.16582525494069870000e+000) (6, 3.99335099430567820000e+000) (7, 1.23453023265491040000e+000) (8, -5.00637414218244450000e-002) (0, 4.86412299511555680000e-001) (1, -2.12940227502556790000e+000) (2, 3.61413623816851440000e-001) (3, 3.96157286710006440000e-001) (4, 1.68074434330421260000e+000) (5, 1.76693518957100220000e+000) (6, 1.09166800435498600000e+000) (7, 5.99623314588807020000e-001) (8, 4.99509626923637760000e-001) (0, -6.51441388707813760000e-001) (1, -1.63150494416180840000e+000) (2, 6.79119641459704400000e+000) (3, -1.36694893968845820000e+000) (4, -2.55631358441992200000e-001) (5, 1.31623342603978110000e+001) (6, -1.92195811665125120000e+000) (7, -4.58541681086564010000e-001) (8, 4.12557969664829550000e-001) (0, -1.46348705010363510000e+001) (1, -6.49040460859815220000e+000) (2, 2.69592395150347390000e+001) (3, -1.88722170755665460000e+001) (4, -6.02917690030478890000e+001) (5, 5.79551944030637430000e+001) (6, 2.37976435247007780000e+001) (7, -5.03369930610950360000e+001) (8, -3.34334143559725570000e-001) (0, 3.85200020043191000000e+000) (1, 4.16718190673973330000e+000) (2, -1.33480645449165470000e+000) (3, -3.97335857968330770000e+000) (4, 1.89818185696770230000e+000) (5, -2.18198439543585550000e+000) (6, -8.99651413023878810000e+000) (7, -2.83813946397875360000e+000) (8, -9.40083055827453520000e-002) (0, -2.27522088165623830000e-001) (1, -5.97796948608741110000e-001) (2, 1.35347542480645510000e-001) (3, -1.00152517035536580000e+000) (4, -6.50260499974898100000e-001) (5, 2.55504634053520570000e+000) (6, 9.72178004270130460000e-001) (7, 3.77320930289594210000e+000) (8, -2.15501748290293760000e-003) (0, 9.31288813626440450000e-001) (1, -1.87567385407194690000e+000) (2, -4.92082244256296700000e+000) (3, -9.57236513551813320000e+000) (4, 8.80113283676202410000e+000) (5, 1.85051639084456560000e+001) (6, -1.16675458508278850000e-002) (7, 8.44639753077918170000e+000) (8, 2.23454621107256310000e-001) (0, 4.37460814348323430000e-002) (1, 7.77985966862558280000e-001) (2, -2.03874511718025770000e-002) (3, 8.22722459011028580000e-001) (4, -4.36192758670672820000e+000) (5, 1.40498692696557260000e-001) (6, -5.12379352110443940000e-001) (7, 2.61452736169558310000e+000) (8, 9.47415812237444310000e-002) (9, 8.15321736434960090000e-001) (10, 2.23219368500350510000e+000) (11, 2.47486586286281840000e+000) (12, 1.04149456049856330000e+000) (13, 1.10913264557432490000e+000) (14, 5.79846442274308480000e-001) (15, 5.58871662238117570000e-001) (16, 8.26533019626256360000e-001) (17, -3.03938695995397520000e-001) (18, 1.93928129057651360000e+000) (19, 1.48832177808000760000e-001) (20, 2.97627064253982230000e-002) (21, 7.22548600716281350000e+000) (22, 7.63438006527995760000e-001) (23, 4.79955587907154040000e-001) (24, 2.89100396120408330000e-001) (25, 1.56229508355363330000e+000) (26, -4.76852920024594250000e+000) (27, -1.56562861299821530000e+000) (28, -2.15192063036997410000e+000) (29, 6.33449039637562160000e-001) (9, -4.94074152763385120000e-001) (10, -3.52281050086862390000e-001) (11, 9.89805759525853870000e-002) (12, -6.85030018726919040000e-001) (13, -2.37704889632260140000e-001) (14, -8.09292913290071690000e-001) (15, -6.04676242511808960000e-001) (16, 1.78179272437064750000e-001) (17, 1.08624715035379920000e+000) (18, 1.07880071878019960000e+000) (19, -3.59878140676684060000e-001) (20, 2.20138209824474670000e+000) (21, -4.70320541414177740000e+000) (22, 5.22615040052338280000e-001) (23, 5.06265729333620240000e-001) (24, -1.45232690551418710000e-001) (25, -1.90717292021933820000e+000) (26, 2.02122877818068860000e+000) (27, 8.67381907916933810000e-001) (28, 1.35221758146939330000e+000) (29, 1.83109387333690590000e-001) (9, 1.28125227429763400000e+000) (10, -1.22142858339910810000e+000) (11, 9.01367079329103870000e-001) (12, -1.73098158414161930000e-001) (13, -1.49522724341244500000e+000) (14, -1.75534557896811070000e+000) (15, -5.16298282211465680000e-001) (16, 2.40237850627772060000e-001) (17, 5.47583013394303380000e-001) (18, 2.51101242895848960000e+000) (19, -9.46806909080175170000e-001) (20, -4.51015773110354900000e-001) (21, 1.30040643364715680000e+000) (22, 5.40825442466139280000e-001) (23, 4.83169017532350140000e-001) (24, 3.35923020001433870000e-001) (25, 1.60090466997041500000e+000) (26, 1.18729551866328410000e+000) (27, 1.24302219943550480000e+000) (28, 4.43705996373797710000e+000) (29, 6.49711560942146880000e-001) (9, 7.25957751449534010000e-001) (10, 3.71261390602566890000e+000) (11, 1.20425261733323480000e+001) (12, 1.14922279858161600000e-002) (13, 6.13128650213030650000e-001) (14, 2.33883287539235910000e+000) (15, -2.98375325804018490000e-001) (16, 7.78462108317458660000e-001) (17, 1.04069061772819160000e+000) (18, 9.50579740364188020000e-001) (19, 6.68962954766877390000e-002) (20, -2.04977900120059480000e-001) (21, 2.95623002560124040000e+000) (22, 8.42454250435819010000e-001) (23, 7.90696990383912170000e-001) (24, -1.56217201725432770000e-001) (25, -4.57613201511030020000e-001) (26, 9.14909623010051300000e-001) (27, -2.01025913890312810000e+000) (28, 3.57151782606947110000e+000) (29, 6.38102405220073890000e-001) (9, 1.43454611920452370000e+000) (10, 3.16342174719851930000e-001) (11, 3.84321420797013550000e+000) (12, -5.30503129744773650000e-001) (13, -5.04246479939205950000e-002) (14, 3.64197752323028470000e+000) (15, -9.38434094030838550000e-001) (16, 8.14755017497195480000e-001) (17, -5.64627238457937260000e-002) (18, 2.44140286560948460000e+000) (19, -8.63002540797429550000e-001) (20, -5.01673768632645080000e+000) (21, 1.93910039913894530000e+000) (22, 7.01983885205716420000e-001) (23, 9.58945547989957240000e-001) (24, -3.74796553656971950000e-002) (25, 4.48465676249764660000e+000) (26, 3.19569520319069200000e+000) (27, -1.31206381592644530000e+000) (28, 7.56228614889168590000e+000) (29, 5.11630665527786020000e-001) 
