FANN_FLO_2.1
num_layers=3
learning_rate=0.700000
connection_rate=1.000000
network_type=0
learning_momentum=0.000000
training_algorithm=2
train_error_function=1
train_stop_function=0
cascade_output_change_fraction=0.010000
quickprop_decay=-0.000100
quickprop_mu=1.750000
rprop_increase_factor=1.200000
rprop_decrease_factor=0.500000
rprop_delta_min=0.000000
rprop_delta_max=50.000000
rprop_delta_zero=0.100000
cascade_output_stagnation_epochs=12
cascade_candidate_change_fraction=0.010000
cascade_candidate_stagnation_epochs=12
cascade_max_out_epochs=150
cascade_max_cand_epochs=150
cascade_num_candidate_groups=2
bit_fail_limit=3.49999999999999980000e-001
cascade_candidate_limit=1.00000000000000000000e+003
cascade_weight_multiplier=4.00000000000000020000e-001
cascade_activation_functions_count=10
cascade_activation_functions=3 5 7 8 10 11 14 15 16 17 
cascade_activation_steepnesses_count=4
cascade_activation_steepnesses=2.50000000000000000000e-001 5.00000000000000000000e-001 7.50000000000000000000e-001 1.00000000000000000000e+000 
layer_sizes=9 4 6 
scale_included=0
neurons (num_inputs, activation_function, activation_steepness)=(0, 0, 0.00000000000000000000e+000) (0, 0, 0.00000000000000000000e+000) (0, 0, 0.00000000000000000000e+000) (0, 0, 0.00000000000000000000e+000) (0, 0, 0.00000000000000000000e+000) (0, 0, 0.00000000000000000000e+000) (0, 0, 0.00000000000000000000e+000) (0, 0, 0.00000000000000000000e+000) (0, 0, 0.00000000000000000000e+000) (9, 6, 5.00000000000000000000e-001) (9, 6, 5.00000000000000000000e-001) (9, 6, 5.00000000000000000000e-001) (0, 6, 0.00000000000000000000e+000) (4, 6, 5.00000000000000000000e-001) (4, 6, 5.00000000000000000000e-001) (4, 6, 5.00000000000000000000e-001) (4, 6, 5.00000000000000000000e-001) (4, 6, 5.00000000000000000000e-001) (0, 6, 0.00000000000000000000e+000) 
connections (connected_to_neuron, weight)=(0, -1.66296470463802470000e+000) (1, -1.47269528242664170000e+000) (2, -3.52087533968179490000e+000) (3, 4.16936861321367050000e+000) (4, -9.67554910026728890000e-001) (5, 5.95777126683498800000e+000) (6, -9.30158389521487190000e+000) (7, 1.21157892632493260000e+001) (8, 7.33914334837263200000e-001) (0, 9.42928044222082740000e+000) (1, -6.29519100021346830000e+000) (2, -1.54755320681895590000e+000) (3, 3.55909557093826880000e-001) (4, 3.57497453241571960000e+001) (5, -8.39563400299986710000e+001) (6, 4.87707525917215750000e+001) (7, 8.79265837516042040000e-001) (8, 3.45623952658005020000e-002) (0, -4.48498430789281780000e+000) (1, -3.08323621625019670000e+000) (2, -7.95935426814111760000e+000) (3, 8.52479230714511080000e+000) (4, -6.74880997377923640000e+000) (5, 3.08563879862674070000e+001) (6, -3.22377277327301500000e+001) (7, 2.72117531870826820000e+001) (8, 6.24219377887634490000e-001) (9, 1.13391662628275690000e+000) (10, -1.72637796992557020000e-001) (11, -6.25953937251500610000e-001) (12, 3.83201595533733230000e-001) (9, -7.82966954259320170000e-001) (10, -2.76685550906038970000e-002) (11, 4.31553974103905500000e-001) (12, 9.76616561464364930000e-001) (9, 4.95693983484067180000e-001) (10, -1.47028603627336800000e-001) (11, -2.48322142211635320000e-001) (12, 8.97010030130181660000e-001) (9, -3.02830270452496820000e+000) (10, 4.17874099436027880000e-001) (11, 1.63063725112531550000e+000) (12, 1.55359805349346550000e+000) (9, -1.43306339838810030000e+000) (10, 4.10133196627465450000e-001) (11, 1.06321347909470990000e+000) (12, 1.23894200055691380000e+000) 
