FANN_FLO_2.1
num_layers=3
learning_rate=0.700000
connection_rate=1.000000
network_type=0
learning_momentum=0.000000
training_algorithm=2
train_error_function=1
train_stop_function=0
cascade_output_change_fraction=0.010000
quickprop_decay=-0.000100
quickprop_mu=1.750000
rprop_increase_factor=1.200000
rprop_decrease_factor=0.500000
rprop_delta_min=0.000000
rprop_delta_max=50.000000
rprop_delta_zero=0.100000
cascade_output_stagnation_epochs=12
cascade_candidate_change_fraction=0.010000
cascade_candidate_stagnation_epochs=12
cascade_max_out_epochs=150
cascade_max_cand_epochs=150
cascade_num_candidate_groups=2
bit_fail_limit=3.49999999999999980000e-001
cascade_candidate_limit=1.00000000000000000000e+003
cascade_weight_multiplier=4.00000000000000020000e-001
cascade_activation_functions_count=10
cascade_activation_functions=3 5 7 8 10 11 14 15 16 17 
cascade_activation_steepnesses_count=4
cascade_activation_steepnesses=2.50000000000000000000e-001 5.00000000000000000000e-001 7.50000000000000000000e-001 1.00000000000000000000e+000 
layer_sizes=9 4 6 
scale_included=0
neurons (num_inputs, activation_function, activation_steepness)=(0, 0, 0.00000000000000000000e+000) (0, 0, 0.00000000000000000000e+000) (0, 0, 0.00000000000000000000e+000) (0, 0, 0.00000000000000000000e+000) (0, 0, 0.00000000000000000000e+000) (0, 0, 0.00000000000000000000e+000) (0, 0, 0.00000000000000000000e+000) (0, 0, 0.00000000000000000000e+000) (0, 0, 0.00000000000000000000e+000) (9, 6, 5.00000000000000000000e-001) (9, 6, 5.00000000000000000000e-001) (9, 6, 5.00000000000000000000e-001) (0, 6, 0.00000000000000000000e+000) (4, 6, 5.00000000000000000000e-001) (4, 6, 5.00000000000000000000e-001) (4, 6, 5.00000000000000000000e-001) (4, 6, 5.00000000000000000000e-001) (4, 6, 5.00000000000000000000e-001) (0, 6, 0.00000000000000000000e+000) 
connections (connected_to_neuron, weight)=(0, 8.44255322872329470000e+000) (1, -2.85645722676473390000e+000) (2, 6.94329084593261210000e+000) (3, -2.44820314563273820000e+000) (4, 2.57098349072622310000e+001) (5, -5.83053054313555210000e+001) (6, 2.00505051962257460000e+001) (7, -8.05680556352722020000e+000) (8, -2.29534195329490710000e+000) (0, -2.12725783434460960000e+000) (1, 7.05683210818370490000e-001) (2, -7.57088018847232540000e-001) (3, 1.40160710635794230000e+000) (4, -4.56143074719062370000e+000) (5, 6.24511456664829370000e+000) (6, -1.09651496021121850000e+000) (7, 1.57220913308519370000e+000) (8, 5.51067773997489740000e-001) (0, -3.53264793169847870000e+000) (1, 1.58689112175861370000e+000) (2, -7.29415021382385900000e-001) (3, 1.93372399718604560000e+000) (4, -8.28337216667727820000e+000) (5, 1.06317623763421700000e+001) (6, -4.91141044309300330000e-001) (7, 7.01650917698885210000e-001) (8, 2.02069868110632740000e-001) (9, 3.97719205275077310000e-001) (10, 8.93722034218374040000e-001) (11, 2.23236930980045460000e-001) (12, 6.38875445889031330000e-001) (9, -3.87233637285324730000e-001) (10, -1.92831641646597830000e+000) (11, 8.06442866216909530000e-001) (12, 9.52672256067277790000e-001) (9, -3.36587575994218780000e-002) (10, 2.37477861632790250000e-001) (11, 5.25964281542937940000e-002) (12, 9.02124914932061710000e-001) (9, -3.03303970889087230000e-001) (10, -2.60357670147574140000e+000) (11, 9.97281240027108830000e-001) (12, 1.34961063676570840000e+000) (9, -1.07501347461251510000e-001) (10, 2.60288267890998350000e+000) (11, -2.07827987772286750000e+000) (12, 5.23284934674032810000e-001) 
