FANN_FLO_2.1
num_layers=3
learning_rate=0.700000
connection_rate=1.000000
network_type=0
learning_momentum=0.000000
training_algorithm=2
train_error_function=1
train_stop_function=0
cascade_output_change_fraction=0.010000
quickprop_decay=-0.000100
quickprop_mu=1.750000
rprop_increase_factor=1.200000
rprop_decrease_factor=0.500000
rprop_delta_min=0.000000
rprop_delta_max=50.000000
rprop_delta_zero=0.100000
cascade_output_stagnation_epochs=12
cascade_candidate_change_fraction=0.010000
cascade_candidate_stagnation_epochs=12
cascade_max_out_epochs=150
cascade_max_cand_epochs=150
cascade_num_candidate_groups=2
bit_fail_limit=3.49999999999999980000e-001
cascade_candidate_limit=1.00000000000000000000e+003
cascade_weight_multiplier=4.00000000000000020000e-001
cascade_activation_functions_count=10
cascade_activation_functions=3 5 7 8 10 11 14 15 16 17 
cascade_activation_steepnesses_count=4
cascade_activation_steepnesses=2.50000000000000000000e-001 5.00000000000000000000e-001 7.50000000000000000000e-001 1.00000000000000000000e+000 
layer_sizes=9 4 6 
scale_included=0
neurons (num_inputs, activation_function, activation_steepness)=(0, 0, 0.00000000000000000000e+000) (0, 0, 0.00000000000000000000e+000) (0, 0, 0.00000000000000000000e+000) (0, 0, 0.00000000000000000000e+000) (0, 0, 0.00000000000000000000e+000) (0, 0, 0.00000000000000000000e+000) (0, 0, 0.00000000000000000000e+000) (0, 0, 0.00000000000000000000e+000) (0, 0, 0.00000000000000000000e+000) (9, 6, 5.00000000000000000000e-001) (9, 6, 5.00000000000000000000e-001) (9, 6, 5.00000000000000000000e-001) (0, 6, 0.00000000000000000000e+000) (4, 6, 5.00000000000000000000e-001) (4, 6, 5.00000000000000000000e-001) (4, 6, 5.00000000000000000000e-001) (4, 6, 5.00000000000000000000e-001) (4, 6, 5.00000000000000000000e-001) (0, 6, 0.00000000000000000000e+000) 
connections (connected_to_neuron, weight)=(0, -2.70657651919866680000e-001) (1, 1.71561087646553310000e-001) (2, -1.17426798884566820000e-001) (3, 7.97078574159472250000e-001) (4, -5.65127065006125860000e-001) (5, -6.85382312124107470000e-002) (6, 1.39264556238696960000e-001) (7, 5.15177229282251850000e-001) (8, -6.37240188061310300000e-002) (0, -1.96375888997036760000e-001) (1, 1.28595287115415170000e+000) (2, -9.70505132878068830000e-001) (3, -1.78154334258319170000e+000) (4, -9.79498992101756620000e-001) (5, 5.15364125500519420000e+000) (6, -4.09043739213863590000e+000) (7, 1.51339476217395270000e+000) (8, 1.08190055466089820000e+000) (0, -6.89875260693504440000e+000) (1, 7.21319719666247840000e+000) (2, -2.79859323045679440000e+000) (3, 7.26732079920576090000e+000) (4, -1.51216787186985520000e+001) (5, 1.41580239662576500000e+001) (6, -3.23833460406099500000e+000) (7, 8.57901163501523810000e+000) (8, -3.80607345226202260000e-001) (9, -6.58970216089422520000e-001) (10, -9.95226633205086970000e-001) (11, 1.91882430394760240000e-001) (12, 1.07480455845966020000e+000) (9, -3.89960187903804780000e+000) (10, 4.68510027701369240000e-001) (11, 3.61031212360384880000e-001) (12, 5.64314939140410980000e-001) (9, 3.76721508998189100000e+000) (10, 5.73690800650697440000e-001) (11, -7.25016981283213710000e-002) (12, 8.00392238381042450000e-001) (9, -3.62395852986081970000e+000) (10, -3.24123371555440690000e-001) (11, 1.06205696580956310000e-001) (12, 1.09791946617355030000e+000) (9, 6.10927326699776610000e+000) (10, 1.17728385897315650000e+000) (11, -5.71425033043583830000e-001) (12, 5.69961345335477820000e-001) 
