FANN_FLO_2.1
num_layers=3
learning_rate=0.700000
connection_rate=1.000000
network_type=0
learning_momentum=0.000000
training_algorithm=2
train_error_function=1
train_stop_function=0
cascade_output_change_fraction=0.010000
quickprop_decay=-0.000100
quickprop_mu=1.750000
rprop_increase_factor=1.200000
rprop_decrease_factor=0.500000
rprop_delta_min=0.000000
rprop_delta_max=50.000000
rprop_delta_zero=0.100000
cascade_output_stagnation_epochs=12
cascade_candidate_change_fraction=0.010000
cascade_candidate_stagnation_epochs=12
cascade_max_out_epochs=150
cascade_max_cand_epochs=150
cascade_num_candidate_groups=2
bit_fail_limit=3.49999999999999980000e-001
cascade_candidate_limit=1.00000000000000000000e+003
cascade_weight_multiplier=4.00000000000000020000e-001
cascade_activation_functions_count=10
cascade_activation_functions=3 5 7 8 10 11 14 15 16 17 
cascade_activation_steepnesses_count=4
cascade_activation_steepnesses=2.50000000000000000000e-001 5.00000000000000000000e-001 7.50000000000000000000e-001 1.00000000000000000000e+000 
layer_sizes=9 11 6 
scale_included=0
neurons (num_inputs, activation_function, activation_steepness)=(0, 0, 0.00000000000000000000e+000) (0, 0, 0.00000000000000000000e+000) (0, 0, 0.00000000000000000000e+000) (0, 0, 0.00000000000000000000e+000) (0, 0, 0.00000000000000000000e+000) (0, 0, 0.00000000000000000000e+000) (0, 0, 0.00000000000000000000e+000) (0, 0, 0.00000000000000000000e+000) (0, 0, 0.00000000000000000000e+000) (9, 6, 5.00000000000000000000e-001) (9, 6, 5.00000000000000000000e-001) (9, 6, 5.00000000000000000000e-001) (9, 6, 5.00000000000000000000e-001) (9, 6, 5.00000000000000000000e-001) (9, 6, 5.00000000000000000000e-001) (9, 6, 5.00000000000000000000e-001) (9, 6, 5.00000000000000000000e-001) (9, 6, 5.00000000000000000000e-001) (9, 6, 5.00000000000000000000e-001) (0, 6, 0.00000000000000000000e+000) (11, 6, 5.00000000000000000000e-001) (11, 6, 5.00000000000000000000e-001) (11, 6, 5.00000000000000000000e-001) (11, 6, 5.00000000000000000000e-001) (11, 6, 5.00000000000000000000e-001) (0, 6, 0.00000000000000000000e+000) 
connections (connected_to_neuron, weight)=(0, -6.93477364420957750000e-001) (1, -5.04894003029543370000e+000) (2, 7.40681903017584630000e+000) (3, -8.60556518780694370000e+000) (4, -1.14423164632004390000e+000) (5, 7.18873738962266180000e+000) (6, -4.01493267125407720000e+000) (7, 4.69546961404027880000e+001) (8, 1.29152174769600550000e+000) (0, -9.60321219449627250000e+000) (1, -2.44023381119334550000e+000) (2, 4.55490264052774750000e+000) (3, -2.46124214319202440000e+000) (4, -2.12515973792138480000e+001) (5, 3.16208511516678530000e+001) (6, -1.79727001979423380000e+001) (7, 1.10384865563908010000e+001) (8, -5.84383915532084350000e-001) (0, 1.76251083758390690000e+000) (1, 6.50893517026626080000e+000) (2, -2.91490996701448960000e+000) (3, -7.97237651298595470000e-001) (4, 3.95407692368002110000e+000) (5, 1.05600427583081820000e+001) (6, 9.78997437289840810000e+000) (7, -3.26662863106057340000e+001) (8, 1.95001944719298690000e-001) (0, 5.83772106957998190000e+000) (1, 1.57207833713104740000e+000) (2, 7.01386396545086210000e+000) (3, -1.87279013725327540000e+000) (4, 1.98499672959008120000e+000) (5, -2.26542519885481110000e+001) (6, 1.68512694603951410000e+001) (7, -1.77224278460792280000e+001) (8, 1.23485658250900060000e-001) (0, -3.46091670005833190000e-001) (1, 8.61491976002392690000e+000) (2, 5.15234259779364030000e+000) (3, -1.34825011682433560000e+001) (4, 1.02923704280782540000e+001) (5, 3.00381261846179090000e+001) (6, 5.05359394234733820000e+000) (7, -3.15698114792477260000e+001) (8, 4.18902021162840310000e-001) (0, 1.04838596822760450000e-001) (1, 7.00355358164792820000e+000) (2, 2.95171229091633160000e+000) (3, 6.74397804958083570000e+000) (4, -1.57131085833616520000e+001) (5, -2.78962013970942690000e+000) (6, 3.45913876606384060000e+000) (7, 3.43596655102279910000e+001) (8, -3.55829990489450300000e-001) (0, 3.03999046623918080000e-001) (1, 1.53580085715031760000e-001) (2, -3.20552141659935730000e-001) (3, -1.16595628728913740000e+000) (4, -3.71022694567141710000e-001) (5, 2.49567607183224770000e+000) (6, -2.31052444641989090000e-002) (7, -1.55155525224621390000e+000) (8, 1.17352264465583490000e-001) (0, 1.30053730932476460000e-001) (1, -7.01488105159657540000e-001) (2, 5.65926099942208550000e-001) (3, -1.63714947969667150000e+000) (4, 1.65006129731158220000e+000) (5, 1.17174513212134750000e-001) (6, 2.86597679486835950000e-001) (7, -1.98299353798092890000e+000) (8, 2.09344970323773800000e-001) (0, 3.40502288458863540000e-001) (1, -1.46892932799036110000e+001) (2, 1.66344420528119660000e+001) (3, -2.00756961573224050000e+001) (4, 1.28460226632396830000e+001) (5, -5.95960776933231260000e+000) (6, -6.88801762740236260000e+000) (7, -3.57403359244842810000e+000) (8, 5.68503313650119750000e-001) (0, 1.05924285578338370000e+000) (1, -1.42546261230322820000e-001) (2, 3.65813947626526750000e+000) (3, -3.45920639059315960000e+000) (4, 2.98872801398392380000e+000) (5, -8.80255578481621730000e-001) (6, 3.74376352960335620000e+000) (7, -1.26040349323354640000e+001) (8, 2.34294874066587390000e-001) (9, -1.60415390455556000000e-001) (10, 3.17505688616658180000e-001) (11, 1.39851129105111080000e+000) (12, 1.24978634918939720000e-001) (13, -3.67810243210967000000e-001) (14, 5.93954844875457800000e-001) (15, -3.16812152245489290000e+000) (16, 4.23451696365239720000e+000) (17, 4.87054752961231690000e-001) (18, -1.90185234722071410000e+000) (19, 6.35501589927980230000e-001) (9, 2.58955361056859850000e-001) (10, 7.84582272628178560000e-002) (11, -1.87824107920334700000e+000) (12, 1.86763017344073770000e-001) (13, 6.82899080888242140000e-001) (14, -8.22187331701425440000e-001) (15, 2.56528084482074400000e+000) (16, -1.78852957281157290000e+000) (17, -9.04963979441359760000e-001) (18, 1.68584747185302210000e+000) (19, 6.94986155785403130000e-001) (9, 1.42718417929068100000e+000) (10, 5.98010730759230720000e-001) (11, -1.91577846547379860000e+000) (12, 1.10534048633332580000e+000) (13, 8.06787397167301190000e-001) (14, -1.79652907680382560000e+000) (15, 3.22911874877114370000e-001) (16, -6.57211205685325780000e+000) (17, -1.26974182997803340000e+000) (18, 1.73189699047165210000e+000) (19, 8.04616588894079940000e-001) (9, 2.08450855148234910000e-001) (10, -6.16469724112523430000e-001) (11, -8.75570088098209460000e-001) (12, -1.20691797515022950000e+000) (13, -4.63429392888499600000e-001) (14, -3.57241460042245290000e-002) (15, 2.28734589320587700000e+000) (16, -3.03584606569359970000e+000) (17, -4.33087352815327010000e-001) (18, 4.22513667177400000000e+000) (19, 8.07135092559907010000e-001) (9, 6.42953102832852670000e-001) (10, -7.92923958259163510000e-001) (11, -1.55272965873212780000e+000) (12, -6.98132136565311030000e-001) (13, 2.14686331605309730000e-001) (14, -9.64062246334864810000e-001) (15, 2.22702120786694200000e+000) (16, -8.42395152576130710000e+000) (17, -4.87283058018517510000e-001) (18, 3.44806999596732890000e+000) (19, 9.34553228410057610000e-001) 
