FANN_FLO_2.1
num_layers=3
learning_rate=0.700000
connection_rate=1.000000
network_type=0
learning_momentum=0.000000
training_algorithm=2
train_error_function=1
train_stop_function=0
cascade_output_change_fraction=0.010000
quickprop_decay=-0.000100
quickprop_mu=1.750000
rprop_increase_factor=1.200000
rprop_decrease_factor=0.500000
rprop_delta_min=0.000000
rprop_delta_max=50.000000
rprop_delta_zero=0.100000
cascade_output_stagnation_epochs=12
cascade_candidate_change_fraction=0.010000
cascade_candidate_stagnation_epochs=12
cascade_max_out_epochs=150
cascade_max_cand_epochs=150
cascade_num_candidate_groups=2
bit_fail_limit=3.49999999999999980000e-001
cascade_candidate_limit=1.00000000000000000000e+003
cascade_weight_multiplier=4.00000000000000020000e-001
cascade_activation_functions_count=10
cascade_activation_functions=3 5 7 8 10 11 14 15 16 17 
cascade_activation_steepnesses_count=4
cascade_activation_steepnesses=2.50000000000000000000e-001 5.00000000000000000000e-001 7.50000000000000000000e-001 1.00000000000000000000e+000 
layer_sizes=9 11 6 
scale_included=0
neurons (num_inputs, activation_function, activation_steepness)=(0, 0, 0.00000000000000000000e+000) (0, 0, 0.00000000000000000000e+000) (0, 0, 0.00000000000000000000e+000) (0, 0, 0.00000000000000000000e+000) (0, 0, 0.00000000000000000000e+000) (0, 0, 0.00000000000000000000e+000) (0, 0, 0.00000000000000000000e+000) (0, 0, 0.00000000000000000000e+000) (0, 0, 0.00000000000000000000e+000) (9, 6, 5.00000000000000000000e-001) (9, 6, 5.00000000000000000000e-001) (9, 6, 5.00000000000000000000e-001) (9, 6, 5.00000000000000000000e-001) (9, 6, 5.00000000000000000000e-001) (9, 6, 5.00000000000000000000e-001) (9, 6, 5.00000000000000000000e-001) (9, 6, 5.00000000000000000000e-001) (9, 6, 5.00000000000000000000e-001) (9, 6, 5.00000000000000000000e-001) (0, 6, 0.00000000000000000000e+000) (11, 6, 5.00000000000000000000e-001) (11, 6, 5.00000000000000000000e-001) (11, 6, 5.00000000000000000000e-001) (11, 6, 5.00000000000000000000e-001) (11, 6, 5.00000000000000000000e-001) (0, 6, 0.00000000000000000000e+000) 
connections (connected_to_neuron, weight)=(0, -3.89905313978105640000e-002) (1, 1.45887139460154700000e+000) (2, 3.88195286348897770000e-001) (3, -3.94069047941434600000e+000) (4, 3.25211440231451650000e+000) (5, -1.26170052719026350000e+000) (6, 2.03226732342886020000e+000) (7, -6.40368644989339230000e+000) (8, -3.22511845816166390000e-002) (0, 3.86238583934434330000e-001) (1, -1.26093702275798520000e+001) (2, 6.62763098244696280000e+000) (3, 1.60220133410595590000e+001) (4, -5.59698239574138160000e+000) (5, 2.26024935859589000000e+001) (6, 4.43386714117997640000e+000) (7, -8.49530767911494960000e+000) (8, -1.29194447040744120000e-001) (0, 2.73307745332537970000e+000) (1, 1.18181082505274800000e+001) (2, 1.24614245943571980000e-001) (3, 2.15379545783372390000e+001) (4, -2.42802383686750010000e+001) (5, -1.57343615367647120000e+001) (6, 1.35405090614392280000e+000) (7, 5.35658171462613740000e+001) (8, -9.43859120025752340000e-001) (0, -7.94087214542403000000e-002) (1, 1.72132756744540290000e-001) (2, 5.32332625908790820000e-001) (3, 1.90858005917880440000e-001) (4, -2.14482216748543750000e+000) (5, 1.85106313740782990000e+000) (6, 2.84380401132705960000e-002) (7, 9.97064471466208910000e-001) (8, -7.34759796425661220000e-002) (0, -1.41134398179396800000e+001) (1, 1.17156694005652200000e+001) (2, -1.43230664044590480000e+001) (3, -6.64646071614684930000e+001) (4, 4.23711073920155550000e+000) (5, 6.10458502133209750000e+001) (6, -2.93186603580088380000e+001) (7, 2.08481900905038490000e+001) (8, 4.77278524834511280000e-001) (0, 1.63280023908909110000e-001) (1, 8.27211478946491140000e+000) (2, -1.09112661365734790000e+001) (3, 2.10688612751773160000e+001) (4, -6.04412425044565940000e-001) (5, -2.77832647935026530000e+001) (6, 7.10964346544590060000e+000) (7, 2.58790355164906420000e+001) (8, -9.65017700311121130000e-002) (0, 1.97883887075440650000e+001) (1, -2.32682582506693440000e+001) (2, 5.72963630296231670000e+000) (3, 6.42627815676262770000e+001) (4, 4.37361124234612430000e+001) (5, -6.05597708261686880000e+001) (6, 4.21932908241401420000e+001) (7, -5.13590864663481950000e+001) (8, -3.93041897271237950000e-002) (0, -4.90564773955984010000e+000) (1, -3.40947258682783240000e+001) (2, 3.10877204301413350000e+001) (3, -5.35375513162809540000e+001) (4, 1.28020785753049150000e+002) (5, 5.02501919916864100000e+002) (6, 5.48152300776928670000e+001) (7, -1.90879556843946890000e+002) (8, -9.36855817260072680000e+000) (0, -5.29032891458488950000e-002) (1, 1.80297118430625610000e+000) (2, 1.17308121775749160000e+000) (3, -7.22572128361733950000e+000) (4, 3.29269000604137130000e+000) (5, 1.69026492571968510000e+000) (6, 1.31616058105057410000e+000) (7, -8.04910608558471270000e+000) (8, 8.83493320401986530000e-002) (0, 8.98874878179003640000e+000) (1, -3.39332866344977610000e-001) (2, 2.05247340150996180000e+001) (3, -3.45715624395810610000e+000) (4, -3.47957834098669420000e+001) (5, -1.52689524659782330000e+001) (6, -5.15094253991323540000e+001) (7, 4.90443660155943060000e+001) (8, 3.70582668352127550000e-001) (9, 6.70469463886747440000e+000) (10, -4.23521850983252620000e-001) (11, 5.01649944263346190000e-001) (12, 2.93509341228615770000e-001) (13, 5.70752966629806820000e-002) (14, -1.15215483504309010000e+000) (15, 1.01381626582687060000e-002) (16, -7.98339301649246030000e-003) (17, -6.28341577561444000000e+000) (18, -2.12614220812788880000e-001) (19, 1.09904865390169060000e+000) (9, -3.90398801488224570000e+000) (10, 7.00840731529162600000e-001) (11, -3.84479353200532890000e-001) (12, 2.56588447278495450000e-001) (13, 1.62495863900361140000e-001) (14, 1.06515819508286080000e+000) (15, -4.34570785414877540000e-002) (16, -5.11812383482867510000e-002) (17, 4.67631170658877600000e+000) (18, 1.63627157930923420000e-001) (19, 4.45822905366010820000e-001) (9, 3.00008837426457960000e+000) (10, 5.39535696678205210000e-002) (11, -7.87925958315554560000e-001) (12, 5.87319503750429830000e+000) (13, -1.51914211007168510000e-001) (14, 8.06112680446958720000e-001) (15, -2.07965320319537320000e-001) (16, 1.13525912530559700000e-001) (17, -1.62576123294917020000e+000) (18, 2.71255501269059900000e-001) (19, 1.18336529623896200000e+000) (9, 1.09882719660703930000e+000) (10, 1.55719398151185870000e+000) (11, 2.14094088687495150000e-002) (12, 1.13848736648968800000e+000) (13, 1.19623309289014120000e+000) (14, 1.18142699471235150000e+000) (15, 9.29688887320006320000e-001) (16, -1.81954202947246730000e-001) (17, 2.48254187766018890000e+000) (18, 4.67330722009473790000e-001) (19, 4.80938219835395700000e-001) (9, -2.46756108777257710000e+000) (10, 4.18830065142879290000e-001) (11, -4.77212324704759770000e-001) (12, 1.08537387606965630000e+000) (13, 3.86129796985446080000e-001) (14, 9.88387634402578710000e-001) (15, 4.18533205670625520000e-001) (16, -4.97755375979462410000e-004) (17, 2.73196983316803620000e+000) (18, 2.91526235801380540000e-001) (19, 6.71953310580818200000e-001) 
