FANN_FLO_2.1
num_layers=3
learning_rate=0.700000
connection_rate=1.000000
network_type=0
learning_momentum=0.000000
training_algorithm=2
train_error_function=1
train_stop_function=0
cascade_output_change_fraction=0.010000
quickprop_decay=-0.000100
quickprop_mu=1.750000
rprop_increase_factor=1.200000
rprop_decrease_factor=0.500000
rprop_delta_min=0.000000
rprop_delta_max=50.000000
rprop_delta_zero=0.100000
cascade_output_stagnation_epochs=12
cascade_candidate_change_fraction=0.010000
cascade_candidate_stagnation_epochs=12
cascade_max_out_epochs=150
cascade_max_cand_epochs=150
cascade_num_candidate_groups=2
bit_fail_limit=3.49999999999999980000e-001
cascade_candidate_limit=1.00000000000000000000e+003
cascade_weight_multiplier=4.00000000000000020000e-001
cascade_activation_functions_count=10
cascade_activation_functions=3 5 7 8 10 11 14 15 16 17 
cascade_activation_steepnesses_count=4
cascade_activation_steepnesses=2.50000000000000000000e-001 5.00000000000000000000e-001 7.50000000000000000000e-001 1.00000000000000000000e+000 
layer_sizes=9 11 6 
scale_included=0
neurons (num_inputs, activation_function, activation_steepness)=(0, 0, 0.00000000000000000000e+000) (0, 0, 0.00000000000000000000e+000) (0, 0, 0.00000000000000000000e+000) (0, 0, 0.00000000000000000000e+000) (0, 0, 0.00000000000000000000e+000) (0, 0, 0.00000000000000000000e+000) (0, 0, 0.00000000000000000000e+000) (0, 0, 0.00000000000000000000e+000) (0, 0, 0.00000000000000000000e+000) (9, 6, 5.00000000000000000000e-001) (9, 6, 5.00000000000000000000e-001) (9, 6, 5.00000000000000000000e-001) (9, 6, 5.00000000000000000000e-001) (9, 6, 5.00000000000000000000e-001) (9, 6, 5.00000000000000000000e-001) (9, 6, 5.00000000000000000000e-001) (9, 6, 5.00000000000000000000e-001) (9, 6, 5.00000000000000000000e-001) (9, 6, 5.00000000000000000000e-001) (0, 6, 0.00000000000000000000e+000) (11, 6, 5.00000000000000000000e-001) (11, 6, 5.00000000000000000000e-001) (11, 6, 5.00000000000000000000e-001) (11, 6, 5.00000000000000000000e-001) (11, 6, 5.00000000000000000000e-001) (0, 6, 0.00000000000000000000e+000) 
connections (connected_to_neuron, weight)=(0, -2.01123075698455980000e+000) (1, -2.39061507069796160000e+000) (2, -1.85002544582035580000e-001) (3, 9.89201911384669860000e+000) (4, -1.66476059009028780000e+000) (5, -3.30052376101148640000e+000) (6, 1.61445888342449850000e+001) (7, 7.94421626535426300000e+000) (8, 1.19595268263008070000e-002) (0, -4.84625936156662450000e+000) (1, 1.36685508714241980000e+001) (2, 1.23474708487803150000e+001) (3, -4.25501494137956510000e+001) (4, -1.69370246179658960000e+001) (5, 1.06528457877066260000e+001) (6, -5.25602958298633280000e+001) (7, -1.76118163098459350000e+001) (8, 3.41647223611621640000e-001) (0, 6.31595938387917830000e-001) (1, -1.56204407695767090000e+000) (2, 1.73311668539062100000e+000) (3, -4.67615763386323110000e+000) (4, 4.54646344828436180000e+000) (5, 2.49088516237408400000e+000) (6, 7.79550148654916120000e-001) (7, -4.08251412174593490000e+000) (8, 1.64347032575274860000e-001) (0, -2.63600032046084240000e+000) (1, 1.18792525140625620000e+000) (2, -1.78019488912642600000e+001) (3, 3.95843138282739770000e+001) (4, -9.04778485443686980000e+000) (5, -3.19329461540270240000e+000) (6, 5.38870685450948130000e+001) (7, -3.22111840709010930000e+000) (8, -7.88511896849979130000e-001) (0, -3.67870533052718880000e-001) (1, -1.51805457081453370000e+000) (2, -9.13121206960316400000e-001) (3, -5.95994277640400050000e+000) (4, 2.79968018671890250000e-001) (5, 8.44514787464579260000e+000) (6, 7.45851259676921070000e+000) (7, 4.98783295660779750000e+000) (8, 6.81216498602141630000e-003) (0, -1.01884737407778180000e+001) (1, 7.92840060232548450000e+000) (2, -4.28650250222830880000e-001) (3, -4.07152642637262470000e+000) (4, -2.29719436994925270000e+001) (5, 3.54242998204411280000e+001) (6, -5.30428733955454770000e+001) (7, 3.76791600237913830000e+001) (8, 7.41665248264524320000e-002) (0, 1.47506673636859480000e+000) (1, 9.96561084809524190000e+000) (2, -1.58839007548209960000e+001) (3, -1.14390145631863890000e+000) (4, -1.44873655086866310000e+001) (5, 8.44731031606767150000e+000) (6, 6.76477195863197520000e+000) (7, 2.23933944319756460000e+000) (8, 1.22665120367871780000e+000) (0, 3.03593994276626090000e-001) (1, -1.26966119914811940000e-001) (2, 3.98962258059406590000e+000) (3, -1.84872171347713740000e+000) (4, 1.69969285939993650000e+000) (5, -1.22832490492198600000e-002) (6, 1.97173818917174690000e+000) (7, -9.69071437661070870000e+000) (8, 1.45669671006076360000e-001) (0, 1.04146866082991220000e-001) (1, -5.38015314814778470000e+000) (2, 3.81155905877877730000e+000) (3, -1.57030787604268460000e+001) (4, 1.70033675947265050000e+001) (5, 3.71013371391043800000e+001) (6, 2.62471899862008480000e+001) (7, -2.00259278444493880000e+001) (8, 9.10076973421569790000e-001) (0, 2.09027882979074820000e+000) (1, 8.70378311263409190000e+000) (2, -7.06843821766998910000e+000) (3, -1.48943122926703160000e+001) (4, -8.58028418164601270000e+000) (5, 2.04104883780120860000e+001) (6, 3.38140896659366490000e+001) (7, -3.43313890370495120000e+001) (8, 1.22483944943254260000e-001) (9, 1.81903748160973210000e+000) (10, -1.66078167208901870000e-001) (11, 1.90223198398751240000e+000) (12, -5.78151812854768690000e-001) (13, -2.04925652145326520000e+000) (14, 2.12519734294905480000e-001) (15, -2.30771534529897150000e-001) (16, -2.16680791833931210000e+000) (17, -1.30254385454236950000e-001) (18, 7.96887942993855460000e-001) (19, 5.09350465624687110000e-001) (9, -1.07666616044605060000e+000) (10, 3.31611136445097760000e-001) (11, -4.80778170382193780000e-001) (12, 5.23997736509292380000e-001) (13, 1.24418866227118460000e+000) (14, -1.20503228929621020000e-002) (15, 6.31176494963043620000e-001) (16, 1.89154425331831670000e+000) (17, 4.63317610698659120000e-001) (18, -8.30391628268862590000e-001) (19, 4.49305218631703250000e-001) (9, -9.66958435908926610000e-001) (10, 4.70468901359461730000e-001) (11, -2.31382792547362290000e+000) (12, 4.27412498367713170000e-001) (13, 1.23842069277642670000e+000) (14, -2.27805546927679130000e-001) (15, 6.73084832202662460000e-001) (16, 2.37901411308531150000e+000) (17, 9.83818021282557350000e-001) (18, -9.35480159138332600000e-001) (19, 4.07702940856446540000e-001) (9, -5.39242241100984070000e-001) (10, 6.30741964428801070000e-002) (11, 4.76758693010109040000e-001) (12, 3.40180324156280970000e-001) (13, 1.54784442915395860000e+000) (14, -1.14020286528085910000e-001) (15, 1.16744779082757130000e+000) (16, 3.09251811835407910000e+000) (17, -2.97745900516255770000e-001) (18, -1.09519946352206830000e+000) (19, 4.94133548199456150000e-001) (9, -3.08081278579018390000e+000) (10, 7.31740620370272770000e-001) (11, -3.10268868188412390000e+000) (12, 1.20173252299302890000e+000) (13, 3.45663318003854010000e+000) (14, -6.95125653771676120000e-001) (15, 9.35791071041467080000e-001) (16, 3.75711195914132960000e+000) (17, 1.05716929323239170000e+000) (18, -2.11810853643261240000e+000) (19, 6.20371356686047810000e-001) 
