FANN_FLO_2.1
num_layers=3
learning_rate=0.700000
connection_rate=1.000000
network_type=0
learning_momentum=0.000000
training_algorithm=2
train_error_function=1
train_stop_function=0
cascade_output_change_fraction=0.010000
quickprop_decay=-0.000100
quickprop_mu=1.750000
rprop_increase_factor=1.200000
rprop_decrease_factor=0.500000
rprop_delta_min=0.000000
rprop_delta_max=50.000000
rprop_delta_zero=0.100000
cascade_output_stagnation_epochs=12
cascade_candidate_change_fraction=0.010000
cascade_candidate_stagnation_epochs=12
cascade_max_out_epochs=150
cascade_max_cand_epochs=150
cascade_num_candidate_groups=2
bit_fail_limit=3.49999999999999980000e-001
cascade_candidate_limit=1.00000000000000000000e+003
cascade_weight_multiplier=4.00000000000000020000e-001
cascade_activation_functions_count=10
cascade_activation_functions=3 5 7 8 10 11 14 15 16 17 
cascade_activation_steepnesses_count=4
cascade_activation_steepnesses=2.50000000000000000000e-001 5.00000000000000000000e-001 7.50000000000000000000e-001 1.00000000000000000000e+000 
layer_sizes=9 11 6 
scale_included=0
neurons (num_inputs, activation_function, activation_steepness)=(0, 0, 0.00000000000000000000e+000) (0, 0, 0.00000000000000000000e+000) (0, 0, 0.00000000000000000000e+000) (0, 0, 0.00000000000000000000e+000) (0, 0, 0.00000000000000000000e+000) (0, 0, 0.00000000000000000000e+000) (0, 0, 0.00000000000000000000e+000) (0, 0, 0.00000000000000000000e+000) (0, 0, 0.00000000000000000000e+000) (9, 6, 5.00000000000000000000e-001) (9, 6, 5.00000000000000000000e-001) (9, 6, 5.00000000000000000000e-001) (9, 6, 5.00000000000000000000e-001) (9, 6, 5.00000000000000000000e-001) (9, 6, 5.00000000000000000000e-001) (9, 6, 5.00000000000000000000e-001) (9, 6, 5.00000000000000000000e-001) (9, 6, 5.00000000000000000000e-001) (9, 6, 5.00000000000000000000e-001) (0, 6, 0.00000000000000000000e+000) (11, 6, 5.00000000000000000000e-001) (11, 6, 5.00000000000000000000e-001) (11, 6, 5.00000000000000000000e-001) (11, 6, 5.00000000000000000000e-001) (11, 6, 5.00000000000000000000e-001) (0, 6, 0.00000000000000000000e+000) 
connections (connected_to_neuron, weight)=(0, -4.79642395508242900000e+000) (1, 6.24614575015109620000e+000) (2, -4.53806103726601860000e+000) (3, 1.21830142957650000000e+001) (4, -1.28562738109712620000e+001) (5, 2.75907308213795660000e+001) (6, 1.65394901079318620000e+000) (7, -9.93967603224045960000e+000) (8, 5.30142641663167380000e-001) (0, 3.73144968514836610000e+000) (1, -2.72373417299461900000e+000) (2, 4.12262541491407750000e+000) (3, 8.50328457352160450000e-001) (4, 1.35074924137630710000e+001) (5, -3.98546629723626250000e+001) (6, 8.91915440569503910000e+000) (7, -1.48050764724744900000e+000) (8, -4.30980657000003760000e-001) (0, 6.94811281261151880000e-001) (1, -5.83884038944955330000e-001) (2, 2.38605118701075550000e+000) (3, -1.78341002498110870000e+000) (4, 1.46743863087065110000e-001) (5, 1.33422961731160040000e+000) (6, 1.39609329162639930000e+000) (7, -6.13671469207716760000e-001) (8, -2.46589305093256380000e-001) (0, -1.02385887421091580000e+000) (1, 2.08922069324195010000e+000) (2, 8.49079415322137270000e-001) (3, -1.91396704833629380000e+000) (4, -7.73951998366382200000e+000) (5, 2.06822741192588180000e+001) (6, -3.12820334175603020000e+000) (7, 7.02828500080475040000e+000) (8, 2.10286548572515500000e-001) (0, 1.99212065736693740000e+000) (1, 1.25090406143208420000e+001) (2, 5.22357628212076860000e+001) (3, 4.43043221050956150000e+001) (4, -1.41401749285668290000e+001) (5, -2.30738563952484660000e+001) (6, 1.65580242802441720000e+001) (7, -8.50351336633164290000e+001) (8, 1.65134053378626660000e-001) (0, 1.99953761133139470000e+000) (1, -4.70441485143193820000e+000) (2, -6.35212853091940310000e-001) (3, -1.53018089726575810000e+001) (4, 5.45093968731975840000e+000) (5, 3.45925620953855710000e+000) (6, -1.45606528840514410000e+001) (7, 2.32608042708173350000e+001) (8, 2.58609157662459510000e-001) (0, 2.81793759023611590000e+001) (1, -1.06456966921718570000e+001) (2, -3.57074681715299680000e+001) (3, 1.52372060947624370000e+001) (4, 1.69861352800285290000e+002) (5, -2.32984958734917510000e+002) (6, 1.82332028807889870000e+001) (7, 3.54786653594487520000e+002) (8, -3.55976610040950490000e+000) (0, 2.86226785992785930000e+000) (1, 1.72167722428335570000e+001) (2, 6.34557161455476900000e+001) (3, -1.12918135809740270000e+001) (4, -3.91828815802760320000e+001) (5, 4.38440425009415260000e+001) (6, 2.94970333552255770000e-001) (7, 1.65759423212781450000e+001) (8, -1.52050611143379390000e-001) (0, 8.06209372326200650000e+001) (1, -5.15947071599078910000e+001) (2, 8.05253361812006910000e+002) (3, -6.73124846648842780000e+002) (4, 5.66848233996202350000e+001) (5, 4.49752560484041910000e+002) (6, 9.98408287681586870000e+001) (7, 9.22457638596212290000e+002) (8, -2.01462533318436030000e+001) (0, -2.35232764849376610000e+000) (1, 7.19761388268964540000e+000) (2, -7.32262737041481330000e+000) (3, 1.72952648858364920000e+001) (4, -3.48248027551812770000e+000) (5, -1.46585940658279090000e+001) (6, 4.44919903749044290000e+000) (7, -2.31088439393996080000e+000) (8, 1.53628985916341530000e+000) (9, 6.01965740778088290000e-001) (10, 1.43008059757444730000e+000) (11, -3.25097045427952480000e+000) (12, 1.01369025876612520000e+000) (13, -1.79102973219236740000e-001) (14, -3.13397090030016260000e-001) (15, -1.00464930730137110000e-001) (16, 3.16664412213727360000e-002) (17, 5.75689337898923830000e-002) (18, -9.25954564630593670000e-001) (19, 8.55382116278476160000e-001) (9, 1.22566919082261230000e+000) (10, -3.63587483478866210000e-001) (11, 4.46281785623748470000e+000) (12, -1.74206484036086850000e+000) (13, 3.28788133538339760000e-002) (14, 1.36071367993078000000e+000) (15, 1.27849138240579960000e-002) (16, 1.14647454247059600000e-001) (17, -6.63834499148156090000e-002) (18, 9.01815818730694050000e-001) (19, 3.64934200480809660000e-001) (9, -2.94360058616591150000e-001) (10, -4.08787312405941070000e-001) (11, 2.12359257662622270000e+000) (12, 4.26934737340922340000e-002) (13, 5.80189882141323100000e-002) (14, 1.46726585851464840000e-001) (15, -1.00743765270550470000e-001) (16, -2.83879112455355520000e-001) (17, 9.21821471306528690000e-002) (18, 1.13852569650162900000e+000) (19, 5.76992713160593860000e-001) (9, 1.00155185638536310000e+000) (10, -9.88014150053722170000e-001) (11, 6.05784256462416070000e+000) (12, -3.08779425255691060000e+000) (13, -1.37069758184308030000e-001) (14, 9.36580198919552460000e-001) (15, 1.40126419660726230000e-001) (16, 4.70759282963036930000e-001) (17, -1.61083315513275980000e-001) (18, 8.34524834590382960000e-001) (19, 8.45898887380650890000e-001) (9, 1.51733084690748420000e-001) (10, 4.41183238409948500000e-001) (11, 2.44571655536267030000e-001) (12, 1.39677283899384190000e+000) (13, 4.57988443339420960000e-001) (14, 8.33431023871546880000e-001) (15, 1.42749859682794090000e-003) (16, -8.70600871683473890000e-001) (17, 1.27506173623987670000e-001) (18, 6.16680739219312210000e-001) (19, 7.56584647748461010000e-001) 
